{"layers":[{"0":{},"1":{},"2":{},"3":{},"4":{},"5":{}},{"0":{"bias":1.4364603248603798,"weights":{"0":5.582528448101632,"1":0.9522793975405126,"2":-1.5585614026688352,"3":-3.603341900347303,"4":1.9684267139721903,"5":-3.4187146645941286}},"1":{"bias":-2.0147495552071515,"weights":{"0":0.4367950975758549,"1":2.542604321537558,"2":-0.8257822892868627,"3":-2.0452169246279963,"4":-0.11844990622948334,"5":5.166268999002854}},"2":{"bias":-0.07069286990367747,"weights":{"0":-0.9691317464177233,"1":-0.34219455173784963,"2":-0.4026125363860084,"3":-1.2130390086626746,"4":-0.3403678652672334,"5":-1.8407489538880932}},"3":{"bias":-2.0545448388573466,"weights":{"0":1.6561443673798817,"1":-0.2670469310090747,"2":0.4209877366662403,"3":0.22554555404298882,"4":-1.9276152022699806,"5":3.5312967398023494}},"4":{"bias":-0.7082396769341522,"weights":{"0":0.26648744093961785,"1":-0.8085971987576723,"2":-1.2616315364737667,"3":-0.7685953413831397,"4":-0.26086039005135364,"5":1.8735674597930714}},"5":{"bias":1.0306810653310592,"weights":{"0":0.3369755403637076,"1":3.107374751141416,"2":-2.106008967757275,"3":-0.8120495135866007,"4":-0.13872394160548848,"5":-3.075281130221139}},"6":{"bias":0.7770553224323886,"weights":{"0":-0.8478918540542084,"1":0.4328906485636836,"2":-1.3698147388044208,"3":-0.5145563318828801,"4":-2.635094077621121,"5":-2.782372335113004}},"7":{"bias":-0.19159865389866806,"weights":{"0":-0.4178265889353075,"1":-2.337644527188223,"2":-0.03439437441133184,"3":-0.06107958234694773,"4":-1.371336218190563,"5":-1.321612365683325}},"8":{"bias":0.30541192740001455,"weights":{"0":-0.797714992021459,"1":-0.9718604608342871,"2":-0.8086482658489113,"3":-0.3227050895106591,"4":-2.0174693618967052,"5":-2.385662306096529}},"9":{"bias":-0.6056275146087966,"weights":{"0":0.08973112373788344,"1":0.535216500416065,"2":-1.2804918049886096,"3":-0.8239871407122632,"4":-0.3684797080908629,"5":0.6744413447432056}},"10":{"bias":1.4448271916394075,"weights":{"0":0.8134374937471106,"1":2.3491673927691177,"2":-1.8162914140632633,"3":-3.006089675685216,"4":-1.0407832705320084,"5":-3.5991790156469308}},"11":{"bias":-0.460453398301846,"weights":{"0":1.1662789732579022,"1":0.4841811652149734,"2":-1.461930237012344,"3":-1.1408233083750021,"4":-0.24695523059577906,"5":1.5605536559833917}},"12":{"bias":-0.3012189191829644,"weights":{"0":-0.6646790006290839,"1":0.5557462967445383,"2":-0.5506307933944015,"3":-1.2665731618145237,"4":-0.2099139765779248,"5":-1.1892832436017868}},"13":{"bias":0.021665110831718525,"weights":{"0":-1.0253185187614902,"1":-0.5708037244436246,"2":-0.661076187580151,"3":-0.6456895332390146,"4":-1.1738750326634746,"5":-2.084045636457627}},"14":{"bias":-1.4869226280271706,"weights":{"0":0.6219989622504406,"1":5.208302688282323,"2":1.6120205667935876,"3":0.230279734895895,"4":-4.239074899224993,"5":-2.777624824871614}},"15":{"bias":1.4421410003576356,"weights":{"0":0.6376394747339464,"1":2.0344478156172583,"2":-2.0389881644337837,"3":-1.8137824182291877,"4":-2.221236087898499,"5":-3.6983349142186888}},"16":{"bias":-0.641950943042191,"weights":{"0":0.9227495319010535,"1":-0.9188959438478297,"2":1.2222883656808603,"3":-0.02128924494838663,"4":-1.3313629733453891,"5":-1.7489229712193348}},"17":{"bias":0.1871281212911458,"weights":{"0":-4.75217702217732,"1":-2.4605679587966356,"2":0.987848648320619,"3":-4.0703396017970865,"4":4.41044232979493,"5":-2.243842304126401}},"18":{"bias":0.22610719512440006,"weights":{"0":-2.2969496089461936,"1":-1.2504548966359545,"2":0.7935281125998813,"3":-1.7040851570792221,"4":0.8721883518314575,"5":-1.545302456711108}},"19":{"bias":-0.35009166015919013,"weights":{"0":-2.2497624108774463,"1":3.125226904273172,"2":2.6628881024550446,"3":-1.863864622751647,"4":0.5212772011357202,"5":-2.000090591217661}},"20":{"bias":0.9062944899375338,"weights":{"0":-1.6231952440541473,"1":0.2542712667832411,"2":3.243508695867939,"3":1.66489779427767,"4":-8.602898025754909,"5":-3.500026811649719}},"21":{"bias":-2.229122718269324,"weights":{"0":1.9432684897525347,"1":-1.2948575651511842,"2":0.6548166387622659,"3":0.6401426527663836,"4":-2.0962165304950595,"5":2.788701873252913}},"22":{"bias":-1.775529459581211,"weights":{"0":-0.6060824629091002,"1":5.84769837854717,"2":0.920948647461639,"3":1.074267901566351,"4":-3.8234576938990514,"5":-1.5304236656094585}},"23":{"bias":-0.1712901621102705,"weights":{"0":-1.1160544959276502,"1":-0.7913525193477977,"2":-0.719184164468247,"3":-0.3645728823533998,"4":-1.9359603916349195,"5":-1.6379953434632808}},"24":{"bias":-0.13223529048604388,"weights":{"0":-0.7987972000510398,"1":-1.171660988724367,"2":-0.5317159082502225,"3":-0.3239741065513885,"4":-1.490665768055382,"5":-1.7781230619517028}},"25":{"bias":-0.2497303773948038,"weights":{"0":-1.405080599650042,"1":-0.20622669270090058,"2":-0.34004523964319133,"3":-0.8168952640063117,"4":-0.42525944953364975,"5":-1.5304318380255675}},"26":{"bias":-0.46840680435066795,"weights":{"0":-1.2575473832576718,"1":-0.27622450706660606,"2":0.7934158489842253,"3":-0.721129324926473,"4":0.14694045886393714,"5":-1.113260212493405}},"27":{"bias":-0.052460614396127134,"weights":{"0":-0.787774908861419,"1":-1.326789439808173,"2":-0.08912303521709904,"3":-0.1910074609295443,"4":-1.6693480615247012,"5":-1.9970881064117814}},"28":{"bias":3.0800271432523565,"weights":{"0":0.6412934588715703,"1":1.8376829302643012,"2":-3.0193937753558604,"3":0.2377363912592015,"4":-6.5297438293545325,"5":-2.7573403048778307}},"29":{"bias":0.4370161163069177,"weights":{"0":-0.6358392203426594,"1":-2.34711047505804,"2":-0.21702886074574007,"3":1.1320401790515382,"4":-2.727798060930767,"5":-2.592160984955037}},"30":{"bias":-4.284476875712968,"weights":{"0":5.752461049170853,"1":1.821533417846916,"2":5.334262128671406,"3":1.2346164726428603,"4":-5.299870356746141,"5":-2.393008073810889}},"31":{"bias":0.4076115747928343,"weights":{"0":-1.2606298740081245,"1":-0.6741087055515599,"2":-1.0144983549817679,"3":-0.44415416917572387,"4":-2.229161646842787,"5":-2.4768238489200165}},"32":{"bias":-2.689643622525939,"weights":{"0":1.2493659580612844,"1":0.010250023386322108,"2":0.17582222743108492,"3":-1.399464097466238,"4":-1.1579639344827732,"5":7.038768204662372}},"33":{"bias":0.5043593887840845,"weights":{"0":0.9089497451020707,"1":4.359123575293016,"2":-2.9635410824655004,"3":-0.7827250239873084,"4":-0.16220279595179327,"5":-2.3017166531675874}},"34":{"bias":-0.7642048506803182,"weights":{"0":-1.684456202011936,"1":-13.778715390394513,"2":-1.9545065176488547,"3":13.51421533537645,"4":7.997382877329019,"5":0.4819572449940225}},"35":{"bias":1.9633099830217695,"weights":{"0":3.495763634418885,"1":5.097159673745225,"2":-0.41450765289741714,"3":-4.812206626273,"4":0.7243363741333374,"5":-5.268483076359191}},"36":{"bias":1.2328395470947062,"weights":{"0":0.835755853944987,"1":2.131469096753915,"2":-2.1606323252420183,"3":-1.7879072326558703,"4":-1.7787685148568295,"5":-3.277735926077626}},"37":{"bias":-0.6163598020169082,"weights":{"0":-0.4947053400386476,"1":-1.1776153604756618,"2":-0.20506855566578197,"3":-0.6543084725294975,"4":-0.5898889762343733,"5":-0.8097189843491385}},"38":{"bias":-0.984432915374559,"weights":{"0":1.0708399557990533,"1":-1.0448492187459815,"2":-1.242730477469225,"3":0.06739010862087577,"4":-0.8071190227062957,"5":2.8775409154758114}},"39":{"bias":-0.7308172679656728,"weights":{"0":-0.09382219121071915,"1":-1.3180196928899046,"2":-0.5422118587534321,"3":-0.6577340154587048,"4":-1.1032924520406024,"5":0.05894450446968414}},"40":{"bias":-1.1966989775471069,"weights":{"0":2.8992352576247336,"1":-3.508593915801044,"2":-0.4735289366497637,"3":-0.013174958995132859,"4":-1.2381328417633628,"5":5.2276473586984835}},"41":{"bias":-1.2042561093230293,"weights":{"0":0.1719855021841165,"1":-6.106581185425372,"2":1.539894116841529,"3":1.1797517553917558,"4":-0.7628262566194512,"5":3.842650640379772}},"42":{"bias":-1.370006956140392,"weights":{"0":0.1469990590298303,"1":1.7836749561971543,"2":0.048234879685997295,"3":-0.161080626993715,"4":-0.867047463737462,"5":-0.7101165055653699}},"43":{"bias":1.0455665685280304,"weights":{"0":0.543403056304659,"1":2.0950117537248594,"2":-2.0796962158787493,"3":-1.5278576767247487,"4":-1.7958132083770115,"5":-2.953020160141449}},"44":{"bias":-0.6314374069825,"weights":{"0":0.04527551468994901,"1":-1.2269880373510047,"2":-0.7569510390743743,"3":-0.8584921941899553,"4":-0.5952487818576595,"5":0.9038580095561523}},"45":{"bias":-0.6615269835144866,"weights":{"0":-0.2504403957709658,"1":-1.1997553505067797,"2":-0.6585380814701756,"3":-0.7480378797738576,"4":-0.822469963086798,"5":-0.11736098298966054}},"46":{"bias":-2.443868079621938,"weights":{"0":2.536738181345005,"1":2.8303713845304994,"2":1.5339354905821767,"3":-0.7549274852824213,"4":-1.5876291398422966,"5":-3.2140289421262795}},"47":{"bias":0.2614025799645178,"weights":{"0":-0.5805390859988423,"1":0.8449535832039636,"2":-0.9998061424564633,"3":-1.0724036405899016,"4":-0.7400749420022459,"5":-2.025802047322848}},"48":{"bias":-6.000902876067134,"weights":{"0":4.340769159813545,"1":2.189234739556114,"2":6.6313841946245295,"3":4.964215181959755,"4":-7.8624228444459066,"5":-7.748537498669946}},"49":{"bias":-0.23289087896335753,"weights":{"0":0.2176093122535322,"1":4.171638703648846,"2":0.33039113694748573,"3":-0.501923403518565,"4":-1.230711225643535,"5":-3.3591087409527893}}},{"0":{"bias":0.4686720511239555,"weights":{"0":0.18222628611958705,"1":0.9944934417086491,"2":-0.6756294962354443,"3":1.1209839876634968,"4":-0.05706229989117127,"5":-0.6444383031578066,"6":-0.6589497404370209,"7":-0.214042376876166,"8":-0.6260382594121738,"9":-0.08185304345277539,"10":-1.4084037150644309,"11":0.11657998030614335,"12":-0.42274289220794636,"13":-0.43923382451072646,"14":0.14145176857020103,"15":-1.5724368338421957,"16":0.19107762289516375,"17":-2.2127454139937797,"18":-1.0285375912716352,"19":0.6827077603056826,"20":1.1328050569117256,"21":0.45413129332237023,"22":0.39452194584732486,"23":-0.2863011754696068,"24":-0.3283915638326087,"25":-0.48642598500855544,"26":-0.31589004865952647,"27":-0.09529408453335896,"28":-2.0078480625392134,"29":-0.05427956708797151,"30":0.8516154757434373,"31":-0.5681568475052692,"32":0.715319385759254,"33":-0.7645327779355635,"34":-1.1662283122250252,"35":0.6794074849088765,"36":-1.5377279190538296,"37":-0.33240504361376216,"38":0.1032548003100655,"39":0.001992133716241367,"40":-0.14059238354246237,"41":0.05002266743492203,"42":0.3836251037904511,"43":-1.2205100979785486,"44":-0.2054390605154293,"45":0.011072565563173268,"46":0.722755721984229,"47":-0.6901577785309265,"48":1.3497804472027806,"49":0.5900804666954138}},"1":{"bias":-0.5443861925210892,"weights":{"0":1.0642748570430864,"1":-1.8330234832897783,"2":0.3441868032484052,"3":-0.9233493467840057,"4":-0.38768958452806296,"5":0.49687600605200755,"6":0.385933287127559,"7":0.6276225155082142,"8":0.5420170832565999,"9":-0.2592456337092233,"10":0.5412176372044522,"11":-0.20206814858150773,"12":-0.04322869080991201,"13":0.5564921023548061,"14":-0.3446651102981015,"15":0.6764289193865165,"16":1.1277895622436984,"17":-1.1912161042493485,"18":-0.17436564162197205,"19":-0.398633194131146,"20":2.928749827909519,"21":-0.5178158203186799,"22":-0.6427740281113693,"23":0.413959734545164,"24":0.5272849469746432,"25":0.15827956399377754,"26":0.2960679684819525,"27":0.8281124424176157,"28":-0.21202923305172613,"29":1.2334740742619048,"30":-0.8046699605918379,"31":0.6061402778590822,"32":-1.8760368976270985,"33":0.3200495678363672,"34":-3.646853835073988,"35":1.2799987771101768,"36":0.43039955597408636,"37":0.09075009659910194,"38":-0.6528089446827854,"39":0.056988818158142864,"40":-0.08305027648852929,"41":-0.6908316440989286,"42":-0.26839489002756645,"43":0.3186037474976342,"44":-0.12033238703572724,"45":0.20255148811535809,"46":-0.5084651409714708,"47":0.25394974109704704,"48":2.7424428472339555,"49":0.04269082012403682}},"2":{"bias":-0.28393690542209427,"weights":{"0":-0.3529942228997852,"1":-0.5147010431776974,"2":-0.0008757100955149788,"3":-0.33622312044834446,"4":-0.25937701448765244,"5":-0.12925258913122092,"6":-0.01471079507716611,"7":0.21425198961197858,"8":0.1883822407586746,"9":-0.05212320208770888,"10":-0.19833994869964588,"11":-0.28069803480309163,"12":0.0076789605692511535,"13":0.05967329372161501,"14":-0.368810064757744,"15":0.004327606776558397,"16":-0.043321195954291264,"17":-0.3462093133625623,"18":-0.053406530473655664,"19":-0.16066104037782447,"20":0.5004065369881451,"21":-0.16012211468551005,"22":-0.313776883285532,"23":0.11863937675263214,"24":0.09969246977505632,"25":-0.07397912418476421,"26":-0.19558999578427685,"27":0.009444914499464285,"28":-0.3361787673047215,"29":0.3412878750426338,"30":-0.6859701073326993,"31":-0.07932664988424809,"32":-0.49296473487842224,"33":-0.18404024809997874,"34":-0.7506122365499192,"35":-0.21219017861318157,"36":0.04706601185243474,"37":0.12244984988906751,"38":-0.2311394523149603,"39":-0.09011659474678033,"40":0.06472787090779986,"41":0.016850407638119146,"42":0.03616993118590737,"43":-0.01961157381057545,"44":-0.09477883363771017,"45":-0.058719975710123364,"46":-0.0024886202066016507,"47":-0.14674516517050526,"48":1.0976242737538766,"49":-0.0035785592814831075}},"3":{"bias":-0.6763782950398913,"weights":{"0":-0.3175583954883705,"1":-0.19007938191782478,"2":0.04211294788272571,"3":0.5399411749574414,"4":0.9776855458751194,"5":-0.6323027670958944,"6":0.2772999992755158,"7":0.5654780843381118,"8":0.3884157994343104,"9":0.025677882813409426,"10":-0.1791648155399566,"11":0.3426987004111296,"12":-0.14283424462933064,"13":0.09426496453791114,"14":-1.898660743925109,"15":0.15190465123647307,"16":0.08683335997438572,"17":-1.2823355046861802,"18":-0.5423782459843944,"19":-1.7899139198109801,"20":1.2463901187606343,"21":0.9539581131301708,"22":-2.446961314143749,"23":0.5107913999873335,"24":0.48313741414819855,"25":0.10939985915584856,"26":-0.622177253917389,"27":0.06200098735005788,"28":0.3914666070386579,"29":0.42803254819064435,"30":-0.8570816406558626,"31":0.4186213752822755,"32":0.5769679069525807,"33":-1.1339163383062052,"34":-2.041365918383837,"35":-0.5754047285096565,"36":-0.026544111746312226,"37":0.2920794690514154,"38":0.945020947228972,"39":0.4179076437996718,"40":1.9149107212725902,"41":2.149158167879726,"42":-0.6540874747128378,"43":-0.056406031529727195,"44":0.848221258122145,"45":0.6405856338049573,"46":-1.0089910326918194,"47":-0.081057353362495,"48":1.2817696758067008,"49":-1.7229911914783327}},"4":{"bias":-0.2588228717296908,"weights":{"0":-0.12042830752633514,"1":-0.4196858030855593,"2":-0.18282411136745075,"3":-0.24751359981349413,"4":-0.13367756282377574,"5":-0.13604203356035127,"6":0.13514481676062357,"7":0.18086742909738485,"8":0.16925949680925612,"9":-0.03596419299493507,"10":-0.20521128895155932,"11":-0.02061521497082148,"12":-0.12083453991882832,"13":0.08674127648504973,"14":-0.19685792944030123,"15":-0.2531363523206646,"16":-0.14431235778843043,"17":-0.2525318083318158,"18":-0.24134742071039123,"19":-0.08117718329844528,"20":0.15901464094652035,"21":-0.16182718092772017,"22":-0.06888515364248521,"23":-0.08763210319110039,"24":-0.16393745085995692,"25":-0.16169791818518975,"26":-0.16797731001823693,"27":0.11326335678498006,"28":-0.347091798382896,"29":-0.03224136041215686,"30":-0.4887114682802525,"31":0.002838418726871965,"32":-0.3249257352730931,"33":-0.25621291863366585,"34":-0.044594945196459755,"35":-0.3499694188115648,"36":-0.30701855070220013,"37":-0.0336988625651576,"38":-0.31308500076274987,"39":-0.09881912031385193,"40":-0.30743172117623585,"41":0.1682208800832178,"42":-0.14554321748619126,"43":-0.06448317080214515,"44":-0.07515590384721964,"45":0.005659814574640889,"46":-0.16116523534454524,"47":-0.06187364070678151,"48":0.8106235996909805,"49":-0.2294760657988143}},"5":{"bias":-0.16318977400001025,"weights":{"0":-0.26677921536304766,"1":-0.47129327646906083,"2":0.15222755731469875,"3":-0.5845036341725217,"4":-0.2303201243726756,"5":0.17729355000956637,"6":0.5982002338597764,"7":0.5389123470574732,"8":0.5082238843648147,"9":-0.2449452039072831,"10":-0.04106217199955606,"11":-0.31318174270012267,"12":0.12365485479806859,"13":0.41428799171282843,"14":-0.19363061786645558,"15":0.2791795562458628,"16":0.008877103443205338,"17":-0.886867262424807,"18":0.22368725806145018,"19":0.05353725005010473,"20":1.9714999085553522,"21":-0.37630713278874867,"22":-0.27791751662889447,"23":0.44947846939153013,"24":0.22086727749112914,"25":0.17332706195219838,"26":0.1890467391068437,"27":0.25487873251513515,"28":0.057296602531001474,"29":0.7904135065156125,"30":-1.3559808441830665,"31":0.5921394285859506,"32":-0.770819187313427,"33":0.24281183725962113,"34":-2.375229716228759,"35":0.3530170264550376,"36":0.25173270121381375,"37":0.1931331646013178,"38":-0.004741416446246757,"39":0.3114661097580742,"40":-0.11818853779416118,"41":-0.3275643222406728,"42":-0.11791773780314785,"43":-0.007502729439244203,"44":-0.22129044965688668,"45":-0.030501739085910515,"46":-0.48413387638059874,"47":0.03570117215608642,"48":2.386066862696242,"49":-0.024050827052389}},"6":{"bias":-0.1255930421905779,"weights":{"0":1.3772271697400582,"1":0.007613154113425558,"2":-0.6888960972955517,"3":-0.013590027396715368,"4":-0.18270992519704307,"5":-0.9685286615086265,"6":-0.6972712260558548,"7":-0.04462786255533614,"8":-0.44809750650026114,"9":-0.2599573756118059,"10":-1.0053694596983869,"11":-0.07491659860545177,"12":-0.31348819338981915,"13":-0.3241892070359601,"14":-0.29085397203373003,"15":-1.0374861643399051,"16":0.3326975969967802,"17":-1.114426101885839,"18":-0.6807937974574061,"19":1.274737957988291,"20":0.842633354370063,"21":-0.7640081514600199,"22":-0.5509738839857135,"23":-0.10293699632485909,"24":-0.2226819792791227,"25":-0.1957635685575274,"26":0.11313378003947296,"27":-0.3059059425910823,"28":-1.35529328621441,"29":-0.12448924828072706,"30":-0.7871182104530111,"31":-0.43674059390425035,"32":0.05526979871644214,"33":-1.1247834004039803,"34":0.1791742155748812,"35":1.8944794724591378,"36":-0.9918759785415513,"37":-0.22547819998471344,"38":-0.25740931850909365,"39":-0.15989261359124243,"40":-0.8137665527270632,"41":-0.41014002066401184,"42":0.018260184302606113,"43":-1.02006012147586,"44":0.009867143339034918,"45":-0.3170193635704477,"46":0.586322627741058,"47":-0.7203947474860889,"48":1.1945328733795784,"49":0.4577049736521399}},"7":{"bias":-0.8608782020545788,"weights":{"0":-0.2963073786726755,"1":-1.4238666386285748,"2":-0.08838256878850628,"3":0.0629857506417048,"4":-0.03070107191750829,"5":-0.564426487814626,"6":0.3337574628714676,"7":0.8423098474392664,"8":0.3259852538007712,"9":-0.33789757087663796,"10":0.39957514532556543,"11":-0.2154933975710992,"12":-0.18756465320666452,"13":0.3272338848975902,"14":-1.4447264827110018,"15":0.38772964292415535,"16":0.5534717184239314,"17":0.12122767988577561,"18":0.2470237484954246,"19":-1.2279489035362376,"20":0.8239969512571118,"21":0.8623553718257024,"22":-2.1281575085826603,"23":0.2800236681590609,"24":0.3270508325139016,"25":-0.04852733789493775,"26":-0.22396214400894007,"27":0.5554823346671588,"28":0.6495614372018167,"29":0.8536858325482973,"30":0.4577075628184298,"31":0.35740632741075806,"32":-0.7968583929858027,"33":-1.1146133937429215,"34":1.371997370542876,"35":-1.4323913742426178,"36":0.2479247178734908,"37":0.35330055410475375,"38":0.08160951335315696,"39":0.31431363770980925,"40":1.2106265601559527,"41":2.406042585273427,"42":-0.5800813061394585,"43":0.07445922949270055,"44":0.3281498711815362,"45":0.3192179045859337,"46":-0.5924006160974064,"47":-0.11018994512158616,"48":1.0751572973529557,"49":-1.3289765460175922}},"8":{"bias":0.0514892786555464,"weights":{"0":-0.8389180845066322,"1":0.5898763451674132,"2":-0.0445358634962452,"3":0.7606492501587344,"4":0.6777859052534697,"5":-0.2655121869364053,"6":0.10115577389930756,"7":0.21539576309698963,"8":-0.03787840305516477,"9":-0.015477013372419484,"10":0.3085849023752145,"11":0.6204399919733636,"12":-0.08446627233140656,"13":0.14210471450291184,"14":-1.313241322482261,"15":0.12020376710834271,"16":-0.2802546013568155,"17":0.06796941336019924,"18":0.051522925044833925,"19":-1.164680142583453,"20":0.0017858881460343994,"21":0.9155353750592293,"22":-0.9269289951839675,"23":0.08635617121829071,"24":0.11207028991262578,"25":0.049288011643913575,"26":-0.3382757261131955,"27":0.2727244320859838,"28":0.15845852336182717,"29":0.4497868526452277,"30":-0.6602660261364707,"31":-0.01884604448560788,"32":1.0559654207229578,"33":-0.16313286532786167,"34":1.207376630452677,"35":-1.3739119925782708,"36":0.2762893259703473,"37":0.3682154810648401,"38":0.9283461957616225,"39":0.39998122202804576,"40":2.0594788065262737,"41":1.4376638758725304,"42":-0.2281545852183269,"43":0.22376729102876794,"44":0.4042488066853738,"45":0.28654652792937674,"46":-1.1749401998604168,"47":-0.09478329542643357,"48":0.014034594125555756,"49":-1.2203833842537803}},"9":{"bias":0.2769321508843258,"weights":{"0":0.632824219805585,"1":-0.8844618645277571,"2":0.16296582756850805,"3":-0.5189183446125111,"4":-0.28040856229690064,"5":0.5446544676124198,"6":0.3677690437667863,"7":0.5412788329795373,"8":0.3930043871418021,"9":-0.3050095207417107,"10":0.030748929834699037,"11":-0.34756050333581234,"12":-0.11644497896932944,"13":0.5321842555101329,"14":-0.33009311888331383,"15":0.1359094333325958,"16":0.44092848656567685,"17":-1.0339495682926882,"18":0.180515619088216,"19":0.20874841292540608,"20":2.867957618334542,"21":-0.6751515307779048,"22":-0.33658952395429476,"23":0.4521627140937247,"24":0.4767575965964537,"25":0.13981643416090989,"26":0.31626722963398174,"27":0.6869334485189293,"28":-0.5943544972051708,"29":1.0634110567565345,"30":-2.4701852370429274,"31":0.4929352606900134,"32":-0.93365782325855,"33":0.7418664542512723,"34":-4.084428941361458,"35":1.3040800033094635,"36":-0.037898401693013714,"37":0.26826595060400554,"38":-0.38890452715896306,"39":0.14386474687238762,"40":-0.17046512716565548,"41":-0.5942776854394697,"42":-0.5196833076654307,"43":-0.008173071643908372,"44":-0.38458700779968774,"45":-0.005913038487925534,"46":-0.9004821301672223,"47":0.10594773619331922,"48":2.827448767100576,"49":0.5015950574374013}},"10":{"bias":-0.5244545861715773,"weights":{"0":-0.5468006460563472,"1":-0.5023895562161345,"2":0.0533585547735245,"3":-0.006071753240641608,"4":-0.050226555327475914,"5":-0.1961520617586207,"6":0.06863462898985796,"7":0.21200805838160242,"8":0.2238806309127733,"9":0.02334029562259821,"10":-0.019638057218917742,"11":-0.09291164232353266,"12":-0.1751590107566785,"13":0.0798950407876388,"14":-0.5815805693595937,"15":0.15330861170685517,"16":0.12358832821475538,"17":-0.40234174490292607,"18":-0.2855918579328747,"19":-0.40260934614582045,"20":0.7974520848866552,"21":0.11474275036937022,"22":-0.38155827968203554,"23":0.19192989422272377,"24":0.23016861581423032,"25":0.13081814153862809,"26":-0.28103497119874565,"27":0.16978516302968968,"28":0.12067676742427898,"29":0.28218040162726793,"30":-0.016679967368302108,"31":0.33486706772113073,"32":-0.5805143318704702,"33":-0.09096961731176176,"34":-0.19298909297698408,"35":-0.44650902489359084,"36":-0.04529015202466333,"37":-0.016107778949827338,"38":0.1727286716077233,"39":0.1988039355681653,"40":0.12282006109371922,"41":0.21663057301769936,"42":-0.24510029692596333,"43":0.12111360173732859,"44":-0.1857996453763593,"45":-0.03031799853772477,"46":-0.42247051915426087,"47":-0.13075021837269304,"48":1.1969095839538626,"49":-0.43807770409710406}},"11":{"bias":-0.18532309341615888,"weights":{"0":-0.37647205807096035,"1":-0.48712001884095174,"2":0.12750122501336003,"3":-0.25919829180383636,"4":-0.2690101628479555,"5":-0.10579269129317452,"6":0.045393323253333305,"7":0.23521195493258984,"8":-0.07629266962989105,"9":-0.057120330358816855,"10":-0.05942281461369221,"11":-0.25322127571661296,"12":-0.21284587656632276,"13":0.17419005816529454,"14":-0.40034167082719196,"15":-0.12729707950873556,"16":-0.1385293654960417,"17":-0.15531716965648878,"18":-0.13161996679075358,"19":-0.22881256071898262,"20":0.39855910893984875,"21":0.053868386101127166,"22":-0.3833525711812765,"23":-0.01898030123992132,"24":-0.1412413141233542,"25":0.15599353244370012,"26":0.11509942708825802,"27":-0.07383879661785155,"28":-0.1276909937191676,"29":0.21464710529685158,"30":-0.2454122606154143,"31":-0.09618400320278109,"32":-0.3258187921161691,"33":-0.13595614390401106,"34":0.16973128296859144,"35":-0.4584477787662586,"36":-0.1686258470662918,"37":-0.0961714761154386,"38":-0.00845444745829471,"39":0.13138979684351138,"40":-0.15620398085850343,"41":0.07206853861795015,"42":-0.18830914875522875,"43":0.01300235311846578,"44":-0.2269937673112577,"45":-0.23362498510759924,"46":-0.1736141974615624,"47":0.10800910935953206,"48":0.5382322782385139,"49":-0.19042325474539576}},"12":{"bias":-0.5678595558431071,"weights":{"0":-0.7087330863849968,"1":-1.085217075222519,"2":0.03541590080722548,"3":0.0177759710097125,"4":-0.17111575667501858,"5":-0.19624055491415823,"6":0.4869552505414132,"7":0.38286839656956617,"8":0.5024841726578148,"9":-0.42507715172515015,"10":0.30857151364690405,"11":-0.4442658742765495,"12":-0.05565696155918282,"13":0.16122449896551141,"14":-0.8066821677781133,"15":0.4698546159898105,"16":0.17879337752595437,"17":-0.46847878878810323,"18":-0.12000880509515817,"19":-0.9060929578115492,"20":1.0031452198788664,"21":0.6009413088591398,"22":-1.1012755562180916,"23":0.4096443155004283,"24":0.41253039182162926,"25":0.14201426946604795,"26":-0.2577164982844255,"27":0.3645490911958082,"28":0.8062548645377634,"29":0.7711015033237157,"30":0.6270118254279103,"31":0.2751100884642565,"32":-0.7526798305958203,"33":-0.5601416587592842,"34":1.1393589268937803,"35":-1.5373441464880442,"36":0.2677950376988916,"37":-0.05756722074542881,"38":0.1592152197222136,"39":0.17695630815370172,"40":0.567557190603152,"41":1.1682922682276535,"42":-0.11440921670958759,"43":0.23584665671857238,"44":-0.16840610410414458,"45":-0.15382404317700393,"46":-0.5996626125318241,"47":-0.019883395522205718,"48":1.3002487400283687,"49":-0.6593996472724505}},"13":{"bias":0.19476324615781157,"weights":{"0":-2.032716666437208,"1":-0.7885195045945536,"2":-0.012697252335053923,"3":0.05904767084478166,"4":0.0768308960040269,"5":-0.9942402419808608,"6":0.21190837169690815,"7":0.6071132832015056,"8":0.19904272204786339,"9":-0.5924574139881367,"10":0.09383193363584823,"11":-0.7874307488601359,"12":-0.08306664047169153,"13":0.07042886993330505,"14":-1.6549526115795428,"15":-0.11021536667075423,"16":0.2499496735606535,"17":0.6990159405654561,"18":0.42293387344334776,"19":0.4774166845331824,"20":0.2414354919299314,"21":0.3525921757359924,"22":-1.3603482241485105,"23":0.3206177119090019,"24":0.33480229328977706,"25":0.09899332972500262,"26":0.04799080872399163,"27":0.4267014792400802,"28":0.18064362675921802,"29":0.7022978226009301,"30":-0.31120616308614263,"31":0.38667911232570107,"32":0.028192358426198872,"33":-1.852805121191572,"34":3.1450385684952136,"35":-2.518231726146222,"36":-0.23745001471097277,"37":0.3311799017596444,"38":-0.18561932864841876,"39":0.15249922025530366,"40":0.6364568100727623,"41":2.7662289403891656,"42":-0.6076212593863005,"43":-0.15653840583840048,"44":0.08076220225835051,"45":0.09602133086777513,"46":-0.8995320019607217,"47":-0.07168395228784828,"48":0.6414492102629742,"49":-1.3404553573746598}},"14":{"bias":-0.13092542859700412,"weights":{"0":-0.10711857704007534,"1":-0.022865090286490527,"2":0.004900888658288789,"3":-0.3072484035424258,"4":-0.04746053407709637,"5":0.25023591942062207,"6":0.13200833248394328,"7":0.1722304203592733,"8":0.18627051612699141,"9":0.06679741115447928,"10":0.010320109238566206,"11":-0.10034035714511096,"12":0.09099203078803407,"13":0.04721809503525759,"14":-0.05277582054047648,"15":-0.2123967013035013,"16":0.04541296864918162,"17":-0.5793952487134962,"18":0.11375749909136801,"19":0.05969002098706442,"20":1.0475371624200673,"21":-0.46592633853419363,"22":-0.030370932305264393,"23":0.014214452793886154,"24":0.26421704872765744,"25":-0.041365934547627846,"26":-0.12797211881097714,"27":0.13096935064798051,"28":-0.4316273808932553,"29":0.21789739391994967,"30":-1.6539677868165434,"31":0.2118862348117214,"32":-0.30586461312013097,"33":0.5664054804975759,"34":-2.367484972840161,"35":0.346858305763968,"36":0.11212860118022339,"37":0.1099589463749215,"38":-0.21279128807238623,"39":-0.19120610212977163,"40":-0.2899054947779485,"41":-0.5863975649291039,"42":0.007954739798184252,"43":-0.05748215972925235,"44":-0.17653030046326287,"45":-0.27146630632116914,"46":-0.41595516068033006,"47":0.03291498638143997,"48":1.5258125287702378,"49":0.18846410277785766}},"15":{"bias":-0.23532187419298597,"weights":{"0":1.1272831463971764,"1":-0.21335661197692796,"2":-0.41800293751180806,"3":0.11175325480448363,"4":-0.047936382597077665,"5":-0.6164942208422348,"6":-0.662342679817164,"7":-0.22735541838314316,"8":-0.4007562055229651,"9":-0.3216622391682678,"10":-0.949514444778765,"11":0.32356124369086026,"12":-0.33935608492695024,"13":-0.4661961695656289,"14":-0.5376058991344681,"15":-0.7783047850923436,"16":0.23923942175821172,"17":-0.7096184196492573,"18":-0.38867689267400335,"19":0.18075738653793388,"20":0.4857508320603225,"21":-0.7153140384655595,"22":-0.7410225593099936,"23":-0.12992787934573954,"24":-0.01945082757932516,"25":-0.16840958075348597,"26":-0.3218376106151606,"27":0.005146538723803284,"28":-1.1843532083799597,"29":-0.11388710136790269,"30":-0.8099273870309843,"31":-0.5039278128655286,"32":0.11435868615692481,"33":-0.6024725395309086,"34":-0.7605138970016598,"35":1.4516838856664442,"36":-0.9619882230673945,"37":0.049522670429301516,"38":-0.3769259074473338,"39":-0.2360823226972803,"40":-0.09898148096532172,"41":-0.0018698944056839489,"42":-0.15409574825490677,"43":-0.9245279552986065,"44":-0.20716964590562975,"45":-0.055325317673403415,"46":0.3327663334678295,"47":-0.6218214282745231,"48":0.9261909761189462,"49":-0.12390433326064539}},"16":{"bias":0.20203054760246156,"weights":{"0":-1.6573648389266868,"1":-0.6674525076180952,"2":0.36473093580644833,"3":-0.13069140623041156,"4":0.2945511581379225,"5":0.5440093504444347,"6":0.3372107984471345,"7":0.37588435612518906,"8":0.19302090325668517,"9":0.2886679095044401,"10":0.8616338944806304,"11":-0.16191889898282308,"12":0.41525733620036015,"13":0.371126298511906,"14":0.5813366770048615,"15":0.8782021623695916,"16":-0.03911547230280274,"17":0.5895605806260484,"18":0.44335036496166275,"19":-0.29124956918308365,"20":0.23933917795711393,"21":0.36324998780537643,"22":0.34105364343378425,"23":0.2587167061974454,"24":0.4107562468845622,"25":0.45546466934622093,"26":0.11420476849346553,"27":0.19160385339868158,"28":0.5931876518654114,"29":0.25584667102879266,"30":-1.0086560848744064,"31":0.4622765503600422,"32":-0.504311685019688,"33":0.6773475320055544,"34":0.07463285290804707,"35":-1.0682574548404584,"36":0.6822581730047226,"37":0.1336733258930281,"38":0.3924994997675483,"39":0.3814538692263562,"40":0.7033164867424891,"41":0.7839014664954769,"42":0.10805005493110495,"43":0.7138558019381845,"44":0.42850889449122354,"45":0.23638210342733562,"46":-0.041118374714971435,"47":0.374798877995406,"48":2.344906878256161,"49":-0.005523645881297003}},"17":{"bias":-0.3849090758285456,"weights":{"0":-1.042183413074787,"1":-0.680219851876053,"2":-0.10369486568383543,"3":-0.4239245058293697,"4":-0.39229417832191343,"5":0.10294677155624901,"6":0.17284759795984156,"7":-0.13808651670256344,"8":0.06870275423311242,"9":-0.3146378213741458,"10":-0.3390988281922105,"11":-0.25557211492088994,"12":-0.2925733643632868,"13":0.027026629004997395,"14":-0.04514196700135121,"15":-0.07485311774556645,"16":-0.06275687738799891,"17":-0.963615618850479,"18":-0.12418784068768328,"19":-0.060534406068949616,"20":1.9162736702272087,"21":-0.2995438832245886,"22":0.08081411474738476,"23":0.16137520138869918,"24":-0.03292519401011046,"25":0.11730554921230689,"26":-0.3022582002576746,"27":-0.09686697860090636,"28":-0.029478845102723934,"29":0.2577654932690452,"30":-0.7353100112652728,"31":0.2273235476715499,"32":-0.843877168741437,"33":-0.11561162291004043,"34":-1.0959324293168924,"35":-0.7208028119293476,"36":0.09782142512069317,"37":-0.27479722708583476,"38":-0.2731764492415072,"39":-0.20713801140727617,"40":-0.5160663112529853,"41":-0.08389260887822098,"42":0.13440530684449026,"43":-0.04101032715824141,"44":-0.26860388956711656,"45":-0.2168751944243395,"46":-0.2313201362700548,"47":-0.13209725380605794,"48":2.7467952869675014,"49":0.2556805917401489}},"18":{"bias":-0.5682630096666619,"weights":{"0":-1.6304205327918537,"1":-0.7987420387273462,"2":0.24157549741752796,"3":0.18287996328957126,"4":-0.32996047111001137,"5":0.02263962145582571,"6":0.49229802990095656,"7":0.2252178363388281,"8":0.4309635425913288,"9":-0.2944467756185767,"10":0.2616852175060981,"11":-0.4565980847437436,"12":-0.21960386737855458,"13":0.18952820685305422,"14":-0.7755271961586263,"15":0.6274810779762732,"16":-0.17401292916812752,"17":0.03517995362048658,"18":0.0904081237537739,"19":-0.5105391318039554,"20":0.6642634627457052,"21":0.5166822753175836,"22":-0.4862102448886571,"23":0.30413468558924994,"24":0.2837402673799445,"25":-0.037613413576121725,"26":-0.16137737330384536,"27":0.07824555685938075,"28":0.5920972776525406,"29":0.6024379804305265,"30":0.3793906320908379,"31":0.4263513861620278,"32":-0.3020418352768931,"33":-0.3937218618969855,"34":1.1707310299548657,"35":-2.1508022564248432,"36":0.4755906961955232,"37":-0.10179342938050745,"38":-0.049152049417655934,"39":0.2506145028589841,"40":0.33625267813477155,"41":1.2439545999483403,"42":-0.16430381638955602,"43":0.3945132603627989,"44":0.09396059235064483,"45":0.13010943876755676,"46":-0.6253132075996402,"47":0.16152353674622877,"48":1.1534505602249265,"49":-0.6265374007280784}},"19":{"bias":-0.2317248114188891,"weights":{"0":-0.48711731535271147,"1":0.14382048200595168,"2":0.11497485037908343,"3":-0.03454732197865433,"4":0.27621455986742083,"5":0.16721725808839305,"6":0.3160028294149471,"7":0.18164766510077476,"8":0.032791607213247434,"9":-0.051120749975868955,"10":-0.0059963813396651374,"11":-0.057290660975301555,"12":0.07703289168638902,"13":0.23014071239391484,"14":-0.7123012277152828,"15":0.16452046921436245,"16":-0.026985714183967578,"17":-0.7008946305694291,"18":0.059845612421956615,"19":-0.5387014273415541,"20":0.22496045099851206,"21":0.15245993009731884,"22":-0.41569127957038254,"23":0.23763149099892508,"24":0.02593077405465883,"25":0.21543661651626866,"26":-0.3308675415259395,"27":-0.1067904158825279,"28":0.14365811573976853,"29":-0.07006164062960804,"30":-1.27282658706379,"31":0.27305008679619175,"32":0.0746819143679795,"33":-0.16443402246447691,"34":-1.1323337952196648,"35":-0.04195383176269958,"36":0.0556563020870355,"37":-0.10568914941436283,"38":0.09639429384372974,"39":0.3073149778152237,"40":0.7663606289162687,"41":0.5347295939084802,"42":-0.02521669801973909,"43":0.15390969193943818,"44":0.3496037463300867,"45":0.18866527094656704,"46":-0.7312429759407117,"47":0.11093101719388837,"48":0.7844501129643812,"49":-0.44338678353712624}},"20":{"bias":-0.07381497647221422,"weights":{"0":0.26131806665759894,"1":0.16430447040736934,"2":0.3446502279960273,"3":-0.05978414542023144,"4":0.12425500533428666,"5":0.05697568847027761,"6":0.4000324032869238,"7":0.136883113583021,"8":0.1249579476425867,"9":0.04192917032128378,"10":0.04222358967989425,"11":0.25746280873799426,"12":0.25046896188554885,"13":0.09780900312548518,"14":-0.572056045974474,"15":-0.08015920666387871,"16":-0.13588833730988642,"17":-0.6734027660691415,"18":0.17044897185888908,"19":-0.2375165561057922,"20":0.11243112931065417,"21":-0.25367842555256975,"22":-0.6342994913349415,"23":0.2656700256551743,"24":0.3804937443235012,"25":0.08109414375165841,"26":0.08149997779137381,"27":0.01009884129265661,"28":-0.17056715033601147,"29":-0.23533720409552675,"30":-1.768034112781704,"31":0.3071224855905751,"32":0.06469030031577581,"33":0.02101989132896639,"34":-3.379974002935541,"35":0.41474023661522874,"36":0.09789390501000135,"37":0.0975129198753946,"38":-0.05591058284742015,"39":0.18888134004756152,"40":0.19704038241091829,"41":0.2837654842531135,"42":-0.12490767191562199,"43":0.14129005175607015,"44":0.2579429836710366,"45":0.323741708445906,"46":-0.7995344207985778,"47":0.3973383531044935,"48":-0.10116844665518585,"49":-0.005790056884303122}},"21":{"bias":-0.053450767395025765,"weights":{"0":0.5208666124248569,"1":-0.671606658969108,"2":0.15887683674759262,"3":-0.35849515183679875,"4":0.148790479112738,"5":-0.015345786909808524,"6":0.11684388044162977,"7":0.13477479634673797,"8":0.5104277085775092,"9":0.09913203023726491,"10":0.07253544755613091,"11":-0.029079278355282113,"12":0.21227452647052727,"13":0.40068026386973066,"14":-0.6436348852433983,"15":0.007931944311274572,"16":0.13310338362227558,"17":-0.5626486497775179,"18":0.08463652031465078,"19":-0.6705909925659197,"20":1.2799280763050997,"21":-0.4992797002989766,"22":-0.5573964179479912,"23":0.19693820342614923,"24":0.36060346898191836,"25":0.2690693334163882,"26":0.014716408145102923,"27":0.41836930558535185,"28":-0.12193747036396642,"29":0.307449807316602,"30":-1.7444323992695858,"31":0.41923252513782916,"32":-0.575056418714664,"33":0.13003335234195534,"34":-4.720172331140937,"35":0.9439174939401425,"36":0.1399450567211728,"37":0.43935819729050407,"38":-0.009162448997156684,"39":0.3680405118101,"40":0.08355906362919341,"41":-0.3203407681004845,"42":-0.6211209237016955,"43":-0.059714231984749705,"44":0.2047378717027833,"45":0.3212673302058333,"46":-0.9795779007478745,"47":0.2007186079613504,"48":0.9811189755911155,"49":-0.3241387466404197}},"22":{"bias":-0.06827628278849712,"weights":{"0":-1.0460754100802254,"1":-0.683076801731179,"2":0.220780376599366,"3":-0.7315728480569218,"4":-0.006243852183437623,"5":1.0040634217582856,"6":0.5801383994663138,"7":0.3212521514355731,"8":0.4784546133418981,"9":-0.01916367787895045,"10":1.0388321083272578,"11":-0.20855244917973428,"12":0.33865248512235835,"13":0.5594498988096267,"14":0.4625138748015099,"15":1.040252775411935,"16":-0.05214803840971334,"17":0.90397542329674,"18":0.4099666650102191,"19":0.5066050858289054,"20":-0.03396498748467847,"21":-0.5492166328446534,"22":0.3851540970746753,"23":0.21760246593262147,"24":0.07742065921752697,"25":0.4768619199202274,"26":0.3578905005563368,"27":0.15975787792788648,"28":1.2128619048680511,"29":0.3299885379008652,"30":-0.37960734242237215,"31":0.6313867231256757,"32":-0.7793928602463539,"33":0.8748816723696662,"34":0.37922576178132694,"35":-1.0733550921074224,"36":1.0679535225674404,"37":0.23419307213532695,"38":-0.2708427404701276,"39":0.02349016016326097,"40":-0.43535330132643035,"41":-0.45249649721332513,"42":0.1596728021803576,"43":0.8285222675952427,"44":0.011479103987552837,"45":-0.028704621329087382,"46":0.34032455751960383,"47":0.45791784968097304,"48":1.0404283701040373,"49":0.5973510567936043}},"23":{"bias":-0.4128955081113886,"weights":{"0":-0.5822336585849718,"1":-0.5333112137348822,"2":0.011753915524835007,"3":-0.11359127727407634,"4":-0.18644171845801094,"5":-0.04809678767010585,"6":0.07819203632166179,"7":0.14045302132028264,"8":-0.02114806894907439,"9":-0.26625854753758194,"10":0.21040808510514966,"11":-0.2688079287793752,"12":-0.022988266382363287,"13":0.2129056947749042,"14":-0.44941726064578347,"15":0.01888901321871934,"16":-0.05758263476613809,"17":0.05477500767096703,"18":0.16363089584799545,"19":-0.2553412275467194,"20":0.6240448464827242,"21":-0.018313500982521016,"22":-0.5333762131468431,"23":0.032193176964253285,"24":-0.06741024915839129,"25":-0.05840818970168833,"26":-0.07096630207158201,"27":0.030949967252520777,"28":-0.005095980420128154,"29":0.30294988830465397,"30":-0.10174640339291972,"31":0.03405751347811152,"32":-0.30039582984880214,"33":-0.10355632428887658,"34":0.20954997197208608,"35":-0.6463778924796955,"36":0.20773503010605673,"37":-0.013364909567056674,"38":-0.13895572648522722,"39":0.15157124299557087,"40":0.11985449783902045,"41":0.4432066766655587,"42":-0.15166371964751332,"43":0.12938189848561454,"44":-0.11705370532824387,"45":0.06185816317054789,"46":-0.15873220730501086,"47":-0.1500617450815072,"48":1.0738962380477648,"49":-0.4008301291457835}},"24":{"bias":-0.4948634955794228,"weights":{"0":-2.1356489894649986,"1":-0.8233362367394426,"2":0.1135615148724149,"3":0.00884210881979589,"4":-0.6630347958795656,"5":-0.3093529108456682,"6":0.7416652232214556,"7":0.23314756108349607,"8":0.3660220671776089,"9":-0.6010814565760777,"10":0.7477882215445357,"11":-0.8123570041307997,"12":-0.2343149764495488,"13":0.023701231840950243,"14":-0.7280517671038751,"15":0.7636766910678648,"16":0.03175485684749421,"17":-0.008134705852051468,"18":0.0172818937645264,"19":-0.09830992982870733,"20":1.3591237059761885,"21":0.5723102139176249,"22":-0.3983376404296193,"23":0.34068447022608667,"24":0.07390721945190999,"25":0.16410137478672682,"26":-0.25131244687998877,"27":0.34643079840547897,"28":1.1183120984926258,"29":0.643735779892175,"30":0.8419767718505987,"31":0.4954565308525203,"32":-0.5919342086185514,"33":-0.5948398864190984,"34":3.5961290423225463,"35":-2.9927721915486125,"36":0.47194469801474614,"37":-0.1374797628214083,"38":-0.46658984848775237,"39":-0.1597726407880277,"40":-0.47392949723262456,"41":1.5037049439234387,"42":-0.1524542386458956,"43":0.6785541051931993,"44":-0.2634804353053627,"45":0.04872184987566355,"46":-0.34666689892407354,"47":0.26051680861887033,"48":1.4468192487550358,"49":-0.6251062489781676}},"25":{"bias":-0.45109223252516806,"weights":{"0":-0.01891437000408669,"1":-0.40993028136592097,"2":0.02396234831233856,"3":-0.23396797906311237,"4":0.30958615467666506,"5":0.19561366317430648,"6":0.26890941171150445,"7":0.24387570966673983,"8":0.25459327775376894,"9":0.1322877224602996,"10":0.052468691820581746,"11":-0.07642347261910701,"12":-0.09807263829859668,"13":0.06605845867753218,"14":-0.5603376786723115,"15":0.14494092005835071,"16":-0.04308390773937009,"17":-0.5323856198631507,"18":0.18557968908352362,"19":-0.4927229232716714,"20":0.778744170162565,"21":-0.1708184543376886,"22":-0.8883571232877374,"23":0.34886164728568203,"24":0.02454454342100378,"25":0.011220886289874154,"26":-0.05692905474534304,"27":0.008164427691998915,"28":-0.15902259432275773,"29":0.17038952519609765,"30":-1.3197223787842893,"31":0.3686496800599754,"32":-0.23728660299134824,"33":0.11278833495057354,"34":-2.2945305172729067,"35":0.24277121680346153,"36":0.18585068736018984,"37":0.18215391021269997,"38":0.3763848067175844,"39":0.2949355866892068,"40":0.41564696660812867,"41":0.14916427669202106,"42":-0.3465810859145971,"43":0.24127086899530503,"44":0.10756552311318714,"45":0.11986875386767422,"46":-0.8073910064009615,"47":-0.06854907924809071,"48":1.072931555506111,"49":-0.21745801230639236}},"26":{"bias":0.6318292572152012,"weights":{"0":0.640990762814993,"1":1.6099738113490654,"2":-0.41109608369695744,"3":1.260299830086118,"4":0.34400375247247084,"5":-1.0173688072345908,"6":-1.101754021511572,"7":-0.36051902495902727,"8":-0.5222064553334136,"9":0.09434137002018844,"10":-1.7733343989696475,"11":0.3859753929607484,"12":-0.27949606558068846,"13":-0.6744899323840232,"14":-0.3043194386897612,"15":-1.701699192717197,"16":0.07858949921591338,"17":-1.7144215178618816,"18":-0.8918964756569171,"19":0.45847125163993635,"20":1.1290147191360647,"21":0.2985918166653973,"22":-0.060858237757449855,"23":-0.4522652182794758,"24":-0.5025729063896912,"25":-0.4240403135601905,"26":-0.029839089579687363,"27":-0.2024211662684314,"28":-2.936403207189545,"29":-0.5162939571208154,"30":0.0789300440797227,"31":-0.7964945618677561,"32":1.1696819822526558,"33":-0.9266630278077355,"34":-1.2109889772730298,"35":1.11065973013253,"36":-1.6347830752142092,"37":0.05242233435045949,"38":0.5334987902617537,"39":0.03306230573824467,"40":0.4635722699093921,"41":0.34182997687475053,"42":0.193305440747541,"43":-1.200584174317042,"44":0.200327559439407,"45":-0.027051382526827625,"46":0.30037404703005605,"47":-0.5874423715000276,"48":1.5321664182598753,"49":0.1327542966484676}},"27":{"bias":-0.45755138567623405,"weights":{"0":-0.16008462602143408,"1":-1.2851011046351308,"2":0.5074921392199406,"3":-1.0761635398242217,"4":-0.15631226332193485,"5":0.9167169964382599,"6":1.0205083214944974,"7":0.17591295870774804,"8":0.7473444426389764,"9":-0.3572720179771886,"10":1.427396220131481,"11":-0.21788232941224472,"12":0.5171281037926007,"13":0.6288948158010508,"14":-0.14676606025093764,"15":1.6089028449456995,"16":-0.17441517688136962,"17":1.2612439781357592,"18":0.5521331669938105,"19":-0.28143716751271103,"20":-1.3658687587623022,"21":-0.7445005482009176,"22":-0.4113429481741998,"23":0.3789121351132737,"24":0.49020323334226035,"25":0.5979057152716397,"26":0.19530929910740444,"27":0.4291239620952481,"28":2.748868879093533,"29":0.6019712742070593,"30":-0.6947556580666489,"31":0.7934311879382481,"32":-1.2064781213826976,"33":1.0842867328841503,"34":1.0458967135187602,"35":-0.8589340314667763,"36":1.606045341148974,"37":0.06097674195942187,"38":-0.3666717312909224,"39":0.1488328474089647,"40":-0.2988317035111067,"41":0.0025632687338729594,"42":-0.5632123534800998,"43":1.502323614446813,"44":0.11968498584497544,"45":-0.06449382285219903,"46":-0.21975368520913505,"47":0.6216379912597908,"48":-1.6573666447523192,"49":-0.3632150878831248}},"28":{"bias":-0.45214116487063855,"weights":{"0":-0.5062935329751368,"1":-0.4347091551102018,"2":-0.2550253709931535,"3":-0.2872783044840706,"4":-0.31209316628034894,"5":-0.15647614447920274,"6":0.22947864931087447,"7":-0.15477789228667854,"8":-0.019663267507310712,"9":-0.0145229570757598,"10":0.05300834669997627,"11":-0.20910453957893335,"12":-0.30107342161034323,"13":-0.1591987101875842,"14":-0.24533877779638905,"15":0.03028523576508094,"16":0.15104621035490046,"17":-0.7935571190308798,"18":-0.1938963020486884,"19":-0.030399758068363335,"20":1.020085601048339,"21":-0.22608687537787034,"22":-0.09997732721571011,"23":-0.1153794366345242,"24":0.09312692243582255,"25":-0.07091330433958283,"26":-0.31099760687419664,"27":-0.1444001528066895,"28":-0.00148075488810661,"29":0.2647671767404247,"30":-0.34434514178563624,"31":0.037883296894384515,"32":-0.5175344712867306,"33":-0.2335204084817749,"34":-0.5421923048983605,"35":-0.4150270746885944,"36":0.16585580445285955,"37":-0.18273231293110462,"38":-0.1366464350009079,"39":0.09811907407867988,"40":-0.03588617417995864,"41":-0.18202659872626303,"42":0.12037324848994013,"43":0.17270593191451905,"44":-0.12358067749280163,"45":-0.08875498816091205,"46":-0.13405441580338257,"47":-0.16086007822554432,"48":1.4261233301035112,"49":-0.01907528887692411}},"29":{"bias":-0.28052197019851177,"weights":{"0":-0.7795178255523518,"1":-0.18490953492567128,"2":0.019185812179902215,"3":0.06726274997728103,"4":-0.13652703476738584,"5":-0.11563011547829775,"6":-0.01666071691582221,"7":0.0181811166565972,"8":-0.12302018391238245,"9":-0.30255744156407144,"10":-0.011061453862153604,"11":-0.12276794446141633,"12":-0.24040997371448478,"13":0.126370206310628,"14":-0.6561290407716639,"15":0.02405635388415137,"16":0.07067713950322337,"17":-0.008615352258128196,"18":0.08345410362310512,"19":-0.33968647484508985,"20":0.10087895930370534,"21":-0.2110672276113071,"22":-0.6397014160839364,"23":0.013746996197090697,"24":0.014473950426195658,"25":-0.16918910973151097,"26":0.08581356028002331,"27":-0.13050920573234587,"28":0.013880635022417254,"29":0.028777469953579576,"30":-0.66464648717285,"31":0.15279295820682937,"32":0.037687184945358235,"33":-0.22497218553164247,"34":0.1390728635207501,"35":-0.3945526659965595,"36":-0.07858875177223935,"37":0.2021952463220427,"38":0.012203100087229427,"39":0.18003450794038142,"40":0.22376256190487653,"41":0.5248194901639569,"42":-0.14834423909094524,"43":-0.13142210532553866,"44":-0.17411806788872938,"45":-0.07354457508567262,"46":-0.3670791921554588,"47":-0.015348818750058078,"48":0.1546525336198615,"49":-0.32818400783228535}},"30":{"bias":-0.4781060085795735,"weights":{"0":1.153947425087909,"1":-0.3183166792694709,"2":-0.442527317784143,"3":0.11061967298013675,"4":-0.012487346397278139,"5":-0.9371445821402457,"6":-0.43928571535021377,"7":-0.10710143345100999,"8":-0.07581184605080805,"9":-0.0679925168171451,"10":-0.9749998410805304,"11":-0.03098906837089269,"12":-0.3348697437490453,"13":-0.13652832317685823,"14":-0.49662138547787593,"15":-0.9980933962489493,"16":0.28372786859926546,"17":-1.0895836024366174,"18":-0.369266588195329,"19":-0.09691567569466554,"20":0.9451955518678475,"21":0.012277720632743726,"22":-0.8328639300968784,"23":-0.006955177423270228,"24":-0.2986914675647986,"25":-0.5097856564756142,"26":-0.3821058158792381,"27":-0.31353779392864023,"28":-0.9951802393729173,"29":0.14983570970564938,"30":0.0019038940006302317,"31":-0.34876320710758973,"32":-0.19539780631039708,"33":-0.9462960310640963,"34":-0.04009705315850181,"35":0.38985455062475394,"36":-0.8859279123853868,"37":-0.37114311998942495,"38":0.08526943288737468,"39":0.05824267518537959,"40":-0.24753686510363496,"41":0.24300074867524663,"42":-0.06803474893728026,"43":-0.6481880744046471,"44":-0.22311969117274927,"45":-0.12928824856077806,"46":0.3909129661545359,"47":-0.523037650266968,"48":1.2428857750849387,"49":-0.06457292506263443}},"31":{"bias":-0.40011953764728514,"weights":{"0":-0.16655424220446394,"1":-0.6086051965047174,"2":0.16293576793936118,"3":-0.28728547234261775,"4":0.007442587389232264,"5":-0.13056336264910648,"6":0.3261561750931498,"7":0.09389482533456014,"8":0.049863045204715364,"9":-0.16085003965975386,"10":0.0721503427035466,"11":-0.04886598659196949,"12":-0.24488967208232398,"13":0.2218227313649083,"14":-0.4350610853369944,"15":-0.1236666268838229,"16":-0.1528141925009328,"17":-0.6759767397552182,"18":-0.04650033056621105,"19":-0.45768182639601224,"20":0.9665286759372097,"21":-0.096918603714301,"22":-0.40662192047091195,"23":0.2054849634054422,"24":0.29901334958535863,"25":-0.02951309336938632,"26":-0.06098038742351981,"27":-0.017040884565605086,"28":0.11566272821799861,"29":0.4153563227693147,"30":-0.5610742864427808,"31":0.30241640414088833,"32":-0.5392597878303899,"33":-0.2156966775228544,"34":-1.0208585167854867,"35":-0.4100302797275144,"36":-0.13985986264620556,"37":0.14736612905709395,"38":-0.0578109798542753,"39":0.05299413799187246,"40":0.24325864313893847,"41":-0.06925279061986013,"42":-0.002725883013362396,"43":-0.05725405128270821,"44":-0.07273282872470684,"45":-0.021367148075408866,"46":-0.3684424614566602,"47":-0.010911115402562637,"48":1.7967073970033565,"49":-0.0886550825585031}},"32":{"bias":-0.4968826378619173,"weights":{"0":-0.03561705477645252,"1":-0.45371667836893387,"2":-0.006332420226609075,"3":-0.5472977282325253,"4":-0.18577420239592018,"5":-0.04849791979062228,"6":0.449333524739315,"7":0.28108844805358335,"8":0.18941139200541734,"9":-0.25165865472628907,"10":-0.0072447756369991454,"11":-0.13769796718014565,"12":0.056942554502947954,"13":0.18037093210512312,"14":-0.5152441828842481,"15":0.37623637727649456,"16":0.1753572306357751,"17":-0.342677086696652,"18":-0.06544400194090083,"19":-0.5598960580314327,"20":0.737672334534718,"21":-0.128455026522984,"22":-0.643047629423156,"23":0.29068189646570786,"24":0.42175023437427145,"25":0.05597623479972025,"26":-0.032391409076351,"27":0.3110267435976742,"28":0.2642799604365656,"29":0.46601775536815127,"30":-0.9922818513434445,"31":0.3823082826140752,"32":-0.828626273310292,"33":-0.1461155124885804,"34":-2.0444771549316565,"35":0.06022867424770758,"36":0.2053639339097386,"37":0.11016689887197137,"38":0.0523501542929177,"39":0.08547749197536174,"40":0.1513031873351378,"41":-0.28530056594759823,"42":-0.17580933483466457,"43":0.23586311450471353,"44":0.043515150790694915,"45":0.25068499782388326,"46":-0.5179259276848461,"47":-0.0007872975091899575,"48":1.0613721875940503,"49":-0.5519110199380604}},"33":{"bias":-0.7346752178137829,"weights":{"0":1.6865360470523125,"1":-2.1489484362873768,"2":0.6455591716933227,"3":-2.120970198104565,"4":-0.819795635084679,"5":1.7308676289078637,"6":0.8361577957876162,"7":0.34826395272896765,"8":0.9954350864059914,"9":-0.496601816412455,"10":1.6728205258854676,"11":-0.575162336287198,"12":0.4476461754849775,"13":0.4274615784523486,"14":-0.3872711468257436,"15":1.4713862289047952,"16":0.8233469679351545,"17":-0.5767558946336719,"18":-0.018736798402492368,"19":0.34304911394930726,"20":2.6476289055931996,"21":-1.8810781471292632,"22":-0.8921824141236652,"23":0.41551385421135245,"24":0.6616970036737004,"25":0.18878127181215665,"26":0.08196245981071668,"27":0.7646711332119422,"28":-0.5809599720788565,"29":1.0139828166430953,"30":-1.3163667021607603,"31":0.7813487294658088,"32":-2.992522399278034,"33":1.6637916902476588,"34":-3.000497983372873,"35":2.0337885970376153,"36":1.554203978597543,"37":0.2832013809747906,"38":-1.2613118658023434,"39":-0.37135607012595484,"40":-2.046421813141342,"41":-2.250500392344594,"42":-0.3248329854161495,"43":1.3611725415843516,"44":-0.6051475922344168,"45":-0.11969980869318651,"46":0.07891366380769076,"47":0.7562853221929573,"48":2.194331537136796,"49":0.8732214924279237}},"34":{"bias":-0.2695323595869315,"weights":{"0":-0.47980062457859374,"1":-0.3792867756811221,"2":-0.045322615232004294,"3":-0.4304096413697052,"4":-0.23997756372997944,"5":0.054558200281873956,"6":0.12069050854378682,"7":0.06832785447316303,"8":0.10804052757577944,"9":-0.2632053578252569,"10":-0.23420366730190526,"11":-0.42366495284079164,"12":0.020377348875089768,"13":0.05852518861126857,"14":0.2969923525030557,"15":-0.20146956388185897,"16":-0.09778584978305052,"17":-0.9021315659287459,"18":-0.26602625855458617,"19":0.04290893789962325,"20":1.5472021865233108,"21":-0.206414262152993,"22":-0.01574082704201049,"23":0.03164252936183437,"24":-0.08391282206184467,"25":0.11983255389542145,"26":-0.06960287276680586,"27":0.06867718614349569,"28":-0.18188788986855509,"29":0.24408234116298086,"30":-0.9243303332840755,"31":0.1911934630108904,"32":-0.6351851481711621,"33":0.1908679049324836,"34":-1.9538869715739855,"35":-0.23718125454401942,"36":0.04318441731286318,"37":-0.10325158658011054,"38":-0.12857881907967758,"39":-0.08143535763850256,"40":-0.4031841827263241,"41":-0.48073596454753337,"42":-0.18294528220786954,"43":0.20996154762151273,"44":-0.2853740492640174,"45":-0.3367053138425108,"46":-0.15652594947476464,"47":0.0014706337156398294,"48":1.827824195820749,"49":0.33456819472971244}},"35":{"bias":-0.04563517969513719,"weights":{"0":-1.4137179149504908,"1":-0.3593169287490314,"2":0.43557514847519685,"3":-0.4552580870269092,"4":-0.08236066590760718,"5":0.6555312175605057,"6":0.46039488777385945,"7":0.12213722402535594,"8":0.31884904714846324,"9":-0.1732145826210979,"10":0.8519128253890931,"11":-0.3470398270659775,"12":0.11606993908310224,"13":0.09329207646320657,"14":0.3600859015289329,"15":0.6746677660713529,"16":-0.2761930692772463,"17":0.6264012949732005,"18":0.5672646143571836,"19":0.3327555351386469,"20":0.03260786027107755,"21":-0.12886722985300855,"22":0.2785154244890285,"23":0.3507169449375674,"24":0.29004321416331963,"25":0.08414841047212855,"26":-0.04027894312782458,"27":0.1538061656932399,"28":0.8861184582173092,"29":0.19356309974346328,"30":0.13259287550936116,"31":0.4001578364091248,"32":-0.5825443172855665,"33":0.5511573885768366,"34":0.5746594603690284,"35":-1.400029075097217,"36":0.8335216254524265,"37":0.2657261208452513,"38":-0.044759371858251795,"39":-0.04845833063353555,"40":-0.4659479823620939,"41":0.18407069048525238,"42":0.23255463923945302,"43":0.8211686786991271,"44":-0.06041086737402194,"45":0.07392514547682333,"46":-0.08616155735567194,"47":0.3395140865059374,"48":0.9329267605961953,"49":-0.039518263773625086}},"36":{"bias":-0.6120412561670298,"weights":{"0":-0.8524422378343404,"1":-0.4815239917984627,"2":-0.10007464606592002,"3":-0.5676414489587747,"4":-0.364481400070241,"5":0.07020911230747655,"6":0.19630068945503032,"7":-0.05832321805656629,"8":0.14686663379653356,"9":-0.07004304398863256,"10":-0.1692869233665603,"11":-0.4083647465037218,"12":-0.16632748461531072,"13":0.06382549408977857,"14":-0.06737512536730639,"15":0.08358705296142849,"16":0.015945178799212017,"17":-0.7293925272292594,"18":-0.15703289369531048,"19":-0.3825379722432971,"20":1.4686551655981255,"21":-0.18377561466433553,"22":0.1038583618522871,"23":0.0069779714283892055,"24":0.05184908011256463,"25":0.0018230896461223522,"26":-0.05113541402967135,"27":0.12709518741720557,"28":0.27337878703052937,"29":0.5964437219174665,"30":-0.06432729974226248,"31":0.2662497461503472,"32":-0.9659341501552353,"33":-0.18814272461198916,"34":0.08862369154875044,"35":-0.7809639997014494,"36":-0.07116655890132965,"37":0.03031495244509732,"38":-0.2425421820215722,"39":-0.22868864091655938,"40":-0.6219803727128342,"41":-0.20929814821042145,"42":-0.00511046599050742,"43":-0.028589234992380506,"44":-0.20599376387304183,"45":-0.28423891680685415,"46":-0.09418782638136071,"47":-0.0978713944512903,"48":2.306003322993765,"49":-0.12107065703895686}},"37":{"bias":-0.5445302528841615,"weights":{"0":0.06607347201851231,"1":-0.39497106037155205,"2":-0.002808534516864603,"3":-0.4483604359973466,"4":-0.21491858555808674,"5":-0.12913031810155803,"6":0.3949325943364155,"7":0.12671601624732134,"8":0.43848692305274284,"9":-0.16646241671529674,"10":-0.11531591076419156,"11":0.004192108260637709,"12":0.01739549495900093,"13":0.14005895682227978,"14":-0.31092329497111143,"15":0.14067240477623819,"16":0.06395370461606244,"17":-0.5121062699942663,"18":-0.02465298783336948,"19":-0.5787358138847855,"20":0.7240516850125518,"21":-0.08091661967222613,"22":-0.4976614011705574,"23":0.13732982338055383,"24":0.2865223056698851,"25":0.2589665215364733,"26":-0.0121955652074186,"27":0.4289288688960903,"28":0.15033810865790234,"29":0.4471802909838899,"30":-1.23931961454387,"31":0.4874088489486523,"32":-0.5495055262680741,"33":-0.011327593429104924,"34":-2.8075164350445405,"35":0.4405504973945579,"36":0.10097005233438427,"37":0.18442852159303671,"38":-0.009962836789201075,"39":-0.03290625625196677,"40":0.0965185364791667,"41":-0.1537509452094227,"42":-0.3936946821254811,"43":0.29925776397057047,"44":-0.04567360430074536,"45":0.14736320971616904,"46":-0.613306485097313,"47":0.19997514217820384,"48":0.7467758441712781,"49":-0.08772632784653704}},"38":{"bias":-0.36154704808628685,"weights":{"0":-0.17386362186583107,"1":-0.07173801095285696,"2":0.13421664194266167,"3":-0.16264228240867437,"4":-0.04307200610344919,"5":-0.008374300326950669,"6":0.46582086896931296,"7":0.2612290360219214,"8":0.6253516363485442,"9":-0.1767771755680126,"10":-0.15716357326024247,"11":-0.0465077465674626,"12":0.2807444394759244,"13":0.3930297732471507,"14":-0.5956138841593852,"15":-0.24467853476131388,"16":-0.2925510614164116,"17":-0.591801622576461,"18":0.07112574291930181,"19":-0.21540700476415267,"20":1.103266868489313,"21":-0.29729524078576675,"22":-0.4336272434372956,"23":0.6053423920357155,"24":0.5367880727423785,"25":0.33388882269647674,"26":-0.02646630257649404,"27":0.42415185223337,"28":-0.0069467329942822335,"29":0.3444460048319612,"30":-2.0092358631118654,"31":0.6001450766088956,"32":-0.2803904999335534,"33":-0.10550839124853197,"34":-4.123888434238395,"35":0.4380882478548577,"36":-0.18591893589482475,"37":0.04197446454960521,"38":-0.06902839733834792,"39":0.11688796167545198,"40":0.09910697109716606,"41":-0.006579812260854477,"42":-0.23974623570916248,"43":0.13361617575692544,"44":0.18051999943917352,"45":0.2067511862055009,"46":-0.8332560658958783,"47":-0.039754314701444665,"48":1.1086485691059191,"49":-0.16577638043586299}},"39":{"bias":-0.46223385613768747,"weights":{"0":-1.1432913949325285,"1":-0.8871190597470724,"2":0.12253296510696803,"3":0.2397807826431256,"4":-0.40242936075455615,"5":-0.3811833759519846,"6":0.7012584827679295,"7":0.4283087996424313,"8":0.37577110858559265,"9":-0.5154838174054606,"10":0.39688603396656635,"11":-0.7137498414483919,"12":-0.35490459901772453,"13":0.25707623018536696,"14":-0.6804148615458642,"15":0.5508761483816783,"16":0.11182906285428312,"17":-0.5493646860234367,"18":-0.28204783696404107,"19":-0.4281100590686649,"20":1.1934152699772842,"21":0.7339721423855409,"22":-0.7377011027577005,"23":0.1409617945043076,"24":0.09808011440853848,"25":0.09729178335539913,"26":-0.18153109681293647,"27":0.42291730528637517,"28":0.9842986222883664,"29":0.9024592361225765,"30":0.6343042560878691,"31":0.30267591348444967,"32":-0.5433599419461842,"33":-0.8601788251944448,"34":2.008735757649355,"35":-1.944048066145183,"36":0.424983289086815,"37":0.06537757652984934,"38":-0.15745274869642567,"39":-0.062072073708760125,"40":-0.06875976048092867,"41":1.286223267183848,"42":-0.04858799592880121,"43":0.5451502061916489,"44":-0.2676219391012134,"45":0.061834956739217656,"46":-0.42449087294886867,"47":0.2924227108572697,"48":1.2963130316691152,"49":-0.5701008879667033}},"40":{"bias":-0.37320292569066255,"weights":{"0":0.17742203074080512,"1":-0.551495635335076,"2":0.10080398573360347,"3":-0.34803988976471595,"4":0.07641110322303449,"5":-0.049155670844681074,"6":0.378188545176115,"7":0.24305510984341303,"8":0.5437622634419764,"9":-0.26733896929255735,"10":0.03889390134503086,"11":-0.26161334404511355,"12":-0.01989987863806895,"13":0.35849085718665336,"14":-0.4393753269492041,"15":-0.029765236561168664,"16":-0.10023110955799186,"17":-0.8256057087829493,"18":0.35734597706682425,"19":-0.3560487401304245,"20":1.4271418112339334,"21":-0.2335975855237545,"22":-0.5805554269731327,"23":0.514810322618992,"24":0.33505053592473255,"25":0.34422919950753683,"26":0.14501903991722187,"27":0.3823509887108535,"28":-0.020763947696866805,"29":0.6101737608979435,"30":-1.6107260350778838,"31":0.5830941750660653,"32":-0.9794517319129176,"33":-0.05297211293787754,"34":-3.516888029555616,"35":0.3990689439055582,"36":-0.03706052996325765,"37":0.15649494527750613,"38":-0.2909577887743221,"39":0.15696151683215095,"40":0.13792745489714092,"41":-0.12193639844562969,"42":-0.2380826814745905,"43":-0.06132298985985493,"44":0.05397432939523576,"45":0.16186811103979115,"46":-0.7968861677769384,"47":0.28971518339115665,"48":1.6669382622592197,"49":-0.5047565988594406}},"41":{"bias":-0.018784473624526277,"weights":{"0":0.1539316666168444,"1":-0.34115958015174924,"2":0.4033078709873945,"3":-0.0766092692818096,"4":0.007667415122178601,"5":0.3074871217859999,"6":0.3302084955729635,"7":0.3243604397168072,"8":0.4642968702815879,"9":-0.009413611385254407,"10":-0.06460510359288356,"11":-0.25747891653320554,"12":-0.013027336982941128,"13":0.5345066407027241,"14":-0.09537639503993929,"15":-0.19129129796669572,"16":0.18432351099189087,"17":-0.88650358549216,"18":0.09652647710784652,"19":0.11864871771914169,"20":1.9322478944427577,"21":-0.46729688359441346,"22":-0.15307957153063417,"23":0.41278257675873997,"24":0.5199867481480523,"25":0.1546328731694994,"26":0.13311442509839763,"27":0.48328545948449075,"28":-0.1862137268132366,"29":0.5622943860891715,"30":-2.058158210648797,"31":0.26909123178608835,"32":-0.6200714468643843,"33":0.23586987345959623,"34":-3.8339198303950734,"35":0.4976057637629098,"36":-0.12578379514658017,"37":0.14093572548202615,"38":0.05239984275233053,"39":0.042350281958456526,"40":0.18026653176657162,"41":-0.13871083953778118,"42":-0.11860284870671176,"43":-0.13965758332413927,"44":-0.02639374154251416,"45":0.1633088421241779,"46":-0.6505539297859384,"47":0.2445317247827275,"48":2.012191399833408,"49":0.10163082222442991}},"42":{"bias":-0.09124620986989702,"weights":{"0":-0.7043564032795547,"1":-0.6797070655835777,"2":0.09304315616620654,"3":-0.5900092286293096,"4":-0.1621261218947907,"5":0.684174946290751,"6":0.3563797430744218,"7":0.30232302946868417,"8":0.48630675796001704,"9":-0.202641162694016,"10":0.7985788036755082,"11":-0.11458017642988307,"12":0.1364028292160133,"13":0.15639095920515228,"14":0.22839639448769133,"15":0.8181886340183728,"16":0.053229916956808884,"17":0.7172555297283087,"18":0.3083303614249081,"19":0.4207556679466815,"20":-0.028577577590736224,"21":-0.3723598228422153,"22":0.016512253892502833,"23":0.1465504602437539,"24":0.2083788560871564,"25":0.37780029860368786,"26":-0.050230269171312895,"27":0.25572840695481897,"28":0.7974431534383867,"29":0.37636829585981435,"30":-0.25430565128667953,"31":0.4005246629054562,"32":-0.811823445709847,"33":0.830369179857662,"34":0.7147644899110522,"35":-0.7691358471456734,"36":0.8982675077391995,"37":0.03860603861325109,"38":-0.39926351458900616,"39":0.07812657365154167,"40":-0.4366332808985809,"41":0.07207219184330918,"42":0.18085419464433386,"43":0.7754322651692312,"44":-0.12468408968937778,"45":0.049929515413247916,"46":0.3964297998654902,"47":0.5725181554741087,"48":0.8915013762889539,"49":0.1690102173908719}},"43":{"bias":-0.3892705742435894,"weights":{"0":-1.8096768668210157,"1":-1.8597622984153348,"2":0.7230114133096246,"3":-0.9242678111598829,"4":-0.47081651123477086,"5":0.8530749644558291,"6":1.4315830625048387,"7":0.7152956647060911,"8":0.880282785340472,"9":-0.42613120321856063,"10":1.8290680879762262,"11":-0.7548257582133934,"12":0.7252008366980444,"13":0.8278217548568061,"14":0.0658376171841659,"15":1.8780973363521416,"16":-0.1466278547419937,"17":2.478985300452329,"18":1.0592369096723846,"19":0.2919713149459999,"20":-2.200313840822844,"21":-0.660385297569357,"22":0.07855607681152786,"23":0.8492402934077846,"24":0.41065460430123407,"25":0.5747370267955202,"26":0.5115251297663118,"27":0.7479927867623876,"28":3.7001308531833303,"29":1.098321107357393,"30":-1.2484385738913524,"31":1.1076194709427887,"32":-1.2617507597111215,"33":0.9361043948569366,"34":1.9464918701101888,"35":-2.1228215439413276,"36":1.7663320765060675,"37":0.3554862512315785,"38":-0.8013413790375203,"39":-0.18112061293229384,"40":-0.5900138205708799,"41":-0.06080258766656582,"42":-0.7560076703120474,"43":1.7312065162184394,"44":-0.33200217394144754,"45":0.05888641148225988,"46":-0.36471115247191416,"47":0.7676948467490016,"48":-3.275117912492118,"49":-0.5496410361348876}},"44":{"bias":0.46286308574128493,"weights":{"0":1.6259248245865485,"1":2.2123388095304093,"2":-0.8440099047062427,"3":0.9514967750399126,"4":0.5092755821489774,"5":-1.0760792454734212,"6":-1.530104626542553,"7":-0.748499289853913,"8":-0.9713010402465325,"9":0.7246583467057988,"10":-1.8225245055083825,"11":0.8255192502348901,"12":-0.6721844799745569,"13":-0.7923400714060637,"14":-0.15171518870616388,"15":-1.9456862333084446,"16":0.2807491363609449,"17":-2.8612738417864874,"18":-1.4290736125883161,"19":-0.047280600382923456,"20":1.9945079860012551,"21":0.742189515681116,"22":0.16162037697187215,"23":-0.6540809829888623,"24":-0.6457939597844157,"25":-0.7103145097069054,"26":-0.5413018794717132,"27":-0.6752038823960161,"28":-3.602135479128374,"29":-0.9330428400256435,"30":1.3413674202205539,"31":-0.797431968972667,"32":1.1880704043707,"33":-0.9746512131415374,"34":-2.1132873237213876,"35":1.7744654993852969,"36":-1.8240849022550951,"37":-0.1387226022631887,"38":0.8725956081495101,"39":0.1472068699320136,"40":0.37739966960719457,"41":-0.05854007972777184,"42":0.5934982836650745,"43":-1.6282694246109204,"44":0.4203379507954385,"45":0.09627699107637301,"46":0.5511283197546089,"47":-0.9681670306197288,"48":3.249221804996712,"49":0.3642734623206908}},"45":{"bias":-0.2533984001044085,"weights":{"0":-0.8756842361513312,"1":-0.6598349513336355,"2":0.1992978819824496,"3":-0.320674116629222,"4":-0.2799093258708717,"5":0.22448750357522973,"6":-0.10516483253969988,"7":0.03121356655268704,"8":0.0646746980656,"9":-0.433177850830666,"10":0.32538429404992325,"11":-0.12558456768881784,"12":0.12452861049366942,"13":0.030613982384594608,"14":-0.09284491595343704,"15":0.3506931942974238,"16":-0.1434463365990254,"17":0.32050179043299143,"18":0.05116770206473285,"19":-0.21778008077053135,"20":0.19236129540053115,"21":-0.2852945002234339,"22":-0.4238485679564408,"23":-0.026448268784516518,"24":0.0102226994517507,"25":-0.1718394601612832,"26":-0.18767765992947327,"27":0.08502123080050861,"28":0.18353261942448493,"29":0.10513000237014401,"30":-0.336670957427044,"31":-0.14052878877569913,"32":-0.3377116691326468,"33":-0.014135132111659406,"34":0.9092291263387356,"35":-0.8346206148411736,"36":0.23790056008170965,"37":0.06743512919683917,"38":-0.29905787950475793,"39":-0.12949007348847713,"40":0.13077379905713035,"41":0.33846189936979454,"42":-0.14070115074762243,"43":0.2709434554171377,"44":-0.22469840260373142,"45":-0.23986500421926324,"46":-0.2540945179042533,"47":0.2305743930996606,"48":0.9773551971909089,"49":-0.013697553765821857}},"46":{"bias":0.00931944642322335,"weights":{"0":0.05584827298089866,"1":-0.3450101431710104,"2":-0.07424267816055657,"3":-0.36911486958686934,"4":0.11253007880325686,"5":0.5025243752887188,"6":0.17101351584714125,"7":0.23997573501808522,"8":0.012474441192036355,"9":0.08068551746195908,"10":0.10399998552647127,"11":0.09972014623188019,"12":0.25321708505731333,"13":0.18612881594794264,"14":-0.024944937220601836,"15":0.14431273236719067,"16":0.003958902992014927,"17":-0.4647959555870074,"18":0.006906198263270614,"19":-0.03881990531791084,"20":1.0465304449059767,"21":-0.3943010352206567,"22":-0.36355109899506455,"23":0.26273105841359123,"24":0.05472417478244946,"25":0.12063374954133492,"26":-0.14593154800681135,"27":0.15899349778169133,"28":-0.3611577562645244,"29":0.12189962221409952,"30":-1.359626947471205,"31":0.32706317592145495,"32":-0.5942137728604644,"33":0.36922421000025396,"34":-2.257069109844668,"35":0.19041187076203112,"36":-0.0282417255593068,"37":-0.09807602033934547,"38":-0.19707510781101123,"39":-0.13928523889420769,"40":-0.08373903169950991,"41":-0.2530164642327184,"42":-0.16052238237994265,"43":0.26339572318063514,"44":-0.14349617357940953,"45":0.18051426381881366,"46":-0.5209341417286539,"47":0.060439874131499906,"48":1.27825190027686,"49":0.1745958426284903}},"47":{"bias":-0.23059874281316659,"weights":{"0":-0.5441166568348486,"1":-0.37937380758020994,"2":-0.23650638614864974,"3":-0.15297970896048463,"4":-0.17821844776284645,"5":-0.09350129108767914,"6":0.1890293378117013,"7":-0.21371724824527213,"8":-0.09712772828570394,"9":-0.2413777811056219,"10":-0.21635227799770645,"11":-0.33413138071703696,"12":-0.2602393184015605,"13":-0.0244726688388356,"14":-0.009239443665580032,"15":-0.004222641072878039,"16":-0.17399795875907847,"17":-0.6489160688524116,"18":-0.20552084033927298,"19":-0.2950260894418098,"20":0.9633911660900695,"21":0.1149060218437681,"22":-0.2843082714821353,"23":0.19915146430164277,"24":0.03786495319773254,"25":-0.208685589999927,"26":-0.05934239970980051,"27":-0.1029803639856724,"28":0.11252804096432487,"29":0.20508518839769405,"30":-0.5505749839678864,"31":-0.06912242783700213,"32":-0.501735744483202,"33":0.008403212816341855,"34":-0.7182528566171439,"35":-0.4004488024734213,"36":0.1423106731168728,"37":-0.2347288645830411,"38":0.1019147449085673,"39":-0.08738987375959892,"40":-0.28275264040875703,"41":-0.01788203348981272,"42":-0.15246689506756805,"43":0.18600155271251823,"44":-0.04740623628042955,"45":-0.17268615654426786,"46":-0.27075799646093085,"47":0.1423503519790702,"48":1.4510303662428627,"49":-0.12050031887021792}},"48":{"bias":0.2617940911925427,"weights":{"0":-1.5300156510871443,"1":-0.7990539009659354,"2":0.49142592721941203,"3":-1.7214443134882864,"4":-0.423646400558528,"5":1.6823523507552292,"6":1.137062772489175,"7":0.43284446965425444,"8":0.4540582732475766,"9":-0.040871500836393154,"10":1.576037979402614,"11":-0.4503705117169906,"12":0.4122222286209279,"13":0.41318043980074726,"14":1.3163826210659177,"15":1.7894330693764602,"16":-0.33237738018859553,"17":0.8919026359601517,"18":0.7063005463864255,"19":1.355150416537228,"20":-0.16916797446596216,"21":-1.2128616228796614,"22":1.377861207547792,"23":0.3964992718031152,"24":0.4977258659317469,"25":0.4905362140514156,"26":0.32338124941200524,"27":0.24545531414697672,"28":1.8118620416458247,"29":0.421108837294382,"30":-1.5418627694241795,"31":0.856751221746213,"32":-2.1452734674856195,"33":1.4206933035834017,"34":1.406549990983095,"35":-1.5169057932597259,"36":1.3597709167884002,"37":0.22671227048093848,"38":-0.918711145309337,"39":0.13636679047791767,"40":-1.8627318363220104,"41":-1.1846788956781316,"42":0.5461448919928596,"43":1.3778147784335681,"44":-0.025189996846216377,"45":0.11966245056529452,"46":1.0407337364848865,"47":0.6528944930102716,"48":1.205107264603721,"49":1.5231334965753123}},"49":{"bias":-0.6790595979379939,"weights":{"0":-0.9917810835955012,"1":-0.6961612152829687,"2":0.17017397414624308,"3":-0.6604377257204194,"4":-0.42819731791543675,"5":0.4595235725569663,"6":0.2801722331009484,"7":-0.03689103246279488,"8":0.16632350314724156,"9":-0.3133211618999937,"10":0.29988201078370336,"11":-0.41218303014321506,"12":0.1004626749009026,"13":-0.03832460492450815,"14":0.3386319470774763,"15":0.5468936235821332,"16":-0.02447558214841669,"17":0.4765376724483479,"18":0.00616673422802571,"19":0.26338068163719425,"20":0.20789251465154684,"21":-0.44278488338161803,"22":0.10108157765031857,"23":-0.14051638549522938,"24":-0.1703568103669754,"25":0.1644680949617753,"26":-0.020001336977073344,"27":0.16510242970801717,"28":0.3945899709233644,"29":0.21136771455575035,"30":0.22381925796317986,"31":-0.10168350962117081,"32":-1.0747740697925119,"33":0.14789633154843085,"34":2.0690150440162327,"35":-1.5068976372955885,"36":0.28743807164657964,"37":-0.2757623583003797,"38":-0.6623804901243483,"39":-0.14945506485356508,"40":-0.8698678422697506,"41":-0.20266975986328772,"42":-0.07327503898496819,"43":0.17324864482573174,"44":-0.44331178000729443,"45":-0.38228652360078075,"46":0.8325687494641484,"47":0.055534140215288276,"48":1.6890476275704347,"49":0.3549136402295674}},"50":{"bias":-0.5004039029486248,"weights":{"0":0.15450268870610653,"1":-0.22026364115003136,"2":0.346354129898707,"3":-0.2729814135881089,"4":-0.022870990277455424,"5":-0.11361250055082688,"6":0.2228891634481134,"7":0.2133340242683774,"8":0.4301623743281274,"9":-0.01915341059818594,"10":-0.058961433462957055,"11":-0.008478344035051103,"12":-0.006337706079736442,"13":0.25287457683921694,"14":-0.23532121777535747,"15":0.06697160267435534,"16":-0.27795282911460495,"17":-0.7230378269086445,"18":0.21576023866779848,"19":-0.45534271799037673,"20":0.8019315071432074,"21":-0.35136334080203085,"22":-0.1922501293429343,"23":0.5102290989593556,"24":0.5092226686640785,"25":0.38007216092192764,"26":-0.1067898358257041,"27":0.31273179057493605,"28":0.31050133478122055,"29":0.4327764327453391,"30":-1.7598800559097518,"31":0.45421905267471496,"32":-0.7025923048437529,"33":-0.14803494959344912,"34":-3.5163498283746675,"35":0.20101371998090195,"36":-0.10642346901132907,"37":0.33184840182375674,"38":-0.1250540038036747,"39":0.07734810887660751,"40":0.22839533877414195,"41":-0.14896972501217112,"42":-0.21361768399791953,"43":-0.03205277570605538,"44":0.1482268724492712,"45":0.013686214643736008,"46":-0.7620665893251408,"47":-0.0002445374046569118,"48":0.7899109965003295,"49":-0.18918940128617084}},"51":{"bias":-0.31109949659487235,"weights":{"0":0.41271358367786903,"1":-0.070307936664944,"2":-0.09206579312397754,"3":-0.12929736726535251,"4":0.2503512441097757,"5":-0.191016991522291,"6":-0.2676773789336639,"7":-0.042749699999120205,"8":-0.18935168201056543,"9":0.1589981653166924,"10":-0.3685060374701662,"11":0.21518091829050187,"12":-0.05431776607962851,"13":-0.18057377768421562,"14":-0.19740244492343498,"15":-0.6148556359678855,"16":-0.09062211267463803,"17":-0.9496808676790579,"18":-0.30433137808780664,"19":-0.5132732883496747,"20":0.40446597088139,"21":-0.10883374442216844,"22":-0.6500132416171389,"23":-0.28472052054662955,"24":0.09054128353086827,"25":-0.3288327950119243,"26":-0.17641661374357073,"27":0.029337476058902523,"28":-0.8221739650480184,"29":0.02160830153684373,"30":-0.7980109254080343,"31":-0.17350796769959995,"32":-0.1846014485765685,"33":-0.21384216637552758,"34":-1.3906202475747076,"35":0.30343341962932674,"36":-0.6527931040329245,"37":-0.21116182326964045,"38":-0.0339838649965775,"39":0.03306701350156818,"40":0.2500160963733757,"41":0.23668193804249535,"42":-0.03115405212236814,"43":-0.3080929796492145,"44":0.15955632921739601,"45":-0.07229435688508494,"46":-0.1079736775915448,"47":-0.09666317271335204,"48":0.7702351267780242,"49":-0.13450643326877504}},"52":{"bias":-0.3007609849105968,"weights":{"0":-0.04221138413633996,"1":-0.5726444514016554,"2":0.014922901782832499,"3":-0.31733162170837365,"4":-0.00032403691133713346,"5":-0.014584654801124485,"6":0.49994352721022156,"7":0.04278907131958063,"8":0.4165113059921202,"9":-0.13515364411642491,"10":0.07363924417866059,"11":-0.21242207837818555,"12":0.16489826369062796,"13":0.1884055460366947,"14":-0.5853863811569777,"15":0.35950964377874334,"16":-0.173216097947303,"17":-0.5483414863967386,"18":0.057855004847968135,"19":-0.48867852831547043,"20":0.8093606072698517,"21":-0.1667613126672444,"22":-0.5900177155872341,"23":0.31689502353518956,"24":0.15935921256520807,"25":0.13557445168421037,"26":0.047968223807382734,"27":0.46406625882035857,"28":0.19896781235695585,"29":0.48974418583026574,"30":-1.2039366315527034,"31":0.43012329804531796,"32":-0.6005167618087865,"33":-0.06459236686709655,"34":-2.980207532036407,"35":0.26437492330806794,"36":-0.02672769173051522,"37":0.09052927696147825,"38":-0.11865733471148457,"39":-0.0033591435008024618,"40":0.19291228181726736,"41":-0.30108293610190706,"42":-0.4037159422134344,"43":0.09194829904156797,"44":0.19384628602824208,"45":0.1039153739995017,"46":-0.7965094787502788,"47":0.3089193616945507,"48":0.7584708770200201,"49":-0.39008359873291876}},"53":{"bias":-0.29301913082539294,"weights":{"0":-0.03766727160455184,"1":0.3597506920190936,"2":-0.2613491160888849,"3":0.2919788122702026,"4":0.549077917772982,"5":0.12494615978024075,"6":0.1954270027873977,"7":-0.36222302620771785,"8":0.22563199614890211,"9":0.5942205460790767,"10":0.35948856642882104,"11":1.05315027813168,"12":-0.19133137383577853,"13":-0.25286722965112124,"14":-0.17864653024811722,"15":0.6285928211473824,"16":0.19346976542187444,"17":-1.6795343960529037,"18":-0.9740463863343419,"19":-0.5248796153134031,"20":1.1070745803588395,"21":0.5431879291358191,"22":-0.7199288072099312,"23":0.04500064349537001,"24":-0.3148646806308798,"25":-0.4749312721387288,"26":-0.3604418666024082,"27":-0.25451003991804405,"28":0.8769777696972988,"29":-0.2746026898853889,"30":-1.231126592253558,"31":0.005491238527814255,"32":0.291021849485507,"33":0.39256350735680623,"34":-5.97542606296224,"35":0.4504689546291529,"36":0.6406366382232929,"37":-0.2959518192468647,"38":0.6581250781787406,"39":0.21021896636016596,"40":1.50439258379978,"41":0.7069161266748784,"42":-0.11990948615160779,"43":0.6180146729305337,"44":0.17536121379367586,"45":-0.07668479470664272,"46":-0.11330246708987673,"47":-0.07304628386928265,"48":0.5755520351576248,"49":-0.11070599367246131}},"54":{"bias":0.12146267597580149,"weights":{"0":-0.9241889842006318,"1":1.6435435741716478,"2":-0.04577396565524942,"3":1.4033295802188945,"4":1.190024668193378,"5":-0.8038918480927282,"6":-0.1316215711711502,"7":0.17589199686347787,"8":-0.11995257424850907,"9":0.21520077276098082,"10":-0.16953618193129097,"11":0.8979939511619363,"12":-0.25058124434840495,"13":-0.38860276822145884,"14":-2.1912615077516993,"15":-0.22558226564704387,"16":-0.6635681918474312,"17":-0.8024817062413054,"18":-0.20202886749193755,"19":-1.489864005993641,"20":-0.2788359658819212,"21":1.2762356235860344,"22":-1.3896486549724518,"23":0.09088824992567283,"24":-0.1914959299476702,"25":-0.38860333435664124,"26":-0.7266683338856567,"27":-0.31185556236586837,"28":0.07897651708737484,"29":-0.0594580039499607,"30":-1.7953919122873014,"31":-0.03200034196889196,"32":2.680306375436791,"33":-0.6130087780834544,"34":0.5001747896965044,"35":-1.8258706256374155,"36":-0.19257024806592038,"37":0.02321723850943505,"38":1.8940721370122542,"39":0.26975625958992044,"40":3.4251268258801173,"41":2.264506977673717,"42":-0.5617091217468347,"43":-0.25073471567101296,"44":0.5012932670781713,"45":0.44713087216901,"46":-1.758667937632901,"47":-0.39477484020378767,"48":-0.207274466114044,"49":-1.8929765307254773}},"55":{"bias":-0.3365104193486234,"weights":{"0":0.62170679594979,"1":-0.1750403239101831,"2":-0.3413597055042706,"3":-0.057348506206100526,"4":0.18501886322494146,"5":-0.7680638582617015,"6":-0.5663147487490613,"7":-0.17542049777993324,"8":-0.07066434070062064,"9":-0.10412224415663714,"10":-0.7924309924635752,"11":0.19353049768899178,"12":-0.42505450478169343,"13":-0.32847550610940074,"14":-0.11736705302506685,"15":-0.8108553677940105,"16":0.01360277429308146,"17":-0.5455860638908699,"18":-0.4468589097749031,"19":0.38314310772667565,"20":0.1373992461025003,"21":-0.7101753025584568,"22":-0.44552495130387915,"23":-0.18014398042062862,"24":-0.10937853696317244,"25":-0.33643958562008386,"26":-0.12759358461669795,"27":-0.037891506821327796,"28":-0.7988700985123276,"29":-0.20080541974234248,"30":-0.5570134790001614,"31":-0.16495754957844125,"32":0.10625008312044647,"33":-0.437662922872163,"34":-1.0240523826785464,"35":1.1403703266942204,"36":-0.6907120388532044,"37":-0.11085891673636014,"38":-0.014199078209389886,"39":-0.2956013209818456,"40":-0.0533477438415797,"41":0.00019220180451592653,"42":-0.13865420859665814,"43":-0.5605445094656099,"44":-0.09461200028712513,"45":-0.09726186632946036,"46":0.023458895981982572,"47":-0.5393435188207218,"48":0.16963775625820438,"49":-0.1105726289671133}},"56":{"bias":-0.34182442333544494,"weights":{"0":0.027736644481244434,"1":-0.3809837554413416,"2":0.04691426858078886,"3":-0.5197985334955613,"4":-0.16074002026841958,"5":0.0567904161565985,"6":0.06198818478356322,"7":0.030619318731526766,"8":-0.012678399535054225,"9":-0.16046651612732926,"10":-0.10960668875303346,"11":-0.16574659913062148,"12":0.20292569991419415,"13":-0.011170112760973468,"14":-0.6162775157362529,"15":0.2996454890109798,"16":-0.06659706034812245,"17":-0.32944953646351405,"18":-0.21534312898493446,"19":-0.5764290027746193,"20":0.6168860298813579,"21":-0.05950155300912097,"22":-0.5020325321600833,"23":0.10808787926893586,"24":0.10977251966290821,"25":0.22086687255253618,"26":-0.12136404769482405,"27":0.2521640752555005,"28":0.051926600037516965,"29":0.26416446543670036,"30":-0.8040213596919557,"31":0.14938889762058224,"32":-0.4582505706552944,"33":0.03438111261043567,"34":-1.5254196143395597,"35":0.15553334733473742,"36":0.12920840566719413,"37":-0.12587316963411663,"38":0.12356829411748557,"39":0.18806200542527127,"40":0.3140317229360571,"41":0.14203256913513104,"42":-0.34039396988901693,"43":0.1108792149641941,"44":-0.01562145481116354,"45":0.0987164781175588,"46":-0.5385915697584127,"47":0.23726811103012074,"48":0.9510906892353443,"49":-0.23183244912261247}},"57":{"bias":-0.051069293918568695,"weights":{"0":-1.2457229527793918,"1":-0.474812463074352,"2":0.2842044497632388,"3":-0.29467910250424667,"4":0.3187413738086733,"5":0.582877195197828,"6":0.45904419164030047,"7":0.5539168363004585,"8":0.3698572556194161,"9":-0.024616801769940275,"10":0.7418031328684376,"11":-0.2321799243963426,"12":0.13137470809773188,"13":0.19758293782673453,"14":0.24762619332140334,"15":0.4487860225320051,"16":0.4230965710543782,"17":0.5530319422196291,"18":0.5504004728022301,"19":0.13042750665188274,"20":0.5749449176939062,"21":0.21975397299955093,"22":0.38944941864674393,"23":0.39626680060254305,"24":0.21747901531232997,"25":0.16565743140375658,"26":0.3083161877270116,"27":0.40908785053894103,"28":0.5627115464750753,"29":0.22862018712210083,"30":-0.6696581018515931,"31":0.2343706904637432,"32":-0.5429658697334155,"33":0.530075546869627,"34":0.19786310525648274,"35":-0.7306733931934707,"36":0.5534061654049537,"37":0.34477539340294133,"38":0.2957821085171973,"39":0.32809548543926015,"40":0.3685014267800327,"41":0.6750655461777624,"42":0.12351635405620114,"43":0.683155247699996,"44":0.5544492746529102,"45":0.18651138989690572,"46":-0.43751861706159906,"47":0.5604394234479136,"48":1.820126822412387,"49":-0.10036930554769079}},"58":{"bias":-0.3207992933719554,"weights":{"0":0.395543156245737,"1":0.19475700336539742,"2":0.09849760459990757,"3":-0.25279952601682043,"4":-0.08525141844181468,"5":0.3708099920335326,"6":0.43722924238383176,"7":-0.303072362133069,"8":0.00032562634740129325,"9":-0.04814449981655433,"10":-0.10989896886403437,"11":0.20864378313624038,"12":0.26908966843163534,"13":0.10415017286162263,"14":-0.10283833386390388,"15":-0.19569498713395975,"16":-0.4181973345765679,"17":-1.0284892118420137,"18":-0.20159508717053182,"19":-0.4341282971374143,"20":0.3728388417114692,"21":-0.4479062864301407,"22":0.11054504406749063,"23":0.3347625036404822,"24":0.18200277354359456,"25":-0.014237740243789007,"26":0.06309395394983662,"27":0.14351256519826633,"28":-0.43878904703841093,"29":0.03038288499372046,"30":-1.8612350667836126,"31":0.4209173458274586,"32":-0.48294793870201824,"33":0.8235994848199618,"34":-3.2158405678287396,"35":0.6121731193418609,"36":0.11515988326114679,"37":-0.20518336673917287,"38":-0.17032937392462466,"39":-0.10959544794539336,"40":-0.28411515411522065,"41":-0.5178650577205915,"42":0.012260608294619274,"43":-0.027215962902291592,"44":-0.2741039590708373,"45":-0.09412731519635141,"46":-0.26050893478279913,"47":0.3356800702974853,"48":0.23930460026899933,"49":0.27888915562835337}},"59":{"bias":-0.19296569825463578,"weights":{"0":0.4584801504807051,"1":0.015201819770390779,"2":-0.2108258211565215,"3":0.029683644177162145,"4":0.12100164893279941,"5":-0.3354657127416283,"6":-0.15722856445888997,"7":0.029669815452181107,"8":-0.06094277625919723,"9":-0.14345091105762098,"10":-0.33601313219506984,"11":-0.07692363799088,"12":-0.2765282374541063,"13":-0.18496323944993065,"14":-0.14939228252372555,"15":-0.39807906563532297,"16":0.2101221736698956,"17":-0.7001014433988574,"18":-0.24175713884654554,"19":-0.14874611074896993,"20":0.12318620356755794,"21":-0.39381764558537824,"22":-0.3090911861974035,"23":-0.06214494639910301,"24":-0.06887570405799426,"25":-0.11244811634085841,"26":-0.13164854703299578,"27":-0.17096134687314238,"28":-0.7204873487430353,"29":-0.27589754980963405,"30":-0.8843802594167003,"31":-0.21668939519198716,"32":0.07800724738245933,"33":-0.09387878321014193,"34":-1.2629243833243209,"35":0.5949025398578037,"36":-0.189898526265216,"37":0.013600796447144792,"38":-0.19219887905987187,"39":0.06655797170334529,"40":0.013178286869121161,"41":0.10019424876525898,"42":-0.18569273627148003,"43":-0.3612832784719117,"44":-0.020566848329598483,"45":0.08131920220955882,"46":-0.3319986432690386,"47":-0.04288918942593152,"48":0.6013552170326153,"49":-0.08960662055424531}}},{"0":{"bias":-0.4788426050277374,"weights":{"0":-0.2551076953699837,"1":0.03138292978031225,"2":0.0692211970663392,"3":-0.1889309919458803,"4":-0.10389373987298252,"5":-0.02384600234138337,"6":-0.22470244274381374,"7":-0.12890775248666658,"8":-0.059664154417548465,"9":0.09392225148370158,"10":-0.1701871015862606,"11":0.053631814480278,"12":-0.33837386592351326,"13":-0.5405102798877083,"14":-0.0006755812059122813,"15":-0.15512796548106117,"16":-0.16317148342635976,"17":-0.31403791275683,"18":-0.3625924035016366,"19":-0.06586414460503237,"20":0.0018988416516312685,"21":0.05347504787020051,"22":-0.24669911232210262,"23":-0.17795186554571843,"24":-0.38231280003167284,"25":-0.19094545668801874,"26":-0.42450476051484204,"27":-0.08293761304217193,"28":-0.21389736216536054,"29":-0.04525762011693816,"30":-0.15603965438153272,"31":-0.1952627495740399,"32":-0.12846939532002624,"33":-0.21595372886203326,"34":-0.22662623310441368,"35":-0.04591381838274391,"36":-0.30621785903893517,"37":0.1139676970639395,"38":0.14601859246715077,"39":-0.41920628558143347,"40":-0.18802550772733653,"41":-0.1332960432004701,"42":0.058113471910798964,"43":-0.057067086863331735,"44":-0.12112958407395973,"45":0.025042871133652125,"46":-0.2520393263997786,"47":0.026464415790340288,"48":-0.15116171972547487,"49":-0.2650626847180941,"50":-0.003359244373720029,"51":-0.2606866548300654,"52":-0.007041492038733786,"53":-0.10486423920655713,"54":-0.6639983772243456,"55":0.01737201365870374,"56":0.10850139710089221,"57":-0.0693592113016666,"58":-0.22235745673027735,"59":-0.25258902096461433}},"1":{"bias":-0.370524467049501,"weights":{"0":-0.34513441833662944,"1":-0.1429870414113726,"2":-0.2865262183673548,"3":-0.117981104581918,"4":0.08101564589337708,"5":-0.2026083139498908,"6":-0.21015585120895214,"7":-0.22333478383107766,"8":-0.19178688164949106,"9":-0.2818944589845454,"10":-0.198426013545029,"11":-0.13454069514690525,"12":-0.1328198276576235,"13":-0.2722931787833591,"14":-0.08552990294436573,"15":-0.2819106184163555,"16":-0.19867542886199305,"17":-0.14219045157797258,"18":-0.3366930829323033,"19":-0.10581121391154029,"20":-0.281428772116158,"21":-0.08569500129854847,"22":-0.031173647392049263,"23":0.09273718293554123,"24":-0.314349785669274,"25":-0.2016632905632933,"26":-0.21323973511911418,"27":0.09655877315688315,"28":-0.10224353126626219,"29":0.019332793325402785,"30":-0.36584310399243164,"31":-0.20266561073943923,"32":-0.09697688996664083,"33":-0.3436813771736559,"34":-0.3600601361079753,"35":-0.1854265935704955,"36":-0.3806901555756825,"37":-0.2860839952859987,"38":-0.10107336847343414,"39":-0.2618958461769731,"40":0.002331303437388479,"41":-0.23593217507747102,"42":-0.11527727354815473,"43":-0.08609622613288785,"44":-0.45435777164667374,"45":-0.004285099866003178,"46":-0.13336336070810684,"47":-0.2861843233188494,"48":-0.2956869054327519,"49":-0.13192740897965743,"50":-0.06509384964605787,"51":-0.26196294453952373,"52":-0.00477034248891614,"53":-0.3425978544662034,"54":-0.41722068523449785,"55":-0.1972938043630723,"56":-0.27150145965001876,"57":0.10622139712570217,"58":-0.1231115968279418,"59":-0.2701039592084088}},"2":{"bias":-0.4565497948722448,"weights":{"0":-0.16938622366996006,"1":-0.002029599733664844,"2":-0.022893780075590855,"3":-0.238050453228165,"4":-0.2558530127142285,"5":-0.18590939442957136,"6":0.017501109303087882,"7":-0.49161756808903534,"8":-0.24141479258012657,"9":-0.15807833880523034,"10":-0.16881717114448078,"11":-0.015899012642753365,"12":-0.17520297193424406,"13":-0.32319866741479825,"14":-0.2193086812825835,"15":0.010253724275937228,"16":-0.3280479677520758,"17":-0.10721221362625218,"18":-0.2596339764469666,"19":-0.057655614723618825,"20":0.03703983388265267,"21":-0.22658459438676282,"22":-0.27244702928970493,"23":-0.2867766348852784,"24":-0.43348823296464956,"25":-0.1866647421684,"26":-0.17346395855658822,"27":-0.0837747735152552,"28":-0.31214311044707826,"29":-0.08557432494270105,"30":-0.3140701448342407,"31":0.01571397986228565,"32":-0.3053461936722562,"33":-0.07024082494224398,"34":-0.22315931977988843,"35":-0.10419600398343469,"36":-0.32658351063363705,"37":-0.20902612314868346,"38":-0.07566652732799792,"39":-0.23984097687233596,"40":-0.03311316735602669,"41":-0.039733629453487025,"42":-0.12427514374586582,"43":0.01934450346026722,"44":-0.4310541298191675,"45":-0.11454907489998983,"46":0.02276956132641115,"47":-0.24417749731859575,"48":-0.2569193664705609,"49":-0.09810852679937195,"50":-0.25802617297704394,"51":-0.11264674467037282,"52":0.018506988243937633,"53":-0.048197493143800015,"54":-0.29325507467130424,"55":-0.09263176648037288,"56":-0.3401010240523241,"57":-0.3566374420627581,"58":-0.27470745230341675,"59":-0.0468239871203413}},"3":{"bias":-0.43185899615031154,"weights":{"0":-0.17029791900407912,"1":-0.343485093306077,"2":-0.291791219548971,"3":-0.5790452793471131,"4":-0.02737669021954008,"5":-0.282872805823437,"6":-0.29528025507261263,"7":-0.37936037391829863,"8":-0.3003860875368342,"9":-0.5327825014934178,"10":-0.15838852748677154,"11":0.04018570534570331,"12":-0.0650112959001761,"13":-0.7734238958738234,"14":-0.3191641532566086,"15":-0.01670230877977075,"16":0.1529724929314245,"17":-0.3550355063540366,"18":-0.1377016377027704,"19":-0.26940442104236423,"20":-0.20721779587620737,"21":-0.354947131560318,"22":-0.020710158932377425,"23":-0.13350105447960928,"24":-0.46122455219832525,"25":-0.3504692559530216,"26":-0.4350493158627025,"27":-0.328948989215694,"28":-0.2468115476804561,"29":-0.2250016917538553,"30":-0.09901817580520045,"31":-0.14763252413530917,"32":-0.2035379574624099,"33":-0.40637450406212905,"34":-0.285375158180271,"35":0.05205968685152489,"36":-0.03745308349321325,"37":-0.1206382913411126,"38":-0.08224452311176797,"39":-0.31526284635215057,"40":-0.2726529432611404,"41":-0.39340263416648685,"42":-0.159011721483156,"43":-0.1321427900470702,"44":-0.17020915229867026,"45":-0.13077332587472043,"46":-0.33435754192940026,"47":0.07076574057803434,"48":-0.4711434944072942,"49":0.022324110601071978,"50":-0.10357831637808644,"51":-0.16984537518732468,"52":-0.11989751901157669,"53":-0.5150178350276905,"54":-0.41882347295482475,"55":-0.06602923434186782,"56":0.00613812889933493,"57":0.1463770321559456,"58":-0.0542102381970672,"59":-0.048976124255811035}},"4":{"bias":0.5797212596613939,"weights":{"0":-2.0987823898289597,"1":-2.7046129271403534,"2":-0.3026455655942345,"3":-1.7679027600874848,"4":0.28545990871463395,"5":-1.919892986628828,"6":-1.0951536957787693,"7":0.3196486484051382,"8":-0.274041069271665,"9":-2.83128168142552,"10":-0.18035634140069848,"11":0.09428416552891952,"12":0.17059333587639844,"13":1.2331636239031296,"14":-0.8099176901689982,"15":-0.7216620296964363,"16":1.1486219152216601,"17":-0.3712931481855327,"18":0.34764527297033987,"19":-0.656162037227608,"20":-1.3335019571269493,"21":-2.3452483438684273,"22":1.7182452481725294,"23":0.1389908571094252,"24":0.8385191942475603,"25":-1.3414290632993349,"26":-2.626166462974929,"27":3.194915445725124,"28":-0.30078893616886165,"29":-0.012139938441361683,"30":-0.7349662621228519,"31":-0.49575514447710084,"32":-1.4145283789395637,"33":-3.3167398909120824,"34":-0.8057025912371688,"35":1.0765850870454439,"36":0.2255657151862035,"37":-1.3000681677672403,"38":-2.168905671842381,"39":0.49014267579650067,"40":-2.079731851395018,"41":-2.187111552976301,"42":1.0835832059201038,"43":4.922797387396269,"44":-4.304958792973518,"45":0.33795406692653435,"46":-0.9359620164907352,"47":-0.24748417910290063,"48":1.7501122237694817,"49":1.5586984574205356,"50":-1.8905117231855633,"51":-0.43836777924848347,"52":-1.6257539568121677,"53":-2.370428947009437,"54":-1.7055155790519327,"55":-0.617274691900233,"56":-0.8506226581105228,"57":0.8822117533751301,"58":-0.8689671337511113,"59":-0.4453546995138034}},"5":{"bias":-0.38060725081807584,"weights":{"0":-0.030339134021572945,"1":-0.195684897306819,"2":-0.08051084360841602,"3":-0.426888056629528,"4":-0.001941824851053934,"5":-0.3129015808849166,"6":0.13663505909233267,"7":-0.30148092353428974,"8":-0.43303797037198494,"9":-0.25250976290113974,"10":-0.3307305032730388,"11":-0.10604198094666134,"12":-0.18275075584903874,"13":-0.42146304009470226,"14":-0.2805839978217617,"15":-0.1750756802794885,"16":-0.42489181653916014,"17":-0.3661828871781804,"18":-0.11708076991875396,"19":-0.16884416520936427,"20":-0.02609454583624724,"21":-0.1615332136895128,"22":-0.40723174273924284,"23":-0.3649305379548339,"24":-0.1759654846339894,"25":-0.42097424426771085,"26":-0.3356253791266186,"27":-0.3593722905415766,"28":-0.1466323510998164,"29":-0.36022421793560533,"30":0.012263397535910119,"31":-0.31786035740190344,"32":-0.23719307033814127,"33":-0.3455460565956589,"34":-0.21355464656632916,"35":-0.19963749183472188,"36":-0.1519200109419628,"37":-0.2976058493804048,"38":-0.23436601047702088,"39":-0.42712268184213753,"40":-0.05484914054417463,"41":-0.4092221813050711,"42":-0.04732406693340547,"43":-0.34333873890408567,"44":-0.037996866740828486,"45":-0.3019438958752184,"46":-0.41344948214566124,"47":0.013373835527013283,"48":-0.49543375821411456,"49":-0.3056915908216412,"50":-0.3346337355946101,"51":0.04890958035089389,"52":-0.36378762474375353,"53":-0.2028701458145853,"54":-0.6502061390896264,"55":0.04430489012162581,"56":-0.3691520517705702,"57":-0.4350537990652353,"58":0.05527431740096966,"59":-0.10223504407540708}},"6":{"bias":-0.2035087692946517,"weights":{"0":-0.14482833781109233,"1":-0.39771142099566564,"2":-0.0140882684686204,"3":-0.44281873737598354,"4":-0.2874397913844132,"5":-0.3080249776306263,"6":-0.3515166761712636,"7":-0.21969337583212425,"8":-0.2079804596062512,"9":-0.2479092366791535,"10":-0.27266324374377326,"11":-0.02472039104876521,"12":-0.09464775609459086,"13":-0.28385594971048056,"14":-0.1258782330620888,"15":-0.10999207316642896,"16":-0.09044184919065791,"17":-0.0019619718479986837,"18":-0.11723764448401687,"19":-0.1060072558956185,"20":-0.2814104764405778,"21":-0.08704424352533426,"22":-0.2703777475317125,"23":-0.13237793335691234,"24":-0.06308834437549679,"25":-0.26249671115037637,"26":-0.25880903140718575,"27":0.005061125984263847,"28":-0.2135275557559437,"29":-0.23347015307244215,"30":-0.24282029162880145,"31":-0.10024093160958758,"32":-0.31605930621605166,"33":-0.15979281044425503,"34":-0.19924820690131348,"35":-0.3167623845623304,"36":-0.16073125370144245,"37":0.055313941815979185,"38":-0.3474882909712074,"39":-0.3962086416605603,"40":-0.10176410815430473,"41":-0.17287842222869332,"42":-0.13275440109750816,"43":-0.21190375380447002,"44":-0.5175953390229145,"45":-0.1282085971052108,"46":-0.18643532981378988,"47":-0.23932378627637166,"48":-0.38638513737295177,"49":-0.2966899215774857,"50":-0.13486698380689796,"51":-0.338322658295478,"52":0.005367149706860671,"53":-0.37372602635403745,"54":-0.1221082795037343,"55":-0.09121385752731057,"56":-0.10798215464896574,"57":-0.189763666202554,"58":-0.017293587857462097,"59":-0.2520277395925135}},"7":{"bias":-0.3295376720321412,"weights":{"0":0.6104922686723253,"1":-0.4891801398446636,"2":-0.2714214464162087,"3":-1.432447414922695,"4":-0.2394331283121836,"5":-0.6988985198233963,"6":0.944119919548712,"7":-1.0222496095918192,"8":-1.5402686971417074,"9":-0.7683102235561872,"10":-0.3511441028899704,"11":-0.3279160258188981,"12":-0.7521973830297247,"13":-1.2453936433654356,"14":-0.7324688966938078,"15":0.6422744323047702,"16":-1.4227763500461441,"17":-0.5050364894955746,"18":-0.7124089208157909,"19":-0.37695498894425195,"20":0.0613493544889705,"21":-0.5284750524812993,"22":-1.195198308403369,"23":-0.7015593353720525,"24":-0.4819539782930188,"25":-0.7010624885167592,"26":0.5507560143402274,"27":-1.0290165641241271,"28":-0.3328233385286351,"29":-0.38246673191596303,"30":0.3577918547360276,"31":-0.45311659578684405,"32":-0.4625648323749098,"33":-1.2095658475839892,"34":-0.24617728247688783,"35":-1.0185022799465344,"36":-0.4496213687465448,"37":-0.2981431758072912,"38":-0.48494287166075156,"39":-0.452337888511093,"40":-0.6896516634353742,"41":-0.7329162139750908,"42":-0.6494594153691955,"43":-0.6570417126484062,"44":0.4084767087502531,"45":-0.4270481789773368,"46":-0.6965067680683241,"47":-0.5404038088492377,"48":-2.4687785598375562,"49":-0.9191871264401125,"50":-0.4736466014321834,"51":0.10505593656976296,"52":-0.720244731921562,"53":-0.15240957227453883,"54":-2.6114167999063285,"55":0.7059116191375859,"56":-0.5798459322898566,"57":-1.0520115872042877,"58":-0.36278486918915104,"59":0.3059813008724761}},"8":{"bias":-0.3248270569573575,"weights":{"0":-0.3149063938756051,"1":-0.3458318412597619,"2":-0.08447329473095093,"3":-0.1661950798065035,"4":-0.11638674350452696,"5":-0.2353595953810653,"6":-0.34229342193921686,"7":-0.6624314873819702,"8":0.10238805142491952,"9":-0.38033326774580495,"10":-0.29783379334594845,"11":-0.039924791120474507,"12":-0.4341485104502754,"13":-0.5005858697068707,"14":-0.16242628076386784,"15":-0.38439356647048983,"16":0.030253283214311436,"17":-0.366980892731682,"18":-0.19232382887958702,"19":-0.16365801368646446,"20":-0.26959917486162943,"21":-0.1231873027546323,"22":0.06586691285349412,"23":-0.23975950346078878,"24":-0.39142576162943976,"25":-0.057270042956470445,"26":-0.1961905167590233,"27":0.009782587533703004,"28":0.02226840257509914,"29":0.04002662589371681,"30":-0.252619786951302,"31":-0.38810332369797446,"32":-0.08990733122564182,"33":-0.41227002663409357,