{"layers":[{"0":{},"1":{},"2":{},"3":{},"4":{},"5":{}},{"0":{"bias":-0.10587053067568293,"weights":{"0":0.5356542994068633,"1":0.43581245898317905,"2":-0.7053653598484936,"3":0.4339146526089327,"4":-0.8058938287287906,"5":0.2100494691866874}},"1":{"bias":-0.20301858198016115,"weights":{"0":-0.3735095874970835,"1":0.003944405522575255,"2":0.5225718095592715,"3":0.2821817873193209,"4":0.9823438344615077,"5":0.38576303412197166}},"2":{"bias":-0.08937984246969174,"weights":{"0":-0.21542250635386584,"1":0.2738824823289864,"2":-0.4860199232139185,"3":-0.6222142143539355,"4":-0.48159054432811893,"5":-0.2961345337670638}},"3":{"bias":0.12105727199228153,"weights":{"0":0.2614360962531622,"1":-0.10723703696205936,"2":-0.665148358387278,"3":-0.859338670310122,"4":-0.8287215379948671,"5":-0.3240380288451626}},"4":{"bias":0.12249141371086424,"weights":{"0":0.06615456530103163,"1":-0.3375621688109942,"2":-0.3123660515599352,"3":-0.6159809971544077,"4":-0.675220320510287,"5":-0.5674284391844793}},"5":{"bias":-0.4441135136811869,"weights":{"0":-0.7731729594172084,"1":-0.34918489183621,"2":0.9090073707934869,"3":0.3790913526075771,"4":2.241749298420302,"5":0.27968887740581344}},"6":{"bias":1.3195885474468587,"weights":{"0":0.8872688611772546,"1":-0.7740860995325541,"2":0.9726942504768546,"3":-1.3577820242084517,"4":0.7064177728401,"5":-2.751734922163163}},"7":{"bias":0.3001435423521578,"weights":{"0":0.15383268169327413,"1":0.1559829082965796,"2":-0.25775758615741984,"3":-1.100769760916012,"4":-0.4621767504913879,"5":-0.6519199347728479}},"8":{"bias":1.4641537815411085,"weights":{"0":0.5647449011147734,"1":-0.1974403357247968,"2":0.45893659041605883,"3":-1.649671083358568,"4":0.5646301104752849,"5":-2.002880327467414}},"9":{"bias":-0.43458242714382445,"weights":{"0":-0.28876706423122445,"1":0.33868282572645697,"2":0.15010723513746813,"3":0.7484552767483731,"4":0.2808277362262359,"5":0.8314612071258448}},"10":{"bias":0.49745914841865263,"weights":{"0":1.11649698138491,"1":-0.026142283431156623,"2":-0.9993634784371892,"3":-0.8041898520115268,"4":-2.9867976182160367,"5":-1.1945775077514502}},"11":{"bias":-0.3699988914321624,"weights":{"0":-0.7355394520850655,"1":-0.31402001502709914,"2":1.1550079561906432,"3":-0.3886507110792688,"4":1.9976395271398883,"5":-0.15910136893025847}},"12":{"bias":0.42915699647580446,"weights":{"0":0.9335842140810132,"1":-0.1004817492134569,"2":-0.911110417082405,"3":-1.0127523943667447,"4":-2.171732743285056,"5":-1.2097314913560024}},"13":{"bias":-0.4345066946013334,"weights":{"0":-1.0350420265938964,"1":-0.8419827577133018,"2":1.3238637618576603,"3":-1.1607508947352625,"4":3.366049066213468,"5":-0.2850907191839969}},"14":{"bias":0.5010740373819351,"weights":{"0":0.5572413430356562,"1":-0.17986564589845794,"2":-0.49933117978004515,"3":-1.155105359128545,"4":-0.42797105322150303,"5":-0.6218992997088142}},"15":{"bias":-1.1524980158493283,"weights":{"0":-0.5973907561127925,"1":-0.10112976715363416,"2":0.023928216714139226,"3":1.4928986516268028,"4":0.08085377350932237,"5":1.1848139063995853}},"16":{"bias":-0.12940455117221053,"weights":{"0":-0.028078065924019867,"1":0.35029209074130063,"2":0.03888847138403654,"3":0.31984069814661753,"4":-0.8033480184715761,"5":0.5250271550951509}},"17":{"bias":-0.4833897119567351,"weights":{"0":0.057558664503676325,"1":0.08158025386593712,"2":0.2909760903624434,"3":0.7106064737259726,"4":-0.021906514185977305,"5":0.5494261277362057}},"18":{"bias":-0.14665582019670667,"weights":{"0":-0.4085169505838125,"1":0.26336260701911546,"2":0.4926932122313369,"3":0.2446712436956798,"4":0.7709355843431898,"5":0.44526657319338875}},"19":{"bias":-0.16875644331747552,"weights":{"0":0.06833531882938568,"1":0.3435391923365266,"2":-0.6871072255610101,"3":-0.4458007883702789,"4":-0.2744018910135702,"5":-0.07976937029797154}},"20":{"bias":0.12557009924509704,"weights":{"0":1.0596963973377362,"1":0.15034368039695592,"2":-0.9920687620978702,"3":0.3361426561252509,"4":-1.9625101161564753,"5":0.28986544562098}},"21":{"bias":0.3689085001430691,"weights":{"0":0.07843412387238137,"1":0.05308465511647415,"2":-0.5618273378036271,"3":-1.0641376672498875,"4":-0.6169181427861601,"5":-0.35029918463378695}},"22":{"bias":-1.268591962779826,"weights":{"0":-0.7498822725113877,"1":0.20175650468931225,"2":-0.3787088064823611,"3":1.3501186914507977,"4":-0.035780416735667425,"5":1.663004009065897}},"23":{"bias":0.929317165046952,"weights":{"0":1.0596541381800966,"1":-0.7261210082649365,"2":0.8645453819017968,"3":-0.9752853573880896,"4":0.7265840607297019,"5":-2.8284383470734906}},"24":{"bias":0.5757905508084393,"weights":{"0":1.7434303478989324,"1":-1.6872265561819255,"2":1.5759640745631789,"3":0.026682644188576726,"4":0.14988502314927807,"5":-3.611722611861811}},"25":{"bias":-0.4031331275208957,"weights":{"0":-0.6411692921139681,"1":0.6421507481861314,"2":0.4107374893332751,"3":0.9234363135660995,"4":1.934931545652882,"5":0.8750017795522007}},"26":{"bias":-0.3619085858092548,"weights":{"0":-0.48272616445096994,"1":0.33460208428594096,"2":0.188904446028294,"3":0.7831649937468262,"4":1.307545859231216,"5":0.5667876586467864}},"27":{"bias":0.03911899089517458,"weights":{"0":0.040014260939547526,"1":0.3438651883526365,"2":-0.6740336205462534,"3":-0.3768685948746251,"4":-0.8974700771950275,"5":-0.17497560675812515}},"28":{"bias":-0.46942466312423586,"weights":{"0":-0.4600684907890737,"1":0.206700075257442,"2":0.4187294892405941,"3":0.8744654959794942,"4":1.020470756978113,"5":0.5962220303781978}},"29":{"bias":0.0031606685556149474,"weights":{"0":0.7181644414790925,"1":-0.6462801466604318,"2":-0.17499933701812198,"3":-0.6236298333568359,"4":-1.475384956637383,"5":-0.9970196903136646}},"30":{"bias":-0.0017950334764516849,"weights":{"0":-0.3349122165659018,"1":-0.06631431517842501,"2":0.14381881408905878,"3":-0.8774184817109113,"4":0.9064517985283633,"5":-0.696178013368506}},"31":{"bias":-0.2626265086929762,"weights":{"0":-0.11173888656548424,"1":0.18514683243619048,"2":-0.4943347975825248,"3":-0.1736439745829651,"4":-0.3197765546342269,"5":-0.025057083758056473}},"32":{"bias":-0.01694297391803825,"weights":{"0":0.6272832284979053,"1":0.45134433360394033,"2":-0.6734960611998884,"3":0.47010494747860776,"4":-1.5545906297729752,"5":0.4445210739468386}},"33":{"bias":0.0706487666394553,"weights":{"0":0.16902340039983252,"1":0.15583445265498602,"2":-0.47713047302329176,"3":-0.2828177439570554,"4":-1.2195640070591782,"5":-0.021436267067887652}},"34":{"bias":0.6809138404579759,"weights":{"0":-0.04742331543817065,"1":0.7235165037443207,"2":-0.5094162716440781,"3":-1.9202486005408739,"4":0.2865004387745655,"5":-0.8289185692890307}},"35":{"bias":-0.27035765569181314,"weights":{"0":-0.09835943519490803,"1":0.3692220918921299,"2":0.02997030552804546,"3":0.6363075947822046,"4":0.04102071924889371,"5":0.6966283668163142}},"36":{"bias":0.13991623271890904,"weights":{"0":0.5035802239460476,"1":0.00440165609725187,"2":-0.5848096101610094,"3":-0.8096895029156344,"4":-1.2601734212632023,"5":-0.5138831687944863}},"37":{"bias":0.3147144542314946,"weights":{"0":1.2128340343176305,"1":-1.0125768046796357,"2":-0.22842531301505506,"3":-0.8766632287252895,"4":-2.4704797304412507,"5":-1.936265529253469}},"38":{"bias":-0.5487261848286461,"weights":{"0":-1.2686778900660365,"1":-0.8092206878562401,"2":1.1923374878335746,"3":-0.4916364473546,"4":3.2500188640054,"5":0.27011647439401476}},"39":{"bias":-0.40358899529883313,"weights":{"0":-0.6076010572780352,"1":0.5553840595590529,"2":0.6145507984481403,"3":0.7158570225569834,"4":1.917808407219734,"5":0.6059344611166724}},"40":{"bias":0.04167640534049763,"weights":{"0":0.424955665064612,"1":0.03651686757381281,"2":-0.6824451875767823,"3":-0.44824878345093216,"4":-1.1739306037976152,"5":-0.4705688396360088}},"41":{"bias":-0.48664081117123364,"weights":{"0":-1.0152767716301463,"1":-0.2665700111955587,"2":0.9943316959899012,"3":0.10065866053409003,"4":2.5786986272161396,"5":0.1473216941414755}},"42":{"bias":0.3634603991286447,"weights":{"0":1.0675923921826436,"1":-1.1961179226306273,"2":0.9861958515254611,"3":-0.32594556386355955,"4":-0.8340011740259109,"5":-2.357701104307248}},"43":{"bias":-0.268717021124063,"weights":{"0":-0.3030423306886243,"1":0.07465178318111661,"2":-0.30650634556570333,"3":-0.3110352561002364,"4":-0.027048588488569947,"5":0.13067566012445625}},"44":{"bias":0.2422698390903598,"weights":{"0":0.4745759151373353,"1":-0.11889713201368056,"2":-0.7225163739507531,"3":-0.334275108851205,"4":-1.64091259703293,"5":-0.02179141344433853}},"45":{"bias":0.3848567319968591,"weights":{"0":2.1242679202989607,"1":-2.1750014800978525,"2":2.800476550679569,"3":0.5642627031992877,"4":0.4418246061875714,"5":-5.563598198684803}},"46":{"bias":0.10811455243998688,"weights":{"0":0.6722318875710023,"1":-0.5543078668739376,"2":-0.3249167458718271,"3":-0.7173573058600965,"4":-1.6535837405406568,"5":-0.9496562156542167}},"47":{"bias":-0.2561365600755329,"weights":{"0":-1.1863668403105088,"1":-0.9521644513104005,"2":1.4329149205183485,"3":-1.1172366437250307,"4":3.101988199406404,"5":-0.44881362177273043}},"48":{"bias":0.59875322923377,"weights":{"0":0.8236245942790823,"1":-0.7197439367206894,"2":0.9341502057511194,"3":-0.881647647538923,"4":0.708584821140704,"5":-2.510833566529364}},"49":{"bias":0.13074059650456613,"weights":{"0":1.0776333116440195,"1":0.8264733220520273,"2":-1.2202363554592857,"3":0.5678436148553633,"4":-2.2586489519022113,"5":0.5732394593644432}}},{"0":{"bias":-0.08470450605149037,"weights":{"0":0.0578502381687911,"1":0.0068528889228254295,"2":-0.23031010949236444,"3":0.029839884622860427,"4":-0.0512939888151407,"5":-0.057571638544775545,"6":-0.28191932042980006,"7":-0.3179062089054243,"8":-0.5189846206048987,"9":0.006043091988911708,"10":-0.1523384448888074,"11":0.03765424336566543,"12":0.12263941576946265,"13":-0.1548518336122617,"14":-0.3118371295465861,"15":0.3865055626884958,"16":-0.007884244161079527,"17":0.15091256746045673,"18":0.14632811689646183,"19":0.08008933333248414,"20":0.2975760838582257,"21":-0.29713504704227667,"22":0.28935764004619635,"23":-0.34626917040759975,"24":-0.6522562019667072,"25":0.2386972404517403,"26":0.1930240644631179,"27":-0.14428353117769757,"28":0.17808394027826221,"29":-0.23310334829614912,"30":-0.1144604379064291,"31":0.11698427572720017,"32":0.13269594117729996,"33":-0.14002453109116475,"34":-0.4059595524319452,"35":0.029382844490555886,"36":-0.1630633293803148,"37":-0.06729640211985782,"38":-0.17922235988018273,"39":0.06787716223479794,"40":-0.08016701561642804,"41":0.09906857787475992,"42":-0.15500065591467393,"43":-0.029829761404084762,"44":-0.15609499013970138,"45":-0.8531442125194102,"46":-0.18753562803045556,"47":-0.31024960639943533,"48":-0.3800698223650958,"49":0.32858012350687665}},"1":{"bias":0.32825835711571344,"weights":{"0":0.30030437496769574,"1":-0.3602513277361564,"2":0.4737824420255322,"3":0.3748221754062306,"4":0.2828574645217562,"5":-0.7779282800503964,"6":0.34747264184736365,"7":0.475648643905507,"8":0.3360155829745676,"9":-0.010701361413945377,"10":1.1042407124637947,"11":-0.6149900925086121,"12":0.7589586832890772,"13":-1.1197611449185931,"14":0.4661201057031714,"15":0.021257772664142634,"16":0.23350258742467941,"17":0.025059307684945988,"18":-0.09577761247401761,"19":0.4077836323912359,"20":0.7841772472481856,"21":0.5701791544677138,"22":-0.19434350595896308,"23":0.23146834310159534,"24":0.32429730215254393,"25":-0.5238519431874167,"26":-0.40177081800659364,"27":0.41311143039969833,"28":-0.19341605020555355,"29":0.5238234070303579,"30":-0.3220866172052739,"31":0.03925341655429758,"32":0.4770943634502478,"33":0.49453705457118674,"34":0.10126941416951726,"35":0.19206079324156353,"36":0.6812167981061004,"37":0.7527716800870152,"38":-0.9172869599001314,"39":-0.6051517463369777,"40":0.6072905472859639,"41":-0.8765593713735841,"42":0.3788989573538732,"43":0.2942624245099845,"44":0.7708876334926438,"45":0.08574351525025072,"46":0.4347625546554743,"47":-1.0028886411503541,"48":0.01837911773106831,"49":0.9538849834215037}},"2":{"bias":0.08160066017188443,"weights":{"0":0.6387969491958562,"1":-0.1245378711013556,"2":0.23351469457788596,"3":0.37976667457636165,"4":0.03214035936877301,"5":-0.5441835167685674,"6":-0.5007228804288409,"7":0.13695560286712383,"8":-0.39429070956828305,"9":0.1798162544135082,"10":0.7816483950628094,"11":-0.49604607486642016,"12":0.4942081078800604,"13":-1.0224234479079737,"14":0.32913585140382545,"15":0.28202349126469584,"16":0.053298328606288116,"17":0.13134528115680344,"18":-0.2057966827507608,"19":0.13394553198593967,"20":0.814220193283987,"21":0.004965850955351984,"22":0.20992747555106236,"23":-0.434061131936274,"24":-0.5556195368985678,"25":-0.16688968184842531,"26":0.08920104948446529,"27":0.3566018546549462,"28":0.09954804848085842,"29":0.18123175891223192,"30":-0.2622418760796643,"31":0.07266623405165738,"32":0.522028880475354,"33":0.1643973728182378,"34":-0.15750141637125148,"35":0.2914122457737066,"36":0.2351193021429255,"37":0.13560198740105703,"38":-0.8655333134921088,"39":-0.089540607412248,"40":0.3830084441426869,"41":-0.3552271920918237,"42":-0.3231720004574868,"43":0.125551267052782,"44":0.3556683152590004,"45":-0.8143568044020838,"46":0.4241120274718448,"47":-1.022711763472159,"48":-0.3220256607888893,"49":1.0584018059513818}},"3":{"bias":0.02411872944758473,"weights":{"0":-0.09492992015785572,"1":0.09295969466433435,"2":-0.1381376335242351,"3":0.217385385179038,"4":-0.10858224392939016,"5":-0.14685201297985145,"6":-0.2105933478303396,"7":-0.08795289057513085,"8":-0.24857713746510746,"9":0.13795028634744522,"10":0.28021294782535244,"11":-0.35274038938956037,"12":-0.04089106119614159,"13":-0.09332752056880529,"14":0.23518654295115612,"15":-0.15175035404998402,"16":0.01560731252422033,"17":-0.1941640262796312,"18":0.0013534600202735959,"19":-0.0922137280598508,"20":0.1391445283432721,"21":0.13538923129825084,"22":0.09989941325034622,"23":-0.11512344970451752,"24":-0.2568970230895485,"25":0.08887700075182497,"26":-0.08860349930108018,"27":0.1987935198404666,"28":0.09335143152909672,"29":0.03059907364313747,"30":0.12932719333458811,"31":-0.15484119665360746,"32":0.2330667404461408,"33":0.25119949644580014,"34":-0.02821423745460533,"35":0.13793923707367958,"36":0.08100623416877514,"37":-0.10422947218644851,"38":-0.13553649496683495,"39":-0.2453009796494954,"40":-0.06331828966907242,"41":-0.2675846150898092,"42":0.04628447077614995,"43":-0.06816972534376198,"44":0.23053069652427757,"45":-0.1499663673994254,"46":-0.11725558236769697,"47":-0.1766208703026289,"48":0.07458961416823241,"49":0.1323032130981955}},"4":{"bias":-0.3431892969100527,"weights":{"0":0.0693267740432278,"1":-0.4239341291982095,"2":0.2681661135675579,"3":0.36662639488847976,"4":0.1408470184525164,"5":-0.3293913552392259,"6":0.054446836426005715,"7":0.12068412542084066,"8":0.34110169736540635,"9":-0.4009864834834289,"10":0.5882290456811813,"11":-0.6001849571418022,"12":0.25091622049244705,"13":-0.45665141796091624,"14":0.1737552978307067,"15":-0.31277976782636574,"16":0.08349515535046824,"17":-0.025766110148674956,"18":-0.3375491566109346,"19":-0.0021873323601260103,"20":0.20416368786945205,"21":0.03340991336192355,"22":-0.161295501542393,"23":0.19324771073194277,"24":0.45351890717465754,"25":-0.5458120780525907,"26":-0.5173341253121322,"27":0.234035208896074,"28":-0.392665263484017,"29":0.25333717879131445,"30":-0.15589341869543913,"31":-0.11097427861151911,"32":0.15701476664307257,"33":0.3167100215097966,"34":0.012549346467680259,"35":-0.07771589443955446,"36":0.1073967083950536,"37":0.6097415796491652,"38":-0.5965197501338128,"39":-0.5461946799961993,"40":0.3126888497806975,"41":-0.5922942009304492,"42":0.3709722696830903,"43":-0.12590981985515384,"44":0.3287007958767631,"45":0.27470430532655343,"46":0.3521189427201374,"47":-0.7222554677901599,"48":0.2844474859521947,"49":0.33754410576207183}},"5":{"bias":-0.2687158127802511,"weights":{"0":-0.47697732954053,"1":0.4216621042289809,"2":-0.31265492597571853,"3":-0.1993886456179301,"4":-0.29445599891070595,"5":0.5446597236433521,"6":-0.10704138114449485,"7":-0.36378100290803755,"8":-0.35021572317440197,"9":0.01869741957075385,"10":-1.0210275935532236,"11":0.7715535686982273,"12":-0.8410483351647224,"13":1.0797521142021567,"14":-0.09254426067995004,"15":0.10794549446941021,"16":-0.38376918279920513,"17":-0.21178531589895885,"18":0.2949561833036724,"19":-0.12069775713697377,"20":-0.5887101271948856,"21":-0.45020042224373197,"22":0.25905773760003675,"23":-0.29427149541891817,"24":-0.16444306056447366,"25":0.49264789391053515,"26":0.23906710099279788,"27":-0.25016557276163515,"28":0.2755557120467112,"29":-0.6125073658200125,"30":0.0502652039527846,"31":-0.16096202950601443,"32":-0.6108807969756566,"33":-0.4135306322618743,"34":-0.31672069666076197,"35":0.011723263808981546,"36":-0.4702301716041803,"37":-0.5786451051663503,"38":0.9253164248569726,"39":0.49954593191445207,"40":-0.38395319979116155,"41":0.8644174672304084,"42":-0.20148733928900373,"43":-0.04786941094261417,"44":-0.6981647547858866,"45":-0.5884661750198793,"46":-0.6922838762355156,"47":1.0089212591599954,"48":0.04172303435658831,"49":-0.7926739476109266}},"6":{"bias":0.38771410110779714,"weights":{"0":0.13231760916042737,"1":0.36123921524774144,"2":-0.023752761739984397,"3":0.009028571211801372,"4":-0.1534867309889731,"5":0.15315218764859354,"6":-0.5529503651467164,"7":-0.21829490559346065,"8":-0.461231638471515,"9":0.4399494593620144,"10":-0.3289645998283774,"11":0.23284718461287546,"12":-0.3411928430063977,"13":0.29081008804676606,"14":-0.14103044964333517,"15":0.43872680756846333,"16":0.2228344345125053,"17":0.0614467860210945,"18":0.45007461952547445,"19":0.13477357605755708,"20":0.11212774861472133,"21":-0.11580704280553114,"22":0.8552326631857241,"23":-0.5006883792347543,"24":-0.8538845507759442,"25":0.5173824948251808,"26":0.5911075521835498,"27":-0.046398936219946285,"28":0.22647800342234164,"29":-0.3485198005888202,"30":-0.01418861342455276,"31":0.32967681580011643,"32":0.06935963847331933,"33":0.30021296846589496,"34":-0.22031419037233912,"35":0.47564286240354003,"36":0.08520147838659804,"37":-0.5433497471043088,"38":0.16390339389481537,"39":0.6005663846107655,"40":-0.1678205937999785,"41":0.10006417234450468,"42":-0.643666902751439,"43":0.03519906739478197,"44":0.10125583334782465,"45":-1.463409981064191,"46":-0.21349948399195265,"47":0.09258217248109753,"48":-0.6820061825071364,"49":0.4228282079720581}},"7":{"bias":-0.12422361336780924,"weights":{"0":-0.23183982716308013,"1":-0.09096260332622286,"2":0.2580794813971165,"3":0.08561158517434467,"4":0.14339183668355623,"5":0.15039062485393814,"6":0.621024640055899,"7":0.10894820080315921,"8":0.5699316579786585,"9":-0.4255785630354369,"10":0.03238117764588021,"11":-0.03458435584434624,"12":0.11131720639022867,"13":0.03200342103511311,"14":0.20670189454848492,"15":-0.45049566402666635,"16":-0.14810816115061914,"17":-0.22084541456690915,"18":-0.2447646597289053,"19":0.08484511106832425,"20":-0.11068860221903515,"21":0.009856644490365569,"22":-0.35841332595147746,"23":0.6901040905466775,"24":0.5414364209498914,"25":-0.19150226461696143,"26":-0.15043180602498343,"27":-0.19682272109295304,"28":-0.023268497627738673,"29":0.1204151145198499,"30":0.17117778545313372,"31":0.0559698148193055,"32":-0.3033445935136296,"33":-0.08026736451208806,"34":0.18167024591236178,"35":-0.2985085665033868,"36":0.16398778316738338,"37":0.19436151906460009,"38":0.29283726807777355,"39":-0.12055158724888054,"40":-0.07466600351220819,"41":0.12035985522322236,"42":0.35434418828821684,"43":-0.09292573441060616,"44":0.03434783359813727,"45":0.8737336799299077,"46":0.26321099717456253,"47":0.15406098581878105,"48":0.5153638609852425,"49":-0.22052596771406627}},"8":{"bias":-0.3005878833736348,"weights":{"0":0.2595222101025614,"1":-0.21180058271120744,"2":-0.127438792893302,"3":0.016738287760570097,"4":0.25629186820225475,"5":-0.46659507879628376,"6":-0.11104134632650912,"7":0.021853870138269473,"8":0.057065268931999855,"9":-0.19259207507066078,"10":0.27690913449505755,"11":-0.20180263878785218,"12":0.4472006305414132,"13":-0.33435365846006243,"14":0.26793946694746124,"15":-0.3126174314570193,"16":-0.008655997914522326,"17":-0.24853056294447856,"18":-0.0985203139673523,"19":0.031498343437045974,"20":0.4213285371353244,"21":0.26318969471188564,"22":0.024429804977312987,"23":0.07314753647814876,"24":-0.18027077577681003,"25":-0.42402279390992154,"26":-0.09963700126347942,"27":0.19749863832628484,"28":-0.16915014036830134,"29":0.30160069118288996,"30":-0.06937675990557703,"31":-0.11728890682994625,"32":0.2701260314390383,"33":0.1050256755476975,"34":0.08035996418461769,"35":-0.22483356136031699,"36":0.33847364537094093,"37":0.33482486236513465,"38":-0.4473843906773591,"39":-0.309445973104906,"40":-0.007892627380586728,"41":-0.4997239634471158,"42":-0.07671447632147439,"43":0.13157696442597397,"44":0.2522705118653486,"45":-0.36440891522828267,"46":0.23966400274111055,"47":-0.3296698019810911,"48":-0.0908400705205547,"49":0.17405870924053957}},"9":{"bias":0.023964363278278087,"weights":{"0":-0.26550377111554,"1":0.06020424320262122,"2":0.13207987724716708,"3":0.3706627146931438,"4":0.052328818210128164,"5":-0.0943989788336345,"6":0.551750216888912,"7":0.3996030396400892,"8":0.6453017803108406,"9":-0.3362923036996604,"10":0.15456800954979436,"11":-0.0687676723700437,"12":0.27626375690381033,"13":0.29971036667232676,"14":0.4195468484076941,"15":-0.47783304849070085,"16":-0.15011675831345986,"17":-0.13874579527969505,"18":-0.06953764267380334,"19":-0.01554795569999207,"20":0.09565828352687715,"21":0.19550342028781245,"22":-0.6518603501814223,"23":0.5323532015637293,"24":0.7235383468743597,"25":-0.20004159248017173,"26":-0.14911404663609035,"27":0.018443079143400144,"28":-0.012611974797133444,"29":-0.03153790047398801,"30":0.33253381160907103,"31":0.07577064664994627,"32":-0.06720826938858561,"33":-0.09814165537415695,"34":0.22230375951047626,"35":-0.36434905476705376,"36":0.06668593405024381,"37":0.09944713136819544,"38":0.17209469778398756,"39":-0.21325625489152017,"40":0.21124743037585203,"41":0.03788280598899646,"42":0.3925372959170024,"43":0.17336186519596522,"44":-0.14332723981597814,"45":0.9776449176036114,"46":0.19653847361956928,"47":0.19451297353358435,"48":0.33785576805248185,"49":-0.1158752698095604}},"10":{"bias":0.20200402772190937,"weights":{"0":0.1591205010031004,"1":0.22327302419145093,"2":-0.14949366810958742,"3":-0.22968271380184174,"4":0.02598154387499545,"5":0.22140192537334866,"6":-0.6717521309611914,"7":-0.07983067599586091,"8":-0.7110204447673644,"9":0.25345800889438247,"10":0.19500710138833988,"11":-0.2032174502570811,"12":-0.242924712252725,"13":-0.37677271424766456,"14":-0.14234794409295848,"15":0.3127954137372309,"16":0.19153552232611673,"17":0.10927828195741393,"18":0.0021847933008521782,"19":0.04247347669428763,"20":0.0874750746222448,"21":-0.29748609032197,"22":0.6069479966605478,"23":-0.5977038626797169,"24":-0.849582916181336,"25":0.11402170090396568,"26":0.20487415010568114,"27":-0.0006722089817954021,"28":0.2755258900271277,"29":0.03842931376147069,"30":-0.3937750533074361,"31":0.056757628797891216,"32":0.2811459525412863,"33":0.046132940226842584,"34":-0.6589132524325791,"35":0.2763352758220184,"36":-0.0066122097842250625,"37":-0.1791509129854582,"38":-0.12914553434687065,"39":-0.04606522466112142,"40":0.07966095515806801,"41":-0.04338079007455339,"42":-0.26830011069762005,"43":0.09278894240786305,"44":0.1404247952513979,"45":-1.5165390355756794,"46":0.12113537206015255,"47":-0.3211391820622965,"48":-0.6874646637524184,"49":0.46135694251751425}},"11":{"bias":0.23821985227190487,"weights":{"0":-0.033965853538563635,"1":0.13270397592980687,"2":-0.14102857357492468,"3":-0.10126076788409265,"4":-0.2656621372433933,"5":-0.12314426957983092,"6":-0.6543614462287213,"7":-0.20548374295877628,"8":-0.6852202282610118,"9":0.1835602294597366,"10":0.129381613219246,"11":-0.21473364132491762,"12":0.05622857969161308,"13":-0.35010471096768697,"14":-0.4051278531713245,"15":0.37479948190564427,"16":0.03914435332861606,"17":0.43632944175288474,"18":0.28976844776850247,"19":-0.014393266733979098,"20":0.237951596405478,"21":-0.3052212011875273,"22":0.514481320514777,"23":-0.7790107901461423,"24":-0.6796059944943176,"25":0.3419570256474887,"26":-0.004195416576129251,"27":0.0867502037516444,"28":0.2492370983736478,"29":-0.018496210859719985,"30":-0.2490332794070717,"31":-0.04109028400726687,"32":0.018029115228298125,"33":0.054820187545528816,"34":-0.5308870082503764,"35":0.08798183640194983,"36":-0.21888182722684793,"37":-0.27352738748391975,"38":-0.21666763859648708,"39":0.1817028737455043,"40":-0.09377802143680798,"41":-0.09762049070741197,"42":-0.29280300947200094,"43":0.015665813685233884,"44":-0.19773978624677263,"45":-1.2689613005729026,"46":-0.003987516514610679,"47":-0.10717662269212491,"48":-0.4011566797037231,"49":0.25574848295486613}},"12":{"bias":-0.09917219690757179,"weights":{"0":-0.05318236350983924,"1":-0.24112107424134088,"2":0.09614098665213795,"3":0.30373651713789623,"4":0.08324408157511066,"5":-0.18324452317654655,"6":0.5602979087976716,"7":0.29155374928993205,"8":0.5145160804990808,"9":-0.18803656754514458,"10":0.2096071734523582,"11":-0.118531419030029,"12":0.1791335379195805,"13":-0.15359146520144948,"14":0.3891492364270363,"15":-0.20396194589556568,"16":0.12607857839484124,"17":-0.2694028614612509,"18":0.030854260210177793,"19":-0.009351722470907457,"20":0.16983196752088023,"21":0.1648088688664799,"22":-0.5177475815134711,"23":0.3380778646082815,"24":0.35602854429375286,"25":-0.2063756607007461,"26":-0.06719980989709588,"27":0.2317019388197043,"28":-0.40980162555260463,"29":0.1294634176687086,"30":0.19921932515619048,"31":0.14804320689561223,"32":-0.18481986554847046,"33":-0.1218809744701531,"34":0.2024934996251559,"35":-0.33865491217711396,"36":0.008520747219449709,"37":0.4921867522464707,"38":-0.25622755547839393,"39":-0.36334058039895306,"40":0.14111462033826785,"41":-0.29466341519576617,"42":0.3293082378616097,"43":0.11018851834647782,"44":-0.021898608780171382,"45":0.7037174093744759,"46":0.37575221544099174,"47":0.03841746640456743,"48":0.3038612073099974,"49":0.08118471107987393}},"13":{"bias":-0.07854174105999398,"weights":{"0":-0.04054571251017229,"1":0.07489984619773428,"2":-0.12898959109391386,"3":-0.3436646896223877,"4":0.04828226338238484,"5":0.09196400996691827,"6":-0.8436001642227607,"7":-0.3130683100226541,"8":-0.5894965374406976,"9":0.3779068589906822,"10":-0.06511780584106248,"11":-0.09576263031555503,"12":-0.07031379986968835,"13":-0.17650945957092884,"14":-0.18808004843757173,"15":0.40087127585378146,"16":-0.0017969100989977931,"17":0.3696272042395166,"18":0.027799246849321047,"19":-0.15786456272676033,"20":0.12106564217054996,"21":-0.15616882604638158,"22":0.32117058267308235,"23":-0.6989158987130736,"24":-0.855550689831884,"25":0.3168439736496636,"26":0.06367147364638552,"27":0.003463893286681168,"28":0.16615867599512732,"29":-0.09813626640538958,"30":-0.27291554509519605,"31":-0.15883012601301258,"32":0.2929156855681601,"33":0.05766152791123249,"34":-0.6935463503333171,"35":0.24831545794775306,"36":-0.03266249178744079,"37":-0.08152796308361776,"38":-0.09738298946372222,"39":0.28827931400873974,"40":0.0311872176554175,"41":0.2059707431940122,"42":-0.3713358182504366,"43":-0.13039132339434825,"44":-0.18024341864212948,"45":-1.3156995153423776,"46":-0.31398768905356444,"47":-0.3256221425967148,"48":-0.7127260151536696,"49":0.18644379264182742}},"14":{"bias":0.005613373099193726,"weights":{"0":-0.02266242383975852,"1":-0.1828400521029869,"2":-0.009268022281185603,"3":0.216787192435696,"4":0.26460930752726597,"5":-0.42745205903042716,"6":0.29573197016192754,"7":0.15799975622840595,"8":0.4569600348982342,"9":-0.2674227177165869,"10":0.7700189516233593,"11":-0.390440153405839,"12":0.6982908110069115,"13":-0.47991980041115534,"14":0.3139503490125713,"15":-0.3525304302556204,"16":0.23462905186565225,"17":-0.020856197829009753,"18":-0.34405928689591186,"19":0.02168254844043981,"20":0.4990767823928659,"21":0.3559009124140443,"22":-0.479193510059622,"23":0.22085833692004117,"24":0.5304447722123329,"25":-0.3911320819009657,"26":-0.48904190227333744,"27":0.1565849884546378,"28":-0.47413819497424786,"29":0.2779001174149122,"30":-0.20918559131356967,"31":0.07988500098263421,"32":0.363202474650363,"33":0.2583841008054593,"34":0.24046215239489482,"35":-0.2997498486192353,"36":0.23044138869043027,"37":0.6813721430008218,"38":-0.8254053619748787,"39":-0.5702368322392051,"40":0.2994215930626861,"41":-0.6677248228294718,"42":0.5864072213477358,"43":-0.07137805582304955,"44":0.12413606411313831,"45":0.731610958036234,"46":0.306463856459617,"47":-0.6111752410285572,"48":0.227829513098224,"49":0.3481822308053263}},"15":{"bias":0.0447033683190301,"weights":{"0":0.2963445960867502,"1":-0.16348766746429094,"2":-0.1763405209994584,"3":0.16855081114463558,"4":0.155385424070582,"5":-0.3664957480510213,"6":-0.2171373537066156,"7":-0.09395184563255038,"8":-0.11744603806615969,"9":0.11669347852683408,"10":0.14327040490364545,"11":-0.05981546242568516,"12":0.21410530017153145,"13":-0.29965808809909245,"14":-0.04827016985423537,"15":0.024814910634903722,"16":-0.07132691496377346,"17":0.12973155132248165,"18":-0.16068109200157069,"19":0.010136178774032318,"20":0.14002016721328758,"21":0.23721974597125864,"22":-0.06239799122236253,"23":-0.1637714901267778,"24":-0.2530390499850445,"25":-0.15542254214936735,"26":-0.057490188142533365,"27":-0.002454508251025707,"28":-0.10578670895455958,"29":0.07052546677476185,"30":-0.24940827642154828,"31":0.03600462916635541,"32":0.16520039082038768,"33":-0.06821522413803013,"34":0.02937907837760334,"35":0.03039562028708519,"36":0.2071326049776281,"37":0.28761728752330046,"38":-0.19484049396163436,"39":-0.19360634658717107,"40":0.19833375659249738,"41":-0.3590209167951615,"42":-0.04013696398498603,"43":0.001368340563256614,"44":0.195352641755539,"45":-0.2051468992601532,"46":0.00916625057128818,"47":-0.23946541395514995,"48":0.13169992811909403,"49":0.12230742489796011}},"16":{"bias":0.2784570279238597,"weights":{"0":0.12661889981843172,"1":0.18832107848190205,"2":0.03240077931573494,"3":-0.3361971291530123,"4":-0.2759429908639418,"5":0.08718871549222905,"6":-1.1490704438001542,"7":-0.1928016062529999,"8":-1.0869480835114214,"9":0.5201476782402912,"10":-0.2873757197689661,"11":0.19662031161810578,"12":-0.21127054091087663,"13":0.004943367311290328,"14":-0.305923924020523,"15":0.7996944935204355,"16":0.31712907061676016,"17":0.15318070089798347,"18":0.22632371761491984,"19":0.011879141594160246,"20":0.20229975374728845,"21":-0.4519305337069123,"22":0.8868091358511007,"23":-1.0482295642825314,"24":-0.6704628579467616,"25":0.48731748389415863,"26":0.3127869520765036,"27":-0.11284983680923248,"28":0.43483627060950675,"29":-0.38251115831732047,"30":-0.1816531987452231,"31":-0.09399902626607068,"32":0.010528098444803326,"33":0.1361701943257738,"34":-0.6642897893503474,"35":0.4501543431844924,"36":-0.3793843549784021,"37":-0.6983134217591102,"38":-0.008109608655009851,"39":0.3744480697991683,"40":-0.30327614440762657,"41":0.021387719366194092,"42":-0.8822278311438121,"43":0.07714510634409762,"44":-0.26219828310423354,"45":-1.334228786840571,"46":-0.4892394620075643,"47":-0.24351101749314022,"48":-0.603780823719133,"49":0.24586845708043642}},"17":{"bias":0.3988871030599356,"weights":{"0":0.40281453529276245,"1":0.2763330596351999,"2":-0.01668284508326709,"3":-0.12864412674281686,"4":-0.266870858385722,"5":0.20487627465204286,"6":-0.8012207554606723,"7":-0.020554073287245886,"8":-0.32501331527931676,"9":0.5962080509329435,"10":-0.3439921774020324,"11":0.014560810613444955,"12":-0.3943697259448347,"13":0.3500732806654945,"14":-0.09552683057274192,"15":0.7615145832700001,"16":0.1720867309927455,"17":0.3275545092489403,"18":0.1667560570066418,"19":0.26920840749208463,"20":-0.034507048396462944,"21":0.017178080735573132,"22":0.8398827025104749,"23":-0.6966841013367258,"24":-0.834742143266437,"25":0.6178604984846634,"26":0.33124369707434886,"27":0.09272920777527142,"28":0.5854296312818774,"29":-0.2895176860054566,"30":-0.08284589593432448,"31":0.2541043320048889,"32":0.2007495426010517,"33":0.09398344887067021,"34":-0.3248943665142461,"35":0.3991258047991388,"36":0.0783363440805888,"37":-0.39037525984893723,"38":0.41527719661557255,"39":0.576450026362084,"40":-0.11714331311592165,"41":0.2158171270122404,"42":-0.6284567499323713,"43":-0.01568407450706293,"44":0.12610178850770487,"45":-1.4689274938708152,"46":-0.3008836570228323,"47":0.2865193976742687,"48":-0.6954402296642253,"49":0.4213960618765676}},"18":{"bias":-0.10657838772207326,"weights":{"0":0.08913445627261028,"1":-0.36040986431258193,"2":-0.08801672302244572,"3":0.23824393195367186,"4":-0.13834781637903285,"5":-0.4501328764099612,"6":0.030934881204062365,"7":0.0053171889616604115,"8":0.07714404378893933,"9":-0.030931285793856848,"10":0.3804872731945124,"11":-0.2052184657514924,"12":0.06303132092842804,"13":-0.3256132395375025,"14":-0.020797365048248525,"15":-0.1300421105382928,"16":0.00901451200250166,"17":0.08547748228222958,"18":-0.06674437762946572,"19":0.1486585383868049,"20":0.3858165596582018,"21":0.23479719343134028,"22":-0.1585480350147364,"23":0.14456876363615584,"24":0.016607683023325766,"25":-0.15278702658868132,"26":-0.2019152474594326,"27":-0.09746972586181797,"28":-0.26037886452038617,"29":0.27712783794861956,"30":-0.18008968645288387,"31":-0.036421543080049995,"32":0.33623734217866,"33":0.013356263863349378,"34":-0.09916402299178838,"35":-0.018931391210533582,"36":0.3393241040223583,"37":0.0575934267583785,"38":-0.26302890254600786,"39":-0.33266142946757077,"40":0.23884386823165984,"41":-0.4780961545744139,"42":-0.025248642614336552,"43":0.09491520121658541,"44":0.30585969371235194,"45":-0.264988739436548,"46":-0.056086185875019845,"47":-0.6042597289168202,"48":-0.05890141056356642,"49":0.34857741646396895}},"19":{"bias":-0.14361334397273315,"weights":{"0":-0.068435586394273,"1":-0.14294844044281635,"2":-0.031031636772023405,"3":0.21543735258072563,"4":0.09839401350093605,"5":-0.40939477474908403,"6":0.14576864226412264,"7":0.20744083983448106,"8":0.08904384162523311,"9":-0.23736301806532978,"10":0.564806030270789,"11":-0.4315139948528063,"12":0.5402059715979183,"13":-0.7357915180068613,"14":0.2516902824236331,"15":-0.45178325045496026,"16":0.17429667107979444,"17":-0.06385175716020515,"18":-0.38027779209712753,"19":-0.09760183731190863,"20":0.22787351862426325,"21":0.16533745125272142,"22":-0.1390821723836585,"23":0.2882641169492356,"24":0.2168765796465297,"25":-0.5488750686432973,"26":-0.3520478719240207,"27":0.1623178737250546,"28":-0.1528751003528149,"29":0.11030198091341543,"30":-0.17257553585726249,"31":0.03117807566884427,"32":0.03255610466688501,"33":-0.07094988968061089,"34":0.09314454769272948,"35":-0.2824085154255882,"36":0.27471473096436894,"37":0.2400591592076202,"38":-0.6551860620943435,"39":-0.23776502397227992,"40":0.03529278081228995,"41":-0.6554750665102927,"42":0.33001681360044394,"43":0.07074275270828614,"44":0.12595509465307428,"45":0.17573208136811624,"46":0.19902770110679005,"47":-0.4730561784606646,"48":-0.09324367394153996,"49":0.2936829178716462}},"20":{"bias":0.08388321777628187,"weights":{"0":0.14112813573879351,"1":0.020589704958452436,"2":0.16339297359636784,"3":0.40486420100005704,"4":0.3627382325403606,"5":-0.46110737787878037,"6":0.5324958065298618,"7":0.2858178826625827,"8":0.25570821769600666,"9":0.028906208001012196,"10":0.8683303331598831,"11":-0.487180415845771,"12":0.5243474579979219,"13":-0.6100673163633176,"14":0.40173660184276344,"15":-0.3006687798624706,"16":0.37589757729822326,"17":0.04108391672192387,"18":-0.20437026841370146,"19":0.3147812498746162,"20":0.5329362362137657,"21":0.3073773080984267,"22":-0.1727177743585906,"23":0.22700895966685838,"24":0.4328393620759337,"25":-0.37370448764577924,"26":-0.23512199600169173,"27":0.270141357360013,"28":-0.2509776511101293,"29":0.49290677881628564,"30":0.14824028209925844,"31":0.1959527993866414,"32":0.47525536683550973,"33":0.5247759420607654,"34":0.46700655387824724,"35":0.18721314735843858,"36":0.29471228729578713,"37":0.7200496397667069,"38":-0.6725524318874129,"39":-0.17721030591186973,"40":0.41241760239902936,"41":-0.3891939407385352,"42":0.5400679456430787,"43":0.23812882872789515,"44":0.3602781254837074,"45":0.1895706966130832,"46":0.5289971710587992,"47":-0.5442442921595124,"48":0.21171184542912957,"49":0.633503087888543}},"21":{"bias":-0.01782609509053475,"weights":{"0":0.2515440423429644,"1":-0.3304525668365989,"2":0.2061011537006266,"3":0.36854829112659226,"4":0.05683376796193868,"5":-0.6526236753167431,"6":-0.11680872489671529,"7":0.1384440695607266,"8":-0.22089009141907906,"9":-0.36722936258033856,"10":0.7175119491919607,"11":-0.6179495368038452,"12":0.62474612796619,"13":-0.7577605738715726,"14":0.06596987238216388,"15":-0.38973836129622264,"16":0.09755412119329668,"17":-0.228919081679502,"18":-0.1547780885358527,"19":0.24662327696394248,"20":0.635368071250707,"21":0.2433496008814977,"22":0.04374493259034998,"23":0.031166229036816893,"24":-0.04305336037712865,"25":-0.3115507422274331,"26":-0.18562825295647653,"27":0.17501544326538218,"28":-0.4127277268339184,"29":0.05118727478298932,"30":-0.30539369487285273,"31":0.11578025213603453,"32":0.5068156668990346,"33":0.11306890341749662,"34":0.13433791429282987,"35":-0.10172869066275962,"36":0.13218225556761887,"37":0.38690902159382745,"38":-0.708802595959894,"39":-0.4697748157202398,"40":0.3915268369172191,"41":-0.5040524688564699,"42":0.06747200547826869,"43":-0.1766026527648441,"44":0.45386473859698157,"45":-0.09069999789918182,"46":0.08240221637705823,"47":-0.9607635104758009,"48":-0.3453570325276042,"49":0.559207684009755}},"22":{"bias":0.020512371853514358,"weights":{"0":-0.13119748873685605,"1":-0.09257030897270661,"2":-0.03129167816192269,"3":0.1746693843001587,"4":0.28128586908260567,"5":-0.56886227383003,"6":0.5100196264101745,"7":0.2568976565277648,"8":0.255504602355167,"9":-0.28086068437631406,"10":0.5973474223816976,"11":-0.14015041541357331,"12":0.5123265384830175,"13":-0.6158329770189155,"14":0.07868340857041872,"15":-0.40171292882770676,"16":-0.14345861416386405,"17":-0.23018658698731828,"18":-0.18019511520211468,"19":-0.1438120153459668,"20":0.24014471169087917,"21":0.03811124287379692,"22":-0.24297912118831205,"23":0.5195931761466688,"24":0.3124354907211147,"25":-0.4519855758143882,"26":-0.48335531721948727,"27":0.04207813788786488,"28":-0.42719030041078476,"29":0.32218530040890836,"30":0.10536386542934043,"31":0.15015455939497266,"32":0.14343407784423579,"33":0.005305304860223599,"34":0.32121851292691955,"35":-0.020223957794395866,"36":0.24959753150645744,"37":0.6285827910082927,"38":-0.5546041509601704,"39":-0.31543607010254804,"40":-0.01496384241185526,"41":-0.2943924928145456,"42":0.5682906150502325,"43":-0.11736827918059937,"44":0.35884495356795965,"45":0.7360617200021315,"46":0.17396605812256444,"47":-0.416317724658119,"48":0.299690452588725,"49":0.3556986756232468}},"23":{"bias":0.10845622582237151,"weights":{"0":0.11828536469907133,"1":-0.2902260176054636,"2":0.10409026561124485,"3":0.12895556970295083,"4":-0.028702224741992993,"5":-0.09309833995791529,"6":-0.05688986122092494,"7":-0.12292971559298438,"8":0.16653939086012381,"9":0.06844410613474884,"10":0.2558344521366013,"11":-0.45576911517344426,"12":0.32496102241349517,"13":-0.5994725050928544,"14":0.14535239709574252,"15":0.030828031144128888,"16":-0.07527196799227226,"17":-0.17883334846075732,"18":-0.2286653721988689,"19":0.008688139443081526,"20":0.307550344994587,"21":0.22115201791668526,"22":0.13198228497199485,"23":-0.16035992387236528,"24":-0.06294580119031057,"25":-0.263472350245613,"26":0.05896455694410604,"27":-0.028405819593721276,"28":-0.1574931135358905,"29":-0.055969341408541644,"30":-0.15062071270950525,"31":0.09853491589294144,"32":0.21599675379985128,"33":0.0417502128380921,"34":0.02277456367714268,"35":-0.011699769974104381,"36":0.04150792532423656,"37":0.26899632263825535,"38":-0.3533591252541841,"39":-0.17673531520747066,"40":-0.004646374887186353,"41":-0.21981217834669392,"42":-0.020697760783535316,"43":-0.14540540645569208,"44":0.08437914435202983,"45":-0.38135936009442994,"46":0.03303102090010185,"47":-0.33832536957848447,"48":0.09248942573217346,"49":0.4930055551977072}},"24":{"bias":-0.04355728577307638,"weights":{"0":0.09040540781011142,"1":0.0825613800837785,"2":-0.38883393056740295,"3":-0.19301591200229606,"4":-0.12656258330798417,"5":0.3052355628966369,"6":-0.9411074456874998,"7":-0.4300789810420392,"8":-0.5205150628415832,"9":0.1762996280642712,"10":-0.046031471940840965,"11":-0.17841345327206368,"12":0.010641398098024125,"13":-0.09378170447627572,"14":-0.18306450515459224,"15":0.6519374796463733,"16":0.11544580910625304,"17":0.3315226585939783,"18":0.09975518132085084,"19":-0.3681591648649919,"20":0.08645377719330066,"21":-0.3748419579438321,"22":0.6707352088008142,"23":-0.6790360451088002,"24":-1.1499767992069683,"25":0.06900056168152187,"26":0.04718702303615068,"27":-0.2862757316939269,"28":0.34219432516346665,"29":-0.34284909133025915,"30":-0.3205376150632816,"31":0.019104198941198972,"32":0.16049554614538772,"33":0.11167297044039552,"34":-0.8462663937977138,"35":0.19497114327245885,"36":-0.06701134919973344,"37":-0.3003174825747512,"38":-0.04581898832748803,"39":0.28175046190539516,"40":0.018518715543023374,"41":0.04230918733694845,"42":-0.6079009598438758,"43":0.10696675888720107,"44":0.05800928831146857,"45":-1.4012411294906861,"46":-0.24933933081239068,"47":-0.46874559167157026,"48":-0.6849449062708743,"49":0.07046233476843665}},"25":{"bias":-0.1275320595238144,"weights":{"0":-0.39481019646876503,"1":0.28729633133521726,"2":-0.07345611718176939,"3":-0.3332550153918495,"4":-0.12350318515561662,"5":0.5641996704764557,"6":-0.19655414563100834,"7":-0.36294773398903524,"8":-0.03575254803667963,"9":0.022555674397717926,"10":-0.6225309029262615,"11":0.46174685156516093,"12":-0.4875056991454593,"13":0.8037148378719826,"14":-0.06100905395415886,"15":0.30500620547062923,"16":-0.20073528702879814,"17":0.019486040198714086,"18":0.17806566314276231,"19":-0.05357255677889467,"20":-0.36047045570861913,"21":-0.05520480458490467,"22":0.10100929381546297,"23":-0.389638002804301,"24":-0.37409758314218483,"25":0.5556207977152725,"26":0.1645967536389659,"27":-0.426388142298448,"28":0.3840891133043574,"29":-0.2683739019167616,"30":0.2913677734246013,"31":-0.215255661985385,"32":-0.3881767922098079,"33":-0.4178271410174587,"34":-0.1406306728328634,"35":-0.09580203374380515,"36":-0.3679732652836906,"37":-0.6673250246107505,"38":0.8701581341893506,"39":0.3612272596718966,"40":-0.18557429763368008,"41":0.7745419981423238,"42":-0.4790082087758015,"43":0.09001486242095817,"44":-0.4016271375855577,"45":-0.6119070397380842,"46":-0.36210129349020903,"47":0.917105367459134,"48":-0.34155415385894883,"49":-0.45946320733845486}},"26":{"bias":0.14611755799042003,"weights":{"0":0.5433815487536333,"1":-0.34949014112686483,"2":0.3220561086723916,"3":0.28850880024848446,"4":0.34467504249837466,"5":-0.6585087943769026,"6":0.24998669600551426,"7":0.19785647101512882,"8":0.1264816056512586,"9":-0.14961299199844694,"10":1.0933717203524358,"11":-0.6645203729000386,"12":0.8922876503661757,"13":-1.2678411688733031,"14":0.3522457405861807,"15":-0.2208943023328492,"16":0.3020540461127003,"17":-0.1478230459648742,"18":-0.04697089578104282,"19":0.40503543182665314,"20":0.8762046070219847,"21":0.42669326359597987,"22":-0.0659373747472105,"23":0.2556142145713837,"24":0.3999497471708674,"25":-0.3010920454290806,"26":-0.3643720028697885,"27":0.49266549338413584,"28":-0.21523860718208457,"29":0.4419743600008578,"30":-0.33213875343954397,"31":0.3492897902777486,"32":0.5376423282361285,"33":0.6041837000180269,"34":0.40508148048454007,"35":-0.11560667165019153,"36":0.6772104620366872,"37":1.021880975968729,"38":-1.1918453659404,"39":-0.663821678269975,"40":0.5179007614943812,"41":-0.9242196625104663,"42":0.48378322039175226,"43":0.09766426759767238,"44":0.8173930112112479,"45":0.4254686079102668,"46":0.4807097876336637,"47":-1.0046939377513693,"48":0.31450411276349804,"49":1.0038919641288633}},"27":{"bias":0.07893282988785505,"weights":{"0":0.07162595454265205,"1":0.0412143219986932,"2":0.17288352443347788,"3":0.33005454038297904,"4":0.1903940606538945,"5":-0.4061360396075722,"6":0.5848736722454562,"7":0.2575628414151021,"8":0.4200586884171719,"9":-0.11462574769596318,"10":0.38498396261139,"11":-0.29567851354863217,"12":0.24423935936887115,"13":-0.13535153632347172,"14":0.24014287606069049,"15":-0.1505615795446678,"16":0.24330850083951203,"17":-0.10372973197716806,"18":-0.20676309941594248,"19":0.3047159832794622,"20":0.33457521273303936,"21":0.13780696923130728,"22":-0.42357260370233635,"23":0.19560141487716998,"24":0.5301548793089221,"25":-0.24431814892165413,"26":-0.24684082804521942,"27":0.2456534950005607,"28":-0.3449993092570398,"29":0.3855369683417319,"30":-0.14007387118233414,"31":-0.022044728581212543,"32":0.23057136829724587,"33":0.28115187950712134,"34":0.3421750670779951,"35":-0.2720333409227698,"36":0.27758065133485493,"37":0.32552400480425253,"38":-0.49955616880056536,"39":-0.32561699642603104,"40":0.21063495602623783,"41":-0.29055212409880676,"42":0.3521431225236125,"43":0.13730615747587566,"44":0.18664473266083642,"45":0.5299637196638177,"46":0.3713051914312684,"47":-0.20201029234161344,"48":0.48402302934884217,"49":0.413418051933963}},"28":{"bias":0.17255758328934934,"weights":{"0":-0.2559691875279314,"1":0.03763797522084294,"2":0.02868202561896129,"3":-0.20185953473211163,"4":-0.011131495216124134,"5":0.2959336394056462,"6":-0.20900224979530949,"7":-0.38749801059022376,"8":-0.2686225454116523,"9":0.07193202370403352,"10":-0.5449756305534664,"11":0.5598887360424231,"12":-0.5639070221129223,"13":0.6721538661295582,"14":-0.10565613068413798,"15":0.19991840383839873,"16":-0.28561302481752565,"17":-0.07539560560274677,"18":0.17925456909979917,"19":0.0886818241302129,"20":-0.3341387601817685,"21":-0.3608032440404427,"22":0.40951265282974664,"23":-0.27954645909880826,"24":-0.3465287817797652,"25":0.48856149673307925,"26":0.3072861841341803,"27":-0.2144022711843748,"28":0.34386918955794527,"29":-0.490584703522097,"30":0.21335470098506587,"31":-0.2517575774549945,"32":-0.39501076761952636,"33":-0.2955280496659091,"34":-0.3364219379493668,"35":0.2040618732825207,"36":-0.3960474248992193,"37":-0.5239892747728291,"38":0.5795728853890165,"39":0.3459639384474943,"40":-0.2962099114930848,"41":0.6816457131786692,"42":-0.2591814265444448,"43":-0.028118653318355887,"44":-0.10988211848028308,"45":-0.7853796568294757,"46":-0.36730014042686615,"47":0.7177292530989103,"48":-0.20547725036748454,"49":-0.4025879449602523}},"29":{"bias":-0.11704026264476508,"weights":{"0":-0.05661806262038585,"1":-0.17917326266874098,"2":0.1708475747733966,"3":0.05127828399138346,"4":0.21358025110262566,"5":-0.3806342325983663,"6":0.2545629039913276,"7":0.12436981032438656,"8":0.2249012953947642,"9":-0.2293942685435581,"10":0.5124460168787988,"11":-0.30636298502898485,"12":0.4747234136518487,"13":-0.5620143134922303,"14":0.22272775552370316,"15":-0.19640875065210273,"16":-0.13892228224731706,"17":-0.20406632567574717,"18":-0.12536057925915936,"19":-0.07500968274974074,"20":0.20103935798231026,"21":0.017106554031362135,"22":-0.40540070924739946,"23":0.3718667097019621,"24":0.393873465406087,"25":-0.549863605112605,"26":-0.17063022824162916,"27":0.05416959950822863,"28":-0.3635512321806991,"29":0.4487232002484004,"30":-0.2096133504660117,"31":0.16249963165895356,"32":0.16767010096956292,"33":0.21173341201164236,"34":-0.015468370750562507,"35":0.05996775673556864,"36":0.16233440481574482,"37":0.610771890590311,"38":-0.5601863124604489,"39":-0.20520360712306893,"40":0.05401577711002383,"41":-0.16681351491002783,"42":0.2713100112080874,"43":0.1433870142537353,"44":0.03462556473954768,"45":0.5692173842288929,"46":0.39577049769293715,"47":-0.3786402387059288,"48":0.28832114677264264,"49":0.0819689791159806}},"30":{"bias":-0.21426135060822474,"weights":{"0":-0.18407757159030083,"1":-0.3157774505430257,"2":0.08122387049512567,"3":0.020138389963673436,"4":0.2561467188061572,"5":-0.3805417818201792,"6":0.42930295881919367,"7":0.03544042536177976,"8":0.2349181331199461,"9":-0.08443130105861858,"10":0.035185320448795576,"11":-0.3126022204962736,"12":0.39729139989108636,"13":-0.20329885862339647,"14":0.3154857105286303,"15":-0.1673999552571534,"16":-0.025790491731136615,"17":0.03670274430714537,"18":0.0003490116547004061,"19":-0.0926024703719362,"20":0.00831604710815609,"21":0.23769922447560285,"22":-0.23792060104711513,"23":0.24203427257122584,"24":0.19694597450560783,"25":-0.44648299217571696,"26":-0.12333265649937059,"27":-0.07713149201732984,"28":-0.3491651703264871,"29":0.15292501768718297,"30":0.05543903200030503,"31":0.04637290674676981,"32":0.18165394009530236,"33":0.21056848438757936,"34":-0.028126255437986684,"35":-0.20378291248992494,"36":0.2096981003957183,"37":0.3575388921502203,"38":-0.23193065865502327,"39":-0.3028900044790945,"40":0.27775741202920684,"41":-0.16125117563385535,"42":0.07095370842533417,"43":0.048288968736600366,"44":0.1854493446330123,"45":0.5067642406091701,"46":0.19002604182131383,"47":-0.04479043317717115,"48":0.06514883938642335,"49":-0.08858868238053313}},"31":{"bias":0.35904134204424115,"weights":{"0":0.16825082279131015,"1":0.23119236817624397,"2":0.037643148945339995,"3":-0.06416773753922661,"4":-0.24447934130495308,"5":0.010873044396078084,"6":-0.8394325083030755,"7":-0.13811859043021857,"8":-0.8250497959966038,"9":0.4307511039767563,"10":-0.30575238313229647,"11":0.21627092079543733,"12":-0.2344921581239949,"13":-0.03735628636856132,"14":-0.46899243115347383,"15":0.6861149042532578,"16":0.23722790859467024,"17":0.35195014814660674,"18":0.3360694865165269,"19":-0.04121830614373737,"20":-0.08451948888639822,"21":-0.22433818542593748,"22":0.5670523817421503,"23":-0.6406243872711116,"24":-0.8201554349752493,"25":0.5245348052526795,"26":0.17958359650897796,"27":-0.031134807283214265,"28":0.3897116556671974,"29":-0.3924360403426767,"30":-0.2700356260319545,"31":0.052909360322249264,"32":0.20571054004922731,"33":-0.15808328841998875,"34":-0.31252967834172024,"35":0.18225820997311934,"36":-0.24738292024521977,"37":-0.2983098348635943,"38":0.028223331825338593,"39":0.19298435470284553,"40":-0.12591638498396004,"41":0.20749959542144678,"42":-0.7854625626867501,"43":0.12848720195601213,"44":0.038647137596669504,"45":-1.3542597984897593,"46":-0.17517612899157847,"47":0.15841196959109288,"48":-0.6955112139363533,"49":0.0362159718632581}},"32":{"bias":-0.012634667206493826,"weights":{"0":-0.14599567720096907,"1":-0.10083928455465568,"2":-0.004528541340880406,"3":0.27587705676560154,"4":0.2124271616686833,"5":-0.22224420936219622,"6":0.23371602893589513,"7":0.2770588065436506,"8":0.3147178139560442,"9":-0.0003476668928296187,"10":0.36776622491188693,"11":-0.2668342039541294,"12":0.32394184900539247,"13":-0.1545138161010333,"14":0.2948185482933799,"15":-0.31414335849152036,"16":-0.20490689651951396,"17":0.005456145432571401,"18":-0.3586580147281059,"19":0.1643412907757396,"20":0.3203212534757154,"21":-0.052047574998260134,"22":-0.38393663661345573,"23":0.04663413515541097,"24":0.08982678032075743,"25":-0.3067543728927109,"26":-0.3907299659171629,"27":0.02780146770048905,"28":-0.1941483102454541,"29":0.30553962787610395,"30":-0.2645140008854234,"31":0.19368171900465525,"32":-0.013777349941787347,"33":-0.12491222308884634,"34":0.24693084240760874,"35":0.01978807930867138,"36":0.2480949164551708,"37":0.3543195190893739,"38":-0.3684236154449201,"39":-0.2157810990386546,"40":-0.06993478041032533,"41":-0.38774058789150667,"42":0.3507460445122341,"43":-0.031651755041388605,"44":0.2897924608301804,"45":0.05617757960388881,"46":0.31600846566032464,"47":-0.2448563090824461,"48":-0.006566097509003042,"49":0.27161786897592155}},"33":{"bias":0.05022886765154081,"weights":{"0":0.3919524997734924,"1":-0.09509231369047254,"2":0.2802843930762034,"3":0.38538109744894966,"4":0.17452098601971514,"5":-0.8086678646025252,"6":0.07957518133481915,"7":0.44979227963355706,"8":0.3934898242695264,"9":-0.0640695788793304,"10":0.9801777183828007,"11":-0.6272913925540772,"12":1.0327699774860608,"13":-1.0707934909758363,"14":0.5576814931292119,"15":-0.2762880382547261,"16":0.5407182740760781,"17":0.020712821299769188,"18":-0.00385223273552425,"19":0.2809084426556308,"20":0.9309398832507176,"21":0.40473943102963605,"22":-0.2920021632136165,"23":0.008600869598447629,"24":0.32801386606765776,"25":-0.6163719947899526,"26":-0.2858468096229781,"27":0.40562970421028777,"28":-0.36997337641328754,"29":0.5968036815407692,"30":-0.0746889716205573,"31":0.3110624103083142,"32":0.7876960433635979,"33":0.7120795733462056,"34":0.1325550377658672,"35":0.09992869575301004,"36":0.4561882468662273,"37":0.9235728648883175,"38":-1.1589921463981578,"39":-0.76751143090847,"40":0.6422079933752021,"41":-0.5966039040529512,"42":0.5043146108509583,"43":0.036924375613024356,"44":0.637044131313463,"45":0.38415851582744903,"46":0.5584402129090926,"47":-1.0722443565292274,"48":0.14453078507293884,"49":1.0725674749634533}},"34":{"bias":-0.2342164374975763,"weights":{"0":0.13178629692527644,"1":0.025523227651857234,"2":0.12128556449332704,"3":0.19388292947470243,"4":-0.05469066453157444,"5":-0.2539403437147587,"6":0.6548141372940297,"7":0.22185099490502508,"8":0.2669793271053226,"9":-0.1411869117802616,"10":0.3007928753635727,"11":-0.2769781573226086,"12":0.11838899758378997,"13":-0.38326448578714,"14":0.04682825197825705,"15":-0.446333266486117,"16":0.059939557289250864,"17":-0.3146974148743658,"18":-0.229257589669675,"19":0.05942493417466459,"20":0.020928494850362432,"21":0.17353749316365893,"22":-0.4931655234143313,"23":0.41361061476074606,"24":0.6367024668853756,"25":-0.32235417572963737,"26":-0.09825803161943332,"27":-0.14543729339746503,"28":-0.10908038410172309,"29":0.2946297284362818,"30":0.028152823014754535,"31":-0.05001165231968749,"32":-0.05681577400986823,"33":0.11054304451953165,"34":0.3856823782348189,"35":-0.3166850123974372,"36":0.03565690080451675,"37":0.5638115154135896,"38":-0.4235658353089272,"39":-0.48223322058930596,"40":0.1490186345108199,"41":-0.3234873136469451,"42":0.44136239189231996,"43":-0.09507568394142875,"44":0.1117449237518889,"45":1.0165770206903273,"46":0.3199692529520434,"47":-0.25536748188142316,"48":0.3901386365556289,"49":-0.05725041149749051}},"35":{"bias":0.07469519397413966,"weights":{"0":0.07931261210910959,"1":-0.1620193911613465,"2":-0.005861112552994079,"3":-0.1773995699377375,"4":0.06921579984548495,"5":0.060232202366154564,"6":-0.16466590763284625,"7":-0.17261347026277354,"8":-0.1703459983749106,"9":-0.05309183934409053,"10":0.06282007702131161,"11":-0.13713356469881904,"12":-0.11215150474100502,"13":-0.018581556760575744,"14":-0.253130762369114,"15":0.04518546238457744,"16":-0.047276867533114254,"17":0.10790887011730242,"18":0.13974729633944694,"19":-0.18352400138176764,"20":0.0883615368645537,"21":-0.015003086546868973,"22":0.19872905326652449,"23":-0.0778367686886621,"24":-0.25739836220960916,"25":0.03553795439439248,"26":-0.06081910717750349,"27":-0.13569416315693233,"28":0.033074112812026164,"29":-0.2012244379952444,"30":-0.23468591744509373,"31":0.0027142437583535634,"32":0.059294466837962884,"33":-0.05247713205889952,"34":-0.3911999701085693,"35":-0.11929428623381294,"36":-0.28061915173037755,"37":0.025716014371626482,"38":0.06513436645898783,"39":-0.010101418859362143,"40":-0.08838143452600963,"41":-0.16407421728811095,"42":0.043383795278808576,"43":-0.24950803302060925,"44":0.026974650441333875,"45":-0.44878489202586536,"46":-0.22579686166842597,"47":-0.1949378137227562,"48":-0.08880539700158778,"49":-0.05664858872592239}},"36":{"bias":0.02146337457210659,"weights":{"0":0.19757015347513518,"1":-0.010950348960005766,"2":0.05237484733952668,"3":0.25325946727794485,"4":-0.07838242517608178,"5":-0.3590704160151653,"6":0.000048164822785141365,"7":-0.03316681992275412,"8":0.19165236582682074,"9":-0.21939601844951256,"10":0.2993120996025332,"11":-0.35692403749805945,"12":0.389467020298655,"13":-0.33094737845689076,"14":0.13405188335780546,"15":-0.43276002393709456,"16":0.016279682627119856,"17":-0.2893974633724573,"18":-0.37898965373123705,"19":0.030159887047774874,"20":0.0869813731460427,"21":-0.01567873726707947,"22":-0.29082533849120956,"23":0.1387889885535795,"24":0.3280945049796095,"25":-0.432011941721524,"26":-0.3194731193369074,"27":0.010016129119716458,"28":-0.39086871301105197,"29":0.13214364353000754,"30":-0.3106603468809575,"31":0.14933884835523403,"32":0.06361333685783598,"33":0.14096976502019964,"34":0.05032735918979808,"35":-0.3382426554845324,"36":0.17064743474751717,"37":0.34633412111608564,"38":-0.26600863354062365,"39":-0.2528208972949745,"40":0.28958304659883427,"41":-0.17322928320952413,"42":0.15098304901043338,"43":-0.03572723481529321,"44":-0.023517943680791176,"45":0.2677109521011638,"46":0.3308347162186625,"47":-0.5111866206228052,"48":-0.09151971796370655,"49":0.02974273584086638}},"37":{"bias":0.2303972135534615,"weights":{"0":0.02459000853395236,"1":0.22776972156990932,"2":-0.18910080699902101,"3":-0.12987745637333659,"4":-0.15789439256123722,"5":0.16152075307501643,"6":-1.1066386132859256,"7":-0.44184603281142437,"8":-0.6696085828447282,"9":0.28576856416142205,"10":0.02056569553893923,"11":-0.025065022991837226,"12":-0.31112664301481757,"13":-0.5768660926039902,"14":-0.52601440571384,"15":0.7808223476803962,"16":0.4123428187471047,"17":0.3407544602826139,"18":0.21092766957661951,"19":-0.16932002199718899,"20":0.18848631981355848,"21":-0.5695714861979113,"22":0.5889763305621072,"23":-1.0789122707964425,"24":-1.0088186669056411,"25":0.07922290343998337,"26":0.09648843748829763,"27":-0.3438181787549842,"28":0.4671025487496558,"29":-0.2575157471539557,"30":-0.45371698137780936,"31":-0.06467084307984437,"32":0.20551779297768052,"33":-0.20093176069428184,"34":-0.7957575264098827,"35":0.3214688636151873,"36":-0.07384769781073007,"37":-0.17432362120168987,"38":-0.11745010111727694,"39":0.2946465735692038,"40":-0.1770335968658027,"41":-0.13883499270522173,"42":-0.3976508161220162,"43":-0.3441880534541881,"44":0.02897610405089941,"45":-1.4859338191833262,"46":-0.2185440804851525,"47":-0.3860539505721333,"48":-0.6255897566866764,"49":0.11700477272887491}},"38":{"bias":0.13416284671708398,"weights":{"0":0.10277296516435415,"1":0.047250386501730225,"2":-0.3550947733520343,"3":-0.09233688134482194,"4":-0.2920956138428757,"5":0.09014349325149228,"6":-1.0199490334411987,"7":-0.4578894501376065,"8":-0.9353671404022013,"9":0.1363070954432317,"10":-0.219945111691909,"11":-0.015184376818332122,"12":-0.28126444581520543,"13":-0.003295844657886899,"14":-0.43470607629319274,"15":0.45066103936908847,"16":0.12513040782634985,"17":0.4291261021116799,"18":0.06765120568672668,"19":0.005465533555773191,"20":0.24109902485816082,"21":-0.3796384525676565,"22":0.4842348748023978,"23":-0.9743796322237054,"24":-0.9372201409450656,"25":0.3288992429763511,"26":0.19837218724182903,"27":-0.15682465253823716,"28":0.17407614208744748,"29":-0.378401686139471,"30":-0.2335297823868107,"31":0.012677587404980154,"32":0.15586456117939043,"33":0.04670616867735975,"34":-0.7879215633634429,"35":0.379409084231435,"36":-0.39054171498119844,"37":-0.37119132043491454,"38":-0.03273197034298338,"39":0.12861082268623097,"40":-0.14742594661610198,"41":-0.08142936708708694,"42":-0.5424658712373486,"43":0.09422782198229233,"44":-0.20853538188303955,"45":-1.5699615132175877,"46":-0.11443330703728505,"47":-0.15396910930497143,"48":-0.7679272191361044,"49":0.22521621307340792}},"39":{"bias":-0.24569650482469924,"weights":{"0":0.17340855099622812,"1":-0.30733119632949296,"2":-0.015654424115884465,"3":0.24006531610560866,"4":-0.051866680532686546,"5":-0.3817509548525043,"6":0.048159560205868014,"7":-0.00022826823428937282,"8":0.11920955899635634,"9":-0.03851375202095404,"10":0.16744541142351616,"11":-0.08362746432130239,"12":0.25941905588309655,"13":-0.2715566431763073,"14":0.20749713798910316,"15":-0.16521263972151523,"16":-0.14541343514483207,"17":-0.33216022339111645,"18":-0.14669447376948114,"19":0.14593313558532608,"20":0.1053647364010477,"21":0.026607073761354485,"22":-0.19969545031288338,"23":0.19968629764272305,"24":0.2680565363371357,"25":-0.3713460534207675,"26":-0.12959059327612457,"27":0.12033518705532505,"28":-0.10394322130944979,"29":0.26349160965009255,"30":-0.11143641954587591,"31":-0.008668653212120484,"32":-0.018744430047182466,"33":-0.09968775142893692,"34":0.17128957284435467,"35":-0.19066551238544277,"36":0.1778772311205331,"37":0.14858528748141459,"38":-0.43295225625271727,"39":-0.224487201986453,"40":-0.029708080540064175,"41":-0.34207545782961146,"42":0.03156764868965682,"43":-0.24288235106034145,"44":0.14480541550204792,"45":0.33466207073110305,"46":0.317941433368687,"47":-0.1949133163632471,"48":0.21431562086006653,"49":0.026656474396688803}},"40":{"bias":0.21697039767755355,"weights":{"0":0.17214130656526905,"1":0.189228724673659,"2":-0.12187127420349637,"3":-0.13402941325625276,"4":-0.24112766610693984,"5":-0.00941896858340983,"6":-0.6850847349386662,"7":-0.3169690017297757,"8":-0.43150481673645497,"9":0.42970651446986396,"10":0.03281767191084212,"11":-0.24549501527293457,"12":-0.26361764056318876,"13":-0.3385369268063411,"14":-0.3148809736798776,"15":0.6887752711337773,"16":0.28597908735146577,"17":0.2797609347549195,"18":-0.05322129956322319,"19":-0.26326927427080377,"20":0.2802356795864694,"21":-0.2476638332058725,"22":0.5896032983436229,"23":-0.6384953590978821,"24":-0.7120255015929907,"25":0.28323730992864316,"26":0.24484724800118457,"27":-0.20178215053960827,"28":0.07504085392591257,"29":0.0286263678194629,"30":-0.31414444102530303,"31":-0.03572826342919852,"32":0.27599763785394854,"33":-0.21054730855363377,"34":-0.7708661012964496,"35":0.09096682089679554,"36":-0.2964933255254917,"37":-0.1564938799597089,"38":-0.29316468989930383,"39":0.17708682531067596,"40":-0.17836918544231672,"41":-0.10211812780308789,"42":-0.5035207673389259,"43":-0.10153340567976223,"44":-0.19636138671719297,"45":-1.406325150593685,"46":0.02085423727959812,"47":-0.35944263009161886,"48":-0.4368594522577405,"49":0.3757713479772986}},"41":{"bias":0.23214081294019928,"weights":{"0":0.28141502772208243,"1":-0.2679362563007921,"2":0.01155105803412713,"3":0.18851527156019207,"4":0.15304482809689812,"5":-0.46510401875324175,"6":0.43295891864611813,"7":0.04556333507571497,"8":0.44176029895544355,"9":-0.2885014544969411,"10":0.6063966524286172,"11":-0.10705061120120518,"12":0.4498078325732932,"13":-0.2214318729184771,"14":0.3222470496392279,"15":-0.36544931151982396,"16":0.2725569085631374,"17":-0.214911187175092,"18":-0.06976537561605757,"19":-0.005905392038529968,"20":0.08478268011490996,"21":0.21561740055696957,"22":-0.22785818767187513,"23":0.4149429058931786,"24":0.5169755002641087,"25":-0.07307621754469237,"26":-0.3185630927833223,"27":0.2443665852698003,"28":-0.10186016406250714,"29":0.38821275572101044,"30":0.029508581578829664,"31":-0.10124101051752678,"32":0.21831605319900757,"33":0.11887204440905456,"34":0.3383267687134442,"35":0.012369115682447012,"36":0.4588517102076531,"37":0.5497499469997716,"38":-0.5833023070859105,"39":-0.20692003479828466,"40":0.16322402096597624,"41":-0.5066644765533027,"42":0.35074830211558317,"43":-0.11381803797124133,"44":0.11221728393955104,"45":0.3745661936391551,"46":0.3901482052973633,"47":-0.2660574406757861,"48":0.3895286607979809,"49":0.42476036541946444}},"42":{"bias":-0.1775864649089657,"weights":{"0":0.1272252925022558,"1":0.05887010076522957,"2":-0.2157640307137212,"3":-0.02447332959987752,"4":-0.13976242987697376,"5":-0.06748288251155599,"6":-0.02381234889530954,"7":-0.26522564738292365,"8":-0.005358850379021601,"9":0.08241109799570147,"10":-0.22090760756764147,"11":-0.1613589021704723,"12":-0.22398133811722878,"13":-0.2389525703916553,"14":-0.2642252691716657,"15":-0.04602098393181554,"16":0.20866230097793786,"17":-0.0007954131645884396,"18":-0.05729497829499372,"19":-0.22679309016437535,"20":-0.17853683515320556,"21":-0.12845139674471034,"22":0.09758113356475653,"23":-0.0909882119967734,"24":-0.3103282181979423,"25":0.22870837968487545,"26":0.02375763813228485,"27":-0.2589776439697103,"28":-0.03741353494593882,"29":-0.015456229940856115,"30":0.08056013704117852,"31":-0.18883835612280747,"32":-0.11086961945175065,"33":-0.17510548818738728,"34":-0.1493690251667246,"35":0.11157190956326077,"36":-0.1575630170341323,"37":0.11905843207697332,"38":-0.07872562294012254,"39":-0.14608243710135946,"40":-0.07183290886439103,"41":-0.007225198665175668,"42":-0.06995342806035822,"43":-0.16347624807135114,"44":0.06995258078864221,"45":-0.46647543903352107,"46":-0.015230227849165561,"47":0.03959678616578278,"48":-0.39094799980436395,"49":-0.008123267471736148}},"43":{"bias":0.10016740824962131,"weights":{"0":0.1866281966331743,"1":-0.2418603730110851,"2":-0.0025406021055731326,"3":0.08651208623173544,"4":0.0629743000126535,"5":-0.27611349044050615,"6":-0.3616967030625086,"7":0.01946623190352305,"8":-0.19994277046951756,"9":0.10010996212129852,"10":0.3163345258623829,"11":-0.37578269282960525,"12":0.4682025131202209,"13":-0.6490731466531346,"14":-0.058397865817846846,"15":-0.017697590351462716,"16":0.16641102171235492,"17":0.2835076987822019,"18":-0.019470853278166122,"19":0.03186150640168871,"20":0.43724856306378834,"21":-0.05996320791508959,"22":0.08020134924242664,"23":-0.03915595743496467,"24":-0.1726070747719363,"25":-0.17215671712992234,"26":-0.03638538576745485,"27":0.2353122754825537,"28":-0.1553330337555195,"29":0.09136080741851209,"30":-0.09163301946834983,"31":-0.0038967454228068434,"32":0.23447036086418704,"33":0.09470226317126573,"34":-0.11019353041507479,"35":0.24005994067419478,"36":0.08080197901749354,"37":0.34257325758704843,"38":-0.31425498190205065,"39":-0.10773234083672069,"40":0.3221765899127302,"41":-0.1732696323509086,"42":-0.19101330231877237,"43":-0.12372305982287969,"44":0.23757187447162062,"45":-0.40059505700305736,"46":0.12072872358098184,"47":-0.5736629033768853,"48":-0.18620830354126638,"49":0.45506334102760904}},"44":{"bias":0.18781058445230164,"weights":{"0":0.27950073469799125,"1":0.25924526059677494,"2":-0.11697337053599689,"3":-0.12662994213019993,"4":-0.08557888444215345,"5":0.012171875246419685,"6":-0.4874336937391822,"7":-0.28616658598571476,"8":-0.5492374918901106,"9":0.2059502471308802,"10":-0.12135891137304533,"11":-0.07578584064486535,"12":-0.15598762827264367,"13":-0.3777346845487946,"14":-0.30169272754775117,"15":0.40092130249976815,"16":0.12027366746992407,"17":0.30204392701526034,"18":0.050051864742871204,"19":0.05793159809327731,"20":0.30396117839721914,"21":-0.0681977257845598,"22":0.22601047666532847,"23":-0.3151221597704934,"24":-0.7913898839077326,"25":0.1085789864011905,"26":0.006312730866987425,"27":-0.107548192729125,"28":0.36766981019062955,"29":-0.23636305187714107,"30":-0.01994135311442463,"31":0.08892461503478465,"32":0.2976377196265106,"33":0.013533048621681296,"34":-0.29675228173319834,"35":0.163142071244119,"36":0.03129351800739111,"37":-0.028760068616859796,"38":-0.3436100382193865,"39":-0.05817291791540544,"40":-0.02928446965266499,"41":-0.015009183659443284,"42":-0.16857618453880258,"43":-0.03883809348204135,"44":-0.05847119080082931,"45":-1.1018246918789572,"46":0.06936948087124285,"47":-0.38201913787831454,"48":-0.6396821140297514,"49":0.3690234364488598}},"45":{"bias":-0.09670244246302183,"weights":{"0":0.05718821995210783,"1":-0.41735457293792655,"2":0.24470402684213338,"3":0.4193240169510493,"4":0.25316461387238093,"5":-0.41386670405919834,"6":0.333476045963675,"7":0.08647302750932613,"8":0.18770672522281773,"9":-0.14489204530675273,"10":0.455229413841901,"11":-0.25836099712376576,"12":0.5779588486082758,"13":-0.707780836868667,"14":0.37670431369218516,"15":-0.39522150453786337,"16":-0.04648936449579944,"17":-0.16132508439545565,"18":-0.3556973034988262,"19":0.13906968170244038,"20":0.40660495378915745,"21":0.28331035735680604,"22":-0.6160426109326751,"23":0.5531292832651109,"24":0.3604830243528941,"25":-0.6787511573382117,"26":-0.45246784266522794,"27":0.01851076227615073,"28":-0.1734751302228948,"29":0.19643940949316469,"30":-0.08552571632934061,"31":-0.1185228819330207,"32":0.0936411151812642,"33":0.28104043345430274,"34":0.3000303775217272,"35":-0.22163783354656935,"36":0.4667445539708005,"37":0.8337430977527596,"38":-0.6949364237393593,"39":-0.35581822019855674,"40":0.15048876537929617,"41":-0.614394623872402,"42":0.3984611552573579,"43":-0.002992743946477791,"44":0.1244257393388199,"45":0.9428091288896551,"46":0.5930268267733538,"47":-0.4465261749488956,"48":0.25718308095331954,"49":0.43440259162188016}},"46":{"bias":-0.09084666097091051,"weights":{"0":0.06661608158080756,"1":-0.18669563396790753,"2":-0.04672681208687196,"3":0.35145652717372217,"4":0.32809955763324467,"5":-0.47138623348654346,"6":0.050823041486670384,"7":0.0955494359786587,"8":0.06091423355089555,"9":0.04649234251530954,"10":0.4910002484139804,"11":-0.33580723396847006,"12":0.414160716602744,"13":-0.2668985690010556,"14":0.28284611930001236,"15":-0.35415170058498724,"16":0.07211760503882969,"17":0.07462140011438992,"18":-0.10230555121888635,"19":0.12248861325500392,"20":0.22642160707644066,"21":0.3193920522389279,"22":-0.1592547593801695,"23":0.3348353268870037,"24":0.3632901689355951,"25":-0.33954719589211696,"26":-0.2975491009136484,"27":0.08912485194204162,"28":-0.13488018926213904,"29":0.0348189247508369,"30":0.01258607016631226,"31":-0.017723862087251407,"32":0.28188026593593624,"33":0.07678318765951302,"34":0.1949543856156671,"35":0.13764345879528145,"36":0.31674545766291223,"37":0.18743084201199112,"38":-0.45973476156093185,"39":-0.19893909511243427,"40":0.14911655280276273,"41":-0.3804397863949523,"42":0.12048831730872263,"43":-0.001015386204259944,"44":0.3917929712726328,"45":0.1545986766838482,"46":0.28646227415793296,"47":-0.3446926985033367,"48":0.12976379494396162,"49":0.41392133023145233}},"47":{"bias":0.29495679801694014,"weights":{"0":0.3901299957910246,"1":0.010525618926891217,"2":0.18738567838349912,"3":0.39437337357931374,"4":0.2448361586331142,"5":-0.4956738138741189,"6":0.2591723329798183,"7":0.36115665484485876,"8":0.5802677804735767,"9":-0.14040708011651687,"10":0.6838447660417685,"11":-0.4256358689614028,"12":0.41945361726123054,"13":-0.38179358530508845,"14":0.41564799711337624,"15":-0.3684500059457659,"16":0.06607858677848667,"17":-0.1284246104750805,"18":-0.06085757788671173,"19":0.1598265922976385,"20":0.2517483479913329,"21":0.17525665284915184,"22":-0.2286578295986796,"23":0.17602322517577831,"24":0.26651556336817395,"25":-0.22141742318915447,"26":-0.19577345793737802,"27":0.3107117016453783,"28":-0.3699772085558957,"29":0.38270628628648634,"30":-0.08731204641765145,"31":0.14947361386764524,"32":0.37716361694858114,"33":0.27011995048336396,"34":0.416428270990961,"35":-0.02342069039425658,"36":0.3855082289993453,"37":0.6447913199980795,"38":-0.3652348378377561,"39":-0.23818820206155106,"40":0.25117109991021275,"41":-0.46555230574927536,"42":0.3926391432531199,"43":0.21585600104738947,"44":0.5510845128770218,"45":0.4095581159413251,"46":0.26846576199154604,"47":-0.4108172304068714,"48":0.3784510779700899,"49":0.7113487150463349}},"48":{"bias":-0.08630516114867036,"weights":{"0":0.2616011691605976,"1":0.20803162380424517,"2":-0.07951844819450034,"3":-0.179390695966775,"4":0.019939170252269465,"5":0.15631208111937173,"6":-0.22930185156408991,"7":-0.06852856216799214,"8":-0.23612727559026128,"9":-0.0916254412323852,"10":-0.07854790105676421,"11":-0.2539426516447772,"12":0.21741145191438305,"13":0.08709975563922256,"14":-0.016491709108180472,"15":0.06322565530709785,"16":-0.0013630384152308335,"17":-0.08853814387563474,"18":-0.10455124261651384,"19":0.14953769536527756,"20":0.09697474116216075,"21":-0.045885517949080544,"22":0.07853641183534624,"23":-0.4068638444562499,"24":-0.2977097075461416,"25":0.17297119091138147,"26":-0.054078611354287244,"27":0.099552810439904,"28":-0.02504437819684122,"29":0.13197518237720002,"30":-0.15797564854487917,"31":0.18179072565480023,"32":-0.07719806886326316,"33":0.04003356091388217,"34":0.08771937493632674,"35":-0.023419638640531436,"36":0.10624225640539224,"37":-0.1108302504266938,"38":-0.1567140987044081,"39":0.12190483570148801,"40":0.19889999953040427,"41":-0.15633192177396776,"42":-0.31346251906748296,"43":0.07642490807385674,"44":-0.027330556548134745,"45":-0.7050396067283112,"46":-0.07287261111495089,"47":0.08333888201611243,"48":-0.19631928989788333,"49":0.1016743637078675}},"49":{"bias":0.1384265867772381,"weights":{"0":0.23773601066549604,"1":-0.24369696744505792,"2":-0.03605978468145586,"3":0.06171186404302719,"4":-0.08685718579047363,"5":0.010657170758346584,"6":-0.34088030321476154,"7":-0.15799341183236212,"8":-0.15373069677943346,"9":-0.012124396723240477,"10":0.12695501803467832,"11":-0.17346193674033306,"12":0.33086382806579323,"13":-0.3845691516316752,"14":0.24937615081260583,"15":0.010553540075936734,"16":-0.18503548523678504,"17":0.14745225535752815,"18":-0.30294936916315157,"19":-0.027480492957087946,"20":0.43612215336935256,"21":0.0038658731575948488,"22":0.13735671000658592,"23":-0.17877696028094237,"24":-0.13784610940926423,"25":-0.2924279627663006,"26":-0.03036813352402195,"27":-0.00032089854939143064,"28":0.04435458383185288,"29":0.17231195949112973,"30":0.08073532688742542,"31":0.1737920263959441,"32":0.329323380008749,"33":-0.08738241466238818,"34":0.12686645722221618,"35":-0.08553226004628305,"36":-0.09679341670672682,"37":0.23688522216662158,"38":-0.17805435859019564,"39":-0.31308604168100396,"40":0.13732264597875624,"41":-0.33663171142356146,"42":0.04304941525999097,"43":-0.05118970271329578,"44":0.08297713042823482,"45":-0.2465114132845126,"46":0.27034332467725924,"47":-0.40345481664871263,"48":-0.0799058085881579,"49":0.35103164237934464}},"50":{"bias":-0.16265866706699716,"weights":{"0":-0.02762873882708823,"1":-0.3072063940600031,"2":0.22246531315845353,"3":0.08271397751157912,"4":-0.0814387436357387,"5":-0.4948549555622127,"6":0.28772165204629474,"7":0.10810850747738641,"8":0.32074273410097476,"9":-0.1669170448578247,"10":0.31781854402281445,"11":-0.3094985618111788,"12":0.36755715832139046,"13":-0.648260795747959,"14":-0.0703832698281317,"15":-0.23642169729132448,"16":0.05166538497101581,"17":0.02871666115606273,"18":-0.06465168561688535,"19":-0.1365297012823604,"20":0.12104650309038495,"21":0.115296144993974,"22":-0.3148600815946366,"23":0.16034607847872323,"24":0.1689258738015379,"25":-0.2609115444690067,"26":-0.31532190596769144,"27":0.19524829271773353,"28":-0.2640373858541874,"29":0.2730379362788831,"30":-0.09271498444838656,"31":0.1582397474095894,"32":0.26830233167780354,"33":0.13629827148991508,"34":-0.033812451502622035,"35":-0.031765278351890115,"36":0.01494912726499245,"37":0.3335274414997655,"38":-0.41370149757389985,"39":-0.38860198876629837,"40":0.28568443803810195,"41":-0.488694195918,"42":0.29982814721033024,"43":0.0708490989822032,"44":0.17526423427398657,"45":0.4228005577874692,"46":0.373764394267885,"47":-0.6073704202078926,"48":-0.03578277448600463,"49":0.03344333115797759}},"51":{"bias":0.417635247255711,"weights":{"0":0.3039566375418552,"1":0.10681381302390507,"2":0.17812196450575649,"3":-0.28388629070557964,"4":0.03812355455447823,"5":0.0699567630159495,"6":-0.41451462306931275,"7":-0.2896983698377366,"8":-0.590967306990329,"9":0.4864546560984493,"10":-0.027180861804018557,"11":-0.14054976457029017,"12":-0.1986607406472264,"13":0.18075188776444623,"14":-0.15344532123781512,"15":0.5972222231980803,"16":0.258686717164748,"17":0.2676230277397797,"18":0.19386031247572952,"19":0.2493150244456221,"20":0.1150418413785691,"21":0.07347784602281507,"22":0.427245257322525,"23":-0.4208279417391928,"24":-0.8493003387676638,"25":0.6067278223033619,"26":0.40338801973240596,"27":-0.0008184741511197468,"28":0.5052330045259749,"29":-0.2037788685634912,"30":-0.20520745491385453,"31":-0.01635832667655431,"32":0.3667717848790864,"33":0.156771173127538,"34":-0.22893878484632543,"35":0.39738057991647024,"36":-0.041415517218995286,"37":-0.47725248657392166,"38":0.1801632762864471,"39":0.5316733740726387,"40":0.036023346175688926,"41":0.20042415230621424,"42":-0.7070129694223497,"43":0.2668218695062645,"44":-0.13388614182179345,"45":-1.1429274490610963,"46":-0.01814575638741905,"47":0.0741094660610952,"48":-0.6882229622633426,"49":0.2960281612575452}},"52":{"bias":-0.0876896862555219,"weights":{"0":-0.1863735969403345,"1":-0.010240650803724294,"2":0.03484301305534646,"3":0.4070858995017534,"4":0.2070755635333204,"5":0.008574723164122586,"6":0.8538904376863573,"7":0.41409112215055244,"8":0.5469901277560981,"9":-0.3366759931895288,"10":0.2500325283200319,"11":-0.13187261983505888,"12":0.4291622100381009,"13":0.28600331754378816,"14":0.6035854286779604,"15":-0.5628024028418203,"16":-0.2419915933971012,"17":-0.052718058326259164,"18":0.008439720875305366,"19":0.1836748399845946,"20":-0.06921043167316077,"21":0.4652250969215584,"22":-0.6150742940801492,"23":0.6832199802042883,"24":0.7795131558712018,"25":-0.2882295344340672,"26":-0.3295308190507601,"27":-0.04320463412882393,"28":-0.1634758274283751,"29":0.4160151950886803,"30":0.10261001288842148,"31":0.2598969163063959,"32":-0.18936030071998836,"33":0.28376542333934873,"34":0.5181397375730775,"35":-0.26124922088423747,"36":0.09124153589222139,"37":0.34927886739310016,"38":0.07558049833729234,"39":-0.3366741186639419,"40":0.13306871250351554,"41":-0.19274099675969592,"42":0.6654422968943949,"43":0.07475644406495205,"44":0.11743940698976278,"45":1.1617748120909628,"46":0.3101176813731585,"47":0.0024278746118861706,"48":0.7953272316260088,"49":-0.24912194179279723}},"53":{"bias":0.2711292235457243,"weights":{"0":-0.003922982967213911,"1":0.04174132415584798,"2":-0.2665971642182266,"3":-0.38005569877166656,"4":-0.2872007119651098,"5":0.08255515155526962,"6":-0.7909203159125329,"7":-0.439804799211646,"8":-0.6470601038006585,"9":0.28612930327189484,"10":0.0701664027496726,"11":0.05504677676873725,"12":-0.11548537231615996,"13":-0.41655684128596976,"14":-0.4742993211580122,"15":0.5183390934373546,"16":0.3355082658172178,"17":0.2993631335825867,"18":0.08391295090686574,"19":-0.32071613781638714,"20":0.19528342173733457,"21":-0.1868838042090753,"22":0.8555589359558737,"23":-1.0528267043664399,"24":-1.016341592484767,"25":0.13677931838796015,"26":0.31142976194870775,"27":0.037089581665058186,"28":0.32481200440000546,"29":-0.06196829402873225,"30":-0.4651843805728844,"31":-0.21616192167478154,"32":0.31286269018223173,"33":-0.061769798256898704,"34":-0.818325947424914,"35":0.2532375788720311,"36":-0.29996702317815105,"37":-0.46612697280098797,"38":0.004000306695686072,"39":0.27689489790373134,"40":-0.2674614366182752,"41":-0.15001105841573845,"42":-0.47123570396421777,"43":-0.02355571297595293,"44":0.060614759830561395,"45":-1.8036558669491556,"46":-0.29586942018563195,"47":-0.5233220631324266,"48":-0.8450257107383997,"49":0.47898601582805966}},"54":{"bias":-0.18805586574438654,"weights":{"0":-0.056256198272083134,"1":-0.2274548380780005,"2":0.05401870329645615,"3":0.21349338885333072,"4":0.34454799784095536,"5":-0.07033184994033527,"6":0.4445586242333528,"7":0.1635003931439884,"8":0.6770150727338176,"9":-0.2894792478081027,"10":0.5313803907326143,"11":-0.10184584167908488,"12":0.4602068465454902,"13":-0.1842486220931016,"14":0.48744640342169543,"15":-0.29323370007262767,"16":0.10662874235247076,"17":-0.24544221891189205,"18":-0.21854589644385586,"19":-0.033770181274375956,"20":-0.043173868253470006,"21":0.4222984756527725,"22":-0.6082478306293316,"23":0.48513053907996606,"24":0.8165191570736718,"25":-0.33117773195728234,"26":-0.052074384783746326,"27":0.05353617293889783,"28":-0.11209263307488526,"29":0.12626545815032653,"30":0.13002596043227263,"31":0.21780195815451336,"32":-0.04312118135629448,"33":0.14971911324639442,"34":0.36176771152382287,"35":-0.22598168419526643,"36":0.3197909976640863,"37":0.36933785319973833,"38":-0.11852740421954028,"39":-0.4292433651148064,"40":0.10594034314324176,"41":-0.14270872559411038,"42":0.4573318851087143,"43":0.07386867877459107,"44":0.030128169571233963,"45":1.0727128489074798,"46":0.2233882737211043,"47":-0.2579451446434703,"48":0.44337007900111675,"49":-0.03937779049115994}},"55":{"bias":0.16852693119012538,"weights":{"0":0.10294158618492003,"1":0.3505065772717203,"2":-0.09271014902236689,"3":0.07493250048959534,"4":-0.16545259100142481,"5":0.3070966565375188,"6":-0.8172602138057641,"7":-0.08352047259547077,"8":-0.7193367124371243,"9":0.3262436169673736,"10":-0.578058705884212,"11":0.0867568818623582,"12":-0.5208837967670151,"13":0.6013549933938286,"14":-0.033572619613442926,"15":0.7654065709447548,"16":0.23944594370224268,"17":0.38952325224061535,"18":0.4738709789462652,"19":0.05059225713697554,"20":0.10898606334737106,"21":-0.01584040393403144,"22":0.7709814683780235,"23":-0.7104122032720682,"24":-0.7891535021999194,"25":0.5499840382019865,"26":0.5725063378991859,"27":0.12245225161939875,"28":0.3658071583021619,"29":-0.4292512035825006,"30":0.24023722467732928,"31":0.1931108545535655,"32":0.10142516457675829,"33":-0.047567392049894644,"34":0.0352088583249404,"35":0.22121202196087894,"36":-0.24887119998959872,"37":-0.6874853608125937,"38":0.6331781356051496,"39":0.5650648260271173,"40":0.04943055588583876,"41":0.4806660140943054,"42":-0.5476435039240904,"43":0.34116105258073237,"44":-0.195273200963853,"45":-1.584275239086966,"46":-0.4829594632212515,"47":0.3405401825700913,"48":-0.3929083051762871,"49":0.2299092938221726}},"56":{"bias":-0.13129861296354803,"weights":{"0":0.07775227219238326,"1":-0.10518743514257453,"2":0.032764838629180656,"3":0.1512351441705553,"4":0.18656013398346163,"5":-0.21051165100374017,"6":0.2035038097394151,"7":0.25422772836002205,"8":0.20378519880359366,"9":-0.05353118525754051,"10":0.2531330504876298,"11":-0.26037405744502595,"12":0.33287311174728157,"13":-0.20730329756485352,"14":0.18039210642944223,"15":-0.35021662171785317,"16":-0.23795833404374606,"17":-0.22726344057732623,"18":-0.30525164309651476,"19":0.040002441490600726,"20":0.2242200606525345,"21":0.23318878195904807,"22":-0.4691990087306258,"23":0.19531710895072976,"24":0.5036905973265313,"25":-0.4796380782955705,"26":-0.26895032120347107,"27":-0.1436537429632892,"28":-0.25140665853707317,"29":0.1120743404888199,"30":-0.2070439376207494,"31":-0.00020670549590749384,"32":0.17154030774583526,"33":-0.15048443534539635,"34":0.0707404379060179,"35":-0.05656513654288017,"36":-0.06048052006344366,"37":0.3934789545045229,"38":-0.38134989029601407,"39":-0.28949787019833095,"40":0.2473040723492195,"41":-0.1501768501849881,"42":0.47097705459951733,"43":0.10785329253865862,"44":0.04411624202385569,"45":0.6539958342385607,"46":0.013728547051691334,"47":-0.35709201744150404,"48":0.26819874374580416,"49":-0.16452586854659385}},"57":{"bias":-0.13837088187141366,"weights":{"0":-0.1752386843550006,"1":-0.20214085186277456,"2":0.21057874436036972,"3":0.035760163307996404,"4":0.30176918525753305,"5":-0.46698310816031724,"6":0.44135119275353357,"7":0.2774705877272269,"8":0.5649228032691226,"9":-0.43206079795569746,"10":0.6298807942648311,"11":-0.12972683084488612,"12":0.29149587916535286,"13":-0.41835469532509356,"14":0.44773560416825847,"15":-0.6059327854783324,"16":-0.19374785411820347,"17":-0.13938867763365095,"18":-0.21495419280301606,"19":0.10982547373062405,"20":0.1476360623883326,"21":0.022244848726547806,"22":-0.6566404279643856,"23":0.3978575491174573,"24":0.4406087532049788,"25":-0.3814594058768452,"26":-0.19936998010878118,"27":0.2797183051263209,"28":-0.5161829160585617,"29":0.13735653484204427,"30":-0.15843101848132674,"31":-0.14314992274179492,"32":-0.05238949728679792,"33":0.023186380761445486,"34":0.03763324864359795,"35":-0.27798255714141407,"36":0.39929185626857566,"37":0.6155179240104551,"38":-0.39519534031798764,"39":-0.41192529498967073,"40":0.13453684690778495,"41":-0.4973382656434445,"42":0.38699715895277237,"43":0.10340521810334302,"44":0.08144571013455314,"45":0.9680705850708341,"46":0.4884485551735863,"47":-0.27426598234597593,"48":0.583126115749182,"49":0.1851469907465894}},"58":{"bias":-0.1432311545040446,"weights":{"0":-0.08306368745461945,"1":-0.13918114454055638,"2":-0.20257195992758617,"3":-0.008144984147724188,"4":-0.014239015478232128,"5":0.08607465587350642,"6":0.11349820960031089,"7":-0.13755092170038447,"8":0.41171054708712024,"9":-0.13503423624890454,"10":0.05014905508781931,"11":0.38430772624723925,"12":0.0411892105152614,"13":0.04103231423475178,"14":-0.08077140221801084,"15":-0.3192994922810936,"16":0.07984151121686478,"17":-0.16435151370480713,"18":0.21435621625937143,"19":-0.28256593041862066,"20":-0.30921993087444877,"21":0.17254469573800557,"22":-0.16774815417304598,"23":0.01260291868770418,"24":0.06311800254504861,"25":-0.11988372411119814,"26":-0.04725587088251858,"27":0.008053779436031992,"28":0.1539421601974146,"29":0.14347757982890957,"30":0.046883099535589806,"31":-0.17724835776441228,"32":-0.3300219309649601,"33":-0.019232612363891993,"34":-0.10899576176507918,"35":0.1247482108201993,"36":-0.09498343097569521,"37":-0.0035624285359970764,"38":0.20291908281613327,"39":-0.0581999122424894,"40":-0.0129917475125265,"41":0.36311372359675737,"42":0.1513934986164976,"43":0.016624222777038924,"44":-0.24797683846921353,"45":0.14891131641068497,"46":-0.09921569982117108,"47":0.3376387437383293,"48":0.14654844023031008,"49":-0.36644197750161384}},"59":{"bias":0.17343764778416304,"weights":{"0":0.47029170131284603,"1":-0.1077157428037956,"2":-0.045336949998878266,"3":0.17759945951543063,"4":0.1079330656197375,"5":-0.13515531032810268,"6":-0.2411731454545825,"7":-0.1323496604257832,"8":-0.3451313284713718,"9":0.12240472654314476,"10":0.09574047445824777,"11":-0.12240733518147953,"12":0.055335387312573855,"13":-0.2501138078641125,"14":0.06853287729399264,"15":0.46600146147532157,"16":0.004585514168011615,"17":0.030392787323853643,"18":0.04999956033108217,"19":0.20644491988300065,"20":0.5571279841975428,"21":-0.05688665304972808,"22":0.3970559177638801,"23":-0.4205611584202009,"24":-0.2635240031076124,"25":0.131037858989331,"26":-0.05633071242281138,"27":0.0912533188785525,"28":-0.00030765870122080575,"29":0.24846649592961295,"30":-0.28321147045907086,"31":0.20510856537369263,"32":0.2248579009791072,"33":0.013905423712788478,"34":-0.11921044274190554,"35":0.2121899694107553,"36":0.028291781944683604,"37":0.18473232184856944,"38":-0.3792100378741293,"39":0.18337584737590829,"40":0.05118465723597837,"41":0.034273987148165874,"42":-0.3267095563778064,"43":0.029472554645470564,"44":0.14006415310916268,"45":-0.5104068371360709,"46":-0.07518934947095264,"47":-0.5150054258618382,"48":-0.4190491585616053,"49":0.5755143019908998}}},{"0":{"bias":0.12499592624344365,"weights":{"0":-0.131362088625881,"1":-0.18991896645590337,"2":-0.3238181774539515,"3":-0.20948251016330963,"4":-0.30846394687926126,"5":0.2850169170114543,"6":-0.008786665089963924,"7":0.10517614040248247,"8":-0.19717876633698048,"9":0.0011665054587132403,"10":-0.3386007079888316,"11":-0.19148268803517757,"12":-0.1539885536976225,"13":-0.32525323092270353,"14":-0.2266376396510333,"15":-0.1983662349803943,"16":0.17139834619425867,"17":0.31729870968906526,"18":0.01496407099690098,"19":-0.29633670158010006,"20":-0.2572645693239748,"21":-0.20061539220901176,"22":-0.24590905979087896,"23":-0.2310740848795346,"24":-0.4049321423713062,"25":0.26378289151772,"26":-0.13049304964431993,"27":-0.18378546905632145,"28":0.3621444723349024,"29":-0.007686411180403649,"30":-0.013709972023015552,"31":0.1735252087455146,"32":-0.21150997070234712,"33":-0.05072553436582763,"34":-0.21189923703187288,"35":-0.19017357889453443,"36":-0.05198263874607077,"37":-0.6295450272698793,"38":-0.3636325159654794,"39":0.10617940315148089,"40":-0.4449148885560048,"41":-0.2035613462100353,"42":-0.1968969960782651,"43":-0.1815633414643177,"44":-0.26899521077617705,"45":-0.31005918726515125,"46":-0.021456861717575413,"47":-0.2712630179653295,"48":-0.21376353456498495,"49":0.07467417544695897,"50":-0.21098744742953962,"51":-0.021636828209982032,"52":0.09038492997489021,"53":-0.6020745637588836,"54":-0.07235704427929447,"55":0.14809078301861087,"56":-0.019721215561097637,"57":-0.33597253286878315,"58":-0.03287825154352453,"59":-0.03808154342896987}},"1":{"bias":0.009001593356602219,"weights":{"0":-0.17372580415530856,"1":-0.5488354956561483,"2":-0.08708971363454457,"3":-0.26111719175256287,"4":-0.38498053296537216,"5":0.27996644482351757,"6":0.012113080673204959,"7":-0.09595695053256445,"8":-0.10188834653483143,"9":-0.2325260497383337,"10":-0.1615455876548209,"11":0.0027624504680238307,"12":-0.30459701949489826,"13":-0.09200349159723581,"14":-0.45099697469708616,"15":-0.09686556695654241,"16":0.07362560560481231,"17":-0.09264719272290492,"18":-0.33283025014865636,"19":-0.17783450060677755,"20":-0.3852639877558413,"21":-0.12356841353132328,"22":-0.08617360603526396,"23":-0.20554447585793273,"24":-0.2551014980685705,"25":0.21728484597216818,"26":-0.36915656553378806,"27":-0.23276001712926328,"28":0.06598633128159465,"29":-0.2021828274539916,"30":-0.3941462004083036,"31":0.12295502903525234,"32":-0.052523863383640935,"33":-0.5694611112043262,"34":-0.01787694268337282,"35":-0.3113449917351504,"36":-0.07144634203471184,"37":-0.3141926294270661,"38":-0.3129792755937414,"39":-0.35174381150060585,"40":-0.3090343834015297,"41":-0.19197611709184953,"42":-0.06276246578438609,"43":0.05361936090145465,"44":-0.19845100464645707,"45":-0.08604235893504385,"46":-0.15625234193561857,"47":-0.30862010516728605,"48":-0.23666115091317036,"49":-0.15594054698299714,"50":-0.31575957743008687,"51":0.0518340231960073,"52":-0.13910543396134523,"53":-0.2513558786402543,"54":-0.18862164971397133,"55":0.020151225969328206,"56":-0.31975443180641605,"57":-0.34130512794143353,"58":-0.26245817719783143,"59":-0.2205402651004877}},"2":{"bias":0.4057118598022681,"weights":{"0":0.04212524392978205,"1":-2.2074647329840182,"2":-0.5772162701417914,"3":0.006590236922538834,"4":-1.283532210774122,"5":2.3644467450065343,"6":0.5669793881598898,"7":0.17688544144525964,"8":-0.2637773804233724,"9":0.14417612269750188,"10":-0.16746243468922584,"11":-0.010720637846775308,"12":-0.40123203734256896,"13":0.20722142283577813,"14":-1.2164291608129594,"15":-0.2116359819907987,"16":0.5793891854152958,"17":0.9168637536433548,"18":-0.20749330837635085,"19":-1.090444756843233,"20":-1.5042316608769297,"21":-0.792039240154386,"22":-0.8462656546363038,"23":-0.2773543244813838,"24":0.3785979244311483,"25":1.9710377390931395,"26":-2.447844426860236,"27":-1.0667262391788788,"28":1.632565039613321,"29":-0.8168675152444114,"30":-0.34238994671860784,"31":0.4757586937435434,"32":-0.5703720597310755,"33":-2.4154291214508308,"34":-0.7206879886650132,"35":0.3325199162411259,"36":-0.43759213724065193,"37":0.027070087448264026,"38":0.3258296324152097,"39":-0.15424839257028125,"40":-0.024399385585129704,"41":-0.8623973752382945,"42":0.18615680581543215,"43":-0.24237081137305636,"44":-0.19926979808172957,"45":-1.339584397659964,"46":-0.9769803829655723,"47":-1.3605707076452773,"48":0.21027305164450477,"49":0.016982926187297933,"50":-0.7868886562845522,"51":0.5289951426087862,"52":-0.44609388502625985,"53":-0.04106139593610838,"54":-0.7638571215149047,"55":1.13986518279795,"56":-0.5592125392693542,"57":-1.05878853448057,"58":0.3021120428710135,"59":-0.052730177511071875}},"3":{"bias":-0.21030099541417455,"weights":{"0":-0.09159585966595475,"1":0.07458141544644971,"2":0.10911351681258451,"3":-0.23923212899772558,"4":-0.06349850283587266,"5":0.10626489954512654,"6":-0.19807189426801608,"7":-0.0026209105714201,"8":-0.31113111573273716,"9":-0.028208799528655727,"10":0.031621454172369716,"11":0.025604409785543427,"12":-0.2428168463603364,"13":-0.19587500780618086,"14":-0.04591035552336635,"15":-0.2669663707455672,"16":-0.06622953334183322,"17":0.004393815406852374,"18":-0.029780960690536328,"19":-0.151637238030701,"20":-0.19600629599810968,"21":-0.22373397123556393,"22":-0.023486914445320747,"23":-0.28496737739250916,"24":-0.12000792677608106,"25":-0.23495001021446862,"26":0.0339763755772461,"27":-0.1415789618669707,"28":-0.1603443182296282,"29":-0.07563108701914993,"30":-0.19636866293315516,"31":0.05780496890415255,"32":-0.023141375577867898,"33":-0.1307603318794912,"34":-0.265558374023955,"35":-0.1804761642742551,"36":-0.0020688684981349497,"37":-0.03578709164221036,"38":-0.05579142039232424,"39":0.010349967164242762,"40":-0.15526186577548903,"41":-0.3279100807107133,"42":-0.2543285567299456,"43":-0.053542630054907635,"44":-0.2541950877141882,"45":0.10853973106987266,"46":0.024626732141344653,"47":-0.034798373150453255,"48":-0.15430830217841524,"49":-0.025207013407845886,"50":0.02159044670424988,"51":-0.15767168401081372,"52":-0.23917899810486576,"53":-0.019101012579804406,"54":-0.04741768386678957,"55":-0.039018621944687325,"56":-0.20220348817548764,"57":0.0037551183052797134,"58":-0.05576717041682029,"59":-0.014483371410119976}},"4":{"bias":-0.09991982048758857,"weights":{"0":-0.23312337349135692,"1":0.2194420734573725,"2":-1.0503277727225462,"3":-0.2595038373726362,"4":-0.0024979873105733874,"5":-0.03422322410518473,"6":-0.21572029265081347,"7":0.052963936801242284,"8":-0.5478000198286634,"9":0.06636428610045414,"10":-0.4416828008299149,"11":-0.18135021092888678,"12":0.20783577994099228,"13":-0.16246573950515156,"14":0.18013510261837015,"15":-0.25915876180681324,"16":-0.3143127162532423,"17":-0.5665849188120301,"18":-0.2819345649467023,"19":-0.3006333329845068,"20":0.0374852859047701,"21":-0.5188702912711912,"22":0.19515897690506423,"23":-0.5031514220472386,"24":-0.05273582356803422,"25":-0.2338426872766479,"26":0.3294574132741392,"27":0.16650480163042206,"28":-0.14099577488066437,"29":0.05756720330433697,"30":-0.2179559384612191,"31":-0.18785033927659409,"32":-0.05505519501707998,"33":0.23415879282013327,"34":0.2579480040105468,"35":-0.058160616901657136,"36":-0.1479740111972379,"37":-0.25255029361710063,"38":-0.2720726198653407,"39":-0.17443370469093716,"40":-0.2925311290250218,"41":0.11774994673105899,"42":-0.17270117746808064,"43":-0.5945727970669091,"44":-0.057970153733089266,"45":0.2549113343923499,"46":-0.21603383464839748,"47":0.18131757831166243,"48":-0.16434454900052436,"49":-0.4133735679895954,"50":-0.17379179689591429,"51":-0.2893750026884799,"52":0.039436292769719855,"53":-0.3376525309552829,"54":0.22360855619924674,"55":-0.25229606726141485,"56":0.06294764129468876,"57":0.10417252802096333,"58":0.23072072675803476,"59":-0.3425974338869532}},"5":{"bias":-0.28711017766202085,"weights":{"0":-0.03295024804908021,"1":-0.22418312113814565,"2":-0.2709188134769535,"3":-0.03136214372117516,"4":-0.043368056792178075,"5":-0.16327321374924886,"6":0.004286605545262516,"7":-0.2116646717638721,"8":0.05035505666651425,"9":-0.15393022741392734,"10":-0.34526077513165554,"11":-0.020916504233737098,"12":-0.2982028725966669,"13":-0.3018937180413433,"14":-0.3006936579989453,"15":0.07272827051870637,"16":-0.15688310529735555,"17":0.19920949546256958,"18":-0.11253312755555575,"19":-0.053787765435172476,"20":-0.2695622514668692,"21":-0.044731491438940923,"22":-0.05853571169291954,"23":-0.16391048607596306,"24":-0.36622557514127524,"25":0.17240867613828595,"26":-0.004720214050544557,"27":-0.0814057381595786,"28":0.14137954622706106,"29":-0.16119833142276682,"30":-0.12611222885879197,"31":-0.10381578505902217,"32":-0.2151207583246461,"33":-0.2587272746877813,"34":-0.03523085308347908,"35":-0.18198119460248252,"36":0.09991228786760896,"37":-0.2484443548137807,"38":-0.06611094777205927,"39":-0.26285760134783465,"40":-0.12582205232273297,"41":-0.23524040020296832,"42":0.0034951006610202495,"43":-0.10635644389448683,"44":-0.3291928009747661,"45":-0.16679904860703226,"46":0.017837183795855627,"47":-0.04179998447989909,"48":0.03882815082703452,"49":0.04720779655198708,"50":-0.14054845888783649,"51":0.16193155260601408,"52":-0.0455914588500226,"53":-0.2256422904781498,"54":-0.06399111054469694,"55":0.0992150410893311,"56":-0.044579908552322474,"57":0.02547752227424727,"58":-0.03635345584207792,"59":-0.0010820343978609336}},"6":{"bias":-0.1893579331766093,"weights":{"0":-0.15985143105991592,"1":-0.22314090960782093,"2":-0.21680483010806148,"3":-0.046122137000204566,"4":-0.23100425387576798,"5":-0.24205170190413977,"6":0.031030059652515832,"7":-0.19618237285816378,"8":-0.05793889149142944,"9":-0.06954550269596886,"10":-0.25621809204166746,"11":-0.07405372177692564,"12":-0.046913306491346084,"13":0.05712462385329498,"14":-0.12513667860764177,"15":-0.1915952447838613,"16":-0.16153112912549603,"17":-0.1864199606185118,"18":-0.26721095933894545,"19":0.011398864504164212,"20":-0.23957823314048185,"21":-0.07832772379749865,"22":-0.08022190414893786,"23":-0.19045712194543496,"24":-0.09772185239474324,"25":-0.11531831714852327,"26":0.10734753970292091,"27":0.05530456064659277,"28":-0.2906452019010488,"29":-0.15848890253431588,"30":-0.2034186906413531,"31":-0.04694391798918002,"32":-0.2222339933772215,"33":0.034075230321280826,"34":0.13609969346936468,"35":-0.11422945627158362,"36":0.0019052177381147658,"37":-0.1055302709266353,"38":-0.15406186239167768,"39":0.006785670671074912,"40":0.0009270304076744886,"41":0.0016562989395860787,"42":0.12571510602107136,"43":0.13027293542909424,"44":0.11493042711026576,"45":0.004669307916599716,"46":0.11500811473697163,"47":-0.13680412484804735,"48":0.08544558974592627,"49":-0.15649235119186425,"50":-0.1764022258180349,"51":-0.1002222703309343,"52":-0.11232264074358149,"53":-0.2626693466780237,"54":-0.05619946312500737,"55":-0.05826490135388492,"56":-0.26237982165899176,"57":0.06310926389377249,"58":-0.07451193002277377,"59":0.06656123024295012}},"7":{"bias":0.05022574332781948,"weights":{"0":0.2712260262300525,"1":-0.18856284568776804,"2":-0.15699887486794684,"3":0.1517484329872064,"4":-0.12384838611715832,"5":0.34642225172851226,"6":0.3666427140565248,"7":-0.2696823293275443,"8":-0.223048483281916,"9":-0.2308639388734774,"10":-0.12012378162270893,"11":0.05420649977366549,"12":-0.21801171261226382,"13":0.1549863619462725,"14":-0.17991574645618658,"15":-0.19047580656924548,"16":0.318013492726532,"17":0.15435163769549418,"18":-0.028878071859174154,"19":-0.030630421670328704,"20":-0.21001647452421032,"21":-0.20743794792932635,"22":-0.17148672395960207,"23":-0.07839847082191133,"24":0.08926696863236112,"25":0.2115398736811021,"26":-0.04956844328396141,"27":-0.3657670282831581,"28":0.14163030081367034,"29":-0.18482564271989238,"30":-0.13032346687051344,"31":0.25214213204533853,"32":-0.0941818519300988,"33":0.03128987610272495,"34":-0.1282414015998063,"35":0.04378222802810081,"36":-0.24679765074290674,"37":-0.020676409109878415,"38":0.3037829662464767,"39":-0.2639491852684049,"40":0.17902217379251525,"41":-0.30413626149812817,"42":0.060838571792120426,"43":-0.16759869034220215,"44":-0.16638913601533042,"45":-0.1276311632634427,"46":0.004418908563945231,"47":-0.2503217385196361,"48":0.14514868656961363,"49":0.14196395308882162,"50":-0.29538921026042075,"51":0.28942431344313674,"52":-0.0890366510500359,"53":0.27582367707677474,"54":-0.41573835826804534,"55":0.25705171330734644,"56":-0.03909755790298884,"57":-0.2270601580904427,"58":-0.1721359705173206,"59":0.2525929684350481}},"8":{"bias":-0.12278583287399081,"weights":{"0":-0.024502243393066937,"1":0.2874504835620691,"2":-0.624669011176928,"3":-0.24590497110859375,"4":-0.013202402461154556,"5":-0.30147523741884524,"6":-0.5082398897528111,"7":0.21899355170958987,"8":-0.40756167153469736,"9":0.21850411025980435,"10":-0.33258371503513456,"11":-0.20212847923796687,"12":-0.1418422737727641,"13":-0.25111653787894617,"14":0.21843637705057212,"15":-0.12642452555770062,