{"layers":[{"0":{},"1":{},"2":{},"3":{},"4":{},"5":{}},{"0":{"bias":-3.6737826129520346,"weights":{"0":9.184011392691392,"1":-32.3958229905633,"2":6.823711251523149,"3":17.205607194449684,"4":21.98670697050928,"5":-8.692486715705943}},"1":{"bias":2.1607299326966203,"weights":{"0":-3.3544023026698757,"1":1.100834602377444,"2":0.3445286340362284,"3":-3.3527379891680473,"4":-4.667813898751942,"5":-1.7478734715534818}},"2":{"bias":-11.942716717487059,"weights":{"0":-4.918864788962187,"1":-3.2229053236557155,"2":8.50607024661257,"3":12.467883868645055,"4":-3.2959848868355373,"5":11.45467790024851}},"3":{"bias":0.1294594245875907,"weights":{"0":-7.960398792136754,"1":13.787902506650802,"2":-9.42592822996503,"3":2.891731289339695,"4":-5.915762571964885,"5":-12.134875575520457}},"4":{"bias":-2.2159604756053994,"weights":{"0":-0.8029763361221355,"1":-1.5395497756113674,"2":-5.636198191848455,"3":-3.811171753735432,"4":8.592129123179866,"5":-10.83340649352634}},"5":{"bias":1.2930473019294537,"weights":{"0":-5.384884740676455,"1":5.068943408830178,"2":-5.72092383672403,"3":-7.658622054216524,"4":-3.530960913190537,"5":-1.648470537703663}},"6":{"bias":-0.5197278984495798,"weights":{"0":1.5215192881510746,"1":1.3538416600556862,"2":-4.723836527285473,"3":-0.959203050134175,"4":-3.566053787072176,"5":-0.7672419825022166}},"7":{"bias":-16.313168459177916,"weights":{"0":-2.571223243609466,"1":5.071666894037226,"2":15.583379936910973,"3":-0.7848566804263182,"4":20.460127864250587,"5":2.165621619485874}},"8":{"bias":-9.096981761759979,"weights":{"0":25.86101759712707,"1":-6.9071937211444245,"2":-6.8946767951839,"3":8.669103658448025,"4":5.224102774933074,"5":5.504236870188855}},"9":{"bias":-6.349488900321521,"weights":{"0":23.873288312310667,"1":1.025707307739132,"2":-17.814545255347713,"3":-0.07890751117228365,"4":13.231988339421871,"5":-22.902278584761888}},"10":{"bias":-2.891254932690939,"weights":{"0":-3.631358829924795,"1":-0.38248946775323617,"2":3.249615146404412,"3":-3.604330182251693,"4":-3.5327394709605655,"5":3.7626769297642593}},"11":{"bias":-4.060586239604245,"weights":{"0":28.02060986194732,"1":-1.595888320141478,"2":10.99705722565092,"3":21.86679017484871,"4":0.5968071268047956,"5":3.1140606104640627}},"12":{"bias":-15.45406978248204,"weights":{"0":5.567318487507055,"1":14.732142981302072,"2":-0.41958199383827793,"3":-13.036490041521397,"4":16.069685608811024,"5":-5.3938061688812216}},"13":{"bias":-13.477586450771927,"weights":{"0":10.56536523081909,"1":-5.41141993315037,"2":-8.82620228501858,"3":23.3813318467433,"4":-8.469038532786605,"5":1.7744554698357495}},"14":{"bias":-6.114094786378923,"weights":{"0":-12.32989706518573,"1":17.79303383930798,"2":6.030230716119982,"3":-7.159782137728038,"4":3.7427815619949056,"5":-9.454916949003056}},"15":{"bias":-0.20195367365740097,"weights":{"0":-20.061097301200665,"1":-15.911232409359336,"2":-17.775613154221357,"3":19.81433835337213,"4":-1.830426403360134,"5":20.062160010842515}},"16":{"bias":8.017735659957179,"weights":{"0":3.2555758034254003,"1":-8.016199939650209,"2":-6.664117705779479,"3":-19.581054906085342,"4":12.082192440729042,"5":-19.767230484904317}},"17":{"bias":4.243966997417029,"weights":{"0":-12.601893813752314,"1":-14.89780460436815,"2":2.173388072100109,"3":18.040530994648556,"4":10.218253398668343,"5":-24.074141307406926}},"18":{"bias":-17.34124281155398,"weights":{"0":-3.222103295559666,"1":1.357383646138574,"2":-10.652262241117755,"3":16.896718470846704,"4":0.44632205416875453,"5":22.26658808242846}},"19":{"bias":-10.430137459680939,"weights":{"0":-23.33469724554503,"1":-8.419116429333975,"2":-3.1459664302302888,"3":24.637607284807395,"4":9.62781663332179,"5":-13.81479432045145}},"20":{"bias":14.82128187699237,"weights":{"0":-24.55675830839961,"1":-7.566371928214166,"2":5.094895916802815,"3":-32.001142699139464,"4":23.198477927305806,"5":-6.86059292278393}},"21":{"bias":-6.277005157616116,"weights":{"0":-17.88423511750014,"1":-6.806967343537287,"2":-6.0487371179230305,"3":20.182241198367755,"4":4.400625007351938,"5":-11.283604547172855}},"22":{"bias":-7.247228289441449,"weights":{"0":7.46910956606756,"1":9.79830565496886,"2":12.530647782595132,"3":5.392410977840077,"4":19.973307929935725,"5":-6.593806501673902}},"23":{"bias":6.236018088159491,"weights":{"0":1.8925760857586467,"1":-4.764105467918223,"2":-4.9774916423981805,"3":-5.201803988912921,"4":0.39466693685506954,"5":-8.584243488751682}},"24":{"bias":0.27910643440662847,"weights":{"0":-7.461880337480717,"1":-4.974984899414048,"2":-2.280787406771966,"3":-0.657508798639656,"4":1.492640886951251,"5":4.605515345174536}},"25":{"bias":-4.685358817591387,"weights":{"0":-8.591998381735737,"1":-1.1990509451016156,"2":-0.22298857391136886,"3":-0.8967990946516176,"4":6.243664669945196,"5":0.2439636239359499}},"26":{"bias":-1.7020848427685966,"weights":{"0":-1.1332453043946138,"1":-0.03234448101946334,"2":-0.7431738080043444,"3":-1.6766651525754022,"4":-2.783690611645238,"5":1.9025863942637062}},"27":{"bias":-1.0774141942358786,"weights":{"0":-3.801314947014406,"1":-1.36912057037997,"2":-0.93694294067873,"3":-2.378154620594859,"4":2.6527120241415347,"5":-0.525131993307113}},"28":{"bias":-17.089693529222043,"weights":{"0":6.2304995388534135,"1":6.7570724538873765,"2":13.41435644021515,"3":-7.91848119162702,"4":-8.32704661204428,"5":9.283940357965708}},"29":{"bias":10.780316423681736,"weights":{"0":-8.341238440593397,"1":-24.609972832938322,"2":14.419814910520863,"3":0.9740026324941993,"4":-14.526538630493812,"5":-1.8982986963086104}},"30":{"bias":-0.9545001514762065,"weights":{"0":-0.041584808800823554,"1":1.0746581045940309,"2":-2.791245546914524,"3":-1.6177357586993473,"4":-1.9244712698310902,"5":-1.5328828150390712}},"31":{"bias":-4.788066762653588,"weights":{"0":8.213036104094376,"1":-0.32156585460138365,"2":7.388149393045212,"3":-7.7391312720199865,"4":-19.53286598318086,"5":5.99682878701206}},"32":{"bias":-1.4648751425148478,"weights":{"0":-0.1335670191117821,"1":0.20542159309958155,"2":-1.7818731473764577,"3":-0.7441383199758138,"4":-1.149665281347393,"5":-0.8393087354164486}},"33":{"bias":-9.797832349112738,"weights":{"0":-44.08242268562649,"1":13.565148913299273,"2":12.854494445549186,"3":-4.054847194364071,"4":8.071894645270268,"5":14.097880283453177}},"34":{"bias":-10.79093831127831,"weights":{"0":16.7737381142902,"1":-3.01763680140031,"2":18.881559947058392,"3":12.128655480863406,"4":16.434843811039435,"5":-2.38061703366018}},"35":{"bias":10.177187807215894,"weights":{"0":-37.81637333368006,"1":-2.704593051089754,"2":-19.18488039394456,"3":7.443156122033209,"4":-22.751950289995253,"5":19.181546943934464}},"36":{"bias":-0.3474732421370049,"weights":{"0":-1.1901014495573823,"1":1.5189435258104265,"2":-4.342287771710672,"3":-3.558174766547844,"4":-3.0599278106721033,"5":-1.0877874835197505}},"37":{"bias":-14.533175039077507,"weights":{"0":7.559138999546843,"1":-4.274569593999724,"2":11.527934000882244,"3":18.761841016222593,"4":-15.812279915627204,"5":3.6514304267665016}},"38":{"bias":0.1681108490685394,"weights":{"0":-2.0287299176105424,"1":-2.130056985158822,"2":2.594480711858523,"3":-7.040019390059794,"4":2.3852009160005263,"5":-4.56274149823136}},"39":{"bias":7.217649527060379,"weights":{"0":6.669157025555635,"1":-16.334151413224355,"2":-15.701671923391817,"3":23.690696324491142,"4":7.311961613025149,"5":-7.8249804873689905}},"40":{"bias":-1.1928851506011853,"weights":{"0":-3.136874366867578,"1":-1.026725455806526,"2":-2.588096090373284,"3":-1.7871174120318376,"4":2.6749936470194853,"5":-1.323658062034296}},"41":{"bias":-12.450907505201812,"weights":{"0":5.14561915088856,"1":10.165335691503769,"2":4.595577875375013,"3":8.753183016569084,"4":-6.226733572957616,"5":4.823692055836055}},"42":{"bias":-0.7811026610507007,"weights":{"0":-0.7426661041346478,"1":-2.360424612646327,"2":1.6890229624659356,"3":-2.5391325896299897,"4":-1.8778387381459885,"5":-1.4433753970739431}},"43":{"bias":-1.561474628216836,"weights":{"0":-1.080754832290014,"1":0.14643103388629355,"2":-0.18233622426044582,"3":-1.8905842235944608,"4":-1.080027950274429,"5":-0.085346712957578}},"44":{"bias":-0.41242716424532383,"weights":{"0":10.878927427760349,"1":0.09484542788588267,"2":-10.486197195151478,"3":-2.8548162640943797,"4":-7.259047231343225,"5":-3.8669837537675043}},"45":{"bias":4.39578259862524,"weights":{"0":5.099089322030815,"1":19.031339097784837,"2":-22.64163558007557,"3":10.77189866484706,"4":-1.4507482157234821,"5":-13.027999376269712}},"46":{"bias":-1.773711014711657,"weights":{"0":0.5257981769457699,"1":-0.2032235120189219,"2":-1.6340805091423252,"3":-0.3483268058826272,"4":-0.3006269238036678,"5":-1.4695300332308572}},"47":{"bias":-18.772522796374297,"weights":{"0":7.865690296520263,"1":15.003227112905272,"2":5.38404525307398,"3":5.3788187848479545,"4":-4.980338243544063,"5":7.456484040756157}},"48":{"bias":-1.690488033844928,"weights":{"0":-1.506561081060311,"1":0.0009248417759558361,"2":-0.5854198240137034,"3":-1.9263265411036132,"4":-2.077534882588449,"5":1.8606084427033496}},"49":{"bias":1.1926841504714223,"weights":{"0":-3.0732026984049936,"1":5.339308093223472,"2":-3.660205332339532,"3":-2.39272026839289,"4":-4.560687796817334,"5":-7.5685295694002015}}},{"0":{"bias":-1.1992149321878618,"weights":{"0":0.4810565817343835,"1":-0.06761456053467264,"2":-1.4262420720742264,"3":-1.1399099661640502,"4":1.0897106082402443,"5":-3.578386673254157,"6":-1.39748245182199,"7":-2.096196012682546,"8":-4.4725558458127495,"9":-0.29268647830930133,"10":0.7893642736396884,"11":4.717819605965936,"12":0.062086790409749314,"13":0.7436879595687534,"14":-1.5021210739157098,"15":0.998726703009875,"16":-0.8336751693487778,"17":-1.218169066385857,"18":-9.386583213322778,"19":-1.2786889622309798,"20":3.1091423154581928,"21":-2.202326299399861,"22":-0.18006145781842897,"23":0.6645128326453412,"24":-0.867749119871552,"25":0.12980708638373756,"26":-0.6388883238934797,"27":0.06101700083355816,"28":-1.0571316608743315,"29":1.5662694291323584,"30":-0.6356716789120272,"31":1.8373089081970317,"32":-0.5753201022674973,"33":3.904978754696598,"34":0.8853324335353352,"35":0.8682377745394746,"36":-1.4446940263766284,"37":-3.1656507897889226,"38":1.4836854534027983,"39":-8.950948652588131,"40":-0.07559513481680996,"41":-2.5586832514961104,"42":1.345556861206413,"43":-0.10593766833790572,"44":-0.5156387185703841,"45":-4.571577121634113,"46":-0.03191177578909286,"47":-3.75743262528872,"48":-0.4390254190713458,"49":-2.172306492066433}},"1":{"bias":-0.9699146262876247,"weights":{"0":-0.14592366388491254,"1":-0.08660699757941526,"2":-0.5509638716468922,"3":-0.31840610815677367,"4":0.14565887225882743,"5":-0.314063570994884,"6":-0.03760960130215115,"7":-0.11339415642489224,"8":-0.6622231763288986,"9":-0.5392942909880015,"10":-0.251450802799821,"11":0.022904126035283672,"12":-0.11763092812170053,"13":-0.19805461974103758,"14":-0.1503348869941504,"15":0.21689185303484493,"16":0.4926938826291982,"17":-1.8598965325260208,"18":-0.5886882621189105,"19":0.5321964578581092,"20":-0.8095836253463637,"21":0.8132081692748252,"22":-0.6633842232101939,"23":-0.1404599074054432,"24":0.004091312879665405,"25":0.17406635651632485,"26":-0.26397632179254443,"27":0.08071382292463115,"28":-0.3661625259498108,"29":-1.6078249113847705,"30":0.11895456159437218,"31":-0.21443649617210225,"32":-0.05347656940132755,"33":1.2494529818794367,"34":-1.0369753696969677,"35":-2.408608738340237,"36":0.032711435842104127,"37":-0.6565731556559988,"38":0.17411481074898216,"39":-0.4579761651287315,"40":0.17615979340409066,"41":-0.8534513165506891,"42":-0.1234336593500801,"43":-0.1366828389471828,"44":-0.2677927519721553,"45":-2.130962206783571,"46":0.024814002497990813,"47":-0.814060285326713,"48":-0.021238508711436305,"49":-0.14002677340500186}},"2":{"bias":0.12228947831206924,"weights":{"0":0.49539459437548117,"1":0.037635764564178914,"2":-0.6627137145111508,"3":0.3516625820989545,"4":-2.541004962200851,"5":0.822336280716852,"6":0.09310417923119921,"7":-2.8018050298311934,"8":0.1380027616558812,"9":-0.04565777659139662,"10":-0.33323838794555277,"11":0.6301855258715491,"12":-3.1996509206065786,"13":2.4684196463792545,"14":0.4102732809934765,"15":-2.1833929050009107,"16":2.9532454504616026,"17":-3.2147269631830118,"18":-10.238078825536714,"19":-2.4410862979351213,"20":1.2826428042247804,"21":-2.9671802426521627,"22":2.314220938615705,"23":0.8227322360548888,"24":0.6681201855369623,"25":-0.19211930266003993,"26":0.026905040119628916,"27":0.30674111264354625,"28":-1.3152930496871702,"29":-6.873244798725578,"30":0.13122918240731626,"31":-1.7704006440461626,"32":0.14177302302305642,"33":0.4279685538722778,"34":0.033279536169223724,"35":-2.490748108332133,"36":0.5427924706093614,"37":-0.25530630418740324,"38":-0.9265742159165109,"39":-3.343887811874657,"40":0.44176372279922427,"41":-0.3466887101479232,"42":-0.1664719071703172,"43":0.3423294524265422,"44":1.4249105945449156,"45":-2.855581413972041,"46":0.0151797313087008,"47":-0.7941940235297656,"48":0.1440327479691915,"49":0.37846066579596516}},"3":{"bias":-0.7237497387452986,"weights":{"0":0.3978105204592647,"1":-0.1584447737337049,"2":-0.5183707653828296,"3":-0.5439562161700295,"4":0.07636831113198547,"5":-0.0966249246426101,"6":-0.15887728218044087,"7":-0.29266943794202505,"8":-0.9610544288373577,"9":-0.5524563719939274,"10":-0.11571860284741774,"11":-0.0189811153051221,"12":-0.5039486511512766,"13":0.3022245348944738,"14":-0.2521341044917291,"15":0.33397486738636284,"16":0.14833083547450462,"17":-0.18437842310034758,"18":-0.6586510026155347,"19":0.5234341895589267,"20":-0.5482771271967013,"21":0.6355930235945406,"22":-0.3905667145206209,"23":-0.20661237933225585,"24":-0.057284805214434825,"25":-0.32880739781692564,"26":-0.21222624656471442,"27":-0.1311913817431803,"28":-0.572241740485677,"29":-0.3696617982719879,"30":-0.11545063908636978,"31":-0.3013696515073882,"32":-0.06448560237204533,"33":-0.3405430740497319,"34":-1.0619898169077755,"35":-1.5871993577534267,"36":-0.1458035626623216,"37":-0.052183730767166966,"38":-0.1065408670483385,"39":-0.9583798780949757,"40":-0.20974113903132457,"41":-0.3956986380484191,"42":-0.0632839664872636,"43":0.05262288959589824,"44":-0.25993742943893133,"45":-0.6637610104488284,"46":-0.06396433466740985,"47":-0.9237426710910457,"48":-0.24714216862919416,"49":-0.2702101581375652}},"4":{"bias":3.3819805362527626,"weights":{"0":10.44628484957147,"1":-1.4604689697000155,"2":-0.051877278495891695,"3":6.008078854796266,"4":5.525693032610929,"5":-0.6377851443546443,"6":-0.5272262570013129,"7":-1.9363147745213576,"8":-1.947804309803505,"9":1.1228404746524123,"10":0.4415612240919655,"11":9.088559337506666,"12":-2.1845145460898987,"13":1.3468681006238163,"14":-2.6259713737750747,"15":2.0406033272511173,"16":2.24757124793475,"17":-5.067318396393239,"18":-3.258623280665617,"19":1.3052645789797344,"20":-2.8269396455733324,"21":2.961279777914999,"22":2.8651555996461435,"23":1.752130094572591,"24":-1.9505454283267092,"25":0.540104502337548,"26":-0.3056685248075418,"27":0.26898219439248,"28":5.669044060760115,"29":1.9411668329823804,"30":-0.830518362073828,"31":3.8519672443269437,"32":-0.2777002970762542,"33":0.7786604156072419,"34":6.835781244610567,"35":-18.025558774341356,"36":-0.9958794382266222,"37":1.0304335783775493,"38":-0.12579910885956858,"39":0.9308993058035886,"40":0.5602946551657497,"41":4.297500308032026,"42":-1.3789119098575031,"43":-0.13614338694462402,"44":-6.695705421539846,"45":4.531264383049572,"46":0.22412156080739576,"47":1.9767450960451691,"48":-0.28557323802531015,"49":0.05278980700142475}},"5":{"bias":-3.3769277286952195,"weights":{"0":2.334851978784495,"1":-1.988184417259389,"2":6.053472230143009,"3":-7.397682951836328,"4":-2.1049384137981724,"5":-0.7376282513811119,"6":-1.1297742329473188,"7":-1.2722998959454166,"8":-11.371094940395976,"9":10.81417677046989,"10":0.5319236611480909,"11":-4.987554971156988,"12":2.9594513426402647,"13":8.264577876422342,"14":-1.6177781037013577,"15":-9.328194783744607,"16":-3.265254912622565,"17":-2.8407396814352777,"18":3.278476722819823,"19":-3.706535207702358,"20":-15.275325651296123,"21":-1.896696492625593,"22":0.5308261696202082,"23":-2.2027375051179026,"24":-2.9278393471540896,"25":-1.0946593924895902,"26":-0.15663115934863886,"27":-1.776363795849458,"28":6.4647859135452155,"29":-5.217806159237739,"30":-1.7511760751909926,"31":2.6257127989692117,"32":-1.526509643707299,"33":13.763594372682146,"34":-0.1984220588068537,"35":-10.389248631824657,"36":-0.9884179590279304,"37":11.349050339822199,"38":-2.720248555474019,"39":-14.901276923178987,"40":-1.9613427836280695,"41":6.319719705143624,"42":-1.4629828266921663,"43":-0.9904117164220455,"44":-0.9377625649307435,"45":-5.913994494686051,"46":-0.951536310914568,"47":15.939097671909574,"48":0.3099667268877126,"49":-4.8800853764857965}},"6":{"bias":-2.5432632220680698,"weights":{"0":-4.024631396816761,"1":1.0227792039399317,"2":-6.199619250837626,"3":0.7602382179682399,"4":-0.26432756168576754,"5":1.1997518991212925,"6":1.2759549588958357,"7":3.289124585329678,"8":0.06695470638436803,"9":-0.4749004361154344,"10":-0.6527821151069225,"11":4.710446711286377,"12":-4.615966641381777,"13":-6.017897882541229,"14":-8.493425764518408,"15":-8.842417118709609,"16":9.349090873113107,"17":-1.1819428991332142,"18":-7.888905671674656,"19":17.346517838164658,"20":-11.465437640511244,"21":10.707454554984764,"22":-3.8085933725781076,"23":2.279313423232452,"24":-2.0972977014895253,"25":-2.028413115876158,"26":-0.2669676190159001,"27":-1.436439797108357,"28":-1.51487598882831,"29":9.345685265993597,"30":0.5562388749721701,"31":-3.8438526509634348,"32":0.3689618842370858,"33":4.325404535469292,"34":-4.417820399881473,"35":-9.307339857613327,"36":1.2952308310393683,"37":1.8680815177842949,"38":-0.09514102693806747,"39":-2.0925107848601514,"40":-1.497654777728473,"41":-0.7870129360756314,"42":0.6979803720981909,"43":-0.275842435346672,"44":3.806331904532422,"45":9.974375065879716,"46":0.3258198824149437,"47":-7.828808288123339,"48":-0.6737905693968934,"49":2.7180854211696186}},"7":{"bias":-1.9251771978429615,"weights":{"0":0.26896387558086365,"1":-3.3117400276505733,"2":1.8437725274854326,"3":-6.702731738533217,"4":2.6633950690480606,"5":-4.076178029435633,"6":-0.5201025494348989,"7":-1.0020614737404137,"8":-5.683719406785686,"9":11.411321848148967,"10":-1.5492936550542404,"11":4.792955731680022,"12":-1.0303029333295455,"13":-1.8679432789556638,"14":-6.950709806562747,"15":-1.170770975631404,"16":7.7390537132679125,"17":-19.166289376288148,"18":-4.5333689741647305,"19":-3.2462465848026407,"20":8.2697910377555,"21":-8.203735445926108,"22":-0.7673144284343412,"23":4.292838459809847,"24":2.8506808549827922,"25":7.7582758572126576,"26":-0.4653749754049946,"27":3.0394168834141677,"28":-2.7754617351878332,"29":-8.139909644198951,"30":-0.7051404918988011,"31":-1.4021970960228438,"32":-0.004577693809843915,"33":-1.6217794920098045,"34":0.8891624034425727,"35":-6.513889841990769,"36":-1.9565432274054444,"37":5.160088928401715,"38":5.279875790692862,"39":3.5700155027204783,"40":2.326758156196356,"41":-1.0851521833986724,"42":-0.06550584247639066,"43":-0.08216240144889969,"44":-2.380868508446743,"45":-16.14061711030555,"46":0.027622307485199782,"47":4.482863145600127,"48":0.023034535580068155,"49":-5.102093137414645}},"8":{"bias":-3.8422908837469363,"weights":{"0":6.759903759664836,"1":-1.491230033864699,"2":-1.6136244796650048,"3":-1.4352738200515403,"4":0.12793977835690626,"5":0.2479417064520995,"6":-1.0736892984286985,"7":4.939264397685853,"8":-7.676526570891089,"9":-3.5982202872486573,"10":-0.29817916491054824,"11":-6.286246074507009,"12":7.837543283886901,"13":4.151760730080356,"14":-1.6956144209306543,"15":9.88932637118678,"16":-0.9687022294813324,"17":-7.054878681260562,"18":-0.36474794546758066,"19":-0.4304501247277378,"20":-3.27107688349894,"21":0.9871665987476593,"22":-0.899624789394118,"23":-0.5170626410205553,"24":-0.19496822099959318,"25":1.3225864531735774,"26":-1.1337175949120386,"27":0.4275630789272633,"28":-0.08813604203725484,"29":-3.550089350222023,"30":-0.36767466545081323,"31":-1.0507418627305096,"32":-0.2653358975435853,"33":2.7288001472241357,"34":-3.7624160185309075,"35":0.542117183720539,"36":-1.171288523433815,"37":-2.4548511420656562,"38":0.28678540449941586,"39":-1.3629201329407512,"40":0.4985063944733704,"41":-0.11539843572211199,"42":-0.5636407845559123,"43":-0.42506343621321674,"44":-1.5573512687057132,"45":-3.507702781463845,"46":-0.24918300974717975,"47":1.8314569220345591,"48":-0.6221725922098427,"49":-0.5302578347932939}},"9":{"bias":-0.9057456685024793,"weights":{"0":-15.79586249848032,"1":0.7519022900255932,"2":-0.539045141052033,"3":-3.0606288043322847,"4":4.281469712381541,"5":0.7479615756823882,"6":0.8111519772300121,"7":11.867823236990672,"8":-3.00471100857495,"9":-2.5678058871426885,"10":0.08037986303896959,"11":2.753194871879724,"12":-6.87412536372053,"13":10.3412468869822,"14":-0.7070461085927325,"15":0.20211034706829756,"16":6.433309674663123,"17":1.5358087576061912,"18":6.145920851469897,"19":3.75126393835712,"20":-4.711211809798187,"21":5.997358932179655,"22":-7.043169008011546,"23":3.5835518879681203,"24":-0.33032171693267304,"25":-1.2602834108491208,"26":0.23699134672747224,"27":-0.9575928280122038,"28":-1.3091931667672474,"29":-7.14532908585793,"30":-0.03454663103219283,"31":-1.1788269396787063,"32":-0.010844974530720686,"33":3.349357580466278,"34":-10.032439205453676,"35":-5.117859050291751,"36":0.6706510944658988,"37":-2.7812475628086255,"38":-0.6482135825905142,"39":2.422020397496445,"40":-0.7256464717089264,"41":-1.5884357787376804,"42":-0.3864328251454194,"43":-0.04390297131904969,"44":2.3505720393605007,"45":-0.7251746015912636,"46":-0.04723568377488392,"47":-1.7995526555113268,"48":0.3057147078406012,"49":1.7965383309959313}},"10":{"bias":-0.44184380319777633,"weights":{"0":-5.955456526319196,"1":-1.80170732924197,"2":-2.5773263093595085,"3":-8.55809272510884,"4":4.9369058779779005,"5":0.5261331381969617,"6":-0.41620939280690084,"7":3.937392902972997,"8":-10.883218227416974,"9":-5.288229748696633,"10":-0.2308792312931669,"11":-2.4498462164584582,"12":5.03483929833442,"13":0.1977982410049313,"14":1.8799990855435607,"15":9.0086817736615,"16":3.8574417662793175,"17":6.337308341961576,"18":-6.683183169531442,"19":16.51950838153978,"20":13.311558031165303,"21":12.73166272476733,"22":-10.69917463806802,"23":-0.86367861596993,"24":-2.0072497489800694,"25":-1.2163006305213442,"26":-0.7253879418053263,"27":-0.17437388440690343,"28":-0.536292640967822,"29":-0.5515559271401292,"30":-0.13120164160151288,"31":-13.174673911856434,"32":-0.2346121500503094,"33":-7.835699195788819,"34":-16.941893390631428,"35":-1.7788081116451293,"36":-0.253921374084639,"37":1.947496441169106,"38":-0.5597067178161182,"39":9.20534943853115,"40":-0.7056410519842157,"41":-6.200287761018808,"42":0.6347290397159624,"43":-0.24799537464258575,"44":-0.7874056996922526,"45":-2.6196427676595295,"46":-0.23540335243388133,"47":-1.2835463101689524,"48":-0.2500640246879516,"49":-0.1128777184429007}},"11":{"bias":-1.4538209243278037,"weights":{"0":-0.5137665762041517,"1":-0.47482237019437357,"2":1.0777570754922088,"3":-1.0998881119030457,"4":-0.14710805702837976,"5":-0.3787002757313738,"6":-0.39719835235466594,"7":-1.0179390268330193,"8":-2.819710719300981,"9":-3.467770737248347,"10":-0.3985726882038298,"11":-0.45311187670442926,"12":0.7318302829832074,"13":2.6949339677977533,"14":-1.6332210570897938,"15":4.272238084009535,"16":0.15908311152386867,"17":-4.352898133024219,"18":0.47713831277791885,"19":-1.7059389559095626,"20":-0.5995376609785307,"21":-1.0554325182442763,"22":-2.8451632353748955,"23":-0.5030525258282084,"24":-0.803348903140145,"25":0.04597384234795594,"26":-0.36176454410530084,"27":-0.46498339425591045,"28":-0.5220223655843399,"29":-3.034205021324097,"30":-0.3122729809632973,"31":-2.4090098630329946,"32":-0.35034298191928476,"33":0.2609940676807537,"34":-1.5685882556638087,"35":-2.9910463795486546,"36":-0.1720194305341816,"37":3.8172142974835253,"38":-0.33115135990980454,"39":-1.4014544835304996,"40":-0.5463406795463788,"41":0.9123907280718305,"42":-0.37652311455472,"43":-0.16353530245233808,"44":-1.3194865143708858,"45":-3.6738849401575457,"46":-0.36801264626556973,"47":1.5764806480271065,"48":-0.5495571175262172,"49":-0.21840042404846094}},"12":{"bias":-3.149863532972187,"weights":{"0":-0.44657310090453906,"1":-1.1737018465214575,"2":0.6477304684532269,"3":-0.5774234074472284,"4":2.2671918966338325,"5":-2.378891930676252,"6":-0.11011255076956783,"7":-0.014880012192771387,"8":-1.1440923517745019,"9":-3.703069914703196,"10":-1.250100232688725,"11":1.7771649762346193,"12":1.658476188280212,"13":0.461024365071703,"14":-3.074331192661474,"15":-4.738818490977303,"16":2.0268845329190235,"17":-3.2384682568144525,"18":1.2398545502284628,"19":0.6873016043434689,"20":-7.064357108506694,"21":0.3227954952932151,"22":-4.550869857548379,"23":0.2369900975077691,"24":0.8959538936313319,"25":0.8881586378643879,"26":-0.5386691381178498,"27":-0.043789434448968,"28":-2.034209306086309,"29":-2.8892085362068247,"30":-0.2985410526576674,"31":-1.038071209523112,"32":-0.3064384236362793,"33":15.388545241551673,"34":-1.8034967112183455,"35":-4.941077920378208,"36":-0.4422887719596407,"37":-4.004810160535389,"38":1.201956387989972,"39":3.8965599779860427,"40":-0.4104201838339678,"41":0.8096675621935957,"42":-0.26890972053738565,"43":-0.6354755910417439,"44":0.3040138201875015,"45":-3.5506435028421697,"46":-0.09266925637010352,"47":-0.31335739613557373,"48":-0.6743369565397378,"49":-0.663564494098906}},"13":{"bias":-1.0461205241767504,"weights":{"0":-5.104155210537664,"1":0.25280062748084636,"2":-0.7361137542257702,"3":-4.265353286132415,"4":0.0041050139392562,"5":0.10362322361967989,"6":-0.3710057197608406,"7":8.379718786937513,"8":-5.445356957331095,"9":-0.06861307276553671,"10":-0.13733767292232293,"11":0.10767082726805466,"12":1.0969926444473301,"13":1.3422408882628163,"14":1.80247884348049,"15":12.004358714871502,"16":0.5157062201933135,"17":-0.03228863212606734,"18":1.2073519767069154,"19":9.21817207302918,"20":1.5604628993821683,"21":6.403438915496212,"22":-5.16141184107099,"23":-0.9947331257013073,"24":0.9682024000758503,"25":2.883518404299558,"26":0.13018485861055576,"27":0.9011688497561652,"28":-1.0938292730218515,"29":-0.8621658199566834,"30":-0.2728740697711565,"31":-1.8613441135673312,"32":-0.2912348978264259,"33":-0.9727918581916026,"34":-6.5206290377229665,"35":-9.427746982975783,"36":-0.07077440793627648,"37":-6.283473449605005,"38":0.14410013832691052,"39":0.1446290907968997,"40":0.9292040661755882,"41":1.2832333537219747,"42":0.1919117989930328,"43":0.0487186761613873,"44":-2.9193742410692405,"45":-3.9498992826091257,"46":-0.032010838462769815,"47":2.3453160400698128,"48":0.09298223837460211,"49":-1.8805958889446412}},"14":{"bias":-1.5752388574475997,"weights":{"0":-0.6344315973485464,"1":-0.20691736838572353,"2":0.7199963499426081,"3":1.2871807171551888,"4":-0.2712356289405953,"5":2.8165301644210197,"6":-0.5654175659382927,"7":1.0618217284503046,"8":-3.097584165660618,"9":-2.193865680537354,"10":0.6013873189324347,"11":-6.168152748836676,"12":0.6989592396989981,"13":0.8831389395866156,"14":1.6498066634846194,"15":2.0834011762204496,"16":-1.3767309174347941,"17":-2.550330862275736,"18":-0.4843929779970646,"19":-0.6768201922613183,"20":6.929421816431211,"21":-0.7279796841340654,"22":-3.161384709411768,"23":-1.5673490888787704,"24":-0.3000944447413171,"25":-0.08027924285108047,"26":0.21598516710790766,"27":-0.18171672961753915,"28":-0.5171552347935597,"29":-5.927985015858724,"30":-0.4659789148888704,"31":-0.7103044461910917,"32":-0.341771793102232,"33":1.1688314206677157,"34":-1.481744915428635,"35":-1.5167226014879036,"36":0.24678784589528382,"37":0.18599582135027654,"38":-0.7869877953510642,"39":-6.079797730556789,"40":-0.2575644141060817,"41":-1.185005415802053,"42":-0.44958758010164085,"43":-0.04120321123012413,"44":-1.033821696081994,"45":-1.8957785838356307,"46":-0.5554923760180764,"47":-2.408260708815668,"48":0.619140665435766,"49":-0.42570503595712783}},"15":{"bias":-0.7636063385045017,"weights":{"0":0.18499250176857412,"1":-0.3161498767341178,"2":-0.6495382584845668,"3":-0.05833173859581425,"4":-0.2018313720980016,"5":-0.3577802675427845,"6":-0.1803066945914125,"7":-0.4313340774917524,"8":-0.4328480874761739,"9":-0.08665958567959384,"10":-0.0746559103802486,"11":-0.357379275616652,"12":-0.5949162679663152,"13":-0.603161035175173,"14":-0.07049079779258327,"15":-0.14612706839493725,"16":0.5776478376751115,"17":-1.0146784755076714,"18":-0.8912414387298179,"19":0.3505619456951955,"20":-0.48606358916388026,"21":0.023058662870036384,"22":-0.2455305846680678,"23":-0.3403628332462527,"24":0.02008640328711763,"25":0.026598178356819033,"26":-0.028923283402138036,"27":-0.020804395102170938,"28":-0.6207066732017861,"29":-0.7089135505893078,"30":-0.03152404748838114,"31":-0.3512226984624513,"32":-0.09455192199560741,"33":0.19115876533259435,"34":-0.875244722017385,"35":-1.592949460775109,"36":-0.2600848425084944,"37":-0.3910805441090993,"38":0.0433029754980087,"39":-0.8397261372007703,"40":-0.04373721501145515,"41":-0.6313663084502433,"42":0.07922406570700267,"43":-0.2181175584804539,"44":-0.205415619744692,"45":-1.7809399925002252,"46":-0.04559685743544636,"47":-0.6879681952746561,"48":-0.020217799994785127,"49":-0.1014684506496401}},"16":{"bias":-1.5988981107610245,"weights":{"0":0.589172970249906,"1":0.9604898176299225,"2":-0.46524059388073385,"3":6.524647406656524,"4":-2.4200637591812493,"5":1.0990148913799251,"6":-0.8798914368312453,"7":-2.3774632776270006,"8":-0.3845391306051907,"9":-9.494546813673427,"10":-0.21683071212659247,"11":-1.6828660057051987,"12":1.9096694459153711,"13":1.7278160376327751,"14":1.5144720618816518,"15":1.2289895939985716,"16":-0.23953324135290582,"17":-1.2715803848843859,"18":-7.3177389696699535,"19":-1.250477318138629,"20":-1.7846236170790415,"21":-1.065170984726458,"22":1.9574074504670869,"23":-2.433688825884205,"24":-1.4358969835206368,"25":0.2876421598606965,"26":-0.4346214762194345,"27":0.05801157169500709,"28":-3.7190979531597064,"29":-7.514613460385456,"30":0.14076959421254406,"31":-2.666695912712531,"32":-0.296286917434265,"33":-4.409167437204645,"34":6.9453080421936235,"35":-0.04564953943129413,"36":0.3360223910821026,"37":1.729282305286913,"38":0.696286277431177,"39":-3.449383832191689,"40":0.00512906736499885,"41":2.0292726275332464,"42":-0.20275712340925015,"43":0.017053931708544228,"44":-3.2974132341880553,"45":0.3801054289889439,"46":-0.14149717188892974,"47":-4.088227755132528,"48":-0.366163369870702,"49":-1.1558221512703462}},"17":{"bias":-2.206055692966439,"weights":{"0":2.8734554673475126,"1":-2.2358548154858604,"2":2.309720971302286,"3":-1.8501655557381658,"4":1.967875222129074,"5":-2.1348947259126794,"6":-1.3574782343889122,"7":6.457840068519642,"8":-3.0381477483371375,"9":-8.457317781239883,"10":-2.0021020079638947,"11":3.2507682472550545,"12":-5.567441167560623,"13":-6.598267371266533,"14":-2.0817922590350824,"15":-4.880724482712458,"16":1.0051085241231583,"17":-1.0980735166459188,"18":1.2305097824376405,"19":-3.4211003693009427,"20":-8.195410611776582,"21":-6.980839129262049,"22":-1.4938299369279378,"23":-0.8769279798683791,"24":-2.2651767246025463,"25":-1.9100185673371628,"26":-1.3133202042239276,"27":-1.8009259795344041,"28":-3.0732603029742886,"29":-1.1745143091402803,"30":-1.2750856451491352,"31":-3.691542138018502,"32":-0.9208513576645277,"33":13.395217291613456,"34":-1.8482848426845904,"35":-10.577329752219633,"36":-1.396463244627106,"37":0.06575312259435957,"38":-0.207778995780384,"39":7.471967536636807,"40":-2.010169134388638,"41":-3.9530548483939487,"42":-0.7552956176256534,"43":-0.7462407506035454,"44":-1.3242832640740783,"45":-6.013846772806808,"46":-0.6740680721479775,"47":-0.15456093307460897,"48":-1.3300164617314805,"49":-1.6604121714760292}},"18":{"bias":-5.1613579694336345,"weights":{"0":-3.9862200687585734,"1":-1.9218376434476554,"2":3.7450699341882063,"3":-0.8313294267456766,"4":-1.5550813966063313,"5":-4.05688948339685,"6":-2.6813257585905332,"7":3.640289785487164,"8":-1.562332187788704,"9":-10.590415383658392,"10":0.1175186347557405,"11":1.3954604535909,"12":4.295872925585875,"13":-3.1675757726206806,"14":4.498566102217484,"15":-7.94966477870221,"16":-5.592562896152026,"17":-3.936156391051786,"18":2.4664842033175614,"19":-2.0079369220431684,"20":11.980048494588974,"21":-2.004230287400501,"22":-0.115358527087771,"23":-3.704105092411722,"24":-1.9559462110460066,"25":-1.3992632783423011,"26":-1.5301420802405552,"27":-1.4966001481945717,"28":10.3244765987964,"29":-7.909900680724069,"30":-1.977321747876131,"31":3.0417272251984575,"32":-1.5245517369352433,"33":-17.670080876639634,"34":4.145026953821969,"35":-11.654575944610567,"36":-2.6685447178835724,"37":-1.5836407470610725,"38":-2.434685832193744,"39":-12.174218129788757,"40":-1.7395124352369953,"41":0.33905393674951295,"42":-1.2436057368917204,"43":-1.032120583360941,"44":-6.4507970561709325,"45":0.4673417039159386,"46":-1.3971942982018053,"47":2.5402369583018864,"48":-1.4848588186160783,"49":-1.1031542909882872}},"19":{"bias":-0.6165045201043461,"weights":{"0":-0.30113511627710093,"1":0.16235196648403438,"2":-0.3934749032678573,"3":-0.23201460226363343,"4":0.3101889402040323,"5":0.04308111092497592,"6":0.06598952924688707,"7":0.8197438050943817,"8":-1.3841901545232287,"9":-0.5113820081615911,"10":0.010823358124893464,"11":0.21120672495193363,"12":0.18786870254117002,"13":1.1044772827180775,"14":-0.4620233963931895,"15":1.2020592363944689,"16":0.8519682294094281,"17":-0.6948180891453132,"18":-0.09720105216547621,"19":0.5035555417023597,"20":-0.227041984409454,"21":0.47888037982472414,"22":-1.9739835310588338,"23":0.020423849218199553,"24":0.48126300887773027,"25":0.24191948756693876,"26":0.08270030219762234,"27":0.21463752419613424,"28":-0.5298845884289535,"29":-3.006412750777725,"30":0.10064511741022202,"31":-0.09150308416549223,"32":0.1844901047951991,"33":0.05362349710435254,"34":-1.3785832948113033,"35":-2.680375939553733,"36":0.12926448412950603,"37":-0.5872751902427861,"38":0.350272813630193,"39":-1.2366241999991134,"40":0.2410791129697753,"41":-0.1067476845788643,"42":-0.03903857180494738,"43":0.13738643413084323,"44":-0.24113348032741252,"45":-2.2655168053841943,"46":0.27508102553949454,"47":-0.4593799243447366,"48":-0.06854946137461485,"49":0.12718362897531332}},"20":{"bias":-0.8054697085634211,"weights":{"0":0.548320422803935,"1":-0.24143886688194005,"2":-0.6046864345394773,"3":-0.8798474224215593,"4":0.24249124514684897,"5":-0.42767217336267943,"6":-0.32840833250560225,"7":0.6861544112736045,"8":-1.1717195019388822,"9":-0.5863288933641722,"10":-0.3015250743702559,"11":-0.5416821446859512,"12":0.2038809690939268,"13":0.606380469040494,"14":-0.6208927467052758,"15":1.4515935754700902,"16":0.36504615236366766,"17":-0.7542433287869656,"18":0.20546860105336406,"19":0.8089947353195103,"20":-0.029687608903203985,"21":0.49385570421191155,"22":-1.7284490546985571,"23":-0.20663117232103034,"24":-0.02710706485490601,"25":-0.007051718331279218,"26":-0.27025902976730687,"27":-0.14491814397667638,"28":-0.2722240601474503,"29":-1.6333442753496887,"30":-0.07009177207337823,"31":-0.3689747475541355,"32":-0.010590074072891222,"33":-0.07139953674321016,"34":-1.5574355782164404,"35":-1.6115945711028328,"36":-0.16262841357462895,"37":-0.781251116672375,"38":0.11877423034891933,"39":-0.4542680767921776,"40":0.05844829450739093,"41":-0.0925662090170359,"42":-0.0529493955564091,"43":-0.10102674793018089,"44":-0.4768958820425308,"45":-0.21124893794499303,"46":0.0012058915733358043,"47":-0.3979264617227219,"48":-0.02158988410592971,"49":-0.13276482965150344}},"21":{"bias":-1.4617953872309695,"weights":{"0":-10.956844170538721,"1":2.0227235628272586,"2":-2.9615495755705874,"3":-4.6900713207481495,"4":1.3264362246036618,"5":-2.687859510296056,"6":-0.3914394192305218,"7":-3.7200926568264023,"8":-2.7391505015165323,"9":0.13589629321977859,"10":2.3015659527795482,"11":7.0238958116762245,"12":-6.108626313957779,"13":0.15355272010015972,"14":0.9028274903945255,"15":-0.4037474745715219,"16":11.823010554230844,"17":-5.441485500280832,"18":8.569578551979925,"19":-1.155055802531166,"20":9.312592970647232,"21":-1.6140428430772487,"22":-3.4518384040810712,"23":-1.5438563542603858,"24":0.9404249116222363,"25":1.5932264808417191,"26":0.7811549376122245,"27":1.2981719484346947,"28":-3.4007518877301286,"29":-0.510030375692615,"30":-0.2162750718260051,"31":1.1871005204047285,"32":-0.11166732940977114,"33":-0.3405681816794051,"34":-5.609772244065453,"35":-10.21832637350967,"36":-0.3566917133203755,"37":-3.7576739951704967,"38":2.7258973565771836,"39":-7.633576465315588,"40":0.6800372258573587,"41":-4.870447371265054,"42":1.679453302555765,"43":0.8637383057087747,"44":-1.7179148221306098,"45":-6.914150429596467,"46":-0.2653118133548792,"47":-5.728490012585468,"48":0.938323575190611,"49":-0.4684580463978147}},"22":{"bias":-0.6700726976732722,"weights":{"0":-0.4130899185752798,"1":-1.2320325518632222,"2":1.836565921547074,"3":0.5827009489206587,"4":-1.070364034324098,"5":-1.0625707105465945,"6":-0.2821846021540845,"7":0.9097210998484332,"8":-0.539146308181583,"9":-0.8426289896635274,"10":-0.1389162444748478,"11":1.20110276969516,"12":-2.3568458475373566,"13":-1.504238124287506,"14":5.8341421078987965,"15":-0.8777637856844911,"16":-0.41680568284547315,"17":0.0439537794954821,"18":-0.6797283285589132,"19":1.7308908842730972,"20":-3.1410871422458593,"21":2.433036364454368,"22":-0.6428661334356276,"23":-1.4973327789717599,"24":-0.4997530188019054,"25":-0.871246084045622,"26":-0.17416530701051874,"27":-0.5547896227277943,"28":-2.926818614738648,"29":-1.6937910674579066,"30":-0.3546671634296846,"31":-0.9204721680512629,"32":-0.025991600204664397,"33":4.180872803456148,"34":-0.7813435631641521,"35":-7.271574816879826,"36":-0.30061319081797044,"37":-2.80467676332623,"38":-0.33021834357829755,"39":-2.353775818455088,"40":-0.469748284519238,"41":-0.6849446699344452,"42":0.0198475667059438,"43":-0.4885314676571522,"44":-0.18129557453821019,"45":-5.284360294385242,"46":-0.25870382418202564,"47":1.2680684455013607,"48":-0.09224295643826333,"49":-0.09172378227597086}},"23":{"bias":-1.057975907899812,"weights":{"0":0.2975486740935732,"1":-0.0446023592668043,"2":-0.1937542810905861,"3":-0.35166502485726336,"4":-0.03067652850409655,"5":-0.007199696130036523,"6":0.035359558054671204,"7":1.1025944160126522,"8":-1.1851938632795047,"9":-0.6061780472089113,"10":0.0032532615695595136,"11":-1.0658029516743686,"12":0.8464997002809153,"13":1.3328113031372169,"14":-0.35287132211548355,"15":1.6188634660818637,"16":0.306577131065292,"17":-0.7756786502214299,"18":-0.3784725514976379,"19":0.355856641802977,"20":-0.5546914712336808,"21":0.1484434901433167,"22":-1.3472301802234108,"23":-0.1720670259736307,"24":-0.07761165815085139,"25":0.20631057763357954,"26":-0.13167915364214708,"27":0.1600460812900021,"28":-0.5447160173144213,"29":-2.1793669048205255,"30":0.03498681053735414,"31":-0.3908142616568647,"32":-0.1311886620303868,"33":-0.22678133131100187,"34":-1.1557969785513462,"35":-2.228937004015751,"36":0.007918903132428835,"37":-0.10068126894042086,"38":0.33354965972576994,"39":-0.7523598220990066,"40":0.2995331451780469,"41":0.23591452329809967,"42":-0.09656635830070728,"43":-0.24026585258807073,"44":-0.38393980352629364,"45":-1.5155783842780983,"46":-0.11209153086639781,"47":0.35553104453205286,"48":0.0012474711083880518,"49":-0.16369865930474675}},"24":{"bias":-0.6032336694167376,"weights":{"0":-3.6384072481516334,"1":1.2156337606459786,"2":0.19760704807434648,"3":1.5613006648277665,"4":-0.5581455957711499,"5":-0.7836225027666837,"6":-0.08477660261492333,"7":-3.3817247576364657,"8":-5.337159991315194,"9":-4.724726106918736,"10":2.1078449122426743,"11":-2.0314914099594223,"12":-1.796665283269142,"13":0.08041915255736204,"14":2.2811194874174276,"15":-2.0642178432514564,"16":-3.6980539928266225,"17":-2.822263410527544,"18":1.9508186818678048,"19":-1.136528889038614,"20":3.84383340903325,"21":-1.0889713209123437,"22":-3.3476440719159646,"23":-3.1431091831004863,"24":-0.8658961767429986,"25":-0.6610516807737401,"26":1.1311704272494771,"27":-0.6841657845737028,"28":5.200970293683561,"29":-2.2606040595530943,"30":-0.4064970230431387,"31":10.22509888122808,"32":-0.0742396211494759,"33":9.06163932819357,"34":2.2441689070488393,"35":-4.536470133784484,"36":-0.19507666214747568,"37":0.5185454374962581,"38":-0.4099954104241422,"39":-10.550883419005523,"40":-0.7075894048267467,"41":-0.3770805699069065,"42":0.7828693380220276,"43":0.6512195782008892,"44":-1.4992094304548915,"45":-8.858351187871431,"46":-0.2844701232789935,"47":-0.5004878322663668,"48":0.9067323842326565,"49":2.3982791729087527}},"25":{"bias":1.688401954476124,"weights":{"0":-16.98731102520463,"1":-0.31269260715652053,"2":-0.2677509751406763,"3":5.373660675685518,"4":-0.8694093945902456,"5":0.3673535721727149,"6":1.448485829153939,"7":0.9139168159311979,"8":6.252964635874165,"9":-5.021940322508658,"10":0.7964576461086198,"11":5.632633658967889,"12":-1.5921368063444519,"13":-3.701019640853969,"14":0.9678820776706296,"15":3.923497366890492,"16":1.0607187510347407,"17":15.784661147214376,"18":-0.4950104199178059,"19":-7.794178223534079,"20":-7.03648507091734,"21":-9.935169124669724,"22":-8.23803612654897,"23":4.424959084265147,"24":-1.189458284777884,"25":-1.594760470903468,"26":0.2534796350190736,"27":-0.6571555639309059,"28":-2.5554703931683234,"29":15.811794483265523,"30":0.24456301803173222,"31":-4.2459396424938305,"32":0.28533938317444607,"33":-17.32742763357863,"34":-5.744079661839095,"35":-12.439643609271933,"36":0.5867088894464979,"37":1.1624728985613442,"38":-2.412627774789851,"39":-5.898670855504489,"40":-0.6847457567368034,"41":-2.7544924175791787,"42":-0.9820721838120123,"43":0.06568983465025198,"44":5.237266993493314,"45":-4.979848605344753,"46":0.44099449369449795,"47":-4.1044019370653535,"48":-0.23934083898436131,"49":5.898844447811033}},"26":{"bias":-2.859714396078317,"weights":{"0":-7.083626738829702,"1":0.032595627170880465,"2":-1.292520508106774,"3":0.27550064197275964,"4":-2.6933632007770236,"5":3.570419491277573,"6":0.08784843318462646,"7":-3.0070404996417075,"8":-5.031364171563147,"9":-7.572008414656424,"10":1.1277520673246864,"11":-1.9159120959298876,"12":-5.727932907726317,"13":-7.6738566448701695,"14":0.05444418620251699,"15":10.927316243265016,"16":-11.038577534443819,"17":-6.7837888828653865,"18":8.877292830901446,"19":5.2462616565378815,"20":7.895605873861982,"21":3.2457029389038268,"22":-9.484349856796735,"23":-6.875230758997986,"24":2.836180858764472,"25":2.8140230039505427,"26":0.5143264458422501,"27":0.5173905212340622,"28":4.82199455491759,"29":-7.762680360132872,"30":-1.1189214414182957,"31":2.9083028082193434,"32":-0.7360585214420831,"33":14.117790091683082,"34":-6.973745319438793,"35":-3.491827185655392,"36":0.01725024605716741,"37":-0.4592629593968656,"38":-1.4301423969945088,"39":-6.980953862544693,"40":-0.25980900850997884,"41":-1.682096056619407,"42":0.2826776338651326,"43":0.24702794006070317,"44":-0.5295233514076307,"45":0.1679077601951444,"46":-1.1962201994462747,"47":5.938582305174976,"48":0.5900873664015753,"49":-0.20059600770077093}},"27":{"bias":-3.239727278873031,"weights":{"0":-0.25460139417011424,"1":0.4388000839344476,"2":-8.771828849461244,"3":4.4067811498393965,"4":-4.9339476778239195,"5":0.573718277893989,"6":0.31001386773239353,"7":-3.3593399096905596,"8":12.7506944566008,"9":-11.440496074893227,"10":-2.106728733300509,"11":-3.5072049085005137,"12":-1.9130639727667114,"13":-1.1776851299653615,"14":1.69851148378446,"15":-1.744950748011395,"16":-0.18776389936105736,"17":-2.169165264228936,"18":-11.211282054854617,"19":1.9104449262497896,"20":-1.459944951997561,"21":1.3754086486907293,"22":6.371232188006178,"23":0.4059690513661217,"24":-5.2366052339107565,"25":-1.1803895732526999,"26":-0.6934793780466267,"27":-0.8603428477145931,"28":-3.584082136177244,"29":-5.32395673217154,"30":0.4390066725913537,"31":-3.3414044347167775,"32":0.19710151858147462,"33":-2.70672811776714,"34":9.093060176918172,"35":3.6306119617922765,"36":0.2588868842828357,"37":5.599177792806701,"38":0.02609721607960697,"39":-2.922671899882961,"40":-0.9386812620772905,"41":-4.7487985565407556,"42":0.20958886298021115,"43":0.054671226273102086,"44":-1.906658658063522,"45":-4.15124749395001,"46":-0.19388119043181076,"47":-2.2623405857019105,"48":-0.7376956692267284,"49":1.2905491173307198}},"28":{"bias":-0.6338122448901512,"weights":{"0":0.3124219331096301,"1":-0.1344677452165846,"2":-0.296202839937232,"3":-0.2975973424568093,"4":-0.24419707897684928,"5":0.12407922114835833,"6":-0.23788981709974358,"7":-0.021795056087175364,"8":-1.2656878920432872,"9":-0.401751643679146,"10":-0.24046259134002856,"11":-0.24024644980570561,"12":-0.26096480343640754,"13":0.45923960402344516,"14":-0.4246479860864645,"15":0.4958326851135057,"16":0.26875870322947465,"17":-1.4343834667451942,"18":-0.7544813456749248,"19":0.40862459127545525,"20":-0.2599969707739511,"21":0.24127617452547584,"22":-0.6294448462461832,"23":-0.20850059057745526,"24":0.29679281617327447,"25":0.07867900617790634,"26":-0.25261666360910207,"27":-0.10042600498048461,"28":-0.3008922055735306,"29":-1.869206435393587,"30":0.10041942067222642,"31":-0.4702620574407775,"32":0.14375587676479487,"33":0.39833792471447227,"34":-0.9762508483099026,"35":-2.2234398343138353,"36":-0.2403124630153451,"37":-0.33359084496843994,"38":0.027789672690450153,"39":-0.5693181683686058,"40":0.034008129939309004,"41":-0.5749769667396916,"42":0.0663521239509062,"43":0.05777798494930249,"44":-0.16086110574984303,"45":-1.6345786488783105,"46":-0.09567753162008025,"47":-0.7515893895488404,"48":-0.17588697641409395,"49":-0.04659833161488134}},"29":{"bias":0.6711575885280047,"weights":{"0":-0.6019693179106489,"1":-0.6203917512110835,"2":-6.195513149164697,"3":0.3470866779953911,"4":-3.3692586367556236,"5":2.883518846267151,"6":2.0764852394462063,"7":-12.629546520648793,"8":-3.8755286024245423,"9":6.157558362543355,"10":-0.24657288018165494,"11":3.220492501462661,"12":-9.71498737419263,"13":1.6406885204012653,"14":1.8245106901853378,"15":6.46463897480512,"16":6.337373521225421,"17":-5.646555536035103,"18":-2.0203820590653137,"19":-3.7094038094278434,"20":-0.947364733914784,"21":-4.0568602194268655,"22":11.060068044200808,"23":1.6972203496648097,"24":2.9764220219459947,"25":-1.552401132261458,"26":1.323806367082005,"27":0.5051668587238187,"28":-2.6870688373496403,"29":-2.820292856970123,"30":0.9265842255928877,"31":-0.09644029100100206,"32":0.5009155471188282,"33":-3.3895564973757373,"34":-6.968428624775976,"35":-11.717105553967539,"36":1.3276297066716478,"37":-10.679038735517882,"38":-2.3918221377678353,"39":-3.6416775141734288,"40":0.2677764905166726,"41":-3.113603179971832,"42":-1.131831841462806,"43":0.3675609633811864,"44":1.167668818719908,"45":-4.534350883381057,"46":0.29300297397202535,"47":-0.8245345368634831,"48":1.2643799242846372,"49":-2.222523284373666}},"30":{"bias":-0.407905730525643,"weights":{"0":0.6158772872325038,"1":0.22892766899047903,"2":-2.315070529052879,"3":-2.0845243783033998,"4":1.0438441406420822,"5":-0.8687583907631454,"6":-1.3328408694762253,"7":-4.189887829708421,"8":0.15458567737395712,"9":-5.7188723232522385,"10":-0.06571854002097191,"11":4.590805450975832,"12":-0.13431460650559626,"13":3.840353938609819,"14":1.1956028090926312,"15":3.0107659066101333,"16":-2.531725204739349,"17":1.7269414261202964,"18":5.8404267431733325,"19":-0.5542767476264981,"20":0.5956732190138591,"21":-0.9158877591592572,"22":-1.2214341549671197,"23":-1.3763335371643184,"24":-0.29527077160838183,"25":-0.5077533017781098,"26":-0.08160212581435597,"27":0.3608365010981611,"28":-1.0528234486420045,"29":-8.122808216597928,"30":-0.5445382403481667,"31":6.272272756085564,"32":-0.060411780772406755,"33":3.013770181354405,"34":1.9466129424447502,"35":-15.51778287358645,"36":-0.8253802118721558,"37":-2.361810145407198,"38":1.3453346043488557,"39":-7.526496790997133,"40":0.20583297560691516,"41":-5.080611660156264,"42":0.4276204729246634,"43":0.34427797771200574,"44":-1.210448027213006,"45":-7.723238198773857,"46":-0.20488752524253534,"47":-8.044208514973473,"48":0.09766739395377928,"49":-0.5941975008998166}},"31":{"bias":-1.8889687162833122,"weights":{"0":6.774838458011116,"1":0.8128129108792738,"2":-6.014466814106331,"3":-6.665008949423507,"4":1.35391088933361,"5":-0.7328823928493238,"6":0.16566358018528818,"7":5.6364259399584045,"8":-3.7744509442599274,"9":-5.764378054424901,"10":0.296803435844113,"11":6.472970147190973,"12":-0.49642630258185044,"13":4.2904121131043444,"14":-6.542378625375496,"15":10.000589076314313,"16":-2.1604708203886065,"17":-4.494689136845839,"18":-0.7427567623049549,"19":10.106655694371222,"20":-0.04551159971315122,"21":12.825181983743155,"22":-9.09069055002988,"23":2.0036890465562536,"24":-0.7086278472140577,"25":-1.3600963499181984,"26":0.39099006757947663,"27":-1.2941814796829079,"28":-0.7951033674991286,"29":-6.605704972868334,"30":-0.28189381542834646,"31":0.04183876412769765,"32":-0.1573158386626689,"33":6.454342565467163,"34":-9.89050474894027,"35":-12.959523418094658,"36":0.11084445542158046,"37":-12.565173895801701,"38":-4.251150516249146,"39":-2.835187284082732,"40":-1.3203087373875808,"41":1.9077012431555893,"42":-0.6919444079639427,"43":-0.15623245825713927,"44":4.841712785435722,"45":1.8754200864804988,"46":0.27665022986305077,"47":-0.4682050935443895,"48":0.14406206464343682,"49":-2.286364149615236}},"32":{"bias":-1.2868105120579219,"weights":{"0":-1.009198620131424,"1":-0.9372452535560479,"2":-0.9346431967017561,"3":1.5221028859099126,"4":1.9240201191068727,"5":-0.08947365780433714,"6":-0.24052117620180014,"7":1.4754799147129443,"8":-2.839715003474654,"9":-3.3337586743022007,"10":-0.6424321410437878,"11":0.33545721130415973,"12":0.031865427053782626,"13":-1.0875293896228688,"14":-0.07930716935452234,"15":-4.49654800236849,"16":3.441456339171457,"17":-1.20154636306741,"18":-1.6586773879933527,"19":1.3359387663079503,"20":-3.2101174654536178,"21":1.8248073631217956,"22":-1.6547065891645063,"23":-0.8637536359669543,"24":-0.9200720167873558,"25":-0.1973446685718775,"26":-0.4683328309595981,"27":-0.47207106397553494,"28":-0.16502856595970408,"29":0.4766880824591624,"30":-0.03434849889320613,"31":-0.8889880951473095,"32":-0.05636030082350986,"33":4.631086024490742,"34":-1.0963662690467697,"35":-2.480713025486848,"36":-0.02402185212614311,"37":-3.0929470113677633,"38":-0.06487298120433209,"39":0.6926043021517336,"40":-0.3925787712755085,"41":-1.8609516236840142,"42":-0.371671098678497,"43":-0.21189032487889517,"44":-0.6243392371591472,"45":-3.054660990711871,"46":-0.17763328763236694,"47":-1.0269140140991007,"48":-0.5431172848276674,"49":-0.6540309444398117}},"33":{"bias":-1.4253145268805516,"weights":{"0":3.327051727111446,"1":-0.4651304921294085,"2":-2.1408106993703466,"3":1.1640527253139858,"4":0.8206454807322264,"5":1.0068836589186159,"6":0.6417924152036378,"7":2.7766555862439315,"8":-5.766614711454206,"9":-2.6551371841647824,"10":-1.444682686562904,"11":-0.6881588651550978,"12":-0.7318527241682545,"13":1.6020779513703918,"14":0.8590856362571878,"15":9.659892595781615,"16":2.3759465770728068,"17":-5.072419373423678,"18":0.8451958169353011,"19":1.927453382623465,"20":1.2854563953312952,"21":4.398137123655593,"22":-3.279427462585482,"23":-0.8294436865951099,"24":0.30963520727950206,"25":1.1118072758504733,"26":0.3179590938908881,"27":-0.024032104351642672,"28":-1.9737803014803852,"29":0.8770534489913037,"30":-0.09800669459775076,"31":-1.6487986700685138,"32":-0.14770222879018644,"33":4.983615611705947,"34":-3.984694033529691,"35":-9.708214153779203,"36":0.666224331043515,"37":-2.1624789950393764,"38":-0.12385321808467992,"39":0.024719636379111745,"40":-0.6642947363430441,"41":0.9757282023729311,"42":-0.17692159436595986,"43":-0.11521111252612508,"44":-1.050237949367004,"45":-9.095348637736235,"46":-0.276184917809033,"47":5.393986500733128,"48":0.06895202756536742,"49":0.15877536499160658}},"34":{"bias":-0.9629211658403091,"weights":{"0":-0.5279300254823802,"1":-0.8902725853197996,"2":1.2359481023640262,"3":1.7543384955470098,"4":-1.997355790176598,"5":-2.2323996445715015,"6":-2.703379877678897,"7":4.13795881333924,"8":-6.3649056218430395,"9":-7.124823979064527,"10":2.1658980484924686,"11":-2.459535137810237,"12":7.011032781029556,"13":-0.30626047629928016,"14":3.830848885390308,"15":1.6342646276111246,"16":-1.3763041583340148,"17":-10.801531483124812,"18":-11.265868392002663,"19":-1.2202834754548921,"20":6.160672644753926,"21":-1.1801034535589972,"22":-2.6275278540383016,"23":-3.512440930255877,"24":0.21963114824798338,"25":1.711049655124465,"26":-0.1834176655358527,"27":0.12666143227841992,"28":8.191258408108064,"29":-6.167701824157436,"30":-1.6063060850501794,"31":5.345465281889844,"32":-0.9083516561774367,"33":2.9438239843958383,"34":-2.119362767226446,"35":7.62981109591254,"36":-2.785111028864982,"37":-1.1564184086419518,"38":-0.37583656938786897,"39":-5.955422228001352,"40":-0.7717817890476576,"41":-0.7615876088866644,"42":-0.05286889570322842,"43":0.18161832634926928,"44":-3.0693820393802964,"45":-9.643250939087164,"46":-0.9432114018614467,"47":-3.7565845782939973,"48":0.031004586240484692,"49":0.02285217021349569}},"35":{"bias":0.6042122564292407,"weights":{"0":7.685913117485881,"1":-1.3642335294444874,"2":0.7560894748423659,"3":-3.1293367385931723,"4":-1.6414525628847565,"5":-5.05081629159699,"6":-0.9992007028125479,"7":2.2144352831703022,"8":4.6263226942604625,"9":5.329137071343323,"10":-0.6723884739151745,"11":19.57624438790231,"12":1.1183600307724741,"13":2.420301124728757,"14":1.6294467551509022,"15":-3.8423441681260324,"16":1.1630947110121612,"17":4.461581822839495,"18":0.6892604271115278,"19":1.6239566709612447,"20":-2.339550056071662,"21":2.364211100099427,"22":6.159105727276547,"23":1.3325547946242262,"24":-1.271226102293028,"25":-0.20194260330735464,"26":-1.1111625925796007,"27":-0.38365638617170417,"28":3.060131470366435,"29":-4.851998693980926,"30":-0.7152275898627535,"31":0.0755916863821148,"32":-0.18864466439170424,"33":-3.0498013469024716,"34":4.473607249275484,"35":-5.959352271586123,"36":-2.1419069842226484,"37":1.0565955125762194,"38":-0.40135207191461836,"39":-0.40829449516819116,"40":-0.5723223343362017,"41":2.4760965460983817,"42":0.20265887827493512,"43":-0.626974632866357,"44":2.371634960682389,"45":3.7525027178962413,"46":0.44282376708589005,"47":3.1545563150536844,"48":-1.2757813958393338,"49":-1.1495232577232173}},"36":{"bias":-1.9712779025238236,"weights":{"0":0.2592793482398708,"1":-1.0185276574950788,"2":-1.5219112696616786,"3":-1.9413529362661879,"4":-0.6568625120143168,"5":-0.8328908994357741,"6":-0.4916927945995774,"7":4.974683588839109,"8":-0.9338208714907186,"9":-0.9069594142089676,"10":-2.1372387400226054,"11":-0.6669599094753791,"12":-5.1173328482006255,"13":4.087223920297011,"14":0.5351553036409423,"15":-1.2045278098677334,"16":1.418869638274473,"17":-4.129441114884526,"18":5.463104497398697,"19":-1.2457702291339747,"20":-1.0535438275149427,"21":-0.9910997035632813,"22":-0.5169755346278992,"23":-0.7486825329272375,"24":-0.019264234907247123,"25":0.08876098099172891,"26":-0.6971359080258184,"27":-0.7176494843437184,"28":3.0439530119268583,"29":-5.441992065342573,"30":-0.325440984816516,"31":-1.4283520707697759,"32":-0.1720486556535924,"33":-7.0025953493415845,"34":-0.4326636282946242,"35":0.5142095206696556,"36":-0.4267484501358644,"37":5.3560736583736945,"38":-0.8724050234891697,"39":-5.110851037463147,"40":-0.686565867709901,"41":-0.5126249681418372,"42":-1.0082044581146754,"43":-0.29877224518180545,"44":1.101217572423166,"45":-12.324086941238821,"46":-0.1220648087489102,"47":2.0006983828127427,"48":-0.5444229742122576,"49":-1.2618369744874796}},"37":{"bias":-0.6526116795117775,"weights":{"0":0.3150580821595658,"1":-0.04847917489899306,"2":-0.29198066536156175,"3":-0.1858002368547741,"4":-0.11992809664620778,"5":-0.04318457275594386,"6":-0.05894871386438496,"7":-0.8116229095704651,"8":-0.7703380277779125,"9":-0.2893481387174874,"10":-0.3389835443108863,"11":-0.02995710394705884,"12":-0.5997126324565613,"13":0.3034227779866289,"14":-0.09792796342938007,"15":0.10325108328649872,"16":0.6106216001227482,"17":-1.0986824258647874,"18":-0.6570303439202182,"19":0.011163222498878888,"20":-0.019984523004032317,"21":-0.23631907520242468,"22":-0.44095037120280417,"23":-0.30701760013761065,"24":-0.0996298076713453,"25":0.03068564267009784,"26":0.057609242719901206,"27":0.16801758463813002,"28":-0.5998673196859095,"29":-1.3777334263240826,"30":0.13350815005925865,"31":-0.6035637683734182,"32":0.0781101480678816,"33":0.09520466130834727,"34":-0.6125989714018718,"35":-1.977715072791296,"36":-0.021944115865822348,"37":-0.5335912737321686,"38":-0.047048151506653806,"39":-1.3697617705014096,"40":0.25628591507228654,"41":-0.5408067348069587,"42":0.06945093854703678,"43":-0.15886863654049982,"44":-0.21634773832710863,"45":-1.6105619693126882,"46":0.1557929888415189,"47":-0.5869828981261339,"48":-0.2755929770107119,"49":0.1587017770304284}},"38":{"bias":-1.060525548139463,"weights":{"0":0.5734624692800188,"1":0.5225026742793117,"2":-0.28179167760504953,"3":3.0909243346959077,"4":-0.02982768327987979,"5":0.9531611527202752,"6":0.1486007357193666,"7":-0.35088655777738714,"8":-1.2848857822009747,"9":-2.1716358427383238,"10":-0.1433791117813454,"11":-0.45367710360712427,"12":0.9072027155193529,"13":1.595568915940735,"14":-0.06608920574488138,"15":0.6404401337197917,"16":0.9808961648041525,"17":-2.212906304860227,"18":-1.8521240216986614,"19":-0.07840048302376319,"20":-0.050879830533040855,"21":-0.1580742773544323,"22":-1.0124663834283372,"23":0.11247531758851685,"24":-0.39591840195822225,"25":-0.3605259972556901,"26":-0.10716392538041189,"27":0.03574672519315877,"28":-0.9440779475501264,"29":-4.561311665003764,"30":0.27744616098009756,"31":-0.5771521577674816,"32":0.04761059789192061,"33":-0.30954386741799556,"34":-0.3567212396487723,"35":-2.698811863299823,"36":0.7166065774069132,"37":-0.0023817843672998065,"38":0.1259914553639946,"39":-1.8860812949439283,"40":-0.042066041375516165,"41":0.15366909945789448,"42":-0.11718177664147962,"43":-0.024438080326385062,"44":-0.24493264244896473,"45":-0.894649828363235,"46":0.12487245817606035,"47":0.08376281426622606,"48":-0.24071169374307527,"49":1.0428558470151001}},"39":{"bias":-0.571457613627685,"weights":{"0":1.083463851394034,"1":-0.6374307358250977,"2":-0.45722436475302913,"3":-0.7282758836355068,"4":-1.6506669604607096,"5":-0.7196584810015186,"6":-0.8851105304523965,"7":-1.7828465233891742,"8":0.4848048093241014,"9":1.8306571758821961,"10":-0.4928647746333896,"11":-0.5315582361908111,"12":-0.5130846584297184,"13":-0.8337565799342892,"14":-0.522492087357505,"15":-1.6292262997299547,"16":0.47158544012598685,"17":-0.6392503046757136,"18":-4.223801601997531,"19":-0.81450112551193,"20":0.015021589052853333,"21":-0.533805252687171,"22":1.7116238390258527,"23":0.8547130832380367,"24":-1.1009649550618983,"25":-0.556172500846765,"26":-0.621278799967268,"27":-0.46888075905819404,"28":-0.9871412573778413,"29":-0.7725417653992056,"30":-0.22160835565893278,"31":-2.255607169603687,"32":-0.27530881087994324,"33":-0.9790290143096982,"34":-0.024667977000989313,"35":-1.6486254982267543,"36":-0.4648198350790809,"37":0.3184581600478737,"38":-0.609867020904077,"39":-0.5985607335776032,"40":-0.3543383382531106,"41":0.02697220558531091,"42":-0.2494148909530025,"43":-0.1330143054416122,"44":0.2776504962767142,"45":-2.27816027591721,"46":-0.39629416721720306,"47":-0.7058246588381882,"48":-0.24728104251309033,"49":-0.5472293808320865}},"40":{"bias":-1.955394775025059,"weights":{"0":-2.439619607551646,"1":-0.13591612821405438,"2":-0.686059099263999,"3":-0.44893152617918863,"4":1.487150274279104,"5":1.4448159388918207,"6":-0.7988144530562866,"7":4.491241518329405,"8":-4.653102578409474,"9":-1.9923992438731501,"10":0.08415497149495951,"11":-6.585719178070902,"12":4.267345824601941,"13":0.559032875387013,"14":0.6557090003171172,"15":9.394045037294164,"16":4.5190529698668565,"17":1.8067478827959267,"18":-2.8323056619090274,"19":1.5116662281818685,"20":-2.019044334300045,"21":-0.23274476411314718,"22":-5.6985979803125675,"23":2.042539265505507,"24":1.7001038946745097,"25":3.1575033228082843,"26":-0.17538919806274,"27":2.006144250625708,"28":-0.12923068487753814,"29":-5.420274399171074,"30":-0.6475282803498124,"31":-0.8816774100912997,"32":-0.3141680131621609,"33":-1.5826056947937943,"34":-1.004484534668863,"35":-0.5870794018595357,"36":-0.6071080138447035,"37":-0.5848599262224429,"38":2.1575808645224703,"39":-2.4831932728040984,"40":2.113333217494765,"41":-0.49877273949316986,"42":-0.580782722075238,"43":-0.08152603566520605,"44":-2.3233999541654966,"45":-1.7618161862147212,"46":-0.04398208713954044,"47":-0.713754147245253,"48":0.03478668472981095,"49":-1.4820439430004453}},"41":{"bias":0.18229967861406232,"weights":{"0":-0.31650599821334635,"1":-0.079254411400738,"2":-2.128187350432111,"3":0.8382197174271248,"4":-1.6968480030199558,"5":-0.5685705018727014,"6":1.0221989708165886,"7":-12.270214805900437,"8":-1.1459447324008794,"9":-6.9866702297517085,"10":0.26900350013007235,"11":4.259255142206472,"12":-3.699001913127342,"13":6.062348352095649,"14":-0.22623606584586606,"15":2.699267093017627,"16":3.44995703675756,"17":-5.396615046267564,"18":-5.154929974305432,"19":-3.62079054484984,"20":3.3316474044731246,"21":-4.84079907436429,"22":3.6582436034742556,"23":1.1097069479860775,"24":-0.1262314916950179,"25":-1.2401968027830008,"26":0.16237977413513124,"27":0.2053505362987366,"28":-4.150839539531964,"29":-5.12971168870158,"30":0.3628905959414009,"31":-4.395088005386958,"32":0.32021718265104676,"33":-2.83985943261233,"34":1.0805658005843715,"35":-7.679617846568307,"36":-0.022433356561339997,"37":-2.9615782405738447,"38":-0.7138638886146152,"39":-4.233242199903957,"40":-0.17138504040848998,"41":-0.2948352090224808,"42":0.5692100105404998,"43":-0.00004230211466837321,"44":2.7735122437399133,"45":-1.5554902913206992,"46":0.08190489877217695,"47":0.6115801479102974,"48":0.3787498832268139,"49":0.3566135169433337}},"42":{"bias":-0.5414387778850638,"weights":{"0":0.19248271251056576,"1":-0.02142740561981955,"2":-0.3673924860937657,"3":-0.5032271516386497,"4":0.018140977465254313,"5":-0.22843504101535136,"6":-0.12281949161003756,"7":-0.2882434697711183,"8":-1.0410773432870066,"9":-0.4861797642997806,"10":0.01677476966002581,"11":0.3012174645814112,"12":-0.10555570510029375,"13":0.4463828574995223,"14":-0.3131215826393953,"15":0.5412007234007902,"16":0.6687474670986935,"17":-0.42479261182969735,"18":-0.1916121052619741,"19":0.3954291849912989,"20":-0.09660317234742061,"21":0.43615799460298127,"22":-0.6114888429439276,"23":-0.06055698316882729,"24":-0.1778224697825086,"25":-0.0482361087332276,"26":-0.2655961642298518,"27":-0.04393427746953609,"28":-0.37642740207212955,"29":-0.7258844494359816,"30":0.043189191886974995,"31":-0.3573760964416332,"32":-0.06843318661255242,"33":-0.37845737617794223,"34":-1.356275457601332,"35":-1.9541518789241195,"36":0.07414334182021923,"37":-0.35956056876737996,"38":-0.05174645212908634,"39":-1.5241987483953132,"40":0.027110968282149484,"41":-0.6309793662519658,"42":0.12686806200123468,"43":-0.03898652159157569,"44":-0.22792881109986332,"45":-1.2881160315695,"46":-0.14753236735404443,"47":-0.9494766234174077,"48":-0.2372061885510714,"49":0.04986835883745641}},"43":{"bias":-3.9407387819104973,"weights":{"0":-2.257273594065924,"1":-4.439292402527864,"2":-0.45615785095443273,"3":3.578511029251483,"4":-7.421969371745728,"5":-2.73609048615927,"6":-0.40230405291549554,"7":-9.962774084798118,"8":5.2043943075428,"9":7.1688945852446695,"10":-5.752151533400364,"11":7.953837017987991,"12":6.271554063760227,"13":11.302950121375797,"14":-3.503908554066558,"15":-6.318570421528598,"16":-3.8385035961450105,"17":-4.970940433205096,"18":7.183656347546126,"19":-4.992494812685514,"20":-24.540409025673526,"21":-3.0882511836295343,"22":7.740284685748678,"23":-2.089421441023596,"24":-0.12206392824843902,"25":-0.3972574962306741,"26":-2.8250710441010565,"27":-0.19515411471845823,"28":-7.048429865598418,"29":-13.028883350185112,"30":-1.032470516920869,"31":-8.077019886264846,"32":-0.6368019973981336,"33":13.460086218573123,"34":5.370295725361205,"35":3.7409047939185527,"36":-2.5543777090923205,"37":4.150111780224511,"38":-4.113172871481515,"39":11.84797283060612,"40":-0.5161056397836836,"41":2.169367417236634,"42":-2.5040286053453453,"43":-1.7429198386844358,"44":5.017739102794135,"45":4.827446666329061,"46":-0.46759661376898104,"47":3.7290980819218262,"48":-2.822152901550529,"49":-1.0084710827422032}},"44":{"bias":-1.4668327013459694,"weights":{"0":-4.371765024293228,"1":0.01317160797284334,"2":2.8418564207267742,"3":-1.249848261942681,"4":-0.3256046143318588,"5":0.33645628846198933,"6":-0.7226697336500364,"7":-1.6549115539821924,"8":0.08662923411732662,"9":-8.614305190330793,"10":1.3202307891435199,"11":5.294125525230479,"12":-3.8060882938916727,"13":-0.7489073612448536,"14":-0.04785078006768664,"15":11.600022051229207,"16":-1.1876912171422265,"17":-2.278872924417513,"18":7.492585374582495,"19":-1.6866033221166818,"20":-7.870727470390907,"21":-1.6431189225208327,"22":-10.00501368838329,"23":-1.5223099783665528,"24":-1.4195606774200402,"25":-0.724755361028284,"26":0.985823534552884,"27":-1.2302168431864897,"28":3.636667456030575,"29":-7.974171357850613,"30":-0.5380960510647861,"31":4.286217296344043,"32":-0.4078596453522653,"33":-10.633462782976578,"34":-6.311285969742041,"35":0.9941541651467826,"36":-0.5537218196474563,"37":3.264936373906418,"38":-1.0583691097400472,"39":-2.596722967344468,"40":-1.1141876574917757,"41":0.11452193850424636,"42":-0.9364312467997837,"43":-0.13781695058619695,"44":-2.9787671728890284,"45":-3.106108534912048,"46":-0.7057365284949518,"47":0.3723664587133834,"48":0.3900963406286131,"49":1.5222034422682043}},"45":{"bias":-3.4498382952551547,"weights":{"0":10.346892458023534,"1":1.199222614722804,"2":-1.6392565352590185,"3":7.979736226746439,"4":-2.72656517640663,"5":0.6348551900365649,"6":-0.2559171779552733,"7":13.849275030892018,"8":-2.691740379588705,"9":-1.6691360358837046,"10":-1.1109933377462298,"11":-2.0183672361303078,"12":-9.51399984387877,"13":7.163251818701634,"14":2.131579469795373,"15":-1.7817617821266951,"16":-7.430388304663355,"17":-13.371816396644231,"18":-4.455150653953831,"19":1.6410801811243416,"20":-5.623451312041886,"21":1.3773988796544736,"22":-2.244400509101658,"23":-1.014473190025394,"24":-2.9812715478582494,"25":-0.8307184794019398,"26":-0.5789552882039031,"27":-0.9830447063451406,"28":-2.715367052743301,"29":-8.344619716379121,"30":0.30458413800013734,"31":-5.096409387949718,"32":-0.34093429695470084,"33":1.7607704284169448,"34":-4.8324764832382545,"35":-3.376933031800742,"36":0.844149985184607,"37":-0.5619097518188793,"38":-1.0941128645514804,"39":-1.1760342684578557,"40":-0.7487939102759064,"41":-2.974292355027053,"42":0.01710598576855867,"43":-0.18184763978597523,"44":-1.4019380617771702,"45":4.305064328159772,"46":-0.09509574615391074,"47":-3.9324148587022494,"48":-0.7072809872120209,"49":1.6938582000136642}},"46":{"bias":-1.9651883081858827,"weights":{"0":0.5186169826350058,"1":-0.36188284254620473,"2":2.4869146212425655,"3":-1.584166233865564,"4":0.2184136145214725,"5":-0.6679264353286654,"6":-0.43818749072576746,"7":1.5848256534990632,"8":-2.4846697044911017,"9":-5.163520762226187,"10":-1.1850283587567392,"11":-0.872030651737355,"12":3.4787217544470366,"13":3.5624871885044773,"14":0.3716788418868167,"15":4.8631725774574415,"16":0.3754010107482065,"17":-1.8905371193779534,"18":-1.0026269476147802,"19":1.0961841204023262,"20":-1.696371937160516,"21":2.008218498843404,"22":-2.25236588163421,"23":-0.3487192440507903,"24":-0.11929592960612934,"25":0.6638241276511112,"26":-0.4631958556418884,"27":0.2766386767481973,"28":-2.096084782125795,"29":-3.132507372831565,"30":-0.33791537780216063,"31":-1.5322709477248473,"32":-0.228616886726581,"33":1.3532508296027,"34":-1.4560976513947403,"35":-4.862485679933426,"36":-0.23907223587121199,"37":-0.45135062241885165,"38":0.10332594819414924,"39":-0.47497356201734503,"40":0.4084894878627951,"41":0.37836974821597463,"42":-0.0643308149726484,"43":-0.11856740042498827,"44":-0.6194365551700377,"45":-1.0103896774452161,"46":-0.08929703421654817,"47":1.300617714385862,"48":-0.49632631059644966,"49":-1.0445333557669438}},"47":{"bias":-0.7356010431050158,"weights":{"0":-0.27227278248891595,"1":0.19779295949975786,"2":-0.2880772698459503,"3":0.7952890486468204,"4":0.5565068718873908,"5":0.3746409660739872,"6":-0.1671783102377189,"7":0.2090209608939204,"8":-1.3293649963725838,"9":-1.075980795842934,"10":-0.17055588610613887,"11":0.12741356959115044,"12":0.4152324297884459,"13":1.6065064102669615,"14":-0.015961912349270673,"15":1.0297094783307328,"16":0.8359995799387725,"17":-0.8910744063320767,"18":-0.899289411193574,"19":-0.470016155724697,"20":0.10248451663095053,"21":-0.35197925837672317,"22":-1.1152738329785277,"23":0.021520864403595755,"24":-0.08661898899428971,"25":0.3350127904703853,"26":0.1548012206271779,"27":0.40544677305736676,"28":-0.6956512422067219,"29":-2.807296301047734,"30":-0.07296848325571467,"31":-0.4740481637170544,"32":-0.08188200502110411,"33":-0.3009730396872502,"34":-0.4403205201180932,"35":-2.314443854658076,"36":0.027493046991155123,"37":0.44892125584879655,"38":0.47458659291991184,"39":-2.200820547184544,"40":0.18237586725475624,"41":0.162393652372833,"42":0.007261222075750637,"43":0.21303082723867953,"44":-0.29781585161942276,"45":-1.3936895869636072,"46":0.23236782872562015,"47":-0.09662376313745073,"48":-0.12220815686498608,"49":0.2694580972829956}},"48":{"bias":-2.5439804269080173,"weights":{"0":-6.769812391757474,"1":-1.312764342845798,"2":-3.0693087968947235,"3":1.8025442288841083,"4":-0.6565589294829118,"5":0.7246732196394973,"6":1.7991798517218998,"7":-7.364717546951628,"8":-1.0468402120405986,"9":7.063826748215661,"10":-1.8017732203527612,"11":-2.781133055700925,"12":3.600450014139475,"13":-0.7012843071036126,"14":5.426137421042923,"15":-0.7752871167109452,"16":-2.249787174104513,"17":-2.3993762897857622,"18":2.3715270085426066,"19":-1.276908404790603,"20":14.701406391555766,"21":-1.2814401586022979,"22":-2.6437904505952248,"23":-0.7749729214250166,"24":-0.15114161540689042,"25":-0.2972881131571493,"26":-0.4426299079711705,"27":-0.3929965502119852,"28":3.2098155667443002,"29":-3.399393177005161,"30":0.3107690200666607,"31":3.6862895643708065,"32":0.005580628971866556,"33":-2.1803122504751644,"34":1.7616396872266407,"35":-10.391558235452646,"36":0.5871554449063676,"37":3.0760481683400065,"38":-1.6243295085336582,"39":-8.389506847765663,"40":-0.5606673224889265,"41":-4.950146003572103,"42":-0.14544995421891263,"43":-0.23828951192404926,"44":2.963340008448763,"45":-3.461897237229732,"46":-0.33027043123126126,"47":0.8116446746679409,"48":-0.28779996810003156,"49":-2.0365502371859674}},"49":{"bias":-0.7778586903318623,"weights":{"0":0.27233208966493205,"1":0.3830630321797664,"2":-0.006526984004605233,"3":0.4606434813016138,"4":0.5244569750946089,"5":0.3757531151903583,"6":-0.14428324938352252,"7":0.5974394625886184,"8":-1.3578257674942211,"9":-1.5771286142384857,"10":-0.08538845423802637,"11":-0.1817829205756907,"12":0.40140059872283557,"13":2.038748531757639,"14":-0.5694549470751922,"15":1.9580337444656926,"16":0.6899285997850042,"17":-1.2085214827879052,"18":-0.508608008880514,"19":-0.009672321806873807,"20":0.6563843624535839,"21":-0.13244542195402145,"22":-2.0002218265167504,"23":0.2714956580269995,"24":-0.34798155959904925,"25":0.18098530154811177,"26":-0.23780371023446728,"27":0.19119910650418245,"28":-0.7869764464677835,"29":-3.2905623695077093,"30":0.02010943178780176,"31":-0.7101433745570228,"32":-0.003928988874025135,"33":-0.4635741323267432,"34":-0.889317557427646,"35":-3.032713383574294,"36":0.258538928101861,"37":1.1082434264179395,"38":0.22907401499245028,"39":-2.021227455490977,"40":-0.04572350389539166,"41":0.5169991796383381,"42":0.1312624220745045,"43":-0.1592230218477092,"44":-0.43675675865719643,"45":-2.4747978687427197,"46":-0.09836850858371202,"47":0.450549691684034,"48":0.006442490317375236,"49":0.1815035011975045}},"50":{"bias":-1.3432651740233346,"weights":{"0":0.29546492247561307,"1":0.1744117231897221,"2":-0.25970096812557536,"3":5.251106329096334,"4":1.410271368432215,"5":1.1184255405876016,"6":0.4356015495829739,"7":-0.7721262929699729,"8":-1.133724957767064,"9":-0.13239917333943071,"10":-0.00544698376243243,"11":-0.8001632554575918,"12":-0.8671422994000266,"13":1.281248961108115,"14":-0.35259270657491915,"15":-0.5603120602613834,"16":2.726124296181242,"17":-3.087711212908262,"18":-2.8109620908921293,"19":0.10309927089768066,"20":-0.7378536388289137,"21":-0.3342320805283842,"22":-1.276019588725712,"23":0.16971855750280923,"24":-1.2886954289478036,"25":-1.0678021821908377,"26":0.08393500634374869,"27":-0.4524752753274694,"28":-1.2118491577811532,"29":-6.024951805058372,"30":0.394226447834799,"31":-0.32242288697133026,"32":-0.0239882379085605,"33":0.5381614887408678,"34":-0.06810617911879782,"35":-2.7467248121801005,"36":0.8935102732754587,"37":-0.5661944476095616,"38":-0.35863719146019524,"39":-3.023908857630607,"40":-0.2588310109491381,"41":-0.3712859270185841,"42":-0.09490600456640436,"43":0.1186126380040716,"44":0.7673005054544938,"45":-0.8827009837957207,"46":0.14828459204408131,"47":0.0767114598286136,"48":-0.11956359064468974,"49":0.6503093998411034}},"51":{"bias":-1.145606380456918,"weights":{"0":1.198506607928229,"1":0.015290660904109236,"2":0.530503575754861,"3":-0.7303779126266642,"4":0.2057226025470498,"5":0.06449960991078822,"6":-0.2016075234804646,"7":1.0161249806561585,"8":-2.33487774628172,"9":-3.0015710038985497,"10":-0.5500603165447381,"11":-0.5332485542259149,"12":1.831494761956947,"13":2.4011824216342363,"14":-0.3626888281163269,"15":1.9922586664503081,"16":0.18745836044637612,"17":-1.2190468339723362,"18":-0.21504727656707087,"19":0.8386882877691596,"20":-0.9208665450599395,"21":0.7980832391700622,"22":-1.7562890929623534,"23":-0.1518846497032448,"24":-0.023022370685000838,"25":0.24063366257813992,"26":-0.3949505412343222,"27":0.275428729924396,"28":-0.9310408754844705,"29":-2.8563844566359493,"30":-0.11060655910269529,"31":-0.5167946661416574,"32":-0.09689337328436744,"33":0.19216279084240043,"34":-0.6179008104219506,"35":-2.977719371316839,"36":0.05217747638124227,"37":0.2007905864716247,"38":0.1563937830120716,"39":-0.45437787498478033,"40":0.3307991719850221,"41":0.7750648991454254,"42":0.22655202809621733,"43":-0.11400546017769962,"44":-0.6137626204068783,"45":-1.8867330630887194,"46":0.0016960197702046327,"47":0.525783051484094,"48":-0.11980252823647763,"49":-0.2329910276677851}},"52":{"bias":-0.66991200702119,"weights":{"0":-0.20807550041371517,"1":0.10140417948036543,"2":-0.3975656344928751,"3":-0.5773652348684105,"4":0.17550935900603032,"5":0.013767177571210727,"6":0.09405795368859177,"7":0.30054365547033124,"8":-1.3324791387550834,"9":-0.698103979334582,"10":-0.09845154609148823,"11":0.24602874578145473,"12":0.17784632618929994,"13":0.6721484744664616,"14":-0.34292223077670647,"15":0.8003643432545465,"16":1.0782586018558338,"17":0.16911215748732103,"18":-0.29617087033505934,"19":0.19697135936681914,"20":-0.5003924726536104,"21":0.03155374448978951,"22":-2.105931596725012,"23":0.41249788477332244,"24":-0.05218532297845055,"25":-0.05142434156155792,"26":-0.16583400221252897,"27":0.2981364122323985,"28":-0.47158113489541825,"29":-1.6298797750909888,"30":0.04255442585479397,"31":-0.19641628127468128,"32":-0.03987816526213456,"33":-0.21429850776015183,"34":-1.6027872276618709,"35":-1.6058290180952444,"36":-0.114013260440222,"37":-0.6176701910049502,"38":0.6262788607622564,"39":-1.6389325254887634,"40":0.09550502895840852,"41":-0.46500478525044925,"42":0.24300661334310714,"43":0.07221372723768119,"44":-0.2517359048261372,"45":-0.8784315859663284,"46":-0.010667525882401654,"47":-0.45961648701337543,"48":0.07234601181064008,"49":0.027472249181457957}},"53":{"bias":-0.627034174445734,"weights":{"0":-0.009311098916933117,"1":0.2055995714666547,"2":0.1080818836167796,"3":-0.1406197914420909,"4":0.13063600220608795,"5":0.37857936938984743,"6":-0.07155051327623385,"7":0.8100262900073625,"8":-0.9789731604724892,"9":0.03760716139529068,"10":-0.0060147155074243615,"11":-0.4922967317770315,"12":-0.520427812109385,"13":1.3833294434322716,"14":-0.24253540609414354,"15":1.0891741132334811,"16":0.42921616555321646,"17":-0.5232826273205076,"18":0.5226321199338321,"19":-0.1537593555784088,"20":0.7794606673541491,"21":-0.12085976523793798,"22":-1.7052187704295523,"23":-0.10082326264998916,"24":-0.16618653741624834,"25":0.3917025371605085,"26":-0.1552256123092524,"27":0.19734049253540742,"28":-0.6381795768457579,"29":-3.0229931110773456,"30":0.12786691351427004,"31":-0.5296715876642083,"32":0.020901853247468533,"33":-0.9261887310513465,"34":-0.3780145459994671,"35":-1.8953299116633218,"36":0.03609401151622068,"37":0.9482976935468493,"38":0.03468896050056086,"39":-2.050712614706455,"40":-0.049280967458994664,"41":-0.21402419356234692,"42":-0.01665238426782812,"43":0.16885007647116804,"44":-0.05356247852764639,"45":-2.3720014749229876,"46":-0.22500393584440934,"47":-0.2246584807752504,"48":-0.04378653493087896,"49":0.14701408032852964}},"54":{"bias":-1.9076049958272272,"weights":{"0":1.1203908491562686,"1":0.988795931901387,"2":-3.1233971144102877,"3":-3.2849786638667915,"4":0.7963176235982264,"5":-0.6904722437925287,"6":0.19407961141427274,"7":2.623225378013209,"8":-4.371151664022279,"9":-2.9044687437002676,"10":-0.12451912917010709,"11":3.3909405538648234,"12":-1.1537090190601453,"13":4.316471685698301,"14":-4.861665840220832,"15":-0.28573365009435325,"16":-2.922259433028126,"17":-1.7238729516061446,"18":-0.05949634342065827,"19":7.382433287894264,"20":4.374165541030088,"21":5.80173976134833,"22":-6.615725285987604,"23":0.06711197885013537,"24":1.3725612216755594,"25":2.5291268833978138,"26":0.09362639616968246,"27":1.2036957867249631,"28":-0.6382262733181924,"29":-6.549189673763607,"30":0.1735456027368545,"31":-0.24375355093742607,"32":0.14919387572318102,"33":0.7775582657449203,"34":-8.745772556886072,"35":-3.7248995467212778,"36":0.23472519850656892,"37":-10.792421250720325,"38":1.4999098551786685,"39":-1.7047927790684663,"40":1.2446251184644368,"41":-0.896594609791251,"42":0.21352361402869965,"43":0.1088365449969774,"44":-0.9206211410329812,"45":3.697269179055498,"46":0.24838959919417922,"47":-1.692854678183604,"48":0.16877093771891657,"49":0.4148894297199287}},"55":{"bias":-1.1157221881068524,"weights":{"0":0.5643117432761918,"1":0.014628077550294374,"2":-1.1770839457630764,"3":-0.0600481854974598,"4":0.9622314004396657,"5":0.37310166021445806,"6":-0.18376008886872514,"7":1.3922413231660782,"8":-2.6169588460054687,"9":-1.321878384910395,"10":-0.15073735241843678,"11":0.4844917107999148,"12":0.6631289414186983,"13":2.260352037473679,"14":-1.028360474237585,"15":4.608894384679847,"16":2.187329025105745,"17":-2.1344923001400575,"18":1.1061274055756656,"19":0.6537565514120626,"20":-0.14057286838417157,"21":0.4223595738676343,"22":-3.1795268191741832,"23":0.4827274081316732,"24":-0.043889094263760524,"25":0.5378350597622713,"26":0.03373830011230505,"27":0.33160765021366817,"28":-1.0810920949111325,"29":-3.480267030548468,"30":0.1462128548243253,"31":-0.40659712704153184,"32":0.12598546017237033,"33":0.4550935391540371,"34":-1.7508237960726387,"35":-4.92527758742024,"36":0.00799758692181014,"37":-0.8896316855210792,"38":0.2336560408102258,"39":-2.1042553086109854,"40":0.22342320942907495,"41":0.3911801044191617,"42":0.15938647772216566,"43":-0.033934210755696914,"44":0.33291891509117083,"45":-5.889731023383149,"46":0.2654778008730469,"47":0.4096634338291218,"48":-0.02744985065979668,"49":-0.26604374416530696}},"56":{"bias":-0.7720999209038479,"weights":{"0":-0.7344043982899204,"1":0.25719809670601806,"2":1.0444839128460297,"3":-1.5419564239612706,"4":-0.4024058174502566,"5":-0.8134106087217144,"6":-0.44317453355481323,"7":-0.9072526591364016,"8":0.5612831068373251,"9":0.9462657135090299,"10":0.2431880557771062,"11":1.4461692610732373,"12":2.1719856438856153,"13":0.6706262945401168,"14":-1.2799454747550176,"15":-3.6993840040174133,"16":0.21968478364049104,"17":-2.070731739770653,"18":-0.10984604715381664,"19":-0.20935656875578668,"20":-2.6911409380318725,"21":-0.11000281983995415,"22":0.12619772420413305,"23":-0.12060435977890731,"24":-0.17377654238527593,"25":0.1400811057355184,"26":-0.26120116624187145,"27":-0.1543024400714494,"28":-0.9613615316495779,"29":-1.7869215111775414,"30":-0.26980563782759104,"31":1.041243122522275,"32":-0.16401285217654948,"33":-1.7567783248301747,"34":0.16019136305261247,"35":-2.271984603169423,"36":-0.5012102205047483,"37":-2.072006707668642,"38":0.4711515185831303,"39":-3.9232334532402313,"40":0.048438943466159054,"41":1.2259199147363034,"42":0.3071948784490112,"43":0.12185294216860153,"44":1.751677849852622,"45":-0.3987116089494378,"46":0.24236375347312142,"47":1.044522223677935,"48":-0.34368476800042674,"49":0.439435884316913}},"57":{"bias":-1.6431458329917104,"weights":{"0":0.0628782588697601,"1":0.1769318714547834,"2":-0.6309285449402573,"3":1.1466570555083466,"4":-1.1517566496244538,"5":-0.22695757671524444,"6":-0.7491197735949555,"7":1.975371290956445,"8":-0.6878734459094719,"9":0.131137284429741,"10":-0.13426539762009918,"11":-1.250505160763983,"12":-0.050081754319703,"13":5.592969085919077,"14":-4.553798397353237,"15":0.6840544739054295,"16":-1.1886679113291987,"17":2.9987500470406583,"18":-2.8185979285242126,"19":-3.145741389895374,"20":0.5055704452071936,"21":-2.5565397978226048,"22":-0.7005691336011529,"23":-1.0190692957860337,"24":0.4353769007513901,"25":0.12133429674005598,"26":-0.4555646992217066,"27":-0.13942952061773536,"28":1.6592388080750813,"29":-6.167611854077616,"30":-0.13597123794125798,"31":0.24577066781856735,"32":-0.3415489112354896,"33":-1.6968701246759632,"34":-0.8513876387536747,"35":-2.6128559137892933,"36":-0.14155342568422036,"37":1.8425119192021855,"38":0.022859324514295704,"39":-1.7416462018217826,"40":-0.10103422702750697,"41":-0.542688720554618,"42":-0.16963332459298047,"43":-0.15602010875505595,"44":-2.2572597207005805,"45":0.6082992485328279,"46":0.0925775977822511,"47":-1.0849890451307085,"48":-0.49991219736092535,"49":1.4320680945099977}},"58":{"bias":-0.9530040240681722,"weights":{"0":0.21816299195821254,"1":-0.13749412003771255,"2":-0.33928512274984035,"3":0.006592751567227385,"4":-0.11625322953699406,"5":-0.050638527320234036,"6":-0.12959707543949442,"7":-0.1794816023691501,"8":-0.9359119311821842,"9":-0.30328761573997737,"10":-0.23258101307176712,"11":-0.4438695412542912,"12":-0.8129385859931967,"13":0.6933861466425899,"14":-0.32653005571250865,"15":0.42163307950299994,"16":0.33666881004515864,"17":-1.749808003926268,"18":-0.5263551063650289,"19":0.4305566868885022,"20":0.0966778544270465,"21":0.21115856622863616,"22":-0.1460099868722385,"23":-0.4512024022835274,"24":0.15939101251309248,"25":0.1009363171598969,"26":-0.2885773621667043,"27":-0.051343648624471466,"28":-0.47553985743279975,"29":-1.8866473897515768,"30":-0.05356844574946735,"31":-0.2111803178995965,"32":-0.036504963372101,"33":0.28952824856589904,"34":-0.6845213229374458,"35":-2.2505149698184814,"36":0.03351698439973111,"37":-0.1486542856893273,"38":-0.05569320643971021,"39":-0.7358339776526699,"40":0.25907241557076655,"41":-0.44306088789489445,"42":0.22924732496191702,"43":0.1342478124136334,"44":-0.2799232074092586,"45":-1.7596092496028661,"46":-0.024609312515568783,"47":-0.8124823289453277,"48":-0.18704215836887822,"49":0.1263211655247367}},"59":{"bias":-3.2063059087043313,"weights":{"0":-0.06628395569265631,"1":-1.913213844463563,"2":-2.2128397523726773,"3":-2.4284642625612167,"4":-3.163637413820474,"5":-1.9489516585628306,"6":-0.6818796173696702,"7":-4.642234667348379,"8":3.0282703101911532,"9":4.237924330120818,"10":-1.0037599233038295,"11":0.5787529716941896,"12":3.7532003429268794,"13":-1.2494670421967415,"14":-12.31843373513816,"15":-1.5225371803100263,"16":-0.30430214259644506,"17":9.722358812658424,"18":0.9005483171748764,"19":-2.646410933772892,"20":10.757440781443613,"21":-2.08710662330987,"22":-1.8791789432967128,"23":-2.7402598764808177,"24":-0.4758318190738586,"25":-2.891963648006184,"26":-0.5884397269479188,"27":-1.7730003658472826,"28":-3.7963015314908746,"29":-5.586535747889607,"30":-0.5456833088552602,"31":-1.2085034952899316,"32":-0.24180822778140437,"33":-7.179183140921595,"34":-1.1009069694653284,"35":-3.381903266163044,"36":-0.82163138511029,"37":1.0147654242284645,"38":-1.1672094046739367,"39":-3.402760947588288,"40":-1.2697836483101568,"41":-1.1334691953794016,"42":-0.6616486703066811,"43":-0.7094281036154187,"44":-0.9799625519187328,"45":-2.4982381197419605,"46":0.43725888764361004,"47":1.1869062225778353,"48":-0.9289587483046602,"49":-1.1590168154358265}}},{"0":{"bias":0.9387414836537715,"weights":{"0":-0.7673564399063183,"1":-0.08326609038039316,"2":-0.6328188269949424,"3":-0.08355680542824878,"4":1.675566564988826,"5":-2.913234537513418,"6":-0.902794160174805,"7":-2.304026456441786,"8":-0.3180229948133732,"9":-1.1587382568383344,"10":-2.155341924459514,"11":-0.291704488652358,"12":-0.12132943889911516,"13":0.15677075178400168,"14":-0.945838629560495,"15":0.06688468294718541,"16":-0.6694180315091959,"17":-1.9630752937354874,"18":-0.6360489318185643,"19":-0.21022797743018798,"20":-0.1611169677568776,"21":-3.148289517685492,"22":0.6641590158538797,"23":-0.20197715773717131,"24":-1.3188558881003587,"25":-2.5086819235504603,"26":-2.0714976797421976,"27":-1.7715782454966602,"28":-0.14677700475898514,"29":-2.1820815117390056,"30":-0.6070058536172589,"31":-1.437112375665712,"32":0.07835966454573016,"33":0.664643010271212,"34":-2.4408807267576913,"35":-0.7873557216332089,"36":-0.9741199551667379,"37":-0.1583610465069498,"38":-0.09806987044620488,"39":0.18814842408535698,"40":-0.9956024373700859,"41":-1.3729568357023298,"42":-0.04007773182544494,"43":-2.7259705414264923,"44":-0.8191820998571573,"45":-3.112809523478874,"46":0.3031678744885124,"47":-0.035804630639878605,"48":-1.8421304186631717,"49":-0.2869660524004979,"50":-0.2737680202338153,"51":0.14662267269327553,"52":-0.29007890601430164,"53":0.023159359379458802,"54":-2.325892461059368,"55":-0.17081394706724368,"56":0.03903120432618731,"57":0.042743553394265846,"58":-0.07955334012265293,"59":-0.5047556739311144}},"1":{"bias":1.3266743796489495,"weights":{"0":6.280652961651075,"1":0.19010991680726078,"2":-0.8649661311786977,"3":0.08345637304304485,"4":-5.110242202846137,"5":-1.7758963263547933,"6":-0.5532145777124088,"7":-0.478698963063111,"8":-0.07191680319289427,"9":-0.12324633149731237,"10":0.5156092276969511,"11":-0.4904207020123977,"12":-0.7763051354453432,"13":-0.8391443389138432,"14":0.05994194532618947,"15":-0.14125260116885863,"16":-1.1909514113361381,"17":-1.856823905229899,"18":0.6978885053871382,"19":-0.14571030505013427,"20":0.06913692839346434,"21":-1.2466692488009623,"22":-0.026668483951870735,"23":-0.07088689982019981,"24":-2.1065589284133286,"25":-3.4229791507627563,"26":-1.3181115367824463,"27":-2.008728691328663,"28":0.09669002860661277,"29":-0.9006485736255554,"30":-2.2758831783859397,"31":-0.282399991104392,"32":-0.217527136919296,"33":-0.23606949663855928,"34":-1.3932922132821304,"35":-1.7309485852695257,"36":-1.53719410767038,"37":0.1353166191890942,"38":0.33245576898138984,"39":0.2093909086494009,"40":-0.9440505411815372,"41":-1.0973786604271902,"42":0.05537222993492268,"43":1.1565891278899694,"44":-0.8033699129104013,"45":-1.1763488807995437,"46":0.03846426339310102,"47":-0.09235555516347231,"48":-1.556494417631577,"49":-0.03501801055610315,"50":-0.05862405898609672,"51":-0.16593031017693147,"52":-0.017382494055194115,"53":0.13856858289335772,"54":-1.310447415050629,"55":-0.31339294982083854,"56":0.9471528842165508,"57":1.2122234873972149,"58":0.13844077028514565,"59":0.028578464688836163}},"2":{"bias":1.551744611993779,"weights":{"0":0.010506061521845769,"1":-0.14503630734385656,"2":-0.33179595834671144,"3":0.04328978634966993,"4":-0.03809652934233183,"5":-2.862028771361131,"6":-1.3408286464761618,"7":-2.379914894164837,"8":-0.4080428304046948,"9":-1.0892975646366359,"10":-1.7344064966026074,"11":-0.5792795691819714,"12":0.029985632682167095,"13":-0.06709478024704088,"14":-0.2027974976110418,"15":0.13936722077831903,"16":-0.5367172229346951,"17":-0.647682748034529,"18":-0.736650822950252,"19":-0.18653114586977734,"20":-0.041686833971420346,"21":-2.575229643841778,"22":0.09991056228085309,"23":0.15928500276987848,"24":-1.2444139655217135,"25":-1.6450843877957677,"26":-2.977445285149995,"27":-1.474183352337883,"28":-0.17075559581695096,"29":-2.221667574688026,"30":-0.7283985900907576,"31":-1.1020847749271985,"32":0.3762121834722352,"33":0.6676014800872816,"34":-1.898536643060428,"35":-0.9778442055343411,"36":-1.3006035612914968,"37":0.0005557268801383982,"38":0.4734773655118728,"39":0.20575184587977963,"40":-0.3464146489697955,"41":-1.5903214916735477,"42":-0.069923227338064,"43":-1.4669077336009722,"44":-0.8832787889650582,"45":-3.0790755823792955,"46":0.2819085038661717,"47":-0.04435382344698729,"48":-2.0593800914729266,"49":-0.053955779051580166,"50":0.22657932789270904,"51":0.045890007673589694,"52":-0.037632953091272195,"53":-0.2663132225277623,"54":-1.8906607123470096,"55":-0.433871115696969,"56":0.0378038464847755,"57":-0.041319756768769735,"58":0.11098798246729266,"59":-0.46740882987146937}},"3":{"bias":1.6829530141649576,"weights":{"0":-1.3050824245339616,"1":-0.29093621536553727,"2":-0.47585620503117726,"3":-0.2536142564927289,"4":2.684357405322327,"5":-4.23276860746862,"6":-1.423070924549444,"7":-3.4306485806338816,"8":0.868051159493951,"9":-2.450371189131794,"10":-5.095434731424075,"11":-0.12754835587967314,"12":-0.8899959995220929,"13":3.8377360273655734,"14":-0.6301582635861829,"15":0.012305907946001596,"16":0.8929402788425345,"17":-2.2271441804843333,"18":-0.8402467509956818,"19":-0.3227155059811411,"20":0.1074738108582493,"21":-4.057289075298979,"22":-0.6344710705997707,"23":0.17211737377137748,"24":-1.9162953811979193,"25":-2.443063684579798,"26":-4.265687615648022,"27":0.22090912433912258,"28":-0.1583250284183416,"29":-2.509403402428254,"30":-1.2155007750581486,"31":-1.1055217396200556,"32":-1.229066702253091,"33":-0.8256539079327204,"34":-3.2916449017964684,"35":0.33993223688114454,"36":-0.17540869709456525,"37":-0.07134986153795166,"38":0.1308064310579187,"39":-0.13927449019237342,"40":-1.1049063042924256,"41":-2.1930125592899468,"42":-0.017594810052964583,"43":-4.918019582393213,"44":1.0048277386605196,"45":-3.8774593158676613,"46":-0.19544044373236497,"47":-0.08218839210149002,"48":-2.875271480107316,"49":-0.23819758278767858,"50":-0.6029570882838521,"51":-0.17612317380065093,"52":0.13190517225613788,"53":-0.10467338941856288,"54":-1.5686917063641899,"55":-0.2574855896603824,"56":-0.05685249029946283,"57":0.3288642498030554,"58":-0.1393398008056606,"59":-0.21871692213129745}},"4":{"bias":0.45213780079542604,"weights":{"0":-0.8587524716730819,"1":-0.39349829487697874,"2":-0.7812743367865662,"3":-0.3096180859708849,"4":0.011904671213480284,"5":-3.5685196901610925,"6":-1.6961023206900494,"7":-2.0963145515232235,"8":-0.5918021053057381,"9":-1.5343110818947638,"10":-1.9119845319534414,"11":-0.4929494969897461,"12":-0.967493388820077,"13":-0.5202533726516118,"14":-0.011536026340108295,"15":-0.01248627632554103,"16":-0.9491612631256268,"17":-0.69582193364103,"18":-0.9904353980591433,"19":-0.1253567487173374,"20":-0.2648273793601558,"21":-2.51067427186917,"22":0.7808316133199882,"23":-0.1263288928982751,"24":-0.6330259967139164,"25":-1.4308994527079693,"26":-1.5348730003446462,"27":-1.827164772997594,"28":-0.1518770346589792,"29":-2.8059084638130036,"30":-0.1813100516163472,"31":-0.9874375502241836,"32":-0.3573910025329714,"33":-1.6917922045462395,"34":-0.9871591856760117,"35":-0.11976925196729504,"36":-1.353857163809077,"37":-0.03385963733318157,"38":0.19600457498034007,"39":-0.20011629709720025,"40":0.22425452103024324,"41":-1.0410379415483808,"42":-0.15821829973674165,"43":-0.24149289541959568,"44":-2.1443514864971958,"45":-3.6570202104677167,"46":-0.5165060136538527,"47":-0.1282435832998585,"48":-1.053731913008451,"49":-0.3209428707834023,"50":-0.3204185055339564,"51":-0.26095975263665294,"52":0.011796917924991579,"53":-0.13029691731925094,"54":-1.248227469893047,"55":-0.2662841344247086,"56":-0.2723772074016824,"57":-0.5332946456559495,"58":-0.15045673588830588,"59":-1.6755660842629367}},"5":{"bias":1.2463112497272246,"weights":{"0":-1.3682955292432615,"1":0.12813126454021478,"2":-0.7924775136453528,"3":-0.31124995291991,"4":1.02166075097198,"5":-3.236836404476384,"6":-0.9170679610899292,"7":-2.0650015994016897,"8":-0.9164734567695919,"9":-1.9206386647387366,"10":-2.5149646871371445,"11":-0.0677361526595775,"12":-0.5284107008540497,"13":0.49203404657219824,"14":-0.7095374188722665,"15":-0.06937844887962483,"16":-0.8123327865368414,"17":-1.4017256148575135,"18":-0.6841597465068848,"19":-0.2854242913283164,"20":-0.17501518768284421,"21":-2.3583625875378043,"22":0.8787067850457989,"23":0.08928365547421414,"24":-1.2106154596369736,"25":-2.25067029833335,"26":-1.0695838825272876,"27":-1.7396219572437905,"28":-0.2262541603853033,"29":-2.545137944826384,"30":-0.6235629490027141,"31":-1.2726102615309218,"32":0.5232512961752807,"33":-0.2662797068191858,"34":-1.7882617816922026,"35":-0.8832807111388538,"36":-1.1977903100037355,"37":-0.26985921332288487,"38":0.10349418566499465,"39":0.19671749591478313,"40":-0.423401047050169,"41":-1.2394572006435751,"42":0.06934824712703432,"43":-1.8108867341740926,"44":-1.7219328445023216,"45":-3.366182485913437,"46":-0.41555046160661296,"47":-0.009754433553085258,"48":-0.9714442032973569,"49":-0.1921188639883686,"50":-0.4731159805420606,"51":-0.0038614581230234798,"52":-0.2646574604197623,"53":-0.07856709797249234,"54":-2.1076163251026463,"55":-0.22708596255346755,"56":-0.5945236324752832,"57":-0.031199931112936875,"58":-0.009546464297510786,"59":-1.354495681317508}},"6":{"bias":1.3580728283655723,"weights":{"0":-0.7423145968051263,"1":-0.15869635942871035,"2":-0.7313349885985883,"3":-0.21792420629934378,"4":0.4020924593632261,"5":-3.768928040159939,"6":-1.7612415360392808,"7":-2.657735303689264,"8":-0.8880095011172136,"9":-1.774880200067232,"10":-2.178355234842813,"11":-0.29828062923414644,"12":-0.11625772731395421,"13":0.2612315378685894,"14":-0.37568823207678026,"15":0.018196711984108643,"16":-0.5199221620317692,"17":0.06012392169650158,"18":-1.032277287854576,"19":-0.3198077291508974,"20":-0.1641693656577281,"21":-3.092537252834828,"22":-0.3265416812517651,"23":0.23041172215442698,"24":-0.8211229788642558,"25":-1.5795017275061707,"26":-2.3324290330571587,"27":-1.4196583584109688,"28":-0.025588560182313782,"29":-2.4746106150420126,"30":-0.6867898090232831,"31":-1.2060486784969868,"32":0.33398062279372914,"33":0.2892588922706315,"34":-1.6494483683726602,"35":-0.27678764148317014,"36":-1.1527447537502191,"37":-0.13812060058254277,"38":0.067628977089151,"39":-0.12110972057863945,"40":-0.31734901687837314,"41":-1.412559096318987,"42":-0.367298266007951,"43":-1.570946185512128,"44":-1.3382034403032215,"45":-3.917392860000989,"46":0.02345943805113037,"47":-0.21771017598370285,"48":-1.6466848569204453,"49":-0.09649791382685237,"50":-0.43880248680356143,"51":-0.04937720658734962,"52":-0.016085289343083505,"53":-0.39716924243806434,"54":-1.7859990261175351,"55":-0.5209371807164109,"56":-0.4918841648098807,"57":-0.04083799730873145,"58":-0.014719657819645796,"59":-1.0203087044889276}},"7":{"bias":1.939847523180376,"weights":{"0":-1.6485551578090016,"1":-0.1381969571433048,"2":-0.5806692247177929,"3":-0.15636247991949775,"4":3.40399828017291,"5":-5.420343822348412,"6":-5.755979491880396,"7":-3.313373171001689,"8":-2.049591656309681,"9":-1.5874938914696541,"10":-4.0627129989841,"11":-0.09245691450782606,"12":-5.316228583576566,"13":0.05185056666399377,"14":-0.7219398125218781,"15":0.04337059310766755,"16":0.06244734763201106,"17":6.337598680265618,"18":-5.947678633308813,"19":0.03400113362349899,"20":-0.08681128269931193,"21":-3.8350284895886233,"22":-0.12332713819722226,"23":-0.21043349654124063,"24":-0.8963693885328103,"25":-0.7100211720025139,"26":-2.8752475046483386,"27":-0.38953616711759564,"28":-0.25943764319755946,"29":-2.2759840690353004,"30":-3.4111021478575148,"31":-2.8396711307917943,"32":-1.0197671627378369,"33":-0.10321809651286327,"34":-4.183746633653125,"35":0.524810149341839,"36":-2.3392983589456686,"37":-0.045981071463560154,"38":-1.3680915386708952,"39":-0.564844786938775,"40":-1.301172356916273,"41":-1.6930442458147816,"42":-0.009600663852817912,"43":-4.366587187489465,"44":-1.8923763273794214,"45":-6.11882435546442,"46":1.587971665577872,"47":-0.29436278722588627,"48":0.2759512651099387,"49":-0.16371966804772087,"50":-2.2974270630429894,"51":0.17344702853715166,"52":-0.23120654577902763,"53":-0.1619920315342097,"54":-1.6286894036625905,"55":0.042987091065804214,"56":0.30815137367798257,"57":-1.775620666907253,"58":-0.09080507751480836,"59":-1.3679849872628718}},"8":{"bias":1.8266606050210983,"weights":{"0":1.776196753488473,"1":-0.10876972136939204,"2":-0.9049216627097464,"3":0.12008237689418375,"4":-5.491982855289778,"5":-2.1422455943956407,"6":0.5179177481701894,"7":-0.14991469150057052,"8":-0.405158627186454,"9":-0.40506225147010627,"10":1.1447409207785832,"11":-0.694762276710574,"12":-0.4766977532964274,"13":-2.052172908514588,"14":-0.5210056524941311,"15":-0.1315711747184722,"16":-1.569515266719176,"17":-1.903530440245779,"18":2.259099608633187,"19":-0.027698584591089745,"20":0.30220589069083353,"21":-2.5508329149389297,"22":-0.03088752829334517,"23":-0.05488652280434106,"24":-1.257043696339504,"25":-2.279161840357176,"26":-2.473517728308107,"27":-1.9260035092689058,"28":-0.13174009582951712,"29":-1.3681974596436126,"30":-0.4259907544726994,"31":-1.153911398784735,"32":-0.16899385233388772,"33":-1.6876501563448847,"34":-2.1938937059519317,"35":0.12341012216416948,"36":-1.5596566443471367,"37":0.18482128318310106,"38":-0.025330802510991304,"39":0.4235264465941762,"40":-1.1635582231332433,"41":-1.3382082415344976,"42":0.20861546500106246,"43":0.09802859519739972,"44":-3.0223166277959868,"45":0.1260202269923306,"46":-0.1773269298656303,"47":-0.04440449890683247,"48":-1.5756391222896498,"49":-0.06722692624296012,"50":-0.1263962469796729,"51":-0.08634701348894398,"52":0.20438099421231481,"53":-0.14919095117967907,"54":-1.0139934901850511,"55":-0.4752664262358176,"56":-0.006892971434688923,"57":3.2063965858931542,"58":-0.00926704835278115,"59":-0.37515515639968605}},"9":{"bias":-2.495401695786421,"weights":{"0":0.17516341188908482,"1":0.12654042924193262,"2":-2.751538428101259,"3":0.2830470083738395,"4":-4.289850957702979,"5":3.30115962144535,"6":-3.124936610069649,"7":12.786918151129509,"8":-0.9026728780856597,"9":-1.150574246453639,"10":-3.213766370157463,"11":-1.3763501506215168,"12":-0.7925757999846225,"13":-0.3634239154059816,"14":0.776901837100306,"15":-0.004679685045696665,"16":-0.6353593525284801,"17":-2.891303948708275,"18":-1.2416311717318387,"19":-0.20781735428170683,"20":0.3302261183835893,"21":-1.4248846066528251,"22":0.334056071979367,"23":-0.05963832405064047,"24":0.13091946694514456,"25":-3.0955274678313534,"26":-1.393919714692743,"27":-0.5772241485011065,"28":0.1601664227074021,"29":3.235929209305996,"30":-2.422074677679246,"31":1.7975820405188088,"32":-0.38410135761669745,"33":-4.513784569423273,"34":-1.545867118524247,"35":-5.072729440909959,