{"layers":[{"0":{},"1":{},"2":{},"3":{},"4":{},"5":{}},{"0":{"bias":-3.074095334872587,"weights":{"0":-2.4015954406177173,"1":-0.4956512181610149,"2":3.58973992309694,"3":2.448902783415061,"4":3.87435325197257,"5":-4.647898210921309}},"1":{"bias":-0.9619752284394115,"weights":{"0":-0.6730278412516552,"1":0.254243023183699,"2":-0.6139264754313074,"3":-0.46057690934360795,"4":0.463621646912146,"5":-1.6017296940416572}},"2":{"bias":-1.1984187930481809,"weights":{"0":-0.49733496364294516,"1":-0.7754756198767593,"2":0.14919365453406017,"3":-0.3429191687140066,"4":-0.7098089755399586,"5":-0.7659569104718769}},"3":{"bias":-1.2547997076660389,"weights":{"0":-1.491156428681276,"1":0.40246993027175637,"2":0.6558519618034327,"3":0.1571686993718897,"4":1.1430762959094947,"5":-1.7641569486542164}},"4":{"bias":1.3198091789636992,"weights":{"0":-0.49435552667496346,"1":6.637460829706206,"2":2.13575681394393,"3":-2.701861175471919,"4":-3.673102825618893,"5":-6.030680663752538}},"5":{"bias":-1.1176694153643263,"weights":{"0":-0.7756981858406996,"1":-0.10266103057250259,"2":-0.6508393212949656,"3":-0.22147943084789223,"4":0.1225574042107009,"5":-0.9134129852291683}},"6":{"bias":4.693941460833599,"weights":{"0":1.8398437694142022,"1":-9.502584947974993,"2":5.282514891725732,"3":2.5354282240695514,"4":-9.13976215459733,"5":1.6442540101205774}},"7":{"bias":-2.0351457085307376,"weights":{"0":1.302279450637516,"1":0.25715752761851235,"2":0.8764572891609008,"3":-1.4999143925993215,"4":-1.4665516962607317,"5":1.891682254696337}},"8":{"bias":3.2093807544628166,"weights":{"0":-5.540421327724727,"1":-6.889641476298151,"2":6.331318604670001,"3":4.28046364837873,"4":-7.730215936396455,"5":6.8988816632349765}},"9":{"bias":-0.9876914081571957,"weights":{"0":4.102479807608182,"1":2.687511527885908,"2":0.024449571763251212,"3":-1.01647804436418,"4":-3.852066010730254,"5":1.270511402037675}},"10":{"bias":-1.1648350195630002,"weights":{"0":0.2691177010393176,"1":-3.4857092574822444,"2":0.9215871472417476,"3":-2.307723010687843,"4":-0.11863360292934502,"5":0.8293848539660217}},"11":{"bias":0.878027260631281,"weights":{"0":-1.5617294725085542,"1":-7.877065465295066,"2":5.017776324582451,"3":10.430404314824992,"4":-0.7584319653058673,"5":-4.626896575815859}},"12":{"bias":0.5409343316701424,"weights":{"0":-0.3359515142103718,"1":-1.7998572050846524,"2":-1.813101454122241,"3":-1.8052521288846546,"4":-1.0145436071297866,"5":-3.708885057016787}},"13":{"bias":-1.0388784255005274,"weights":{"0":-0.9356233569892813,"1":1.2194072951614496,"2":2.444327532704857,"3":-0.20445527497048863,"4":-0.39380843721368713,"5":-1.8522290868244864}},"14":{"bias":0.63840317289395,"weights":{"0":-0.8612844076928371,"1":-2.1601732472696438,"2":3.743820722644644,"3":0.8986599856513687,"4":-3.1897515042420457,"5":-3.2455221417349462}},"15":{"bias":-1.2293690984676358,"weights":{"0":-1.3783471420963633,"1":0.8340874584140022,"2":1.7418069602900845,"3":0.24960998272173981,"4":-0.7546100791424192,"5":-2.106142048885135}},"16":{"bias":-2.07339028988573,"weights":{"0":0.7044973831655786,"1":0.22756749951253086,"2":2.3926923242673777,"3":-2.5523246447049,"4":-0.1582137411564885,"5":0.6291588594404901}},"17":{"bias":-1.6358403046041905,"weights":{"0":1.369125012928454,"1":-1.4104260960652026,"2":0.35735815513301983,"3":-1.2933775411594628,"4":-0.6187526883217171,"5":0.24114904286889854}},"18":{"bias":-1.407735660508654,"weights":{"0":-0.30054265073807535,"1":-0.12604306479147429,"2":-0.4274887363132669,"3":-0.3827584635820846,"4":-0.4656747240732407,"5":-0.3727550921313784}},"19":{"bias":-2.6828049622140413,"weights":{"0":0.8326843595344635,"1":-0.4953488582832032,"2":2.7329186437352653,"3":-3.5065580670407877,"4":1.1460042787907598,"5":1.7269470890422771}},"20":{"bias":-1.5302003306321899,"weights":{"0":-0.2898945700786352,"1":-0.302424141843724,"2":-0.20794072063844224,"3":-1.008268082628263,"4":-0.35185604209313803,"5":-0.11320377187414277}},"21":{"bias":-1.9629648299722064,"weights":{"0":-0.19104841422163674,"1":1.730791900319593,"2":3.0549224648990223,"3":-3.2390190229867293,"4":-0.4060956779680081,"5":0.46411820997535724}},"22":{"bias":6.454943610596141,"weights":{"0":0.710564091577646,"1":-3.392885203969825,"2":1.4846337721327105,"3":-2.4920600548724865,"4":-5.781254149651656,"5":-4.797186082257208}},"23":{"bias":-0.1787260613923528,"weights":{"0":1.3284097588232953,"1":-3.191383063448362,"2":-0.8423626021344519,"3":-0.6837289024008394,"4":-1.016714749275306,"5":-1.8380255674149895}},"24":{"bias":-1.0461238236009653,"weights":{"0":-1.2211950778129306,"1":0.46601034949381315,"2":0.13094204815805224,"3":-0.036805524485055356,"4":0.6424041048006296,"5":-1.8599967200342804}},"25":{"bias":0.7711072798844864,"weights":{"0":-0.8350119329797457,"1":-3.829029676776898,"2":5.1019988726525165,"3":1.2097655397596097,"4":-3.399952367660215,"5":-4.22954010951549}},"26":{"bias":-0.04222609543520768,"weights":{"0":-0.5352016641079924,"1":-0.8944729228346392,"2":-0.37051765940015025,"3":-0.5567392731248,"4":-0.8954703355811219,"5":-2.5275060034991808}},"27":{"bias":-1.2166745054454313,"weights":{"0":-2.9295802814286573,"1":-0.683201739351063,"2":-1.4882743172083945,"3":-0.6091233174907986,"4":2.1562147849625433,"5":1.2907834996039482}},"28":{"bias":-1.3564843839529104,"weights":{"0":0.8554011573968265,"1":-2.362965507326614,"2":0.46884228602403827,"3":-1.2945724853911527,"4":-0.6208611238256977,"5":-0.5873918659657469}},"29":{"bias":-1.0619724165708522,"weights":{"0":-2.3465539839405323,"1":-1.3768895895613202,"2":4.486682762169816,"3":1.7630094839829755,"4":-1.315299311358939,"5":2.2971258926029825}},"30":{"bias":-0.9748800704487712,"weights":{"0":-1.8042813210235242,"1":0.48639946418908847,"2":-0.3116331644590855,"3":-0.16471391131352067,"4":1.4935028007532762,"5":-1.150329881688329}},"31":{"bias":-1.1004363935305201,"weights":{"0":-0.9325198818982388,"1":0.4383078957668782,"2":0.9956544150599985,"3":0.13964250618141047,"4":-0.005729051823439949,"5":-1.892078154887578}},"32":{"bias":-1.325388146286785,"weights":{"0":1.192206618205071,"1":-2.1664825093091644,"2":0.12459988088715804,"3":-1.369919638435506,"4":-0.6991694669949049,"5":-0.2750554945790661}},"33":{"bias":-1.141566331221836,"weights":{"0":1.0010954659552525,"1":-1.9459941502285867,"2":-0.005798140636531167,"3":-1.1354232467460812,"4":-0.8364480991260792,"5":-0.8563303185309845}},"34":{"bias":3.9739227835479305,"weights":{"0":-11.249921194763843,"1":-2.8425323885740097,"2":-12.540325166117098,"3":3.7345512681815998,"4":2.8679475267967884,"5":4.726554216095402}},"35":{"bias":-2.097403157197334,"weights":{"0":-1.852305714945763,"1":-4.908768798600724,"2":3.591442218547651,"3":-7.3701757632524965,"4":3.641273937487697,"5":1.6209405682089066}},"36":{"bias":-1.2866572723018181,"weights":{"0":-0.7271775205388636,"1":0.17888462331997534,"2":0.03466777101619045,"3":-0.0762238559594127,"4":-0.3656252848738561,"5":-0.7049736029787635}},"37":{"bias":-0.8023320162408715,"weights":{"0":-0.5918493210023393,"1":-0.1843515716718976,"2":-0.21223377627729023,"3":-0.17188250749449735,"4":-0.4749528119240763,"5":-1.704226988779385}},"38":{"bias":-0.12929809662702182,"weights":{"0":-1.0728869239969723,"1":0.08128273610453031,"2":0.18487120359486017,"3":0.07553679931185268,"4":0.9527075117877339,"5":-3.0195807967666117}},"39":{"bias":-1.0741253144987946,"weights":{"0":-0.13839789886405418,"1":-0.7254750600762202,"2":-0.32811442605589275,"3":-0.21160010634908347,"4":-0.6955232680798101,"5":-1.06753304137756}},"40":{"bias":0.9834313632483691,"weights":{"0":1.0711736294848695,"1":3.701179448915524,"2":-3.436063160492727,"3":-2.737478378984486,"4":0.1998533698829852,"5":-3.276787516333782}},"41":{"bias":0.6433976098991261,"weights":{"0":-0.20338808506497225,"1":-2.472752321717868,"2":0.5144791116301947,"3":-0.6483336742047221,"4":-2.0241061022858373,"5":-4.906569556658014}},"42":{"bias":-1.1211725885170984,"weights":{"0":-0.7884565303267115,"1":-0.15322769514694543,"2":0.2497252267920905,"3":0.13494784854813993,"4":-0.1844597691724881,"5":-1.34884079267786}},"43":{"bias":-4.0716001379171445,"weights":{"0":8.029051958307626,"1":3.735995167225605,"2":-1.200700347889337,"3":2.008573677809984,"4":-2.3530309127229025,"5":4.181297508374401}},"44":{"bias":-4.74537961610365,"weights":{"0":8.282737889949022,"1":-0.7364519754070397,"2":1.6031736167541248,"3":0.9213416235334251,"4":-1.4369660848735537,"5":5.152426413506385}},"45":{"bias":-1.0984024392973684,"weights":{"0":-3.281057406256256,"1":-0.24801137627524633,"2":-1.9156864386390842,"3":-1.2575961879739403,"4":2.3868016051669527,"5":0.5548453069321002}},"46":{"bias":-1.0426111977060004,"weights":{"0":-3.084238504171198,"1":-0.7109955033908428,"2":-0.25088423870180343,"3":1.1413535350677888,"4":2.7758235915755844,"5":-0.42071595794930466}},"47":{"bias":-0.036268776673818816,"weights":{"0":-0.5553191639016425,"1":-0.8920220821236347,"2":-0.4377796633962603,"3":-0.6282649097000804,"4":-0.849146228228367,"5":-2.5397292310594546}},"48":{"bias":-2.140732597537733,"weights":{"0":-1.7929024012338706,"1":0.5861780553987531,"2":2.589591273792901,"3":0.8482987171144674,"4":1.5100611276725786,"5":-2.673487874071072}},"49":{"bias":0.44671475510822917,"weights":{"0":-11.172443771843533,"1":-5.276927331673956,"2":11.604776860425385,"3":3.096488778501767,"4":-5.463076221041981,"5":2.0879898360740055}}},{"0":{"bias":-0.045480689808235594,"weights":{"0":0.5398373715438362,"1":0.013686900910645616,"2":0.17821792416847318,"3":0.3391747978743941,"4":0.5226213276469676,"5":0.322111593991094,"6":0.1352511913841241,"7":-0.5524903031529311,"8":0.30131551564601816,"9":-1.0577810924134385,"10":-0.08726523879657055,"11":-0.5939788387498782,"12":0.3328141219684718,"13":0.11776602641158969,"14":-0.2254052120798121,"15":0.36715716391919206,"16":-0.38660044325966486,"17":-0.37411878993495185,"18":-0.05903346939733113,"19":-0.3259166216326157,"20":-0.1430863132233091,"21":-0.21202857045032666,"22":0.904386585197724,"23":-0.34215875968894155,"24":0.2889466465476147,"25":-0.28591064158051394,"26":0.32534006426693785,"27":0.4987382381521849,"28":-0.37867419497714827,"29":-0.4910071002814288,"30":0.3335575133298593,"31":0.17033769024012627,"32":-0.5647338835251405,"33":-0.2787203792044026,"34":1.3303050450426126,"35":-0.7728529228986054,"36":0.20604408283384765,"37":0.022514049276217217,"38":0.14451124198527635,"39":-0.0016603221129876241,"40":0.4624853436591229,"41":0.15026522740867845,"42":0.15668880329948676,"43":-2.2328137906829335,"44":-2.3718675284618627,"45":0.5763178110171323,"46":0.4121034151757815,"47":0.29485105920788685,"48":0.19421241753963825,"49":1.2774234452091258}},"1":{"bias":-0.1284754501262096,"weights":{"0":-0.40082802209119717,"1":-0.017142712846609804,"2":-0.1641553840566328,"3":-0.2861180001333892,"4":-1.1378781654268233,"5":0.1219967050922225,"6":0.9642139969439942,"7":0.010244966126200161,"8":0.014185710982174964,"9":-0.14901575373022208,"10":0.3336061144826579,"11":-0.6603709408569765,"12":-0.5427800868768174,"13":-0.5874073420969094,"14":-0.7915661681749139,"15":-0.572962075388202,"16":0.02730403423568381,"17":0.07570570351765801,"18":-0.02696931226406282,"19":0.3805547357113604,"20":0.03163283117092894,"21":-0.11542253995943827,"22":-1.0030437812635737,"23":0.2861569636796036,"24":-0.23037486980140645,"25":-1.2288095286872571,"26":-0.2807588312140432,"27":0.299655246846255,"28":0.2023812334897054,"29":0.01582426178590462,"30":-0.1850152903509779,"31":-0.17793879094383394,"32":0.08205323864223124,"33":0.10582869238472717,"34":-1.4263159297541752,"35":0.35262284827006424,"36":-0.08145551917365602,"37":-0.16062983318978516,"38":-0.2516913322908266,"39":0.07449542033887607,"40":-0.6242722905613428,"41":-0.5973698738106669,"42":-0.3232906098140818,"43":-0.15185230289731053,"44":-0.09436155012576947,"45":0.39466713314383994,"46":0.019224246461823153,"47":-0.27513140878209225,"48":-0.6155191951277262,"49":-1.9815953165484081}},"2":{"bias":-0.2283118206833728,"weights":{"0":0.8488305946435505,"1":0.09722507169384517,"2":-0.2760246708622405,"3":0.04120104968884933,"4":0.7939130226447633,"5":0.05130833615373254,"6":0.867165571026534,"7":-0.014299923281307766,"8":0.10712352521992123,"9":-0.6026495175286991,"10":-0.5388199134704621,"11":-1.1915118106637657,"12":-0.45245645750118074,"13":0.44122367987921535,"14":-0.20555763577252134,"15":0.28985287918736324,"16":-0.028659462832544568,"17":-0.17606759421385845,"18":-0.2112928735912693,"19":0.07276672545563223,"20":-0.03863741237640552,"21":0.17234882947776847,"22":-0.7578744191179703,"23":-0.5999122117484712,"24":0.20652333011841395,"25":-0.1180413050273363,"26":-0.30223207193102347,"27":0.08508565144839435,"28":-0.18091078026093474,"29":0.19882270914440314,"30":0.16139205029217507,"31":0.34052434585489066,"32":-0.3797908924126128,"33":-0.5790395618058454,"34":-1.6131236535142186,"35":-0.860916410332002,"36":-0.09180833233488911,"37":0.11297219941910736,"38":0.14356638896369028,"39":-0.377546216647489,"40":0.01532296049973208,"41":0.008744574419871688,"42":0.12623973283806028,"43":-1.364156513258278,"44":-1.260769525824994,"45":-0.1406217286377695,"46":0.16795292707950338,"47":-0.0400682156944661,"48":0.6336060720669658,"49":-0.8130123688485704}},"3":{"bias":-0.36949916229511126,"weights":{"0":-0.09478556927832024,"1":-0.21525512706521321,"2":-0.2108416029426323,"3":-0.3046699951083358,"4":-0.024847642134098853,"5":-0.2476905384640033,"6":-0.6649739350404994,"7":-0.05730928911307853,"8":-0.5164828409207916,"9":-0.15739354966850447,"10":-0.04491830482181073,"11":0.021078527535441594,"12":-0.047637266152071714,"13":-0.29044163611776397,"14":-0.14837988805263114,"15":0.1354321307733,"16":-0.38011842023286807,"17":-0.02348082267050375,"18":-0.12598478553159875,"19":-0.09272799516690625,"20":-0.2054051604645267,"21":-0.13077452530646114,"22":-0.07860202329014496,"23":-0.05342032806108909,"24":0.07723371921392733,"25":-0.09749306061068198,"26":-0.14759653120890204,"27":-0.004936293396601149,"28":-0.03876101480512557,"29":-0.5086263919488958,"30":-0.09990737837219983,"31":-0.15110359556235245,"32":-0.14618892222044697,"33":-0.3020627903070514,"34":0.508401187534457,"35":-0.14108149417898425,"36":-0.22748780090147222,"37":-0.17458762670800082,"38":-0.046808095824618756,"39":-0.16308294789566347,"40":-0.09081762171027186,"41":-0.07857774914558346,"42":-0.24873909676186162,"43":-0.4418378264580769,"44":-0.5310126347996941,"45":-0.23421803604469074,"46":-0.16261779132627105,"47":-0.012115974079494655,"48":-0.04657650778727201,"49":0.1604326840168237}},"4":{"bias":-0.3964790852567375,"weights":{"0":0.7287926998560714,"1":-0.027626836831049738,"2":0.09963244205941016,"3":0.26039845287322905,"4":1.0495787278654398,"5":0.15678462531325119,"6":1.2005072976805415,"7":-0.40182450543506393,"8":0.7096260470834193,"9":-0.7260465455981734,"10":-0.5699034368539657,"11":-1.7394517370596208,"12":0.34032850735391634,"13":-0.13881912942751792,"14":0.38529113970126927,"15":-0.01688445089671501,"16":-0.58309201890759,"17":-0.19343908304944535,"18":-0.18728314846387,"19":-0.6705814443186051,"20":-0.22108411249841262,"21":-0.7015042661735985,"22":-0.3328407026823922,"23":-0.12144616379678504,"24":0.2849748227718844,"25":-0.04419700330921758,"26":0.26429777455803843,"27":-0.022282193051730244,"28":-0.16487530202233308,"29":-0.8154989044342591,"30":0.2054006258042194,"31":0.0935132835170014,"32":-0.28240640263545863,"33":-0.051373473506870146,"34":-2.098580720511968,"35":-1.316832659241049,"36":0.1375947511290471,"37":-0.03209130052408442,"38":0.408791625044685,"39":0.14349676428754507,"40":0.46601863696584955,"41":0.7424330043318917,"42":0.11447682508048959,"43":-1.6301153114942528,"44":-1.5843867365767275,"45":0.17801125805777593,"46":-0.04255563813403279,"47":0.23546015999649475,"48":0.040901003863573725,"49":-1.2710746579248653}},"5":{"bias":0.6189430242986147,"weights":{"0":-0.6720443898151114,"1":0.3874846668726799,"2":-0.21292697094098156,"3":0.29405222000807285,"4":2.87788407056043,"5":0.09270473764086445,"6":2.7959582483363903,"7":0.2884789944623089,"8":1.7056822590181444,"9":1.11243916608753,"10":-1.22173805851632,"11":-1.2952363415063253,"12":0.49301322955784566,"13":-0.463448789226941,"14":-0.4042419995568066,"15":0.22191055366662032,"16":-0.47034757978347835,"17":0.22176660965804454,"18":-0.014788098744010757,"19":-0.748374457800755,"20":-0.2124164593331716,"21":-0.8761496125761367,"22":-1.8862442933436394,"23":0.26992977280542824,"24":0.4043594961770057,"25":-1.1906891443123635,"26":0.31846978634193807,"27":-1.0601685573108532,"28":-0.3186869122923448,"29":-0.2559101552754765,"30":-0.10694753241057944,"31":0.292336466002294,"32":-0.2169702976066997,"33":0.08157291949443053,"34":-6.1592055891316475,"35":-2.4610465960540022,"36":-0.03518660113836045,"37":0.3212619482308954,"38":0.6790599676724332,"39":0.16953988931035863,"40":1.4872914026597648,"41":0.968688564146944,"42":0.0390997360899509,"43":0.3578861209795588,"44":-0.5575219673565833,"45":-1.1249887856706693,"46":-0.21751773719642,"47":0.4241730639761155,"48":-0.5031613930543432,"49":-4.342777640588504}},"6":{"bias":-0.18337847171146193,"weights":{"0":0.0785339466899045,"1":0.19515184486444886,"2":-0.13983064835880993,"3":0.09005480170089483,"4":-0.3673526472727837,"5":0.28425996546558124,"6":1.083159738764486,"7":-0.22285333559590803,"8":0.6680998059770572,"9":-0.6413438365575074,"10":-0.09925887470606447,"11":-0.7391927756574219,"12":-0.03941204099330394,"13":-0.3416734311729161,"14":-0.6474387931193242,"15":-0.19444398817872305,"16":-0.4702721600245713,"17":0.04883625642340033,"18":-0.01722724868549998,"19":-0.09683466072729506,"20":0.05798810572523274,"21":-0.3155331897257344,"22":-1.5218453688909424,"23":-0.42653306681249703,"24":0.16468221072950984,"25":-1.051768014136337,"26":-0.3011581427591747,"27":0.729490292248211,"28":-0.26901086665627816,"29":-0.456846148821455,"30":0.4590213585534361,"31":-0.16116671832992907,"32":-0.08047516907654431,"33":-0.007223284890562437,"34":-0.9963049011749516,"35":0.3652605574770166,"36":-0.04065789415494172,"37":0.04028640888186699,"38":-0.14318811179044474,"39":0.08071761203031494,"40":0.10789833365131937,"41":-0.6393585163290751,"42":0.10322471206327817,"43":-1.2535884499882783,"44":-0.8647263385786597,"45":1.051817232956268,"46":0.31968033345705815,"47":-0.3605623321875759,"48":0.04285215804949691,"49":-1.9139697760775176}},"7":{"bias":-0.1347013037576687,"weights":{"0":0.3359931619257395,"1":0.12390748970993677,"2":-0.164779195692743,"3":-0.11146662376700991,"4":-0.17250108191681923,"5":0.09632671012665416,"6":0.29211047891033304,"7":-0.2803295674619198,"8":0.3330128140035548,"9":-0.4950126273585088,"10":-0.031016950427645528,"11":-0.35488897409250525,"12":-0.3970580095081841,"13":-0.22529333811525915,"14":-0.5611241547598711,"15":-0.20234555264994286,"16":-0.02833863071476841,"17":-0.11860477132606512,"18":-0.09065600677577718,"19":-0.15475457501109727,"20":0.00978367840326862,"21":-0.35729739342082234,"22":-0.35308496324122496,"23":-0.42807256573766855,"24":-0.08517135334542582,"25":-0.6628315800211909,"26":0.025269801515803065,"27":0.1717804094079831,"28":-0.31071245082943566,"29":-0.18601060245278067,"30":0.13570819741323045,"31":-0.07072653502687497,"32":-0.0937380032870028,"33":-0.31572501508585726,"34":-0.607705771750673,"35":-0.5145527362866616,"36":-0.043297363196840265,"37":-0.22336159456650603,"38":-0.17405550109666773,"39":-0.11361568770184666,"40":-0.07714394866518748,"41":-0.5818522729174098,"42":-0.12243246694987821,"43":-0.6659817158658279,"44":-0.6690495329906839,"45":0.23285455609848446,"46":0.3928348088294005,"47":-0.15134387619864353,"48":0.041916518334085565,"49":-0.2951920343318418}},"8":{"bias":-0.2540501597138013,"weights":{"0":0.5805133586371353,"1":0.11075845614321435,"2":-0.09869705753870525,"3":0.18010765962599162,"4":0.8498487357472081,"5":-0.09323096144175431,"6":0.574057932461692,"7":-0.13980430647525427,"8":0.507430949511794,"9":-0.6110480401656441,"10":-0.5273777958314371,"11":-1.376975034414921,"12":-0.18978572523100884,"13":0.3008429694203877,"14":0.31401447174575065,"15":0.43219181983438926,"16":-0.38031841405291156,"17":-0.37522367232584514,"18":-0.2874812525616196,"19":-0.4927330324514051,"20":-0.149692590799526,"21":-0.22413291293131712,"22":-0.5721954206410532,"23":-0.4334444020624394,"24":0.17919838414628197,"25":-0.12625798901154225,"26":-0.12145778271866604,"27":-0.09651223305812855,"28":-0.4419211432934672,"29":0.009021500504663209,"30":0.19508677877127037,"31":0.3288295005139905,"32":-0.36953737482175913,"33":-0.3727721061986876,"34":-1.5736405625183203,"35":-0.8582852003117886,"36":-0.1416242087863448,"37":-0.1564305980374001,"38":0.3484272917066846,"39":-0.29497222623610003,"40":0.07474781365785699,"41":0.05639264339821344,"42":0.09933938780502988,"43":-1.2982801395967707,"44":-1.1525445839756645,"45":-0.16837208509093676,"46":0.26289614648022286,"47":-0.15289793150990474,"48":0.3909150091492578,"49":-0.8307564678561702}},"9":{"bias":-0.34973290788868006,"weights":{"0":-1.0983785740678178,"1":-0.25638581205323674,"2":0.11552534674974953,"3":-0.43456571661885496,"4":0.06216353410719636,"5":-0.31501124757754057,"6":0.42277574217225644,"7":0.8967415276549254,"8":1.7699229790122588,"9":1.1763408023175184,"10":0.29449192621719655,"11":-1.0421666640866607,"12":-1.3204811183033096,"13":0.2432895944226997,"14":-0.5778988160642871,"15":-0.0875324855888783,"16":1.0047910402136064,"17":0.3158976014783568,"18":-0.11971155922190178,"19":1.3620474660861424,"20":0.13398230682905857,"21":1.4482197837601112,"22":-1.8466808814782896,"23":-0.42992528198317354,"24":-0.48832556309005065,"25":-0.2710330642138713,"26":-0.7990361717033683,"27":-0.1790893332722349,"28":-0.046845334900075745,"29":1.788569397016714,"30":-0.5906634972056148,"31":-0.34499654884313335,"32":0.21800584743645457,"33":0.030312267182370862,"34":-2.036013435558089,"35":1.7711033147665438,"36":-0.0622484824178696,"37":-0.32550690663905774,"38":-0.9555956440412466,"39":-0.21163126831273246,"40":-1.7921190488148677,"41":-1.1565008467708384,"42":-0.17610920089029813,"43":1.0016195363454026,"44":1.48645388649395,"45":-0.183200339121026,"46":-1.1736259746383935,"47":-0.8950278850042165,"48":-0.38901990965663646,"49":1.0166264468720574}},"10":{"bias":-0.6197363490298337,"weights":{"0":0.6759632931110429,"1":0.3009563385781395,"2":0.2928898877999895,"3":-0.10292711388045991,"4":1.267563320271697,"5":0.18792932323332248,"6":4.740563944285216,"7":-0.34931300626363854,"8":1.8098073991572352,"9":-1.1764642679081716,"10":-0.24005369362397963,"11":-3.104424201879232,"12":1.6427198338504476,"13":-0.6867086000689262,"14":0.40593553401563903,"15":-0.5680789577496768,"16":-0.47659387530809916,"17":0.44013653292997684,"18":-0.03266561841887114,"19":-0.6498330502083783,"20":-0.09833197537092661,"21":-0.9342430582455101,"22":0.527197006110152,"23":1.2813032970933036,"24":0.023079722458103094,"25":0.0050864922506103,"26":0.5963478206240835,"27":0.619628523344724,"28":0.4596442268327004,"29":-2.419004721809731,"30":0.281082878464827,"31":-0.3670172373617365,"32":0.5276024977371434,"33":0.5670200417908826,"34":-3.9779887334396307,"35":-1.5261179184480809,"36":-0.2654825872480068,"37":0.1001926913417595,"38":0.4608802915355996,"39":0.3141732423286591,"40":1.5100748870826182,"41":1.8077323701805548,"42":0.15355802604718968,"43":-2.1970497506288376,"44":-1.8335074128125632,"45":0.81274052951023,"46":0.5734398536482184,"47":0.4707852215738329,"48":0.04023148820601981,"49":-1.0585956814062887}},"11":{"bias":0.06037362128970766,"weights":{"0":0.2288938069561112,"1":-0.002152493830269544,"2":0.08981939072288626,"3":0.007299849585213204,"4":-0.3236483423327791,"5":0.2818357584238099,"6":0.6433827304876665,"7":-0.19014652219744682,"8":0.6655538616190624,"9":-0.468423548410498,"10":0.0405939474511024,"11":-0.4570114999979725,"12":-0.40037189556973835,"13":-0.23631606158105276,"14":-0.5474013312048536,"15":-0.24369101442999644,"16":-0.19827792912768266,"17":-0.25466102189796297,"18":0.19008631692332686,"19":-0.198797267638388,"20":-0.136029667237776,"21":-0.38207348307744343,"22":-0.855550869346961,"23":-0.38067180502724374,"24":-0.001395067829461359,"25":-0.9896058064895582,"26":-0.07006468704892328,"27":0.6022816782986978,"28":-0.21894541179339747,"29":-0.17635412199064085,"30":0.12795447590431372,"31":-0.303200304167283,"32":-0.09288241067678311,"33":-0.1336085193902745,"34":-0.9100039688803113,"35":-0.5252784772384533,"36":0.12836314570141014,"37":-0.08979748359725848,"38":0.06851921666219346,"39":-0.08637490337182582,"40":-0.14098164016151704,"41":-0.741905771444979,"42":-0.24057409153147247,"43":-0.9246322447629944,"44":-0.5535294557308077,"45":0.4318169357473856,"46":0.13709830497048425,"47":-0.07425070031293089,"48":-0.20254553436357736,"49":-1.1194208559062628}},"12":{"bias":-0.10313425353153334,"weights":{"0":-0.4459111653155681,"1":-0.23217392084685537,"2":-0.1994210276292945,"3":-0.15703444618615092,"4":-0.6692619762833497,"5":0.023068400710076015,"6":0.6140552520549856,"7":-0.41052850392434265,"8":0.8433246402336401,"9":-0.46653682263416923,"10":-0.2176973865477435,"11":-0.207290706679448,"12":-0.1255371353912593,"13":-0.29101333962177744,"14":-0.87592406960597,"15":-0.5037918572020516,"16":-0.29312937839921394,"17":-0.15899739608995,"18":0.031349764943211816,"19":-0.006300213397650119,"20":0.1212324569165721,"21":-0.4924448083475651,"22":-0.6406998525083626,"23":-0.19263336563264918,"24":-0.2419727876052561,"25":-1.0650741465117313,"26":-0.35452926200226836,"27":0.37740966675713283,"28":-0.3444967742847051,"29":-0.22271280751549508,"30":-0.1724979560002078,"31":-0.39811607984565667,"32":0.09139236522505784,"33":-0.16366072055013592,"34":-0.9863672324392132,"35":-0.30128705881746487,"36":-0.16247272227381848,"37":0.04158300978265008,"38":-0.31487442390469406,"39":-0.1611037454172879,"40":-0.12815286076430724,"41":-0.4709902880810227,"42":-0.1433055471624356,"43":-0.415448068731028,"44":-0.4404768328224009,"45":0.30537547413695304,"46":-0.02278021586965704,"47":-0.0010261833513201984,"48":-0.5575166124101275,"49":-1.22630605375727}},"13":{"bias":-0.772766138836277,"weights":{"0":0.3454833994235042,"1":0.2610377147300827,"2":0.19937833383951908,"3":0.466822517290416,"4":2.0680612098651867,"5":0.1202001424663495,"6":-0.5602372901610276,"7":-1.0283727075958085,"8":-0.5060994448051063,"9":-1.2436413988848165,"10":-0.6586319808456944,"11":-0.5826882282420927,"12":0.8987882885486219,"13":0.41753037692437195,"14":0.5959797543118674,"15":0.6065179163275674,"16":-0.8002279360728992,"17":-0.7094501436600943,"18":-0.19450966699047584,"19":-1.0026917622167908,"20":-0.18543548780317376,"21":-0.707762135011999,"22":0.2679559504524638,"23":-0.024238948418891106,"24":0.560140464452793,"25":0.6130844705780363,"26":0.523887938570845,"27":-0.28256202302083105,"28":-0.5303584602492359,"29":-1.2391024568240852,"30":0.28675233457339155,"31":0.5115437667080719,"32":-0.3882239493820927,"33":-0.24803419800667842,"34":-0.2194668312460296,"35":-1.0898877580411173,"36":0.2041626075478735,"37":0.3244760919374102,"38":0.9310499243366874,"39":0.0418358406585803,"40":1.425944821348629,"41":1.1819776398345874,"42":0.31002105600772895,"43":-1.8431870972603253,"44":-1.8361578578706566,"45":0.14009377633119285,"46":0.07373481958427332,"47":0.7750561256914525,"48":0.229453671749267,"49":-1.072474748774949}},"14":{"bias":-0.2996078797801305,"weights":{"0":0.12210294404079217,"1":-0.15547788771552365,"2":-0.01822471759833191,"3":0.12903398301206373,"4":0.18359177744838906,"5":-0.15940682626851005,"6":0.07393301529386746,"7":-0.05552074139526351,"8":-0.14478986354258108,"9":-0.4621298199461816,"10":-0.05845022932853076,"11":-0.42884368598371625,"12":-0.18468035486359655,"13":-0.21453659960530966,"14":-0.42841593885327184,"15":-0.3439478306804095,"16":-0.15077695729175397,"17":-0.06314311514846326,"18":-0.153217519816839,"19":-0.13150181346687234,"20":-0.2702871502378066,"21":-0.21719155701424747,"22":-0.17318310481922203,"23":-0.42391889421778023,"24":0.0046943167223149965,"25":-0.5543204858924276,"26":-0.10878526293043748,"27":0.15847353577353748,"28":-0.28636609576736566,"29":-0.07148285927027134,"30":0.09077507796475824,"31":0.017971252840405055,"32":-0.03895103960500549,"33":-0.25046201038483956,"34":-0.4166651330635128,"35":-0.5119579687744134,"36":0.0550215849051109,"37":-0.30270469192803706,"38":-0.22349881664917426,"39":-0.20653514952664467,"40":-0.18468766556232444,"41":-0.4689007108807909,"42":-0.2623189644233386,"43":-0.5256043475517068,"44":-0.2246468846481632,"45":0.2053050235052667,"46":0.08708400863483688,"47":0.015366950928644103,"48":-0.16464440218608725,"49":-0.13945502286027764}},"15":{"bias":0.0300286260043466,"weights":{"0":0.4185365607117653,"1":0.32960892266036335,"2":-0.02890265231654644,"3":0.13507478310413173,"4":-0.06919650495376005,"5":0.15481443030928466,"6":1.8830203822612404,"7":-0.011621374419892971,"8":0.8335205255424566,"9":-0.24692871942559277,"10":0.025415838030166883,"11":-0.6455391702370619,"12":-0.20179043499326124,"13":-0.1222935984362697,"14":-0.7807579684665268,"15":-0.37928059098529465,"16":-0.04287452310904782,"17":0.0718022367670253,"18":-0.14396279383465277,"19":0.32775457085715753,"20":0.10254036835501039,"21":-0.07474595737277956,"22":-1.4883973387740899,"23":-0.2054709372150011,"24":0.11321385507424071,"25":-1.3538049226592512,"26":-0.315756383775059,"27":0.5334302188826304,"28":0.002178696704526326,"29":-0.27094144436756146,"30":0.09681614613636685,"31":-0.277317439713754,"32":-0.2764412520536742,"33":-0.09178344467670314,"34":-1.4866406664932545,"35":-0.22214690066856765,"36":-0.052787852868291046,"37":-0.040277133399645726,"38":-0.18602919697353285,"39":-0.20896121684465427,"40":0.07068468745981357,"41":-0.752362794573692,"42":0.021623838855655976,"43":-1.2515617299277597,"44":-1.1280380102339258,"45":1.07503236237357,"46":0.24743070888715463,"47":-0.27189875538689356,"48":0.07145601979603367,"49":-2.4541337234087384}},"16":{"bias":0.0313419295039633,"weights":{"0":-0.5547087218958802,"1":-0.14210527188820957,"2":-0.07119574181404077,"3":-0.42314547524193824,"4":-1.7227417300803216,"5":-0.01963968815026865,"6":2.0358942633618424,"7":-0.0769294379930556,"8":1.7240967183776157,"9":-0.5589415072012082,"10":0.14046530844264696,"11":-0.35371311941079175,"12":-0.08751703708737286,"13":-0.8513014933849242,"14":-1.1693643712014727,"15":-0.691848004683401,"16":-0.38664165223184915,"17":0.13289810004916147,"18":0.06935177665380085,"19":0.1471448390256971,"20":0.0536700852882725,"21":-1.0074213575425996,"22":-1.7194197806853222,"23":0.06043208225922963,"24":-0.15849576295670376,"25":-2.05271488702519,"26":-0.10228635985927888,"27":0.34013410057374327,"28":0.03966381348236236,"29":-0.8056036367613748,"30":-0.2882658938596258,"31":-0.5137488000711151,"32":0.30443740076218745,"33":0.08219976375363931,"34":-2.524108466973747,"35":0.03782780876261858,"36":-0.0003913172271999476,"37":-0.0865907934161495,"38":-0.5087471884575449,"39":-0.0710949526664429,"40":-0.5962587737778838,"41":-0.4550940248947338,"42":-0.027180842268264956,"43":-0.4096428492290296,"44":-0.2296954540092374,"45":0.5028018615587806,"46":0.20745190863265212,"47":-0.13622706729551975,"48":-0.8997540217816729,"49":-1.898218708069226}},"17":{"bias":0.2930428485874884,"weights":{"0":0.17973219753292213,"1":0.06244905737806782,"2":-0.10798827078362214,"3":-0.20039388009753695,"4":-0.43284014993805975,"5":-0.014412986189098306,"6":0.6970797514128819,"7":-0.4670300719174497,"8":0.5553778638429789,"9":-0.6320405471408609,"10":-0.10386828754149323,"11":-0.04129156357221997,"12":-0.24858205018852814,"13":-0.5004297927717173,"14":-0.9699669801202819,"15":-0.46711981217619036,"16":-0.37224416131631,"17":-0.04268874321932536,"18":0.013097901370404117,"19":-0.14314764344967962,"20":0.08868136459600244,"21":-0.3234666441019581,"22":-0.9290574571558821,"23":-0.44803450390104166,"24":0.060060680130417085,"25":-1.1309069952597341,"26":-0.33482095123021605,"27":0.19953792630945236,"28":-0.17909333063041077,"29":0.010396159377652345,"30":-0.12449455723137692,"31":-0.4004837948034576,"32":-0.2548792638236889,"33":-0.147933432152507,"34":-0.6326350944966397,"35":-0.6833744153090281,"36":0.12180598950835379,"37":-0.024409330858687878,"38":-0.3041735471868825,"39":-0.2809525348127475,"40":0.07128072982568087,"41":-0.5483106161578175,"42":-0.06989771064872355,"43":-0.6677793951571878,"44":-0.27786543361684496,"45":0.3130716541534457,"46":0.37478318078913014,"47":-0.06431044450040542,"48":-0.34851653118292203,"49":-1.2110254815110357}},"18":{"bias":-0.3631202074748839,"weights":{"0":-0.42332310826328035,"1":-0.1838184688199289,"2":-0.3061133223283837,"3":-0.21042397082603856,"4":-0.36222890361701265,"5":-0.013095244881585848,"6":0.37335678341359574,"7":0.04854703928166901,"8":-0.12322190851088508,"9":-0.29103561450475246,"10":0.025379824415447557,"11":-0.5447797388553857,"12":-0.44922127816399743,"13":-0.26054010511828063,"14":-0.5888265503108537,"15":-0.20298580708412445,"16":-0.0226687604005574,"17":-0.049600024217507706,"18":0.003723986445630806,"19":-0.12973433251272104,"20":-0.10649521371239205,"21":-0.08134741770263872,"22":-0.48843977651285087,"23":-0.25351670935033443,"24":-0.04865641998115527,"25":-0.7299359065973576,"26":-0.2058791320346408,"27":0.2373382093513167,"28":-0.178110844528156,"29":-0.0917100403354622,"30":-0.14015418329645843,"31":-0.059968868639741484,"32":-0.18883037076842696,"33":0.05716531851410182,"34":-0.663846033575861,"35":0.09718552332230451,"36":-0.21740721307111363,"37":-0.04484834298963595,"38":-0.40543938464987417,"39":-0.22664914391449797,"40":-0.3274883196209986,"41":-0.3559671556892501,"42":-0.07729943271300312,"43":-0.380872262895268,"44":0.011922733368523066,"45":-0.060506446496106876,"46":0.06796446588572536,"47":-0.10740305819650053,"48":-0.4797839784231662,"49":-0.8724658982277692}},"19":{"bias":-0.40649756573962176,"weights":{"0":0.8681893885175335,"1":-0.0648899199401612,"2":-0.25141029440332807,"3":0.1345885322649842,"4":1.2311874658820676,"5":-0.26859865878440153,"6":0.9415617985619027,"7":-0.06184534461061423,"8":0.30002966036005974,"9":-0.8559739665573377,"10":-0.578642249408673,"11":-0.6254979994338923,"12":-0.5442373437818796,"13":-0.01097074931101383,"14":-0.4662243230011594,"15":0.2648880845187246,"16":0.28086442343573076,"17":-0.046837783931137036,"18":-0.07141252021254646,"19":0.13482297640341684,"20":0.004889822156102043,"21":-0.00016718666520829046,"22":-0.3229894592081308,"23":-0.6360865301939345,"24":-0.15580805393951722,"25":-0.6637402747648891,"26":-0.2849015089167064,"27":-0.05890531045119968,"28":-0.39661015920408826,"29":0.37472216439539063,"30":-0.17826433746330325,"31":0.04215871766707051,"32":-0.31962138082443836,"33":-0.47858145692502035,"34":-1.5421867561801985,"35":-1.2587233854100277,"36":-0.08805614616782809,"37":-0.07346991361890493,"38":0.1352459691022808,"39":0.017349432300591085,"40":-0.22792015202473925,"41":-0.4008108793341539,"42":0.07921112987427514,"43":-0.9902337524165574,"44":-1.1045775928894246,"45":0.08402166675838281,"46":0.20303526409732592,"47":-0.23765993064314603,"48":0.23502983413263348,"49":-0.1373009880639421}},"20":{"bias":-0.243868296537442,"weights":{"0":0.35707565543002123,"1":-0.1273745132427568,"2":-0.04356112371318531,"3":0.08383587698850865,"4":-0.649573724495688,"5":0.02033504331817632,"6":0.27132292314149403,"7":-0.24635395313036795,"8":0.7195117402459508,"9":-0.5469343704398157,"10":-0.03758213396447747,"11":-0.8759243511811223,"12":-0.4942270790539313,"13":-0.1435303583149361,"14":-0.5635550532228646,"15":-0.0970950671951209,"16":0.0175927602100862,"17":-0.08572453612166468,"18":0.060483032010756776,"19":-0.3429119540845946,"20":-0.2002039752506397,"21":-0.018639204432819672,"22":-0.04861439043477296,"23":-0.40463833281126377,"24":-0.2625654944687547,"25":-0.41021723252449477,"26":-0.12132757042913277,"27":0.4760462580169205,"28":-0.2940879603254438,"29":0.1075437074043437,"30":-0.19280788225014112,"31":-0.2566898103389002,"32":-0.3286338241666715,"33":-0.3152587864543183,"34":0.2345343533413102,"35":-0.8761085708902994,"36":-0.031168835886819173,"37":-0.0018560085857999326,"38":-0.23594487693031713,"39":-0.01964206052822709,"40":-0.30191063289344927,"41":-0.5335324239652779,"42":-0.31054168950858696,"43":-1.2726412773796407,"44":-1.0970113926110279,"45":0.28939512932800004,"46":0.33988931549938894,"47":-0.23651536129841053,"48":-0.16443799504592613,"49":0.16177166827263742}},"21":{"bias":-0.3324548481681642,"weights":{"0":0.15343744388092737,"1":-0.11754067797169009,"2":0.04303321624930355,"3":0.185096389684775,"4":0.1446687529294512,"5":-0.0070623842917722345,"6":-0.17717819244685146,"7":-0.2963307183694238,"8":-0.1642419656078798,"9":-0.35432496137897984,"10":-0.35682453038535317,"11":-0.3008756622514754,"12":-0.14311374518420783,"13":-0.02037779672683344,"14":-0.11723011762981624,"15":-0.21773075371997486,"16":-0.26523712737755073,"17":-0.14835176312590656,"18":-0.20444638920062674,"19":-0.14990643703571133,"20":0.020288360631983776,"21":-0.32736796976059296,"22":-0.28996664420890683,"23":-0.11885416446965429,"24":-0.029951955793240937,"25":-0.19035755929023257,"26":-0.02098369601636349,"27":-0.1480592363202119,"28":-0.15529001144609558,"29":-0.10734736030420614,"30":0.04908468567626051,"31":-0.15185403163092304,"32":-0.3284355347461733,"33":-0.05426124135691197,"34":-0.40690076452394786,"35":-0.3642510949562578,"36":-0.2235930242258132,"37":-0.06684831075688395,"38":0.03260997044603481,"39":-0.06071151235448978,"40":-0.14347828941786622,"41":-0.1982897966618009,"42":-0.15665372550797443,"43":-0.6782806514055095,"44":-0.38209930405107856,"45":-0.10407336378701905,"46":-0.14394534111832694,"47":-0.24327771975750054,"48":0.018736154712559308,"49":-0.3250073570153832}},"22":{"bias":-0.2541835959947687,"weights":{"0":0.36552448343289295,"1":-0.035176638268156854,"2":-0.1790400241560241,"3":0.06590274855659702,"4":0.5795747223205435,"5":-0.17673108957519015,"6":0.6217348297342242,"7":-0.06186685936900967,"8":0.6432035905983955,"9":-0.30241869278409844,"10":-0.44829317917773587,"11":-1.3214451895194346,"12":-0.31425234064749097,"13":-0.056248744824703684,"14":-0.08568629690448541,"15":0.19152300226456873,"16":-0.011807233345079077,"17":-0.17643151524197825,"18":-0.1449728292305727,"19":-0.38920682007439394,"20":-0.2928489080816376,"21":-0.11385140704019135,"22":-0.35110917219001947,"23":-0.6054944024169268,"24":0.0053376351471035016,"25":-0.3599088394139204,"26":-0.18391366368015133,"27":-0.00004349367275777647,"28":-0.23366166472921077,"29":-0.13697342782796001,"30":-0.09724443974733805,"31":-0.09536430619974866,"32":-0.29876586562194823,"33":-0.5163203970335069,"34":-1.1330211996526052,"35":-0.7949829292899316,"36":-0.018941308126096356,"37":-0.21267563240314416,"38":-0.04372073591660902,"39":-0.20707062399036885,"40":0.10881607925956169,"41":-0.1256252582234978,"42":0.029221398048210192,"43":-1.1796698804782897,"44":-0.7898521194318098,"45":0.11348990474004438,"46":-0.06762441802561688,"47":-0.10177271707532358,"48":0.19658765129186742,"49":-0.4381043874171727}},"23":{"bias":-0.4182164265552835,"weights":{"0":0.5310906774063056,"1":-0.2657267896269797,"2":-0.2894942188157088,"3":-0.13386911749186867,"4":0.2580056807277136,"5":-0.19384761727362887,"6":0.7625302427140709,"7":-0.2747782621757793,"8":1.057031994344061,"9":-0.6057469089092405,"10":-0.6182931673853499,"11":-0.9700129841890154,"12":-0.11764234536173046,"13":0.020064325671948623,"14":-0.24557324579501705,"15":-0.13869592296465263,"16":-0.24379183363424967,"17":-0.4653118493677165,"18":-0.3004943142360281,"19":-0.23216483899863688,"20":-0.13007237985907577,"21":-0.20214040374371323,"22":-0.5662214663285641,"23":-0.28185013560342614,"24":0.04194752128649302,"25":-0.07199244559853814,"26":-0.2713392831183548,"27":0.04815073006486377,"28":-0.3180677767438044,"29":-0.32693053647362474,"30":0.06614704350158901,"31":0.10818874371670527,"32":-0.5515628957969522,"33":-0.1548933422942349,"34":-1.140816372602169,"35":-1.0962000165302896,"36":0.006620290271352537,"37":-0.23918648187953215,"38":0.008102091860930192,"39":-0.37860897996284854,"40":0.1390735118690975,"41":0.026691671650222744,"42":-0.15046412339128146,"43":-1.3197880723358308,"44":-0.9588655408022377,"45":0.047674803266554724,"46":0.23764193662642435,"47":-0.07529423695110941,"48":0.1363596518109115,"49":-0.34022039573673496}},"24":{"bias":0.19346105925186638,"weights":{"0":0.2969369687991903,"1":-0.10340516455122434,"2":-0.009833010095270999,"3":0.20394057599341228,"4":0.06033699978941831,"5":-0.1362870222080671,"6":0.38155760463804295,"7":-0.11838836092496832,"8":0.16219241734065284,"9":-0.7298973306869229,"10":-0.44278912538964266,"11":-0.2729358296067849,"12":-0.24922524805964735,"13":-0.1755286598154751,"14":-0.6448323820961255,"15":-0.17815145334654675,"16":-0.3700036558342922,"17":-0.3335705994572867,"18":-0.048541445779871815,"19":0.0012976224931515526,"20":-0.11457979661365801,"21":-0.2333183562633759,"22":-0.7322748128244169,"23":-0.4858381318467497,"24":0.19344499894278638,"25":-0.9402679123926783,"26":-0.4161399601413103,"27":0.5047778596433425,"28":-0.34717004103452304,"29":0.06284700199039008,"30":0.3149709716650036,"31":-0.2318653069522309,"32":-0.11277138577933186,"33":-0.093964273828216,"34":-0.5096107593876321,"35":-0.7084230568045017,"36":-0.1748836187990594,"37":-0.19381981782251975,"38":-0.2767877210010359,"39":0.022744664443379706,"40":0.12711756023589807,"41":-0.5532799495846512,"42":-0.03335321548261113,"43":-0.7636895252183077,"44":-0.5089055310805263,"45":0.3109941578000054,"46":0.2620064516456388,"47":-0.28954194061402466,"48":0.062284701317697366,"49":-0.776826904250456}},"25":{"bias":1.075175303431037,"weights":{"0":0.41059863848109496,"1":-0.3348564036821062,"2":-0.3155538336314692,"3":0.1471369248203484,"4":-2.011543850457252,"5":-0.042914164081903024,"6":0.4951257726379469,"7":-0.3003406385081768,"8":3.504144463935401,"9":-0.5191127743216299,"10":-0.3058825103679476,"11":0.4957772701178677,"12":-1.5312304387740385,"13":0.030908214912701237,"14":-0.8136929241753303,"15":-0.2143403755383571,"16":-0.4514883226175788,"17":-0.45410591328218025,"18":-0.01714893022331731,"19":-0.5368154357472381,"20":-0.09515073107870964,"21":-0.3845794433639139,"22":-1.3829584676110511,"23":-1.1211317925538138,"24":-0.07689411026573084,"25":-0.8021229328180385,"26":-0.7019474452180969,"27":1.1256853629058277,"28":-0.2503610244055051,"29":1.6822535841165018,"30":0.39563145559138946,"31":-0.1684583997786852,"32":-0.4889372588947065,"33":-0.6172080759535318,"34":-0.28241267646126955,"35":-0.8429787080209509,"36":0.11348851311721346,"37":-0.4101460868347763,"38":-0.5652641040410922,"39":-0.39544050502986977,"40":-1.5592468186040567,"41":-1.9193885859420612,"42":0.03844368844345,"43":-0.9275248286918,"44":-0.7746829541887384,"45":1.028759475499849,"46":1.2405806593483057,"47":-0.69282305462061,"48":0.5241920546431191,"49":1.352478553383372}},"26":{"bias":0.012712072767504575,"weights":{"0":0.6299666793785813,"1":-0.1838800688940084,"2":-0.10517396753187189,"3":0.24768668776962138,"4":0.06362179848525149,"5":-0.10404613683866956,"6":0.49504312381735815,"7":-0.15084064962105553,"8":0.3601161731325007,"9":-0.6926438999956082,"10":-0.030711660476478796,"11":-0.5358509320774333,"12":-0.3244524673512616,"13":-0.3782119280626581,"14":-0.7168383912572105,"15":-0.1995737992114215,"16":-0.07908705725592664,"17":-0.17798477957960882,"18":-0.011331340705578442,"19":-0.018054442783992257,"20":-0.20947710887082494,"21":-0.2231958872552729,"22":-0.5742239611049469,"23":-0.2469574998790005,"24":-0.12089248654077728,"25":-0.5417169454176121,"26":-0.1411302012143229,"27":0.42137568290009947,"28":-0.30705536409796524,"29":0.10942137518972511,"30":0.25053725634382634,"31":-0.011272506611952919,"32":-0.39737237180336854,"33":-0.11887992693149747,"34":-0.5558471285371855,"35":-0.7715414134872562,"36":-0.03882793951682065,"37":-0.06698998163646638,"38":-0.2877844566602858,"39":-0.27038279047956343,"40":-0.026683780189665753,"41":-0.6522659825540114,"42":-0.2656999267302605,"43":-0.8394194243520412,"44":-0.8279113701944214,"45":0.16171671821684325,"46":0.2961457273563952,"47":-0.2190438686782333,"48":-0.05731113749386052,"49":-0.4971334927122634}},"27":{"bias":-0.44414348235236795,"weights":{"0":-0.4366408900351507,"1":-0.18644092596679981,"2":-0.18818920237422937,"3":-0.3982628389561453,"4":-1.1327833723940974,"5":0.16473346586646923,"6":0.7214161221610034,"7":-0.025975863913746188,"8":0.4251063192413689,"9":-0.26895379005811393,"10":0.24232025844531427,"11":-0.8002690940743372,"12":-0.14594359629348236,"13":-0.6357259689040308,"14":-0.8529854555434038,"15":-0.6890345567225623,"16":0.09225380640410634,"17":0.23632168696539488,"18":-0.040874514562096904,"19":0.1968687462740534,"20":0.19774590380101498,"21":-0.4174754898301055,"22":-0.625102308775921,"23":-0.03907497996015685,"24":-0.24124821931094712,"25":-0.7702876692348566,"26":-0.38887417130644214,"27":0.4345251161486091,"28":0.19164160935138805,"29":-0.47297423773366626,"30":-0.1510605328205519,"31":-0.30320131859414384,"32":0.1910035075592627,"33":0.20197624857491212,"34":-1.437427665742973,"35":0.3262033713206679,"36":-0.3127979885837392,"37":-0.35901354959802406,"38":-0.5567998811822811,"39":-0.19852414600163068,"40":-0.43937523993249494,"41":-0.3309334709095134,"42":-0.19850887655375438,"43":-0.1405466685200665,"44":0.04298077548275861,"45":0.32267372300400454,"46":-0.11776391458986477,"47":-0.416679436412523,"48":-0.5429308670117589,"49":-1.377496726473265}},"28":{"bias":-0.4305750313530843,"weights":{"0":0.5881558949617148,"1":0.027358719635617413,"2":-0.11571358740969319,"3":0.19470974433845378,"4":0.601722800743694,"5":-0.08106421955261355,"6":-0.07589793779819796,"7":-0.11983071176887342,"8":0.07110769007680925,"9":-0.5170721039985399,"10":-0.4598097756463618,"11":-0.65318568535185,"12":-0.11079963426946562,"13":-0.00796398746522065,"14":0.17322819174874024,"15":0.19041180425891271,"16":-0.3724055085803288,"17":-0.34068228663225397,"18":-0.21389751557853637,"19":-0.4115099591996048,"20":-0.11954576378692953,"21":-0.31900694453266215,"22":-0.4944829626134577,"23":-0.15669216331163235,"24":-0.15311171043324204,"25":0.21026414239739286,"26":-0.14998020733296433,"27":0.030505430127065948,"28":-0.2741028736530252,"29":0.07003716622366786,"30":0.021699368327885278,"31":0.019818686569864692,"32":-0.21803082697818496,"33":-0.16542291264143624,"34":-1.0402386033307232,"35":-0.8745848481493205,"36":-0.2569359002947198,"37":0.08432479664653779,"38":-0.04304290963163465,"39":-0.29009982699956366,"40":-0.15195300260626338,"41":0.17872049227050793,"42":0.0037472672839040017,"43":-1.0165842236249587,"44":-0.9014859287034801,"45":-0.13463022033882285,"46":0.258089492887441,"47":0.034881054257756026,"48":0.13378593846944353,"49":-0.2316151468211301}},"29":{"bias":-0.39548177925418737,"weights":{"0":0.1661775387729582,"1":0.056941296932371675,"2":-0.12197155312718097,"3":-0.22520417211817273,"4":0.10369708256941645,"5":-0.14749941578494183,"6":0.22065799778074222,"7":-0.06103032020617692,"8":0.5182010194618968,"9":-0.45315735253380396,"10":-0.28770734529691094,"11":-0.9096856626462839,"12":-0.1428896392057444,"13":-0.3076398449311622,"14":-0.22925696953710184,"15":-0.0006502307772034716,"16":-0.10668547494419126,"17":-0.34784136013720324,"18":-0.2137157511173506,"19":-0.20348771991269482,"20":0.11142934607514506,"21":-0.03896295966296874,"22":-0.2816455061870758,"23":-0.5448460640519615,"24":0.09247836625185778,"25":-0.2828188711298841,"26":-0.05457225385654555,"27":0.2549599152936463,"28":-0.25174099988754667,"29":-0.11509329361629063,"30":-0.26569451164512436,"31":-0.17305050657129964,"32":-0.13478152088495038,"33":-0.3323848526971823,"34":-0.20775509137332215,"35":-0.5698564105423864,"36":-0.0315654201756405,"37":-0.12045398613311652,"38":-0.2939318279838092,"39":-0.06928526639323775,"40":-0.33609388300766996,"41":-0.4382334115296896,"42":-0.17467323957893102,"43":-0.8713659441813948,"44":-0.7388383230129181,"45":0.12160721955965423,"46":-0.11332435369150369,"47":-0.13142206164127068,"48":-0.13188606305987094,"49":-0.09047130668848871}},"30":{"bias":-0.21877790091108007,"weights":{"0":1.3315340847097168,"1":-0.09867635865156181,"2":-0.26624085422366606,"3":-0.1525311504832296,"4":-1.359888516784825,"5":-0.21541233533457493,"6":1.350061863545455,"7":0.41365287046536336,"8":-2.415818669532869,"9":-0.31562227714973234,"10":0.6770355220112496,"11":-0.889872811695229,"12":-0.6485062972060798,"13":-0.21342508629485216,"14":-1.192415457749105,"15":-0.50150801688748,"16":0.9358909289754915,"17":0.43609841914976766,"18":-0.13367800360297075,"19":1.717720058410129,"20":0.3236025075821098,"21":0.7850022198613238,"22":-1.0384206899443682,"23":0.5195145420464459,"24":-0.15369688607204537,"25":-1.2049374493670653,"26":-0.5921623011570699,"27":0.5224941336914574,"28":0.13819282330715096,"29":1.0711675545836412,"30":-0.03116312142701209,"31":-0.2411348217120448,"32":0.4934358400463477,"33":0.11063091675131934,"34":-0.7571325880471482,"35":1.0953303115729214,"36":-0.2553134103412501,"37":-0.5286037122748735,"38":-0.30070645303232824,"39":-0.10744128254057961,"40":-1.6136590337987422,"41":-0.5818658519243669,"42":-0.37196438445590896,"43":-0.06416055615052509,"44":0.1894154205870896,"45":0.244404384507298,"46":-0.055078277826808714,"47":-0.5300656754297899,"48":0.3960546949709675,"49":-4.063293026083352}},"31":{"bias":-0.18039627134064556,"weights":{"0":0.49552131439993774,"1":-0.06380995725084893,"2":-0.003285576204680333,"3":0.009386934328617187,"4":0.03629470384626754,"5":-0.15896845135675916,"6":0.26377988094705485,"7":-0.29626864729397057,"8":0.5104374808995549,"9":-0.3784637412283846,"10":-0.28318499829788735,"11":-1.217991769664204,"12":-0.1313865690159888,"13":-0.00778880122002506,"14":0.2111981717615448,"15":0.2162732734949498,"16":-0.08564706001065903,"17":-0.14404865471976752,"18":0.022594853854969527,"19":-0.5062220174648955,"20":0.0453966411570247,"21":-0.18018697011792842,"22":-0.5113564878635423,"23":-0.22642927834254972,"24":0.03428175168644755,"25":-0.04380570083380911,"26":-0.3089024144328138,"27":0.01895015761054605,"28":-0.4631658502381981,"29":-0.36865172121065426,"30":0.21000910826232688,"31":-0.08484407766352221,"32":-0.20949304604856286,"33":-0.17903052554769427,"34":-0.9863221730018473,"35":-0.7481612646034856,"36":-0.1724859884078102,"37":-0.22527809762763626,"38":0.13274547868314468,"39":-0.15860194783090253,"40":0.1682016186313545,"41":0.00484882037560111,"42":-0.017471770252660404,"43":-1.2257125609094317,"44":-1.172929892327341,"45":0.18793737775455424,"46":0.19163142997015487,"47":-0.20127999159719104,"48":0.2733065593235136,"49":-0.6002340442067443}},"32":{"bias":0.04929298233078366,"weights":{"0":0.12122992163191769,"1":0.36842883799955506,"2":-0.21209993711362538,"3":-0.06336722391116668,"4":-0.03359002161783719,"5":0.05983872590865598,"6":1.5383095734462349,"7":-0.37632590907917013,"8":0.4372760056227813,"9":-0.6462232737902857,"10":-0.1347585034465105,"11":-0.2001410469486623,"12":-0.3688457503257498,"13":-0.3939211308662049,"14":-1.057381060021967,"15":-0.27945755995559546,"16":-0.3823690147175593,"17":-0.28694185012039036,"18":0.1757477269052013,"19":0.10932641949999305,"20":-0.1964021542751705,"21":-0.19848882327602785,"22":-1.7825503985439568,"23":-0.1757037112783675,"24":0.18615419940889097,"25":-1.3511220140335274,"26":-0.07972311681230894,"27":0.6722589235313532,"28":-0.13674731040106644,"29":-0.3420895671846056,"30":0.3057857529591818,"31":0.029687796318668986,"32":-0.07546132667660789,"33":-0.32834641014139976,"34":-0.9742346066121467,"35":-0.056555293683575425,"36":-0.20134213253468314,"37":-0.17057151753036684,"38":-0.15127014708301476,"39":0.045246359648968074,"40":-0.15508396899862653,"41":-0.787177284787798,"42":-0.242813416796882,"43":-0.8440838678519434,"44":-0.5927480987922519,"45":1.1070015664403312,"46":0.2940404534837655,"47":-0.2781406117981791,"48":0.09204888338169395,"49":-2.009752351884665}},"33":{"bias":-0.6967793503794745,"weights":{"0":1.2151937831356694,"1":-0.23377416568915318,"2":-0.2787849625466512,"3":-0.00398918352766401,"4":1.0554795637618721,"5":-0.23553980930094698,"6":1.7694724495201655,"7":0.0633013823718632,"8":1.55190481836619,"9":-0.5631354416063483,"10":-0.38414197172917525,"11":-0.9071283258600628,"12":-0.5365577114707372,"13":0.1392039467789725,"14":-0.538186020849348,"15":0.29424679783855334,"16":0.27300300101474906,"17":0.002260098579759932,"18":-0.05682431240475246,"19":0.3407471871473227,"20":-0.09508064753592785,"21":0.17539862174724602,"22":-0.6274204956100156,"23":-0.767762936405505,"24":0.25090909790466426,"25":-0.7317249839929326,"26":-0.30460145297555696,"27":-0.01231464737745491,"28":-0.43010508799713487,"29":0.5917687532113808,"30":-0.1555873485515072,"31":0.07367357673111626,"32":-0.485339857642194,"33":-0.310048614977117,"34":-1.9073036333911328,"35":-1.7379889081676652,"36":-0.06315999271020656,"37":-0.16716544302495098,"38":-0.2217958634299715,"39":-0.23707929077814163,"40":-0.23816664828130313,"41":-0.6676063692659817,"42":0.003522703498380889,"43":-1.6369754111079937,"44":-1.5377796005492228,"45":0.2723402766371747,"46":0.2881893176704362,"47":-0.44216238290304993,"48":0.22409084945501068,"49":-0.9840509314169388}},"34":{"bias":-0.5340126402789438,"weights":{"0":0.27621352142573125,"1":-0.9882414084860497,"2":-0.11487333330387128,"3":-0.5074348943848801,"4":-2.03898429834336,"5":-0.697095103002564,"6":0.23758169685311106,"7":1.549982238322126,"8":2.0357364755867016,"9":0.9705909733969343,"10":1.499238147909605,"11":-0.6078909143038705,"12":-2.331828729756304,"13":0.052611516998508426,"14":-1.4853242770321518,"15":-0.25633977048378787,"16":1.2426717412699024,"17":0.7427771673363205,"18":-0.12054029948104317,"19":2.0317633669378807,"20":-0.203958895923015,"21":1.0441618403253745,"22":-4.15671218279418,"23":-0.10931099178764603,"24":-0.839717570350841,"25":-0.8579161581967385,"26":-1.526845154629555,"27":0.14261683114664167,"28":0.5085923874030639,"29":2.5840111925963978,"30":-1.0785303990935569,"31":-0.4202182837318711,"32":0.4590173712441371,"33":0.004855735839613931,"34":-3.628932448953878,"35":2.4051240522985413,"36":-0.19867790588081624,"37":-0.9599522430717551,"38":-1.2798094033556084,"39":-0.26240722538862365,"40":-3.153621140137015,"41":-1.746755852304108,"42":-0.47014775885050303,"43":2.9573648841736935,"44":3.5406871537894897,"45":-0.6034587997259447,"46":-0.7920514204993464,"47":-1.494490299527414,"48":0.15507384577899466,"49":0.29716252056432196}},"35":{"bias":-0.2506046813719383,"weights":{"0":1.164437871903504,"1":0.08093163388237921,"2":-0.1476102920190626,"3":0.1822063730805543,"4":0.6311620076787215,"5":0.11869042601402349,"6":1.6662676252942872,"7":0.23632148829842595,"8":0.9152509812645498,"9":-0.5286318359541452,"10":-0.4316902389164078,"11":-0.9480323963814306,"12":-0.5482865876602592,"13":0.09844807154494228,"14":-0.6965270739054821,"15":0.3569913421757994,"16":0.18178571033380622,"17":-0.12429907568058038,"18":-0.02765227193872195,"19":0.03292702751534486,"20":-0.3635082656888333,"21":0.15724844594551007,"22":-0.5978312060697409,"23":-0.4273766229198834,"24":0.206205206757871,"25":-0.7832280091715564,"26":-0.23822478637648545,"27":0.0923336614584631,"28":-0.3983728709116565,"29":0.5837888648769625,"30":0.17880441340269576,"31":0.13316666798489177,"32":-0.3395770432856049,"33":-0.14583574949357353,"34":-1.9343646917220212,"35":-1.0411019144761495,"36":-0.09250137713144366,"37":-0.05495354772294296,"38":0.14486138881666494,"39":-0.3065306646467899,"40":-0.3833980409661166,"41":-0.39414480991478007,"42":0.002552772145516676,"43":-1.6154302826303362,"44":-1.4821297482079248,"45":-0.04422245093218826,"46":0.2036569629922955,"47":-0.35678864756740375,"48":0.3614168372998993,"49":-1.0955954160542982}},"36":{"bias":-0.08441914628009511,"weights":{"0":-0.20497762624259905,"1":0.12267261844159656,"2":-0.05285248974175876,"3":-0.229297737635029,"4":-0.25129953274637,"5":-0.12360217064738929,"6":0.5831304882219868,"7":-0.24392558087180424,"8":0.5572699300014786,"9":-0.31939006790472396,"10":-0.18922387786672826,"11":-0.6153356840814893,"12":-0.42362944606396596,"13":-0.2983975038012385,"14":-0.42324154058279423,"15":-0.29993451251542724,"16":-0.3028748936773936,"17":-0.22431106705629406,"18":0.0054010888828425075,"19":-0.25838425267867327,"20":0.07447765080099175,"21":-0.08597266662168568,"22":-0.4499173995785551,"23":-0.20629172957788042,"24":-0.2410549384875752,"25":-0.5802828934107442,"26":-0.2525754543111002,"27":0.14681771472515942,"28":-0.2336940695808399,"29":-0.2577745231933677,"30":0.007459680850471723,"31":-0.30733148592957876,"32":-0.028640950606658326,"33":-0.25128900926231396,"34":-0.8041637036498842,"35":-0.4417417542109071,"36":-0.051370690518924185,"37":-0.12803138725154728,"38":0.00047487474430288855,"39":-0.27604369008317103,"40":-0.26351122987811954,"41":-0.5900159426119748,"42":0.07040114255914132,"43":-0.6226531333973498,"44":-0.5962245563061509,"45":0.19318718691130168,"46":0.22613409682629856,"47":-0.12774557398431904,"48":-0.2508355530534695,"49":-0.7861805934034287}},"37":{"bias":0.159974925101916,"weights":{"0":-0.17460702396408495,"1":0.022611620769001455,"2":-0.12427256629527587,"3":-0.2809954749289912,"4":1.543560210125268,"5":-0.04716267839153899,"6":2.7416060063347296,"7":0.49418499922286324,"8":0.7783970995859204,"9":1.1091307786723412,"10":-0.7169940213075431,"11":-1.2492914936668307,"12":0.0391998612150115,"13":-0.8898091075996898,"14":-0.19799334159296156,"15":-0.11587187613565034,"16":-0.06645253560994901,"17":0.34708273064486495,"18":-0.06347164558319716,"19":-0.5488140230053957,"20":-0.2575603593722442,"21":-0.7572499544795392,"22":-0.8865397177455177,"23":0.27876611782683486,"24":0.027139362411434755,"25":-0.24139117828242315,"26":0.20959343035995617,"27":-0.6813228693273894,"28":-0.006115592208171918,"29":-0.8267227595991771,"30":-0.19005380932740237,"31":-0.04403433246759713,"32":0.16146037878299882,"33":0.2887598241772257,"34":-4.506171957532935,"35":-1.9761085395095737,"36":-0.0593565256137581,"37":0.18369644665371707,"38":0.03846943054784947,"39":0.19034282738656724,"40":0.9436120908753244,"41":0.6722481009235971,"42":0.046650095117425204,"43":-0.6201763390841317,"44":-0.427440610851842,"45":-0.534628909434194,"46":-0.5610663149905067,"47":0.20022638252190317,"48":-0.9370747053981214,"49":-3.778973331066592}},"38":{"bias":0.8541129596127857,"weights":{"0":-0.1322108846632273,"1":-0.29570637621074414,"2":0.09999910643679429,"3":0.0869023856853145,"4":-1.49655315345917,"5":0.0036376091238848494,"6":1.0167325000088314,"7":0.838146144584124,"8":1.6484144106600296,"9":0.627476415387823,"10":0.7407441011851315,"11":-0.35941853287824127,"12":-1.0235682421896601,"13":-0.028272138607678434,"14":-0.829315886010699,"15":-0.48544004925108875,"16":0.7864015387900017,"17":0.48543271956072154,"18":0.33080173133532836,"19":1.208883851475514,"20":0.2765860193967063,"21":0.7520574694270354,"22":-1.3014533315849568,"23":-0.06863798769049378,"24":-0.33725598847216914,"25":-0.5782471587993276,"26":-0.7964996910908194,"27":0.34532457436645075,"28":0.21249431066363675,"29":2.1105339034383857,"30":0.1311656645365797,"31":0.041725567323013545,"32":0.4880776874759375,"33":0.2031488273746649,"34":-1.173277218946313,"35":1.7760065671162535,"36":0.13188482259070852,"37":-0.47567548707600754,"38":-0.5631421891059578,"39":-0.003885280228280761,"40":-1.4467895957268533,"41":-1.3310303571753672,"42":-0.13513754899821656,"43":1.0835652750385056,"44":1.4327218689004313,"45":0.24127829717697613,"46":-0.07950393745352931,"47":-0.8147711058270547,"48":0.045808729892758,"49":1.0508848032144198}},"39":{"bias":-0.23471570407380407,"weights":{"0":0.5028495530195768,"1":-0.036255924425412776,"2":-0.22405038170033792,"3":-0.12971083141208953,"4":0.5453073649003259,"5":-0.10103454677530528,"6":0.2294693328209755,"7":-0.17331695147435097,"8":0.7061350287619915,"9":-0.3299280198635487,"10":-0.3475801831098845,"11":-1.2971194791430445,"12":-0.11297990621668241,"13":-0.03637930294465784,"14":-0.13525195463599438,"15":0.2019621484304639,"16":-0.172452742599068,"17":-0.3145184752108548,"18":-0.3159394307438584,"19":-0.5073466267826154,"20":0.052598494580417265,"21":-0.3476030291741681,"22":-0.32035198195891984,"23":-0.49974078850564,"24":0.04723889707887584,"25":-0.0859895751185842,"26":-0.1436822334373205,"27":0.06734118315611162,"28":-0.3224267020563334,"29":-0.4800849966214819,"30":-0.06561832125428682,"31":0.190560630002185,"32":-0.5312251887093514,"33":-0.46005489571616215,"34":-0.8946311978735308,"35":-0.8232993202491937,"36":-0.1914519688945123,"37":-0.0731128180952806,"38":0.08473178474719938,"39":-0.13808167612538177,"40":-0.023596524810152706,"41":-0.09044117206617718,"42":0.08783470843514937,"43":-1.166027821929766,"44":-0.8972681468950553,"45":0.007846320393654982,"46":-0.016560277044439003,"47":-0.2697152227949899,"48":0.1565925351729884,"49":-0.4982864300291497}},"40":{"bias":1.1028743254618303,"weights":{"0":1.2230678299500382,"1":-0.007442466460579107,"2":0.023618260682826485,"3":0.6259969744226346,"4":-1.1752760820792538,"5":0.19631754439405794,"6":0.0377690819902227,"7":-0.5069690223949151,"8":3.699493076374941,"9":-1.0496591726573565,"10":-0.7482231060632398,"11":0.022033595744042112,"12":-1.4788185343780897,"13":0.2987242311897171,"14":-0.8320323159049344,"15":0.11871365392727333,"16":-0.36418445479865497,"17":-0.6668312371549591,"18":-0.0013397791201224193,"19":-0.40165059964357075,"20":0.10632622897739893,"21":-0.09246945239634344,"22":-1.6102009638286185,"23":-1.1615654573302705,"24":0.06052478242755642,"25":-1.2823270262690654,"26":-0.7436701718155556,"27":1.178106309048841,"28":-0.45460231642345966,"29":1.9549345875646642,"30":0.6139396998068873,"31":0.014597086938298625,"32":-0.8300035938869152,"33":-0.7678283649671109,"34":-0.45854093403335144,"35":-0.9956116492296745,"36":0.1424586119831043,"37":-0.42476789804909804,"38":-0.3382982283779759,"39":-0.33525331096207567,"40":-1.6491066224049507,"41":-1.8587715051812608,"42":0.0789435447882437,"43":-1.18378799787612,"44":-1.1362679050136018,"45":1.0338205456192182,"46":1.6577338400762507,"47":-0.7166916730737225,"48":1.0915797838112846,"49":0.9896444823293098}},"41":{"bias":-0.30011965115991646,"weights":{"0":0.8201867380052571,"1":0.06068500552251306,"2":-0.12970991241807106,"3":0.23900223915708851,"4":0.5511426417553531,"5":-0.21639133050162254,"6":1.0393125436870279,"7":-0.20978710553359745,"8":0.2183769310405954,"9":-0.37886686405407843,"10":-0.5386381724469129,"11":-1.0930189507049635,"12":-0.5090947503683971,"13":0.20397954171486846,"14":-0.16837864231645921,"15":0.28807264652293835,"16":0.07900646182639251,"17":-0.14697843086974371,"18":-0.10004544568486093,"19":0.21036041456079405,"20":-0.07446818284115873,"21":0.04833778317797536,"22":-0.4964848155958334,"23":-0.337687529573763,"24":-0.0709680771957554,"25":-0.40367634479026937,"26":-0.13257273853072693,"27":0.08848535731290058,"28":-0.4689778054835486,"29":0.17873121460967908,"30":0.2958017643415107,"31":-0.06764432613893717,"32":-0.256338024819228,"33":-0.2799292385423126,"34":-1.4073174045659058,"35":-0.7141684373898636,"36":-0.14433075995286268,"37":-0.12010272901113722,"38":0.17579399018075523,"39":-0.2140719980986728,"40":-0.14946499622866855,"41":-0.42770778648132396,"42":0.10094200435081029,"43":-1.184494965019902,"44":-1.214776959192842,"45":0.0877374281348768,"46":0.40261540788835676,"47":-0.388025740735247,"48":0.5018660768066364,"49":-0.7127017691502425}},"42":{"bias":-0.05547415312089574,"weights":{"0":0.47088708464406176,"1":0.6623702324107271,"2":0.12602462934416817,"3":0.47682768242865703,"4":4.502822651925317,"5":0.374512583597611,"6":-0.5056619513829066,"7":-0.44545902557950523,"8":-1.1772654051268354,"9":-0.3475321296742247,"10":-0.7217334808969635,"11":-2.4966102641613017,"12":2.0414147824508824,"13":0.33132338251947924,"14":0.6606108303346757,"15":0.3989492517427982,"16":-0.6438677766235772,"17":0.11051741693967605,"18":0.25400703606422853,"19":-0.8318309641561311,"20":0.15161105547959128,"21":-0.9040678867959236,"22":1.202724604011491,"23":0.8869613158712049,"24":0.4446607597907966,"25":0.5285089640596385,"26":1.1001851118487993,"27":-0.4689953352916662,"28":-0.1900131101071354,"29":-1.90108144282151,"30":0.4977151512089352,"31":0.4577522656102797,"32":0.1916191974587004,"33":0.07763767511060095,"34":-2.386425738703301,"35":-1.807473294923549,"36":0.007224119328663392,"37":0.5609069660432663,"38":0.9866773456013461,"39":0.1699772184726497,"40":3.3274161783812635,"41":2.116334974125655,"42":0.4372451295199393,"43":-0.48949686513338264,"44":-0.8816314660550019,"45":-0.03144083968553311,"46":0.45187473243490084,"47":0.9530647965255884,"48":0.6686178241160968,"49":-2.8739632273363678}},"43":{"bias":-0.15778744654310184,"weights":{"0":1.6765053026374008,"1":-0.030492508012851086,"2":-0.00854162767178448,"3":0.3680471907725741,"4":0.690164830099676,"5":-0.03794650271876435,"6":1.6432349474429142,"7":-0.5964096531228908,"8":2.3212146052738936,"9":-1.3996594992670164,"10":-0.355833029351696,"11":-0.018432504631673275,"12":-0.183981599757704,"13":0.5177257898323095,"14":0.5998908119045228,"15":0.08542967706681964,"16":0.04145908308000244,"17":-0.3005828196144086,"18":0.11470776218710219,"19":0.010342479757539092,"20":-0.1359389554491444,"21":-0.1720659804322204,"22":-0.21314829548240177,"23":-0.6860492719756315,"24":0.0760352204649702,"25":0.8222377955960181,"26":0.15315388128717886,"27":0.36428431401780004,"28":-0.4507079085702262,"29":0.38618968756888145,"30":0.1421832069825957,"31":0.28052477286651084,"32":-0.31076180144430693,"33":-0.37385619912104384,"34":-0.2726917515912087,"35":-1.3343946094823296,"36":0.1180244670248119,"37":0.10603957794598727,"38":0.06580437905907939,"39":-0.041409487028776344,"40":-0.4908052105995124,"41":-0.26570485271376537,"42":0.29309953333823974,"43":-2.8040914382385886,"44":-2.340913510602268,"45":0.29492373725442367,"46":0.12685907164828797,"47":0.002250431571486448,"48":0.8356720006622297,"49":0.6673967141031535}},"44":{"bias":-0.28987038268520915,"weights":{"0":1.3122046584534295,"1":0.12386523812084864,"2":-0.21211837073121093,"3":0.24151629656054505,"4":0.9820817566870007,"5":-0.15606521624662004,"6":2.1005004058570127,"7":0.2936699700497446,"8":1.0347885420277498,"9":-0.31840484145026415,"10":-0.6196952665135469,"11":-1.9576839945654037,"12":-0.6763769823241057,"13":0.26127527150579477,"14":-0.23734769691665314,"15":0.4881273914444202,"16":0.42893720449076944,"17":-0.14583824568682063,"18":0.011588286930968476,"19":0.09151154532155933,"20":-0.12283332251371372,"21":0.35700622594566767,"22":-0.6807648487579637,"23":-0.6124214264236878,"24":-0.012572176919919178,"25":-0.6349795136273169,"26":-0.05245142778725634,"27":-0.10940588065406419,"28":-0.47225556023486254,"29":0.6204411473933793,"30":0.13534933211192296,"31":0.3271894645983234,"32":-0.3129719023697721,"33":-0.4679776324046705,"34":-2.029807904704767,"35":-1.1871102213990339,"36":-0.03542244393017841,"37":0.14044337595569586,"38":0.04006389970736849,"39":-0.09639432292562013,"40":-0.3159102901847932,"41":-0.5078211457841201,"42":0.061557511716118764,"43":-1.820342462687384,"44":-1.7093777373505097,"45":0.20679623671069458,"46":-0.02657128855399496,"47":-0.307239066625419,"48":0.3438725300299429,"49":-1.888694409600846}},"45":{"bias":-0.11006423894810942,"weights":{"0":0.13516814291443924,"1":0.06482043961921115,"2":0.027562729436141745,"3":-0.031735959990881295,"4":0.09426348315450499,"5":0.19960161677996718,"6":0.4358977202461419,"7":-0.3104194656883862,"8":0.46084972136977875,"9":-0.3212131637127914,"10":-0.05502573518907832,"11":-0.3067919669639422,"12":-0.3935350100358979,"13":-0.3859883832176336,"14":-0.6588255704555519,"15":-0.35950592876976484,"16":-0.021092492988810396,"17":-0.16388966020719375,"18":-0.05687219178739535,"19":0.038849665913717565,"20":-0.015131090216821793,"21":-0.3252747344629542,"22":-0.8207831412712643,"23":-0.2592526317173881,"24":0.03975793519878376,"25":-0.7278045319576323,"26":-0.3147244783684453,"27":0.14198144311872776,"28":-0.29241603708791725,"29":-0.08559442925239069,"30":0.25043564658569006,"31":-0.20875606993446064,"32":-0.3208962302788785,"33":-0.36994135821107554,"34":-0.546856437814163,"35":-0.3700100742256337,"36":0.08986821019046178,"37":-0.10151478844637664,"38":-0.24926279931570744,"39":0.013139561017058649,"40":-0.17271953571890927,"41":-0.5292534973355165,"42":-0.24717773474769578,"43":-0.4737968193222368,"44":-0.5931818105163184,"45":0.41557272698751935,"46":0.42370046198497197,"47":-0.3929428612292443,"48":-0.29755861400363165,"49":-1.1932146677489497}},"46":{"bias":0.09980845110815798,"weights":{"0":0.05467597264358923,"1":0.1148947272878061,"2":-0.06728449268281221,"3":-0.04217203636227274,"4":0.43922825059978926,"5":0.17448058499012986,"6":0.416499786085955,"7":-0.25879463741023057,"8":0.7899872748785016,"9":-0.6215133741881097,"10":-0.06615318883558909,"11":-1.4258870655621063,"12":0.2926504456213496,"13":0.08369890162682775,"14":0.06877455326874693,"15":0.2304390708924613,"16":-0.14308299884042217,"17":-0.5287525282264519,"18":-0.13443699423765126,"19":-0.3976205085492678,"20":0.2004369353639801,"21":-0.4724738463514141,"22":0.6818801234519963,"23":-0.43147107265907025,"24":0.21948564376146326,"25":0.12599903628645054,"26":0.04330104982200194,"27":0.4762599732984977,"28":-0.4288196308442353,"29":-0.5071345741494168,"30":0.1963517744171965,"31":0.24392149793158222,"32":-0.19860784412539778,"33":-0.23613573472790345,"34":0.5986946112133285,"35":-0.8596117845783325,"36":0.09605483819839794,"37":0.21564915540192753,"38":-0.1071174511166804,"39":0.006484778390384423,"40":0.051433368265523874,"41":-0.06288966473683542,"42":0.2513853536846252,"43":-2.0812248386879237,"44":-2.1230443726450563,"45":0.3895036113562419,"46":0.06904254632867625,"47":0.25290700052106707,"48":0.10564392558774528,"49":0.6327418822578902}},"47":{"bias":-0.38260174775420075,"weights":{"0":0.9331225403815041,"1":-0.029147279740049506,"2":-0.22622902826079375,"3":-0.025738950003643332,"4":0.9240154513096657,"5":-0.21102388768426236,"6":2.4979452378123437,"7":0.48466000765374345,"8":1.6769599370892956,"9":-0.08637554249052137,"10":-0.677998250671706,"11":-1.539051492345146,"12":-0.7474638048389995,"13":0.23088139889013265,"14":-0.3101731865591136,"15":0.45359452869974254,"16":0.4712698882228484,"17":0.006564520039474367,"18":-0.31907178000982345,"19":0.44616823245188725,"20":-0.2095219455509654,"21":0.44897304253549897,"22":-0.5746012366238494,"23":-0.8557786869792023,"24":0.18260981801381673,"25":-0.7407414465014062,"26":-0.19835399257636194,"27":-0.01960481397479062,"28":-0.18211294180888338,"29":0.4546800130335652,"30":0.055169245152515554,"31":0.09432423412877906,"32":-0.17323371782211552,"33":-0.3184175357406689,"34":-2.279782887094057,"35":-1.5219669368839452,"36":-0.012566662810477927,"37":0.08261846019108404,"38":0.007182345605074504,"39":-0.1424492265527298,"40":-0.6285999965759318,"41":-0.6729564128088494,"42":-0.2560930022405071,"43":-2.036069823626647,"44":-1.7191235687590212,"45":0.14583052703177807,"46":0.01930769023322573,"47":-0.33748814198428806,"48":0.45762340214417085,"49":-2.212173611086492}},"48":{"bias":-0.5236856371049206,"weights":{"0":1.6781209843645968,"1":0.06853997327624528,"2":-0.28906345490667007,"3":0.09706356663245487,"4":1.1634921902601476,"5":0.05420558499281196,"6":3.248782145057075,"7":0.5038692187088026,"8":1.7860765012448871,"9":-0.7323690561105071,"10":-0.6596722263335932,"11":-1.1134071024508378,"12":-0.8361395215552808,"13":0.03964799799584276,"14":-1.3008944627290806,"15":0.03208606818049788,"16":0.3942974844498486,"17":0.11669301885708593,"18":0.0681666585756078,"19":0.27357719767540617,"20":-0.16818881655724652,"21":0.3836189034013611,"22":-0.1374222076650665,"23":-0.6314669633382967,"24":0.2786206175625689,"25":-1.5024140664936487,"26":-0.4358567910898126,"27":-0.22059535903036653,"28":-0.5278150528977951,"29":0.4760127010112314,"30":0.16933949656858333,"31":-0.018984783525625756,"32":-0.433008863707112,"33":-0.27823718620313453,"34":-2.9783327980196375,"35":-2.0379353744228457,"36":0.06334117533262437,"37":-0.26753762634429024,"38":-0.15933735532378446,"39":-0.3013632140887354,"40":-0.3073579538299257,"41":-1.0505144280348855,"42":-0.2738357183512777,"43":-2.0624537528296067,"44":-1.691963047942417,"45":0.06575660909832585,"46":0.3837418120878003,"47":-0.2827038286067862,"48":0.3940518348313357,"49":-1.1918598912951084}},"49":{"bias":0.8618641903031048,"weights":{"0":1.0090302343724664,"1":-0.07455458508181248,"2":-0.045889952692539246,"3":0.45837363100048345,"4":-0.32648541173720064,"5":-0.07741942094726767,"6":-0.7590118883538324,"7":-0.25725409543897265,"8":2.8686094015204517,"9":-1.1220499661864887,"10":-0.36151437216054016,"11":-0.7380772773182209,"12":-1.127385299927318,"13":0.03697753384106117,"14":-0.8264478149890959,"15":0.09315738635489977,"16":-0.33028172893208546,"17":-0.25419979143031124,"18":0.04750362482943267,"19":0.12862782513074428,"20":0.04161939725994923,"21":-0.2976314329469022,"22":-1.034658136851278,"23":-0.7378304446492953,"24":0.1087189818017128,"25":-1.0427183981748995,"26":-0.6234143777535288,"27":0.769843593225744,"28":-0.24041563547582814,"29":0.9583875899449134,"30":0.6163694705591041,"31":0.3216751224189339,"32":-0.2620293941909737,"33":-0.43764775341042833,"34":-0.3307177657924538,"35":-1.3071474034065464,"36":0.22605253312313311,"37":-0.12624406214330516,"38":-0.1491410307413201,"39":-0.24641078257619622,"40":-0.6474121412722789,"41":-0.9499754703897871,"42":-0.011156191453802611,"43":-1.4623293896122078,"44":-0.9992919805447417,"45":0.9770021779992154,"46":1.1547654691358522,"47":-0.5692438948228928,"48":0.7401293109312721,"49":-1.5418091430821916}},"50":{"bias":-0.1889971120971292,"weights":{"0":-0.6108731833566089,"1":-0.24464890370133596,"2":-0.06282885494675834,"3":-0.4513922917265908,"4":-1.2884196812063662,"5":-0.039446164422016865,"6":0.583383462160423,"7":-0.0809812118289569,"8":0.41391272021401,"9":-0.22531522202316082,"10":0.33110929816456913,"11":-0.5010385671298024,"12":-0.23392463649449707,"13":-0.6601532845159513,"14":-0.8893617726457219,"15":-0.7471786770754495,"16":0.012685862904771745,"17":0.15290442492077813,"18":0.05365387383816539,"19":0.005746033799713649,"20":0.23271025839368878,"21":-0.5474247974546177,"22":-0.9751130503859416,"23":0.16005719794104686,"24":-0.4283271869080637,"25":-1.1994966693507447,"26":-0.4956264404877764,"27":0.2568452354525185,"28":0.01905112519155386,"29":-0.2984869346782085,"30":-0.20401677634985035,"31":-0.23618561072036287,"32":0.28176666979571,"33":0.07515151583846487,"34":-1.4061189016058373,"35":0.5425194880017308,"36":-0.25706622159139153,"37":-0.016647159295111513,"38":-0.404251266768316,"39":0.1033233672341156,"40":-0.567840784147092,"41":-0.6490960417983508,"42":-0.06430397454725167,"43":-0.10647160360880559,"44":-0.03996448913622043,"45":0.5091637692680642,"46":-0.12157970808655853,"47":-0.2562282434174387,"48":-0.6632481626237725,"49":-1.3131451982779767}},"51":{"bias":-0.29347443016848135,"weights":{"0":-0.44147011711810696,"1":-0.37612798092772987,"2":-0.33384299518781996,"3":-0.6412981591858863,"4":-2.46938226464714,"5":-0.03501014126139648,"6":3.2274670603938853,"7":-0.3697372680846634,"8":1.725136283910986,"9":-1.2687148894514704,"10":0.0864036184059119,"11":0.04427627120823979,"12":-0.10683752412090658,"13":-1.451587248728832,"14":-2.196604489980963,"15":-0.8971109740992107,"16":-0.6778558489688332,"17":0.22833098148895684,"18":-0.0743658779068819,"19":-0.022311482529387583,"20":-0.08983813611873108,"21":-1.3979440985857228,"22":-1.5791701857648075,"23":0.4463150033868014,"24":-0.554872110489355,"25":-3.004372954656148,"26":-0.21409654127756042,"27":0.5262420024656688,"28":-0.05574124982045567,"29":-0.7623626229238989,"30":-0.5089768303157497,"31":-0.7476829536624409,"32":0.15444046754828028,"33":0.13855474920572802,"34":-3.387308908687,"35":-0.7544129946931629,"36":-0.3092524134844346,"37":-0.11563082033086802,"38":-0.8592351450972164,"39":-0.1160763354652899,"40":-0.358097115960557,"41":-0.7627682247691041,"42":-0.2667278873633004,"43":-0.0025043242151821608,"44":0.07337530780281072,"45":0.3871312085697494,"46":0.460254076582155,"47":-0.4257599357965607,"48":-0.6406527617595403,"49":-0.950899162080826}},"52":{"bias":-0.14282137617474425,"weights":{"0":0.6241268853987825,"1":-0.11931415639464366,"2":0.06881369678642246,"3":-0.03640880069024871,"4":0.862948613607239,"5":-0.23384530595678835,"6":1.3020693808166595,"7":0.32483716763473497,"8":0.891819316296447,"9":-0.30059794890006447,"10":-0.6198431562736125,"11":-1.1135941444041575,"12":-0.75572097431174,"13":0.13435183749964433,"14":-0.25642494992889575,"15":0.22804858175681533,"16":-0.0407552389029084,"17":-0.019523921716671756,"18":-0.17912657988650532,"19":-0.0023788997518156625,"20":-0.12403571959438998,"21":0.06907780024898216,"22":-0.22116627438468026,"23":-0.7376138553724172,"24":-0.09529622771162456,"25":-0.632475871717016,"26":-0.13843250029559617,"27":0.12655078845364712,"28":-0.25777042970959424,"29":0.12903145500798435,"30":-0.045190877314256576,"31":0.1876303858689695,"32":-0.4969863631533684,"33":-0.4401098593737181,"34":-1.8264896892572642,"35":-1.1783374177428476,"36":-0.013188393093415478,"37":-0.1427753192318506,"38":-0.08744286132793659,"39":-0.23463148574019047,"40":-0.18125812392784243,"41":-0.5830508552433032,"42":0.00791348415587613,"43":-1.2380827077999885,"44":-1.3794441750037798,"45":0.02668609642228922,"46":0.22402414145168761,"47":-0.26865842652178945,"48":0.3376753839949342,"49":-0.7281993744746398}},"53":{"bias":-0.07371288471246475,"weights":{"0":-0.07666181452700918,"1":0.056985068815154895,"2":0.2746799102643672,"3":-0.022149901344225318,"4":1.06963774998637,"5":-0.0432026721105626,"6":3.1723649991685843,"7":0.020465113626262115,"8":1.0140821168557597,"9":-0.17691543353202263,"10":-0.14909392738866814,"11":-2.619155311946183,"12":0.8486254671587579,"13":-0.5252857970345527,"14":0.25907921905691145,"15":-0.4130499165789724,"16":0.0531525053127206,"17":0.10215672233618017,"18":-0.07821990810108997,"19":-0.25777073740646556,"20":-0.025522017134774286,"21":-0.36272994142263837,"22":0.9723269389553787,"23":0.7290378142332935,"24":-0.2138541457524678,"25":0.28672032372912837,"26":0.29157209563091835,"27":0.4371120628476035,"28":-0.07500291158197848,"29":-1.1869330909884568,"30":-0.3095886027065489,"31":-0.09093421218660323,"32":0.13526068564838686,"33":0.3280703590878236,"34":-2.5942196727651967,"35":-1.1824501876536495,"36":-0.2824806321959954,"37":0.14356147838332123,"38":-0.1694693969524646,"39":0.21340963571889435,"40":0.848773837149704,"41":1.0150092360916265,"42":0.031547148434892425,"43":-2.0369297176232704,"44":-1.646794256931488,"45":0.6869048447659415,"46":-0.196300302874057,"47":0.3665772419649671,"48":-0.397040225172789,"49":-0.04564070217031164}},"54":{"bias":-0.11918215279359573,"weights":{"0":0.3048110614951168,"1":0.07303426852297429,"2":-0.29472365644007087,"3":0.07928605599638876,"4":0.4842038498912747,"5":0.1758206386156643,"6":0.9412968843318983,"7":-0.026919561741046108,"8":-0.09999823753195396,"9":-0.45386858256208223,"10":-0.18176070752853996,"11":-0.42132122913763453,"12":-0.20087467781355883,"13":-0.3538511201841677,"14":-0.8964220625657725,"15":-0.2787596222121964,"16":-0.08531341131734209,"17":-0.11671161776997377,"18":-0.19182798504396104,"19":0.11480717023609646,"20":0.06768344869712048,"21":-0.028452854147105126,"22":-1.0463736560633539,"23":-0.3433051454557943,"24":0.15571501721952236,"25":-0.9219906301131117,"26":-0.20832077182365957,"27":0.2863725534948146,"28":-0.16599891423330126,"29":0.04288408199640769,"30":0.2605854514384327,"31":-0.051673385172992185,"32":-0.233265148952513,"33":-0.3093842632187377,"34":-0.7779734785289746,"35":-0.1145861298992591,"36":-0.20916885544349895,"37":-0.16081647271161476,"38":-0.07646305194183245,"39":-0.045264680024235525,"40":0.09081688863563289,"41":-0.7401225448008791,"42":-0.16661490379984945,"43":-0.6359357282426399,"44":-0.5946342117312772,"45":0.6323107308471079,"46":0.1849063352862137,"47":-0.4352132696611333,"48":0.11438046592608742,"49":-1.7040900765958304}},"55":{"bias":-0.22842866541439164,"weights":{"0":-0.27818388931488863,"1":0.08452321890593507,"2":-0.20968375331897973,"3":-0.1024579036056254,"4":-0.4611742175894633,"5":0.0961876070507877,"6":0.296403920068026,"7":-0.06422270853189431,"8":0.5892603060483144,"9":-0.26712969209791243,"10":-0.005684365649065219,"11":-0.3997513009204116,"12":-0.0006072978042046527,"13":-0.4026296667406175,"14":-0.5994306237538308,"15":-0.20301639998829218,"16":-0.3515772723587379,"17":-0.12015157817756333,"18":-0.08415641901691989,"19":-0.10038049599585226,"20":0.07520788911201111,"21":-0.29004810071331033,"22":-0.5782700876479115,"23":-0.1812104067508944,"24":-0.04124905227501675,"25":-0.4941404601513236,"26":-0.2853716055203582,"27":0.21943608093950032,"28":-0.3196334360157853,"29":-0.24209576943765393,"30":0.062183729875134715,"31":-0.2117922875064633,"32":-0.19920080730933995,"33":-0.16371372696505782,"34":-0.6203714963512786,"35":-0.25280417342483935,"36":0.11977372823692066,"37":-0.20628458286265433,"38":-0.33369750351976446,"39":-0.14775315303106384,"40":-0.17205865155229122,"41":-0.5279237049399159,"42":-0.07291905937580001,"43":-0.606004057294268,"44":-0.497729116378429,"45":0.2107280057153306,"46":-0.021383535847238344,"47":-0.23843762744274838,"48":-0.21208644095078,"49":-0.8283735917574221}},"56":{"bias":-0.307547230976758,"weights":{"0":0.3401601153736769,"1":-0.12226027279880863,"2":0.01758464782941188,"3":0.011762666297362993,"4":0.322775581653148,"5":-0.0072790590699985894,"6":-0.3479620178826796,"7":-0.28506544902579845,"8":-0.12256642024855066,"9":-0.4030171579753041,"10":-0.46081525587703975,"11":-0.41990031653170357,"12":0.011109427144382587,"13":0.20651467237131024,"14":0.05599681422092244,"15":0.3281152626678741,"16":-0.3394794566993492,"17":-0.19084108545223996,"18":-0.18646427354389375,"19":-0.3616281433706107,"20":-0.14917025288982852,"21":-0.533269977784757,"22":-0.18381659995196833,"23":-0.319578119750313,"24":-0.14374552111943995,"25":-0.11809719807634103,"26":0.06256297389618755,"27":-0.09572266049581557,"28":-0.31844732894016037,"29":-0.6356646939981281,"30":0.015047948538999588,"31":-0.101290658277681,"32":-0.2810119834977119,"33":-0.008190400041067592,"34":-0.5992392609620929,"35":-0.4671223598192488,"36":-0.25967734133783166,"37":0.13179523451920916,"38":0.32750839330760684,"39":0.02171998317176106,"40":0.21368782662342828,"41":0.2986712554031172,"42":0.14065155132380566,"43":-0.8570675879671183,"44":-0.8242424358970398,"45":-0.0652933789961767,"46":0.1610890314104632,"47":-0.1192472457880772,"48":0.19457528598781407,"49":-0.17541591484635694}},"57":{"bias":-0.1707910187873249,"weights":{"0":0.16958585650677463,"1":-0.22702878906757987,"2":-0.1666416648534,"3":0.04698318960728937,"4":0.019704303652683948,"5":-0.06048464282234378,"6":0.10239933626303355,"7":-0.3743205264624467,"8":0.3209739997295071,"9":-0.4325598075528598,"10":-0.2377015102158891,"11":-1.25684845948064,"12":-0.12697861791486542,"13":-0.08101114642768205,"14":-0.038707003640954724,"15":-0.07184278564164928,"16":-0.39327057755407124,"17":-0.3791589074068394,"18":-0.24544693441318788,"19":-0.3803989023940976,"20":-0.24225339837673027,"21":-0.35332907929643625,"22":-0.05587780339609759,"23":-0.3825494535625553,"24":0.020836145144026222,"25":-0.297314647877735,"26":-0.26255496715348864,"27":0.1375321660601651,"28":-0.20197594630399968,"29":-0.45661884165485056,"30":0.1495365585558167,"31":-0.21335324213321857,"32":-0.35863674621919645,"33":-0.36824702112492,"34":0.19248556929955324,"35":-0.5972017481916588,"36":-0.11214637425107053,"37":0.05767875949954638,"38":-0.010809971930925045,"39":0.0566263713293381,"40":-0.2903765335679967,"41":-0.1623891346502414,"42":-0.192918493823285,"43":-1.096362749258789,"44":-1.3480118485053632,"45":0.18676545532080102,"46":-0.059231040893103964,"47":-0.22859853793039384,"48":0.25055727996067834,"49":0.36491756530423836}},"58":{"bias":-0.28782842475772735,"weights":{"0":1.182272869136619,"1":0.014091671854708856,"2":-0.003516836243310425,"3":0.3942177723012736,"4":0.9671623162249214,"5":-0.15941746817639812,"6":1.3246472766877138,"7":0.21140371938069444,"8":0.7280953017244661,"9":-0.4549268797596934,"10":-0.632040295557526,"11":-1.6206298084112924,"12":-0.7515023926854612,"13":0.2675888734925461,"14":-0.021108204448486243,"15":0.315019950070587,"16":0.2641900434175118,"17":-0.23746348269969458,"18":-0.2222722210784031,"19":-0.035096099182909964,"20":-0.2085757118730846,"21":0.37382571327295006,"22":-0.7882940776477418,"23":-0.6494812893139856,"24":0.2144731745522192,"25":-0.26866583093279406,"26":-0.35310995110830506,"27":0.18032824154562985,"28":-0.3578476564572192,"29":0.24377366592398944,"30":0.2191054533236645,"31":0.1960359588811039,"32":-0.20907037948844695,"33":-0.22922273954863856,"34":-1.868125605968134,"35":-1.1195073553709238,"36":-0.18044376742867518,"37":-0.2337299536837254,"38":0.21932788513540455,"39":0.002191225968504404,"40":-0.04173341466880034,"41":-0.14338424572458833,"42":-0.12099696605430212,"43":-1.763097698318913,"44":-1.4807974070829015,"45":0.2265526095599417,"46":0.08226012171859479,"47":-0.4038608684966148,"48":0.6122998073497902,"49":-1.4367967152011496}},"59":{"bias":0.1212953644921902,"weights":{"0":0.6648217623967773,"1":0.0827854112293244,"2":0.043530201042815436,"3":0.12510570248183334,"4":0.47282332782637326,"5":-0.11483455891422163,"6":1.1204187667939014,"7":-0.19996460826859694,"8":-0.15878976085469218,"9":-0.6116026596142478,"10":-0.09314669277337671,"11":-0.8103599375797701,"12":-0.31574137550943737,"13":0.00248681020659534,"14":-0.7249970718614142,"15":0.03325354733201813,"16":0.07435922526771259,"17":-0.29680764445204455,"18":-0.18573940407194975,"19":0.243063005107862,"20":0.01856866720081078,"21":-0.1849299337893682,"22":-1.1805696065697935,"23":-0.4216933538663822,"24":0.006757972085767995,"25":-1.0389845275489031,"26":-0.37426770006792603,"27":0.251367975872503,"28":-0.21053961758804327,"29":-0.08116302280785725,"30":0.06771842216513811,"31":-0.1330136262291335,"32":-0.16303654470895934,"33":-0.14610504582937747,"34":-1.0264588407566346,"35":-0.3035930391093006,"36":-0.1765564993758574,"37":0.0932310119911031,"38":-0.10121437347264643,"39":-0.048762920844533375,"40":0.03414289533891459,"41":-0.5673342972773546,"42":0.007973278924734994,"43":-0.7493560129367675,"44":-0.7227677989764587,"45":0.5415456354671755,"46":0.5425013198093326,"47":-0.14010525212109687,"48":0.0420074607252336,"49":-1.497063530847178}}},{"0":{"bias":-0.48140089002192343,"weights":{"0":-0.4086698761510702,"1":0.03595874739451809,"2":-0.3762253784924892,"3":-0.2688772447350868,"4":0.06230493030025985,"5":-0.6445743395541574,"6":-0.08141259210362634,"7":0.074976454629545,"8":-0.282038053438656,"9":-0.06304697857402197,"10":-0.6214722124097043,"11":-0.06245233225940586,"12":-0.0059205112664735505,"13":0.13035149716009975,"14":-0.11893044702110271,"15":-0.46298860864445013,"16":-0.48752062347253206,"17":-0.30691299651117016,"18":0.05656811328390563,"19":-0.3180748088864712,"20":-0.146834857683593,"21":-0.20061513902036332,"22":-0.0760899307886381,"23":-0.1695154967001913,"24":0.039256441464738334,"25":-0.2118235110988915,"26":0.0005548148123893156,"27":-0.18712262000686575,"28":-0.18996054335815654,"29":-0.1353538606071463,"30":-0.08004787187576613,"31":-0.17840493696903578,"32":-0.20365180013985756,"33":-0.10173607801319504,"34":-0.37296396141184607,"35":-0.18203745268014718,"36":-0.03949839546491093,"37":-0.3475077237385921,"38":-0.13340244013386163,"39":-0.2972066849293129,"40":-0.3955918414276725,"41":-0.03328772863827961,"42":-0.5659660281052004,"43":-0.2596951332770066,"44":-0.1689056173785969,"45":-0.02569923665825566,"46":-0.18555083755761023,"47":-0.5208386679918549,"48":-0.6110703235739449,"49":-0.009886878045593244,"50":0.05609761150975808,"51":-0.7219965287022958,"52":-0.2023894373659616,"53":-0.2755825578037779,"54":-0.30785359186058764,"55":-0.03243100135156016,"56":-0.046778730876018595,"57":-0.13726648136959232,"58":-0.3042736000446769,"59":0.01813121632511756}},"1":{"bias":-0.2575680456262243,"weights":{"0":-0.522015195822228,"1":-0.2505853556028081,"2":-0.38318272133472475,"3":-0.07139053643714131,"4":-0.11720485977481335,"5":-0.579726511595278,"6":-0.41938236446699395,"7":0.0008956129896127002,"8":-0.05326029187910373,"9":-0.3907611962693671,"10":-0.7432080797976679,"11":-0.1478513146070144,"12":-0.057214999344987104,"13":0.29034946899107267,"14":-0.25087101150218805,"15":-0.33450964403329536,"16":-0.20834145919777153,"17":-0.13961620510062536,"18":0.00260791334266112,"19":-0.3515115840651515,"20":-0.28681767055447344,"21":0.12293505763938911,"22":-0.028568177562728607,"23":-0.022778909021103636,"24":-0.09151765607229673,"25":-0.32821394980794655,"26":-0.1713758818475095,"27":0.01465695336585377,"28":-0.23839758626700774,"29":-0.08574205921046525,"30":-0.268345088667888,"31":0.042654553548789255,"32":-0.2081300212745229,"33":-0.2847052652121867,"34":-0.2336394511078008,"35":-0.4145107194296933,"36":-0.07000865375471041,"37":-0.4755662011116532,"38":-0.3270197483546928,"39":-0.08733718574998589,"40":-0.30914783105040533,"41":-0.3600650424234573,"42":-0.4195111330169565,"43":-0.5649856985026077,"44":-0.34188889648467796,"45":-0.1216032535972699,"46":0.029328138891368035,"47":-0.46983983155819437,"48":-0.47610089540823064,"49":-0.2557298625946852,"50":-0.1900282456113204,"51":-0.2909353342337964,"52":-0.4003319540712904,"53":-0.19707271537630314,"54":-0.16665235701599473,"55":-0.25003696330529024,"56":0.08552156093043203,"57":0.11672497739703139,"58":-0.2557743320234589,"59":-0.13292099367976734}},"2":{"bias":-0.49136394211999107,"weights":{"0":-0.2966111759103748,"1":-0.14368683455811285,"2":-0.22854323254623923,"3":0.1098694826306502,"4":-0.038719734742051926,"5":-0.6717617754012769,"6":-0.3033662150029692,"7":-0.04332259698073477,"8":-0.31326078867990276,"9":-0.3237197082567113,"10":-0.7860078400291857,"11":-0.14035350383341222,"12":-0.09957128096778083,"13":0.313341095591356,"14":-0.224030208408361,"15":-0.34192536356175235,"16":-0.1145979049060217,"17":-0.3213745230176133,"18":-0.06668757951942608,"19":-0.05491758122555115,"20":-0.021179860727733493,"21":-0.11165747358124797,"22":-0.048745076166168314,"23":-0.2813376586819102,"24":-0.34305839925569004,"25":-0.11950569242086759,"26":-0.31958744858773497,"27":-0.000862188124636163,"28":-0.05560257338254468,"29":-0.015337714883826665,"30":-0.022006708400861354,"31":-0.22389730351389298,"32":-0.18872177079511698,"33":-0.055404032787211656,"34":-0.12526558468161156,"35":-0.2506886327120473,"36":-0.15129316935475443,"37":-0.3864491400822328,"38":-0.19955376512355277,"39":-0.04014342552460736,"40":-0.39199525177979705,"41":-0.23373981801035254,"42":-0.36580727010029396,"43":-0.3476277378247668,"44":-0.36583211368586027,"45":-0.07549203390832428,"46":-0.2449641953696029,"47":-0.3938245822666805,"48":-0.5082002925450528,"49":-0.33304270896104554,"50":-0.09204441817750784,"51":-0.5706279954752226,"52":-0.15871367313332752,"53":-0.38283677117020076,"54":-0.05105194159282213,"55":0.046522678759061825,"56":0.1436723678068956,"57":-0.0862911385345901,"58":-0.47826825465143524,"59":-0.3003400884425274}},"3":{"bias":-0.2506355512657428,"weights":{"0":-0.20380462999415372,"1":-0.306823299115091,"2":-0.3611366205803365,"3":-0.2351159389120823,"4":-0.07348680151104396,"5":-0.3803910606518085,"6":-0.2284649247567328,"7":-0.09753242455401852,"8":-0.10185845325366935,"9":-0.35643316760194454,"10":-0.6626453134564111,"11":-0.20527314149513404,"12":-0.1821401771698016,"13":-0.08043099829027703,"14":-0.045561306043308214,"15":-0.4209970848458343,"16":-0.35205263108582613,"17":-0.42220549455559636,"18":0.0844953802518416,"19":-0.36698968167543894,"20":-0.1418218014016839,"21":-0.264090878342448,"22":-0.16230808284014722,"23":0.0007245044488948767,"24":-0.32556047146654093,"25":-0.29763346820690495,"26":-0.3280832991979352,"27":-0.1351583137645779,"28":-0.16213339490675502,"29":-0.3212520805037375,"30":-0.3189193758118945,"31":-0.2339109300128448,"32":-0.3076075766042466,"33":-0.3031866602866433,"34":-0.5088071913459581,"35":-0.3293078076365204,"36":0.040061621083921556,"37":-0.3640526443339707,"38":-0.050484036963394395,"39":0.009228305579137577,"40":-0.441178900939379,"41":-0.2166717439084603,"42":-0.48497028652393975,"43":-0.16310917659728308,"44":-0.37006459613286485,"45":-0.16145467431241892,"46":-0.37987681458885586,"47":-0.3863022983770201,"48":-0.23421706924413868,"49":-0.3260507431565812,"50":-0.0874727738765878,"51":-0.4993979370140651,"52":-0.003605241378567911,"53":-0.2922073873616403,"54":-0.0375856499955053,"55":-0.13312228570065834,"56":-0.014716317697117802,"57":-0.21323364181895413,"58":-0.1453083018037013,"59":-0.14651356969445684}},"4":{"bias":-0.22918993924022332,"weights":{"0":-0.5333347854143629,"1":-0.025210817163949274,"2":-0.16123577885109452,"3":-0.23723532447840473,"4":-0.09673121074679358,"5":-0.7103946301410711,"6":-0.3593353033179079,"7":-0.1768542285458587,"8":-0.18224803350592295,"9":-0.44437501896149406,"10":-0.7679589926749348,"11":-0.13134979405093003,"12":-0.22344410122613495,"13":0.27949849003645605,"14":0.04565715604389085,"15":-0.18737004688863562,"16":-0.30750612814751205,"17":-0.03555937338207435,"18":-0.10976328606455903,"19":-0.4448523877647997,"20":-0.2310889392864671,"21":0.054560528087474185,"22":-0.08342663238952644,"23":-0.3065474830747682,"24":-0.29703856544507035,"25":-0.24065293379323896,"26":0.0216503570307184,"27":-0.2199766075832176,"28":-0.06319213608787712,"29":0.0038063634406976126,"30":-0.13651979697626254,"31":-0.27272566936020753,"32":-0.29264855538170736,"33":-0.24122909629679076,"34":-0.2935146063845226,"35":-0.2409899267432376,"36":-0.008052047470916748,"37":-0.4069388806897598,"38":-0.10092493286649365,"39":-0.21221562627471027,"40":-0.38163685814954795,"41":-0.3859063041419233,"42":-0.28007515682556533,"43":-0.4249964060303909,"44":-0.25224260200722454,"45":-0.2956686282556245,"46":-0.030781261401459294,"47":-0.40721751400191,"48":-0.1993488524551503,"49":-0.32518612322352203,"50":-0.1823351562125224,"51":-0.542051265726192,"52":-0.06814250477497419,"53":-0.39799983150118323,"54":-0.36634869778779705,"55":0.10150963827020157,"56":-0.06635735484153255,"57":-0.14061199396134053,"58":-0.2849040701575695,"59":-0.402557692151821}},"5":{"bias":-0.22918471454674552,"weights":{"0":-0.3084497953996916,"1":-0.20030490859956965,"2":-0.04241921220981225,"3":-0.16197018736748064,"4":0.008666874070249563,"5":-0.7143177946399665,"6":-0.24739838924812305,"7":-0.05877626082917991,"8":-0.2787472937688727,"9":-0.20260948778865104,"10":-0.6880704735525438,"11":-0.35701490034479255,"12":-0.08590147305130864,"13":-0.008603940685607714,"14":-0.33291691611105323,"15":-0.36987131094500053,"16":-0.3491218421611042,"17":-0.24337152121211192,"18":-0.07488470462931225,"19":-0.10082193953136068,"20":-0.1560602655650408,"21":-0.26771306135715867,"22":-0.177014836633952,"23":-0.14592768593420086,"24":-0.26972985568216856,"25":-0.2729476368173308,"26":-0.16697093560617637,"27":0.08593646144232972,"28":-0.0429020784775504,"29":-0.14611744726556442,"30":-0.1595155062491663,"31":-0.0536604100232883,"32":-0.34816521056220856,"33":-0.2657250665305544,"34":-0.557027035288645,"35":-0.09831523039220207,"36":-0.05475403529242374,"37":-0.15153250465413876,"38":-0.16731232349493005,"39":-0.1764819196469984,"40":-0.3657579016426595,"41":-0.35709574018771156,"42":-0.4615572703744809,"43":-0.26704069193144886,"44":-0.49239984663944064,"45":-0.369049808857598,"46":-0.3246234897530669,"47":-0.4658658802046236,"48":-0.36074095866868156,"49":-0.24542469521364962,"50":-0.17332770377005807,"51":-0.49232297662525526,"52":-0.09139322197592324,"53":-0.202722478241599,"54":-0.4148509210958898,"55":-0.16203591904100953,"56":-0.24410624280253257,"57":0.02556290642197974,"58":-0.3087652146972376,"59":-0.29570527328990176}},"6":{"bias":-0.44085598099280526,"weights":{"0":-0.1760276383768255,"1":0.055296405640928144,"2":-0.07837739073224499,"3":0.1346700298295187,"4":-0.07112485498339396,"5":-0.6883593136335284,"6":-0.47443790097194144,"7":-0.1292751264164991,"8":0.028483887371283267,"9":-0.36785829153268224,"10":-1.0058614468315437,"11":-0.2691770789777807,"12":-0.23863968446840975,"13":0.19712617282336128,"14":-0.181912329450943,"15":-0.39880302939896256,"16":-0.17987516235012324,"17":-0.11997205753552362,"18":-0.2152441210776858,"19":-0.2902818928924042,"20":-0.3008047278379896,"21":-0.058524380431386414,"22":-0.3002490437027067,"23":-0.16161428186298382,"24":-0.03153880282320556,"25":-0.3831752559124264,"26":-0.19496058023166576,"27":0.11640717460161057,"28":-0.02707240807489207,"29":-0.020386945992454414,"30":-0.09130748081542402,"31":0.03296203969320772,"32":-0.1879339540459875,"33":-0.34920750499521613,"34":-0.310567545215543,"35":-0.3468662316535235,"36":-0.12663041240396297,"37":-0.4251348652028747,"38":-0.056408666410533874,"39":0.142448074556522,"40":-0.4940563394860498,"41":-0.21208778333313316,"42":-0.3799286575537278,"43":-0.4890080604081097,"44":-0.45305949171324733,"45":-0.281299663216901,"46":-0.10333219977396522,"47":-0.2664295030374158,"48":-0.5688664826893521,"49":-0.39164667754712895,"50":0.016919687942961257,"51":-0.2729736980842013,"52":-0.2935112063032782,"53":-0.1609901787818743,"54":-0.41916806473812873,"55":-0.12549288276298223,"56":0.2598881786722216,"57":-0.11401206084386761,"58":-0.4567863436855863,"59":-0.24744978162078318}},"7":{"bias":-0.42818688779567343,"weights":{"0":-0.5564699510776742,"1":-0.18946649386647144,"2":-0.07389305703326442,"3":0.07161367561556431,"4":0.007668173434556401,"5":-0.5831842064298227,"6":-0.1728332721218237,"7":0.09579185119952215,"8":-0.2525969958583524,"9":-0.44132125995388205,"10":-0.7859939304365671,"11":-0.0719244074953237,"12":-0.09289030990242905,"13":0.24307715957601161,"14":-0.1368816435012097,"15":-0.44773853526276053,"16":-0.45086149128998115,"17":-0.27239896831548177,"18":-0.13003181700968566,"19":-0.3082362413853033,"20":-0.010747018165586547,"21":0.021053768245841858,"22":-0.35041364849542783,"23":-0.21465322025507544,"24":-0.2279497278205044,"25":-0.1070263926667674,"26":-0.16368941649302762,"27":0.019812671947366328,"28":-0.09022772329063743,"29":-0.006277982728545012,"30":0.04151452125752022,"31":-0.048269878123374924,"32":-0.17549391934517689,"33":-0.16569671119662138,"34":-0.4089010699043949,"35":-0.11465674319294472,"36":0.02976701655669334,"37":-0.3248794905426353,"38":-0.0699306018704748,"39":0.03151851029758997,"40":-0.33256618739616844,"41":-0.08489460309850667,"42":-0.24961147962511668,"43":-0.17947499385151314,"44":-0.48492684909942874,"45":0.053732990386102776,"46":-0.26372360121589905,"47":-0.5341932486265636,"48":-0.6448671333376215,"49":-0.31941624737539276,"50":0.02968637121708983,"51":-0.480411620470779,"52":-0.30274924997781205,"53":-0.3398800178790686,"54":-0.06711645791454322,"55":-0.20520909358929632,"56":0.08387390456610637,"57":-0.04068475775489531,"58":-0.5274515499831356,"59":-0.222047924536038}},"8":{"bias":-0.5126465821829727,"weights":{"0":-0.23231163138803917,"1":-0.12429871535668653,"2":-0.29972380992444353,"3":-0.021175091069712035,"4":0.18180651926750288,"5":-0.47001116780188756,"6":-0.19985631266421136,"7":0.011196081312633614,"8":-0.23783592211288573,"9":-0.2769726139961088,"10":-0.9671808261841266,"11":-0.2747875954314087,"12":-0.08012941831187065,"13":0.19625454231298795,"14":-0.11030108150446559,"15":-0.35100544092068303,"16":-0.27674697075205185,"17":-0.14829981708229473,"18":0.0827244899207213,"19":-0.17555098452050394,