{"layers":[{"0":{},"1":{},"2":{},"3":{},"4":{},"5":{}},{"0":{"bias":-7.492166193938652,"weights":{"0":10.866037804192732,"1":-18.789687628859518,"2":21.80996260648613,"3":-26.370200122463306,"4":-0.0655516073514421,"5":8.038522298197735}},"1":{"bias":-12.938509908188369,"weights":{"0":35.11085456019885,"1":-19.42960317030458,"2":-12.414268746275496,"3":4.028411895869714,"4":15.574578075418861,"5":-23.214446610130352}},"2":{"bias":-19.251986305488437,"weights":{"0":22.476811905832935,"1":3.7340231476448453,"2":-1.9399358491418237,"3":-24.48712767230154,"4":16.3701246510368,"5":6.77968061103407}},"3":{"bias":1.164758389501937,"weights":{"0":-2.470332747798714,"1":-0.4140609420714991,"2":-2.914383619095246,"3":-4.532092280942063,"4":-2.709312173175995,"5":-2.6573451283282385}},"4":{"bias":0.09484701002311995,"weights":{"0":-2.2176411129703264,"1":-3.146658113392842,"2":-2.3543681435968193,"3":-2.5184692765472465,"4":0.5251202705467589,"5":-2.5520243913555625}},"5":{"bias":-5.645925517286249,"weights":{"0":-10.450171689476468,"1":-22.7499820441513,"2":-10.14679100266568,"3":-8.255143236098686,"4":19.50266624487872,"5":-0.22785306423991658}},"6":{"bias":-11.509280062679489,"weights":{"0":13.251218307280329,"1":13.222873184393519,"2":-7.923020736483284,"3":3.405565212554097,"4":8.464529352945398,"5":-22.093859270130405}},"7":{"bias":1.082731674433835,"weights":{"0":-4.4864704084440765,"1":-4.759815912172163,"2":-3.1921960345218587,"3":-5.453070250567759,"4":2.6233584849698377,"5":-4.087966481717617}},"8":{"bias":-9.209040592875342,"weights":{"0":-22.17966279396861,"1":4.226480464802258,"2":8.007590521363735,"3":2.658263703283668,"4":0.7924925894646176,"5":-0.30529820033688065}},"9":{"bias":6.14956650002645,"weights":{"0":-3.5224855367421264,"1":-3.2643221423319377,"2":-2.9965400363177106,"3":-5.825390600732339,"4":-6.709072371724839,"5":-5.649456263385853}},"10":{"bias":14.214021986149332,"weights":{"0":-0.046802045045725466,"1":-9.783451735088008,"2":-6.901861874810018,"3":-2.807661598291011,"4":8.324732582490023,"5":-19.830406876706448}},"11":{"bias":-14.838300222484744,"weights":{"0":-13.686926086498787,"1":9.313369669825253,"2":-22.576448745024503,"3":11.991902327620092,"4":9.641625758752115,"5":12.927199335676208}},"12":{"bias":3.6763714614263945,"weights":{"0":3.729912935116895,"1":-6.039862901368323,"2":0.0938143404581568,"3":0.5093307768755729,"4":-22.767595846138676,"5":-7.00127864936499}},"13":{"bias":1.380778732153951,"weights":{"0":-0.6637593922293418,"1":-4.591743480387774,"2":-3.115923992366369,"3":-4.486260430962981,"4":-1.6418980835439168,"5":-4.681956472372256}},"14":{"bias":3.8279771527499724,"weights":{"0":-8.731072191902228,"1":-0.05703948494428879,"2":-6.540725731592723,"3":-0.4384217386345841,"4":4.986796161129658,"5":-6.6040465571834615}},"15":{"bias":7.737411629131017,"weights":{"0":-11.281087729221356,"1":2.539243387198426,"2":0.09643726093608465,"3":-4.191098589771271,"4":-4.305918972848521,"5":-9.072922538279645}},"16":{"bias":5.288775377236302,"weights":{"0":-2.981056669434317,"1":-1.5503810346568285,"2":-1.9864854119258708,"3":-5.689363091392276,"4":-3.3321187275370976,"5":-4.248226249046313}},"17":{"bias":0.90797642270616,"weights":{"0":-1.5082516896047462,"1":-2.3066629532435865,"2":-2.3112450381104948,"3":-3.926375778082115,"4":-2.0792754192052296,"5":-3.4018923946034456}},"18":{"bias":-12.102761779646137,"weights":{"0":-4.670589839028925,"1":14.138724352963228,"2":-2.4709434076066343,"3":-1.960622025242852,"4":34.57110957505075,"5":-0.6355075735790644}},"19":{"bias":4.775911465974545,"weights":{"0":-2.4218829482903814,"1":-0.48515738916680634,"2":-7.226590160301117,"3":-10.334850956469861,"4":5.787444751028013,"5":-9.342590416724166}},"20":{"bias":0.4168921136598914,"weights":{"0":-1.4643821190912683,"1":0.2519847673701225,"2":-2.9117121871522844,"3":-4.644629888270419,"4":-2.2480398176673484,"5":-3.1775150754897785}},"21":{"bias":-13.813783816253112,"weights":{"0":-14.916551846572695,"1":-10.086513979487725,"2":-7.153864806316541,"3":12.978148772187188,"4":24.98951672658027,"5":-9.659155435821587}},"22":{"bias":4.4979911378622335,"weights":{"0":-7.580610228805975,"1":2.788759442934897,"2":0.7904411737698059,"3":-15.442779414974028,"4":0.6930786469309089,"5":-6.302256677495419}},"23":{"bias":-0.3324710569431887,"weights":{"0":-18.39913383972455,"1":0.9353314018292394,"2":-12.716367915577138,"3":-11.909428451222107,"4":5.871596892041419,"5":8.926252325146573}},"24":{"bias":1.393156869899725,"weights":{"0":-4.111178907063866,"1":-3.4014067943866437,"2":-1.2262654014591614,"3":-2.565828302542774,"4":-1.420815598110341,"5":-4.573329581573631}},"25":{"bias":6.914033576427318,"weights":{"0":-11.083283009088271,"1":3.472932379441376,"2":-12.643100277964797,"3":-0.6200116892179173,"4":2.407645399105972,"5":0.8434845311500674}},"26":{"bias":1.126731439030939,"weights":{"0":6.009176616030672,"1":0.9842809720577232,"2":-8.748174416159383,"3":1.7280218572916097,"4":-2.0838500064791243,"5":-5.351587168479201}},"27":{"bias":-10.520212541296498,"weights":{"0":13.378537404720873,"1":10.107327386143687,"2":5.965363693465557,"3":-26.36868049685397,"4":-0.4079589089424354,"5":-19.36670535209682}},"28":{"bias":6.371882330721015,"weights":{"0":-0.25291490946026474,"1":-5.146175346082411,"2":-1.073666570103908,"3":-6.061122263255078,"4":-2.7043349782623003,"5":-8.139563279022553}},"29":{"bias":4.427125197592591,"weights":{"0":-1.9021038923246085,"1":0.8907858047210628,"2":-4.4691856366131875,"3":-9.013194903996943,"4":4.304851221891419,"5":-7.8438310424053075}},"30":{"bias":1.7681887888919936,"weights":{"0":-0.3919100984432623,"1":-1.0240213603546442,"2":22.298037317492415,"3":-3.1580369659526326,"4":-9.92095251436228,"5":14.133770322036122}},"31":{"bias":15.507985919919454,"weights":{"0":-14.0519279568036,"1":12.819586164810115,"2":14.103075025936434,"3":-28.317345287072648,"4":3.540891748614565,"5":-25.130554595665767}},"32":{"bias":9.037998357856349,"weights":{"0":-4.282140949436921,"1":-16.230070836481957,"2":-3.025699167628182,"3":13.400419359926895,"4":-3.0987501509888444,"5":-4.377906143548294}},"33":{"bias":8.191498515984522,"weights":{"0":-13.13680494214794,"1":14.022839269531005,"2":-8.801037761435468,"3":13.928264857822276,"4":-4.339566877844869,"5":-26.22907679412252}},"34":{"bias":-1.0164773592932752,"weights":{"0":-12.280267643884292,"1":-16.48002708030905,"2":18.605277823129445,"3":-18.033974683158068,"4":3.0512502784424056,"5":5.1041592509649485}},"35":{"bias":1.7450575061103737,"weights":{"0":14.724264083207485,"1":-14.457957117589475,"2":-0.9654852887142785,"3":11.833088731113651,"4":-11.494743985521803,"5":-30.78413025442625}},"36":{"bias":1.6296485487356611,"weights":{"0":1.960232482082983,"1":-8.78962601326076,"2":-4.7144071841878095,"3":-28.649105452753428,"4":5.161645359965475,"5":2.1872558399437785}},"37":{"bias":-12.311839132715788,"weights":{"0":13.498547432618585,"1":28.644835863457953,"2":-39.827121588895004,"3":-1.119365581844437,"4":2.8392865696815215,"5":10.673276697116307}},"38":{"bias":0.3435021098254795,"weights":{"0":-1.039916278484552,"1":0.2594547748757288,"2":-3.7658405092432004,"3":-5.0218427371922445,"4":-2.9146964994093203,"5":-3.4980830409880883}},"39":{"bias":1.5855520697867302,"weights":{"0":-1.9397574948730107,"1":-4.12089616566018,"2":-1.316984422352615,"3":-4.3291172326606215,"4":-1.6964178983260814,"5":-4.405646366149135}},"40":{"bias":-8.380772184276541,"weights":{"0":-5.4336685603428725,"1":-16.84494545633909,"2":6.639581364848436,"3":-3.3971935119939873,"4":-8.673388563797673,"5":14.166885684246733}},"41":{"bias":2.3272139747656575,"weights":{"0":-4.789834493702576,"1":-3.2020382793333315,"2":-2.1471503624197017,"3":5.997996271292926,"4":-0.44233401580645804,"5":-14.44223470405169}},"42":{"bias":1.9375671340115275,"weights":{"0":-2.8024689269828755,"1":-0.80811860119983,"2":-3.2685501686737806,"3":-5.921967846681177,"4":-4.463370057780878,"5":-2.588459628948373}},"43":{"bias":1.2351128021494742,"weights":{"0":3.094753099949239,"1":-17.51884036708644,"2":3.323605997911472,"3":-13.723054650725985,"4":0.6252977166371755,"5":5.3126768554604125}},"44":{"bias":-0.9046318926606317,"weights":{"0":-3.066010329262947,"1":-8.272197715046968,"2":-5.287813896633266,"3":-2.4072841131156584,"4":31.427754138711638,"5":-29.853066724356726}},"45":{"bias":10.333828567160062,"weights":{"0":8.085464531466789,"1":0.7761192017830371,"2":-30.764096790611166,"3":-13.703745982481127,"4":-15.131384778392679,"5":-9.252637897814452}},"46":{"bias":-5.631666556385715,"weights":{"0":8.053593327322181,"1":4.70639875944135,"2":-17.9158584224459,"3":-6.065667837325922,"4":21.565992076031787,"5":-18.40135438906619}},"47":{"bias":-0.09490396198567748,"weights":{"0":0.06259303636970001,"1":4.181575872471652,"2":-22.516258283521147,"3":-15.665749002939005,"4":-24.89722617214445,"5":1.84983891252267}},"48":{"bias":-3.6347212563287554,"weights":{"0":-23.26088993297876,"1":10.479356238915502,"2":25.80553591216009,"3":3.4276372110948463,"4":-23.003872794061046,"5":-5.566334630695819}},"49":{"bias":-4.377136267704534,"weights":{"0":-0.5822601004397597,"1":0.877231117640198,"2":4.234373288060518,"3":-20.75608624986204,"4":20.61496191263769,"5":-5.751109674948399}}},{"0":{"bias":-0.9885292583122276,"weights":{"0":2.9588709780007463,"1":-13.25032208870934,"2":4.686612960362791,"3":1.2871170355812722,"4":-0.8036545889015716,"5":4.325889793193,"6":-2.828770729627572,"7":-0.33758191896671735,"8":-3.728373977475194,"9":0.8586555196918441,"10":-0.23083390868089243,"11":4.429313109015925,"12":3.828707552084908,"13":-0.14785906247147854,"14":3.210747174512477,"15":0.7952470342914139,"16":0.580885045449197,"17":0.2405442744513278,"18":-3.4241810203104546,"19":2.744031755229324,"20":1.600746367855416,"21":9.505519430548913,"22":1.3394283646024592,"23":-1.278370052639314,"24":-0.6506547332427941,"25":10.473527861375905,"26":-0.7836256949999527,"27":-2.666792836088343,"28":0.5995384516154932,"29":1.175960968551858,"30":-5.954368657464884,"31":-8.27960966461532,"32":0.5885220124302378,"33":-7.95813818171539,"34":-1.9931485464008125,"35":1.1191107662691977,"36":-8.628957188616086,"37":3.7415827182102683,"38":1.8701822585752625,"39":-0.7804889538003692,"40":-6.762999879170074,"41":0.06362919433563137,"42":1.8700653648313095,"43":-6.128395503586334,"44":-0.5821376003191238,"45":0.7073830040843084,"46":3.1707728396509265,"47":9.414437704863966,"48":-1.3245355239333418,"49":-1.394308142344505}},"1":{"bias":-1.5985801155530732,"weights":{"0":0.6746996463640728,"1":-1.3863405883218098,"2":-0.02499231469546312,"3":-0.47605085421704246,"4":-0.09243324458054565,"5":0.680134162373557,"6":-0.9389132566451225,"7":-0.010742342303445977,"8":-0.20934718140570752,"9":-0.31596885827187077,"10":-0.14173987178401184,"11":-0.6461966019385806,"12":-0.48321783541109575,"13":-0.5269573625532075,"14":-0.4558806756333847,"15":-0.5327431251655149,"16":-0.5091472243131645,"17":-0.20563513552597312,"18":-0.6173506685987739,"19":-0.4570983579108899,"20":-0.43077121091936393,"21":-0.10083970631406895,"22":-0.5136605208776407,"23":-1.5541263630798183,"24":-0.3764077698206485,"25":-0.30675057872502387,"26":-0.48828820068563017,"27":-0.42672790757678913,"28":-0.3159760519104223,"29":-0.34259144865007923,"30":-1.1986094986134248,"31":-0.25280720437621673,"32":-1.5208912769779168,"33":-0.6419388679072917,"34":0.9054109923574051,"35":0.06226608887470952,"36":1.139430945061293,"37":-0.8710662938605738,"38":-0.500121729009087,"39":-0.3773389129633411,"40":-0.42510041320829667,"41":-0.14171776703081848,"42":-0.39290403328353357,"43":-0.5486907421067483,"44":0.7543387638051202,"45":0.36587189209768195,"46":-0.7090840841888741,"47":-0.32668231131781905,"48":-0.21611916410548604,"49":-0.02262672286028806}},"2":{"bias":-1.6319545796301724,"weights":{"0":1.5715500803016502,"1":-0.991951325133805,"2":0.6546417221856335,"3":-0.3853158215347673,"4":-0.006020928164194121,"5":2.025706577469336,"6":-0.7218176236794815,"7":0.38259297819537436,"8":0.033367765243520475,"9":-0.6416022838364072,"10":0.2808760045871346,"11":1.8683302950890286,"12":-0.18277222980942368,"13":-0.6011009674098272,"14":-0.42894030670651595,"15":-0.8678141407344285,"16":-0.3705205598018381,"17":-0.33592845951133865,"18":-2.4850952178275643,"19":-0.2901545542416213,"20":-0.5182698347368508,"21":-2.493299783503254,"22":-0.9727894741971331,"23":-1.5839486720724218,"24":-0.23842768420767615,"25":-1.5191208669457938,"26":0.05896756350734385,"27":-0.8920975923369359,"28":-0.05636618897445869,"29":-0.8802386786623738,"30":-1.6679387063885662,"31":-0.6427882297328967,"32":-0.727997893172453,"33":-0.47029302217765584,"34":-0.42523030171002324,"35":-0.2947036552556465,"36":2.3555079245043427,"37":-4.638382836927222,"38":-0.6348098438896762,"39":-0.41183272768609147,"40":-0.8584888073379302,"41":-0.04767298691100761,"42":-0.6924740040397598,"43":-1.2518230815840152,"44":1.1473308122182033,"45":5.541849756216663,"46":-1.621573269345773,"47":-2.6111735728399856,"48":0.1619071616528435,"49":-0.09791427939983538}},"3":{"bias":-1.145780218658599,"weights":{"0":0.9981811397090583,"1":0.34460094036913314,"2":0.4073999840128477,"3":-0.5513607060510777,"4":-0.08247712199677223,"5":-0.17190691074489253,"6":2.1740963131344713,"7":-0.3553711782305764,"8":-0.27659121673246057,"9":-0.5124908329158033,"10":-0.6613597413222334,"11":-2.081708015363324,"12":-0.372822025381014,"13":-0.5017080624093109,"14":-0.48649710617227476,"15":-0.5525660912928624,"16":-0.3354502853133393,"17":-0.21396326407082708,"18":-0.22041057271512307,"19":-0.42746510060605913,"20":-0.34548479873393323,"21":-0.1900547611692099,"22":-1.054661581030804,"23":-0.9025655849046739,"24":-0.3758328361505251,"25":-0.6721771372368861,"26":-0.8233265786511641,"27":-1.7483498424074166,"28":-0.21381536907659018,"29":-0.5020450772076696,"30":-1.131073825797093,"31":-0.8981779341370534,"32":-2.2100008445495005,"33":-1.0225113012123213,"34":0.48696798381940437,"35":-1.7267586667099535,"36":0.6313197991408048,"37":-3.2511201962968137,"38":-0.538239724347832,"39":-0.3556857505721541,"40":-0.8216797002810039,"41":-0.856664031275975,"42":-0.4183815646062422,"43":-0.8047004333910289,"44":1.8750716369709095,"45":-0.4393180840659908,"46":0.9591531136009337,"47":-0.2901006635298183,"48":-1.777260581948778,"49":0.6463101756754124}},"4":{"bias":-1.3055529165129711,"weights":{"0":0.4263126326944881,"1":-1.8900968183771458,"2":-0.862502409630044,"3":-0.217366794271403,"4":0.18111395537652,"5":0.7378393291515344,"6":-0.5289864517767439,"7":0.1794829640985174,"8":-0.0258525165714394,"9":-0.08624147447899674,"10":-0.09540261686434431,"11":-0.3421859685405287,"12":-0.1694881670006,"13":-0.24552948348371484,"14":-0.5145533403951711,"15":-0.2530959107067603,"16":-0.0554146660999057,"17":-0.09448256811384206,"18":-1.5592348431938952,"19":-0.396652541087295,"20":-0.20850408323902594,"21":-0.5550433394822772,"22":0.09182582635474446,"23":-1.054672022585696,"24":-0.4138151139834777,"25":-0.4805319331757546,"26":-0.39138586123194086,"27":0.24891790982515707,"28":-0.2762327957085515,"29":-0.1383555139304833,"30":-1.4795558851873916,"31":-0.026542580407800248,"32":-0.94161528781526,"33":-0.48930806900335927,"34":1.0469862908875462,"35":-0.05848177038107209,"36":0.7998618433259704,"37":-1.0034916565425107,"38":-0.3374269787015559,"39":-0.4278801067915014,"40":-0.7439904336176784,"41":-0.312397015458203,"42":0.10929405290911391,"43":-0.850278878830845,"44":0.9361833036787491,"45":1.4508258880719083,"46":-0.8122434673445541,"47":0.7810181096166386,"48":-0.16796304053621802,"49":-0.28898216721563286}},"5":{"bias":-1.062892451150389,"weights":{"0":1.014159541339226,"1":-1.9094491320004534,"2":-1.1489115239820344,"3":-0.194949415521295,"4":0.01748769112428442,"5":0.8113683659671712,"6":-0.7844393494179694,"7":0.0647017813926476,"8":0.023208546627224217,"9":-0.2687856802194128,"10":-0.4901612095073912,"11":0.4273363183876804,"12":-0.2524227243233257,"13":-0.2535597335179931,"14":-0.46313747441218184,"15":-0.348735676291307,"16":-0.4064512092412151,"17":-0.4515310684415053,"18":-1.7842180241233607,"19":-0.5640348609054905,"20":-0.437434065842587,"21":-0.4281962683899307,"22":-0.10997333283240565,"23":-1.2524892514927253,"24":-0.15609758916479632,"25":-0.44736859866816375,"26":-0.5106008259458796,"27":-0.1409484598976158,"28":-0.581194056749959,"29":-0.3868516020201748,"30":-1.6206629166692914,"31":-0.26384426693289115,"32":-0.7414504117808167,"33":-0.660820793224546,"34":0.3992210231393901,"35":-0.5048810712333045,"36":1.1359553851299007,"37":-1.3417140515490475,"38":-0.3424627684198941,"39":-0.33546663590665393,"40":-1.1194564810902041,"41":-0.28711763758259606,"42":-0.19283749321230675,"43":-1.2570063633007877,"44":0.8269316821376776,"45":1.5792215974140722,"46":-0.7297211795925698,"47":0.0613360068161809,"48":-0.6976325870421625,"49":-0.276406742876554}},"6":{"bias":1.132923674640512,"weights":{"0":-20.47134581452127,"1":-1.2446383226058857,"2":5.368013563603146,"3":1.2750829328414537,"4":1.0336485333580863,"5":1.102609198566012,"6":17.003396617763535,"7":-0.5713267934027865,"8":-6.777115948940867,"9":4.252044092481798,"10":1.8026258944707425,"11":12.646047248332817,"12":3.010524357970576,"13":1.2935881755137595,"14":-0.6116716166268134,"15":1.2107894497488836,"16":3.0752582469774308,"17":1.2041357864000986,"18":7.516687800137556,"19":1.2073887607277862,"20":0.6673073007956293,"21":-10.988717406972377,"22":2.530636772152325,"23":-2.2103536900682372,"24":1.758576401768303,"25":0.624905613724197,"26":1.7660677458941008,"27":10.46818111876089,"28":1.8662139501737043,"29":1.4125788555349736,"30":-0.23419368217968722,"31":-8.858131092233927,"32":5.624309893720772,"33":-3.4678130068431496,"34":15.99502538423986,"35":-4.534483669541339,"36":6.798186906998469,"37":9.997997271745584,"38":0.6220387667274122,"39":1.168503088790364,"40":-1.6295182187129007,"41":-3.2929086007849544,"42":1.9830618568054141,"43":-6.981574830091629,"44":-4.550307416056706,"45":5.810993468991398,"46":-18.1928728200008,"47":3.449232965206058,"48":-12.404658130703806,"49":-6.095725185020802}},"7":{"bias":-10.925143961993696,"weights":{"0":3.3928416313925522,"1":3.664099175929495,"2":-13.08002856493171,"3":0.3590733244493346,"4":0.17006781212228012,"5":15.157673482358279,"6":-1.4968275383547143,"7":0.5372293633523377,"8":6.350439002086171,"9":0.8724090344845948,"10":0.38644011794590755,"11":-8.459938420600272,"12":-0.4142197534917803,"13":-0.32445102074577553,"14":2.738923665230931,"15":-2.479736250706319,"16":0.025256323580077795,"17":0.03561543548647195,"18":-1.2560900233933596,"19":-1.5743992053805538,"20":-0.18163394860199825,"21":-9.89795987881014,"22":-1.9568194641183114,"23":10.30379668859314,"24":0.38027102485693104,"25":-0.583366026610542,"26":3.3897013549041892,"27":-3.736051360529703,"28":0.17944509319037955,"29":-0.28814755368865985,"30":-13.453732074967158,"31":2.906871386270884,"32":11.90064910811167,"33":-2.333318896131177,"34":3.0103666825472533,"35":0.7645605326668619,"36":-8.698808107878467,"37":9.221236055203157,"38":-0.29573854969339364,"39":0.14536188779555942,"40":2.8830868694871272,"41":5.627723471919951,"42":0.3238747270215277,"43":0.8089706229097816,"44":19.947113931770122,"45":-4.329876542853728,"46":-8.717712825434296,"47":1.4759629610121032,"48":2.313675646840183,"49":-10.872521953301824}},"8":{"bias":-3.431902432418873,"weights":{"0":0.7009275299469103,"1":-2.762043529413916,"2":-3.3786467886596476,"3":-0.20873063844620754,"4":-0.3388886148587688,"5":1.5599580950185987,"6":-0.47291688698960976,"7":-0.6077592126933751,"8":-0.8851348279338904,"9":0.426000435502484,"10":-0.375618432533036,"11":-0.5679959009436928,"12":1.42454069861368,"13":-0.6434037345257936,"14":-2.086414703242037,"15":-0.4718222808658146,"16":-0.15285549336239626,"17":-0.5367948546593603,"18":-4.87120055778699,"19":-1.6736809867527642,"20":-0.23685018282889095,"21":-0.8301706450251818,"22":0.3050445525393047,"23":-0.7081741371423018,"24":-1.205086549306712,"25":-0.9788355513903145,"26":-1.2234449202334672,"27":3.53109734558915,"28":0.5929053091590956,"29":0.0326436369479392,"30":-0.9584609402893884,"31":5.509083140820838,"32":0.24561390484811693,"33":-0.05109089110887336,"34":-1.18534442211631,"35":0.4531271258966905,"36":0.30811351752001065,"37":1.3326325957796417,"38":-0.030512494397803236,"39":-0.8038703248038277,"40":-0.7658773207469055,"41":-2.6274589551739704,"42":0.28707268241702333,"43":-2.2590199958932495,"44":2.082897454315337,"45":4.152264029292286,"46":-1.965649019264623,"47":1.0314637056967322,"48":-0.507798725794423,"49":-0.9537792777377502}},"9":{"bias":1.8914544603900956,"weights":{"0":1.2239052512942963,"1":3.9567912498429165,"2":-2.919418048401413,"3":-0.64067111890193,"4":-0.38117135032287686,"5":1.739185579768081,"6":-3.4238256527282442,"7":-1.5196506459373138,"8":1.5810344864294918,"9":-0.33024013016302933,"10":-1.3053647903562053,"11":3.3136875876030025,"12":-0.5503493537072786,"13":-0.41844072964087975,"14":-2.218284666926938,"15":-0.4258297013560367,"16":-0.7188302014067192,"17":-0.26998679845818746,"18":9.56451865769001,"19":-3.609097426020538,"20":-0.7247395007770697,"21":1.7038569191062658,"22":-1.0587893776011388,"23":-1.0926441659586315,"24":-0.4556291712359387,"25":1.9812947431956778,"26":0.8121521227240449,"27":-2.5746005398499423,"28":-1.3268078966806318,"29":-2.6787175578751974,"30":-5.05282314429233,"31":-2.294554316506076,"32":-10.9247356489768,"33":-14.230924050899528,"34":1.8742213002532455,"35":0.08120734180025377,"36":0.08575051238592023,"37":-7.975914958689323,"38":-0.48777438570569526,"39":-0.37109289145887997,"40":-1.4189237446255258,"41":0.15346741775317224,"42":-0.7046913839772091,"43":-2.52613762873121,"44":6.134781806603677,"45":0.5683973682930157,"46":2.4381062725082123,"47":0.12496845831974332,"48":-3.4060335835696924,"49":-1.5275589716076219}},"10":{"bias":-8.519846926628881,"weights":{"0":-14.132784007777966,"1":8.094151765299229,"2":-14.678138134235166,"3":2.4772668592798524,"4":0.3694537149364715,"5":8.143987113133985,"6":0.5196779164012841,"7":0.9046143297642395,"8":2.5864093555801766,"9":5.583089336791346,"10":2.225496823555572,"11":2.1908696749242895,"12":3.165508874173584,"13":2.44383970428809,"14":-1.8843366195151943,"15":-4.293110957967421,"16":4.102316675512949,"17":1.6948778741381938,"18":16.094025137887265,"19":6.522776713887527,"20":2.887801095535607,"21":3.6503345110925287,"22":-5.278228101082621,"23":-6.0546120725577826,"24":0.5930939773216481,"25":1.9061986185836577,"26":1.1657489819857179,"27":16.267877405227335,"28":3.1828631615553746,"29":7.0008644475935835,"30":-4.689907837424197,"31":-4.321479546861725,"32":-3.3683018718040603,"33":-3.5000958990861633,"34":7.4826220813570785,"35":11.71799586115783,"36":6.544048627105557,"37":-10.246194197889974,"38":3.148593070120122,"39":1.8043114976022585,"40":1.5477599465841358,"41":-1.6371617347322265,"42":3.0868238320263233,"43":6.846523661574818,"44":-21.035458473006994,"45":3.2824154500083673,"46":-9.385861534512737,"47":3.874594658744743,"48":-12.38210479063102,"49":8.324776210085417}},"11":{"bias":-0.7159207945403465,"weights":{"0":0.44090824544687346,"1":0.3268452628025815,"2":-0.09423734692120993,"3":-0.19108892416650106,"4":-0.17981866454920215,"5":0.3754392732684142,"6":-0.2888804589153777,"7":0.14088873479708758,"8":-0.008139358493521959,"9":-0.3310456682596409,"10":-0.3132547402890524,"11":-0.8905895701822927,"12":-0.05491158076271178,"13":-0.3967392175189765,"14":-0.20635492814121797,"15":-0.40998266838899466,"16":-0.32393278710871937,"17":-0.3868372846968562,"18":-0.14626515865429762,"19":-0.6129158919723982,"20":-0.5411524681126082,"21":-0.6922278157616534,"22":-0.8367934420644484,"23":-0.6578636938961487,"24":-0.121964197813652,"25":-0.3866396306437442,"26":-0.14960496435877443,"27":-1.1835825408986962,"28":-0.33052976265541256,"29":-0.2702565828478697,"30":-1.0294686750132271,"31":-0.7194727821168226,"32":-1.835526267740898,"33":-0.7443600233268753,"34":0.6264984306166879,"35":-0.5879089299683509,"36":0.261658536346863,"37":-1.5348091824536507,"38":-0.4283366347331778,"39":-0.44699725785599703,"40":-0.5771805365352597,"41":-0.22422978969243648,"42":-0.20872438378830724,"43":-1.0325181673520218,"44":1.927731874197658,"45":-0.3240362679682504,"46":0.7698671226080274,"47":-0.17502929235923992,"48":-0.4337161973793592,"49":0.43543745112937476}},"12":{"bias":-0.737951464786035,"weights":{"0":-0.7360461846251702,"1":2.4012016211775062,"2":3.629925171029588,"3":0.9137264302980505,"4":0.2771398418881674,"5":5.315487110513201,"6":6.690720473501307,"7":0.8130177709820219,"8":5.69276837671161,"9":0.8541721528619326,"10":2.460023062048308,"11":2.5431363855410813,"12":0.8743964091640645,"13":0.7414368274635006,"14":1.3705219375991935,"15":0.9174079368638713,"16":1.5308571589751772,"17":0.498070661100127,"18":15.522879990316623,"19":0.8545736863611731,"20":1.482671088381986,"21":1.7376568430278394,"22":1.5612919627839523,"23":0.005503844107407064,"24":0.4892636583422987,"25":1.6954016589953425,"26":1.222147724241202,"27":6.95179782923156,"28":2.5333711127742435,"29":2.3147132237203203,"30":-2.817836967666116,"31":-10.585040156243645,"32":-7.45266705502842,"33":-7.440728122473417,"34":4.438511697927086,"35":-6.540294901423351,"36":7.111540857526681,"37":5.270919721113762,"38":1.5476109461623562,"39":0.8046385392826755,"40":0.8286724563840269,"41":2.2890263974835734,"42":1.1064308237867995,"43":1.3916522656781543,"44":-3.4617722742854284,"45":7.3081984555370205,"46":0.42630449222805256,"47":2.5843694493000466,"48":-12.242810025635615,"49":-2.460670578308495}},"13":{"bias":0.23844067604266359,"weights":{"0":9.205146901173135,"1":-6.387568173772746,"2":-0.40960680828377233,"3":0.9374062907552405,"4":1.0475717590553968,"5":-2.1565519081977547,"6":-4.640673300300293,"7":1.6660489428066558,"8":0.566703401629,"9":0.6144282409195542,"10":-0.04192562803939726,"11":4.4020901463570725,"12":-5.231850162117433,"13":-0.005050594723188074,"14":-0.25829654881182573,"15":0.37431900866082307,"16":1.4129613789616833,"17":0.4198186083109295,"18":-6.006676486510084,"19":0.3909481258440035,"20":0.439724463070659,"21":-4.680766632434813,"22":-1.023886837718863,"23":-4.718482252179893,"24":1.0777978589791235,"25":3.457482053217331,"26":0.7124579360912895,"27":-3.294890199098853,"28":1.0919951537213624,"29":0.5079991832128868,"30":1.5993727507950584,"31":-2.9501843614248933,"32":-3.03136405577723,"33":0.83101398471873,"34":-5.051159769081165,"35":-9.825128044303286,"36":-0.16482120258979305,"37":-10.836346128667788,"38":0.12428296767643088,"39":0.9031565910691437,"40":-8.107291630099962,"41":1.4929710271146548,"42":0.20809191139395775,"43":-3.7222806864477542,"44":-2.028773065026136,"45":9.30895278081113,"46":-1.4493953071462533,"47":-9.138804308014453,"48":-5.024290582532374,"49":4.288425461837096}},"14":{"bias":1.017508045555348,"weights":{"0":5.2303528783377224,"1":-6.108380573878279,"2":3.490608818071195,"3":-0.6763993284077996,"4":-0.7962011109275309,"5":-0.35175381689333346,"6":-2.324809229238829,"7":-0.17871802895111177,"8":1.069815830969112,"9":-1.1296847956553653,"10":-8.168537814408715,"11":2.437958596101999,"12":-12.851542279442869,"13":-2.723984916980174,"14":-1.2091581083070289,"15":-6.199912773739245,"16":-1.8888944165487298,"17":-1.9018312080071766,"18":-3.663563828000701,"19":-0.562956454099112,"20":-0.8630341113741944,"21":-0.46367405419917673,"22":-2.887718599800864,"23":-2.5253574643195567,"24":-2.8099232936527048,"25":4.2967885736215266,"26":-4.075022529235194,"27":0.15783681358068447,"28":-4.886135166483208,"29":-3.226730942590504,"30":0.4003065144506976,"31":-14.477965218815417,"32":7.088261912212052,"33":1.069970103656595,"34":6.483609486108908,"35":0.4022436495470096,"36":4.958546428776709,"37":-11.64719206552881,"38":-0.9851450863699456,"39":-3.0465108126962797,"40":-1.7188639230113283,"41":-0.17329481422983842,"42":-0.0921293675535568,"43":2.500521102053911,"44":-4.64194447910789,"45":3.7022864692674156,"46":-2.8792869096298372,"47":-5.600356042887598,"48":12.35655297754054,"49":7.006743644542475}},"15":{"bias":-1.4347290409469386,"weights":{"0":3.4135322920311295,"1":-0.19497514122607967,"2":-1.6700666270813016,"3":-0.5185468499745125,"4":-0.08402801030798275,"5":0.8761582732847157,"6":-1.0965447312305348,"7":0.4450759722091291,"8":0.4260371151057585,"9":-0.16926745653735156,"10":-0.5962684044439348,"11":1.0328945595707162,"12":-0.028765829905157844,"13":-0.30784309017137074,"14":-0.6207234866018961,"15":-0.7496396445433443,"16":-0.4242093463493436,"17":-0.2228480046175133,"18":-1.9229801476201929,"19":-0.7173807841895877,"20":-0.3237846543207728,"21":-1.354423968893754,"22":-0.6749590484442499,"23":-1.009259791951521,"24":-0.14193864876034162,"25":-0.4610613739419164,"26":-0.42140506191580446,"27":-1.2374887631699312,"28":-0.4607595794277162,"29":-0.3866888091414459,"30":-2.6721458148747894,"31":-0.7625573698129765,"32":-1.153059769185607,"33":-0.8599338398165005,"34":-0.18636527926722535,"35":-1.9449958430000664,"36":0.9889003366871036,"37":-3.0494972980180184,"38":-0.470034748405745,"39":-0.519315187261207,"40":-1.7382456020813664,"41":-0.7635495805340401,"42":-0.633263394349884,"43":-1.866148445890401,"44":0.883919314670307,"45":1.1169334963095072,"46":-0.8280440414147501,"47":-0.14263982188191043,"48":-0.30025311816870276,"49":-0.7093937266898213}},"16":{"bias":-1.3284900925167509,"weights":{"0":0.4835611468537026,"1":-2.932077089404356,"2":-1.7546350612306658,"3":-0.10628206168709921,"4":-0.01558792340805684,"5":1.3957761733751501,"6":-0.513549161680273,"7":-0.05925579016346353,"8":-0.1465727276639316,"9":0.012206678987514395,"10":-0.16346282461071823,"11":0.015516120425064898,"12":-0.7058514823329886,"13":-0.5936591787852417,"14":-0.3721239634892893,"15":-0.27177508012956986,"16":-0.08243955881797184,"17":-0.20979420847904798,"18":-2.183658894621546,"19":-0.3781472968685972,"20":-0.08111863333367646,"21":-0.40549616063351246,"22":0.34548596828796013,"23":-1.8325146869653572,"24":-0.3169247352158499,"25":-0.4062431305839348,"26":-0.11141232619453188,"27":1.2218938164768183,"28":-0.178300703418978,"29":-0.03654913652839663,"30":-1.3987912414850747,"31":-0.01904348174881519,"32":-1.0638028219326279,"33":-0.31462037143365446,"34":0.7676399330849939,"35":-0.7238606703640516,"36":0.9045780389774962,"37":-1.1292924070266805,"38":-0.3435434656723886,"39":-0.5332407265205846,"40":-0.9396404123285418,"41":0.057260414799994094,"42":-0.19148451407344297,"43":-1.3024106792444967,"44":1.2204456131230321,"45":3.2280887108727545,"46":-1.2891660285930602,"47":0.3238820278936203,"48":-0.3032950700774539,"49":-0.23672257029476154}},"17":{"bias":-1.918003218283299,"weights":{"0":-0.4757953968219794,"1":-1.8973997324183423,"2":-0.001632318979478509,"3":0.40686937955435654,"4":0.10742809053147846,"5":0.2959735873516761,"6":-1.9548151987168798,"7":0.2122156989780332,"8":-0.5914622929497322,"9":0.8588444938551545,"10":0.10943173782230911,"11":-0.3479998822890162,"12":0.08595820452639122,"13":-0.18116067039799472,"14":0.19184029397843744,"15":1.3136743206463488,"16":0.715172613524815,"17":0.3093520479355231,"18":-2.182528166743895,"19":-0.06754578913153016,"20":0.3813848076006455,"21":-1.0239466018572079,"22":1.2431134162433832,"23":-1.3641519951551706,"24":0.0547874610959417,"25":-0.24038950064616946,"26":-0.3328286639989846,"27":-0.0432728628067694,"28":0.27647030473999673,"29":0.3722598714997496,"30":-1.619915691630979,"31":0.4221425086511348,"32":-1.9537261802592671,"33":1.2418471761673757,"34":1.9294562638347807,"35":-0.8327494099684967,"36":0.5808502826106178,"37":-1.2747568122067927,"38":0.14044270369236614,"39":0.27163959842245544,"40":-0.6716359706106025,"41":0.6940612193998112,"42":0.9230870266435914,"43":-1.160958764304329,"44":-0.03268195994054801,"45":0.9855377651082553,"46":-1.6861240052161606,"47":0.9928851735183744,"48":0.6096136257982651,"49":0.43074398293629435}},"18":{"bias":-1.4376425788310554,"weights":{"0":0.4767230579626758,"1":-1.7548397456937457,"2":-1.4735950472872976,"3":-0.3990956038041865,"4":-0.02002353303715771,"5":1.0772703615466677,"6":-0.40813068269167896,"7":0.20915393633229612,"8":0.15274165192060593,"9":-0.285621183044827,"10":-0.11820118138330736,"11":-0.3662795980155803,"12":-0.20604872517810927,"13":-0.28115503740641623,"14":-0.0773381071297022,"15":-0.28974712783756285,"16":-0.2821601454719112,"17":-0.39424710948087366,"18":-1.549623182666842,"19":-0.292221009490065,"20":-0.2596386262332042,"21":-0.9475111124104125,"22":-0.05976634461262994,"23":-1.2029480551503895,"24":-0.4068549053788961,"25":-0.43326609818493744,"26":-0.21361593900158266,"27":0.1577409428131821,"28":-0.4280968542387839,"29":-0.2777368740563638,"30":-1.6760965458187673,"31":0.5255959145300658,"32":-1.2581310134504007,"33":-0.6590886154554615,"34":1.5680063096927057,"35":-0.3408802126882628,"36":0.9819043288215503,"37":-1.4432271019916039,"38":-0.1820035763615719,"39":-0.40074334010239004,"40":-0.7694119587497961,"41":-0.022732272140751696,"42":-0.1453138129106955,"43":-1.2030227596791971,"44":0.8594241930043156,"45":2.3182665152936677,"46":-0.8222476325354298,"47":0.22340628250957456,"48":0.33826380309849396,"49":0.14912797259411867}},"19":{"bias":-1.761192672449561,"weights":{"0":0.5730414754116339,"1":-3.499700303138038,"2":-1.4572040145207652,"3":-0.20253579607043307,"4":-0.05385217344812793,"5":1.540017114764557,"6":-0.878704650617639,"7":0.29186714721819695,"8":-0.06038884474102305,"9":-0.39013243389353175,"10":-0.47875894614778175,"11":-0.22509734096724476,"12":-0.6101059155158703,"13":-0.37349830056503647,"14":-0.13956021216404024,"15":-0.5170063914456923,"16":-0.33761994214788404,"17":-0.3498160598536043,"18":-1.88678647211705,"19":-0.042529194148401825,"20":-0.14381345852024152,"21":-0.15976119037015,"22":0.3892781693990477,"23":-2.6261004993322588,"24":-0.23429376934026627,"25":-0.31005095160931906,"26":-0.18530549617386238,"27":1.8410320663841264,"28":-0.2787104577808467,"29":0.09280879185710676,"30":-1.6248420547795717,"31":0.30647368338120273,"32":-0.8972345753450411,"33":-0.4128804226338194,"34":1.013632567633506,"35":-0.7933581703126025,"36":0.7201945831442431,"37":-1.1935183084965881,"38":-0.34701721088190973,"39":-0.3135636683832201,"40":-1.174777464892973,"41":-0.3345640625026044,"42":-0.3076680573933917,"43":-1.1831326169505987,"44":0.9291275606786744,"45":3.551004256980713,"46":-1.4819801346492703,"47":0.09780264996831373,"48":-0.9436545111559269,"49":0.041680410716091396}},"20":{"bias":-2.0808519375657584,"weights":{"0":6.349176582442348,"1":-17.96008850149619,"2":2.2819872855611205,"3":-0.046558433932857204,"4":-0.2748568337441361,"5":1.5471733032437747,"6":-3.090705646453911,"7":0.22891326386115113,"8":-1.2482035472306354,"9":0.041790809128950765,"10":-1.6912216781207379,"11":-2.2374428351205347,"12":3.2781194000370415,"13":-0.2800806815067224,"14":-0.6935130589194574,"15":-0.5047483687754727,"16":-0.34461970097933103,"17":-0.17148401406554317,"18":-0.07165935858486379,"19":-0.9346194902305651,"20":-0.5598041342302499,"21":-1.3339585996110834,"22":-0.33697876525792797,"23":-4.175680433263517,"24":-0.3366815866771974,"25":-1.0414920028558166,"26":-1.813118949428882,"27":-1.785450265501085,"28":-2.02262670427263,"29":-2.2268244481919597,"30":-2.158867559831647,"31":-1.5678698727800586,"32":0.47375981766221104,"33":-2.0616620089052953,"34":0.7984589936134323,"35":0.1334545961870178,"36":-2.816317400187916,"37":-1.5600197376150127,"38":-0.566076135735502,"39":-0.3752508992629892,"40":2.3835391410673306,"41":-1.0564335661265716,"42":-0.20885529600281766,"43":0.9661492694209666,"44":3.6054884046611457,"45":1.5564115339675924,"46":-1.0645069258965747,"47":-1.4402000839699605,"48":-5.042903587237053,"49":-3.2178956866556656}},"21":{"bias":-0.1590421923012407,"weights":{"0":-2.0894046221662532,"1":3.30459097966808,"2":-3.1152607205350678,"3":-0.9864547928419136,"4":-0.6998020370654529,"5":0.9031145352204126,"6":-5.736705372732133,"7":-1.4895247662270958,"8":-2.1441340588874453,"9":2.0296665527184907,"10":7.674844735001309,"11":-1.6037212654123945,"12":-0.7509125162649286,"13":0.2658508939356706,"14":-0.1431216776179092,"15":-4.4085722743477875,"16":1.1788254153817181,"17":-0.37834021729502865,"18":3.9775901984899233,"19":-5.090094266626097,"20":-0.5390760573700059,"21":0.9037540087056946,"22":-4.1982741308993194,"23":-0.533042830787976,"24":-0.7856560440268741,"25":-2.7425426464542024,"26":-1.4530395753606924,"27":0.24237844457654617,"28":2.814136815461478,"29":-1.1021670356255573,"30":-0.5258370283663998,"31":-0.42002106596449224,"32":-0.7121276050689663,"33":-4.735326632817625,"34":0.6223846695269436,"35":-3.5335392987793863,"36":4.535366111544319,"37":-6.773048110079997,"38":-0.40810786558939344,"39":-0.9525794870999469,"40":-2.357317735862327,"41":-3.100782596138521,"42":-1.0203494449832806,"43":-3.0598911420657067,"44":6.893507701010552,"45":-0.8989903279811868,"46":1.2221166648777706,"47":5.721418067112733,"48":8.051605438765453,"49":-1.6678228217758733}},"22":{"bias":-2.3409071939952133,"weights":{"0":2.1230903262008565,"1":5.547985676718863,"2":-3.756054319385317,"3":-0.6188692881263953,"4":0.03991354708878454,"5":0.5143023432555485,"6":-0.822541546293931,"7":0.01432619299224716,"8":4.537272023163568,"9":-0.5833952910782312,"10":-2.383440680060493,"11":0.13119507277479076,"12":-0.6996837089012902,"13":-0.26102519551846504,"14":-1.691359428038615,"15":-1.751076735734043,"16":-0.587514252365862,"17":-0.46650081137382665,"18":3.864037744099158,"19":-0.36042480382055975,"20":-0.5307581247986476,"21":-2.294786356313062,"22":-0.7487409275621643,"23":-0.46667490178494425,"24":-0.27568657869576113,"25":-0.8051572301222436,"26":-0.6235789177613414,"27":-2.2953048016197837,"28":-0.40877976614361944,"29":-0.8197853563814002,"30":-2.7490775187570233,"31":-3.905670790373475,"32":-3.9990528638325213,"33":-5.320441078747928,"34":-5.1009973996696365,"35":-6.5978091700349255,"36":0.18167152687335994,"37":-2.4436326722874644,"38":-0.4878453562734529,"39":-0.5065955031362219,"40":-1.1843458301047192,"41":-1.8986224327379604,"42":-0.3404195439678299,"43":-0.9945215345313833,"44":0.9096525859964719,"45":-0.2611687339724068,"46":3.3361175387439195,"47":-0.33640245065192514,"48":6.663022848456521,"49":-0.6746204781530961}},"23":{"bias":2.472614939615981,"weights":{"0":3.698014610948999,"1":-3.733772144924477,"2":-3.3826738856205845,"3":-0.6827967651582292,"4":-0.1847175711895386,"5":0.289316703390775,"6":-13.038035948495653,"7":0.05316954340956303,"8":-0.7138852539238106,"9":-0.44313401333488006,"10":0.9978322609365196,"11":-8.358529894168912,"12":-1.3426733059286415,"13":-0.39437674538744066,"14":-2.268789281318717,"15":-7.495357969784476,"16":-0.7722942392047494,"17":-0.23970321210006004,"18":-0.6164627478403258,"19":-0.48197469135490223,"20":-0.6934572931537087,"21":-0.39713536702964064,"22":-2.453209285259988,"23":-0.4775138121169846,"24":-0.14983659232272772,"25":-1.7712144022860885,"26":-2.961709333875157,"27":-3.427023855358787,"28":-0.363730584964946,"29":-0.713066140973269,"30":3.0691151976009707,"31":-9.5561889651596,"32":-9.576166721219623,"33":3.371944513972539,"34":-6.002366707857034,"35":1.5099847189687003,"36":0.5411591553444756,"37":1.990916455698572,"38":-0.4831005593978648,"39":-0.29649954146912605,"40":-1.5119747417602702,"41":-2.4670855555672806,"42":-0.7049281816221448,"43":-1.1660975756459644,"44":6.5029977727922486,"45":-2.1839749442471263,"46":-3.309411087971604,"47":-1.3217508663807587,"48":7.900070542636631,"49":-1.685491768787047}},"24":{"bias":-0.1379755389130921,"weights":{"0":2.7629480031102887,"1":-6.300067006705421,"2":3.437671645562707,"3":-0.12081578550242186,"4":0.2916108730813497,"5":2.7849440617490413,"6":-2.352480458523276,"7":0.8540343831026916,"8":0.5423179234053929,"9":-0.1710515862462282,"10":2.196427144352164,"11":-2.4680300338885393,"12":-0.2859203461157661,"13":-0.292150104280719,"14":-0.5404041503627619,"15":-0.0776927548717386,"16":0.38609082768385233,"17":-0.36190114948994945,"18":-0.8752590766192079,"19":-0.9134118976393888,"20":-0.2985294078002983,"21":1.0842311342117466,"22":-0.2861427011027315,"23":-5.009652641244677,"24":-0.4181945291331334,"25":-0.4432495376146506,"26":1.175713456516721,"27":-2.9144965871026565,"28":1.8092160805379796,"29":0.09376071112145326,"30":-1.694000483203959,"31":-2.499584084999542,"32":-3.2598176315149794,"33":-0.6650941978223229,"34":-0.2605922741171306,"35":-1.382680941190152,"36":1.8471529807299365,"37":-6.370178749917687,"38":-0.4736958394667544,"39":-0.12788604558183883,"40":-2.531776659285353,"41":-0.07650930770715786,"42":-0.32972258892976214,"43":1.0768785299030093,"44":2.2304645936832452,"45":3.511672885819918,"46":0.36787184162713316,"47":-5.036912712627272,"48":-3.150154566070146,"49":-1.4551273402856166}},"25":{"bias":-13.214976226585767,"weights":{"0":-0.9149528585443669,"1":-18.282927439497236,"2":-1.421888632841685,"3":-0.5018505603830974,"4":-0.7803823296366076,"5":11.148574040099144,"6":11.990759309940975,"7":0.1792025622048896,"8":-1.5273023913364951,"9":-1.5980316479980428,"10":-4.063392418514424,"11":-4.965137911864035,"12":1.442261766826398,"13":-1.8317564177741221,"14":1.6350073252337005,"15":-0.9666440050787669,"16":-0.9013559117210578,"17":-1.270915274652281,"18":-12.12410694582936,"19":1.273851325478112,"20":0.6883389253234776,"21":11.908392126818313,"22":-4.804749125406782,"23":-10.401884080129124,"24":-1.4957537905941927,"25":3.533370326095301,"26":-2.9998450636248535,"27":5.313988791410879,"28":0.14952006426076692,"29":0.3429359966667864,"30":-3.794951359353443,"31":5.528281890982629,"32":1.2455748128457498,"33":-0.5731154368482123,"34":-4.328002069407341,"35":-2.3030840036726468,"36":3.2645680530029764,"37":-5.376338072595024,"38":1.4173202850106013,"39":-1.2734486275977002,"40":5.153843040800061,"41":1.6314435880335472,"42":-0.41115457499531954,"43":4.042860989642544,"44":9.993900243507872,"45":16.1101183029017,"46":1.7680670918750685,"47":-1.6799740058449681,"48":3.2720086249700193,"49":-0.39284821747880727}},"26":{"bias":-15.20231668826632,"weights":{"0":2.838902288688639,"1":16.381029084991226,"2":-3.198441180843325,"3":-2.82101265702302,"4":-2.0000602734470245,"5":4.86545852251279,"6":-2.07049313572214,"7":-3.120739683462583,"8":-4.765240314939533,"9":-3.9509935686470796,"10":-4.109815694484949,"11":12.531203012427818,"12":-0.17113398006672187,"13":-3.5610657060611426,"14":-2.9942167429758944,"15":-0.4231869458321039,"16":-3.9534878558963933,"17":-3.0974932168778824,"18":2.5212184945588754,"19":-5.215486817456938,"20":-2.4615616589604734,"21":6.488778698413755,"22":-5.981682793052444,"23":-0.5257728538712823,"24":-2.463663559650742,"25":-0.6840232514119252,"26":-1.4021053316599008,"27":23.546712877825634,"28":-4.906531267315229,"29":-1.8334783816205182,"30":-11.63378912495419,"31":-5.083378723506776,"32":-3.2947708289209867,"33":3.0878960919056544,"34":13.723918227515645,"35":5.310485447853128,"36":17.297880283680914,"37":10.664652211765576,"38":-2.373592173996108,"39":-3.3582531993812252,"40":4.513844490544042,"41":-3.4007595839250135,"42":-3.0683777039952314,"43":2.854198852748971,"44":4.967609368137305,"45":10.514169068558203,"46":9.090419725863423,"47":-3.170860735648,"48":-7.157783410338081,"49":-2.5132878099235967}},"27":{"bias":-4.129846140952368,"weights":{"0":10.888326606745029,"1":-6.864811393046278,"2":-8.360589695257735,"3":-0.8052891129854564,"4":-0.5708661031516243,"5":2.0010781327994693,"6":-6.747390946492835,"7":-0.8647763083228769,"8":6.376485986257116,"9":-1.0370705712304775,"10":-2.9258257081254495,"11":-7.347168019967938,"12":-0.6779758481898882,"13":-0.6426910153249584,"14":-1.1127799297356655,"15":-3.864007933034758,"16":-1.0154120615399715,"17":-0.9612916158735163,"18":9.340064430059439,"19":-0.9880033205915869,"20":-0.6609829514855922,"21":-5.627625893848797,"22":-1.5889784259147424,"23":-2.8443572385343785,"24":-0.7991705444874061,"25":0.11898148610650955,"26":-1.69830942614757,"27":6.779261481414869,"28":-0.7411341323741439,"29":-0.21256717251983628,"30":-4.568678456370571,"31":-4.573351723853622,"32":-4.071341565158448,"33":-0.24338172505516728,"34":3.012882019185415,"35":-2.382205720573558,"36":1.848800684532311,"37":-4.573294978084511,"38":-0.7562782712580159,"39":-1.0212191951627445,"40":-4.016872901285976,"41":2.5743352025508637,"42":-0.7028554405174586,"43":2.121789407657406,"44":-4.318842348102341,"45":3.9917668041860463,"46":-3.331579099639263,"47":-0.39467776809918514,"48":0.8405548263579635,"49":3.1564277666112273}},"28":{"bias":-4.374683441657876,"weights":{"0":1.480597199209741,"1":-5.101443530148872,"2":-3.6078553474151196,"3":-0.7131330172122096,"4":-0.7557871120590904,"5":3.266609972746345,"6":0.8208150339480597,"7":0.09844229865313053,"8":-1.7778809075226336,"9":0.3561827646649967,"10":1.5120394788060485,"11":-0.6796873107867556,"12":-0.5115831873901746,"13":-1.4408725992863847,"14":0.023283080817469055,"15":0.6301661816355865,"16":-0.028041735088798432,"17":-0.9351113501607039,"18":-4.893602257009995,"19":-0.5369604566610737,"20":-0.2688794692720367,"21":-1.0849360360912892,"22":1.4302092078649549,"23":-6.289935354622626,"24":-0.5694323899850886,"25":-1.866771229349168,"26":0.6512255148956754,"27":3.2065551497459763,"28":0.6513152994959832,"29":1.515977112956832,"30":-1.420334100876142,"31":3.172562360396479,"32":-1.775623740740269,"33":-2.5426678201256845,"34":3.3054410352112913,"35":-0.0010487357624267698,"36":-1.1335824158941563,"37":-0.32013176140205357,"38":-0.24823543801809428,"39":-0.7427061463899204,"40":-0.47171310461638216,"41":0.014114648495109804,"42":-0.7485294985306278,"43":-1.1522281980107085,"44":2.330162426529095,"45":6.209595888407358,"46":-2.034972702306845,"47":-3.6231666144424692,"48":2.8362926495722047,"49":1.059737092961277}},"29":{"bias":-3.5692205383072806,"weights":{"0":1.4956030394276552,"1":-7.300041962828623,"2":-4.218016544036971,"3":-1.091750733880252,"4":-0.20998716895204209,"5":2.7860784780648955,"6":8.26879425269968,"7":-0.19715301753012554,"8":2.789441983171883,"9":-1.0670465129561888,"10":-0.023348274342203382,"11":11.00530482141642,"12":0.00532394390635995,"13":-1.5297740544833112,"14":-1.4479770792348552,"15":1.8006408613884424,"16":-0.4288530992592206,"17":-1.0601194969200138,"18":-9.740445892811533,"19":-0.6349883808665463,"20":-1.8310414978581684,"21":-5.340246047657432,"22":-2.683783255425488,"23":-1.9385666983560954,"24":-0.5774712864869692,"25":0.279953994908168,"26":-1.8332389349166374,"27":0.1338231484918944,"28":0.1196205730764438,"29":-2.22904902790043,"30":-3.677529289073696,"31":1.7718777381963604,"32":-1.9156692679070202,"33":5.053261844987793,"34":-0.8748819347405119,"35":-4.049470688077279,"36":0.6112005941035996,"37":-6.112732684119284,"38":-2.1151432634870764,"39":-0.7540839867506433,"40":-1.5648951039061603,"41":5.105049657693141,"42":-1.748035214454502,"43":-2.159173327034539,"44":1.2374338152264996,"45":11.428069180217491,"46":-2.644320129051643,"47":-3.476244893911391,"48":2.7765610219287744,"49":-0.6760870540211837}},"30":{"bias":-1.658099454588059,"weights":{"0":-0.42269798470490394,"1":-2.469627164372662,"2":-2.155220664802453,"3":-0.2462857250005081,"4":-0.2403954943007527,"5":1.343950010223152,"6":-0.5839850252518543,"7":-0.019985889647640774,"8":-0.3356743341324455,"9":0.13452254600623673,"10":0.013402465410055974,"11":1.4941382724583734,"12":0.08594935414838592,"13":-0.6852043242004461,"14":-0.47087922881022504,"15":0.34483064775339795,"16":-0.05828102008946773,"17":-0.5039271683555485,"18":-2.4354611512483526,"19":-0.2945804389066562,"20":-0.008070354302043871,"21":-1.8009939503405987,"22":0.8503167835715714,"23":-2.545251317768688,"24":-0.6980217714872532,"25":-0.7673022882358045,"26":0.04460910108593342,"27":2.858341567726732,"28":-0.3052435112426215,"29":-0.11668235272096787,"30":-1.9779748449415988,"31":0.7019722566830919,"32":-2.1995167398554303,"33":-0.18722109276051696,"34":2.4399788374438085,"35":0.46760871132959825,"36":-0.023560475346666453,"37":-1.4333058109987273,"38":-0.13129171169062667,"39":-0.5580392909660796,"40":-1.0942505440727717,"41":-0.05195294503484567,"42":-0.1297645503927978,"43":-1.843528853284243,"44":1.6998200360329712,"45":3.72889736028655,"46":-1.0556905360410194,"47":-0.6506890155841263,"48":0.7271204842827542,"49":0.750270585145889}},"31":{"bias":-0.8830611421069348,"weights":{"0":2.7954172355513616,"1":-0.29393067503931447,"2":-1.5383505109381241,"3":-0.5413842580934141,"4":-0.01648393304692271,"5":1.0404377953204473,"6":-1.2834986617606414,"7":0.2054855739753067,"8":0.5621627683482254,"9":-0.4401607615041958,"10":-0.4021209071412486,"11":1.168490396642636,"12":-0.058063832690170535,"13":-0.38802383321226236,"14":-0.4415488203939319,"15":-0.7890224067694199,"16":-0.5786090854851105,"17":-0.18545875479902355,"18":-1.993010517920868,"19":-0.6925169446001761,"20":-0.44206512975726286,"21":-0.5476330371026639,"22":-0.5698734315545839,"23":-0.9007796919372167,"24":-0.18916082706463214,"25":-0.5043815670224544,"26":-0.41151045001208736,"27":-1.3819274226662708,"28":-0.2800066906989618,"29":-0.2752599315240649,"30":-1.4283673979623255,"31":-1.1566301400384393,"32":-1.1370942674075604,"33":-0.8479891248367292,"34":-0.375954491697995,"35":-3.186116159079653,"36":0.7234079499182231,"37":-2.4821575755357808,"38":-0.3473152046985227,"39":-0.3380352742916688,"40":-2.3276570594006527,"41":-0.645500039796645,"42":-0.3474997716279842,"43":-1.9056136442757705,"44":1.6797964166570076,"45":1.0886382262099707,"46":-0.6260356259871345,"47":-0.3541905933028437,"48":-1.3252863505629031,"49":-0.4702071990213693}},"32":{"bias":-1.7931310977335824,"weights":{"0":0.32923935956913664,"1":-2.3337768462842905,"2":-1.7454723993145114,"3":0.024924488573254418,"4":-0.04393685922181011,"5":1.4023325844386683,"6":-0.0367194363611652,"7":-0.08290057753831548,"8":-0.2363137901168238,"9":-0.025056639153706574,"10":-0.1397914790256472,"11":0.2937871116451681,"12":-0.2813006257880933,"13":-0.09899043736362646,"14":-0.4071149148972336,"15":-0.16073303136498135,"16":-0.1503590427884524,"17":-0.1279516555974956,"18":-2.0162493660898217,"19":-0.5204852739675025,"20":-0.1557022841128177,"21":-0.838267198993601,"22":0.056951090420555135,"23":-0.7773030613732659,"24":-0.30028358512681674,"25":-0.33385719802953556,"26":-0.1907614154267134,"27":0.313382571190766,"28":-0.21875127751547135,"29":-0.16836271785484222,"30":-1.700901457716331,"31":0.09111689992065258,"32":-0.9788421447510975,"33":-0.660735025913258,"34":0.844044715627045,"35":-0.39842757565180803,"36":0.8362218290793545,"37":-1.684050108451425,"38":-0.3451049681194078,"39":-0.1816424428181243,"40":-0.6593896089775018,"41":-0.34488183946879997,"42":-0.26892301825876985,"43":-0.9749943864680009,"44":1.3151891252573096,"45":2.6842066744489745,"46":-0.9145237901667572,"47":0.6066520451241857,"48":0.40959989149278647,"49":-0.22403207971962394}},"33":{"bias":-1.4884564164063663,"weights":{"0":-0.41830488215268036,"1":0.3384319097022581,"2":-6.284059048446482,"3":-1.548191694862879,"4":0.06977356235052182,"5":0.5213200952558268,"6":-9.01850036729082,"7":0.5841076224721083,"8":1.732568866273125,"9":-0.5800388965515045,"10":-0.08092584523082198,"11":2.0971927900521905,"12":-1.1265672620181242,"13":-0.40020853809704215,"14":-1.347256302207528,"15":-2.295236361678824,"16":-1.6751344297327235,"17":-0.5582292729828889,"18":-4.737397648996179,"19":-1.5598078912182027,"20":-1.5044398830779837,"21":-6.983600399551015,"22":-6.4190595643637005,"23":-0.7679263237621141,"24":-0.5389369743851185,"25":-2.0621359790426683,"26":-1.619448888104191,"27":-1.9857334750732383,"28":0.24223619932630605,"29":-2.5410910905373427,"30":-3.596291780222393,"31":6.902824263099338,"32":-1.4150091463509888,"33":-6.8218096246096,"34":8.020585639378453,"35":-2.5979328057866895,"36":0.3957691992252677,"37":-5.079754022726399,"38":-1.2689564511705014,"39":-0.4225181553077661,"40":-1.5110858802227192,"41":-1.145622662579682,"42":-1.299839840099269,"43":-3.205297093007647,"44":0.7751004708267124,"45":1.0348118935192514,"46":-1.7417657195674447,"47":-0.5207487629501079,"48":8.76671390480402,"49":1.8178537491394946}},"34":{"bias":-2.9406390982184964,"weights":{"0":2.319718491080433,"1":5.019335858888872,"2":3.180974718738144,"3":-0.5597179381741704,"4":0.14398963562928632,"5":0.26881880507857414,"6":2.8595805079195697,"7":0.5155204428082909,"8":2.028756032996498,"9":0.18571841877212353,"10":-0.4952422622677914,"11":1.253018283426693,"12":1.8453437990971067,"13":-0.27347901999699203,"14":-1.2941093306068137,"15":-1.2736541957991308,"16":-0.09414048777210371,"17":-0.5751107302853437,"18":2.338713186503992,"19":-0.7662380410361858,"20":-0.6238866581515743,"21":-3.842732952670335,"22":-0.7552511455219114,"23":-2.0259920030778957,"24":-0.7365201420271885,"25":-3.1967988795051765,"26":2.715922470127223,"27":1.1862413896845905,"28":-0.6717951147695916,"29":0.07744036240494452,"30":-2.8774407697300726,"31":-1.1721848897084075,"32":-2.4880686807308137,"33":4.005465608864134,"34":2.861954395758065,"35":0.9927810105629916,"36":0.989317977878271,"37":-14.341751949139693,"38":-0.6140386000058182,"39":-0.6798131060949738,"40":-1.5514192338962356,"41":-0.608185170571225,"42":-0.994372345588455,"43":-1.9276474193257807,"44":2.627207053258868,"45":0.28116048952351297,"46":-0.15828674884598293,"47":-3.9888127288497683,"48":0.6710197635721573,"49":3.0148002076264033}},"35":{"bias":-1.02139038316718,"weights":{"0":1.091706917785538,"1":-2.178189931542771,"2":-1.2559624321086622,"3":-0.33096039912328445,"4":-0.16942141300987598,"5":0.5883136966922689,"6":-1.4471894602764814,"7":-0.06893084253891012,"8":0.029402244314280256,"9":-0.3945363289743767,"10":-0.3735737378350609,"11":0.29217325681134465,"12":-0.7862315363328304,"13":-0.16440970466274768,"14":-0.517018530534765,"15":-0.25816793629542556,"16":-0.5010305546953252,"17":-0.15588909025887648,"18":-2.1142274575924684,"19":-0.33975260279465336,"20":-0.194559980151747,"21":-0.09157341313859217,"22":0.24028994443936505,"23":-1.2974121306803894,"24":-0.2965555151998948,"25":-0.3661929087731055,"26":-0.34698132397096837,"27":-0.3003265319460522,"28":-0.6268564703585184,"29":-0.41900534643274556,"30":-1.3898582836643587,"31":-0.40163582151001304,"32":-0.9450049073448339,"33":-0.48537440039513274,"34":0.2787954239504928,"35":-0.5649197626709822,"36":0.772431902076322,"37":-0.8497862726326508,"38":-0.45008202252040036,"39":-0.42912112046594775,"40":-1.573902010706361,"41":-0.16301362798727004,"42":-0.21283521021508872,"43":-1.3092698501240747,"44":0.5977714915709225,"45":1.2110553635935375,"46":-1.1705789419425154,"47":0.04610347405818333,"48":-1.1980301782668292,"49":-0.2581642502154036}},"36":{"bias":1.2938236359568795,"weights":{"0":-3.2966569741067278,"1":-11.929744927380336,"2":-2.2683339906374536,"3":-1.6350290369714007,"4":-0.9140632150789608,"5":-1.3297138885613111,"6":3.6279717953399797,"7":-1.3732351575448996,"8":6.595523033859859,"9":-0.76382406008588,"10":-0.11037551845828657,"11":-0.3541078112920114,"12":0.6135684023781828,"13":-1.217169796079473,"14":-2.2549876698336195,"15":-0.33284231147191057,"16":-1.3562757653948516,"17":-1.0432956097854431,"18":14.09545280116117,"19":-3.3474263723830764,"20":-0.8020160232182668,"21":-1.8981147351307723,"22":2.483777513176493,"23":-4.768717836574893,"24":-1.3392950851808567,"25":-10.022431925337262,"26":-7.127004719424069,"27":4.469785203698707,"28":-0.8938538874976278,"29":1.0479269823801671,"30":8.445968475678486,"31":-0.5935276493439837,"32":-3.4662841197522067,"33":-0.050640311841326446,"34":2.1586905864274466,"35":-1.782097333013784,"36":2.078040721829022,"37":-7.507855381107033,"38":-0.3441981430682743,"39":-1.2729583797168824,"40":-6.56338724211467,"41":-2.1831559499547293,"42":-1.562385264595995,"43":-4.176573981281773,"44":-15.519983045081899,"45":2.534583944980237,"46":-6.152339338571953,"47":-4.378474184594484,"48":-12.328992725799413,"49":0.028164261425099212}},"37":{"bias":-1.5032415323901267,"weights":{"0":0.9336553103989372,"1":-0.6839815317151293,"2":-0.557494320096297,"3":-0.5557539773215576,"4":-0.09768025145515764,"5":0.8925883699778904,"6":-0.6369956866027443,"7":0.25179159132533013,"8":0.04275741717521203,"9":-0.3026834193152092,"10":-0.24847653654846424,"11":0.45922031204174135,"12":-0.29753741168053965,"13":-0.4953817011603124,"14":-0.158189272598304,"15":-0.6531398939921382,"16":-0.47475093405860813,"17":-0.4021651351771221,"18":-1.0688621670056344,"19":-0.44290009813620757,"20":-0.5065024208362869,"21":-1.3435604512397548,"22":-0.5010741257347121,"23":-1.4101768658744196,"24":-0.26685954905476655,"25":-0.7895390961515347,"26":-0.5320680559267685,"27":-0.6307545272286756,"28":-0.33992860960197446,"29":-0.658481989192846,"30":-1.8800070939313958,"31":0.3639643715486716,"32":-1.3461664669378455,"33":-0.5266642252743294,"34":1.2942711209296083,"35":0.08635400317300915,"36":1.5983039875474714,"37":-2.4551009626214926,"38":-0.6987056384372621,"39":-0.33044553343786953,"40":-0.7911231811293012,"41":-0.3318963339855142,"42":-0.35853995353822515,"43":-1.171887863432845,"44":1.527223113684229,"45":1.3207631424168034,"46":-0.7118385361442081,"47":-0.18306202973396346,"48":-0.07701986583015523,"49":0.25220982120497876}},"38":{"bias":-4.22303189820577,"weights":{"0":-1.5559185619088078,"1":4.007999520287475,"2":-9.517295077864617,"3":0.7957440004767408,"4":1.1194766627173145,"5":2.971006711086279,"6":-2.552624814440045,"7":2.195280306227486,"8":-2.4484800608718453,"9":0.2638899424994699,"10":-3.2765176043254405,"11":3.389835475255898,"12":-1.0719878402862366,"13":0.6945980935273912,"14":-1.3807900669267192,"15":2.2023498064572795,"16":0.6015689712895087,"17":0.4658708740205099,"18":0.5640479307846145,"19":-0.028842212359759187,"20":0.16149464441467157,"21":-1.7237333743502676,"22":0.9361151518045671,"23":-1.1189040147348834,"24":1.098616465712515,"25":-0.9683531328348693,"26":0.06415733181570805,"27":-4.700830244809916,"28":0.12093000894911282,"29":-0.12473855876105498,"30":-8.717862331972336,"31":-2.5341688547942542,"32":3.812805994170796,"33":1.4379515385996318,"34":-0.3905131115610612,"35":-1.363808559340633,"36":0.3476282573332741,"37":-3.8808728978646396,"38":0.16218953278769552,"39":1.0372485152975852,"40":2.2844139561027275,"41":1.4187737227488302,"42":0.40241861282732366,"43":2.47524535133605,"44":11.170995111388292,"45":-0.9124836368847117,"46":-2.562416457241125,"47":-1.3697207683808574,"48":1.5009597113893423,"49":-2.2226438602484806}},"39":{"bias":-1.616148422508096,"weights":{"0":2.0365882019035952,"1":0.08813369841355198,"2":-0.519032029378172,"3":-0.4116158145733767,"4":0.043036915922644345,"5":-0.28455802851105105,"6":0.5732434525584164,"7":-0.2795229768029725,"8":-1.3599350370605763,"9":-0.3951817585306806,"10":1.6749477348818065,"11":-2.984114745891588,"12":-0.14525350297861522,"13":-0.40945840707855563,"14":-0.7341456640421303,"15":-0.4585829483902899,"16":-0.31176813412388,"17":-0.1685022930393591,"18":-1.774626206725934,"19":-0.4705403130471757,"20":-0.41949358002290354,"21":1.5942767050011681,"22":-0.7445719509575062,"23":-0.45905751776226045,"24":-0.09157189222497851,"25":-1.2831992735753854,"26":0.029446394787127475,"27":-2.0395172866913653,"28":-0.4669849220956045,"29":-0.3432949810662026,"30":-1.3367969133367184,"31":-1.2536714666372086,"32":-0.7772550847138937,"33":-1.1686856727595998,"34":0.0016711885325600797,"35":-0.3063103060016289,"36":0.3308508761534589,"37":-3.0842389249980853,"38":-0.4106641350914014,"39":-0.15838157315009085,"40":-0.7898429219559489,"41":0.4467361382112759,"42":-0.27885626308007055,"43":-0.7422202293234221,"44":2.7303511240223495,"45":-0.9600013639920473,"46":1.747247893990719,"47":-0.4353567341201667,"48":-1.6554662862733693,"49":1.2426940095030856}},"40":{"bias":-4.884454399819062,"weights":{"0":-2.439119169441264,"1":12.314101700593653,"2":-7.374945070925888,"3":0.8405816835031077,"4":1.4473609333817974,"5":-1.6347947304199417,"6":-4.633200755025967,"7":3.3365177456632815,"8":-2.614403642151754,"9":-0.42790735961924103,"10":-1.090179751636308,"11":1.4794964443661442,"12":-0.5014851574549333,"13":-0.5342630564445671,"14":-1.5966841739901485,"15":4.832721365618136,"16":-0.27991821130710226,"17":0.23056843575341732,"18":-4.822990662109474,"19":0.7152885479300936,"20":-0.25757993435178994,"21":-2.603516356461516,"22":3.2748328471809502,"23":1.526353301287565,"24":2.2683428811208968,"25":0.8959085620376682,"26":-2.232947671585336,"27":-8.888547570503457,"28":-0.709839212949909,"29":-1.3483259476464338,"30":-11.148981651094072,"31":2.7618714101810675,"32":-1.1961520138582682,"33":2.152818893927986,"34":-0.515930027851228,"35":12.395716497938247,"36":-3.145345183080298,"37":-5.96360509181721,"38":-0.8863197932574354,"39":0.8622814209300238,"40":0.7364682351863787,"41":0.9761998893672579,"42":0.43251726939937635,"43":-4.201160174895514,"44":3.4286711372886547,"45":-3.7356036777469255,"46":-4.780038565890717,"47":-1.7794772004656467,"48":4.411743038343383,"49":-1.4443049433292523}},"41":{"bias":-2.017188419559745,"weights":{"0":1.607540027726491,"1":-2.629706491569929,"2":0.770730939301723,"3":-0.3248072335567941,"4":0.08366477548453653,"5":0.2430289172169763,"6":-1.0204496116121045,"7":0.3567051142410884,"8":4.003876393241112,"9":-0.6154464904396608,"10":-0.6053522124609068,"11":6.052555656731903,"12":-0.8639846497202929,"13":-0.4383683655742324,"14":-1.5947087449761008,"15":-2.1922697333759045,"16":-0.7420917064887264,"17":-0.6135485703437366,"18":0.5338209884863273,"19":-1.1908397739112964,"20":-0.43345499702810497,"21":-4.36778336547591,"22":0.10178991465857617,"23":-2.2029481592685083,"24":-0.687404546585626,"25":-2.4383676957911162,"26":-0.8977306071742083,"27":2.7719926135850605,"28":-0.6232856686661751,"29":-0.4365162162619405,"30":-2.513923614843161,"31":3.2686385600054138,"32":-2.6587365727232313,"33":1.0112671804827884,"34":2.0426091431596283,"35":1.9188396730319146,"36":0.03897362204630256,"37":-4.586329394434458,"38":-0.6536354441557981,"39":-0.7820331665404505,"40":-0.948179639252277,"41":-1.626072525022355,"42":-0.47002366583615635,"43":-2.661720792683804,"44":-1.2630591217257134,"45":0.7852989302604799,"46":0.19044730547690045,"47":-0.7952273575576934,"48":-0.32060218299011123,"49":-0.6521020380419836}},"42":{"bias":-1.137623833805727,"weights":{"0":4.111905142282709,"1":1.431927373727018,"2":-2.4792820113853717,"3":-0.4326163243790933,"4":-0.48764695369720523,"5":0.5473873697076437,"6":-3.557490190119695,"7":-1.5288071965487056,"8":-4.145058821824764,"9":0.44625647088678083,"10":2.103193126713663,"11":-2.8648136627912266,"12":0.38327208003708996,"13":0.29315936044568525,"14":-1.3296219624840657,"15":-1.9462706576661604,"16":-0.05706652640024716,"17":-0.0984984284243669,"18":-0.5066975903561347,"19":-2.244139751674007,"20":-0.2748260500601259,"21":1.6514343499756208,"22":-3.5252204491418504,"23":-0.629540830306193,"24":-0.5077080126269078,"25":-2.2337362017383287,"26":-1.7756089021057293,"27":-2.735756545339274,"28":-0.43641199791194046,"29":-2.0629091233732697,"30":-1.1046202492166812,"31":1.5196361944369154,"32":3.457224469939679,"33":-1.3941996512502686,"34":-0.47924341978911567,"35":-0.6455541701676398,"36":-0.30393181494122323,"37":-6.334413956381663,"38":0.08010979681979744,"39":-0.30718509196548577,"40":-1.6648721745768595,"41":-0.22331533961593292,"42":-0.4602595385616299,"43":-0.6618052493537041,"44":4.07933946029681,"45":-0.2684520967199063,"46":2.440232777178353,"47":-0.01969639029881511,"48":-5.321853229057624,"49":1.122078599084522}},"43":{"bias":-1.407411616124822,"weights":{"0":2.1930074240187456,"1":-1.7479072847514365,"2":0.48188618309458875,"3":-0.6306034450724051,"4":-0.23279608782465563,"5":1.322780610782389,"6":-1.6716614936488017,"7":0.6055878805025253,"8":0.25187092687397605,"9":-0.8381273465468463,"10":-0.2193569285290428,"11":-1.7095751176090932,"12":-1.432814267427184,"13":-0.7766015548374353,"14":-0.340242037980352,"15":0.08750827715277228,"16":-0.7078973504602426,"17":-0.6365707185200477,"18":-0.21680256137816278,"19":-0.14673581564889024,"20":-0.7033266810986648,"21":-0.433764569651769,"22":-0.015947919177333392,"23":-2.525520166125422,"24":-0.5862491380588413,"25":-0.49839469164799427,"26":-0.20995632671992184,"27":-1.7818342083294976,"28":-0.5920127755561457,"29":-0.24189051620400032,"30":-1.4655001367832026,"31":0.6589327895148239,"32":-2.0503414699242164,"33":-1.1295851268755874,"34":2.032539676159953,"35":-0.041958143965363355,"36":1.5954484272192784,"37":-2.2344340578265665,"38":-0.8578450041892761,"39":-0.3205897894269859,"40":-1.6926371254454506,"41":-0.6424080553569957,"42":-0.5452537645969456,"43":-0.7268799914743174,"44":1.0374140387015813,"45":2.273683706141317,"46":-0.4324356225471863,"47":-1.2040006814433182,"48":-1.396269741604476,"49":2.3335756526307154}},"44":{"bias":-8.46397568816869,"weights":{"0":-2.637491994904242,"1":-0.848488297309851,"2":-4.700354160760575,"3":2.211257769228988,"4":1.836355172284457,"5":4.77463191723618,"6":-2.737586742160809,"7":2.156759642672745,"8":0.08888777458129088,"9":1.6284229278115758,"10":1.1581796357650387,"11":4.95413036145694,"12":2.265781311692373,"13":1.8806515370974406,"14":-0.35331012538501577,"15":1.2891353402303825,"16":2.674795142887418,"17":1.5139562075570867,"18":-2.720448346703824,"19":2.945242036575812,"20":1.7396977879021496,"21":-9.019792239884683,"22":0.5028773610578497,"23":0.5082018971160727,"24":1.7678070609017644,"25":-0.8874367779070509,"26":-1.2283201094034202,"27":4.180420486002154,"28":2.278607656156884,"29":2.213410755935503,"30":-3.590373994942825,"31":-2.5309313752866234,"32":4.54525095020413,"33":-0.5230128282283936,"34":1.8381942814105097,"35":0.33130326994133097,"36":7.286691651434404,"37":1.2184356325385295,"38":1.7026499734716505,"39":2.6805773848259853,"40":3.594714346934219,"41":-1.0738272594126244,"42":2.2356493147057974,"43":5.052639810754777,"44":-11.620425750801358,"45":6.933857441173458,"46":-9.934340606053325,"47":1.3263370120158586,"48":-0.7462833485819658,"49":-2.411148290585819}},"45":{"bias":-2.002921278808151,"weights":{"0":2.5095272079510327,"1":-4.890133162470926,"2":-1.1106158096825938,"3":0.20529836195271062,"4":-0.018433048241212658,"5":0.41769051986014777,"6":-0.6619937031541006,"7":-0.09083631417702666,"8":-0.5007350544860534,"9":-0.14023502060431633,"10":-4.799303598602379,"11":1.7996235612843017,"12":1.711715635441009,"13":-0.06306064178389212,"14":-1.419924490921075,"15":0.40973950533198905,"16":-1.2354358463617823,"17":0.14811855106896382,"18":-2.129706099586551,"19":-2.2965527910940726,"20":-0.04351146456759556,"21":-0.967736830222097,"22":-0.4723870980929031,"23":0.38340189547027176,"24":0.09522980557303926,"25":0.6201334453237234,"26":-1.4565444227438904,"27":0.6880369305357675,"28":-1.089851097624916,"29":-1.8766849907402405,"30":-2.1632712108822867,"31":0.4584866574090695,"32":-1.169589463838698,"33":-1.2436974527167364,"34":2.6398445675445052,"35":-0.5041039197133645,"36":0.7988085515653509,"37":1.3135458180153599,"38":-0.11627623663227554,"39":0.24544900256376084,"40":5.6011318282111136,"41":-0.23160233502575425,"42":0.4679551120500659,"43":-0.9659587187495775,"44":1.259516231304581,"45":2.7546551833065482,"46":-1.06196089600837,"47":3.136059094890816,"48":0.0930740019748405,"49":1.733934607005557}},"46":{"bias":-1.2683475693379136,"weights":{"0":-0.0053039085667016175,"1":1.6369280982917924,"2":0.09894394233667196,"3":-0.5707252127913232,"4":-0.1891720492046629,"5":0.23989379239402053,"6":0.1086799244782591,"7":-0.25987919243181234,"8":-1.3924002447022694,"9":-0.5878143785234393,"10":0.42415369876813963,"11":-1.3289919069222895,"12":-0.1426601712187111,"13":-0.36290428372366323,"14":-0.45310909245572906,"15":-0.44885598597420984,"16":-0.31603503613634504,"17":-0.4997469986448184,"18":-0.48121396811599093,"19":-0.605278667947935,"20":-0.5983369960231705,"21":0.6419486600607712,"22":-0.8310024588386444,"23":-0.413986737322239,"24":-0.2585368135157159,"25":-1.189273904809356,"26":-0.8808936858046066,"27":-1.8218367301187501,"28":-0.65425491671075,"29":-0.5244783071383459,"30":-1.3007583470113981,"31":0.8620130559802917,"32":-2.418412816525068,"33":-0.8898865494550486,"34":1.3825236449509255,"35":-1.4580260159195062,"36":0.055014902987050945,"37":-4.3610072460071585,"38":-0.5422203623767414,"39":-0.3543419247893716,"40":-0.5815912593619263,"41":0.32129216227963087,"42":-0.5297296037916304,"43":-1.0340735364115872,"44":2.4879950471513332,"45":-0.8319651887692763,"46":2.5126124792225957,"47":-0.3810985850912817,"48":-2.022406307311643,"49":1.3040596741922652}},"47":{"bias":-2.3047003133179764,"weights":{"0":-7.51185037370102,"1":-8.818857985524932,"2":-12.266653117710206,"3":-1.89805118657861,"4":0.2149166938050702,"5":12.570490503801166,"6":6.7376643783930845,"7":1.1632106133280946,"8":0.16591254092161214,"9":-4.3434153155800015,"10":5.1892883897768565,"11":2.8195765526325864,"12":0.7284750620446186,"13":-1.346932844424139,"14":2.4006017144603096,"15":-2.4646582016659977,"16":-0.9107841173876856,"17":-1.5103125695526618,"18":-9.948036715544898,"19":5.274742604983121,"20":-2.094644330452682,"21":-6.252093953970158,"22":0.3719853629009931,"23":-5.347027616593616,"24":-0.8994116262786398,"25":-0.7220905182088905,"26":1.4362058936929114,"27":3.2813926959526403,"28":-1.7744500460433597,"29":0.4290137795931973,"30":1.9180256128589237,"31":-1.3667962740590605,"32":-0.7025592511035297,"33":-1.9087688261622417,"34":0.2180685968347472,"35":-1.2759116147052072,"36":-2.0259075348146256,"37":-8.174264179980835,"38":-2.8291571498378603,"39":-0.7572045706487475,"40":-8.502787247167669,"41":-4.530719631253956,"42":-3.274892691835456,"43":0.8583750685444984,"44":-0.8383500116937204,"45":8.554081261767372,"46":-4.109285170016789,"47":-6.493319810815285,"48":1.5078267467012862,"49":7.071589527697276}},"48":{"bias":-1.5793522368080377,"weights":{"0":-1.3464051003158366,"1":-12.263773099105286,"2":-3.9478943384407708,"3":-1.8429134825449172,"4":-0.5345402349231355,"5":4.575675217091184,"6":10.23176213627763,"7":0.9565051742806184,"8":-4.577918397340985,"9":-0.529074296222654,"10":1.080215689444576,"11":-4.728864769452521,"12":-7.625556201385872,"13":-2.457317083826087,"14":0.7396935041061747,"15":-0.9659509188326263,"16":-0.5792018009102461,"17":-1.9049039703233952,"18":-9.36397709953514,"19":0.349454775182146,"20":-2.0520358289146476,"21":-2.8976534587017007,"22":-0.1056314650684762,"23":-3.2199921036028814,"24":-1.715479606080561,"25":-3.449080322121921,"26":-1.141249395402591,"27":2.633325564106523,"28":0.6575718282285348,"29":0.9510399570167823,"30":2.4707206932749597,"31":3.0995098760627515,"32":1.2018446601969535,"33":1.7529949507644083,"34":1.129280881672723,"35":-2.1008130700339924,"36":1.5966195742430083,"37":-1.374575618370138,"38":-2.4867954485218244,"39":-1.8232738486026365,"40":-2.197462090629737,"41":-1.1319646633405152,"42":-2.162990025443264,"43":-0.4063742758645224,"44":6.9904962793127385,"45":12.462655808700136,"46":-8.596077736688109,"47":-15.308871663601069,"48":-2.2768690806244583,"49":-2.174755849996836}},"49":{"bias":-0.9542192311508165,"weights":{"0":1.0926983257818372,"1":0.10574962042564828,"2":-0.8850042402884036,"3":-0.48246529155334883,"4":0.13164792664158825,"5":0.23050074888689606,"6":-0.3372851174394057,"7":0.27140367610575855,"8":0.25346412159909315,"9":-0.19085106085751868,"10":-0.04220753805437394,"11":-0.44256083870945356,"12":-0.03368989422778756,"13":-0.3464108575475173,"14":-0.4658305869813111,"15":-0.3472139750772071,"16":-0.3045367721500775,"17":-0.3980808521194656,"18":-1.435516684931857,"19":-0.5079920427568521,"20":-0.2736524889892617,"21":-0.6678874411581986,"22":-0.6319930954436579,"23":-0.7024600796011325,"24":-0.38383508293170143,"25":-0.595471751991786,"26":-0.46451731075089486,"27":-0.7622005014422969,"28":-0.39275114091682495,"29":-0.5958040788740826,"30":-1.6033394751130337,"31":-0.26850910808224343,"32":-1.2624920874018495,"33":-0.6537925157834567,"34":0.9759350218286932,"35":-0.36011241119710585,"36":0.5748744250174375,"37":-1.4621926364033127,"38":-0.253231760258966,"39":-0.4542252121668166,"40":-1.0549923635498446,"41":-0.5970739232186661,"42":-0.23819917815118544,"43":-1.5091095248696877,"44":1.3344232413109949,"45":0.10027122631925073,"46":-0.19943124495583384,"47":-0.13160401131337163,"48":-0.6320817894448668,"49":0.16686659814957938}},"50":{"bias":-1.3492540457583238,"weights":{"0":0.294505437385085,"1":-0.5418532044868478,"2":-0.4351052238848117,"3":-0.34100436115620003,"4":-0.1304164195525332,"5":0.5877790437359274,"6":-0.5058202371756851,"7":0.2599385477618149,"8":-0.06517395726740144,"9":-0.2991757345514663,"10":-0.47054283260385477,"11":-0.8742952830004448,"12":-0.22708403469129596,"13":-0.16415865726647408,"14":-0.3544702378083902,"15":-0.43097087236428167,"16":-0.2626679358175241,"17":-0.22272906607119813,"18":-1.3541030722969392,"19":-0.509046664835737,"20":-0.5034380565616672,"21":-0.44382813915074454,"22":-0.6374990563908451,"23":-0.9282838447979181,"24":-0.19885629462942392,"25":-0.38161062537023444,"26":-0.2857267492660834,"27":-0.6257631454476179,"28":-0.175784012236095,"29":-0.4663870302497914,"30":-1.3206502353076044,"31":-0.10725927933020368,"32":-1.1484707926513247,"33":-0.6572071179496937,"34":0.7518579604408215,"35":-0.09685809391646083,"36":0.5417907680428105,"37":-0.95312907087443,"38":-0.2595520360947369,"39":-0.26051578055648017,"40":-0.7798549868194354,"41":-0.4222025292031889,"42":-0.3045049547141527,"43":-0.8206158862800699,"44":0.9177196060057483,"45":-0.13520592641339407,"46":-0.4045847289478318,"47":-0.18693278455498127,"48":-0.22103901763537892,"49":-0.11970826077719893}},"51":{"bias":-6.371500773680968,"weights":{"0":-4.026226756152605,"1":-5.81163144717803,"2":5.314586222643738,"3":1.9853593263157756,"4":-1.420634199224963,"5":1.8134938781579872,"6":12.168555334273453,"7":-2.7717568601332427,"8":-0.6681064741348691,"9":4.367580731017507,"10":1.1939499776553255,"11":-7.196123874644224,"12":1.5239241659262208,"13":-1.762126157185352,"14":-1.510091674971826,"15":4.699446647010849,"16":2.8887551028173233,"17":0.05577704358732619,"18":3.462799773771989,"19":1.341868011133515,"20":0.9653976734391689,"21":7.675880687594857,"22":3.7831113918116994,"23":3.809471331478028,"24":-1.1993013525409728,"25":2.5206239294288717,"26":0.5440163313281314,"27":-9.493208026652365,"28":1.7327436766438453,"29":-0.6405679275787276,"30":-13.093989189382473,"31":-15.583110716272873,"32":4.953424782867831,"33":5.983789286294851,"34":3.2801717955826213,"35":1.5835202028276822,"36":-4.383571141860503,"37":10.090542921254114,"38":1.0876799315771335,"39":-1.312622258807041,"40":-2.164290246254068,"41":-4.7061910767286985,"42":3.34928637387511,"43":-9.675333997058582,"44":0.7550736391453035,"45":1.4945581605330958,"46":-12.555182777801875,"47":10.546880513725988,"48":-6.421077943306708,"49":0.5422156987907254}},"52":{"bias":-0.8155099534925112,"weights":{"0":0.4693133021626158,"1":-2.2423580235476557,"2":3.0132318856645113,"3":-0.35940226949956,"4":-0.02112592494365638,"5":0.4503336603613032,"6":-2.673741929187961,"7":0.010132952654091924,"8":-0.2161573496995905,"9":-0.20127620660518253,"10":-0.16655669145627328,"11":-1.4120707353807807,"12":-0.4555172294526778,"13":-0.4558569175498057,"14":-0.2602943636344837,"15":-0.2591337597391232,"16":-0.19778872304807524,"17":-0.23029239416263156,"18":0.28440745225749037,"19":-0.6205941323672718,"20":-0.23562474714521228,"21":0.4610984738437176,"22":-0.21985380158341175,"23":-1.124391777063844,"24":-0.2588210918829873,"25":-0.24617939434867353,"26":-0.3571185392266268,"27":-0.7145278607782648,"28":-0.29475616027052876,"29":-0.04996855156873538,"30":-0.5836240745855513,"31":-1.1753051422887473,"32":-2.4104714645399907,"33":-0.49186193136761247,"34":-0.22331319415026163,"35":-0.4969167777485795,"36":0.5304538132577539,"37":-1.2004742044578964,"38":-0.03441702154743374,"39":-0.4376105491904916,"40":-0.9397859570447881,"41":-0.22071378453412194,"42":-0.11315081187868142,"43":-0.9725275550287006,"44":0.37519382381017813,"45":-0.16978148147370584,"46":-1.4497016104968174,"47":0.05042381442185866,"48":-0.945255877269274,"49":-0.4741893671729713}},"53":{"bias":-0.6616150679098501,"weights":{"0":1.0480614883842756,"1":0.7030345095274703,"2":-1.820773750562494,"3":-0.5816020410942508,"4":-0.2316958545856232,"5":0.16894381651595947,"6":-1.0163862536079873,"7":0.11928875482650068,"8":-0.13927304820897238,"9":-0.49415336170278756,"10":-0.9173222559070755,"11":-1.9768449676213289,"12":-0.03761879496462525,"13":-0.3383772123420004,"14":-0.13908401874775153,"15":-0.4220845882105569,"16":-0.34380997246170913,"17":-0.3184481092776153,"18":1.4348040134460027,"19":-0.5291197020335463,"20":-0.32044304507121063,"21":-1.08865373178129,"22":-0.9036651190204346,"23":-0.39450442874466846,"24":-0.22059008448633655,"25":-0.3442420482812577,"26":-0.9516462485420328,"27":-1.0807719876361188,"28":-0.5007576538427616,"29":-0.7724944499709203,"30":-0.6136912193561225,"31":-0.8383476042801672,"32":-3.6846226559920816,"33":-2.3364740754193734,"34":1.585509505929638,"35":-1.8138837050362584,"36":0.40372112528875137,"37":-1.0809088427254898,"38":-0.3777842643746153,"39":-0.20264084399356466,"40":-0.8088776657691358,"41":-0.2850791313601891,"42":-0.4992379553101344,"43":-1.3449785597182362,"44":1.2648032938009206,"45":-0.014308336991361645,"46":0.7824797990008391,"47":-0.31414779987884417,"48":0.1390325469454632,"49":2.613977834262713}},"54":{"bias":-1.753377641049209,"weights":{"0":0.5824053235572859,"1":-2.1493201849274426,"2":-0.1321168373689413,"3":-0.22979205453030657,"4":-0.1647936330877204,"5":0.8851483191243964,"6":-0.851214471346537,"7":-0.1067515951458358,"8":-0.13834860914161703,"9":-0.1738173746600165,"10":-0.32438619131687835,"11":-1.4712653105364557,"12":-0.6348242325882227,"13":-0.2318700942183029,"14":-0.16939002276376397,"15":-0.30469559347706365,"16":-0.3798228611931228,"17":-0.4447715827454574,"18":-0.7951643062450325,"19":-0.8297895228040385,"20":-0.40786887392275334,"21":-0.08319987015438592,"22":-0.23434649043530903,"23":-1.6012815725778569,"24":-0.27368941058822044,"25":-0.3094648511215542,"26":-0.4238256065180343,"27":0.049188739575447435,"28":-0.3658944713753849,"29":-0.23440818125009502,"30":-1.4872728662461017,"31":-0.25696652995923014,"32":-1.1989707704000205,"33":-0.612427518088805,"34":0.41379906624728363,"35":-0.3780290669478875,"36":0.7289147736608891,"37":-0.6069731518901138,"38":-0.2053937350424452,"39":-0.38097844811081877,"40":-0.7203649961428891,"41":-0.3685495470772504,"42":-0.26703599456237986,"43":-0.8236544388228687,"44":0.7822603881530741,"45":1.019080050769358,"46":-1.2519111314645155,"47":-0.14924990841288244,"48":-0.34089095100988265,"49":-0.4841144919872589}},"55":{"bias":-2.95307896784184,"weights":{"0":8.622115925815736,"1":-7.862994042013572,"2":2.936451213479251,"3":-1.2965215947082644,"4":-0.3067069886163097,"5":0.9976187629820324,"6":-0.4079053318374686,"7":0.3174479286155694,"8":-8.338684150433627,"9":-2.703742459968275,"10":-0.6390075929702188,"11":-6.286210397329918,"12":-2.590129667459823,"13":-1.1255285487202973,"14":-0.3641024837586152,"15":0.18410537956795034,"16":-2.3630643484180367,"17":-1.2249273689609859,"18":-0.5209244390977869,"19":-1.7947572871161686,"20":-1.2600644757229573,"21":4.559690855631295,"22":-0.08711925189341074,"23":-3.2980533316456895,"24":-1.5536539185871328,"25":-0.2556408630405801,"26":-1.4321990293252105,"27":-2.0524693199138446,"28":-2.8604751224277845,"29":-2.7844168863708614,"30":-2.6665240799433283,"31":4.160177984125044,"32":-1.1116695287559288,"33":-4.289270002181167,"34":11.742885877490028,"35":-3.5211611950433603,"36":-0.663760672179593,"37":-1.9699718961346866,"38":-1.249997827166739,"39":-1.5365862716842704,"40":-7.231412275364593,"41":-1.184885157819256,"42":-1.3628983969720523,"43":-2.187813148041738,"44":-1.7677288611461595,"45":0.022763825576758052,"46":-2.82567984560892,"47":-1.2310297404077386,"48":3.887767766311763,"49":-6.231454446166384}},"56":{"bias":0.019354460711713487,"weights":{"0":8.899897598577414,"1":12.2619309036811,"2":-5.764517980623071,"3":-1.4313783516914245,"4":-0.6533023038214734,"5":0.38859879220335836,"6":-8.94321406563459,"7":0.19126511913873243,"8":4.5380345202914505,"9":-1.444071480526523,"10":5.185804702651001,"11":13.504682408895176,"12":-2.5792949472412876,"13":-0.6756961557535153,"14":-1.073467710544516,"15":-1.9066721549899834,"16":-2.5772467629200633,"17":-0.6553801672790736,"18":-18.541705384991506,"19":-2.8078513608183995,"20":-1.0797563630292533,"21":-6.394509794282544,"22":-5.998639790958853,"23":2.002302680243986,"24":-0.729991811722881,"25":-1.7129323291994154,"26":-1.8999957515171597,"27":-4.460344255689707,"28":-2.312624553991547,"29":-2.904845358232161,"30":-1.1725181169091339,"31":0.5595147800991114,"32":-7.296064109908962,"33":-1.5527566497855403,"34":-0.9294853279525123,"35":-5.944618250945053,"36":-1.2280997726455813,"37":-2.897706298940665,"38":-0.4825575260317548,"39":-1.0148960386989352,"40":-4.657040340955201,"41":-1.5599516653820995,"42":-1.0220881045696306,"43":-9.602210698329419,"44":-3.5027041879684218,"45":3.94658667902655,"46":-1.225332331190817,"47":5.599568979948309,"48":3.805260746267644,"49":1.7539813578891497}},"57":{"bias":-1.3861605082409316,"weights":{"0":0.5505225317610205,"1":0.8549819944256962,"2":-0.5249978465876814,"3":-0.5221904380052743,"4":0.13141872558855544,"5":0.5694591755481141,"6":0.14828401546728434,"7":0.48516610794095044,"8":-0.054154017690162704,"9":-0.4169046828097942,"10":-0.49147322430291,"11":0.9174469994089133,"12":-0.5344896521685153,"13":-0.4520623845157603,"14":-0.2859333997919972,"15":-0.46356806979916715,"16":-0.4525451047346178,"17":-0.2298467609919169,"18":-0.49367127571954794,"19":-0.5003719950963955,"20":-0.5255642060865702,"21":-1.8387051741619556,"22":-0.8441415166869376,"23":-1.0225089323217778,"24":-0.2557523541285635,"25":-0.7838139806725911,"26":-0.17483048924256023,"27":-0.7811692164883376,"28":-0.5702346280578802,"29":-0.6577354233380276,"30":-2.691630085263429,"31":0.009773932997301879,"32":-1.1159250168588342,"33":-1.0817126214660968,"34":1.5346071693126864,"35":-0.3769988527899419,"36":0.8886171688399143,"37":-2.911057115778215,"38":-0.6326658182641308,"39":-0.24269287005059745,"40":0.05512052891561061,"41":-0.5662595998375385,"42":-0.6690601874642019,"43":-0.9101476057863022,"44":1.348781055997611,"45":1.1515444962756196,"46":-0.3703101066630706,"47":-0.3346604684419597,"48":0.731464072431877,"49":-0.08592038728087842}},"58":{"bias":-5.486430802032187,"weights":{"0":-1.9408353221109411,"1":-8.848285733397937,"2":-2.6977078506320686,"3":-2.2936713702082443,"4":-0.46302193550754395,"5":-1.5903919875948493,"6":18.80868853012257,"7":-0.47919699837842017,"8":7.048358036833317,"9":-2.46661479836597,"10":-2.805472722108646,"11":-9.515894284823196,"12":0.49948417102229226,"13":-0.49873833587961813,"14":0.25946136319889895,"15":-1.4452973315713245,"16":-2.767197160972189,"17":-0.7855855235761678,"18":5.566362309387548,"19":-2.834807610047292,"20":-2.3282492073549275,"21":10.431091817146429,"22":-4.586801578789035,"23":-1.159133131857448,"24":-0.35571865660790464,"25":-6.325701822014017,"26":-6.691778880167439,"27":-2.198267882908899,"28":-1.2144966545849527,"29":-2.261364636157667,"30":-1.5702633897576592,"31":9.95438899295683,"32":1.5128638487999884,"33":-5.535080007090389,"34":2.1555383237577135,"35":-2.5892791369896098,"36":0.8722503508361278,"37":-3.322254615730314,"38":-2.0138224761200223,"39":-0.49249267257663104,"40":1.7104760793594773,"41":0.32721828299551375,"42":-2.2221827421986986,"43":-1.7559695209502777,"44":7.979319404985537,"45":-1.4859919052996167,"46":-7.466513561038877,"47":-0.33889653480108706,"48":0.2893476334216295,"49":-2.6123836307210957}},"59":{"bias":-6.142247046699324,"weights":{"0":-0.10632929253513444,"1":15.43757091666778,"2":-11.032145926109965,"3":-0.2533449227704979,"4":0.022609456450680684,"5":-1.1070921605561768,"6":1.2504957398290886,"7":3.3325532380815486,"8":2.251074224660824,"9":1.5109237892023712,"10":7.538786843473192,"11":-1.4088530439890323,"12":9.289828308826651,"13":-0.8319974201747642,"14":1.6757718126081214,"15":5.271246743252302,"16":1.1282153015807446,"17":-0.2891990594685156,"18":-9.739983061617854,"19":-1.4935346752576903,"20":-0.6859780593777554,"21":-1.8300318054292792,"22":5.433590775565103,"23":-0.7808700667772479,"24":1.3284815665112466,"25":-2.570417790131253,"26":0.770620404881786,"27":-5.115658568343126,"28":3.310055570400686,"29":-2.1410319258237767,"30":-10.394496530507139,"31":0.45118565893185386,"32":-0.6143673245975404,"33":-2.6300151243253937,"34":2.004293409585697,"35":-19.777744616937984,"36":5.1975624402822085,"37":-17.31061109109036,"38":-1.000786103316296,"39":0.15608394533871847,"40":1.9302570891842212,"41":3.896727818181642,"42":-0.3718908912194426,"43":2.269883044426079,"44":5.151057126481114,"45":9.021169570975719,"46":-1.7698117766272055,"47":-4.3365555309374395,"48":2.8687254231600217,"49":-0.7951980809894593}}},{"0":{"bias":-0.27550979405127873,"weights":{"0":-1.700615987899734,"1":0.12104344321540088,"2":-0.35462970165055635,"3":-0.18829621836542076,"4":-0.1079215664702009,"5":-0.14352153405551019,"6":-1.7557235392487651,"7":-2.6075837505390687,"8":-0.17199845518043794,"9":-1.1506889194707215,"10":-1.4823216768088758,"11":-0.08894071239449244,"12":2.9227334343487974,"13":-1.861606613086895,"14":1.8672449447409758,"15":-0.12877110867900052,"16":-0.10558119873595684,"17":-0.2764928182543556,"18":-0.24035520032680585,"19":-0.1360403158553982,"20":-1.396728549399521,"21":-0.8393665629410981,"22":-1.3800175414332332,"23":-2.295584824534699,"24":-1.0638979113040488,"25":-2.2484661043136747,"26":-3.5378460722898515,"27":-1.4916981233285553,"28":-0.28494265426695786,"29":-0.17991492574425935,"30":-0.2555037978026534,"31":-0.2935984428703525,"32":-0.26479533356158047,"33":-1.9124846496718517,"34":-0.5202770260597521,"35":-0.2512891167137442,"36":-2.1888522618113297,"37":-0.06414302477432218,"38":-1.1646151815361645,"39":-0.15419860969846566,"40":-0.6329821394929563,"41":-0.56754773296288,"42":-1.0491795255692242,"43":-0.2774347736240777,"44":-0.15939640358948737,"45":-0.5617097502551448,"46":-0.2813923339359223,"47":-1.992621641854739,"48":-0.5367303492713359,"49":-0.168209837124126,"50":-0.023834442325717065,"51":-1.4121888214165559,"52":0.09477176447461727,"53":-0.08995292880454196,"54":0.19549738501501487,"55":-0.44757108067145895,"56":-2.532657552496437,"57":0.01139369864826817,"58":-1.362688073307077,"59":-2.0082155168030895}},"1":{"bias":-0.4386808945053758,"weights":{"0":-1.2982111945609922,"1":-0.2910843080319974,"2":-0.5379315293239811,"3":-0.19258070587298076,"4":0.02447462471688805,"5":-0.2218726434283735,"6":-1.7128839712311918,"7":-1.8553118338848575,"8":0.34758572277607325,"9":-1.249180040237778,"10":-0.08720335121780995,"11":-0.25175098724274164,"12":2.1366641359207263,"13":-1.3680370274122877,"14":0.32968965139766354,"15":-0.31738203352802163,"16":-0.14273796049917004,"17":-0.0671266812058099,"18":-0.15462671672874784,"19":-0.2986240617547364,"20":-0.61290552628804,"21":-0.629333719358152,"22":-1.0722629205166763,"23":-1.7870784783742724,"24":-0.6485888190385649,"25":-1.9671820122027028,"26":-3.0993711204445593,"27":-1.1602205226524929,"28":-0.752155842922246,"29":-0.4652963768142734,"30":-0.30630254619236125,"31":-0.24997786570381256,"32":-0.3696447028178504,"33":-1.634851053871977,"34":-0.6934999094665298,"35":-0.2677902649316067,"36":-1.798688705560285,"37":-0.33350952599316375,"38":-0.880372567156425,"39":-0.32067423801520206,"40":-0.949921646238089,"41":-0.43014939744703584,"42":-0.2527016547373249,"43":-0.28796596970911165,"44":-0.40658059449549055,"45":-0.2429164738793536,"46":-0.08901961396289776,"47":-1.274596947415393,"48":-0.7604074156422985,"49":-0.3692496210032097,"50":-0.05377369048047517,"51":-1.8264233503814002,"52":-0.3595015809136889,"53":-0.3104253635883847,"54":0.03141092598873609,"55":-0.15328274366555267,"56":-1.9098876597640717,"57":-0.008405132283183831,"58":-0.8030912658762421,"59":-2.9749206478260293}},"2":{"bias":-1.1013138091150623,"weights":{"0":-1.3859202437645641,"1":-0.04858754675385888,"2":-0.20282996510829396,"3":-0.4707564558477735,"4":-0.22140423658365424,"5":-0.22971472944295246,"6":-1.2420829635811983,"7":-1.9167575143122526,"8":0.40287163361478995,"9":-0.7816799538183248,"10":0.9516123971996371,"11":-0.3191726836870875,"12":1.561326922717873,"13":-1.0354136589640022,"14":0.2069266963391523,"15":-0.268117845247324,"16":-0.34975149322489046,"17":-0.19248021837748702,"18":-0.21576458797895867,"19":-0.1039394305104848,"20":-0.30630212392020384,"21":-0.755915108959445,"22":-0.8726779165846156,"23":-1.1894999608349925,"24":-0.4215682389516979,"25":-1.6601140619976114,"26":-2.5127676168863466,"27":-1.3216621274177165,"28":-0.576395981186566,"29":-0.4958831361815656,"30":-0.4940132786332433,"31":-0.39577192131500594,"32":-0.09654402132601753,"33":-1.3556652303944943,"34":-1.0284984065116456,"35":-0.08975779914072315,"36":-1.835330077675201,"37":-0.34512302770957143,"38":-0.4958142371308992,"39":-0.3286081284671916,"40":-1.008078783245263,"41":-0.6479500693461533,"42":-0.10558766997460682,"43":-0.2653418144424352,"44":-0.8729851530668099,"45":-0.25836004282270486,"46":-0.20223309416267185,"47":-1.9496971074872826,"48":-1.218507864328195,"49":-0.06784044060913881,"50":-0.34249291175849617,"51":-1.6582945851956896,"52":-0.1641797095330227,"53":-0.29302791485057655,"54":0.009325239555373474,"55":-0.17321602620746007,"56":-1.8221916895157175,"57":-0.12664907983129703,"58":-0.9146342229637425,"59":-2.735089809085872}},"3":{"bias":-2.3589045487883054,"weights":{"0":1.2109655302453066,"1":0.0014241933109406418,"2":-0.40728228027287,"3":-0.40413717201278804,"4":-0.10494166141191683,"5":-0.14836973154510386,"6":-2.0877139727375926,"7":-2.1373281208456896,"8":1.5203909134749005,"9":-1.9088974847148945,"10":4.653511608430062,"11":-0.05269416062737676,"12":-0.9747584670286669,"13":-0.9070959669099511,"14":-2.849264814704037,"15":-0.3088812198152876,"16":-0.17529679348605012,"17":0.03977393877175164,"18":-0.25459374788287237,"19":-0.22215689245987524,"20":-0.2671681647729989,"21":-0.44022652944857377,"22":-2.382474628808336,"23":-1.282184536934624,"24":-0.5161698908341653,"25":-0.6097992290335255,"26":-0.3817155515567951,"27":-2.1954804863993647,"28":-1.1561276259929998,"29":-0.3644897258078931,"30":-0.45296251451397707,"31":-0.5216634713865342,"32":-0.23224874024860484,"33":-1.7434893487190446,"34":-0.04543963977624694,"35":-0.36855287125883224,"36":-0.6454055970844548,"37":-0.17386649027559203,"38":-1.1131276363517857,"39":-0.14480610037633765,"40":-2.013567254359177,"41":-0.3629184268529563,"42":-0.8014816886269931,"43":-0.6463165166419444,"44":-2.9443943258944745,"45":0.2660856494085928,"46":0.16630008602886687,"47":-0.79815311168196,"48":-2.58990783140332,"49":-0.3825961790908182,"50":-0.2000742353718701,"51":-3.5585345738345135,"52":-0.21680275163164245,"53":-0.5539974694634793,"54":-0.045227652341002476,"55":-1.088261099882533,"56":-2.2365111460293057,"57":-0.41304129387649646,"58":2.2472873041795838,"59":-2.4315715484817306}},"4":{"bias":-1.5806718302500895,"weights":{"0":-0.37663209548090854,"1":-0.15292900035946624,"2":-0.06653875794769318,"3":0.10038734433035384,"4":0.02765144722302867,"5":-0.11367603217049695,"6":-7.590934645458093,"7":-1.2606019047809038,"8":1.7751912117502937,"9":-8.086584542808664,"10":-2.578411842086561,"11":-0.22648103992612942,"12":3.8873901650092075,"13":-0.9580643130173262,"14":0.5745796054426789,"15":-0.245684221036948,"16":0.11766075474003507,"17":-1.4047000142289299,"18":-0.11453822724894931,"19":-0.15777217661955995,"20":-1.016723399014069,"21":-1.148773728097751,"22":-2.2979021012924314,"23":0.11517670873811849,"24":-1.4497287088109085,"25":-9.113224126565424,"26":-2.774333060273457,"27":-6.163547520352625,"28":-1.0648408866466974,"29":-10.198542732204443,"30":-1.3320809512216394,"31":-0.3538640969626781,"32":0.07929745711685707,"33":-5.088480269638817,"34":1.522777094368626,"35":-0.3707537752595368,"36":3.6117568710270542,"37":-0.1749131858874065,"38":-0.1724826228307356,"39":-2.3109366893552687,"40":-4.989969195491165,"41":0.8177996977997926,"42":0.17959360879758682,"43":-0.7842834837371974,"44":0.18983470275422257,"45":0.5410017975387607,"46":-2.25023634632172,"47":-2.164163192247721,"48":7.257163637230346,"49":-0.004355192639058101,"50":-0.02410972357488896,"51":-6.979770415696637,"52":-0.8914524057424793,"53":0.31478323671340364,"54":-0.11405012451173521,"55":-4.114635885250312,"56":-4.06660639913545,"57":0.16124630700839465,"58":1.2870017684913275,"59":0.25180721751610147}},"5":{"bias":-2.0029262957603287,"weights":{"0":0.08967157549739997,"1":-0.2575640792620459,"2":-0.21473871406709363,"3":-0.2787268012190273,"4":-0.1709795469587834,"5":-0.1529158408317404,"6":-1.869427059569491,"7":-1.5168990241560638,"8":0.7137159321336971,"9":0.43757835590896077,"10":2.747837086081102,"11":0.09555600461684266,"12":0.10203246864868037,"13":-0.9502140646630775,"14":-1.531781301320041,"15":-0.393837467282345,"16":-0.0974539636841568,"17":0.4408038421092286,"18":-0.2560006437694682,"19":-0.3825905947688245,"20":-0.09789649552867438,"21":0.21942110993329156,"22":-0.8298855793797353,"23":-1.67315012535245,"24":-0.3470496971964098,"25":-1.3288601882207924,"26":-1.0205861849529976,"27":-1.651755088549163,"28":-0.6157319083789377,"29":-0.025723113152350048,"30":-0.27679860683271384,"31":-0.515800527688871,"32":-0.004927622269579138,"33":-1.7559222320720984,"34":-0.9277471097873228,"35":-0.35330444624621166,"36":-0.552314620666842,"37":-0.31404796195853735,"38":-0.9628862054203893,"39":-0.069674820964038,"40":-1.6566913007225843,"41":-0.306101888961608,"42":-0.024080082657087852,"43":-0.48026460565718276,"44":-1.4886357923008402,"45":0.44461706344509583,"46":-0.2588270623928011,"47":-1.1661439643526308,"48":-0.8400687131667121,"49":-0.033584646622759576,"50":0.052879633605007616,"51":-2.0535773785613167,"52":-0.128025027273323,"53":0.06564821352797112,"54":-0.1568144839187736,"55":-1.0499572588132713,"56":-1.958855938013441,"57":-0.2809633878517325,"58":1.387198274404029,"59":-1.9494989714143627}},"6":{"bias":-0.4375074756845951,"weights":{"0":-0.3870903950655712,"1":0.06832848780405615,"2":-0.3706839298687925,"3":-0.14312899201151832,"4":-0.07395538936498255,"5":-0.3261226975169856,"6":-2.1239807187628683,"7":-1.0736196142475156,"8":0.20225059816066968,"9":1.3694179177718797,"10":-0.25255298862993925,"11":0.18417717903669803,"12":0.6924034343454504,"13":-0.9284651450304835,"14":-0.2062581939535461,"15":-0.26413217415981277,"16":-0.09518276565406544,"17":0.5268299194239111,"18":-0.24528164406891462,"19":-0.04425361644065437,"20":-2.022081456623035,"21":-0.7289101093835579,"22":-1.1239751670575553,"23":1.0709939180418855,"24":-1.1255357707299756,"25":-1.4805963657822223,"26":-1.348290085598442,"27":-1.572150212845523,"28":-0.35843990075823345,"29":-0.7154337986809025,"30":-0.1579690436837975,"31":-0.31356860628101013,"32":-0.279698100069687,"33":-1.748987219368454,"34":-0.33540236514699423,"35":-0.13074840117754513,"36":-3.941805415586214,"37":-0.30558589352129967,"38":-0.5254612438326293,"39":-0.20463876557924063,"40":0.17233088333771654,"41":-0.5105164481022544,"42":0.09757344720242307,"43":-0.21899481374373356,"44":-0.5030967540941745,"45":-0.18421775328921708,"46":-0.7831877723216293,"47":-1.8917006840765596,"48":-1.342855911214531,"49":-0.21769253118027934,"50":-0.2323184782281282,"51":-2.0679122800205647,"52":-0.06521373614845896,"53":-0.1956559834976529,"54":0.12338046550146549,"55":-0.7323189120171009,"56":-2.7078063364492144,"57":-0.2404850845767994,"58":-3.3059765662358798,"59":-1.306917218895678}},"7":{"bias":-0.3716039085888062,"weights":{"0":-1.157729841076576,"1":-0.14608719946075466,"2":-0.2691777844391974,"3":-0.5053541262772029,"4":0.05600433025554504,"5":-0.07075132857240207,"6":-1.837085116797557,"7":-2.655079338351867,"8":-0.6472572509750442,"9":-1.575921922409222,"10":-3.004334560452403,"11":-0.14795672656075404,"12":1.3575550738996316,"13":-0.5735591654325772,"14":-0.5136887284081246,"15":-0.17745996427551886,"16":-0.20822781647938646,"17":0.48635739133319417,"18":-0.025773483858755268,"19":-0.2661096406976071,"20":-1.9078173245626568,"21":0.22909233137309098,"22":-0.8778573383112521,"23":1.6823111667677177,"24":-1.3960425107914547,"25":-1.2656600706725911,"26":-1.1081262071607887,"27":-1.4916593357280041,"28":-0.2779626027671497,"29":-2.3049966928603087,"30":-0.30087775285521384,"31":-0.4087074274306971,"32":-0.1645908561041359,"33":-1.6153042958170836,"34":-0.1358248751066921,"35":-0.28258882439298494,"36":-4.091678387258293,"37":-0.13640741351447058,"38":-1.5791723606079735,"39":-0.3266391988636834,"40":-0.573625634681399,"41":-0.4147388294783797,"42":-0.1352091190919147,"43":-0.253566085803578,"44":-1.7992321342732958,"45":-0.1876891697249061,"46":-0.19657225409030207,"47":-1.4876248569537622,"48":-0.6047931199926101,"49":-0.023617134846559692,"50":-0.13034758267257704,"51":2.083844316601356,"52":0.3180905395550884,"53":-0.5752180662823598,"54":0.11917471228623953,"55":-1.5244505258956873,"56":-2.9563288880093377,"57":0.10829758904962386,"58":-2.1022815226289886,"59":-0.2210157139349073}},"8":{"bias":-0.12130257268218367,"weights":{"0":-0.0016183542250941707,"1":-0.07291295481072539,"2":-0.36235914915739686,"3":-0.49580031931779195,"4":-0.16563019957046485,"5":-0.04856417945340647,"6":-2.3599118135783304,"7":-2.275425110400977,"8":0.0706548234963873,"9":-0.7197497785465501,"10":0.07960445459122742,"11":-0.44129803110322746,"12":1.342268097033343,"13":-1.1913863919514363,"14":-0.2864925003002247,"15":-0.47584922087697984,"16":-0.08918706367668314,"17":0.13709173728256174,"18":-0.09993239243545742,"19":-0.17569791755074168,"20":-0.9684057762912637,"21":-0.6624402412669029,"22":-1.114711404810293,"23":-1.1578089936230056,"24":-0.8018513708775478,"25":-1.9921396063179972,"26":-1.49579545943315,"27":-1.7710615861459262,"28":-0.7477692486725703,"29":-0.7123256772687978,"30":-0.05577552639764628,"31":-0.5048000259202863,"32":-0.25551918305687554,"33":-2.4052748836132856,"34":-0.1576426357532259,"35":-0.19129373837064928,"36":-1.4651466122478438,"37":-0.08411630824020185,"38":-0.8992738753650069,"39":-0.17304279172183912,"40":-1.762300838917987,"41":-0.23006038028292,"42":-1.0317630222023355,"43":-0.1501691288029272,"44":-1.376518246358502,"45":0.21624708697927122,"46":-0.5701154075325815,"47":-0.9734331083022877,"48":-1.4117048776182233,"49":-0.07335436266255271,"50":-0.2253613888612204,"51":-2.376774493374102,"52":-0.03339448590385174,"53":-0.34608458930674135,"54":0.03208159947727306,"55":-0.740670921742369,"56":-2.3876115079735207,"57":-0.20750825455776187,"58":0.20770250896468426,"59":-1.384557854441828}},"9":{"bias":0.11024203730016637,"weights":{"0":-1.1312660676099842,"1":-0.02271161746529471,"2":-0.4802051153635129,"3":-0.17349576638532194,"4":-0.11582074694415415,"5":-0.07476982052810162,"6":-2.6153604842406524,"7":-1.8213296220260902,"8":-0.5139100980404944,"9":-0.7079391351060035,"10":0.5737049973837535,"11":-0.08782349916747215,"12":1.616516449014757,"13":-2.3834679634390383,"14":0.13884561818975977,"15":-0.4259415973095836,"16":-0.12188934384148213,"17":-0.5249009964660916,"18":-0.3002593605311854,"19":-0.3621193403533728,"20":0.7394138164958854,"21":-0.69861125041898,"22":-0.5369090287417775,"23":-0.23727947969548613,"24":-0.9844887194184695,"25":-2.4611062851197922,"26":-3.648985820345556,"27":-2.622053662936471,"28":-1.3981172761255438,"29":-0.8731808934920869,"30":-0.5781720962006932,"31":-0.26922655826599345,"32":-0.10375993102643377,"33":-2.352759617121427,"34":-1.5584348868244606,"35":-0.3702679301030391,"36":-2.063690845581221,"37":-0.22899375239248504,