{"layers":[{"0":{},"1":{},"2":{},"3":{},"4":{},"5":{}},{"0":{"bias":0.14606694611761945,"weights":{"0":0.13290143811035196,"1":-0.15080651832994862,"2":-0.06319915941168115,"3":-0.14392964869597435,"4":-0.13799169304540018,"5":0.08359194488118839}},"1":{"bias":-0.007048340063424469,"weights":{"0":-0.12723729888229898,"1":0.0791704633214897,"2":0.17535499250870681,"3":-0.14873205222664093,"4":0.014488298666687783,"5":-0.023852115804265956}},"2":{"bias":-0.024059745031537055,"weights":{"0":0.012019023998973245,"1":-0.006585864673995753,"2":-0.05357530565487801,"3":0.0054982411395643116,"4":-0.11444231043636276,"5":0.13419238298593164}},"3":{"bias":0.14005984001115215,"weights":{"0":0.1991327482839564,"1":0.1916288247047981,"2":0.040604731444833106,"3":-0.18015981496312103,"4":-0.16224314158660066,"5":-0.023472506484045513}},"4":{"bias":-0.1940043699409517,"weights":{"0":-0.026139643678490244,"1":0.04360526176032937,"2":0.10148617373488947,"3":0.1562805514377666,"4":-0.12957601502034288,"5":-0.008066597929043571}},"5":{"bias":0.10809133704839273,"weights":{"0":-0.1695853199991515,"1":0.15145567660366613,"2":0.0015571991163045645,"3":-0.05863765144639978,"4":0.12346317201848911,"5":0.024155447086193896}},"6":{"bias":0.11071672596910892,"weights":{"0":0.18340020527212744,"1":-0.1929247019236393,"2":0.047026280599799304,"3":-0.09314965092366823,"4":0.0495931198598128,"5":-0.07439837875276369}},"7":{"bias":0.12185149758618957,"weights":{"0":0.02781322917077723,"1":-0.17769875960607331,"2":-0.14790849831129904,"3":-0.016280987960795513,"4":0.13917746764361394,"5":0.12144308093500684}},"8":{"bias":0.04752922462142016,"weights":{"0":0.018414299493409097,"1":0.08163603433775975,"2":0.1415991556547545,"3":-0.1941035910397339,"4":0.07512051274794919,"5":-0.015597312629555932}},"9":{"bias":0.1472527008226016,"weights":{"0":0.05923108434304578,"1":0.15280792960592354,"2":-0.14919930295830947,"3":0.14665978420606174,"4":0.11549605790370603,"5":0.19141188972012368}},"10":{"bias":-0.12025675195320794,"weights":{"0":0.012802405162686978,"1":0.04394937930247238,"2":0.005465689123172873,"3":0.0570010918302037,"4":0.1369298705494008,"5":0.004984077284267491}},"11":{"bias":0.10291340987880047,"weights":{"0":0.022207894689887233,"1":-0.18454380291030428,"2":0.18877622795582585,"3":0.11295429631481717,"4":0.029510626471108244,"5":-0.15526343601344075}},"12":{"bias":0.16994448743767934,"weights":{"0":-0.1733487755853751,"1":0.013888190574073733,"2":0.09859251076379648,"3":-0.09426325315534388,"4":0.04072029769975489,"5":-0.09795775256588848}},"13":{"bias":-0.1466387711810792,"weights":{"0":0.058414657653292915,"1":0.0796976797611604,"2":-0.113307812411444,"3":0.020631030370576155,"4":0.0845014471162698,"5":-0.05251973397569133}},"14":{"bias":0.13697208779940817,"weights":{"0":-0.08924678276469229,"1":-0.01036782668682139,"2":0.13951854052850315,"3":0.012375629784738619,"4":-0.09557537765084373,"5":0.11334526454063441}},"15":{"bias":-0.05355185692918072,"weights":{"0":-0.09700913636019516,"1":0.12263752743155716,"2":-0.14949800914594574,"3":-0.1297337837657866,"4":-0.05446463097290101,"5":-0.06134619149347133}},"16":{"bias":-0.10058881855390725,"weights":{"0":-0.15446346454263427,"1":-0.19429267661001048,"2":-0.08047702855072487,"3":-0.11178849161177695,"4":0.06717725982888972,"5":-0.1889379869057223}},"17":{"bias":-0.11798487918319893,"weights":{"0":-0.005776857597374219,"1":0.02845494957041459,"2":0.0023381268322111427,"3":0.0695526543380274,"4":-0.12244140468860884,"5":-0.059268197808332014}},"18":{"bias":0.08441604665208108,"weights":{"0":-0.12069242715128216,"1":-0.09690199979792344,"2":-0.19462454986146885,"3":0.1786837590907501,"4":0.12697202903550256,"5":0.08462452763139246}},"19":{"bias":0.09047741121216946,"weights":{"0":-0.0003260524195873373,"1":0.06063982127318112,"2":0.002720614498126156,"3":-0.04391367318836909,"4":0.18071799220053922,"5":0.07592635988967959}},"20":{"bias":0.11824645384702223,"weights":{"0":-0.13635008405578844,"1":0.12204925970951824,"2":0.08779996392296813,"3":0.05897023538596142,"4":0.0606961448338505,"5":-0.014148141341006776}},"21":{"bias":0.06127313119703891,"weights":{"0":-0.015860625805204497,"1":-0.15951103759322438,"2":-0.04566521468385657,"3":-0.13269856798750554,"4":-0.07431406506310954,"5":-0.10325081558579179}},"22":{"bias":0.05620078300329104,"weights":{"0":0.0783096103923427,"1":-0.14300365194313036,"2":0.08293684306076378,"3":-0.05924865371495606,"4":0.01762208054969353,"5":0.008016102670510035}},"23":{"bias":-0.03105816784711469,"weights":{"0":-0.002965191641465457,"1":0.14020786924194234,"2":0.017391876790484623,"3":0.15052283845093167,"4":-0.036979105628799476,"5":-0.0016966823087398305}},"24":{"bias":0.17558789797297422,"weights":{"0":0.17112980729069077,"1":0.060796065756706784,"2":0.09648206971020219,"3":-0.09651182582169568,"4":-0.12159496891501417,"5":0.06453870425642429}},"25":{"bias":-0.07847053485360306,"weights":{"0":-0.17906288238233597,"1":-0.15115202272086467,"2":-0.05831702687215505,"3":0.14954987542963386,"4":-0.008043903480202418,"5":0.0443737084025327}},"26":{"bias":-0.1324396728918781,"weights":{"0":0.03102444757364062,"1":0.1193329687657866,"2":-0.16879119272679358,"3":-0.13424217172167557,"4":0.05036635063168703,"5":0.15373720180261566}},"27":{"bias":-0.00668604093886057,"weights":{"0":-0.1265106743795597,"1":0.12978783006249775,"2":-0.18301328763115923,"3":0.13000608845125763,"4":0.03358056601407011,"5":0.06274524061555124}},"28":{"bias":-0.18151897951960147,"weights":{"0":-0.0012926312452071057,"1":-0.005663522465012046,"2":0.15366084813894668,"3":0.14881009873212273,"4":-0.10132422694390976,"5":-0.12046311562899195}},"29":{"bias":0.04090072927650208,"weights":{"0":0.10882920859299318,"1":-0.18559142792452094,"2":0.11371429621868041,"3":-0.13795071625244812,"4":0.10729291595399117,"5":0.05955372661135899}},"30":{"bias":0.02386223094577391,"weights":{"0":-0.11350394548151507,"1":0.19385354071631572,"2":0.10026084787310201,"3":-0.0683277453704254,"4":0.1627295106117535,"5":0.07798123286880253}},"31":{"bias":0.195959122426166,"weights":{"0":0.04647905739602124,"1":0.11486851588072251,"2":0.0749603854354955,"3":-0.08421563511097639,"4":-0.0856498174742008,"5":0.03598156732343467}},"32":{"bias":0.08896128860410765,"weights":{"0":-0.18170964045315968,"1":-0.1228441414498541,"2":-0.1625877699566338,"3":-0.005062485984455009,"4":-0.10190350760446241,"5":-0.06761411169169178}},"33":{"bias":-0.08844719152225763,"weights":{"0":0.12344544859070232,"1":-0.17298032393433566,"2":0.0537126386623588,"3":-0.18207219670388625,"4":0.13644511610325205,"5":-0.023577441295243844}},"34":{"bias":0.19204008793100338,"weights":{"0":0.17054969426574482,"1":-0.1834467604866333,"2":0.08186151747414115,"3":0.07794518910108304,"4":0.1721611134293695,"5":-0.13449673109665294}},"35":{"bias":0.060897895476271696,"weights":{"0":-0.04504620306336557,"1":0.12852191734365226,"2":-0.16671436336882803,"3":0.0906174748389576,"4":-0.0032381846942009258,"5":-0.17847441645975767}},"36":{"bias":-0.15375302586452944,"weights":{"0":0.14807494758067072,"1":0.07950878142675609,"2":-0.03629315651723846,"3":-0.00714277301744085,"4":-0.1011725563041085,"5":-0.1974918763144049}},"37":{"bias":-0.01694167904908481,"weights":{"0":0.1689721090980972,"1":-0.037617891677135286,"2":0.12835216364104016,"3":0.031684857315663305,"4":0.13812737685465673,"5":0.04839348114558769}},"38":{"bias":0.054858852594107305,"weights":{"0":-0.0062257537872794574,"1":-0.15623805722016432,"2":0.177087181913217,"3":-0.1386658143507638,"4":-0.0920850859028872,"5":-0.05490260410554204}},"39":{"bias":-0.13535355311288258,"weights":{"0":0.15800329804892474,"1":-0.0715758178264042,"2":-0.014045120934644812,"3":0.1472542526769314,"4":-0.11974700170972881,"5":0.14028562227925703}},"40":{"bias":0.09809196940932431,"weights":{"0":-0.06876193207319563,"1":-0.03846886214139382,"2":0.169084718123667,"3":-0.17050851539524245,"4":-0.04912951130442107,"5":0.06235733456762994}},"41":{"bias":-0.17685266887216705,"weights":{"0":-0.06053359992837785,"1":-0.19025525115572822,"2":-0.0007211012266480172,"3":0.14811553603192118,"4":0.11685877534686297,"5":0.17651206701021005}},"42":{"bias":-0.17054356211835428,"weights":{"0":-0.025779658374101892,"1":0.17799685025175724,"2":0.12562376870024186,"3":0.14163928273778673,"4":0.08850629735992999,"5":-0.04397404000058112}},"43":{"bias":-0.02865990481547106,"weights":{"0":-0.024229671837116797,"1":-0.19631991407035612,"2":-0.11605938268125525,"3":-0.13171496714474432,"4":0.0517391988261166,"5":-0.09477268595556974}},"44":{"bias":0.057774227637924794,"weights":{"0":0.09811532459947467,"1":-0.06677278009921966,"2":-0.1997217144229722,"3":-0.1304754930588236,"4":0.03564574278401041,"5":0.07655729519031093}},"45":{"bias":-0.14287263167288367,"weights":{"0":-0.13499296733708283,"1":-0.032242767723695887,"2":0.10490196822042674,"3":-0.0462569614179445,"4":-0.1251045378706744,"5":0.17912313248286985}},"46":{"bias":-0.1580571401439361,"weights":{"0":-0.14783086294390174,"1":0.0029652306069836262,"2":0.16736250537474737,"3":-0.015675077525600503,"4":-0.08533377704586186,"5":0.10847390519853896}},"47":{"bias":0.07738430628228984,"weights":{"0":-0.0054839351180602635,"1":-0.07330517112033917,"2":-0.18803706224073635,"3":0.1462170809436604,"4":-0.05268573757417772,"5":-0.022349245725257327}},"48":{"bias":-0.18771257536316394,"weights":{"0":-0.07144362091514558,"1":0.1517119845807543,"2":0.13465228756901515,"3":-0.14373611875273382,"4":-0.10282745440816946,"5":0.014033770336446028}},"49":{"bias":-0.11659162687556189,"weights":{"0":0.012081832697621706,"1":0.07032713130031025,"2":0.14565205249972563,"3":-0.07621291832263284,"4":0.12073203320723956,"5":0.042016172664786695}}},{"0":{"bias":-0.024817648300641933,"weights":{"0":0.1269706610943634,"1":0.16973446931616032,"2":0.13487045976616485,"3":-0.08307177942139966,"4":0.016064590717674115,"5":0.11791186930300591,"6":-0.17314117055234918,"7":-0.15810646853949922,"8":-0.17515364166438374,"9":0.12120628690207012,"10":-0.15978015808133883,"11":-0.16398763000915265,"12":-0.0846437790594088,"13":-0.13000098362151696,"14":-0.12094246672528845,"15":-0.16167909225050028,"16":-0.11640814468866754,"17":0.0907670787218656,"18":0.1704234321419009,"19":0.14495654232870467,"20":0.17129191542235736,"21":0.1320238947784768,"22":-0.14519495303643212,"23":0.17877189541716293,"24":-0.07820426918294034,"25":0.14305364011815883,"26":0.1996349842205847,"27":0.08246935563075551,"28":0.07624741387325443,"29":-0.10693790945506335,"30":-0.04902127162027067,"31":0.08020604637367741,"32":0.10508198774039587,"33":0.0095706379493767,"34":0.010436810191508276,"35":0.14268182262484558,"36":0.0035980409177474118,"37":-0.19572926871277568,"38":-0.1467831763324576,"39":0.037443853458136306,"40":0.14462487995565898,"41":0.06494857497328906,"42":0.08952998993013354,"43":0.19780331847193686,"44":0.04077293558714896,"45":0.11147727913580448,"46":0.07592608758614001,"47":0.04936597683624651,"48":-0.19788930460461882,"49":-0.14412586278571918}},"1":{"bias":-0.19105014329320882,"weights":{"0":-0.07731706258012397,"1":0.07024396685376509,"2":0.07726566289680893,"3":-0.02669327443270948,"4":0.07509230237006449,"5":-0.03816360269511228,"6":-0.04485014328263499,"7":-0.15453731506186472,"8":-0.03491637448176366,"9":0.02884122688293683,"10":-0.14555666425002572,"11":0.09952026425911592,"12":0.0254805149681513,"13":-0.1558775914366181,"14":0.0473201777678234,"15":-0.16667061800112953,"16":-0.08544922849840356,"17":0.03731943223057662,"18":-0.018655182459295313,"19":-0.17652105757714062,"20":0.19797485073951115,"21":0.021947277694488034,"22":0.012276757572165843,"23":0.10524974075550284,"24":-0.19434841410848158,"25":0.08485455115243741,"26":0.00927787323876159,"27":-0.1179180800506152,"28":-0.16451478418170806,"29":-0.07816249537119511,"30":-0.034480693962997,"31":-0.044826206230866736,"32":-0.17781141549279536,"33":-0.18938356213104743,"34":-0.1770425874884256,"35":-0.16476967428352762,"36":-0.08583919139715934,"37":0.16531714885259538,"38":-0.04823885517807536,"39":0.12875094719572705,"40":0.009439911588107181,"41":-0.006818652434879662,"42":0.02759036549253566,"43":0.08319403153395227,"44":-0.09227682380666538,"45":-0.08914052140713598,"46":0.034531994456262295,"47":-0.0854562219095409,"48":0.15574769633610513,"49":-0.14447057543148395}},"2":{"bias":0.036337039568849226,"weights":{"0":-0.05140743936190191,"1":-0.08091969321479495,"2":0.08239641690322866,"3":0.18015071357806978,"4":0.044048765574506196,"5":0.1224259605400009,"6":-0.0071952392793482095,"7":0.11843387319473717,"8":-0.1641527284042739,"9":-0.0019019062734167748,"10":0.09526404160743804,"11":0.08191908842898402,"12":0.04653227017467635,"13":-0.14461993979324148,"14":0.0710983086628343,"15":-0.0950185363245171,"16":0.03622609129320218,"17":-0.062427982196059904,"18":0.030383082382097058,"19":-0.020298980306693814,"20":-0.16814584139572009,"21":-0.19192941783336523,"22":0.07048646415003992,"23":-0.13228997776193505,"24":0.08523494329232673,"25":0.13834752938472836,"26":-0.09088691330260977,"27":-0.0963513155310579,"28":0.10442604120186656,"29":0.15740949953707942,"30":0.1079170275667799,"31":-0.16644571947616424,"32":-0.13585942688192434,"33":0.17526008232065401,"34":0.11502769413895672,"35":-0.1941952614879473,"36":-0.06194210417433167,"37":-0.011162744440825368,"38":0.08785465685767938,"39":-0.07764759913214221,"40":-0.06139903062364448,"41":-0.04056022533935537,"42":-0.08144710633036803,"43":-0.09054605975755704,"44":-0.03831325847879599,"45":0.12196960127341987,"46":-0.004601929231177107,"47":-0.09814870466972629,"48":-0.06224163874841883,"49":-0.04878500471154064}},"3":{"bias":-0.06866907686825026,"weights":{"0":-0.13626663041877035,"1":-0.19801661639457752,"2":-0.049353637396194215,"3":0.18829462508765693,"4":-0.18793392477936283,"5":0.16852497815611328,"6":-0.024665519243939678,"7":0.04648355959540992,"8":-0.11479460252294531,"9":-0.07972383336247663,"10":0.02525919209406808,"11":-0.06705200251655584,"12":0.06495771936816493,"13":0.03132931298709364,"14":-0.10496599075847757,"15":0.11926479737366455,"16":0.01012380682314566,"17":0.09622588611709246,"18":0.11486453310877898,"19":0.08621226214642409,"20":0.1660268295428377,"21":-0.19525855245980017,"22":0.1676367950778878,"23":-0.15951077023880736,"24":0.19579673140069956,"25":-0.02444179247562058,"26":0.04291518054485265,"27":0.017627390465547874,"28":-0.05998902679927936,"29":0.029043901791195214,"30":0.019995881139400186,"31":-0.10165432364975686,"32":0.06263861765123312,"33":-0.09594131683153487,"34":0.012271208677830079,"35":-0.05393429042243326,"36":0.03622378442144905,"37":-0.06848828502104942,"38":-0.18064044283185962,"39":0.03650720973607488,"40":-0.009750985091771632,"41":-0.10721916560860682,"42":-0.018811355892347295,"43":0.04626758206896846,"44":0.1550717291619098,"45":0.09885052354142206,"46":-0.07093293078245,"47":-0.12541125455591762,"48":-0.1542529481683183,"49":-0.09847945494026876}},"4":{"bias":0.1795076529623792,"weights":{"0":0.11550405691001295,"1":-0.14572954853410647,"2":-0.17830443349467076,"3":0.08033089020625325,"4":0.05961409846715768,"5":-0.19705458827464242,"6":-0.05378312752062098,"7":0.195047025869848,"8":-0.017891130403404204,"9":0.002402112776740334,"10":-0.07888466940350555,"11":0.13370398234457398,"12":-0.07371676951196571,"13":-0.03644882934662935,"14":-0.17887116647516513,"15":0.17371317156736796,"16":0.07650149236977498,"17":0.004358401737271231,"18":0.16386573020904674,"19":-0.11994828157050176,"20":0.11124679995222905,"21":0.12934670915877297,"22":-0.16910342664559738,"23":-0.023915293917430986,"24":0.07694306318029395,"25":0.168512307366389,"26":0.003272879874061184,"27":-0.04707826275610386,"28":0.005793854629794744,"29":0.08608461860304704,"30":-0.08366631813711828,"31":-0.1288063133732473,"32":-0.006733702747325611,"33":0.1819164927451779,"34":0.18610653629994503,"35":0.0616854398678412,"36":0.14978531014263516,"37":0.028243382139439093,"38":0.09669740232552512,"39":-0.04921372424571033,"40":-0.001249507782823273,"41":-0.10049995920760688,"42":-0.053087563825569874,"43":-0.1284605663748643,"44":-0.12378741171200112,"45":-0.08908990767939429,"46":-0.021026889661264262,"47":0.04947846100979406,"48":-0.06518742598836115,"49":-0.1322430599792205}},"5":{"bias":-0.1488399206067598,"weights":{"0":0.05039390941154455,"1":0.041163511742806795,"2":-0.14930948073067365,"3":-0.05538848469166078,"4":-0.03052853555565697,"5":-0.10125805120840163,"6":-0.11920950030505328,"7":-0.1207727538849487,"8":-0.1708100049763641,"9":0.13170458845396915,"10":0.17472649950924402,"11":-0.06020285497552426,"12":0.1594476073587895,"13":-0.08141600161272548,"14":-0.02194460973058959,"15":0.03573319735602688,"16":0.02653956387785422,"17":-0.12770502645791298,"18":-0.14580229005288806,"19":-0.04281331683854103,"20":-0.1146271167551357,"21":-0.19059800620404324,"22":-0.12163141553841782,"23":-0.09608155152886368,"24":-0.06833935598425084,"25":-0.09350390362681746,"26":0.08429471548871702,"27":-0.03357158334315086,"28":-0.015010595785674867,"29":0.11440499485231623,"30":0.040735519084373784,"31":0.11410346777495535,"32":-0.09598299587287194,"33":0.08307157596016503,"34":0.07384105935934172,"35":-0.17114952201382247,"36":-0.10696816694749482,"37":0.08484324614938167,"38":-0.04530812003318002,"39":-0.09023851984778716,"40":-0.17658782058365582,"41":0.18898204048673148,"42":-0.04793776073847853,"43":-0.1632934166592389,"44":0.12569976265370333,"45":-0.1852037447249593,"46":0.15373670124144176,"47":-0.19296180603848623,"48":-0.1361959808893171,"49":0.024045579897404787}},"6":{"bias":0.07510781402256328,"weights":{"0":-0.17898118961408097,"1":-0.15678863225290493,"2":0.14481638433245922,"3":-0.15323991355233496,"4":-0.18535653718892242,"5":-0.12089751864966411,"6":0.07022628787715042,"7":-0.07722359159030243,"8":0.1667641975642435,"9":0.1545331714229372,"10":-0.11737261485135479,"11":-0.009970732646849367,"12":-0.049999665357315794,"13":-0.18454670220025576,"14":-0.12703652958505104,"15":0.03751989656769485,"16":-0.009835203892919942,"17":0.052012745061750035,"18":0.17577816063940943,"19":0.013847880271242388,"20":0.05054111948722698,"21":0.10626602207451022,"22":0.13672568632782775,"23":0.07152945882760414,"24":-0.14067117140384394,"25":0.044895382309308694,"26":-0.13919259163640899,"27":0.06579161808015338,"28":0.05616726650222274,"29":0.13896649261511868,"30":-0.1984126571423538,"31":-0.007295007210665334,"32":-0.15163074943989838,"33":0.08277986664060492,"34":0.07206744269475748,"35":0.11062404627886105,"36":-0.03432856334044989,"37":-0.14124595642631368,"38":-0.0739771235819359,"39":0.15487950873984047,"40":0.014713305039894431,"41":0.0801263022552874,"42":-0.10414690619478283,"43":-0.19776051248763704,"44":0.1195819759663996,"45":-0.18288835130262357,"46":0.19257840420590064,"47":0.1064837582178034,"48":0.12052386387053728,"49":0.11070002057969217}},"7":{"bias":0.05210938891985849,"weights":{"0":-0.002354308541239078,"1":-0.011158606232248524,"2":-0.15662108008077844,"3":-0.16892155071574208,"4":0.14141557496705412,"5":0.16631705256640064,"6":-0.07058040326448885,"7":-0.05866263347832568,"8":0.1321919081466512,"9":-0.03307143632803343,"10":0.18543783726532967,"11":-0.012320976343566742,"12":0.1393079304995026,"13":-0.0884798806390751,"14":-0.058304422400172105,"15":-0.15351506843634896,"16":0.06236300105790618,"17":0.003921836470691416,"18":-0.0036603862297299996,"19":-0.09761536106999813,"20":-0.0795782876164845,"21":0.04241367545750015,"22":-0.07785567512416106,"23":-0.09282090374324792,"24":-0.003722022044212666,"25":-0.10183630130303374,"26":-0.17453058373961136,"27":-0.18129102871363598,"28":-0.10860234504425266,"29":-0.12353836874933175,"30":-0.12949101509478084,"31":-0.13661823472576948,"32":-0.0017796830004976024,"33":-0.16456647820137768,"34":-0.061083392360924825,"35":-0.11222099761390622,"36":-0.18139625789522923,"37":-0.17628611742255107,"38":-0.14655523098271458,"39":-0.023313009315627825,"40":-0.04248740677147984,"41":0.19116606900254351,"42":-0.10144990822728515,"43":0.04015449689796197,"44":0.02053273233840661,"45":0.13772006850278112,"46":-0.1580050100093384,"47":0.18418685583029418,"48":0.1638188587210697,"49":-0.18969632650191542}},"8":{"bias":0.18644778448535443,"weights":{"0":0.05347531735484062,"1":-0.07468080312685825,"2":0.004833268913344471,"3":0.1600908894722681,"4":-0.09405504837604374,"5":0.13203837109362207,"6":-0.17374604732711682,"7":0.016384274450810827,"8":0.18711669336952164,"9":-0.10513165566535297,"10":0.10417226986533791,"11":0.05546714344926719,"12":0.015620118641873381,"13":0.1901646353676604,"14":-0.0483710810502906,"15":0.1805219481137693,"16":0.16677218450527176,"17":-0.1727112078686974,"18":-0.04987870914145656,"19":-0.17990887250630888,"20":-0.16404138224743642,"21":0.16374375620951626,"22":0.17211206191543024,"23":-0.021369813416731828,"24":0.06855775236922224,"25":0.19804054702555923,"26":-0.094286555144109,"27":0.1929548455755188,"28":-0.011023222288267779,"29":0.03941482585616337,"30":0.12823657553677906,"31":-0.1892152162148692,"32":0.11870879243216867,"33":0.10115479804034203,"34":-0.10978189938174389,"35":0.09643178565847511,"36":-0.1567168370006201,"37":0.08877465275871091,"38":-0.08483447739750814,"39":-0.06513848011649874,"40":-0.09056934364505423,"41":0.13691388222467793,"42":-0.17461028366127454,"43":-0.07925007883381124,"44":0.19880128933542132,"45":-0.16431939338330936,"46":0.034329536055220024,"47":-0.05248360832066052,"48":0.031656972171284735,"49":-0.19914568121817552}},"9":{"bias":0.10878404284224909,"weights":{"0":-0.03391018841609442,"1":-0.11999828067855335,"2":-0.03436456366453163,"3":0.06179438128302165,"4":-0.01782380968402417,"5":0.0030769304353594437,"6":0.05555407792413678,"7":-0.06454481960143695,"8":0.07402286532750654,"9":-0.08989422208330693,"10":-0.04313654774786861,"11":0.021399331234556708,"12":0.018131722321550157,"13":-0.1385232695362466,"14":0.026277350572756444,"15":0.13332382381356492,"16":0.10970307411161338,"17":-0.16145631496142596,"18":0.16205451702987245,"19":0.024555686216614987,"20":0.15057634296786293,"21":0.052355010664755196,"22":0.09243586665665891,"23":-0.11163664098149854,"24":-0.047937128688287936,"25":0.029339658943400508,"26":-0.1662301981427743,"27":0.10835521905147726,"28":-0.147779347962972,"29":0.1145649553571843,"30":-0.14806733030766592,"31":-0.0322114207454424,"32":-0.057284208752912756,"33":-0.09047268657855431,"34":0.16593649516573938,"35":0.1720195550157833,"36":-0.05711260509551385,"37":-0.17870694235997686,"38":-0.1690211424945036,"39":-0.06908562171717514,"40":-0.04109406554536085,"41":-0.008983164004296405,"42":-0.15646961357885172,"43":0.010593123161695715,"44":0.1724535769207204,"45":0.06686255161333635,"46":-0.19971929194471177,"47":0.07224718484162217,"48":-0.18367029757712658,"49":-0.15717851854962467}},"10":{"bias":-0.06469974430267318,"weights":{"0":0.003800348949854678,"1":-0.13181216643541985,"2":0.11974888544929549,"3":-0.10818325401276498,"4":0.1300076406773794,"5":-0.14404390444663934,"6":0.16368551568341624,"7":0.16739587955970547,"8":-0.05056018770827152,"9":0.04864375596795184,"10":0.16030650359370993,"11":-0.07912581069912951,"12":-0.1109029381018778,"13":0.18922196467286537,"14":-0.13318844806492097,"15":-0.11861746793611844,"16":-0.0340925444355711,"17":0.03713664781653294,"18":-0.09254403779218771,"19":-0.16352697538579877,"20":0.11626073595401727,"21":0.14854752516396522,"22":0.0008450281734031157,"23":0.01916432589395696,"24":-0.09197208465244464,"25":0.1998212819036929,"26":-0.12993795564764063,"27":-0.06959969598779457,"28":0.04977489624124633,"29":-0.02676621883288268,"30":0.027603867332507862,"31":0.11163831476987816,"32":-0.00949581084171447,"33":-0.1831642876972655,"34":-0.06461759173830679,"35":-0.18595107062894628,"36":-0.05283882399020122,"37":0.12088327536027312,"38":-0.06554865750930905,"39":-0.15898122743617416,"40":-0.17811284662517451,"41":0.05425600456666568,"42":0.066036011357142,"43":0.1982125518163139,"44":-0.0640411005582117,"45":-0.13072078119851221,"46":-0.14167730853459112,"47":0.05139142517998098,"48":-0.09316663315229093,"49":-0.03177921875832802}},"11":{"bias":0.18768124282025073,"weights":{"0":-0.10903308519898519,"1":0.07654555481063721,"2":0.13224634716403788,"3":0.1410494538023364,"4":0.08422096715186841,"5":0.16417744258606146,"6":0.17937584699316028,"7":-0.08633361648456678,"8":0.04007794840598771,"9":-0.05579169775766946,"10":0.12794975430835034,"11":0.191913982577038,"12":0.06842751130275442,"13":0.1440702935655821,"14":0.1896143473542298,"15":-0.0882417400477521,"16":0.021583357304079096,"17":0.1415559501072299,"18":-0.01425886842470108,"19":-0.16521416020905513,"20":-0.02891944249642873,"21":-0.017177203544183804,"22":-0.09994008003967896,"23":0.13904872254479583,"24":-0.0517799461108293,"25":0.1469302084423085,"26":-0.08857198158767268,"27":0.11411279999995891,"28":-0.08293024806493754,"29":-0.012408676049980093,"30":-0.12127176136128548,"31":-0.03745616897026986,"32":0.04033914411399918,"33":0.16544288396560783,"34":0.05175262400650569,"35":-0.006471225208257308,"36":0.1644888127888846,"37":0.013939359392810258,"38":-0.0492103526356724,"39":0.007716669698684765,"40":0.060298402668253086,"41":0.05657714395307145,"42":-0.18353886894124932,"43":-0.10486335718799253,"44":0.12808852347271502,"45":0.04150655731705661,"46":0.19547609843856253,"47":0.034242084758410486,"48":0.17864396095641738,"49":0.18597205262078426}},"12":{"bias":0.09114355312387942,"weights":{"0":-0.048438980952424625,"1":-0.11768460616892243,"2":0.17306627777464875,"3":-0.11271234458717978,"4":0.0843554567196058,"5":0.1988276318356606,"6":-0.11412506524496151,"7":0.138578083987265,"8":0.18202100525570544,"9":0.1905971548381403,"10":0.07954658748440586,"11":0.0705050681696743,"12":0.19493376452851005,"13":-0.17183786282796082,"14":-0.023690725067530016,"15":0.012805825576422448,"16":0.17275560087753877,"17":0.19389873204095448,"18":-0.07801012683803499,"19":0.1732458943314569,"20":-0.07399769785905667,"21":0.09269019097917171,"22":-0.02804281958405259,"23":0.004719234762600212,"24":0.02608237133640557,"25":-0.1617466474396386,"26":-0.18177716952099007,"27":-0.11756365961043758,"28":0.15190088716877628,"29":-0.07874266113940867,"30":0.06850620309250813,"31":0.10874524411230749,"32":0.12479253824242031,"33":-0.08404251636029483,"34":-0.19724498154152353,"35":-0.07390508225655035,"36":-0.07040804210708157,"37":0.024157819031784954,"38":0.030564836653249643,"39":-0.1547024720962621,"40":0.06918880005641387,"41":-0.1823773729108655,"42":0.12796693815960733,"43":0.009094288154156631,"44":0.18018582789299747,"45":0.16619525181488165,"46":0.14724372634412586,"47":-0.05732488609510026,"48":0.03447137055199989,"49":0.06351015082571244}},"13":{"bias":-0.0017445586958261875,"weights":{"0":0.09017119266155972,"1":-0.04060894604040571,"2":-0.19107158749842876,"3":0.13851420742701637,"4":0.032301609955728075,"5":0.16792836734154262,"6":0.14803758500122557,"7":-0.0027625962860445274,"8":-0.05864040916356985,"9":0.0599238177783956,"10":-0.15035479022140716,"11":0.037924473063919,"12":0.03384855084174931,"13":-0.0406816035715615,"14":-0.07418811307736743,"15":0.09387840341887847,"16":0.14321381623302848,"17":0.06952082804482418,"18":0.04931461121402612,"19":-0.06162927077092593,"20":-0.11044182173984876,"21":0.1490949106891379,"22":0.05172141714010151,"23":0.011788622673023079,"24":-0.1581896674229323,"25":-0.06331615760123109,"26":-0.05882025399378041,"27":0.003955856785167462,"28":0.11702051532682473,"29":0.06860567628926403,"30":-0.11744264544582501,"31":0.1582635577002282,"32":-0.1944962109585291,"33":-0.11640650788156871,"34":-0.19280926132611012,"35":-0.020862724889705656,"36":0.065084656165036,"37":0.0025432873502222427,"38":0.196164119564722,"39":-0.045911346011229516,"40":-0.028305217089787286,"41":-0.18824148248558922,"42":-0.07978275120860574,"43":0.15345188183112177,"44":0.1050905720280331,"45":0.11802730998615127,"46":-0.07888321191218318,"47":0.17388069569046602,"48":-0.10694220001252072,"49":0.07358512019257878}},"14":{"bias":0.13656640555423202,"weights":{"0":-0.153284419406836,"1":0.19966474819685956,"2":0.09726709984899327,"3":0.10531345809653044,"4":0.19742430274435757,"5":-0.19743908441380598,"6":-0.06694332111469949,"7":0.11230430312668323,"8":-0.0012357865107825133,"9":0.1666937789096192,"10":0.09333453401267494,"11":0.10472913364096559,"12":-0.17861272806976097,"13":0.16420716123634405,"14":0.028954741125202327,"15":-0.09063397503250582,"16":-0.0006488751445338029,"17":0.19256466307618691,"18":-0.08902003281720806,"19":0.08538356089884279,"20":-0.08820540763583658,"21":-0.11616399405208395,"22":-0.117099385299362,"23":-0.021586466074601126,"24":-0.05552261555845104,"25":0.15945543875443494,"26":-0.1468916005412937,"27":0.04987567647393276,"28":0.07228627363292695,"29":0.09758132797373567,"30":0.1296875679525639,"31":0.05447136543939653,"32":0.14852045130827576,"33":0.1743585669440296,"34":-0.10619548341516323,"35":0.1163715870978357,"36":0.07624613333546762,"37":-0.1786015434553431,"38":0.024113368345218034,"39":0.1544513943078745,"40":0.015191278220654705,"41":0.14412635625461254,"42":-0.19860917694572777,"43":-0.018794241046356092,"44":0.1341191494729576,"45":0.03437265499454092,"46":-0.1938117061948216,"47":0.05514719534931498,"48":-0.19317791716005775,"49":-0.036605847841707465}},"15":{"bias":-0.15645868568720592,"weights":{"0":0.12295238289980484,"1":0.13748154062593873,"2":-0.13116640389030565,"3":0.0665252986407715,"4":0.10420187583689092,"5":-0.1757507297991026,"6":-0.10687258462894061,"7":0.19739714816880052,"8":0.12540992940002946,"9":-0.04609745193337597,"10":-0.03832705745722341,"11":-0.018448345170821268,"12":-0.07411773460177433,"13":0.15975717412134827,"14":0.034072599115020155,"15":-0.010164684987232326,"16":0.14067337556050163,"17":0.1914301340415836,"18":0.10993585059378604,"19":0.1362157241293695,"20":0.07302656198147875,"21":-0.10598802071301426,"22":0.048671910406508846,"23":-0.038216039738201785,"24":-0.1323533146706625,"25":-0.10806987107344186,"26":0.17024513632693672,"27":-0.13742836034828823,"28":0.03250905748347583,"29":-0.04262664775065042,"30":0.01334565182052196,"31":-0.0830754489242449,"32":0.12017409676394493,"33":0.015162816093477628,"34":0.04308912947103242,"35":-0.08953716367417447,"36":0.11999006176460528,"37":0.05173083096143042,"38":0.12430187433744472,"39":-0.13275368069063392,"40":0.12142698690249026,"41":0.1418267640130711,"42":0.020652618515814118,"43":-0.00027575772243411276,"44":0.13710346934320536,"45":0.0532670344683406,"46":0.0693228317589938,"47":0.17373971887292128,"48":0.16434212344739765,"49":0.023315537439170423}},"16":{"bias":-0.13652025268900664,"weights":{"0":-0.09770012563625123,"1":-0.1771177234630387,"2":-0.033660475487365796,"3":-0.17431404019187638,"4":0.11156222585738236,"5":0.18387495600797496,"6":0.07161681407893102,"7":-0.02266915588575085,"8":0.1444500879093117,"9":-0.15941413288251471,"10":0.14186290849559738,"11":0.06396107808835058,"12":0.08812566426053062,"13":0.0679598314878127,"14":-0.10398264852258875,"15":-0.09820392049740187,"16":0.11263810773481787,"17":0.18537068714816682,"18":-0.05274596903252483,"19":-0.0187841159125133,"20":0.13316354215522305,"21":-0.08572561612953206,"22":0.11069391041500232,"23":0.1455383034306423,"24":0.07940230734013116,"25":0.018554784649869642,"26":-0.1271024710764362,"27":-0.12896071361415473,"28":0.036631462068735715,"29":0.19696158208418327,"30":0.005675130397591137,"31":0.020185353963309095,"32":0.09635057419438893,"33":-0.09814456625123787,"34":-0.057865851172620345,"35":-0.015786550130921586,"36":-0.0333566247883233,"37":0.09197436974786,"38":0.07285708821124133,"39":0.19023993074923407,"40":-0.19595789824024712,"41":-0.10668914881998014,"42":0.0431682447229001,"43":-0.19990926525691669,"44":-0.06980542110770943,"45":-0.19333846531491372,"46":0.06596772805841424,"47":-0.15108285107874855,"48":-0.11367219442725793,"49":0.16958501246671617}},"17":{"bias":-0.025172669751102484,"weights":{"0":0.10649631835069703,"1":-0.001044186534983324,"2":0.09509968684593625,"3":0.11284826219245246,"4":-0.031157524935797053,"5":0.04664568708852716,"6":-0.03402178428424689,"7":-0.16789678392257026,"8":0.10853601661948167,"9":0.1925837580970676,"10":0.05447851880065158,"11":0.19361719880178005,"12":-0.12851498443614473,"13":-0.10492682866172143,"14":0.19535185292723498,"15":0.07125836584134607,"16":0.007348319243618908,"17":0.13390885299906566,"18":-0.13741096947720421,"19":-0.10612836160716738,"20":-0.05665917050988217,"21":0.009184242126484372,"22":-0.11912063308096069,"23":0.13220597063191072,"24":-0.011308524826819502,"25":-0.11136399535640369,"26":0.007679958854171717,"27":-0.07478546272759637,"28":-0.12850311335856282,"29":-0.1888651040315059,"30":-0.16491200320038255,"31":-0.15151530152163784,"32":0.11599866193889226,"33":0.016896679003249947,"34":-0.09530096257914397,"35":0.10327729750904457,"36":-0.13939067795806154,"37":0.10661029168084392,"38":0.1667602445544473,"39":0.023601734490848215,"40":0.08866760232838332,"41":0.08467500374835318,"42":0.12341916799352731,"43":0.16407173917782986,"44":-0.15180220203948422,"45":0.12827692814070685,"46":-0.08612682041539342,"47":0.013720041276124396,"48":0.08457955464224386,"49":0.17196267653727035}},"18":{"bias":-0.03399512638586216,"weights":{"0":0.15527043840478452,"1":0.07200895997274566,"2":0.1967547509125204,"3":0.05878565988676027,"4":-0.09623046617456084,"5":-0.15160549543035853,"6":-0.05660633073725154,"7":0.16447323359102065,"8":0.1934261301306163,"9":0.11925296697401808,"10":0.0788994870384974,"11":-0.17033590202069523,"12":0.18352636029009348,"13":0.1872540916708901,"14":-0.1402237270797255,"15":-0.19082918639174026,"16":0.014586667527110294,"17":-0.009068404440321046,"18":0.053714861497689184,"19":0.02402593092048551,"20":0.0426005120569074,"21":-0.04405493327230112,"22":-0.08950208032451656,"23":0.17453293225399805,"24":-0.1864193549627753,"25":-0.10123665652775381,"26":-0.07817000305385494,"27":0.07368856151011574,"28":0.11962782152464085,"29":0.09421434797296462,"30":0.10777055678866393,"31":-0.1609087913958403,"32":-0.11628234234201275,"33":-0.17235499807944268,"34":-0.03758187559998729,"35":0.10569793184621802,"36":-0.1180012637962342,"37":-0.05980739941938849,"38":-0.11575609289135783,"39":0.1880168925558484,"40":0.1825516883674177,"41":0.12328032740320256,"42":0.11397668505617414,"43":-0.1977800325120693,"44":0.1926722579224007,"45":-0.11682817238254589,"46":0.13766690455299574,"47":-0.1293593177441753,"48":-0.10797973031703893,"49":0.18266495652548329}},"19":{"bias":-0.06751857916546733,"weights":{"0":0.08808421965286257,"1":-0.0016730613681058756,"2":-0.03087126209321078,"3":-0.0024570102721531485,"4":0.1539296693620799,"5":-0.046021195662183545,"6":0.09398739049913953,"7":-0.03522548587993157,"8":0.18300015937574804,"9":0.045212915998858835,"10":-0.16497849556066907,"11":0.18244369258019486,"12":0.03832607161634849,"13":0.0910522922536539,"14":0.037611670276122944,"15":0.16335590428570926,"16":0.1663744535812744,"17":-0.09657725683801795,"18":0.012479701228657497,"19":0.16022409914455718,"20":-0.08742309576883942,"21":0.08501023560405557,"22":0.045488175025547355,"23":-0.0752988588418883,"24":0.16446074292188773,"25":0.1121269948686264,"26":-0.11206926258741526,"27":-0.02934694241979133,"28":-0.0766795703931774,"29":0.11317854795727436,"30":-0.14790892650572043,"31":0.19063976334465307,"32":-0.17835953669519797,"33":0.08359776133421304,"34":0.10437571009360534,"35":-0.04780812207740652,"36":-0.15259965505252734,"37":-0.06569309056648195,"38":0.056772610152182754,"39":-0.1813811941658308,"40":-0.1730489231770018,"41":-0.09001898330075248,"42":0.12755025572301104,"43":0.1570097034350465,"44":0.04846878673413178,"45":0.1099388244285063,"46":0.17793326280074595,"47":0.14259853813823212,"48":0.09787955223210032,"49":0.1654510694852936}},"20":{"bias":0.07323515350888296,"weights":{"0":0.10434176599674724,"1":-0.10179818831080274,"2":0.0696968879055925,"3":0.11192433758283035,"4":-0.17965621308526158,"5":-0.17940225679847793,"6":-0.18500400100706774,"7":0.0479877096356047,"8":-0.09224898727062712,"9":-0.08161644057059451,"10":-0.00005593223514355478,"11":-0.12673698749307338,"12":0.10928788948161339,"13":-0.1246102174389681,"14":0.18369724465053885,"15":-0.17894220916595363,"16":0.16819586611135165,"17":0.13994951876881712,"18":-0.1294165703505918,"19":-0.07309610633486072,"20":-0.05615198651678534,"21":-0.14381791312001535,"22":-0.18023635188784948,"23":0.009616283277850387,"24":-0.10850956628323981,"25":-0.13916143946381035,"26":0.1494702342139712,"27":0.1260248048011506,"28":-0.19405838162067987,"29":-0.06335954381382583,"30":-0.015824000853249837,"31":0.03385520047238603,"32":-0.031194143118422186,"33":0.14861393964482514,"34":-0.041051262935467646,"35":-0.1976467082327279,"36":0.006694224820917158,"37":0.041723818980697325,"38":-0.18035051688775952,"39":-0.021159837120577393,"40":0.18381052906403142,"41":0.011148981650564854,"42":-0.025397476520695288,"43":-0.023499574385590184,"44":0.04767727778120399,"45":-0.045666674638002856,"46":0.1421855082951044,"47":0.08320823659514827,"48":0.07221017500277102,"49":-0.01923952987476233}},"21":{"bias":0.036149341402545346,"weights":{"0":0.03222084188886257,"1":0.01671866802645217,"2":-0.09800271674659702,"3":0.06408153900827014,"4":-0.009605110074330696,"5":-0.03340650651212712,"6":-0.04255242107384153,"7":0.05123343908729023,"8":-0.09911060110923055,"9":-0.06179680239425202,"10":0.005206470126012139,"11":0.19364087739000935,"12":0.013632362728751847,"13":-0.17856556823876737,"14":-0.12064020575455014,"15":-0.024388150321560005,"16":0.02134977225482469,"17":-0.17560596917284635,"18":-0.11884420981173027,"19":-0.023892775686869087,"20":0.1177444897898482,"21":-0.14910071807309463,"22":-0.11080729259045839,"23":0.13826668911307424,"24":-0.0035033661342405943,"25":0.004432682237451961,"26":0.17707758023831144,"27":0.015116115861506324,"28":-0.11466468257294714,"29":0.18023312175376818,"30":0.10623620612267265,"31":0.1405960179103932,"32":-0.1808350168224146,"33":-0.11986941523056649,"34":0.19745980920299247,"35":-0.037715941838057286,"36":-0.1899304542852237,"37":-0.07707598123592123,"38":0.15263711405548105,"39":0.07500399065919403,"40":0.06547736394008086,"41":-0.12097882469587252,"42":0.07436743238153824,"43":0.1246186207740685,"44":0.022620101944679446,"45":0.10347897171845474,"46":0.15781214447295228,"47":-0.04525316033901024,"48":-0.04249098092873269,"49":-0.013009402190087069}},"22":{"bias":-0.029645956216787235,"weights":{"0":0.00020849011853575492,"1":0.07024060932989155,"2":0.04484734244098222,"3":-0.17218540139465713,"4":0.07118546496537065,"5":-0.047534618174195555,"6":0.19732868434622072,"7":0.09532207580100176,"8":0.17525935718386723,"9":-0.03906032736684092,"10":0.012296300770469325,"11":-0.19710310205597453,"12":-0.15870066860073526,"13":-0.09288959839173291,"14":-0.14740834190729993,"15":0.05437642109254923,"16":-0.06316999693899013,"17":-0.15679994854221652,"18":-0.10970451984697054,"19":-0.1606095779271504,"20":-0.14399370278746162,"21":-0.021608763856832674,"22":-0.09700832501826359,"23":0.11518367987721012,"24":-0.014725238281492135,"25":0.1419689773469641,"26":0.1251087716891204,"27":-0.06761798793231572,"28":-0.0181917770703715,"29":0.04677396225874179,"30":0.09768235760954125,"31":0.14654868083071046,"32":-0.05268529487064393,"33":0.061175011389370974,"34":0.171212809415151,"35":0.0219697873155975,"36":-0.17970481563727397,"37":0.1847022067357759,"38":-0.13293949682205217,"39":0.12881564236388932,"40":-0.18944928924848933,"41":0.15064062928889801,"42":-0.1954324457819812,"43":0.153477661343158,"44":-0.021233755069051063,"45":-0.08346127595719653,"46":0.08902765373759985,"47":0.10211979455906484,"48":-0.0687192402392679,"49":0.04626448177824005}},"23":{"bias":0.0019044036616804095,"weights":{"0":0.06636055556034488,"1":0.04943664353568861,"2":0.10008262883735819,"3":-0.11512452423350582,"4":-0.040624302311484374,"5":-0.16627261897705464,"6":-0.0698856475707087,"7":-0.019949818829860754,"8":0.13025330665711418,"9":0.17968318249086268,"10":0.06740778879629396,"11":0.038675559427600086,"12":0.10145966817091301,"13":0.18208900924876986,"14":-0.06040923467960032,"15":-0.1441093423988469,"16":-0.1707679589931306,"17":-0.0303550993489901,"18":0.1613993876995208,"19":0.0656168395233732,"20":0.18870315244619956,"21":-0.12205609903916986,"22":-0.12653117842763045,"23":-0.13440339189964026,"24":-0.13808141055640405,"25":0.1581549569928413,"26":-0.12237199293139785,"27":0.11116788483952679,"28":-0.0009834433129736531,"29":0.1723855928808923,"30":-0.019466033911142187,"31":0.18418791036239535,"32":-0.007476891408994292,"33":0.020875704859659255,"34":0.07696061177634415,"35":0.0748440627335956,"36":0.0811608857968021,"37":0.08812337589393901,"38":-0.11114383797580714,"39":-0.07646563794056595,"40":0.15971927647061235,"41":0.1756074880808294,"42":-0.16277398073628402,"43":0.06131967539815227,"44":0.07801688567938277,"45":-0.103493032587502,"46":-0.14510444442470566,"47":-0.009651273815871437,"48":0.12357423112388896,"49":0.18663122085124012}},"24":{"bias":0.026377363459936107,"weights":{"0":0.10617972818095835,"1":-0.014721739527783434,"2":0.029591547736211015,"3":0.0718666056604126,"4":0.14276147757074764,"5":0.0906346969665188,"6":-0.1338167787763698,"7":-0.007024893473868203,"8":-0.15288891784243602,"9":0.07332055932996774,"10":0.027209783787763085,"11":0.12908702814767023,"12":-0.1400140535884545,"13":0.011202169816572289,"14":0.040327522106002794,"15":0.1400804943373586,"16":-0.11986157795209978,"17":-0.11196328502524139,"18":-0.17161594904474703,"19":-0.0015213167632361808,"20":0.12069300147019126,"21":-0.17049151420329864,"22":0.1997137455424949,"23":-0.017903125419478128,"24":0.020942650430461087,"25":0.0731442445396289,"26":0.11841103093096071,"27":-0.133365722004162,"28":0.16494242612977558,"29":0.17297866604217882,"30":-0.08186094816788299,"31":-0.04300955150521069,"32":-0.0573735010643809,"33":0.061436354162903335,"34":-0.16028605618277353,"35":0.03325849019310999,"36":0.008315884769673477,"37":0.057431192535939875,"38":-0.10094421784513517,"39":-0.09829176704572325,"40":0.1369094000577185,"41":0.15381657164933585,"42":0.15235531019393753,"43":0.05942170967164594,"44":0.1674568166144316,"45":0.12547259998851515,"46":-0.14683852212478316,"47":-0.04348426530906653,"48":-0.026010735126502434,"49":0.061148852984090785}},"25":{"bias":0.17851603666859472,"weights":{"0":-0.018733046316648336,"1":0.08174917549835813,"2":-0.07500079884308887,"3":-0.15335247768327717,"4":-0.11306089369461014,"5":0.1586929029027181,"6":0.05783805166563736,"7":-0.15725707913856302,"8":0.12989237848989105,"9":-0.09768717303790347,"10":-0.09287493957521502,"11":0.09687151935089261,"12":0.039996210958545914,"13":-0.18037008444850297,"14":-0.09060501409509703,"15":0.062242368057861604,"16":0.1899161601209479,"17":-0.05185739325384945,"18":0.009144416547131702,"19":-0.00901559038449724,"20":-0.1310391745225068,"21":0.05399218032618906,"22":0.004570793340143565,"23":-0.09148159844949103,"24":-0.15461738604824074,"25":0.03879798887167463,"26":0.14893363048117333,"27":-0.0034407704859086225,"28":-0.09381570656438969,"29":0.01408475003528291,"30":0.16693646159193326,"31":-0.12802516087713128,"32":-0.16177017745413327,"33":0.12758755363122,"34":-0.19237755883708027,"35":-0.093012635539045,"36":-0.002469908135677318,"37":0.0034949565698171804,"38":-0.15456349743726017,"39":0.0507929624275837,"40":0.06296450652512026,"41":0.06933250797957657,"42":-0.057750349562668536,"43":0.07728827235853773,"44":-0.16454200336491298,"45":0.017786667160454416,"46":-0.18730019701676906,"47":-0.17186142915879282,"48":-0.17226516067554506,"49":0.03923827232990059}},"26":{"bias":0.13624999642320768,"weights":{"0":-0.10605591595499918,"1":0.04273425288048985,"2":-0.17699031610893678,"3":0.19490256132070022,"4":-0.15472280541056438,"5":-0.1276947856809681,"6":0.10693876420601493,"7":-0.19183823549038512,"8":-0.12269006109516171,"9":-0.024783118363574743,"10":0.020440201366146146,"11":0.11155001813633669,"12":-0.12792794838842592,"13":0.16056873382740317,"14":-0.14974163507595867,"15":0.07688668962847856,"16":0.05752423005766273,"17":-0.12059773154005646,"18":0.04320088432302472,"19":0.09013483300926681,"20":-0.08215815919287812,"21":-0.07525848558002891,"22":0.09760317511141348,"23":-0.16485358927952584,"24":0.05948044767329183,"25":-0.12708413755757114,"26":0.005134803568406246,"27":0.056804786718418356,"28":0.1750554104066426,"29":0.019022502351732203,"30":0.07599574163545954,"31":0.03832515490292109,"32":-0.15851327597118176,"33":0.13078615099504792,"34":0.09268848915439516,"35":-0.017628405308726416,"36":-0.03595414528453838,"37":0.06903436251508933,"38":0.06129871367694706,"39":0.19544411202229656,"40":-0.12037747543100247,"41":0.19605937730868253,"42":-0.011547919667040085,"43":-0.08654316023625983,"44":0.10391285440048083,"45":0.13651485863650129,"46":-0.009091794502447166,"47":-0.12504628059233983,"48":-0.030446049471131467,"49":-0.19564470758837477}},"27":{"bias":-0.04755753923701557,"weights":{"0":-0.023196665494424597,"1":0.05177606122792157,"2":0.05562795262929952,"3":0.06201746920474659,"4":-0.1993699691258119,"5":0.1545483503003669,"6":0.13404768002473605,"7":-0.17467623518182232,"8":-0.09486353882346561,"9":-0.011533434178092173,"10":-0.15532403600653485,"11":0.13647767795408092,"12":0.18587906116425276,"13":0.19169644202333225,"14":-0.01262703234411266,"15":0.12105348889799078,"16":0.1815135966807811,"17":-0.0828133640275281,"18":-0.07123807944420502,"19":-0.1301475186997942,"20":-0.04932340793343695,"21":0.19655114387423997,"22":-0.13829984798973743,"23":0.10909423447820793,"24":-0.1893551054459235,"25":-0.18049463432697135,"26":0.004231531026564136,"27":0.028246523502805793,"28":0.10343186398269977,"29":0.09502585531939116,"30":0.0643990730402827,"31":-0.19294996048758856,"32":-0.1922853854711131,"33":-0.07634001464441005,"34":0.09611335718101512,"35":0.19053697707261258,"36":-0.014170326416125239,"37":-0.013700797249315052,"38":0.025142282470006976,"39":0.16234226471275093,"40":0.01534040544408094,"41":0.06472500432171381,"42":0.0022964990157403674,"43":-0.17177268645816854,"44":0.03424498459132382,"45":-0.10368248454807444,"46":-0.028924030803704294,"47":-0.1375195145690271,"48":-0.18630078755735474,"49":-0.09926879385997008}},"28":{"bias":-0.052283734062012026,"weights":{"0":0.07286798990048322,"1":-0.11366121509754094,"2":-0.12158752762282513,"3":-0.04938775850191209,"4":0.07913061479545423,"5":-0.15752960159009363,"6":0.08226063138716132,"7":-0.0366570580389275,"8":-0.11444584338031964,"9":0.004688023567478835,"10":0.10467650117479951,"11":-0.16558734197948277,"12":0.15593579170218233,"13":0.1445791430084712,"14":-0.07169001138296827,"15":0.0536705470544879,"16":0.015365968386621942,"17":-0.09521735347285028,"18":-0.02101149255881569,"19":-0.19081997259615888,"20":0.17480323685996235,"21":0.16923565342387498,"22":-0.11258556283945038,"23":0.1688516674961474,"24":-0.01382637691213925,"25":-0.16058594725870126,"26":-0.052131892014350416,"27":0.19215091437886805,"28":-0.1370729823230167,"29":-0.011668006345034664,"30":-0.03364532213038146,"31":-0.027337656899120034,"32":-0.08774820157980584,"33":0.039156886631141134,"34":-0.1875030371645087,"35":-0.0330493013604989,"36":-0.10627862768669523,"37":0.11590971734498572,"38":-0.19509302532548384,"39":0.13905213579691725,"40":0.17540724076118727,"41":0.10991211943199365,"42":-0.06348398995254109,"43":-0.1673379616415578,"44":-0.15802556798302167,"45":-0.012236600149770873,"46":0.04095655354583947,"47":-0.04593172307956133,"48":0.0574870815141724,"49":0.04443109842026782}},"29":{"bias":0.10403680547609001,"weights":{"0":0.017546741029359946,"1":0.07666205512562803,"2":0.05066273155792736,"3":-0.16824413406675823,"4":0.1948817302109705,"5":-0.14690577387488005,"6":-0.0630959553381218,"7":-0.14316671457566288,"8":0.07512944819001123,"9":0.18488241286102453,"10":-0.03577914187767712,"11":-0.08946153512526328,"12":0.031233267230357114,"13":0.12215345893586056,"14":-0.08340807360916525,"15":-0.14023874761103813,"16":0.048524665073223956,"17":0.11641122372646484,"18":0.17848608192504353,"19":-0.005941390687551863,"20":-0.09043108192757193,"21":0.1415777501025545,"22":0.1333587621152415,"23":0.06784351261383212,"24":-0.0763125327688555,"25":0.18840935989762306,"26":-0.17421801189616076,"27":0.07377212247598344,"28":-0.15417599760667644,"29":0.012671541257480292,"30":0.056976304192789824,"31":0.03901907967152416,"32":-0.07313581796610338,"33":0.13699483576269458,"34":0.017617110332585787,"35":0.11441999819093683,"36":0.0670055984536919,"37":-0.12327722182744548,"38":0.15064969714663023,"39":-0.09524132196349641,"40":0.11224846122940826,"41":-0.05467112934350464,"42":-0.0761136320328459,"43":0.09961184232358006,"44":0.03488281095673744,"45":0.1572883053993735,"46":0.1936566459343647,"47":-0.0354422191273789,"48":0.042116537846268814,"49":-0.1521597784605337}},"30":{"bias":0.06849495343594052,"weights":{"0":0.0929073628781606,"1":0.04065889680357361,"2":-0.16776573820537616,"3":-0.05344032684406024,"4":-0.052386438131452114,"5":-0.17581321974750241,"6":0.045901976800428186,"7":0.09367632419662322,"8":-0.17260749604600648,"9":-0.1611621139617667,"10":0.047736388689087104,"11":0.18684976499326464,"12":0.0047854854600802195,"13":-0.06614911824399121,"14":-0.18180172771067804,"15":-0.16394803798077043,"16":0.08565344123093871,"17":-0.05370651706388149,"18":0.021478634874173404,"19":0.02530552632428623,"20":-0.1619461837733697,"21":0.12209001688424906,"22":-0.1502604055554794,"23":-0.08803178567795893,"24":0.04836957541092165,"25":-0.08350520680711546,"26":0.1732115804956474,"27":-0.0963354647390606,"28":-0.11652939680049347,"29":-0.02306252922068546,"30":-0.0024245639171726757,"31":0.15394804555151798,"32":0.16420685300519727,"33":-0.16600725149944995,"34":-0.11506121399771989,"35":-0.11358763245205822,"36":0.04269610313052528,"37":-0.1200954486917443,"38":0.1468553088789852,"39":0.07334597332402855,"40":0.17089936479834564,"41":0.016243321900377042,"42":-0.10942932179479527,"43":-0.0674914025161568,"44":-0.15926089391051654,"45":0.010642229080179035,"46":-0.11884572136640234,"47":-0.06663016792207785,"48":0.008550001262146488,"49":-0.07123534165948502}},"31":{"bias":-0.06294351757999687,"weights":{"0":0.17263922672193205,"1":-0.16955943029845605,"2":0.12707103254555985,"3":-0.014191043210333152,"4":-0.014801477315148633,"5":-0.03909695450175046,"6":-0.15851163301037835,"7":-0.13569655846943743,"8":-0.10498088391581134,"9":-0.0629359898108441,"10":-0.14153958019171614,"11":0.10777333992762061,"12":0.09378935911477024,"13":-0.09980758514538933,"14":-0.05397216949459052,"15":0.07054961500937006,"16":-0.13223544661897918,"17":0.1839870020276926,"18":0.13236024705373656,"19":0.1853289839116016,"20":-0.14568367293285897,"21":-0.11155280328351416,"22":0.1512176643449576,"23":-0.05614492969650459,"24":-0.14189661782847304,"25":-0.16805421489487218,"26":-0.06956127822647067,"27":0.08917499981979314,"28":0.14541742219924958,"29":-0.008943514071781018,"30":-0.004567304643999542,"31":-0.1916485600476252,"32":-0.10114392489629256,"33":-0.11152656090790374,"34":-0.05990858157619445,"35":0.021775622259853362,"36":-0.06836541868050725,"37":0.19220454228540737,"38":0.18906236976245303,"39":0.06724045165176769,"40":0.12647758993895236,"41":0.11830258500282549,"42":0.005806764896364909,"43":0.17517125192931046,"44":0.10063697559650736,"45":0.18102043918609567,"46":-0.17829174378334872,"47":-0.0476567949475682,"48":0.1662894698349915,"49":0.061335471099007964}},"32":{"bias":-0.18757953511015563,"weights":{"0":0.07938544088290171,"1":-0.010440331027620228,"2":0.15285759961101997,"3":0.08392132269443679,"4":0.1950097362863689,"5":-0.07517611622717287,"6":-0.014935034021786642,"7":0.07075048050827211,"8":0.04574947686314941,"9":0.12413835404491651,"10":-0.021330940990872727,"11":-0.16633692442464754,"12":-0.16745977111259053,"13":-0.034010329403271575,"14":-0.17789116046916062,"15":0.15814163005255358,"16":0.10984692053108827,"17":-0.0996582339124572,"18":-0.009723454215847577,"19":0.022959066760899285,"20":-0.08851525122025579,"21":-0.12506810880268127,"22":-0.01763226714957429,"23":0.1398325565313022,"24":0.029767492428291284,"25":-0.030310516134384544,"26":-0.024807023459092515,"27":-0.09095171776231839,"28":-0.13916463379790117,"29":0.16258348615364135,"30":0.12492259068047266,"31":0.06615407402944926,"32":0.044205153986019985,"33":0.16401553075638103,"34":0.11272713600415829,"35":-0.09268940724922264,"36":-0.1437233464607525,"37":0.17089965670039906,"38":0.04711824024214562,"39":0.09948944588075002,"40":0.0563508227029972,"41":-0.18224704741554956,"42":0.1667727291030602,"43":-0.1664784387620811,"44":-0.1462525717959174,"45":0.186526002914298,"46":-0.05676441130695087,"47":0.15765175719579363,"48":-0.03914379636127558,"49":0.19185250607130996}},"33":{"bias":-0.1250409720299325,"weights":{"0":-0.06022685606748828,"1":0.0015537595866836884,"2":-0.01777050285492982,"3":0.0630530076969061,"4":-0.09335816749904115,"5":-0.16215185161155765,"6":0.09514804068457233,"7":-0.15853446843561483,"8":-0.036975820322533826,"9":0.056200427507286835,"10":0.08183916052419359,"11":0.08188984997290866,"12":0.14118334987325196,"13":0.03299203055344137,"14":0.11092817474805737,"15":-0.08373812522386152,"16":-0.04870399852647838,"17":-0.17425506837124533,"18":0.014747873292437352,"19":-0.15857664569746,"20":-0.0684628929496389,"21":-0.0035822634704685634,"22":0.1840720342160767,"23":-0.1672871692101081,"24":0.08539159235924204,"25":0.07312604248379707,"26":0.0022762483737856624,"27":0.03000854881487383,"28":-0.006565418281659482,"29":-0.15739199906166604,"30":0.03598820157970382,"31":-0.0034097670109302643,"32":-0.004504885244347067,"33":-0.0007054562484228087,"34":0.08183518767021199,"35":0.09205028194374601,"36":0.14489186513134572,"37":0.0634510461213753,"38":0.1768831335198151,"39":-0.1609022480275947,"40":0.12961836669007087,"41":-0.11552821868259225,"42":0.023620238705588967,"43":-0.08617032867307642,"44":-0.03568271953487291,"45":-0.040676145843594906,"46":0.09253230089379916,"47":0.14725043459724355,"48":-0.017467084330317635,"49":0.0726282930943419}},"34":{"bias":-0.1021559994800906,"weights":{"0":0.17751157442813825,"1":-0.06898973910263892,"2":-0.08900452246742901,"3":-0.1101363392015913,"4":0.1509088534205758,"5":0.03185349438976421,"6":0.03710218512886579,"7":-0.16623949132467628,"8":0.1155601382146902,"9":-0.08078261207036357,"10":-0.1125351178238457,"11":0.0532044170726011,"12":-0.09374356211188274,"13":0.025575651708998594,"14":0.013382843889478852,"15":0.12111921157715705,"16":-0.043588259501609924,"17":-0.07756312311213652,"18":0.02552638243017984,"19":0.15417274822795266,"20":-0.007150979400127399,"21":-0.06536441159709878,"22":-0.11541539833309716,"23":0.1574191430799706,"24":-0.0005318176104088568,"25":-0.04745511749125323,"26":0.07654947175336463,"27":0.060524311080099175,"28":-0.0012948284478518635,"29":0.01608022962277838,"30":-0.09500120152839664,"31":0.13982669024811842,"32":0.13049574300223904,"33":0.08958503666949001,"34":-0.11202175069604438,"35":0.046086780784960577,"36":-0.1188890080186467,"37":0.044741107949254004,"38":-0.02024604171301308,"39":-0.028888600585154682,"40":0.19312726493776514,"41":0.05801462367120238,"42":-0.004236527976221906,"43":0.07317975860110329,"44":-0.018273586442436998,"45":-0.12256926597148719,"46":0.131603451586558,"47":0.13513296286614035,"48":-0.05620393734854264,"49":0.07172643973529078}},"35":{"bias":-0.02509393465685573,"weights":{"0":-0.08733722155722862,"1":-0.11060235256639532,"2":-0.1573046458374908,"3":-0.1181363688666825,"4":-0.16019766520128415,"5":0.18373733895599656,"6":-0.09741145925764846,"7":-0.17324605665800305,"8":0.1266298565650678,"9":-0.02593381601842284,"10":0.051817139996567264,"11":-0.0061099193413121965,"12":-0.16175971036483358,"13":-0.04544011231376564,"14":0.0463986798413484,"15":-0.0779178115325816,"16":-0.13840399833043973,"17":0.005292446905684786,"18":0.13786862890726673,"19":0.1063207896130021,"20":-0.1880974441246039,"21":0.10961115416216463,"22":0.025831109235100118,"23":-0.021579819017338367,"24":0.031241433432220404,"25":0.02649353859492407,"26":-0.033851778581861613,"27":-0.11154562377763182,"28":0.1986851116579718,"29":-0.04321552502024543,"30":0.0016913107319109773,"31":-0.09178828327093659,"32":0.06359119212704739,"33":0.18666756755766603,"34":-0.08994678257626654,"35":-0.03064901814703801,"36":0.04667801861748873,"37":0.025606987406545472,"38":-0.023857392713230646,"39":0.09939930495111383,"40":-0.17651016740890224,"41":0.11489065468153979,"42":-0.15909209885266076,"43":0.1821422087660261,"44":0.19222571647454534,"45":0.04872963363481237,"46":-0.03851841042817428,"47":-0.022348818969685783,"48":0.14409229849673377,"49":-0.14313520930535747}},"36":{"bias":-0.1730251827892249,"weights":{"0":-0.11977306428027794,"1":0.13709482470057155,"2":-0.09807681832704322,"3":0.012348258997041504,"4":-0.06822832867133884,"5":-0.1131210383341219,"6":-0.0867758538027989,"7":0.11352786101038287,"8":0.049485173835085536,"9":0.012809061093787679,"10":-0.08639491858197579,"11":-0.18408649453474243,"12":0.10066129898348747,"13":0.05848717975861708,"14":0.16059733118661537,"15":-0.00784043739108598,"16":-0.15757420743182365,"17":-0.13850580615266103,"18":0.05630743821859171,"19":0.033027439158123596,"20":-0.18815930529536337,"21":-0.04966478087353409,"22":0.03764502367162646,"23":0.09594289044805727,"24":-0.12513706221780985,"25":0.14880669623427192,"26":0.050313553922445436,"27":0.14802083708542796,"28":-0.09364308352548462,"29":-0.18659459755804284,"30":-0.05306841295802782,"31":0.12072775558994718,"32":-0.19075952647530178,"33":0.1553814726950668,"34":0.07332823871318889,"35":0.1208934513883652,"36":0.07471462979175308,"37":0.020319119967958543,"38":0.17268906200848527,"39":-0.18648328536991776,"40":0.12624979601808878,"41":0.005187261380968913,"42":0.03918789166426633,"43":-0.07480382390997414,"44":0.03736133257748103,"45":-0.04262853005068703,"46":-0.09188664551273328,"47":-0.09339901098469752,"48":0.07303084811326564,"49":0.17950321162804928}},"37":{"bias":-0.12260302829798152,"weights":{"0":-0.03122790057453548,"1":0.07935849759840459,"2":-0.052951178758279156,"3":0.07769269599577462,"4":-0.1899233506525867,"5":-0.014080373913917336,"6":0.0033004028213675612,"7":0.14156681001129953,"8":0.16667864357305348,"9":0.0834851360533163,"10":0.07579980620767582,"11":0.11657572398225696,"12":0.015097021760517413,"13":0.054316455359176015,"14":0.17431051218041568,"15":-0.17109664987595033,"16":-0.1238646144805183,"17":-0.14910556340118822,"18":-0.10908092016013275,"19":0.13065956619640676,"20":-0.11708080094978003,"21":-0.016575039213446194,"22":-0.02342867469591755,"23":-0.10202451099434065,"24":-0.05017245796067361,"25":0.15608209800147402,"26":-0.1799445895085265,"27":0.12679143087623804,"28":-0.0316986001468111,"29":-0.018180814129138693,"30":-0.14215470068293112,"31":-0.1615925659765841,"32":-0.17379008201274984,"33":0.1168455095711622,"34":0.0012646809268323546,"35":-0.05365102809981292,"36":-0.19797026792045647,"37":0.07033478143452221,"38":-0.09261284205093526,"39":0.13310806707677544,"40":0.09406344754874776,"41":0.05589872366000305,"42":0.06015866498446819,"43":0.1558475075417369,"44":0.0516902216456433,"45":0.09120656885230376,"46":0.02124758627012657,"47":-0.04262187032013078,"48":-0.08270358493852986,"49":-0.00042609123272135003}},"38":{"bias":0.15052115836935234,"weights":{"0":0.027506906814799555,"1":0.00299504803707571,"2":0.17209109329276517,"3":0.053590833816681,"4":-0.15602281039900853,"5":-0.19867538516396024,"6":0.005043526364203983,"7":-0.17395064558582948,"8":0.0820889963808957,"9":0.1343160476379404,"10":0.007604859325591072,"11":0.15408120993377156,"12":0.08355283549833242,"13":0.17914470952438605,"14":-0.039182174579276925,"15":0.19125166469297872,"16":-0.1203869101882401,"17":0.14756830055827422,"18":-0.001547377980509461,"19":-0.0532390457842175,"20":0.1589230216075605,"21":0.17132449667294436,"22":-0.12989464426869443,"23":0.05487049004311929,"24":-0.07162403855986699,"25":0.08273897158799291,"26":-0.19701334461029604,"27":0.14937359307360862,"28":0.12251277615314364,"29":-0.07591582342011162,"30":0.17987625975289093,"31":0.009967901124607851,"32":0.15914762424338563,"33":-0.12376399706146933,"34":-0.1873612142307104,"35":0.01934680554701434,"36":0.06958256928596927,"37":0.07128105450143678,"38":-0.043221664830013766,"39":-0.1502152424626645,"40":-0.1280154403754746,"41":0.1131767162603804,"42":0.018656338070684373,"43":0.09302977295491346,"44":-0.0735949454931013,"45":-0.13124262188220184,"46":-0.06674550709128807,"47":-0.09429848903440513,"48":-0.18999417599058374,"49":-0.15539577009276734}},"39":{"bias":0.027968129723611693,"weights":{"0":0.008221710242353126,"1":0.02833517546065705,"2":-0.034216467861329515,"3":0.037008514551541485,"4":0.145574194304437,"5":0.018176374276719826,"6":-0.16255584044169033,"7":0.01828716326192915,"8":0.05880277845614338,"9":-0.1856521506691053,"10":-0.14228761753209823,"11":-0.06486913321445288,"12":-0.03015497747714818,"13":-0.17020635769535514,"14":0.008380455167570392,"15":0.10689665073811679,"16":-0.01584934581497779,"17":-0.19654524986201033,"18":-0.03519607899470534,"19":-0.1694816129301272,"20":-0.018929129669154884,"21":-0.17285440325796247,"22":-0.062427662324807356,"23":-0.009546203466359381,"24":0.11016529028097113,"25":0.0874687596717994,"26":-0.19382653453347987,"27":-0.13783874299371113,"28":-0.1724681435846568,"29":0.09464178157748274,"30":0.10485151683093258,"31":-0.0375652105702162,"32":0.14664511412757494,"33":0.06304106371441517,"34":0.1270069456633349,"35":0.11499686346739776,"36":0.08408213640471043,"37":-0.1984227868090263,"38":-0.06006860820718435,"39":-0.04306936461166332,"40":-0.09019294368439205,"41":0.15678945229101762,"42":0.1295621617954955,"43":0.10211966883786229,"44":0.1048239940114734,"45":-0.02783770489317213,"46":0.005861644796319998,"47":-0.10476845585870263,"48":-0.06777656058636691,"49":-0.1327453888114942}},"40":{"bias":-0.032305432878074095,"weights":{"0":-0.11945196405176492,"1":0.03989653048440166,"2":-0.08371957172056019,"3":0.17350070634615225,"4":0.07474336924604243,"5":-0.1779981788617176,"6":0.10463133795468808,"7":0.15438266124938746,"8":-0.09878537397144593,"9":-0.059091428311891986,"10":0.12202785669665052,"11":-0.0915881125701815,"12":0.18074298651895837,"13":0.17311964542046668,"14":0.1838515614203507,"15":0.13825981646836805,"16":0.13666345815189215,"17":-0.0683294674983658,"18":-0.023422775192861803,"19":0.15100954912856765,"20":-0.19442281078753315,"21":-0.04743300763403379,"22":-0.18903003714321795,"23":-0.12830852183020308,"24":-0.1837823006723627,"25":0.06936073783874608,"26":-0.116958706051441,"27":0.19949467167288404,"28":-0.10280944760196149,"29":-0.0035691880065872733,"30":0.11350048497285914,"31":0.06659292632499388,"32":-0.10950508124247434,"33":-0.14502311170584145,"34":0.007825661523635095,"35":-0.10130754777275036,"36":-0.08652346508176696,"37":0.12403181789182098,"38":0.19002637589059654,"39":0.05108553741104355,"40":0.058369209827927135,"41":0.15720334550827803,"42":-0.11455163019328411,"43":-0.008370776732777394,"44":0.009751706850493098,"45":-0.12194983126402281,"46":0.1642389003379964,"47":0.004567164302093999,"48":-0.13360426322792537,"49":0.030153703376254865}},"41":{"bias":0.08990206874092399,"weights":{"0":-0.06623246917798133,"1":0.04582366255319916,"2":-0.09096586613117956,"3":0.1416543950369252,"4":-0.1769510349006795,"5":0.06304464465761099,"6":-0.11464886792923293,"7":-0.14172806816795833,"8":0.009576814477346542,"9":-0.004994715808657606,"10":-0.12856242841222115,"11":0.02918665649130689,"12":0.10896081228736343,"13":0.0666701525495914,"14":-0.11278586601405936,"15":0.1844175780198623,"16":-0.14984583379231242,"17":0.02993682936928816,"18":-0.08169848361833455,"19":-0.09146347172856857,"20":0.06830253388706363,"21":0.0440284878196319,"22":0.16869396969596162,"23":-0.07527470561520028,"24":0.047654960167863705,"25":0.10124957963725995,"26":-0.09833767106797041,"27":0.1194923964064371,"28":0.0915877715209789,"29":0.05123058238750116,"30":-0.12166524452492683,"31":0.10188010833189574,"32":0.03710353827232643,"33":0.012972015154303214,"34":0.027154068796533475,"35":0.08581382423414285,"36":0.024903027028249494,"37":0.18071414106261052,"38":-0.058511798372718596,"39":0.06224083268218723,"40":0.07039729154508274,"41":-0.1782112769537515,"42":0.08785956753620269,"43":-0.0433276534552403,"44":-0.11424020593803687,"45":0.04187134824309996,"46":0.07405170439525934,"47":-0.14383819194740122,"48":0.09756277359638355,"49":-0.15409332669105744}},"42":{"bias":-0.05965087000477051,"weights":{"0":0.1875475739013265,"1":-0.03597304398173169,"2":0.13114137128037814,"3":0.16467148136506488,"4":-0.1961247192716387,"5":0.19133185925621096,"6":-0.02501282042063177,"7":0.05125390074028177,"8":0.12398720384360855,"9":0.04526633824401146,"10":-0.1106379265335174,"11":-0.0944130162630674,"12":-0.16619416909858428,"13":0.02561206894782076,"14":0.08913394807298623,"15":-0.06979496470032244,"16":-0.1389199033137356,"17":-0.15242536608119409,"18":0.1402558147084557,"19":-0.1653601378058201,"20":0.10250067968983612,"21":0.009822999284923037,"22":-0.02278378010936901,"23":-0.029298093239321327,"24":-0.1801668423374691,"25":0.10915368159760312,"26":-0.009815953401790421,"27":0.016450823684397323,"28":0.03401148456563056,"29":0.011878033565923372,"30":0.19364073071056492,"31":-0.08280552966124562,"32":0.07323420978894302,"33":-0.14959456649256647,"34":0.10318121119157404,"35":0.15102442142634406,"36":0.04745778001070173,"37":0.03758677924921776,"38":0.04760474880314714,"39":0.1793298443040593,"40":-0.09930010261831237,"41":0.00036452448308010616,"42":-0.190772205235955,"43":-0.1577750229348485,"44":0.022804012005693104,"45":0.009835160261898561,"46":-0.12974130392593444,"47":-0.09665134249677225,"48":-0.0717052641401872,"49":-0.16365038094072476}},"43":{"bias":0.17025441094763846,"weights":{"0":-0.1449929911722774,"1":0.11002972213619537,"2":-0.07320075195192456,"3":-0.12001531261562572,"4":-0.19655809408465852,"5":0.09461038564604816,"6":0.04527150282479415,"7":-0.08594392241304745,"8":-0.1195087634500531,"9":0.09018068920059062,"10":-0.09726048028320128,"11":-0.08452298048175255,"12":0.19996952998902842,"13":-0.06341532194092839,"14":0.1936332744946017,"15":-0.19351094003874866,"16":0.13291559153093924,"17":0.002781900747821071,"18":0.01840659757329048,"19":0.027264892661054398,"20":-0.08756144613612746,"21":0.15978604359784643,"22":-0.15766752728057457,"23":-0.08149123689721613,"24":0.01410579076477013,"25":0.09874666598027214,"26":0.03791836489032546,"27":0.08871843176156761,"28":-0.12512721620969486,"29":0.030224064837036532,"30":-0.16669439737756064,"31":0.09198578558151345,"32":-0.07884579334187142,"33":-0.055135266158386195,"34":0.10694776563948374,"35":-0.11627779453743288,"36":-0.16514339232451386,"37":-0.12745613340577763,"38":-0.06208594363736098,"39":-0.01989177488060684,"40":-0.07204144158600881,"41":-0.12837567399812524,"42":0.061773133637237604,"43":-0.12532241324620783,"44":0.045009338732025714,"45":-0.15336987819840248,"46":-0.12157520021779132,"47":0.17962016630067248,"48":0.005066558176433059,"49":0.04741828552561499}},"44":{"bias":0.08827456421306469,"weights":{"0":-0.1341393627649428,"1":-0.18296391415852914,"2":0.19775429050095295,"3":-0.10251808094607405,"4":0.015492391814690643,"5":-0.12952899776129753,"6":-0.15513773532370143,"7":-0.07787390473734891,"8":0.15577998540499027,"9":-0.1885431814477355,"10":0.033764782997834746,"11":0.0232103080415599,"12":-0.10968282176543455,"13":0.15986607994040666,"14":-0.049036412239157015,"15":0.04001484909509629,"16":0.012183958540781895,"17":0.11143390465956331,"18":-0.06969334082477306,"19":0.0984897394156109,"20":-0.1096106902535922,"21":0.03868789428057361,"22":0.131519392611027,"23":-0.1303688623228858,"24":0.13250854124106476,"25":0.05523597600462384,"26":-0.10283916275256898,"27":-0.19370120767662694,"28":-0.09237724884550552,"29":-0.1646135852561552,"30":-0.0701138581399104,"31":-0.18058084164336666,"32":-0.01952427754768214,"33":0.04476352104653542,"34":0.14684408224416529,"35":0.08136010716603842,"36":-0.14524487247375098,"37":-0.06426077245765854,"38":0.020706916591473036,"39":0.007755825023238521,"40":-0.16029338228119414,"41":-0.0007849454384680777,"42":-0.017581542676454207,"43":0.09337831518760174,"44":0.09776636079248667,"45":-0.13266667206729077,"46":-0.09913871551362452,"47":0.006165602071843882,"48":0.07844520875332593,"49":-0.1418366768816755}},"45":{"bias":0.15796761645028798,"weights":{"0":0.11045790928494639,"1":0.05840388942448486,"2":0.10427188048413989,"3":0.010149719635943575,"4":-0.17380465813583043,"5":0.13591571355342988,"6":0.01593651495599258,"7":0.1282910855308664,"8":0.1708211083598069,"9":-0.08077507551234915,"10":-0.15718626234536023,"11":-0.08462716818635264,"12":0.18848307200415038,"13":-0.15954089842964392,"14":0.14977976093915488,"15":-0.0013853091988132757,"16":-0.17301420785054916,"17":-0.06847480247206456,"18":0.1807922107209379,"19":-0.07410968866093703,"20":-0.18530790992925406,"21":-0.12534550133147818,"22":-0.08182271541702843,"23":0.0033468367885772826,"24":0.16202864571412143,"25":-0.03322693981703376,"26":0.004507601856978602,"27":0.1748871635623243,"28":-0.05759443603211618,"29":-0.09789328272091997,"30":0.16085801294888938,"31":-0.09294779995386176,"32":0.057638580172536195,"33":0.07842711439680336,"34":0.1159880310539798,"35":-0.08555914335774595,"36":0.040708382948957136,"37":0.0858753907554614,"38":0.07167708738294734,"39":0.06583669566149082,"40":0.09892520576738299,"41":0.03932302949728307,"42":-0.039582312007086055,"43":0.11249954485946204,"44":-0.051261563441973634,"45":-0.06830592374204833,"46":0.13874701992494978,"47":0.04111749131892647,"48":0.18587031907747284,"49":0.022515050136319496}},"46":{"bias":0.15739150547373273,"weights":{"0":-0.032852787534230835,"1":0.09008865280250072,"2":0.19391257236281434,"3":-0.07225705290051729,"4":-0.03352706070439028,"5":-0.11333941570694538,"6":-0.1567373514939148,"7":0.01055128646792692,"8":0.128759218878459,"9":0.028759010499742405,"10":0.10980049341078175,"11":-0.12068122595610319,"12":0.08144687883633993,"13":0.004813430462572478,"14":0.0772010773818877,"15":-0.180895065090043,"16":-0.19972272530772217,"17":0.03196316239944391,"18":0.042440617782305706,"19":0.06190174790159491,"20":-0.03673400648883798,"21":-0.07535598954267185,"22":0.031108913257034226,"23":-0.08763495878740805,"24":-0.08604420633486112,"25":0.050429566376922454,"26":0.1855658291530188,"27":-0.1910250512576108,"28":0.146832369936237,"29":0.011843867850844271,"30":-0.1764399178750281,"31":0.07032105076504819,"32":-0.18315312150436588,"33":-0.06083288141390001,"34":0.16754693380744196,"35":-0.06673023673572535,"36":0.014937698234801455,"37":-0.037985236600045894,"38":-0.026903144826056904,"39":0.12732170371105536,"40":0.01796622927353813,"41":0.11779161027988556,"42":0.13302633442925313,"43":-0.000945307729415776,"44":-0.03900375786755405,"45":-0.13926371171160018,"46":-0.0900367937083619,"47":0.14118572990688444,"48":-0.07332368227809237,"49":0.10030672888150932}},"47":{"bias":-0.12420501567974698,"weights":{"0":-0.0721516853931272,"1":-0.05781583115543485,"2":0.02247543996691967,"3":-0.12790354881766122,"4":0.08433368767214287,"5":0.13589071969562963,"6":-0.03160152531067916,"7":-0.03989602826301469,"8":-0.07305743611285669,"9":-0.056847457662361926,"10":0.08422328502049241,"11":0.03063995015778606,"12":0.08352192671753565,"13":0.11231555861875783,"14":-0.08509846599554774,"15":-0.09989461777183634,"16":0.06236673811501813,"17":0.01623387386498134,"18":-0.033764506797274704,"19":0.1488471009316593,"20":-0.06165071787641164,"21":-0.09877534338090928,"22":0.03610957514084256,"23":0.03995624654070308,"24":0.12078162207350343,"25":0.11683478940547598,"26":-0.01012498249867556,"27":0.07483266665928581,"28":-0.10923892478791904,"29":0.15624789889073395,"30":0.046902111356021056,"31":-0.10866268327008588,"32":-0.1448670890535118,"33":0.01192478051923627,"34":0.18337185037585024,"35":-0.04066837461752438,"36":-0.04705967108885413,"37":0.0063708491542356915,"38":-0.07383924141092259,"39":0.06464056756431806,"40":-0.1479568450541455,"41":0.027432000660031826,"42":-0.13930931220831683,"43":0.03141372915224807,"44":0.004772405173035266,"45":-0.07976802846314546,"46":-0.15326988405046924,"47":-0.019875433805191228,"48":0.13894288926596832,"49":0.19429958017674645}},"48":{"bias":-0.18119594176958553,"weights":{"0":-0.040036559486076824,"1":0.01993201000117715,"2":-0.09814988665034613,"3":-0.07036210159998249,"4":0.04464285009129482,"5":-0.10420203960132854,"6":0.16161459444889317,"7":-0.09225862536667709,"8":-0.18756350440186773,"9":0.13762455264821577,"10":-0.16454984559965163,"11":-0.07391450726713417,"12":0.059193059985595306,"13":-0.11585782201473822,"14":0.08282493177715922,"15":0.11220832926053101,"16":0.10705319766136498,"17":-0.17555674120935183,"18":-0.05541694078857101,"19":-0.07842035281465103,"20":-0.025666585073625296,"21":0.16758231278156124,"22":-0.04284858485768402,"23":-0.18118755613389723,"24":-0.02231611585612915,"25":0.06814998631684237,"26":0.06509698927116475,"27":0.10134883254021311,"28":-0.18324617223923756,"29":0.1839134476635477,"30":0.1273434681237642,"31":-0.015578449025100822,"32":0.12297736313515932,"33":-0.023778852508267966,"34":-0.03319129222583944,"35":-0.16729501114504042,"36":0.06888177582993883,"37":0.127871903134281,"38":0.17775547924549615,"39":0.13318546683390417,"40":-0.15704459249990863,"41":0.12250587863521459,"42":-0.15115969003809793,"43":-0.15875702221870522,"44":0.10910341439105262,"45":0.16324482049348155,"46":0.045643300100486804,"47":0.1876256047780175,"48":-0.05122540084520696,"49":0.07770192665572281}},"49":{"bias":-0.14574033422079982,"weights":{"0":0.011561268126266,"1":0.030927427002423093,"2":0.01506064029897767,"3":-0.1909187440857059,"4":-0.10681336998548394,"5":-0.09259926668268856,"6":-0.15486286111430655,"7":0.0340244417902376,"8":0.18774484037906553,"9":0.13392922083419045,"10":-0.11364899053872779,"11":0.1822984651719553,"12":-0.06533163714533052,"13":0.13874193630886633,"14":-0.07313091467372193,"15":-0.11530905680017421,"16":0.1498667236686777,"17":-0.09689488358431739,"18":-0.14153807221026027,"19":0.008307148003638173,"20":-0.003693031316543504,"21":0.17834113677100746,"22":-0.12887207775411577,"23":0.11025739894659341,"24":0.19818241385690213,"25":-0.04344501780602155,"26":0.08089653261420425,"27":-0.12692847546201147,"28":-0.09354617904076394,"29":0.14374999236147454,"30":0.08586100486028962,"31":-0.0763069937735435,"32":0.044155198447653185,"33":-0.0031758999798921733,"34":-0.12992578383332404,"35":0.10504076294611182,"36":0.18344127371503366,"37":-0.15062314521349462,"38":0.11623526590832392,"39":-0.1515102281149204,"40":-0.0752822174124768,"41":-0.18646731137720143,"42":-0.16163914790637238,"43":0.01086809516976828,"44":0.11897051733669223,"45":-0.036865212330962197,"46":0.05107461680833601,"47":0.07653554598880291,"48":-0.04264764208439864,"49":-0.10085477305994134}},"50":{"bias":-0.1560430759758415,"weights":{"0":0.04840796749928882,"1":0.1761354533133511,"2":-0.19903808512407142,"3":0.013568067178613587,"4":0.1974968163547223,"5":0.0917061579602058,"6":-0.13168025169309658,"7":-0.16017672727703236,"8":-0.028797590601146096,"9":-0.10774695904090356,"10":-0.1676967874861502,"11":-0.17132564247386514,"12":-0.05450127418012741,"13":0.017657143054706215,"14":-0.09006989119255682,"15":0.08095582034401318,"16":-0.07329594326619925,"17":-0.17580146115448617,"18":-0.051039552651711756,"19":0.011727204458896232,"20":-0.16820759560610607,"21":0.192950395219353,"22":-0.02664833178995052,"23":-0.0424959922411792,"24":-0.13896122766950617,"25":0.19608298058102158,"26":-0.18325157468643716,"27":0.12349316419053351,"28":0.13646507108047828,"29":0.07158704147955523,"30":-0.18554996084970632,"31":0.08462761472992886,"32":-0.14288697805230713,"33":0.0006357895646752356,"34":0.10308237143130677,"35":0.14307957842786112,"36":-0.01614007711182611,"37":0.14047219563211683,"38":0.13464774891758602,"39":-0.007384780111490468,"40":-0.13721527960084687,"41":0.08828117962569748,"42":-0.15190089393721634,"43":0.010661925692156314,"44":-0.16104450013103885,"45":-0.09166924192095716,"46":0.0959938058451793,"47":0.020542564249480692,"48":-0.02017033225902625,"49":0.03572740108431958}},"51":{"bias":0.07212278491097197,"weights":{"0":0.058040889343991355,"1":-0.16164246339447103,"2":-0.09604526292155009,"3":0.18398021207640408,"4":-0.029453191965980608,"5":0.1349567021118419,"6":0.16392617122912434,"7":0.1384899764623781,"8":0.013371303292004044,"9":-0.08843687912911884,"10":-0.06545454354022552,"11":0.03508597495012784,"12":-0.04414827884346062,"13":0.029128300425353786,"14":0.09315314248426526,"15":-0.16132509540966006,"16":-0.08848595701360534,"17":0.17232948000378187,"18":0.04151140443039225,"19":-0.1717761848813432,"20":-0.009534571062487437,"21":-0.1276440606475282,"22":-0.13878127894574757,"23":-0.04573992752314798,"24":-0.1985259259017001,"25":-0.13062012446969706,"26":-0.11818490877726477,"27":-0.07072381069665805,"28":-0.12350678039023015,"29":0.12456490522693815,"30":-0.02561856373330255,"31":-0.14289941028253364,"32":0.031586079546652206,"33":-0.09108735040175,"34":0.09205489846473566,"35":-0.0786609810103219,"36":0.036958894255337264,"37":-0.07045890674858332,"38":0.11855236547398967,"39":-0.12503171801679883,"40":-0.17632301245003593,"41":0.06653910740563064,"42":0.11404369243608209,"43":-0.1662049999124652,"44":0.1057704685749078,"45":0.08634618134596345,"46":-0.048140292456134236,"47":0.09479686814136501,"48":-0.10611787367769805,"49":0.12298522846116784}},"52":{"bias":-0.0386905350570322,"weights":{"0":-0.009227072066658,"1":0.0337115590845718,"2":-0.1321728992181007,"3":0.11576237220325603,"4":-0.034577096715853683,"5":0.1758158491552645,"6":-0.1416329148602679,"7":-0.19724572303460086,"8":-0.181072746410389,"9":-0.019229024883162065,"10":-0.1922712742199758,"11":-0.14479404522269207,"12":0.08885109705246796,"13":0.14967837493873407,"14":0.11582598455928335,"15":-0.10547275639281598,"16":-0.15975072170444665,"17":0.17608168703085025,"18":0.00832117799918121,"19":-0.17422639234126455,"20":0.06937825632831837,"21":0.11526023885035985,"22":0.17818858410688135,"23":-0.027837630683311906,"24":0.03092378889203328,"25":0.1762361404557772,"26":-0.08146133423229478,"27":0.054829457640649205,"28":-0.14815472876742075,"29":0.09800228773155734,"30":0.033559175445344924,"31":-0.1768141130607875,"32":0.17560322105333878,"33":0.19270306365692164,"34":0.18806862428508614,"35":0.020096293400038826,"36":0.1645367811004398,"37":0.050311940530094613,"38":0.07619108899029535,"39":0.17485916236292698,"40":0.1671231227557227,"41":0.1742543450338861,"42":0.14897743585951775,"43":0.18626058496666942,"44":0.11203267300577543,"45":-0.0244800742684302,"46":0.19137876912213364,"47":0.13601599063125788,"48":-0.18712596530135692,"49":-0.18902109743574325}},"53":{"bias":0.14063854689655117,"weights":{"0":-0.16385191049959993,"1":0.09346406741084143,"2":0.0024334041690958325,"3":0.06680761673659273,"4":-0.1948889443483456,"5":0.13058125128178613,"6":0.06950645281897641,"7":0.03810126968068968,"8":0.16662513697182652,"9":-0.05460877964154927,"10":-0.08229958174724336,"11":0.09478693006097941,"12":0.12583684410160761,"13":0.05346265553696085,"14":-0.008579738508395652,"15":-0.11755133472745753,"16":-0.09530195287814586,"17":0.022737277345366975,"18":0.08092347764477348,"19":0.11085936971109303,"20":-0.012267411341909167,"21":0.0865620566165035,"22":0.13589892312371735,"23":0.000034914487081835895,"24":0.1971330211228501,"25":0.17198196357818474,"26":-0.097008525073785,"27":0.12064068219786622,"28":-0.07007813882184498,"29":-0.19007230181928256,"30":-0.07672182323244343,"31":0.15322877026778556,"32":-0.01673354493847932,"33":-0.14954842463904394,"34":-0.10465800665039275,"35":-0.19007855117197842,"36":-0.1966485088509141,"37":-0.03478031190637505,"38":0.19474288013370325,"39":-0.07779482443867333,"40":-0.1383340797727882,"41":0.13016630604355664,"42":-0.19201364331720272,"43":-0.19217859900363118,"44":0.06852326300792075,"45":-0.024235289107562483,"46":0.07669348965390707,"47":-0.031194258304805732,"48":0.00005692555385333544,"49":0.03570722630503407}},"54":{"bias":0.04311460020737573,"weights":{"0":-0.13600921022322326,"1":-0.15782671958011898,"2":-0.046549029921582094,"3":-0.13490475499965465,"4":0.07600084788547071,"5":0.009334463098630924,"6":0.14273634301236707,"7":0.031245949030501506,"8":-0.04815299160439722,"9":0.01755663784015136,"10":-0.1349403143657612,"11":-0.0831894579777727,"12":-0.1763853903934551,"13":0.14027797066737946,"14":0.1753136482107328,"15":0.0006336665153923851,"16":-0.08876769000101112,"17":0.0246416726733246,"18":0.13878238130123077,"19":-0.10984329806080897,"20":-0.07680928369653288,"21":0.12225036848304584,"22":-0.01968053343217444,"23":-0.024588516448674262,"24":-0.029321249300417136,"25":-0.055855935574724444,"26":-0.05422769993375766,"27":-0.029064309809995578,"28":-0.11694487085144058,"29":0.06285802224243138,"30":0.18129707969288936,"31":0.12388584973501222,"32":0.15168518265457767,"33":0.10615059166666425,"34":-0.16277071076078578,"35":0.09056628861915285,"36":-0.1428163997705865,"37":-0.0370574395671422,"38":0.08262491304129534,"39":0.15882006118763,"40":0.022022466998033653,"41":0.18987488344185274,"42":-0.1349327622100114,"43":0.15006605584579988,"44":-0.14412454051041956,"45":0.041562231725831705,"46":-0.17256663103159448,"47":-0.12159218840838358,"48":0.10198275235522532,"49":-0.02261159934571562}},"55":{"bias":-0.19228710645728725,"weights":{"0":0.15844942981060225,"1":-0.1644204972473998,"2":0.05329883941234016,"3":0.15115235957546735,"4":0.12174803025315638,"5":-0.11309074479100453,"6":-0.19066559417274412,"7":0.16350760947961687,"8":-0.10409987726939995,"9":-0.02926176983028919,"10":0.042527652219792766,"11":-0.14699638060241033,"12":-0.006237563881192297,"13":0.17472393359350324,"14":-0.10404544791532101,"15":-0.08942449183975554,"16":0.020695490108092622,"17":0.10520336500429625,"18":-0.11278980353355293,"19":0.07140809294329635,"20":0.10604354160316845,"21":0.17801239369450242,"22":0.1775751218647824,"23":-0.045258449212771966,"24":0.13726160152174538,"25":-0.15914862842903377,"26":-0.1826954482446652,"27":-0.11460973698479288,"28":0.04480561262707483,"29":0.16047161352018827,"30":0.10795511351043328,"31":-0.18956836987093365,"32":-0.1003486847076385,"33":-0.04214558667385121,"34":0.13087317053312647,"35":-0.16498712203189828,"36":-0.03023487207530298,"37":0.18719787501247503,"38":0.16772646871972186,"39":0.18025921975821424,"40":0.0814450909462373,"41":-0.18700046518133273,"42":-0.1481120460343158,"43":-0.038890670150841765,"44":0.0952507837452311,"45":-0.11267835681413248,"46":0.12877157136223646,"47":0.03212081298744241,"48":-0.14239496773179827,"49":0.1275479004031265}},"56":{"bias":0.06489408514674766,"weights":{"0":-0.15029209294555,"1":-0.1959627394886494,"2":0.006411227557897868,"3":-0.1035542292877392,"4":0.07270165020069187,"5":0.16101957946426093,"6":0.054801163248374626,"7":-0.1975263868835112,"8":0.0338598304003539,"9":0.01454674756172402,"10":0.02046315869094371,"11":-0.09529852130056338,"12":-0.19967759978089292,"13":-0.03205233992895347,"14":-0.1954687776473225,"15":0.02748104820890739,"16":0.040013530815957266,"17":0.04076343099993872,"18":0.16565731803800024,"19":-0.06795318948937695,"20":0.10815669950658256,"21":0.034194135536179046,"22":-0.05466044113035422,"23":0.00004580084438982377,"24":0.010071020837243408,"25":0.030112796612582815,"26":0.0039647747802537625,"27":-0.026474296054785657,"28":0.11173551797994517,"29":0.1661837083057922,"30":-0.1761948526701334,"31":0.18612628119052513,"32":0.1934381387831441,"33":0.02499574232037184,"34":0.09190126805976466,"35":0.09553509074920745,"36":-0.026563447474500842,"37":0.18292717980247866,"38":-0.10215027342616922,"39":0.09740053462417766,"40":-0.1434176946479213,"41":-0.043447176232277715,"42":0.09635360942196779,"43":0.04355555973425959,"44":-0.08946437106655178,"45":-0.1283038713367484,"46":0.07472614991305927,"47":0.016906280276320414,"48":-0.17498849371334624,"49":0.031387017230031726}},"57":{"bias":0.1921902001497017,"weights":{"0":0.07349297864009002,"1":-0.03915230941861791,"2":0.013737664610817718,"3":-0.17207647966051562,"4":-0.17368513365885738,"5":0.17431741343087293,"6":-0.008410147836443864,"7":0.010530678265984266,"8":0.030584617851775867,"9":0.10811256573974082,"10":-0.03623565240703628,"11":-0.009221419128380398,"12":0.060082659368398975,"13":-0.12931820996305152,"14":-0.04245993887968458,"15":-0.069585225840165,"16":0.09022775631502268,"17":-0.06988056802093809,"18":-0.10893891724930527,"19":0.002377863584651257,"20":-0.053191339289809784,"21":0.07302634521484451,"22":-0.15323765759343277,"23":-0.10966828209328902,"24":-0.0727990754902458,"25":-0.03503688485465266,"26":-0.10090211314704454,"27":-0.10547608323485204,"28":-0.05196793628730923,"29":-0.08399250909694382,"30":0.1574593886610532,"31":0.14671664173805635,"32":0.012887877376879332,"33":-0.04372505580966943,"34":0.10081362353551838,"35":-0.1699004599694686,"36":0.040140778294273156,"37":0.013584595599666013,"38":0.11916976474525313,"39":-0.06176821644900951,"40":-0.08609786994838266,"41":-0.13924128525449866,"42":-0.014627471259140455,"43":-0.04283217803179893,"44":0.08761965747370959,"45":-0.11507116803307978,"46":-0.058079284808485294,"47":-0.02442150516444661,"48":0.07063024650766614,"49":-0.0013456603083347141}},"58":{"bias":-0.023722857569685955,"weights":{"0":-0.07067059722286859,"1":0.1748383330321677,"2":-0.08968414363896494,"3":0.188344127292528,"4":0.11124028836094672,"5":-0.17915183233999646,"6":0.1200441546609534,"7":0.05569748228010652,"8":-0.01216762709613905,"9":-0.18764454801368777,"10":-0.19970461783940824,"11":-0.072478509025442,"12":0.19096536856675786,"13":0.10246461663073878,"14":0.10872660424845476,"15":0.12888913299596563,"16":0.028984601922832833,"17":0.15212543271869125,"18":-0.11515267465232647,"19":0.1524316999519605,"20":0.003197988196088249,"21":-0.14818031820218167,"22":-0.007368714377320489,"23":-0.13190135770890402,"24":-0.12267098162272196,"25":0.0798969727374248,"26":0.02812512456037314,"27":0.0764318299070103,"28":0.03236963498022147,"29":0.12755102416615324,"30":-0.10322633957830998,"31":0.1646209912983292,"32":0.13444731904503285,"33":-0.1810169681252664,"34":-0.05184386532832564,"35":0.13483152578927415,"36":-0.16608659530442355,"37":0.09328881315146598,"38":-0.1753566927941795,"39":-0.043016386736299726,"40":-0.0818235664125244,"41":0.18093535370553118,"42":-0.16758306601033787,"43":-0.07839172704535927,"44":0.1711088319259171,"45":-0.030579066807696953,"46":0.09010395705406009,"47":-0.1789834723287529,"48":0.14646528345359902,"49":-0.002517229745469001}},"59":{"bias":0.1316471726707732,"weights":{"0":-0.1834726742984874,"1":0.08530968722727658,"2":-0.19278828323796937,"3":-0.16778502994255284,"4":-0.0438994874570331,"5":0.06296641707696307,"6":-0.07747230263097861,"7":-0.043007354872602155,"8":-0.12051811205283372,"9":0.004833462916025618,"10":-0.1997133775785763,"11":0.08833689950040986,"12":0.1099544806871644,"13":0.18665579073291638,"14":0.19218454596654813,"15":-0.06891892069220876,"16":0.15737936746669026,"17":0.03300182945260043,"18":-0.0782277243342587,"19":-0.0968232649604777,"20":-0.17971145367150887,"21":0.09514563939980093,"22":0.1668190048747006,"23":-0.0603399579734745,"24":-0.10201224824395883,"25":-0.01628351562597768,"26":0.017716541770104843,"27":0.1365935116477227,"28":-0.1025588877082732,"29":-0.08357649750394616,"30":-0.04531971423767057,"31":0.0119024344542372,"32":-0.08071286712680521,"33":0.16174111362818575,"34":0.06612530865275605,"35":0.14171657619433886,"36":-0.06660238642938701,"37":-0.13238335244968547,"38":-0.06510189565412156,"39":0.058374433433542816,"40":-0.12354117386407434,"41":0.007627563283620737,"42":0.06374663236162056,"43":-0.07617314326917955,"44":-0.18597777936078436,"45":-0.09061906372132536,"46":0.16134906529414086,"47":-0.10283900369971614,"48":-0.1104677632276775,"49":0.12955911669441525}}},{"0":{"bias":0.09686862073606502,"weights":{"0":0.1362330499445292,"1":-0.026915827922693068,"2":-0.17880864668782584,"3":0.08346004067933428,"4":0.09462751524514847,"5":0.05173045060715866,"6":-0.05211902063147309,"7":-0.033918153261982956,"8":0.016441961835105306,"9":-0.15270425204842905,"10":0.02190250026870063,"11":0.1676733860494909,"12":-0.0992034068302309,"13":-0.193643215123544,"14":-0.14968642574913965,"15":0.03601266526958333,"16":-0.16975480007212282,"17":-0.18570152893146555,"18":-0.14985929747650148,"19":0.0015838718442230922,"20":-0.1646468667219633,"21":0.07889548061802516,"22":0.14447149945304555,"23":-0.07639189237998172,"24":0.08213155231081118,"25":-0.00173406135300012,"26":0.13186549181034005,"27":-0.1492268754042376,"28":-0.15401765794897065,"29":0.0841783493030544,"30":0.07413909849114023,"31":0.02770103222177885,"32":0.018434646824083713,"33":-0.14193666243940148,"34":0.17572786007343077,"35":0.0067430057181204674,"36":-0.06103374008530796,"37":0.02755053482563882,"38":-0.01742778989571598,"39":0.0870289539200108,"40":0.06730653544956451,"41":-0.05016588262412655,"42":0.020914792774478174,"43":-0.004508769845931956,"44":0.17443272213976557,"45":0.08308468662232818,"46":0.11201313110270221,"47":0.09372539914628923,"48":0.17984648915770418,"49":-0.18562807132027023,"50":0.050126629534494156,"51":-0.17554034429421653,"52":-0.12161036401523959,"53":0.1325144898393736,"54":-0.18100979216131685,"55":0.19094882653574036,"56":0.038154014093499694,"57":0.057977947015585105,"58":0.06482830085274531,"59":0.10392996903239873}},"1":{"bias":0.18931837232649695,"weights":{"0":-0.09687034997275969,"1":-0.16272795446852478,"2":-0.04968029184793348,"3":0.041099610760779795,"4":0.17475405874854177,"5":0.11184774276362242,"6":0.11824173176654584,"7":0.15534240417018022,"8":0.15252152585992748,"9":-0.15586175259926727,"10":-0.061908349451575174,"11":-0.18017472278720204,"12":-0.1035408250032112,"13":-0.01886639640138888,"14":-0.14977497322117347,"15":0.10327061305173636,"16":0.11284221664307856,"17":0.06907883865513523,"18":-0.0989241275255485,"19":-0.10419338140409176,"20":0.06953731010253562,"21":0.022112123112997633,"22":0.07360444287546689,"23":0.09119384685569085,"24":-0.005615302445571773,"25":0.03920172864482463,"26":0.1926352235753387,"27":-0.13050441530987214,"28":0.05580955086541918,"29":0.023890309618608985,"30":0.03778980404040068,"31":0.13252002651683653,"32":-0.09053970740253568,"33":0.1362872515095929,"34":0.022623168647984106,"35":0.18762159367374084,"36":0.11213627107396328,"37":0.02007316983023798,"38":-0.19805031099358492,"39":0.1577819436828333,"40":-0.09447336600884901,"41":-0.06466515230849687,"42":0.10563623395084258,"43":-0.17945617635662814,"44":0.040981413984624376,"45":-0.04163439223126811,"46":-0.039821178994488046,"47":0.045589865000012886,"48":-0.08092632361306666,"49":0.12004830707576555,"50":0.1669874216352051,"51":-0.030477767806884163,"52":-0.10935456877707744,"53":0.133358761053125,"54":-0.02504652996680257,"55":-0.16165758054325186,"56":0.17742633791555715,"57":-0.11112123843383374,"58":-0.1391538368592553,"59":0.11912286589463436}},"2":{"bias":-0.17197950256075806,"weights":{"0":0.08250920643328621,"1":0.11915006992342883,"2":-0.13118703869083015,"3":-0.14191057344045663,"4":-0.18182104337973637,"5":0.08918716437233837,"6":-0.00271902812321257,"7":0.16090200828237292,"8":0.07902005749835274,"9":-0.18889507849300147,"10":0.070470374344725,"11":0.1864859203270104,"12":-0.15793059761079847,"13":-0.04987291168227731,"14":0.0896082465427933,"15":-0.12318316959066633,"16":0.06956706382609401,"17":-0.045209493900705264,"18":-0.19117920601434435,"19":0.14934743750377596,"20":-0.028956255168244325,"21":0.037470610144816674,"22":-0.1283582682084893,"23":0.007172081027551668,"24":-0.1036638658766731,"25":-0.19796840267220436,"26":-0.1783784130647146,"27":0.1287388214294867,"28":0.04048433671366103,"29":0.10170677598016167,"30":-0.1054413034160573,"31":0.08218816032152851,"32":-0.12117415295482353,"33":-0.11612101447784126,"34":0.025161233080913534,"35":0.16961599396499447,"36":-0.10479872177101608,"37":0.1143334974279141,"38":0.16590517511023747,"39":0.03794798000706688,"40":-0.06320216522464552,"41":0.06879982104785991,"42":0.18935930543287674,"43":-0.10517186739341075,"44":-0.09995305873957482,"45":-0.15933899088723427,"46":-0.19043017117234787,"47":0.12297543032693913,"48":-0.050978951917308245,"49":0.07282674885924566,"50":-0.0026615571154920193,"51":0.028067316750226605,"52":0.07731729913688336,"53":0.10092197809993605,"54":0.12191958623179491,"55":-0.14771827529642975,"56":0.11214147501518451,"57":-0.07638251169889392,"58":0.16383203009402314,"59":-0.15925893396451804}},"3":{"bias":-0.028865706209543523,"weights":{"0":-0.06081257035598811,"1":0.0279297290964476,"2":-0.18927045938684728,"3":-0.02058768985265942,"4":0.11980320780121513,"5":0.04507027182531441,"6":-0.09763228334022517,"7":0.11202753844291588,"8":0.15182194901644128,"9":-0.12109038594925223,"10":0.05120854653354349,"11":-0.06699160795412631,"12":-0.18856623275475387,"13":0.00821816520234556,"14":-0.0002541279944067292,"15":0.17437541625409167,"16":-0.14407867319250584,"17":0.015332440161218886,"18":-0.11194639814402907,"19":0.0013950628241308802,"20":0.0923008340791435,"21":-0.19838369801714698,"22":0.19971184256427268,"23":-0.05816123670152586,"24":-0.08096937838811538,"25":-0.062229245931875864,"26":0.14988694617080214,"27":-0.14220667148300895,"28":-0.09549512155746727,"29":0.1406641706803494,"30":-0.17977283379712153,"31":-0.15359500414684865,"32":-0.1492404608994908,"33":-0.00036816334094019114,"34":0.11825281655799574,"35":0.09269946263179955,"36":-0.15204876332212763,"37":-0.09109334391811595,"38":0.1268732778996823,"39":0.15698194229096762,"40":-0.0644887433533525,"41":0.01032821058169788,"42":0.18159356808929097,"43":-0.12106530012494968,"44":0.003210803459105622,"45":0.19376033791084574,"46":-0.177951173487456,"47":-0.06654178355972426,"48":-0.09052604173020024,"49":-0.006528743012997311,"50":0.12220121531427598,"51":-0.18628174468135555,"52":0.09513790441595084,"53":0.11587472811582172,"54":0.19175476050137172,"55":0.15489832203496592,"56":0.12236979300790309,"57":-0.11058450588009738,"58":-0.16100610908694832,"59":0.17588760633409944}},"4":{"bias":-0.1150769285915457,"weights":{"0":0.13560951121660608,"1":-0.02762085306721464,"2":0.008114494518706453,"3":0.04357961074796089,"4":-0.10135036722187261,"5":0.11186616659959896,"6":0.06545139479855486,"7":-0.06364216056902533,"8":0.14734959143463977,"9":-0.15718742707805,"10":0.18471431320776782,"11":-0.09635770879233034,"12":-0.12382758284215531,"13":-0.18086516023593455,"14":-0.005319221033159727,"15":0.055433436936679396,"16":0.02920599197429416,"17":-0.05345710341952318,"18":-0.1088329362564467,"19":-0.07619501556256911,"20":0.14882243827152647,"21":-0.09800733433656957,"22":0.01687770445935408,"23":-0.18930756769475643,"24":0.1175848801283036,"25":-0.05682904992195947,"26":-0.014165520583642894,"27":0.12391151430214005,"28":0.0015861669925028438,"29":-0.0949080923048538,"30":-0.03799336925244468,"31":0.008490904323927014,"32":-0.12455519191980197,"33":-0.1578601180247685,"34":0.08327834168504221,"35":0.16356059881733687,"36":-0.11712466282862298,"37":0.15997684734193418,"38":-0.1238759935731578,"39":-0.10084840734391136,"40":-0.005679616114243307,"41":0.19319960638836867,"42":-0.01901163791324842,"43":0.1958090502204002,"44":-0.09764595880332409,"45":0.015118279759976101,"46":0.023861031474571213,"47":0.14557304779515753,"48":0.13170752020791465,"49":-0.10396353949011697,"50":-0.12088083875784787,"51":0.050770986686344326,"52":-0.07045265755833073,"53":0.12740434223320551,"54":-0.12271379741570214,"55":-0.10310036890450577,"56":-0.13419579904088627,"57":-0.13122036981384716,"58":-0.1301382248145436,"59":0.03895753985462113}},"5":{"bias":0.15608823504000288,"weights":{"0":-0.001090544126766611,"1":0.17151259010759057,"2":0.04213021615204959,"3":0.15945573487961015,"4":-0.09988962845208713,"5":0.03171261797506128,"6":-0.14614773884074292,"7":-0.009202291005255379,"8":-0.16861641718367582,"9":0.19515390884400557,"10":0.1685555246898985,"11":-0.0734845106182159,"12":0.12001773271540644,"13":0.1912326557692276,"14":0.16779673651954283,"15":0.17409639866832632,"16":-0.12924715185754482,"17":-0.05722238320675235,"18":-0.17746201768632616,"19":0.051170118964738526,"20":-0.10324800245817324,"21":0.11868847754714086,"22":0.05840435487438589,"23":-0.1491790771896044,"24":0.06722798745035242,"25":0.12521289669384458,"26":0.10266258454228733,"27":-0.037790877894750274,"28":-0.19034307913485543,"29":-0.10845125261427174,"30":-0.184060975071478,"31":-0.14726412695831986,"32":-0.05493858411404628,"33":0.19862738160373872,"34":0.11698187536626288,"35":0.025939859291962887,"36":-0.16640183338159922,"37":0.1812140211814154,"38":-0.1266523701618754,"39":0.14764491781372682,"40":-0.05295359429787769,"41":0.019002254666666846,"42":-0.10607503938974112,"43":0.04162105469253541,"44":-0.09600219277843712,"45":-0.017524488222707687,"46":-0.04987465985589028,"47":-0.1828003012363243,"48":0.03728923595282151,"49":-0.09624639484356956,"50":0.14964059913830008,"51":0.1312087668158456,"52":0.13021844579939218,"53":0.06297344285119408,"54":0.009106685919279397,"55":0.1069789906707951,"56":0.018443759640136146,"57":0.14811946760444644,"58":-0.0903140108881118,"59":0.08202962151284975}},"6":{"bias":0.10515743977199618,"weights":{"0":-0.005810722459490451,"1":0.08460424916936705,"2":0.05426239839225985,"3":-0.11102593842462709,"4":0.05882300138657774,"5":0.03239534005822945,"6":0.08043251926431493,"7":0.15892504542056338,"8":0.031100964291113208,"9":-0.0242009049881499,"10":-0.15573409364046847,"11":-0.008305460853331554,"12":0.018788039507632835,"13":-0.17064734339138699,"14":-0.15160746454656138,"15":-0.07476979266449715,"16":-0.14569734679500368,"17":0.12636597836270855,"18":-0.19547638789232755,"19":-0.003500764540017425,"20":-0.14541809463310199,"21":-0.0734767243897251,"22":-0.012262018640860675,"23":-0.02268866829818772,"24":-0.07946251555711008,"25":0.07965088654084342,"26":-0.17690002393392304,"27":0.07490588757242782,"28":-0.19040583355336974,"29":-0.09319973792009906,"30":-0.1641345368019737,"31":-0.12224178227620901,"32":0.1798279825610517,"33":0.0649452019611618,"34":-0.06981757127845532,"35":-0.0071287458335516215,"36":-0.10658794035923996,"37":-0.06025030961166585,"38":0.08864311779103891,"39":-0.02840725050789176,"40":0.11479820733120537,"41":0.06059489976859243,"42":0.03163431284361099,"43":-0.08175651881793496,"44":0.02949608826828023,"45":0.05117187185224789,"46":0.020309837880797474,"47":0.17536757905141484,"48":0.18812269702311007,"49":0.16739481900728115,"50":-0.06852916495243173,"51":0.19309414986242968,"52":0.1401594061519686,"53":-0.16200461114514164,"54":0.18623031628923709,"55":-0.07822912657792386,"56":0.027343288930109063,"57":-0.15002321517261108,"58":-0.1989613974974501,"59":0.1771768808910277}},"7":{"bias":-0.1524937390642645,"weights":{"0":-0.1539139106577933,"1":-0.12049297310952688,"2":0.03198159792949559,"3":0.06146756474136849,"4":-0.02048007325871265,"5":0.037375166768346436,"6":-0.18855737337162376,"7":-0.19998102879251703,"8":0.11557640836360743,"9":0.0690356687423185,"10":-0.16972894621894463,"11":-0.07755829204358297,"12":-0.11473528069485316,"13":0.17473256309733684,"14":-0.037908342970290373,"15":-0.08478529915365209,"16":-0.16872372341984873,"17":0.062369683097894826,"18":0.09612368894336398,"19":0.13662625033571077,"20":0.194092990388685,"21":-0.047360766885405706,"22":-0.07560787959715905,