{"layers":[{"0":{},"1":{},"2":{},"3":{},"4":{},"5":{}},{"0":{"bias":-0.9953361306838671,"weights":{"0":-0.9859697387214438,"1":0.10006459375741299,"2":-1.6626567535624779,"3":-1.2234014461382436,"4":-1.8351934060759918,"5":-0.5663599121680559}},"1":{"bias":1.699014883535608,"weights":{"0":-9.538660833351443,"1":-28.6972134214198,"2":0.1490236341231102,"3":0.0690841712069827,"4":3.7551910138311766,"5":-22.277119869166402}},"2":{"bias":2.134168089851133,"weights":{"0":0.4194715302895485,"1":-11.061266544232103,"2":-11.406072866637688,"3":9.442358251610045,"4":-15.517270296390853,"5":11.279949097116463}},"3":{"bias":0.3449656886307831,"weights":{"0":-21.46456089090636,"1":-33.904013466772156,"2":-6.185400435686581,"3":9.057991028313921,"4":4.653994391455905,"5":0.20910379268165052}},"4":{"bias":-4.774041311480732,"weights":{"0":2.5456201734413932,"1":5.316805880604122,"2":-5.011294348882768,"3":-9.17838253823436,"4":8.528558277517929,"5":-9.170477714822182}},"5":{"bias":-12.966763325589241,"weights":{"0":2.4655670239282372,"1":23.012810630408875,"2":19.865069131728436,"3":0.3341562641513054,"4":-32.51984001560737,"5":-0.49069932178030373}},"6":{"bias":-1.5084766446617393,"weights":{"0":-2.5104890649612663,"1":0.9493575411421876,"2":-5.249323642155286,"3":-4.3651616294249065,"4":0.0023138537436600383,"5":1.8887429068649733}},"7":{"bias":-18.215478992342423,"weights":{"0":34.44502871257096,"1":-6.230742927666153,"2":-8.147738544365607,"3":1.0930629857428797,"4":-17.559747189160447,"5":11.32276275429782}},"8":{"bias":-4.358339160848206,"weights":{"0":3.3384006996196565,"1":1.6636676464183688,"2":-4.593140453879873,"3":-3.0531256792407193,"4":8.211569031620627,"5":-13.964528136551811}},"9":{"bias":-0.8656433866451025,"weights":{"0":-3.536296431143705,"1":1.40819684788301,"2":1.2206211914839742,"3":0.16164497182404464,"4":-1.7117429397971482,"5":-0.5592694621782356}},"10":{"bias":0.10702672163603145,"weights":{"0":6.576577354108437,"1":-3.1064477747096952,"2":-11.84232857543428,"3":-1.445597560136881,"4":-15.023633961746352,"5":15.321614830328414}},"11":{"bias":2.9380998003267456,"weights":{"0":-0.07799811712015957,"1":-0.8806794594595535,"2":-4.6442112110857385,"3":-46.410561663479,"4":-1.1532764277744125,"5":51.1466552550353}},"12":{"bias":-2.29286361938283,"weights":{"0":4.8967021433073645,"1":-1.7251059655271488,"2":-0.7977902748875919,"3":-1.3330708393200954,"4":-3.483250699379296,"5":-1.51509736999947}},"13":{"bias":-1.213433609716902,"weights":{"0":-2.004495847425893,"1":0.4637089379317453,"2":0.8766449603019287,"3":0.3442953955603647,"4":-1.3806571545011295,"5":-1.101252053026069}},"14":{"bias":-4.9045272487463984,"weights":{"0":7.573946489262695,"1":0.10669492282075965,"2":1.6679007115131568,"3":-3.6589567150604494,"4":-6.226934711275391,"5":-1.518878724633158}},"15":{"bias":-2.079350902332589,"weights":{"0":2.2627760358461373,"1":-2.016961154479851,"2":-2.9628133860275003,"3":-2.080550242127549,"4":-1.3153091896991116,"5":1.6175272405520433}},"16":{"bias":-1.6056997547862502,"weights":{"0":-13.879046372700973,"1":15.928571833459978,"2":0.8753622535985978,"3":-3.581332373487473,"4":4.209539465395646,"5":-14.956438747708697}},"17":{"bias":-1.4561025269841341,"weights":{"0":-13.405917795745562,"1":5.88229293822279,"2":4.931523844149505,"3":-0.3210035416211747,"4":-5.912752046954203,"5":-6.743554739346633}},"18":{"bias":-3.9430391977954233,"weights":{"0":2.56979994497084,"1":1.624405803337659,"2":-8.940324260753679,"3":-5.654544618495671,"4":0.9338885525686932,"5":4.680880711843339}},"19":{"bias":4.874663447524615,"weights":{"0":-9.231814190068281,"1":-11.37388080883856,"2":6.828707568925118,"3":0.03897174953591944,"4":-4.88642555251766,"5":-1.527960514280864}},"20":{"bias":-1.4144225221960354,"weights":{"0":2.4368327764922424,"1":-3.1887665372829495,"2":-2.7458189301142544,"3":-1.3614962993727733,"4":-3.3245113862175786,"5":0.7925270216958971}},"21":{"bias":-3.5781769403296453,"weights":{"0":5.937268486111354,"1":-4.146425897703874,"2":-4.707394849622185,"3":-1.2940241038851752,"4":-0.43626526652497355,"5":1.301786153698701}},"22":{"bias":-1.5275165459032942,"weights":{"0":2.1538427129392543,"1":-2.573301181468169,"2":-1.8131007489064883,"3":-0.8575064978058685,"4":-2.567717023386436,"5":-0.10914363446898796}},"23":{"bias":-6.018916494097949,"weights":{"0":6.947281500588076,"1":-8.644323648256659,"2":3.78927967053039,"3":-12.174217180275779,"4":-7.973610862756477,"5":21.946493248494367}},"24":{"bias":-1.9345999070232303,"weights":{"0":2.6889606625679034,"1":-2.416400154390296,"2":-2.3955811635088082,"3":-1.4241094084363461,"4":-3.1133053304576834,"5":0.356084625824788}},"25":{"bias":-1.437816361735892,"weights":{"0":18.397620162583276,"1":1.9794683034917828,"2":-6.124115028716653,"3":-2.3855363026722056,"4":-16.577865892175666,"5":-11.32326161201074}},"26":{"bias":-10.326067231643622,"weights":{"0":2.804182364373544,"1":-6.698300316475355,"2":31.62488122361076,"3":4.783950879896636,"4":-1.4766379682455997,"5":-6.809249062797552}},"27":{"bias":-3.0846778631673324,"weights":{"0":7.0613642500463305,"1":-1.3408642815233167,"2":-0.4445940796519171,"3":-1.698488796440439,"4":-5.521305947840372,"5":-2.736653768615023}},"28":{"bias":-0.570172357834697,"weights":{"0":-4.04261918252065,"1":1.7720693732672248,"2":-0.9724132813806674,"3":-1.6452954214587674,"4":-1.6523491763620684,"5":-0.03266690001109096}},"29":{"bias":0.96811462187946,"weights":{"0":-3.9383590796241332,"1":0.6787802018111868,"2":-0.4749776011556569,"3":-1.1498379978751474,"4":-2.959510221586725,"5":-1.1977671165475081}},"30":{"bias":-4.231516046884206,"weights":{"0":6.741444860347574,"1":-4.2786616767684205,"2":-6.10391984482121,"3":-0.9377492262062244,"4":0.09178166149062009,"5":1.1190671651025608}},"31":{"bias":-4.222436660028708,"weights":{"0":2.5925593456951845,"1":20.879374229391427,"2":4.986176251068927,"3":-2.230000212221743,"4":9.34351294513073,"5":-35.662581944487016}},"32":{"bias":-1.4777189478782171,"weights":{"0":-0.5041696330248953,"1":-1.2434108185294626,"2":-1.6016045379057255,"3":0.22002592277133406,"4":0.9766831001184514,"5":-3.353483261581375}},"33":{"bias":12.407919822583455,"weights":{"0":-18.91154213699128,"1":-0.8813999693258951,"2":3.0587749836120532,"3":-4.718500104884177,"4":-12.480376452176298,"5":-14.064364128389675}},"34":{"bias":11.045373966346846,"weights":{"0":-12.828715282570458,"1":-19.846863357204057,"2":-0.2978206828267485,"3":-10.20031482894944,"4":1.383172519847772,"5":-12.610147600323176}},"35":{"bias":2.964660283928379,"weights":{"0":-13.072996261862185,"1":-21.322863981112288,"2":-1.6643253925088692,"3":-26.867421046628206,"4":0.698922831314648,"5":1.4143516943444463}},"36":{"bias":-0.8190341789540205,"weights":{"0":-4.1040427225845155,"1":1.7717000591258936,"2":2.054529534980484,"3":0.487238450340866,"4":-1.9998913852342441,"5":-0.8037635120008566}},"37":{"bias":-1.6423319756835997,"weights":{"0":0.21224791336822724,"1":-0.8798092888173588,"2":-1.4336210111570211,"3":-1.0549140581944259,"4":-1.6363312089246351,"5":-0.558397797369744}},"38":{"bias":2.153829825859092,"weights":{"0":-4.956154289843454,"1":2.307396067135235,"2":-4.361085922026653,"3":6.100221980659645,"4":0.39012487748711483,"5":-9.889009356361157}},"39":{"bias":-1.71147085830206,"weights":{"0":4.150265369410321,"1":-3.1378220612829475,"2":-1.3497136130925935,"3":-1.7242718895812783,"4":-3.629631936998545,"5":-1.091896833290074}},"40":{"bias":-1.2239182614041224,"weights":{"0":-21.22610221245885,"1":5.286099562547856,"2":1.9248546053710138,"3":-3.593816940968319,"4":-5.688990539421138,"5":1.9805418833075072}},"41":{"bias":-1.4134269778077677,"weights":{"0":-4.250928087283614,"1":3.1342004661789034,"2":4.366957653533642,"3":2.821394921879214,"4":-5.12008858961042,"5":-7.237173195823655}},"42":{"bias":-8.079100490190825,"weights":{"0":9.817118308598713,"1":4.741726146776485,"2":10.745609995719233,"3":-15.313199809106129,"4":5.522869681970824,"5":-11.054987428137263}},"43":{"bias":1.6780631722523334,"weights":{"0":-36.90451440439787,"1":-22.21272711972223,"2":3.951167457411146,"3":-7.581326135054082,"4":0.5844108384242018,"5":3.6081825482777035}},"44":{"bias":5.5754491748548896,"weights":{"0":-8.089000642501636,"1":-5.017828461453506,"2":-7.05968559620974,"3":6.262554467806864,"4":1.4721321424326619,"5":-18.256263562053007}},"45":{"bias":3.5369436895168334,"weights":{"0":3.5536119514568045,"1":-23.893459892071974,"2":6.98543511315201,"3":-6.675942680502429,"4":-27.571907903446608,"5":23.55848616281188}},"46":{"bias":-1.5445803398385758,"weights":{"0":0.13768505493346256,"1":-0.8121487980474511,"2":-1.3093771195895452,"3":-1.4854799617687082,"4":-1.946638331797192,"5":-0.6990779157453256}},"47":{"bias":-5.6439691550086115,"weights":{"0":-4.279809296483213,"1":14.082581699194659,"2":17.765849462530973,"3":1.2720595224281948,"4":-18.510040904782485,"5":5.526376587078339}},"48":{"bias":0.1355497849419772,"weights":{"0":-4.989998577081964,"1":3.9686359995806684,"2":-5.728193137493976,"3":-3.3597257906062903,"4":1.6112200128997674,"5":-0.01672017784960405}},"49":{"bias":-1.1032276558995222,"weights":{"0":-2.1481779278064246,"1":0.6381098998562863,"2":1.4401819763342025,"3":0.20817618065523436,"4":-1.5479359695682666,"5":-1.2847996509633908}}},{"0":{"bias":-1.4913102458979786,"weights":{"0":0.045188143012251894,"1":1.4704284530490828,"2":-0.051948564839127485,"3":0.03873186661463918,"4":-0.3694241259335097,"5":0.22995533442325283,"6":-0.21676401172898907,"7":-0.8234818077101409,"8":0.14194449728981998,"9":-0.028803611506700504,"10":-0.6580074256476491,"11":-2.0598218055988853,"12":-0.40825811457350897,"13":-0.2346569398584011,"14":-0.403803900146549,"15":-0.17951313985739267,"16":-0.45900887118893335,"17":0.01854770592374599,"18":-0.7453546892677456,"19":0.23615952284078062,"20":0.06526715087988551,"21":-0.05842875770601862,"22":-0.19913805814893726,"23":-0.7520551975601513,"24":-0.34016513390308617,"25":-1.1880687414315956,"26":-1.3246694618489556,"27":-0.360904098606603,"28":-0.14328824793445868,"29":-0.0995574217695272,"30":-0.2790439516552176,"31":-1.7438412678096322,"32":0.13399642712249468,"33":1.172467441625927,"34":0.9502549886898773,"35":0.026886124357387953,"36":-0.028723501743555032,"37":0.009439111384788918,"38":-0.48164214930802024,"39":-0.04127418466824458,"40":0.19705393327711346,"41":-0.10887202769003348,"42":1.563670540438698,"43":1.0865968507273225,"44":-0.54471462895647,"45":-0.06016479715455581,"46":-0.2840185766783287,"47":-1.077845049763215,"48":-0.38463479287143737,"49":0.11504167465210303}},"1":{"bias":1.3501316630022888,"weights":{"0":1.272064770332714,"1":5.820763470003004,"2":1.0003548142786107,"3":-8.423552796804536,"4":-1.9105159096544861,"5":1.2407790259251263,"6":1.2480142568841686,"7":0.2844902675671048,"8":-2.661540300116417,"9":0.7439294074479759,"10":0.3647103701049505,"11":-14.841438286564241,"12":2.0076989176088853,"13":1.0357296140729941,"14":2.9350672181276862,"15":1.9106242352430807,"16":1.109054133429194,"17":2.4208818696695213,"18":1.3554504375964187,"19":1.5926840695687734,"20":2.4857676059642615,"21":2.9857075103032575,"22":1.8522138656190543,"23":-2.7040580249189463,"24":2.321209105239343,"25":8.893197102313636,"26":-8.393664887298158,"27":3.4622175960219073,"28":0.9976480050824338,"29":2.046561261499524,"30":3.068932744841818,"31":-5.7837246377924,"32":0.7880350068886826,"33":3.6859644509143488,"34":9.113834407601972,"35":10.73263674532585,"36":0.9553812707957595,"37":1.082569460390977,"38":4.936577949017755,"39":2.146732533880981,"40":1.415011894672234,"41":2.1471878652919476,"42":3.9091405768256164,"43":12.515211082144756,"44":-1.2308341123102469,"45":-0.8414481369983243,"46":1.4025713647021314,"47":-12.182591178302141,"48":0.798170658748255,"49":0.9876997165925357}},"2":{"bias":-1.4882445304981593,"weights":{"0":-0.17907821268418672,"1":1.1469646821220207,"2":-0.051869210333067274,"3":0.29775914440093504,"4":-0.3994716527575311,"5":-0.12571143105047855,"6":-0.4070283089758658,"7":-0.4780226561418058,"8":-0.07076885476477268,"9":-0.05480784831287847,"10":-0.4569843821818412,"11":-1.3768921736813071,"12":-0.37290160912489145,"13":-0.06545392895230488,"14":-0.4317195596758772,"15":-0.20281860895703333,"16":-0.4901137320895765,"17":0.15131061533991513,"18":-0.8117713173857981,"19":0.15040160607017702,"20":0.049424924679393946,"21":-0.4121080097137318,"22":-0.20553273923039742,"23":-0.7330052590840973,"24":-0.3843015620495295,"25":-1.1494112767914106,"26":-1.752079601490692,"27":-0.45592951272951115,"28":0.12378096223279132,"29":0.37921814043022267,"30":-0.39071219476143404,"31":-2.1363287451528206,"32":-0.11987685150055565,"33":0.6418457804921275,"34":1.0345872019100941,"35":0.239382321117605,"36":-0.03471699715698373,"37":-0.14871395403803067,"38":-0.416590056882246,"39":0.0372322181392903,"40":0.18669980401367514,"41":-0.04429822630055168,"42":0.17409912170911063,"43":0.39954711641691915,"44":-0.8204337777992791,"45":0.23272731754792209,"46":-0.01101261671259929,"47":-0.7137092181762484,"48":-0.3862231410478249,"49":-0.18730290781548362}},"3":{"bias":-1.4943767549886187,"weights":{"0":-0.3485319900276374,"1":0.6557856261235355,"2":-0.2686148289254641,"3":-0.24934910897898158,"4":-0.4761935800062743,"5":0.32776950691317314,"6":-0.28393707047294453,"7":-0.6469470916122402,"8":-0.3126940513159603,"9":0.016244214608860365,"10":-0.5635922647281427,"11":-1.7641255027736795,"12":-0.08088338569363515,"13":-0.11272634944059899,"14":-0.5222585874713951,"15":-0.4165114786855631,"16":-0.3048978462594874,"17":-0.12218039780247053,"18":-0.6350160216492762,"19":-0.13844838047516966,"20":-0.3539305130198508,"21":-0.2686535341567759,"22":-0.19417922288875797,"23":-1.004381031552188,"24":-0.15139987985941375,"25":-0.9760833950685928,"26":-1.845166378027307,"27":-0.22332603209747307,"28":-0.1569194381419254,"29":0.035252283049356806,"30":-0.3621120986816941,"31":-1.585767426728471,"32":-0.02320931999827458,"33":0.6993449106317174,"34":0.23968055121310056,"35":-0.40330450600040196,"36":0.036679072175312535,"37":-0.19018999171336917,"38":-0.22539089177403718,"39":-0.4048601744035536,"40":0.4270367295234186,"41":-0.21562736696240717,"42":0.34574384581474793,"43":0.49287956582709486,"44":-0.7034359643289986,"45":-0.45546595501814235,"46":-0.12137060754097953,"47":-0.8345739650751327,"48":-0.23471355268653707,"49":0.13484302154457511}},"4":{"bias":-0.817252952930257,"weights":{"0":-0.25603672995883886,"1":0.46437257836494517,"2":-0.9023797885866889,"3":-1.335712772741607,"4":-0.7835516726646223,"5":-0.06959484977182358,"6":-0.34245947107398095,"7":-0.6734666426407385,"8":-0.2782080538720779,"9":-0.20930230805369224,"10":-1.2508284363001252,"11":-2.135871857939764,"12":-0.024944407306125377,"13":-0.15733150309308072,"14":-0.554225410182412,"15":-0.27497373161709837,"16":-0.519853431618584,"17":-0.27028378528571756,"18":-0.46992667162761254,"19":-0.3381685873792155,"20":-0.38106457813372197,"21":-0.48339883659360217,"22":-0.24979580713151808,"23":-0.8869738592594748,"24":-0.22291034452304825,"25":-1.1931801558583615,"26":-2.2765818320828535,"27":-0.5119115330592262,"28":-0.2008403193288875,"29":0.009429152397059725,"30":-0.3123472018777898,"31":-2.0380955730127366,"32":-0.04244757394537954,"33":0.27834581586412793,"34":0.2534885567837313,"35":-0.7697779595184755,"36":-0.07641059722822838,"37":-0.040304746336279555,"38":-0.27234577803067533,"39":-0.07611247531841567,"40":0.3032840170056771,"41":0.04863963417244844,"42":0.5782524412400901,"43":0.5043843848067057,"44":-0.5373464227767389,"45":-1.0399175959902773,"46":-0.056631916927602166,"47":-0.8091949404637832,"48":-0.2935229511001912,"49":-0.11811271886578718}},"5":{"bias":-1.7518498222046877,"weights":{"0":0.05338833710144422,"1":-0.9008632660292165,"2":0.9950427271592617,"3":-0.25919357612713506,"4":-0.6565209182184298,"5":0.37034411263163447,"6":-0.3278561347760191,"7":-1.4951792085104159,"8":-0.4053727359330156,"9":-0.038086011502400735,"10":0.022621953681087815,"11":-2.7311322294212848,"12":-0.6329119102247805,"13":-0.2507821334929629,"14":-0.7345973313726346,"15":-0.21107402002127096,"16":0.10034383081648701,"17":-0.20968622902328088,"18":-0.8450068894747469,"19":0.8475282637432998,"20":0.020167746632009615,"21":-0.18979276880192675,"22":-0.28445799983226894,"23":0.859283902436451,"24":-0.027475571193153105,"25":-1.6887305826755146,"26":-1.3207224820498908,"27":-0.5946213756884681,"28":-0.14855620838317746,"29":0.14003892161439951,"30":-0.21021775891960498,"31":-2.1259128907379345,"32":-0.3517430951318989,"33":1.7025110640409908,"34":1.727987447377187,"35":0.4955587613692309,"36":-0.18441460616016517,"37":-0.19111608115012269,"38":-1.0694286975513048,"39":-0.4998182831248294,"40":0.010888225633458613,"41":-0.6730030533295863,"42":1.260299519697494,"43":0.5545948283562134,"44":-2.0155077223427296,"45":1.0200303340202705,"46":-0.33134269201823957,"47":-2.2184673289829364,"48":-0.20503862612378565,"49":-0.2800054651388393}},"6":{"bias":-1.5919514226397804,"weights":{"0":-0.2694011547418866,"1":0.9968702450239532,"2":-0.10426376080141898,"3":0.06442634723944146,"4":-0.5778725047823504,"5":0.05394897392645164,"6":-0.37385620994063257,"7":-0.3564062262401524,"8":-0.2464258555106996,"9":-0.2501640423810931,"10":-0.5721495014677583,"11":-1.9491462780732727,"12":-0.3248628723582284,"13":-0.14752504185028115,"14":-0.2142642350542299,"15":-0.2803235561225786,"16":-0.2416291780983742,"17":0.1838903677440079,"18":-0.5277685567964391,"19":-0.23848500056336333,"20":-0.21789937328810297,"21":-0.07282897633107852,"22":0.01822786329280191,"23":-0.9551680296920858,"24":-0.37016541495012284,"25":-1.2185203925911938,"26":-1.9597316206102369,"27":-0.5201822885708892,"28":-0.15908437055696506,"29":-0.0011869278923130693,"30":-0.32133935853988155,"31":-2.1730603386043237,"32":-0.09197262214877823,"33":0.8257939077195422,"34":0.4614677351180063,"35":-0.4315019701506746,"36":-0.09963787641387,"37":-0.10131883273398129,"38":-0.2940080440048869,"39":-0.25957822124529695,"40":0.32030233788084655,"41":0.014711005653363226,"42":0.5178950713125782,"43":0.8484202786411159,"44":-0.3535889203542678,"45":-0.3010732424916422,"46":-0.003384602276990057,"47":-0.7490468769464805,"48":-0.39131887094542755,"49":0.08075405195648352}},"7":{"bias":-0.647667701691032,"weights":{"0":-0.2669674206992569,"1":0.36105921980647226,"2":0.006040225340678349,"3":-0.8759483486217816,"4":-0.9146758378809352,"5":0.3464187434421338,"6":-0.10215170631108919,"7":-1.2124724116367775,"8":-0.2667383448171431,"9":-0.07937992603003807,"10":-0.6840997954625961,"11":-3.1005663377459927,"12":-0.3028506789079772,"13":0.048046634811633314,"14":-0.5426361272070901,"15":-0.3970132814230781,"16":-0.20415927522687768,"17":-0.05272978183854087,"18":-0.19142364853250737,"19":-0.04161832001139372,"20":-0.4113970881340473,"21":-0.40072706412498715,"22":-0.019941387491256176,"23":-0.8677141433472012,"24":-0.3139406781019828,"25":-1.4162625837468874,"26":-2.45085615440157,"27":-0.37034525984928623,"28":-0.0953309868910903,"29":0.08184531873724096,"30":-0.14396927205179402,"31":-2.171546482280759,"32":-0.022661002334165424,"33":0.7443952051690366,"34":-0.4550051733468869,"35":-0.21132119348284603,"36":0.04699403951287021,"37":-0.09204883887406427,"38":-0.18306503549560574,"39":-0.3104954560628712,"40":0.5363646776733554,"41":-0.016846416823426674,"42":0.9305678243940234,"43":0.6130886875251805,"44":-0.4794276982581473,"45":-0.3564075809429768,"46":-0.28745092320275073,"47":-1.1995128270729203,"48":-0.32494606210658533,"49":-0.18886497030934543}},"8":{"bias":-6.259116643670377,"weights":{"0":-0.40670859023475986,"1":0.47311187050123066,"2":-5.248936415248165,"3":0.19191016194387225,"4":-0.896394871208651,"5":3.72612383449512,"6":-2.07407674110066,"7":13.721133233150884,"8":-0.19679898451418404,"9":-0.3873700859718073,"10":-3.466388390009899,"11":1.4337998625500064,"12":-1.1912584440701515,"13":-0.1330655361334105,"14":-1.5933966397240455,"15":-2.0777499158176096,"16":-0.7309755291099975,"17":-0.6104513185562209,"18":-3.12396246909307,"19":0.47805764010380736,"20":-1.667523192260948,"21":-2.8035448898474455,"22":-1.0862355108737807,"23":10.648869244125017,"24":-1.4299898572381287,"25":-2.5583881769113077,"26":-10.942674843776047,"27":-1.6550281312120523,"28":-0.6302378826309462,"29":-0.3389989040262246,"30":-2.8390626075466816,"31":-1.259159617237601,"32":-0.09032325397187722,"33":-0.32051862727480757,"34":-0.4225740971723981,"35":-2.1674114113106087,"36":-0.5182003712301737,"37":-0.6575865107762279,"38":1.1767658911730077,"39":-1.4013321628749573,"40":-0.11679216629614601,"41":0.03991030847978631,"42":-3.283969297326677,"43":-1.464211467308596,"44":-1.7034897055259317,"45":-0.733882355601305,"46":-0.5354954305799792,"47":4.282881548240598,"48":-1.7179546968070074,"49":-0.16920647694700677}},"9":{"bias":-1.9788954961511744,"weights":{"0":-0.27893868730996646,"1":3.1826261415748056,"2":-1.1624195254504783,"3":2.737545080689447,"4":0.38452334886891887,"5":-0.06954521182889498,"6":-0.5790649937012091,"7":-0.5291472130522903,"8":0.6581394642905586,"9":-0.4346871858037381,"10":-1.750588622200761,"11":-3.2363487631987784,"12":-0.48610885574904983,"13":0.05836865765080454,"14":-0.7258130213122219,"15":-0.6324410807370017,"16":-0.053702575007568844,"17":-0.1332389290590351,"18":-1.0953329771049702,"19":-0.04564233905804932,"20":-0.43240674673937723,"21":-0.4749012130997842,"22":-0.28546315254514515,"23":-1.143180238380003,"24":-0.6424948487439414,"25":-1.5226553844246418,"26":-2.0666904825604173,"27":-0.5252187836538096,"28":-0.44683127327552735,"29":-0.332154830184826,"30":-0.44286131839544807,"31":0.4550262542836751,"32":0.12144776512277419,"33":-0.4875676775531492,"34":1.9892454307857075,"35":-0.7147309286383093,"36":-0.22119302950594708,"37":-0.5309055078589332,"38":0.7581916749405444,"39":-0.35059021519262573,"40":-0.5917131726280572,"41":0.03799927054027781,"42":0.40817463650169494,"43":-1.4002579747667976,"44":0.5131170750765369,"45":-1.199145002974392,"46":-0.6098985630231487,"47":-1.5458831166058418,"48":-0.5757561957855525,"49":-0.014067903341653084}},"10":{"bias":0.6040219396807218,"weights":{"0":-0.11474964276712776,"1":0.765532122308449,"2":-5.555347338258202,"3":1.4072396404457657,"4":3.0090062941255784,"5":3.907789595964172,"6":-0.6809827925106868,"7":4.645733956359598,"8":1.859474905466987,"9":-0.7075253086654871,"10":-8.594062273597213,"11":-12.841889993012437,"12":0.4726782672628615,"13":-0.5774095972919095,"14":2.6379504877322737,"15":-0.6633924765096547,"16":-3.5548589383643123,"17":-4.718431563159402,"18":-0.4872472521947146,"19":-0.618864532127561,"20":-0.8705324259209041,"21":-1.103397038722498,"22":-0.7098587133632503,"23":-3.1739755354082155,"24":-0.38526112035811716,"25":4.407840827899815,"26":9.804642255880822,"27":1.0547226694603031,"28":-0.3901383722583161,"29":-0.8930184278987828,"30":-1.1688539933855056,"31":-4.9848500589543745,"32":-0.25437437552318704,"33":0.8532313865255815,"34":0.6302686045878716,"35":-2.9435352025727366,"36":-1.1918103658095722,"37":-0.27432167795993273,"38":-4.7820196645142286,"39":0.052363887326064784,"40":-0.2167527969401046,"41":-5.232252184238159,"42":8.795285312676791,"43":1.6163569688368573,"44":-5.306891757821767,"45":4.6892225802102425,"46":0.06430124422557709,"47":8.076635459636833,"48":-0.7264064542716718,"49":-0.7121717978716992}},"11":{"bias":-2.8548025195827234,"weights":{"0":-0.46347426642247963,"1":-0.2726010517939948,"2":0.8893335376738902,"3":-1.314518907238087,"4":-1.6631035880059553,"5":3.1679130672189824,"6":-0.4176585052837388,"7":5.585638592968318,"8":0.24385587622829683,"9":-0.6072756115222159,"10":-1.2535915070725117,"11":-6.209804651476805,"12":2.9026264577196668,"13":-0.7812834552541491,"14":4.664056143102472,"15":1.4808792099007808,"16":-0.2543964575418392,"17":-0.5770614871764932,"18":2.3756358528883097,"19":-5.035364219310964,"20":1.5934373518253748,"21":3.1358936593045112,"22":1.2192534654807816,"23":3.002784061694514,"24":1.7010668394288688,"25":6.894873262156141,"26":-5.346757770144817,"27":3.825725263086571,"28":-0.812029270970835,"29":-1.9832564018496919,"30":3.1830410097456676,"31":8.390650981489003,"32":-0.4033675068366537,"33":-6.3854567123857535,"34":-2.721880808193585,"35":-1.6147681499036766,"36":-0.9504252869905951,"37":0.07894896214033802,"38":-4.662406011337019,"39":2.4625778110525482,"40":1.096046597354501,"41":-1.972550666367494,"42":-1.9671479675973043,"43":-0.06990490188912757,"44":-8.85525470768745,"45":-2.308011053994721,"46":-0.06006113178219796,"47":-2.565061916020575,"48":-0.6117537352697091,"49":-0.6013427710410049}},"12":{"bias":-1.3646765290509861,"weights":{"0":-0.3008310360014627,"1":0.9617682791733672,"2":-0.67350000379713,"3":-0.9100628280563586,"4":-0.7772030374486907,"5":0.011316392404413456,"6":-0.08904528762232072,"7":-0.6018910093243425,"8":-0.14088487549821152,"9":0.10189487513511745,"10":-0.829813693746994,"11":-2.1670828468829457,"12":-0.3549487120503496,"13":-0.08228760110022446,"14":-0.5294738073572021,"15":-0.15405977161911108,"16":-0.3716447761454002,"17":0.16022633232407513,"18":-0.6414532579228941,"19":-0.11978414347478779,"20":-0.1638000511423136,"21":-0.17281250050807767,"22":-0.14384129198591836,"23":-1.0390137236056742,"24":-0.2730316195605931,"25":-1.0676579441189287,"26":-1.858039197235744,"27":-0.1660412712661223,"28":0.028488129387990654,"29":-0.15927663275705775,"30":-0.13443143972727545,"31":-2.3185129841655843,"32":0.13285026306459138,"33":0.40459189359103986,"34":0.15977960368687918,"35":-0.5752281467911671,"36":-0.17593204919051622,"37":-0.23362588679161667,"38":-0.12237184518628852,"39":-0.3623242120973647,"40":0.08678206715734595,"41":0.05308497663249326,"42":0.899861619865746,"43":0.8146423641939808,"44":-0.4198104247010779,"45":-0.5473138178093913,"46":-0.22559240820201018,"47":-1.036107842742104,"48":-0.34446893533039297,"49":0.04202299398234425}},"13":{"bias":0.37767468006614807,"weights":{"0":-0.3353060915576943,"1":0.19008306902058034,"2":0.10866789711238146,"3":-1.754007012047324,"4":-1.0152742242986041,"5":0.728031338434309,"6":-0.3695292963935253,"7":-1.1150817759596332,"8":-0.9683028115550302,"9":0.10400717595562955,"10":-0.5502668746751767,"11":-3.948262393474726,"12":-0.4278055162614487,"13":0.1340595614635031,"14":-0.29664665516377764,"15":-0.2434114876377585,"16":-0.06332849808861146,"17":0.5666846154176467,"18":-0.31222910004323146,"19":-0.4025760900009263,"20":-0.36348212797484736,"21":-0.20636206730685464,"22":-0.20512070738614988,"23":-0.7779153494761164,"24":-0.32754727557140306,"25":-1.7701754403454628,"26":-3.5406384143186957,"27":-0.5042441349585669,"28":-0.2967549108477381,"29":-0.12917990627766532,"30":0.08252389756036255,"31":-1.3015273198360238,"32":-0.24919762966958878,"33":1.1524514705389077,"34":-0.9631497203128575,"35":-0.6348463491075588,"36":-0.2641459264899746,"37":-0.035358205170188256,"38":0.4407885069983746,"39":-0.4952009430322095,"40":1.0057625872316138,"41":0.026301875445894702,"42":0.8711548041867704,"43":0.6336417198225308,"44":-1.4969151625027812,"45":-0.7809394834046138,"46":-0.2146552350818018,"47":-1.9254195859042011,"48":-0.0875469768434703,"49":0.17018695218778446}},"14":{"bias":-2.551329515226692,"weights":{"0":-0.2152204942201101,"1":1.4296249346767904,"2":0.09023813356420508,"3":1.556268878517482,"4":-0.7407585786957722,"5":-0.027532877929657498,"6":-0.3300363359840517,"7":-0.3671658915487433,"8":-0.7415128814454253,"9":0.08671699327220168,"10":-0.6787473154517945,"11":-1.7587329219256718,"12":-0.10574051385143558,"13":0.1120311660897972,"14":-0.5004934996005527,"15":-0.36141988548222975,"16":-0.8866064399135353,"17":0.2622461063181161,"18":-0.937940808655677,"19":0.05930100282988408,"20":-0.09215834510540112,"21":-0.1633047078247395,"22":-0.22876984249426413,"23":-1.17949679604444,"24":-0.41948290472750616,"25":-0.9248028244568558,"26":-1.7199355611523435,"27":-0.524568689929019,"28":-0.27167194645839,"29":-0.05679125649899866,"30":-0.21307925765884664,"31":-1.69978100294463,"32":-0.02228128839369197,"33":0.3175611208885419,"34":1.0741143961788666,"35":-0.5381833264159039,"36":-0.054861066626485176,"37":0.009124487617328078,"38":-0.06113970358445621,"39":-0.333134846079368,"40":0.3991989308119691,"41":0.29900214600971237,"42":-0.489359541678383,"43":0.10809485662900861,"44":-0.2811325086929226,"45":0.4085691085876321,"46":-0.15694646007054866,"47":-0.8561712315953589,"48":-0.6325336750763977,"49":0.16657494901262812}},"15":{"bias":0.7535061349934363,"weights":{"0":0.09441985165383394,"1":-0.6662411823033916,"2":-0.041317358321588615,"3":-1.9713408299482686,"4":-0.74559195522471,"5":1.9819008755174659,"6":-0.14327826938071941,"7":-2.4212828606475405,"8":-1.9483823034704844,"9":0.5927575214486143,"10":0.42225944578719377,"11":-4.898052102675521,"12":-0.33736047846438616,"13":0.19450361466063845,"14":-0.7719347275202785,"15":-0.24593961069558934,"16":-0.3864849593178824,"17":1.7631812978525034,"18":-0.49126634488049564,"19":-1.8159287825695158,"20":-0.5007762321950868,"21":-0.3038807870461032,"22":-0.41854056015059904,"23":-0.5758991860105946,"24":-0.5936681826240311,"25":-1.7020512868980415,"26":-6.431806576192282,"27":-0.6849021852405655,"28":0.9384119890412822,"29":0.26960662129721696,"30":-0.11517655749128294,"31":0.6731597442059775,"32":-0.11649607559000727,"33":2.6381563974260978,"34":-1.9598095634540873,"35":-2.121428049935156,"36":0.3170455897233992,"37":-0.01676694248930271,"38":0.3007676390198083,"39":-0.8244488159974648,"40":3.9780079287470813,"41":0.3268234847201497,"42":0.9871492736155472,"43":-0.45075328791160113,"44":-2.8058714494640236,"45":-1.5593110861266137,"46":-0.09841432305048968,"47":-1.2729928721599455,"48":0.703986165812361,"49":0.3346380968049657}},"16":{"bias":-0.8293982431869088,"weights":{"0":-0.2537622602180654,"1":1.1207509160465707,"2":-0.3287726710577049,"3":-1.398759470097612,"4":-0.546381237004903,"5":0.23398039508294435,"6":-0.20793604850851985,"7":-1.305198550252544,"8":-0.1360971398327305,"9":-0.21270646730481838,"10":-0.7293432254387918,"11":-3.4999811788210353,"12":-0.19644067003983914,"13":-0.039185147111079274,"14":-0.23100262191347712,"15":-0.24887155779879105,"16":-0.1943884384516538,"17":-0.049701438391398685,"18":-0.19164260854101783,"19":-0.05442651428531408,"20":-0.07048467924690759,"21":-0.2727428567125998,"22":-0.0783236478312239,"23":-0.8967741695591049,"24":-0.2763414315501322,"25":-1.5547617450536386,"26":-1.4169355991287462,"27":-0.49207446341502736,"28":-0.2330147454812964,"29":-0.2721109602963903,"30":-0.3072295642002755,"31":-2.3878148000910193,"32":0.08888249668298114,"33":0.8809141336863521,"34":0.22326719049763288,"35":-0.2704392805169941,"36":-0.1442893526799662,"37":-0.1710607273757345,"38":-0.18708876282125947,"39":0.014706132714167666,"40":0.3619106385335244,"41":-0.08058842922966042,"42":2.6084208789732863,"43":1.2251423752931088,"44":-0.44546738215383314,"45":-0.9096362410911828,"46":-0.24409034537275387,"47":-1.6480685745483576,"48":-0.3816390924654809,"49":-0.12776135009148715}},"17":{"bias":-0.7289162205607205,"weights":{"0":-0.1917017006388388,"1":0.7692968829282344,"2":-0.6991238797573558,"3":-1.5128253434022108,"4":-0.7780841305710157,"5":0.2574811174042154,"6":-0.13214684893039755,"7":-0.9343927216510756,"8":-0.29843536960085193,"9":-0.3025823901731187,"10":-0.9383825352816246,"11":-2.947886127665762,"12":-0.17634788842637883,"13":0.022570903085698753,"14":-0.3335226435459358,"15":-0.15306597930222735,"16":-0.42000034242742895,"17":-0.08657163298189549,"18":-0.7067944332760517,"19":-0.3023120442254805,"20":-0.42543508816959136,"21":-0.48089322818156643,"22":-0.08541392511144483,"23":-0.7276922551948574,"24":-0.42619208289930444,"25":-1.1607904680649912,"26":-2.105396431454747,"27":-0.27972715582712143,"28":-0.1621183138171197,"29":-0.07817047239606088,"30":-0.3339676811638276,"31":-2.5116789153195445,"32":-0.11314952629294135,"33":0.579495670815346,"34":0.26143818622662307,"35":-0.5326821821361846,"36":0.032772880111698204,"37":-0.11751641121616914,"38":-0.11018830634465691,"39":-0.1810376959387194,"40":0.39978050324735726,"41":-0.34198306122569305,"42":1.0471457082202538,"43":0.7961427505353078,"44":-0.4636571792784273,"45":-0.9622424448851489,"46":-0.33519231842419595,"47":-1.3545628563462175,"48":-0.10821849284268918,"49":-0.15537539189518715}},"18":{"bias":3.349818129864584,"weights":{"0":-0.38193199634842395,"1":16.785730432258244,"2":-2.1725777409142553,"3":-0.12577918180557845,"4":-3.413610624677835,"5":3.368938433735772,"6":-1.0133499312031315,"7":12.797145175589554,"8":-0.6362009282036496,"9":-1.2538698393480594,"10":5.531601640992652,"11":-18.640821715540742,"12":2.9987009381001273,"13":-0.583191890806717,"14":1.6944449919224982,"15":0.6634339035620427,"16":-6.869161770347523,"17":-3.619547685347323,"18":-0.023912855665583894,"19":1.033824224515504,"20":2.153299118014322,"21":1.1112815249640209,"22":1.8938276856903082,"23":5.066662817003975,"24":1.8400928914890409,"25":6.921886685361833,"26":-18.693473573173726,"27":4.620794619933662,"28":-1.9001955553865246,"29":-1.6359538911124931,"30":0.7024743979087241,"31":-14.798085215551191,"32":-0.482903185395343,"33":-1.245745079319468,"34":4.276668430923813,"35":5.906945636482879,"36":-1.2136383931359196,"37":0.2511725958185086,"38":-4.417181749037739,"39":3.2939251693157305,"40":1.1752559723345486,"41":-0.5291120880229422,"42":8.37694369283682,"43":21.37076970326239,"44":-9.992363049593006,"45":8.517894221245538,"46":0.37760273405747175,"47":-8.93236550064928,"48":-3.2181459390473393,"49":-0.5558068586336706}},"19":{"bias":-0.18934701741509305,"weights":{"0":-0.18183491804535712,"1":0.2522441639430357,"2":-0.1486453570753366,"3":-1.423245107511479,"4":-0.8667728681320748,"5":0.3317193734611398,"6":-0.22648322601050963,"7":-1.378123110531516,"8":-0.39259939954589185,"9":0.0037375012020579293,"10":-0.6496018153053559,"11":-2.955370907403567,"12":-0.3291264330829711,"13":0.12894969332545717,"14":-0.4515281525505794,"15":-0.4167618087137635,"16":-0.5057178423853431,"17":0.2099641025342952,"18":-0.6238977494029598,"19":-0.21370798451090234,"20":-0.284750234802384,"21":-0.21008739085453595,"22":-0.17292384571763283,"23":-0.6783215242079113,"24":-0.22587977396201203,"25":-1.4400744785023578,"26":-2.7438795030991487,"27":-0.4457924478704083,"28":-0.25486811860957037,"29":-0.25126283353363615,"30":-0.28603277561109375,"31":-1.6252906195204084,"32":0.03921065428188813,"33":0.7247817548611294,"34":-0.48891834222706804,"35":-0.680719082483683,"36":0.05248596748571662,"37":-0.03290196685564204,"38":0.10063326874695136,"39":-0.5136386191593721,"40":0.4004864434930857,"41":-0.038244179880437476,"42":0.4594729608184502,"43":0.14681675949307416,"44":-1.1365378020311792,"45":-0.6681967376377669,"46":-0.4579899465769781,"47":-1.168756573283164,"48":-0.12749161444347512,"49":-0.09428401439401235}},"20":{"bias":-0.6672197254927554,"weights":{"0":-0.14814767889120556,"1":0.7771156248887088,"2":-0.9624956135551365,"3":-1.3312511887375054,"4":-0.660252587631339,"5":0.07564449677960008,"6":-0.29524141119081676,"7":-0.9867485489691007,"8":-0.26706762729691436,"9":-0.20570972100746224,"10":-0.8652167006981595,"11":-2.19763248465567,"12":-0.09348115203052623,"13":-0.27608541409394805,"14":-0.32754775225457566,"15":-0.20376326161695651,"16":-0.7447237191375061,"17":-0.24033743396350118,"18":-0.41939169382295816,"19":-0.3747863669102835,"20":-0.31764536910863195,"21":-0.2697827119626002,"22":-0.02137071878329103,"23":-0.7375637628430417,"24":-0.1592293471972019,"25":-1.1842880263096913,"26":-2.2255789636679406,"27":-0.552304708008478,"28":-0.18790709994215973,"29":-0.038622197747802955,"30":-0.40886040698068293,"31":-2.353064367012578,"32":0.13901628488972687,"33":0.18170190695886315,"34":-0.08241824440227598,"35":-0.7184598138981041,"36":0.0807352926252507,"37":-0.17436844958701717,"38":-0.15039500621016597,"39":-0.36873766817292486,"40":0.3772459356681285,"41":-0.1903215217557196,"42":0.598591244709792,"43":0.0777892391206577,"44":-0.6051769056936988,"45":-1.2061027743897663,"46":-0.32821878952481465,"47":-0.7096781386825892,"48":-0.1203600138364742,"49":-0.1840821101186339}},"21":{"bias":2.4432571053793692,"weights":{"0":-0.10221961712297288,"1":-0.1848584166736634,"2":-0.14602521542840943,"3":-3.3415699386299234,"4":-1.0058980218777496,"5":-0.3089969017183556,"6":-0.0715362657728725,"7":-1.8366750770825202,"8":-0.36757393687137746,"9":-0.048232702685239826,"10":-0.3582389352702248,"11":-5.402832446125768,"12":-0.28001769408568616,"13":0.2268661285931667,"14":-0.46815148448807914,"15":-0.08631477116329044,"16":-1.0679010014819768,"17":0.14364045336334888,"18":-0.3712271384360807,"19":-0.3743693100247488,"20":-0.36200994370608935,"21":-0.15897529424451617,"22":-0.24584448460264693,"23":-0.7480691770811624,"24":-0.43069740142484964,"25":-1.7355048655321994,"26":-3.068719037356551,"27":-0.5482458439435872,"28":-0.31923257232949714,"29":-0.2820925378373575,"30":0.15956651257812157,"31":-2.477986723530419,"32":-0.23598823913903838,"33":0.6599257811766873,"34":-1.1241844897978897,"35":-0.8691390484660044,"36":-0.0094273750034663,"37":-0.1084337818140327,"38":0.5961734366770265,"39":-0.4217059968825441,"40":0.6977441887649926,"41":-0.20180196245307772,"42":1.6295301506652682,"43":0.3725398277099785,"44":-1.1658992641972894,"45":-1.5090590148055778,"46":-0.25763348404320546,"47":-2.429281694667229,"48":0.03847574202338294,"49":0.10918567964478385}},"22":{"bias":-1.2671993390920624,"weights":{"0":-0.1901667249044832,"1":0.45618931298971993,"2":-0.6763482650472077,"3":-0.6120638994493853,"4":-0.534548795343805,"5":-0.20623083708061077,"6":-0.3069014533564359,"7":-0.5435426961065846,"8":-0.2108262687958441,"9":-0.2444301463192755,"10":-0.7299542751353204,"11":-1.3511785124378028,"12":-0.28566019826985356,"13":0.10614585806116349,"14":-0.5207929526252948,"15":-0.33274752084250037,"16":-0.5206678573880613,"17":0.04158930219619161,"18":-0.6453726637951549,"19":-0.45243824156739976,"20":-0.16928955877059296,"21":-0.19055044880221286,"22":-0.22216504438697793,"23":-0.6477840853219732,"24":-0.41382465186024225,"25":-0.847591423851526,"26":-1.9767569834104564,"27":-0.40070039295218496,"28":-0.32852641332349647,"29":-0.03600485379331627,"30":-0.4754213104231923,"31":-1.3765083360861365,"32":-0.12090389143024473,"33":0.19215227221190115,"34":-0.049555466487676766,"35":-0.784094468155131,"36":0.085363229609943,"37":-0.3545183075383288,"38":-0.08356044922907999,"39":-0.454336954251192,"40":0.3336200507206773,"41":-0.2312646735272332,"42":0.05264006920301774,"43":-0.10442789875058321,"44":-0.7809032904857904,"45":-0.4157306364746785,"46":-0.19299192582939664,"47":-0.33137686090353025,"48":-0.19246164616086098,"49":-0.16937245754714958}},"23":{"bias":-0.006536138763916665,"weights":{"0":-0.19207057805432823,"1":0.1030969058332339,"2":-0.9141720985986528,"3":-1.8992761835388643,"4":-0.9456176711320714,"5":-0.051692683607705035,"6":-0.40772573487373276,"7":-0.973331565809082,"8":-0.17552441165646626,"9":0.0678666498941541,"10":-0.7891632236222227,"11":-3.118229314954502,"12":-0.16526524217202243,"13":0.03085475679284801,"14":-0.4161175122865004,"15":-0.27015244405425065,"16":-0.4684846672629266,"17":0.07842183010373041,"18":-0.5853039197904227,"19":-0.2639383429838093,"20":-0.3441084387197782,"21":-0.27500093171102535,"22":-0.27364356940503526,"23":-0.8729141701276122,"24":-0.18601241432812285,"25":-1.4495350467084556,"26":-2.88834863008231,"27":-0.3846700114024981,"28":-0.28463294008525997,"29":-0.23285699014477246,"30":-0.35472732984168026,"31":-2.3776842298987786,"32":0.05905669166977598,"33":0.1908777076406046,"34":-0.5828453749671515,"35":-0.759982715775781,"36":-0.09691222402643225,"37":-0.02287287195354085,"38":0.3396126733805153,"39":-0.5236501479564729,"40":0.3340767886507862,"41":-0.102612407566885,"42":0.3701358783174549,"43":0.04435654982447177,"44":-0.38437935675819557,"45":-0.9087042969282015,"46":-0.4614183459525504,"47":-1.0718674193156073,"48":-0.09259570409345523,"49":-0.042961935083103926}},"24":{"bias":-1.8882217141368507,"weights":{"0":-0.20140925143631672,"1":-0.10877259781708672,"2":0.7722806860643731,"3":0.014076085710749886,"4":-0.5327512387266626,"5":0.010735136898533582,"6":-0.3785720959336352,"7":-1.1711908748288082,"8":-0.17723202612188999,"9":-0.020014178852990085,"10":-0.024050731428939917,"11":-1.4845572272063496,"12":-0.5636241687025935,"13":-0.2475459254657205,"14":-0.5606137909519884,"15":0.05797099079661059,"16":-0.32452156865135634,"17":-0.016143104381696142,"18":-0.7771128011460934,"19":0.6991983628417108,"20":-0.21611837622871205,"21":-0.2559758306679807,"22":-0.2198789854059056,"23":-0.008974862330153991,"24":-0.16096350763870604,"25":-1.060813999415952,"26":-1.7739266678543317,"27":-0.7797274109825336,"28":0.06126745180647638,"29":0.3044028579448005,"30":-0.2869516394141147,"31":-1.774969558404255,"32":-0.11351737338099377,"33":0.9761720808607282,"34":1.0929807671454017,"35":0.15763037050893214,"36":-0.050028535025531326,"37":-0.3075565031533545,"38":-0.761354783629188,"39":-0.21732611027610077,"40":0.4962753477522009,"41":-0.24373197257196713,"42":-0.00519023038306479,"43":0.22543612604703958,"44":-1.4054998345768994,"45":0.6858589685210553,"46":-0.3853880779072364,"47":-1.2338917771358044,"48":-0.27084016141275885,"49":-0.04327900153408762}},"25":{"bias":-1.5576305725205888,"weights":{"0":-0.14163052411236998,"1":0.8303239902905984,"2":0.15020561578955816,"3":0.14767256345777516,"4":-0.5044407169103203,"5":0.057101819540121064,"6":-0.3435729415868321,"7":-0.5246968191040976,"8":-0.36928029468055906,"9":-0.01857349730281232,"10":-0.8193503175007869,"11":-0.7030940162942528,"12":-0.46767709550121417,"13":-0.20106200566647384,"14":-0.6939698921143352,"15":-0.12766560905650237,"16":-0.48313640548498366,"17":0.048664523034625456,"18":-0.7436942471302117,"19":0.025758228889022582,"20":-0.3030760457811922,"21":-0.4017772821235784,"22":0.026309026088947758,"23":-0.8152171588894219,"24":-0.25012696644271976,"25":-0.5263954940202179,"26":-2.055356014899434,"27":-0.43499115314582293,"28":0.03678548337457146,"29":0.11828196610998178,"30":-0.5389156909003389,"31":-1.8061650054562082,"32":0.009484337950941592,"33":0.8344999679613141,"34":0.6530643052874409,"35":0.12123942102112634,"36":0.23121845167056562,"37":-0.021859772214399883,"38":0.01238731203644422,"39":-0.13390987350505626,"40":0.27966036700166064,"41":0.020105563752366173,"42":-0.12416841369906305,"43":-0.1910518624715542,"44":-0.558070006386537,"45":0.2814881657202307,"46":-0.16437214499098446,"47":-0.07820957513264361,"48":-0.4122536105364573,"49":-0.02659457103929585}},"26":{"bias":-1.6929982516706237,"weights":{"0":-0.5488034078379904,"1":4.264868841032258,"2":-1.8508209180091937,"3":2.0074256561612955,"4":0.379990159306983,"5":0.013177597247321418,"6":-0.37879200518748307,"7":-0.6558278498226484,"8":0.7380538144411389,"9":-0.2655346473913395,"10":-2.2410452988937974,"11":-5.399095553510924,"12":-0.4515536276445181,"13":0.05907840216346107,"14":-0.6338603401504947,"15":-0.48532812668500913,"16":-0.6164827534828486,"17":-0.22511869308977972,"18":-0.809359178330542,"19":-0.207574790199792,"20":-0.6228853459856563,"21":-0.4105772532397661,"22":-0.22200851288231307,"23":-1.5378563459951105,"24":-0.5766329653759124,"25":-1.4846210135347797,"26":-2.3411599972189925,"27":-0.6438729539570821,"28":-0.4518782698240808,"29":-0.4792416190593707,"30":-0.5188731476791206,"31":0.31999715558634373,"32":0.6265596937803874,"33":0.36903825837835935,"34":2.3595776267328,"35":-0.3229864911510849,"36":-0.2744378794413935,"37":-0.2608841979583208,"38":0.8064523242317998,"39":-0.43968447044491915,"40":-1.0157192062087268,"41":0.004504104080186715,"42":1.443152499853521,"43":-0.24886962809259108,"44":0.4893672731616848,"45":-1.6594295634805445,"46":-0.35891767354093634,"47":-2.110789981188339,"48":-0.5666797591677735,"49":-0.14040490633373123}},"27":{"bias":-1.1420648480462883,"weights":{"0":-0.28334631638796365,"1":0.00901998828665752,"2":-0.7830032619418688,"3":-1.0625760388473626,"4":-0.5096245465153469,"5":-0.49058429815146204,"6":-0.428001752921319,"7":-1.048589119746149,"8":-0.2865773349592763,"9":0.1564375242153325,"10":-1.2525224486708464,"11":-0.018113520446988315,"12":-0.10518105174751628,"13":0.01623212057106946,"14":-0.4181242971081115,"15":-0.46436973767995954,"16":-1.2332793831787554,"17":-0.3098760166588171,"18":-0.6475392122435888,"19":-1.2815416636638237,"20":-0.4622516927099488,"21":-0.4605066138429189,"22":-0.4018038967952953,"23":-1.754822090307963,"24":-0.49385113220394616,"25":-0.8657723647450947,"26":-1.1947096564499742,"27":-0.42257474915226456,"28":-0.06480221141670589,"29":-0.1596866521683261,"30":-0.3301199915782262,"31":-1.0019202472986306,"32":0.03374500694947822,"33":-0.2710300209663838,"34":-0.1752856047666496,"35":-0.9610868526493554,"36":0.24921941617745835,"37":-0.115979018008823,"38":-0.48088933547650026,"39":-0.4292104692402879,"40":-0.425634387732369,"41":0.125585023749261,"42":0.1399654976341289,"43":-0.8633112283124108,"44":-0.5610710383175782,"45":-0.8457288136772255,"46":-0.2374303795969749,"47":0.9831311950858407,"48":-0.3793235415049856,"49":0.03605986619321558}},"28":{"bias":5.753476199905979,"weights":{"0":-0.4331101999137436,"1":-1.8411426492456457,"2":-0.5704424108168324,"3":-14.559519969313437,"4":-1.5160516552528933,"5":4.8123155589280895,"6":2.3250024300227503,"7":-9.387507582023353,"8":-3.473385178601239,"9":1.2845808510458,"10":2.1751029579526207,"11":-5.980871011830799,"12":-1.064935723329679,"13":0.38659917530006216,"14":-1.1146425626357526,"15":0.3685310228164279,"16":-1.24339915724529,"17":0.7827754812069744,"18":5.7806843922078945,"19":-4.090205360019214,"20":-1.0292318257071154,"21":1.4196388007763532,"22":-1.0039587412127347,"23":-1.5780606614468549,"24":-0.7458886248608207,"25":-4.8079766032962965,"26":-6.999345548818175,"27":-1.9596241269234085,"28":1.3237864397292243,"29":-0.5702776458726632,"30":2.414897505312826,"31":-1.739905400316423,"32":-0.6263267572634279,"33":0.0625769441019398,"34":-6.73373938157812,"35":-3.8112656740137627,"36":0.8375615517333596,"37":-0.505692668871725,"38":1.6849679645959477,"39":-1.1850060712642105,"40":5.629383970175444,"41":-0.5711738157391272,"42":-0.770258939351789,"43":7.484662482018449,"44":-3.948538287377737,"45":-6.343147383196263,"46":-0.6950909110864975,"47":-3.789098544181075,"48":4.072690663724894,"49":0.17132439235564617}},"29":{"bias":-1.4051705659400882,"weights":{"0":-0.27925607340572645,"1":0.9809794588309702,"2":0.018221876088032933,"3":-0.2723414710445429,"4":-0.8395334855260632,"5":0.44615219626638525,"6":-0.12630886159513344,"7":-0.6897492185653394,"8":-0.25182767012524276,"9":0.09418115576705766,"10":-0.47026305949317393,"11":-3.3339409298895704,"12":-0.3414280586018444,"13":0.1327151147045695,"14":-0.36041967889947346,"15":-0.05333286060180655,"16":0.033277406914448145,"17":0.16317663716466702,"18":-0.356053887844597,"19":-0.007383795843659996,"20":-0.054435217672991976,"21":-0.16879699696496575,"22":-0.23249643240017073,"23":-0.8238463324255887,"24":0.014121675125212164,"25":-1.420787323847327,"26":-1.5887381359973898,"27":-0.09681836608589416,"28":-0.1892315141524689,"29":-0.1618875922590967,"30":-0.02318745337337756,"31":-2.127007459878815,"32":-0.11351491749678722,"33":0.6948976383038833,"34":0.3006389712759288,"35":-0.10996125078899613,"36":-0.233380977122002,"37":-0.06270317756287674,"38":-0.30915634264570346,"39":-0.2642664743503297,"40":0.22198483392859422,"41":0.047618422700766876,"42":1.8430548560377986,"43":1.3235665581936724,"44":-0.4278321054844412,"45":-0.2171202095160782,"46":0.02430952929994018,"47":-1.5507457470448052,"48":-0.3369992137057139,"49":-0.05273961748682154}},"30":{"bias":1.1154417743967207,"weights":{"0":-0.283147732912587,"1":-2.652903857038095,"2":-2.7465913543098366,"3":-5.201963598742781,"4":-0.4391301992540654,"5":4.506584974941347,"6":-0.5144390521748471,"7":-1.5742615815627885,"8":-2.171175089008469,"9":0.768597365676275,"10":-1.9820521640083493,"11":-6.756923346827545,"12":-1.387994276065242,"13":0.1580994667310535,"14":-1.158136221841248,"15":-1.0332814650591091,"16":-0.7849311210406884,"17":5.330037675500489,"18":-0.47675092342953546,"19":-2.7192849617403483,"20":-1.40276352029511,"21":-1.2737674505066028,"22":-1.2816529885776724,"23":-1.011678218504304,"24":-1.206389080498994,"25":-3.9960847973051155,"26":-7.6498002091952815,"27":-2.001373388907123,"28":0.6588858432052929,"29":-0.10953876192002196,"30":-1.2799121738851238,"31":-0.4611106282819516,"32":-0.8610031606500852,"33":2.105874528768605,"34":-1.59909063919244,"35":-2.390737870548479,"36":0.35850878245818674,"37":-0.5876548560357241,"38":0.07026928314260189,"39":-1.6913717750935267,"40":5.529483010468189,"41":1.084067680102653,"42":0.0012703957199727254,"43":-1.440623319146084,"44":1.3876629068049713,"45":-2.320550408547749,"46":-0.6354085608616249,"47":-1.9872243388835575,"48":1.3271101702469776,"49":0.270106872214862}},"31":{"bias":0.13180934258830926,"weights":{"0":0.00013960674279480626,"1":-2.829882918216859,"2":-5.925247973355114,"3":-11.984234504683252,"4":-1.892851896281383,"5":6.608046382401729,"6":-0.29457266996844744,"7":0.7778026170614893,"8":-6.16553420534212,"9":1.6855255336257995,"10":-4.652596760155429,"11":-16.39638074001767,"12":-1.9053038537214582,"13":1.0461729001425086,"14":-5.505080300341143,"15":-1.1771311296597826,"16":9.586030620851236,"17":8.84736673393152,"18":-0.9807090752081243,"19":11.77417846903774,"20":-1.7503818343227258,"21":-1.6621561467229318,"22":-1.4613652122796612,"23":-9.46425005051589,"24":-1.4633458130372792,"25":-12.740052826721552,"26":5.874327273287673,"27":-4.0331665154208896,"28":1.432466348378822,"29":0.9948253847957799,"30":-1.6737682155699187,"31":1.6217304653294378,"32":-1.198303332501263,"33":2.9101338080815844,"34":3.6391563837635745,"35":-2.3887604916746588,"36":1.6645679737068757,"37":-0.4328672906643493,"38":1.513248431269355,"39":-1.9094979747725949,"40":8.16485491181127,"41":2.7053199097729523,"42":1.9123431319963664,"43":-10.57373570367542,"44":-7.0078574903278295,"45":-19.156292538391835,"46":-0.5001851152748261,"47":-1.499439450023496,"48":0.20973927849119747,"49":1.3390660760367974}},"32":{"bias":-2.0916606229455694,"weights":{"0":-0.20170634516784255,"1":2.5974735865236127,"2":-0.9524747778089833,"3":1.9396240904197464,"4":0.38367888387471716,"5":-0.06913256118177323,"6":-0.3328871097280097,"7":-0.38080662113421604,"8":0.9627520665451951,"9":-0.3474080431940721,"10":-1.745226021723401,"11":-3.241342934454166,"12":-0.1750123826706066,"13":-0.19876430909958445,"14":-0.6341303323851953,"15":-0.424069427006597,"16":-0.05978448541899748,"17":-0.29773677647637353,"18":-1.1131977778632862,"19":-0.11906790587598258,"20":-0.5105474908261333,"21":-0.4676121014537155,"22":-0.18750899422801645,"23":-1.4065517583782572,"24":-0.2648935752259886,"25":-1.29151494668011,"26":-1.638050615887732,"27":-0.3337523102133086,"28":-0.21429317523956667,"29":-0.6409909165630561,"30":-0.5402479628308562,"31":0.1513825485498398,"32":0.09209308588701241,"33":-0.28784747077020084,"34":2.0839827608465336,"35":-0.662870078749022,"36":-0.11660082342031643,"37":-0.275705838529656,"38":0.6374991700264485,"39":-0.23854357295591422,"40":-0.6771295754901575,"41":0.016166442001595355,"42":0.9185250466715399,"43":0.14640323788272058,"44":0.1410319784735772,"45":-1.1102766115361056,"46":-0.2169961780698891,"47":-1.5610332503277033,"48":-0.3430830375677093,"49":-0.10190985068325929}},"33":{"bias":-0.3709553042574812,"weights":{"0":-0.1420821159618229,"1":0.48848718962119275,"2":-0.5864738018167213,"3":-1.5997367241340168,"4":-0.8479134311399377,"5":0.016487341611119893,"6":-0.20901261445006922,"7":-1.2477406081659248,"8":-0.29875130467105426,"9":-0.05362328825160501,"10":-0.9655667292505009,"11":-2.9237621067150745,"12":-0.44147356015842826,"13":0.06590676676331517,"14":-0.4826308903563308,"15":-0.38791416930411404,"16":-0.6487652279835827,"17":-0.15969256243410937,"18":-0.547270494645446,"19":-0.2634915290664633,"20":-0.22359674858877182,"21":-0.26370334984856997,"22":-0.32090561180268523,"23":-0.7637729325689001,"24":-0.24333333844023564,"25":-1.111936211340332,"26":-2.278829087096744,"27":-0.476486035571989,"28":-0.08217325118125939,"29":-0.18481444719399479,"30":-0.18884714605667702,"31":-2.4956749834932777,"32":0.15953352626804734,"33":0.3162745664360291,"34":-0.24566324927145203,"35":-0.4801954248437013,"36":-0.22577371711711713,"37":-0.08425244019457355,"38":0.04542806893193662,"39":-0.12047506558852991,"40":0.5313198328857588,"41":-0.05405247685879125,"42":0.8221640401182754,"43":0.3955044179168574,"44":-0.26520741654764785,"45":-0.9637145948918971,"46":-0.01685320114314414,"47":-1.0991787890175575,"48":-0.13540968487002067,"49":0.07435559769917283}},"34":{"bias":-2.7663455056201696,"weights":{"0":-0.032771567665982486,"1":-1.0890016834985996,"2":1.2326207807848875,"3":2.2574698285739268,"4":-0.21397467419686686,"5":0.1492027217546546,"6":-0.5336381785913354,"7":-1.2671718936072962,"8":-0.3918633326149459,"9":-0.1475371675061669,"10":-0.6651161151599834,"11":-2.6823682349855233,"12":-0.5924458343502451,"13":-0.2510488860529248,"14":-0.5648596582866341,"15":0.03217139995918407,"16":-0.02844295770918068,"17":0.19670443761848005,"18":-1.7937560500316665,"19":0.7103044002449529,"20":-0.014627833388651671,"21":-0.10348500878129657,"22":-0.16299075147398703,"23":-0.7960835214380282,"24":-0.2621848727201254,"25":-4.436696059569129,"26":-1.451972512387031,"27":-0.6690654200334981,"28":0.12360195362479796,"29":0.2369065678366065,"30":-0.3163993684099389,"31":-2.1082783939073986,"32":-0.18389728374065337,"33":1.2121664856727028,"34":3.0914951029986693,"35":0.2281450462586696,"36":-0.08216471888633237,"37":-0.048803607799698265,"38":-1.3892293551073591,"39":-0.566704556999814,"40":0.48059960039119143,"41":-0.16606493256259777,"42":0.7608485100308968,"43":2.0539833141749475,"44":-1.963227177423613,"45":1.411325153930775,"46":-0.10155542880136308,"47":-2.034599675214807,"48":-0.5434552681763494,"49":-0.1896023224551909}},"35":{"bias":-2.8568196927823637,"weights":{"0":-0.38073452312126443,"1":-0.22649213776875243,"2":-1.0659356561406663,"3":1.2603461550048733,"4":-0.292968396738284,"5":1.3382788422104723,"6":-1.0186706891313697,"7":-11.535664113797475,"8":-1.0480651652802828,"9":-0.40999889054956706,"10":-4.772056633383954,"11":5.002044769874717,"12":-0.06192387575038125,"13":-0.1721718500234962,"14":-0.03067213188286522,"15":-0.2642833253079777,"16":-2.2109562766133544,"17":-0.5873463160686092,"18":-1.5375059059366976,"19":0.3480209099434458,"20":-0.05648792441352285,"21":-0.7217428333373469,"22":0.06467925727790762,"23":-1.7037891469487014,"24":-0.3282469416794086,"25":0.8506471068633122,"26":-0.012176834247498287,"27":-0.1171642481416525,"28":-0.5017075428018026,"29":-0.00737927325299675,"30":-1.0142501705917544,"31":-3.8176883081486257,"32":0.07281886061956191,"33":0.5346721396433175,"34":0.7240706019520896,"35":-1.6107029056475541,"36":-0.6783675424253324,"37":-0.13441654460077426,"38":-1.8429258824163077,"39":-0.16421935300174978,"40":-0.9991507219737833,"41":-0.748331112879249,"42":1.9877615957777282,"43":-13.702543957812994,"44":-0.6682975731431008,"45":-1.0700851414524855,"46":-0.2513273070089207,"47":4.69390726283591,"48":-1.0025803830653781,"49":-0.12399582155691345}},"36":{"bias":-2.8837707359448808,"weights":{"0":-0.2792272217368314,"1":-0.17881360345601394,"2":-3.648767061993333,"3":3.179532894879462,"4":-0.5785806811500275,"5":2.3244580339227374,"6":-1.6299839332399604,"7":7.174607577348501,"8":-0.09670562345988215,"9":-0.13911137613854355,"10":-11.45723782417174,"11":5.1588794617951645,"12":-0.6465433876096879,"13":-0.025983667133364412,"14":-0.35148592404611995,"15":-1.0328997767431787,"16":-3.2059322264779047,"17":0.06796039170987249,"18":-6.081855878477191,"19":3.2825715645503464,"20":-0.8254542877318963,"21":-1.827562011473322,"22":-0.4884060351722801,"23":2.8286112602584867,"24":-0.6904101798047528,"25":-1.333796386386341,"26":-16.507198515128806,"27":-0.7022939674143062,"28":-0.7707333410211241,"29":-0.7138410575764127,"30":-3.1718644596422814,"31":-3.588435592447004,"32":0.04178278143807065,"33":-0.5077074578186748,"34":-0.7641097380560297,"35":-0.3786689460082552,"36":0.17686653311456385,"37":-0.19318124205415854,"38":-1.2875401479475712,"39":-0.6179854138300037,"40":-0.7019121844297939,"41":-0.12510046155180823,"42":-1.7789531186841154,"43":2.444001011227033,"44":-0.9238966831460067,"45":3.0241187847208457,"46":-0.32967585770853625,"47":2.5174312200441347,"48":-2.42915353015262,"49":-0.08800973792790633}},"37":{"bias":0.6509521654939949,"weights":{"0":-0.354716638034774,"1":0.14238412145086676,"2":0.017973619860659377,"3":-2.006010301975772,"4":-0.9158154489483793,"5":0.16776540330572606,"6":-0.22464863245841615,"7":-1.5920160292515813,"8":-0.33048135820636654,"9":-0.07077137396354503,"10":-0.606943586807702,"11":-3.771822843669311,"12":-0.24452621640174255,"13":0.20914739803655144,"14":-0.5743145517756657,"15":-0.164435649723024,"16":-0.7365046060973077,"17":0.2563010929595528,"18":-0.4266341974793937,"19":-0.29709842441677825,"20":-0.23954014821165626,"21":-0.20207512582766488,"22":-0.140492340106269,"23":-0.7585367700969806,"24":-0.4586938174180798,"25":-1.5631171604930767,"26":-2.795164327875739,"27":-0.6622092415190417,"28":-0.010917662153956512,"29":-0.18133211813203373,"30":-0.03372940773273456,"31":-2.391403032564023,"32":-0.12034055486615552,"33":0.6890127668174724,"34":-0.5750803187452561,"35":-0.6709326374265013,"36":0.07623877290937323,"37":-0.36694232322253517,"38":0.39075871480509317,"39":-0.4690482847112264,"40":0.5575826208476514,"41":0.018235704131571728,"42":1.261919281398305,"43":0.3609370535168955,"44":-0.863304801434811,"45":-0.9798489940510283,"46":-0.20138303424867704,"47":-1.620679237828464,"48":-0.23893941964071536,"49":-0.08810498508655737}},"38":{"bias":8.88369225809049,"weights":{"0":1.0388763883502534,"1":-6.756691670994582,"2":3.240666190824669,"3":-15.000508221200228,"4":-1.861474995425082,"5":-1.3570786061549147,"6":1.3927139036525544,"7":-4.320367428624437,"8":-5.14133597976442,"9":1.8087229578053297,"10":-4.1604897801180325,"11":-20.438448450359523,"12":-1.454945525090694,"13":1.2131350233777949,"14":-1.8695666539233875,"15":0.11833990152546439,"16":7.265861023637744,"17":9.792938205694623,"18":1.7613945513834615,"19":4.560130211344387,"20":-0.48023394826168286,"21":-0.9610478447207492,"22":-0.7059094378988521,"23":-2.2788637621250665,"24":-0.49257044661356614,"25":-12.68614661672828,"26":-4.871002047260605,"27":-2.681357036789401,"28":2.627741196753867,"29":3.7754152245192234,"30":-0.41449688639978927,"31":-11.301966700366995,"32":-0.626871833522923,"33":2.502257568111386,"34":-1.3457703359533775,"35":2.0939130393656455,"36":1.8524216444143498,"37":-0.10529105656595363,"38":2.1487101018903636,"39":-1.2670004159646926,"40":8.282011502730965,"41":1.757021296725655,"42":-3.6471669470784325,"43":-0.4016504713913261,"44":-2.936556357337775,"45":1.1793153440906476,"46":0.03028419836687131,"47":-4.451684026764083,"48":1.404140184734507,"49":1.2787059476479967}},"39":{"bias":-0.2369870119529944,"weights":{"0":-0.013519113618412596,"1":0.40569315023175495,"2":-0.5954231435697698,"3":-1.7157395685516017,"4":-1.062407201874288,"5":0.11555744427275047,"6":-0.2523493320066415,"7":-1.2408724773746131,"8":-0.40791503021483927,"9":-0.24911755320430232,"10":-0.7156506450648761,"11":-3.1265397144365523,"12":-0.3938552374652185,"13":-0.14496862132991936,"14":-0.2917536071547432,"15":-0.4130050622222008,"16":-0.30016394022853304,"17":0.06755488177520148,"18":-0.3694144320618782,"19":-0.3649640942455495,"20":-0.26869077199134794,"21":-0.4221328362304032,"22":-0.24188096281206192,"23":-0.7171641092502175,"24":-0.46710939724441425,"25":-1.3494995039790239,"26":-2.343361332741797,"27":-0.2754745037256122,"28":-0.34572801859802976,"29":-0.06220446067996515,"30":-0.13740782301515528,"31":-2.002038416858847,"32":-0.11868996456481234,"33":0.5469008267585876,"34":-0.18398463058915163,"35":-0.571767177499439,"36":-0.26083482924255846,"37":-0.3011326984607954,"38":0.2199236918562288,"39":-0.17274076589436554,"40":0.3870408865196304,"41":-0.14174457360180928,"42":1.0294790443049016,"43":0.47087370848935817,"44":-0.5592945255046622,"45":-0.9954597530641769,"46":-0.3380361865370459,"47":-1.3524227233155826,"48":-0.17857783335796845,"49":-0.2176272881389066}},"40":{"bias":-2.362640442276153,"weights":{"0":-0.36511932803906155,"1":0.6798271775478933,"2":-1.2025779741887188,"3":-1.1469957795277952,"4":-0.5766918782303692,"5":0.5044710980142726,"6":-0.5460875950534498,"7":-0.41333910228914167,"8":-0.12057743403411984,"9":0.04704222215916739,"10":-2.856464918163008,"11":0.4710744356680873,"12":-0.11637821955482806,"13":-0.0020912051213941986,"14":-0.2212263865252398,"15":-0.3848545311192925,"16":-1.4649940810559519,"17":-0.44497312354604307,"18":-1.039462082756932,"19":-0.8435963198707819,"20":-0.31852477701302573,"21":-0.4633536065110065,"22":-0.23331315338696162,"23":-0.24832276947022497,"24":-0.24854168954268765,"25":-0.7505722779807273,"26":-4.012062407485797,"27":-0.399275266708909,"28":-0.4873159643808904,"29":-0.3562757277167649,"30":-0.8950109735750468,"31":-1.8058834029201618,"32":-0.21993420467374292,"33":0.19456235950659825,"34":-0.0471285284431426,"35":-1.2176133805874236,"36":-0.02528001340072131,"37":-0.16806240907378076,"38":-0.37386210037198037,"39":-0.1884119706175817,"40":-0.1675097141132708,"41":0.1064171395258275,"42":0.21389482548707967,"43":-0.2091089686270757,"44":-0.9822495103182233,"45":-1.2300118725531857,"46":-0.3266566433637439,"47":1.1042883286569725,"48":-0.4903794584242124,"49":-0.23666381376651824}},"41":{"bias":-1.8473130057806266,"weights":{"0":-0.3961660636684117,"1":3.8836479224318814,"2":-1.100293709638666,"3":2.3168871009206184,"4":0.37179469368160895,"5":-0.21430159612634309,"6":-0.338882316608522,"7":-0.5884458242086449,"8":0.816506892106301,"9":-0.2811474175815713,"10":-1.5974936318261175,"11":-4.441467466562152,"12":-0.24885241444588635,"13":-0.23337851807110122,"14":-0.42192529000758683,"15":-0.5737597322237129,"16":-0.24636491597074323,"17":-0.566005561567899,"18":-0.9726007994320447,"19":-0.3751339216005113,"20":-0.4936752899643657,"21":-0.23288711817807725,"22":-0.36928579950785934,"23":-1.523962030827033,"24":-0.22482306346384248,"25":-1.3572277261115386,"26":-2.32085847742013,"27":-0.6174965715890555,"28":-0.5118788946138542,"29":-0.6009954228953913,"30":-0.3776831058481457,"31":0.7244705999076981,"32":0.3137612137015853,"33":-0.3565021466071455,"34":2.2111799403013612,"35":-0.8095292078409522,"36":-0.35657750158688134,"37":-0.1696145376858397,"38":0.8621993892564315,"39":-0.4730070702114118,"40":-0.6783006671239362,"41":-0.008158538283458364,"42":1.0654591388058987,"43":-0.3407000549548443,"44":0.32042243824454053,"45":-1.5011213169485875,"46":-0.3487266602466585,"47":-1.9879034044428538,"48":-0.5692083939043959,"49":-0.13051025832888904}},"42":{"bias":1.8144557272219901,"weights":{"0":-0.227128837641528,"1":-2.101693640447383,"2":-6.368459013111837,"3":-7.497979984440918,"4":-1.3090899074322393,"5":9.588883073128793,"6":-1.8244433165117995,"7":-8.060620916353006,"8":-2.3519466578259296,"9":0.9921996813735695,"10":3.4228249359991443,"11":8.118364442653236,"12":-1.3431787408617433,"13":0.9594300079938838,"14":0.060162449020761455,"15":-1.5882672864789469,"16":-5.772993488024899,"17":-0.9796643177290176,"18":-2.6616249344542684,"19":3.834595475802225,"20":-1.8458198574029925,"21":-2.6376975126639106,"22":-1.2934830133991106,"23":5.753610761710506,"24":-1.6163062115505786,"25":0.12309403535362083,"26":0.01792265998405666,"27":-2.2413509270784444,"28":0.24818918842143695,"29":0.26549745856165746,"30":-3.133938789423134,"31":-2.773654655943335,"32":-1.0655666166597946,"33":9.378164142146339,"34":4.613260129234705,"35":-14.700991129786715,"36":1.5096987232219026,"37":-0.410168526137476,"38":-5.269761727433681,"39":-1.8549271925590087,"40":-2.5388330700038026,"41":-1.021504407734441,"42":4.56290962401674,"43":-1.7891138479880297,"44":-14.65860848094315,"45":-1.9741700867459102,"46":-0.25009390954085653,"47":-0.30627577430319836,"48":-0.6183051197279276,"49":1.0532605190825384}},"43":{"bias":-7.165067305883421,"weights":{"0":-0.9134390675570004,"1":0.39770729272788,"2":-1.0854401666972433,"3":-4.255306542746354,"4":-4.1183559443993,"5":13.54889186979636,"6":-0.8128694308006789,"7":1.946735993090539,"8":2.333579710053111,"9":-0.32286229188216253,"10":-2.0043685578815884,"11":-3.72159315180438,"12":-0.9884176935800202,"13":-0.23424778953307074,"14":-1.7698034557416384,"15":-0.6016408084273098,"16":6.016208165724693,"17":5.213055949408679,"18":-0.6062991845977046,"19":-1.6204172854012184,"20":-0.5637184088637905,"21":-0.30173192892770795,"22":-0.3680528688954917,"23":-1.1689188391020662,"24":-0.7337816629103414,"25":-5.508440093651985,"26":-5.325335886008011,"27":-2.1822227892050963,"28":-1.0490594720222377,"29":-1.5116105877324755,"30":-0.5495479137142147,"31":2.6470492823030978,"32":-0.5887904146076341,"33":-0.5539804522375076,"34":-2.5025802615646264,"35":-0.7311513319471568,"36":-0.008071696488746945,"37":-0.6961248619804689,"38":1.6367671925472849,"39":-0.4327005621602977,"40":-0.047804078974598777,"41":7.433265197118566,"42":1.0623561382183884,"43":0.8850774253064084,"44":-4.120707222304321,"45":-3.6800368859505745,"46":-0.6206288185973693,"47":-4.535952006703926,"48":-1.1685007774287934,"49":0.14248543928869478}},"44":{"bias":-1.4855358350438248,"weights":{"0":-0.11593009673669119,"1":1.003625111759345,"2":-0.052180840945845124,"3":-0.12383535012065641,"4":-0.5986917484557117,"5":0.22045287103001074,"6":-0.40690715570292363,"7":-0.46716316169852645,"8":-0.36001785441364825,"9":-0.02590047354225182,"10":-0.821697436671089,"11":-1.1682038648886053,"12":-0.10329883011405032,"13":0.046846144095438094,"14":-0.33276151036657814,"15":-0.22456495500061935,"16":-0.37941626087566194,"17":-0.009725126196626998,"18":-0.6925377473730843,"19":-0.3344182035576503,"20":-0.36244602848368324,"21":-0.4625292552592084,"22":-0.10224179083631299,"23":-1.067578107655512,"24":-0.27146076408244085,"25":-0.8755501307625961,"26":-1.924844816872831,"27":-0.2752703473785745,"28":-0.27906479410325147,"29":0.011794759884697253,"30":-0.16517441497989202,"31":-1.561304264182344,"32":0.03352773154916593,"33":0.7126800436163684,"34":0.12395972326592386,"35":-0.5751088087120187,"36":0.09348608673849487,"37":-0.08803438643327324,"38":0.03387100626677675,"39":-0.05006984211153188,"40":0.34987047321625775,"41":-0.04727101902398039,"42":0.24868629097525033,"43":0.723285214711682,"44":-0.6318147413865198,"45":-0.2924653650011272,"46":-0.2790898853032381,"47":-0.43432700995862644,"48":-0.10463643281915108,"49":0.13037819669872128}},"45":{"bias":-1.5896233444138226,"weights":{"0":-0.2841722858554738,"1":0.686283735333361,"2":-0.70648806800248,"3":-1.1371292756304259,"4":-0.5843100836605463,"5":0.8458110798640046,"6":-0.2513124896492241,"7":-1.1705124445616897,"8":0.07522185445665373,"9":0.0646774064198874,"10":-0.7428565854696796,"11":-2.3997955470987797,"12":0.09671430319081442,"13":0.11190485822740684,"14":-0.5024285050294774,"15":-0.448871368226981,"16":0.6775149499095823,"17":0.40029651414894024,"18":-0.37532584096882293,"19":-0.38069293203215043,"20":-0.28833744646482024,"21":-0.30475799574452994,"22":-0.06532687550000357,"23":-0.9713409446339045,"24":-0.4128644125400127,"25":0.2659750384695849,"26":-2.8314428498889606,"27":-0.18262803114576856,"28":-0.20065005433848765,"29":-0.131226853955287,"30":-0.43393544647809246,"31":-1.7766315974925553,"32":-0.10427299092283938,"33":0.8487355917112616,"34":-0.7700141225350952,"35":-0.9226753375465121,"36":-0.07451602874371509,"37":-0.03720934825616731,"38":0.48396623239089664,"39":-0.35556672593879424,"40":0.9290921290954683,"41":0.5824721448345426,"42":1.5517533738774825,"43":0.7533100755236612,"44":-2.1764031836179023,"45":-1.3256160906808638,"46":-0.44675537626186196,"47":-2.1449470638285826,"48":-0.2177692704679943,"49":0.16700617957543465}},"46":{"bias":-1.020544195649009,"weights":{"0":-0.09125631443379101,"1":0.9432860947548226,"2":-0.3751356124243716,"3":-0.7761988157375155,"4":-0.9009178122003002,"5":0.734627779947009,"6":-0.24956608821020798,"7":-0.9702552438744082,"8":-0.19699765906245198,"9":-0.07563426346097878,"10":-0.7116814708651107,"11":-3.1419913723575923,"12":-0.27739998604581534,"13":-0.22730667074596192,"14":-0.2681532431491853,"15":-0.13625158001916912,"16":0.021010464808439037,"17":0.3420820851012164,"18":-0.5156434982557206,"19":-0.16589152662835524,"20":-0.30203234224644093,"21":-0.10948787074238028,"22":-0.014433724363176331,"23":-0.8411286430066798,"24":-0.15458718571552776,"25":-1.5696761029539215,"26":-2.3803473877669252,"27":-0.509946802566818,"28":-0.05533821607746819,"29":-0.14651926158096282,"30":-0.029328907937902837,"31":-1.9722653839094448,"32":0.13645375572743695,"33":1.085184767580052,"34":0.06884967093560147,"35":-0.585090359712105,"36":-0.09941356680685445,"37":-0.10651763395028636,"38":-0.20783528463917822,"39":-0.34559834462470873,"40":0.41916866855174323,"41":0.07928137520111936,"42":1.756343386134925,"43":1.0636176908769335,"44":-1.0980981368734235,"45":-0.6303378017566305,"46":-0.3826095860225615,"47":-1.5521412666723984,"48":-0.20144892199816652,"49":-0.11731049431214925}},"47":{"bias":-1.2457319053619504,"weights":{"0":-0.26281900077893305,"1":0.9273014993061788,"2":0.12738800094132202,"3":-0.33695989710287844,"4":-0.8036135202392962,"5":0.6814065117921944,"6":-0.464885397261947,"7":-1.0885020719367429,"8":-0.6114475772369199,"9":-0.15889600393786354,"10":-0.5717069340545589,"11":-2.7082146886025282,"12":-0.2329411672706806,"13":0.09516854474185023,"14":-0.4012190065898141,"15":-0.04292320702495024,"16":0.1359689249683607,"17":0.26668727727908803,"18":-0.4999942696425792,"19":-0.3138784504146375,"20":0.0030307160002009175,"21":-0.09920920220401619,"22":-0.09789133443346908,"23":-0.8788164524962173,"24":-0.22631662057763735,"25":-1.4494893611546218,"26":-2.041257868055891,"27":-0.3181029113049327,"28":-0.28431009499336163,"29":0.010375659704317914,"30":0.009347708539113346,"31":-1.2782921095691342,"32":0.02943154745807056,"33":0.6716504053004744,"34":0.010325504016902149,"35":-0.31522861786508805,"36":-0.07882856605213709,"37":-0.2221102972090866,"38":-0.3054183601966403,"39":-0.2925487509948771,"40":0.5652151864122663,"41":-0.09560076764657754,"42":0.9313073236399443,"43":0.7454532866018589,"44":-1.1580116901362636,"45":-0.12563941566277415,"46":-0.03170025641754512,"47":-1.437470049303953,"48":-0.4778808543866556,"49":-0.11922990322779799}},"48":{"bias":-0.8888365833240898,"weights":{"0":-0.04980161141547831,"1":0.5587435036775671,"2":-0.5495583435000503,"3":-1.3543724458122859,"4":-0.7924534253193275,"5":0.38674957662980075,"6":-0.3898036028974802,"7":-0.9353120844647403,"8":-0.2344930486392749,"9":-0.23221107910934224,"10":-0.684326339002322,"11":-2.6468378672566164,"12":-0.21059273754162205,"13":-0.24683919262586762,"14":-0.43912661943372394,"15":-0.2954458988729798,"16":-0.1471394602859301,"17":-0.0719714191887896,"18":-0.5818558403918964,"19":-0.20493497528120844,"20":-0.24194089140462519,"21":-0.41703348401347073,"22":-0.08254903791421776,"23":-0.7082544999614601,"24":-0.11223541004836109,"25":-0.9307900202899029,"26":-2.169563882911954,"27":-0.562890976923882,"28":-0.2392396415610156,"29":-0.07653777658601199,"30":-0.24880006200344584,"31":-1.8060864866753366,"32":-0.17006672358073258,"33":0.5473030556748684,"34":-0.31596336775747996,"35":-0.6838848084577035,"36":-0.17707355384802836,"37":-0.10083486662829018,"38":0.19903806195477186,"39":-0.2196121023628893,"40":0.3537844449530685,"41":-0.22092401389800836,"42":0.8260736532235502,"43":0.6902355959419451,"44":-0.6251700727727734,"45":-0.7507825017221001,"46":-0.08685478140695921,"47":-1.4109105779657638,"48":-0.05124775600858093,"49":-0.15843063492819157}},"49":{"bias":-1.9662548311998784,"weights":{"0":-0.4914734958402852,"1":3.8798142555835566,"2":-1.1205920645860465,"3":2.6222663565384736,"4":0.1926157907021238,"5":-0.07458110463323385,"6":-0.5117365310829728,"7":-0.23788980130330176,"8":0.5233482633136496,"9":-0.44402777426892237,"10":-1.9530396587359315,"11":-3.663920906154489,"12":-0.29563228627712984,"13":-0.002388281456386995,"14":-0.3834259789490531,"15":-0.36297350998140543,"16":-0.14407823681822424,"17":-0.5105101748587579,"18":-1.0923222292577968,"19":-0.254898252692538,"20":-0.6438258338711402,"21":-0.5093096279355578,"22":-0.538402486278651,"23":-1.257066226755355,"24":-0.4756687652054767,"25":-1.3677373196893132,"26":-2.4867087020466307,"27":-0.5982602769966037,"28":-0.5966262523916015,"29":-0.6101751675557087,"30":-0.529281321757065,"31":0.76722314460126,"32":0.42882421518785746,"33":-0.48585010540362694,"34":2.1533014786889795,"35":-1.0414960223044398,"36":-0.21924475315638053,"37":-0.45735185729093786,"38":0.7755729345003349,"39":-0.5795192684232289,"40":-0.5809446361153299,"41":-0.0048802482297687156,"42":0.21916873150036772,"43":-1.020690477404774,"44":0.5510070082428999,"45":-1.2605820868542692,"46":-0.3056869826401382,"47":-1.464091655375612,"48":-0.5158595181905751,"49":-0.04590673726258606}},"50":{"bias":-1.147394713910586,"weights":{"0":-0.18294504759843982,"1":0.7320777094105316,"2":-0.657307489337431,"3":-0.7594850236619415,"4":-0.6280392427975663,"5":0.5005789648897959,"6":-0.23500805284229578,"7":-0.6811712058093351,"8":-0.3994889416657155,"9":0.045643347155091975,"10":-0.85487666178406,"11":-2.4007631434753174,"12":-0.3729981889057616,"13":0.11637702088760972,"14":-0.2523939816680728,"15":-0.18694066724046002,"16":-0.12811650174609374,"17":0.16050499093855713,"18":-0.6624924769270658,"19":-0.34927179349492676,"20":-0.2894138725156829,"21":-0.15014321237225267,"22":-0.2138802974233033,"23":-0.9461731494928812,"24":-0.3814885948658167,"25":-1.0135162658808836,"26":-2.3091885664901595,"27":-0.1986665883030992,"28":-0.142298212593356,"29":-0.15684723054134214,"30":-0.5035330040830861,"31":-2.068568193086575,"32":0.09886115729187228,"33":0.9095716275718926,"34":-0.13842783851586443,"35":-0.6789315076141833,"36":-0.0647939480114267,"37":-0.0007011836975194911,"38":-0.08470638963167561,"39":-0.33963910943635645,"40":0.325715594411339,"41":-0.0056120698620414,"42":0.9668213682462319,"43":1.0590466839444632,"44":-0.5470615026496879,"45":-0.5051364744991371,"46":-0.4047626096011123,"47":-1.2646194912937605,"48":-0.34236676093629803,"49":-0.1601480913882636}},"51":{"bias":-4.462156334555503,"weights":{"0":1.4502178647013113,"1":-1.4441418470139493,"2":-0.4422973779161404,"3":12.051906086596029,"4":-5.073473915611992,"5":1.3345246695847988,"6":-0.012375966211293317,"7":-3.896878438618708,"8":-4.646269044510284,"9":0.2966108487438539,"10":3.1928447059009866,"11":-9.180360849353198,"12":-1.2361073271559262,"13":0.8669308309615552,"14":-2.8064076625512016,"15":0.11041116722195483,"16":-0.9673138227865554,"17":2.1495971701481698,"18":-1.007096646866836,"19":5.631990384379192,"20":-1.0835929651109983,"21":2.447373637667962,"22":-0.6533911639534165,"23":-0.9691674476123432,"24":-0.9418221780442265,"25":-0.7670829253214839,"26":0.07275482842031342,"27":-2.686565655182858,"28":-0.28954035291704794,"29":2.094883768219535,"30":3.4761870445991145,"31":-4.100515976949033,"32":0.32493213155625944,"33":11.876614872766915,"34":13.679561577586764,"35":-2.575152202961987,"36":0.8780623246024393,"37":0.777004764454805,"38":0.3030205887592002,"39":-1.0976676875984273,"40":0.48212586989862644,"41":0.9392119886661872,"42":0.37440203000649497,"43":-0.7956226325601918,"44":1.6218678027305393,"45":13.845995136271446,"46":0.8284915071584418,"47":-9.61793878784986,"48":-2.8444320189631984,"49":0.8968414928338271}},"52":{"bias":-1.518471985433673,"weights":{"0":-0.306724141782215,"1":-0.36940571090383856,"2":-10.032659033965098,"3":5.612120514275665,"4":-4.163814263542202,"5":16.652318818212457,"6":0.39213190126041103,"7":22.821214585067167,"8":-1.4639381377673168,"9":0.2764670787748569,"10":-12.169547826398043,"11":14.50314539307,"12":-0.3102769439453568,"13":0.4106408043858542,"14":-0.5538258681445951,"15":-0.9000065877209694,"16":-8.941316451962004,"17":-0.8406117720428731,"18":-3.22721902329453,"19":-0.9139401469707965,"20":-0.4684255390594675,"21":-0.9417137662820699,"22":-0.35368822840488967,"23":-7.616178602239046,"24":-0.30856063592413757,"25":-1.7890894116600882,"26":-4.0488438829861515,"27":-1.0485914004234422,"28":-0.009279760432623796,"29":0.15215341405174448,"30":-1.3790123161648815,"31":-11.957213251469833,"32":-0.037911747258017284,"33":6.879658092592791,"34":10.369598610229133,"35":-12.094133634385216,"36":0.41606044953092175,"37":-0.46644112516098124,"38":-1.9418333126612541,"39":-0.3254574481647646,"40":-3.767934787887021,"41":1.2135125763129015,"42":-16.488532733478436,"43":3.698790281435397,"44":-4.717990874598951,"45":-12.839270657354158,"46":-0.494219126762648,"47":-3.430160778004981,"48":2.986975116150382,"49":0.23720139161772688}},"53":{"bias":0.06751721327865556,"weights":{"0":1.1035339210300175,"1":0.7032313900554313,"2":0.6364851267619834,"3":-10.121830220401845,"4":0.2702527531009379,"5":0.4827811694259101,"6":2.2928788773474573,"7":-3.597977382923114,"8":-0.4530348924141617,"9":0.9633869309131867,"10":1.0978706023086082,"11":-7.202067737635576,"12":1.2910617122255672,"13":0.9333493360903051,"14":1.5407464796041177,"15":1.3945113758105507,"16":1.6025206469037672,"17":1.600660301642673,"18":1.9270442118258928,"19":2.4652585596656147,"20":1.7187243853323515,"21":1.345915419601617,"22":1.05810165569843,"23":-1.5018445285863207,"24":1.4241441449111842,"25":3.231516607241785,"26":-3.182330360201676,"27":1.4005806952342512,"28":1.532763537464873,"29":2.0797739472104673,"30":0.9552987703946757,"31":-3.05508292729197,"32":0.17538726016209732,"33":4.924551977534167,"34":-1.1721861416901618,"35":4.240886527846948,"36":0.8988792483781675,"37":1.1084332586784842,"38":0.231887327399891,"39":1.320889115813484,"40":1.8924794627409232,"41":0.8985569557769517,"42":3.593792033744591,"43":2.412568754300689,"44":-0.8637917477995978,"45":0.36244438503512677,"46":0.833232265215344,"47":-4.968080419432376,"48":1.4737852363691533,"49":0.9595836986542307}},"54":{"bias":0.9509994026411166,"weights":{"0":0.8061068249753238,"1":-2.639629025722814,"2":-1.1883149101816268,"3":-5.1218433380283015,"4":-4.730335364151314,"5":3.150007187963483,"6":4.408048660880637,"7":-5.361641248263353,"8":-5.229271846876698,"9":0.36913677543083595,"10":2.4132011935354734,"11":-9.904637810333284,"12":2.9786831413665653,"13":0.5774160839241272,"14":1.670103345974961,"15":1.839445491751859,"16":5.284435439194415,"17":1.349487415909521,"18":5.900535447644405,"19":0.3523669988004785,"20":2.654540464900201,"21":2.5484932560855458,"22":2.1366732195695457,"23":-2.4804916387931355,"24":2.281381680655552,"25":5.058371949937218,"26":-6.255304897916736,"27":3.719852208411704,"28":0.6639029607491231,"29":0.6397575555342923,"30":1.8503101292827808,"31":-5.536407413086702,"32":-0.3256111539206157,"33":4.78174647665091,"34":1.2678604058232321,"35":5.755124894743644,"36":0.4289941436875836,"37":1.1178475043096605,"38":5.300058526885954,"39":3.3392064579112657,"40":-1.2921724866591888,"41":2.998633391688822,"42":5.051070585448275,"43":5.798994839766918,"44":-4.146712794150228,"45":-2.0948640227820894,"46":1.0191724869882255,"47":-7.796504400753101,"48":3.8313707785447235,"49":0.9281031757362237}},"55":{"bias":0.45572030850663053,"weights":{"0":1.1169091862207496,"1":2.1871936130293443,"2":-0.6866282760631672,"3":-3.5367434135439297,"4":-1.446802308634611,"5":-1.5101414105455688,"6":-0.34718924144580093,"7":-1.1467050203348488,"8":-1.769736623785541,"9":1.5832065258581793,"10":0.18872656352753267,"11":-1.7002149514263052,"12":0.9667462912247479,"13":1.3769649325668278,"14":0.6779118919794757,"15":-0.271515320400802,"16":-4.121936156952077,"17":-0.6556145834314645,"18":-2.2676659940854202,"19":0.9926361843105226,"20":0.5332249225081317,"21":-1.21147265677604,"22":0.5331551656344073,"23":-2.5784932723482097,"24":0.39728066933432593,"25":2.8297380543421786,"26":-0.1269866568207006,"27":0.9727148214591514,"28":1.0251478289040836,"29":2.1893535996502753,"30":-1.5935000672786797,"31":-4.822824101146605,"32":0.7916094424094339,"33":12.90583802189488,"34":10.007038647654245,"35":1.169414256913523,"36":2.444043268840858,"37":0.5969093997703163,"38":0.3857865188560378,"39":0.9727286512766303,"40":0.73694899233635,"41":1.3132523586594738,"42":0.7257901462195211,"43":-3.8110513316161625,"44":0.9611076185496168,"45":-0.7307710008233834,"46":0.8293294862534364,"47":-0.44853734127297984,"48":-0.19477086217190992,"49":1.6549399322528928}},"56":{"bias":0.8813349808016058,"weights":{"0":0.004051949592909992,"1":-0.2616072736765876,"2":0.051016325954316814,"3":-2.1714463109169935,"4":-1.0108081471793737,"5":0.9289039114768319,"6":-0.13069358877598325,"7":-1.2253473168381963,"8":-1.1899946765394391,"9":-0.0053550953081878796,"10":-0.34218257385056683,"11":-4.560609288552596,"12":-0.5732488000712587,"13":0.25628722023413514,"14":-0.3663521778969005,"15":-0.3209703467577693,"16":-0.32735181244566497,"17":0.7439854860135816,"18":-0.47587441393462604,"19":-0.7053609276688492,"20":-0.42012646670833576,"21":-0.27280196017835123,"22":-0.280426779596822,"23":-0.5067740074121582,"24":-0.3936538039806929,"25":-1.4884033268164552,"26":-4.433227505832241,"27":-0.8442748934526105,"28":0.20466711351073533,"29":0.08791876106556046,"30":-0.07926432568839134,"31":-0.5377808147109371,"32":-0.2581690769750591,"33":1.0682710907717703,"34":-1.5932423213638416,"35":-1.053795431331385,"36":0.20487714768058227,"37":-0.1374425609194402,"38":0.5201510471031313,"39":-0.34703143002844744,"40":1.868158564199675,"41":0.2849996687600921,"42":0.5842302923667538,"43":0.12403724229207615,"44":-1.785710171609907,"45":-1.1095915624549693,"46":-0.20835013158555846,"47":-1.9669274724963166,"48":0.18857235186590401,"49":-0.13007924036206145}},"57":{"bias":-0.22992909024231314,"weights":{"0":1.196705753540764,"1":-0.6387486122031555,"2":2.9143719902045038,"3":-15.100220968315048,"4":-1.3761983802864675,"5":3.9638976970689255,"6":2.083844983306802,"7":-2.2417122711703126,"8":-1.860477474164742,"9":1.0881711269025016,"10":0.4337553265910697,"11":-4.667770646902807,"12":-0.5103007116265706,"13":0.6637912844547582,"14":-3.190364357929123,"15":0.10484172741771747,"16":-1.109838955758644,"17":1.7238896933318417,"18":2.645165977160389,"19":2.1937695623961133,"20":-0.14191867421956855,"21":-1.6768353246674035,"22":-0.28048953576218955,"23":-1.3326819840077146,"24":-0.3377243720028102,"25":1.654486482734896,"26":-1.0075959846170077,"27":-0.04862760918364316,"28":2.0675192793566772,"29":3.172689438571563,"30":-0.7284504476433202,"31":-8.076148761956116,"32":-0.12501400637538862,"33":12.731023942548275,"34":6.535736636347926,"35":6.8479980436208345,"36":1.0295624445924292,"37":0.43639254643339503,"38":-1.0310976487878243,"39":-0.12189708253879904,"40":1.3017512888141127,"41":0.8103143628701885,"42":-1.3515074543244006,"43":3.7565598875530437,"44":4.640834090777369,"45":-5.327006125607169,"46":0.4184882976164977,"47":0.07005268636076102,"48":1.5533217545237334,"49":0.8120561121290927}},"58":{"bias":-0.34330564010538506,"weights":{"0":-0.18897134641162736,"1":0.331690536948936,"2":-0.7061095593725794,"3":-1.4226543951858526,"4":-0.817659351803416,"5":0.12674111835831323,"6":-0.2313782920419596,"7":-1.0822017628292717,"8":-0.3423386598647678,"9":-0.21737254362260847,"10":-0.9580036204712613,"11":-2.7479430098059945,"12":-0.19556489635304786,"13":0.10775018499586284,"14":-0.25375968763888135,"15":-0.17593517491041136,"16":-0.5942868567670102,"17":-0.05640683983103434,"18":-0.6590015492210812,"19":-0.5177768879460836,"20":-0.4383240639611137,"21":-0.39712344675855216,"22":-0.09726413508784236,"23":-0.8239132355755356,"24":-0.14924316418078803,"25":-1.4315646375825815,"26":-2.4678427460303007,"27":-0.43327617000990915,"28":0.033963584740022666,"29":0.12077825216697988,"30":-0.41308192421746204,"31":-2.0149837446583128,"32":0.13044303549434763,"33":0.7232218944316418,"34":-0.022091345794303066,"35":-0.745497117956318,"36":0.048321880577068266,"37":-0.1538027756093625,"38":0.027781444795108617,"39":-0.36736179592845997,"40":0.28846780376499437,"41":-0.027982745445252612,"42":0.7728264186702034,"43":0.500502062088983,"44":-0.8722511756132508,"45":-1.0388746976363858,"46":-0.4199418157603703,"47":-1.048436651588277,"48":-0.26573725263409115,"49":-0.00848190900521502}},"59":{"bias":-1.4391269812258745,"weights":{"0":-0.07851130734767454,"1":1.1096075449900478,"2":-0.39018517420744286,"3":-0.19650156216087541,"4":-0.8364545210730066,"5":-0.019921604493589762,"6":-0.22217343383163576,"7":-0.12119034113041832,"8":-0.08168627263816167,"9":0.04219912929944241,"10":-0.8995756140373289,"11":-1.3145700141975114,"12":-0.13909915081127028,"13":-0.06642855178454819,"14":-0.3411843834614306,"15":-0.4601785825891529,"16":-0.3950799177100628,"17":-0.029367039045141048,"18":-0.8931318084197387,"19":-0.1943405522871602,"20":-0.41302226900953615,"21":-0.5117548269314695,"22":-0.18827946396007916,"23":-0.8572998880652796,"24":-0.15324332817080408,"25":-1.0880267419857015,"26":-2.1136523009454113,"27":-0.19446482885431376,"28":-0.041655615555203196,"29":0.09499320766576778,"30":-0.5412192537413418,"31":-2.1007488842630586,"32":0.13791637517152702,"33":0.6876147430130544,"34":0.4725302398440229,"35":-0.37830546587820185,"36":-0.18056678295126652,"37":-0.2589857825883548,"38":-0.33600998404980525,"39":-0.1686802467727205,"40":0.029646077813568747,"41":0.0018417720278291244,"42":0.0997334984060322,"43":0.6965861855657453,"44":-0.24055777212191135,"45":-0.4140178255747694,"46":-0.27753707673206235,"47":-0.4098659067069938,"48":-0.470242715220455,"49":0.09481187429523426}}},{"0":{"bias":3.2988768699006745,"weights":{"0":-0.659142618210981,"1":-3.1810305188695356,"2":-0.3445575686783126,"3":-0.024523560695228347,"4":-0.08210057810568154,"5":-1.3501483187416492,"6":-0.11789720659512391,"7":-0.16634385702900012,"8":-1.374351651484815,"9":-0.5107328008411,"10":-2.211208367299821,"11":-0.6611438732726821,"12":-0.40540830981251774,"13":-0.523149156080289,"14":-0.4238607818762464,"15":-1.1873780615938785,"16":-0.4341203520448735,"17":-0.45278768895271354,"18":-2.0072406938767955,"19":-0.4694845929843631,"20":-0.11540340274527248,"21":-0.5896996942274322,"22":-0.01519077592090346,"23":-0.4903436703313351,"24":-0.8149507994615756,"25":-0.544451828153894,"26":-0.8617470895960478,"27":-0.43831892170677295,"28":-2.431226938264165,"29":-0.033892572076966165,"30":-1.012137950978571,"31":-2.6120284829897624,"32":-0.4014757597372577,"33":-0.38868664593645325,"34":-1.7045746637644048,"35":-0.7519596443506846,"36":-1.2566539244020316,"37":-0.5269927147518381,"38":-2.062209331368636,"39":-0.3370137259144758,"40":-0.3904128677510456,"41":-0.5454587694395571,"42":-1.7788911716340376,"43":-1.6145790193432685,"44":-0.15949440084235667,"45":-0.29531906347429115,"46":-0.4646749990663922,"47":-0.24624113003874185,"48":-0.14840441228492943,"49":-0.6208001267188495,"50":-0.2376732091667474,"51":-1.7529078794909743,"52":-2.4511687365646053,"53":-0.43210502649117366,"54":-1.0526556976582064,"55":0.5843071996598124,"56":-0.501900646930674,"57":1.2515126901606206,"58":-0.12076572219346461,"59":-0.12595039967531285}},"1":{"bias":1.9934491815674047,"weights":{"0":-0.10229389817592224,"1":-1.618182311844765,"2":-0.06127637635330682,"3":0.10544515477462954,"4":-0.20486057311912714,"5":-0.2429454259191715,"6":-0.10828871712871896,"7":-0.046836921700636955,"8":-0.7725916467794567,"9":-0.4122528543697559,"10":-2.3169582368365216,"11":-0.7250166721529417,"12":0.07320004060890684,"13":-0.4095900870718414,"14":-0.08165716826646455,"15":-0.6695454334514126,"16":-0.09538623706294244,"17":-0.33374042251015884,"18":-2.54533691601268,"19":-0.11022108177203858,"20":-0.33589889161953507,"21":-0.6102581004768849,"22":0.1013783311852974,"23":-0.1809383259683974,"24":-0.08456330937696875,"25":-0.03153618759623514,"26":-0.6669834212712322,"27":-0.0018321287996484695,"28":-2.262613840803857,"29":-0.03232702028144256,"30":-1.4817679910095005,"31":-2.185126377021973,"32":-0.14467629578179841,"33":-0.30671418331452177,"34":-0.033748740454581296,"35":-0.783079045379523,"36":-1.634324358049593,"37":-0.20443638310409135,"38":-2.4621993930422117,"39":-0.2247530116003749,"40":-0.05461725448936898,"41":-0.554555761674689,"42":-0.8832415861756399,"43":-1.4665945759270456,"44":-0.16864562545870182,"45":-0.18382317902659492,"46":-0.2747133582771557,"47":-0.022629980895713355,"48":-0.379287960402139,"49":-0.6681017761253165,"50":-0.24333561582970586,"51":-1.4026734720542497,"52":-1.5628478988795935,"53":0.047161773259924426,"54":-0.986118857181434,"55":-0.2485022646478917,"56":-0.3934970140676636,"57":0.3649791055243946,"58":-0.3829155732866223,"59":-0.0861884045365188}},"2":{"bias":2.116032830015423,"weights":{"0":-0.5243370531836626,"1":-2.233381541075066,"2":-0.6803238093929408,"3":0.03584556518244919,"4":-0.1891041545994625,"5":-0.9047997487821962,"6":-0.22820819471221038,"7":-0.346999732195941,"8":-0.8209010628772837,"9":-0.34907062673911027,"10":-2.558962394475309,"11":-0.8875668856312063,"12":-0.05582055646137714,"13":-0.44654063915464626,"14":0.013264952922869045,"15":-0.7972545542467656,"16":-0.3730737117830215,"17":-0.08817095692427458,"18":-1.4892064695318803,"19":-0.27033951976920173,"20":-0.293047115529621,"21":-0.8069504172037292,"22":0.04991386480161893,"23":-0.24558050543196097,"24":-0.4655743405592506,"25":-0.2622504013830794,"26":-0.6236566129943446,"27":-0.05585156564524621,"28":-2.4134016872741726,"29":-0.27141852755793006,"30":-1.1297726005668995,"31":-1.5121879560429792,"32":-0.40185351906700195,"33":-0.23703678179815968,"34":-1.0964799677103838,"35":-0.3121508625004639,"36":-1.7850600936202767,"37":-0.5742823897654602,"38":-2.2146737457563774,"39":-0.39291652811643624,"40":0.04801667968541673,"41":-0.6189471512659152,"42":-1.352876930819527,"43":-1.6221692819557028,"44":0.12884230766343058,"45":-0.31560395844946204,"46":-0.34279751287235455,"47":-0.22021339528374326,"48":-0.31172584079913834,"49":-0.4321654771325997,"50":-0.08293953637077453,"51":-1.7707072221844884,"52":-2.56573654335447,"53":-0.3905889046487933,"54":-1.0609608159836519,"55":0.4875510798634966,"56":-0.45421853814181473,"57":0.8690348766348449,"58":-0.27631279299026734,"59":-0.21531757272629556}},"3":{"bias":2.1991617809508046,"weights":{"0":-0.13541365152435414,"1":-1.9029070950317641,"2":0.08158560059149653,"3":-0.21633677464969567,"4":-0.29185105105613596,"5":0.33527386700882356,"6":0.08071390717748832,"7":-0.14649374922471617,"8":-1.074761744593132,"9":-0.20677070245745846,"10":-2.4070265705402694,"11":-0.8897610864318096,"12":-0.28436045578617675,"13":-0.5739605004068665,"14":0.24836705586473976,"15":-0.7594798536044689,"16":-0.26402112344466605,"17":-0.17448302451350098,"18":-1.8531419894396488,"19":-0.3559894920859229,"20":-0.25465544764297576,"21":-0.4622227376311771,"22":0.04448994664730989,"23":-0.3959665161681323,"24":0.07649936413820366,"25":0.014704053044105277,"26":-0.763380091981692,"27":0.04875041372635555,"28":-2.453731172240157,"29":-0.16767702740217671,"30":-1.2357694611504852,"31":-1.834454545787299,"32":-0.0938193425712205,"33":-0.34461199188890673,"34":0.3101859854041353,"35":-0.6970123460774706,"36":-1.7578548846464965,"37":-0.40157246556705967,"38":-2.2780469594424604,"39":-0.3556255232492029,"40":-0.13572846970434235,"41":-0.35141145091815634,"42":-0.8692369155884923,"43":-1.3597383284938025,"44":0.18382917020044878,"45":-0.19886995294341706,"46":-0.2539338755398554,"47":0.06904928178050491,"48":-0.2482910302511737,"49":-0.5239528326572273,"50":-0.21050875054101503,"51":-1.7198259514939997,"52":-1.9564988030089587,"53":-0.28375048387046947,"54":-1.1456944509580558,"55":-0.3383566188459728,"56":-0.6338511775956439,"57":0.3600257930368222,"58":-0.11485699604846822,"59":-0.020705533208473154}},"4":{"bias":2.645236167490395,"weights":{"0":0.1269864473760224,"1":-2.0988029041613263,"2":-0.022558033585910055,"3":-0.10355742247995615,"4":-0.07954096008490463,"5":-0.40934308359741917,"6":-0.10321539477828681,"7":-0.32239089340620225,"8":-0.9790397894131323,"9":-0.47456442805428245,"10":-2.312204243681361,"11":-0.687528774289841,"12":-0.05459680764970247,"13":-0.4800096156810612,"14":-0.27201320895029646,"15":-0.8917769554310365,"16":-0.41678999067294165,"17":-0.14960016800120923,"18":-2.6388171091882016,"19":-0.4584674446049518,"20":-0.25965678004411663,"21":-0.45127188750862113,"22":-0.14098053853622203,"23":-0.4245261668737465,"24":-0.2582843675635189,"25":-0.30375505291206945,"26":-0.5711286571509041,"27":-0.4323681094131856,"28":-2.39007927340198,"29":-0.0658083080490797,"30":-1.2538610353894986,"31":-2.5845941655126414,"32":-0.46989054072059444,"33":-0.3762646345485458,"34":-0.3456641627984287,"35":-0.6243789170548149,"36":-1.4596463850484525,"37":-0.3178630320954241,"38":-2.474204493372063,"39":-0.4058749026041966,"40":-0.0946135621044568,"41":-0.4984110697796988,"42":-1.315021903302764,"43":-1.6061793185146769,"44":-0.18674659764895318,"45":-0.25815381905405377,"46":-0.2702764259847071,"47":-0.18874950361818263,"48":-0.2049293846353069,"49":-0.5878520273529142,"50":-0.18991467061399642,"51":-1.7553550882982178,"52":-1.5875693700307199,"53":-0.26430444842772866,"54":-0.8692365392759941,"55":-0.21332516986010017,"56":-0.6247368969923344,"57":0.9007810365063318,"58":-0.29599406599812966,"59":-0.10382278713936068}},"5":{"bias":1.3524102478714095,"weights":{"0":0.36493722674806756,"1":-1.3512527059515187,"2":0.15779719558736346,"3":-0.16867725083616414,"4":-0.2612121766401373,"5":0.4036396846065071,"6":0.13588762028168885,"7":-0.051545009470453595,"8":-0.8363765626224339,"9":-0.21259335574954275,"10":-1.8921837263963313,"11":-0.6401050293216912,"12":-0.19698808978601934,"13":-0.5060596197949209,"14":0.3001022795260194,"15":-0.5046902511434938,"16":-0.09374756991777519,"17":-0.21483413327289153,"18":-2.6485523263490243,"19":-0.41986706968660786,"20":-0.1407747614955307,"21":-0.422218325427077,"22":-0.24463412756203848,"23":-0.4783633636945727,"24":0.3226584909885111,"25":0.06789316989816754,"26":-0.7027299063341088,"27":-0.26932415207782234,"28":-2.2502136496398144,"29":-0.07007487692407866,"30":-1.3490214041981434,"31":-2.519316969887065,"32":-0.10577823485597232,"33":-0.37231490499646713,"34":0.4998103923977234,"35":-0.913548703395458,"36":-1.4251174467096115,"37":-0.3011715443483118,"38":-2.335267898905956,"39":-0.11403326350892422,"40":-0.2657634644729038,"41":-0.34503398877544633,"42":-0.9309775710269015,"43":-1.3372812166045276,"44":0.08265563717015906,"45":-0.1005259917812783,"46":-0.1223357563518565,"47":-0.04534558464895782,"48":-0.0886999765286511,"49":-0.4198136982798435,"50":0.012118020102675979,"51":-1.2663392930366972,"52":-1.1005144786755825,"53":0.0820769413001202,"54":-0.6353621132675172,"55":-0.6498525704188763,"56":-0.612919159125327,"57":0.1619684932243839,"58":-0.31367454525046706,"59":0.10892795532013914}},"6":{"bias":1.8364613948187565,"weights":{"0":-0.06438062374601324,"1":-1.2556614391285128,"2":0.2208909840078977,"3":0.014731530054380881,"4":-0.23185060592279225,"5":-0.09504026343503656,"6":-0.15271774681494937,"7":-0.3035485173701567,"8":-0.4049480427916961,"9":-0.34381124467001234,"10":-2.567525049833445,"11":-1.307980106649798,"12":-0.025563339700559795,"13":-0.23351079111169598,"14":0.07028480229781045,"15":-0.483592841491548,"16":-0.3138283680875573,"17":-0.009854427716030189,"18":-2.9685828070658915,"19":-0.05426648027784117,"20":-0.28431440496634325,"21":-0.7200193468660051,"22":0.02908280827298045,"23":-0.20593568726349282,"24":-0.0933392805633009,"25":0.11536725228505333,"26":-0.7440233593544469,"27":-0.08693020349643518,"28":-2.299210840550884,"29":-0.0696922244893409,"30":-1.7193417229230685,"31":-2.1208467054637095,"32":-0.03857439560467798,"33":-0.26857446174685773,"34":0.19010878277914098,"35":-0.19853424555868934,"36":-1.2614263511088424,"37":-0.4139815219368862,"38":-2.8129384491892675,"39":-0.25835990892693217,"40":0.08528850512328366,"41":-0.3662283252870636,"42":-0.9598505588986141,"43":-1.7582379066153644,"44":0.1888940503667094,"45":-0.10714453486364832,"46":-0.07305766636766356,"47":-0.19082034520950855,"48":-0.23984757008698118,"49":-0.6203130267476543,"50":0.019286846238074386,"51":-1.8058966434038537,"52":-1.3087797636129268,"53":0.19631228125987638,"54":-0.3176784857887199,"55":-0.4421525400569111,"56":-0.5198002753716279,"57":0.1281806983855802,"58":-0.3483396653259962,"59":-0.04482291569271537}},"7":{"bias":1.6832148824483362,"weights":{"0":0.2683671921508512,"1":-1.0963697686147709,"2":0.04604378342989738,"3":-0.09854061731166155,"4":-0.18517645419357776,"5":-0.06922724378170923,"6":-0.08848793593923514,"7":-0.0849743750972547,"8":-0.12269951792222425,"9":-0.49873232802776113,"10":-3.149131838139511,"11":-0.5812962225967588,"12":-0.207061813387001,"13":-0.5021855011434274,"14":-0.2827593161336592,"15":-0.5864069155196985,"16":-0.2714044263419152,"17":-0.05558295386501061,"18":-2.681108586800962,"19":-0.2732279258670935,"20":0.03479035871919828,"21":-0.6296368032047597,"22":-0.11500844171261791,"23":-0.3922341838773217,"24":0.20710359768265696,"25":0.0878285918381173,"26":-0.6232602315518012,"27":-0.10944119004549753,"28":-2.3199625851439345,"29":0.02016553216472905,"30":-1.335675669066298,"31":-3.0187726890301407,"32":-0.08699108014983828,"33":-0.3789414784421717,"34":-0.011899747259198854,"35":-0.05315087608786596,"36":-1.638454951384071,"37":-0.31339166806699204,"38":-2.4747573355598393,"39":-0.09967152257816207,"40":0.07420218291291425,"41":-0.48640618399707236,"42":-0.8488564333591583,"43":-1.1705448205703233,"44":-0.0755759364207082,"45":-0.27608806502245337,"46":-0.1481341456743548,"47":-0.21138070304538822,"48":-0.03220008133873224,"49":-0.6140054960695633,"50":-0.32034157529129437,"51":-1.6683919460077052,"52":-0.7826008212783332,"53":-0.24340608628101146,"54":-0.794428050519378,"55":-0.5231378101625966,"56":-0.5511881527102198,"57":0.6447480321279901,"58":-0.3697382832157217,"59":0.16075927233572554}},"8":{"bias":1.618058924109939,"weights":{"0":-0.005981280954186998,"1":-1.319175983260815,"2":0.10710676942840153,"3":-0.014857211483329049,"4":-0.07840915571639351,"5":0.40707585421320047,"6":0.2026068838188042,"7":-0.19100066119732853,"8":-0.667875468033615,"9":-0.25678320676017286,"10":-2.6766338063235207,"11":-1.1130496877528675,"12":0.06965667023279057,"13":-0.2480212748162093,"14":0.2708845326880576,"15":-0.5124455094183873,"16":-0.15096326122317755,"17":-0.3894846847390752,"18":-1.6206185621654576,"19":-0.36300162436192523,"20":-0.20816606157929599,"21":-0.6364632970636976,"22":0.08954709777674866,"23":-0.1419990772478893,"24":0.12166817338923111,"25":0.002315081727705364,"26":-0.45484792735193036,"27":-0.15630992221859905,"28":-2.5225119047116347,"29":0.1583262324502912,"30":-1.3395134674447198,"31":-1.5759999259898876,"32":-0.09623192499204486,"33":-0.2130594988028648,"34":0.8027560343340241,"35":-0.35545426808048847,"36":-1.98091558537923,"37":-0.5119003902806489,"38":-2.472911275912187,"39":-0.23399252071138107,"40":-0.12762291830646136,"41":-0.6073920202850162,"42":-0.5537746192451554,"43":-1.324074188616771,"44":0.19172428141513073,"45":-0.17299087789613107,"46":-0.2040753963368398,"47":-0.14737132721638177,"48":-0.3143007236227432,"49":-0.2727805802510922,"50":-0.1376343212035693,"51":-1.849013213202379,"52":-1.5642345913256381,"53":-0.17560017297161323,"54":-1.158150361375182,"55":-0.47810031927862773,"56":-0.45305894740770725,"57":0.07299990937859785,"58":-0.43518142175253766,"59":0.24813894012241985}},