{"layers":[{"0":{},"1":{},"2":{},"3":{},"4":{},"5":{}},{"0":{"bias":-0.7733958222910191,"weights":{"0":0.7235832748513519,"1":2.338920519568734,"2":1.1428272820412768,"3":0.37910350406631904,"4":-1.708073801008298,"5":0.8725097656561768}},"1":{"bias":-0.24921243681278624,"weights":{"0":-0.39903920632039225,"1":-1.6310646338838715,"2":-1.0872736601781616,"3":-1.9908418989086225,"4":2.2204553027981637,"5":-1.0284936672946057}},"2":{"bias":-1.354911308880578,"weights":{"0":1.9174800420252074,"1":-0.026950629217732308,"2":2.5416888262187034,"3":0.013140935281815579,"4":0.1709525214166877,"5":-2.1179684456593013}},"3":{"bias":1.7590904982993585,"weights":{"0":-0.8047435784577922,"1":-1.6875251408670104,"2":-0.29061800213435474,"3":0.05040010514339865,"4":-1.8534450092669368,"5":-1.6679636608163262}},"4":{"bias":-1.116432622915266,"weights":{"0":0.2554991592542201,"1":0.8728817349386995,"2":1.2628578966086756,"3":2.201768674415751,"4":-2.326345954059083,"5":1.3861060659343387}},"5":{"bias":1.0690902283754653,"weights":{"0":-0.9187847566742144,"1":-1.4060832293696626,"2":-0.49586490684603773,"3":0.11616817854555461,"4":-0.6704878808668349,"5":-1.5310689714859904}},"6":{"bias":3.834166051669544,"weights":{"0":-0.4695632901280381,"1":0.0990652161310168,"2":0.6855128855360298,"3":-3.333020642238081,"4":-7.314700284902094,"5":-3.0327354517077696}},"7":{"bias":-0.711903955907587,"weights":{"0":0.027202680775708806,"1":0.8870450853351523,"2":0.5945958861537778,"3":-0.10603987127140181,"4":-0.4244595299797064,"5":-0.2770356883026521}},"8":{"bias":-3.2177646748321553,"weights":{"0":2.0229007617447388,"1":1.6861051547030008,"2":1.2451508316484259,"3":-0.1843315932074572,"4":0.9789433648814045,"5":3.5609419299616527}},"9":{"bias":1.2884554260656569,"weights":{"0":-0.6115158470671248,"1":-1.672612692292983,"2":-0.46044587680119553,"3":0.5268196010680006,"4":-1.028700725617829,"5":-1.6718060087864888}},"10":{"bias":1.0792889870554254,"weights":{"0":-0.995782130601727,"1":-2.39398998373369,"2":-0.8596789277809465,"3":-0.6091178868557234,"4":2.5843688586398397,"5":-2.2855651596821605}},"11":{"bias":-0.6557274331654628,"weights":{"0":0.4191212665071678,"1":2.253856510902177,"2":1.1984025915833454,"3":1.1348675883391839,"4":-1.892972506590476,"5":1.2374447348258892}},"12":{"bias":2.300599454502489,"weights":{"0":-0.23837257989845068,"1":-1.8739769218100923,"2":-0.2463291314465204,"3":2.902873386433309,"4":-2.868813674963831,"5":-3.105359583079083}},"13":{"bias":0.0919887009397674,"weights":{"0":-0.2750387216188219,"1":-0.7115406178643072,"2":1.211922196064993,"3":1.3175771797689362,"4":-1.758547091254578,"5":-1.7497259107511434}},"14":{"bias":-0.20871392627247964,"weights":{"0":-0.09033446422000992,"1":0.12702360187317452,"2":-0.5275850154421192,"3":-0.8907441768557831,"4":0.8511808906728082,"5":1.32640099866216}},"15":{"bias":-0.5384086711635123,"weights":{"0":1.3748060479460236,"1":-0.1001638765990384,"2":0.3701424925065567,"3":-0.5427024468174136,"4":-1.3161694764101317,"5":-0.7657942338835941}},"16":{"bias":-0.700494911611822,"weights":{"0":-0.9542619681332998,"1":1.225736770605435,"2":1.4497057700879796,"3":0.41484903488874175,"4":-1.6746629095802406,"5":-1.4277862802003058}},"17":{"bias":0.4616127013003978,"weights":{"0":-0.7391093792506912,"1":-1.346880627746057,"2":-0.7499788816340732,"3":-0.13661189863421355,"4":0.5648999990337308,"5":-1.1073646191907702}},"18":{"bias":2.2466265796927116,"weights":{"0":0.5590972834380558,"1":-3.137971863741952,"2":-0.5390592429634883,"3":2.3505186009986674,"4":-3.8976607380018953,"5":-4.508522682699163}},"19":{"bias":-0.8439484249152036,"weights":{"0":1.7789012434970641,"1":-0.2916540896063676,"2":3.093522009651865,"3":0.6968785685693742,"4":-0.35291161894008066,"5":-2.793980160102028}},"20":{"bias":0.3068797705893227,"weights":{"0":-0.6552890890158587,"1":-1.0878611235866322,"2":-0.42256029335488166,"3":-0.25316620232638354,"4":-0.4690432345927295,"5":-0.8705692994004605}},"21":{"bias":-1.0018112911498105,"weights":{"0":-1.4478205089245293,"1":-1.6730425417844499,"2":-2.023528547950629,"3":-3.6533080433525873,"4":4.47754988584333,"5":-2.276626786398558}},"22":{"bias":0.3532645860652185,"weights":{"0":-1.010541087281513,"1":-2.580799413720545,"2":-1.6361710399961087,"3":-1.2238653818351857,"4":3.110395645873916,"5":-2.4138473618551486}},"23":{"bias":0.18927675782784753,"weights":{"0":-0.7934064172425513,"1":-0.8281726909682767,"2":-0.7330671179145235,"3":-0.5545708635806693,"4":-0.5474988990883086,"5":-1.0082774451977052}},"24":{"bias":-0.23339844549812472,"weights":{"0":0.2789368547345973,"1":-1.189744279067252,"2":-0.3640265587695374,"3":-0.9596705507946427,"4":0.7072564935604443,"5":-0.4181802286256636}},"25":{"bias":1.5856790886230188,"weights":{"0":-0.42559000690991244,"1":-2.143679002012523,"2":-0.5938019657458098,"3":1.6895296496635175,"4":-1.3041760185198685,"5":-1.9329626939260278}},"26":{"bias":0.6588777920153306,"weights":{"0":-1.681838744189451,"1":1.3007338808732387,"2":2.7082542856483967,"3":-0.4591870391011088,"4":-2.261442048872044,"5":-2.5523115508633585}},"27":{"bias":-0.7048071080115811,"weights":{"0":0.0983584602859495,"1":0.30202155142939086,"2":0.839402292546303,"3":-0.036656774099832874,"4":-0.7239669296337335,"5":-0.6597563230942698}},"28":{"bias":0.17708829756366493,"weights":{"0":-2.254808098035248,"1":-0.8993936603933667,"2":0.24859793007316983,"3":1.6746328866933369,"4":-0.8752268933117133,"5":-0.5660833680734618}},"29":{"bias":0.4295090328549384,"weights":{"0":-1.799188715443036,"1":-2.2815716300466016,"2":-1.584129219916772,"3":0.08502560563323991,"4":1.9349336296726303,"5":-0.45880780894394957}},"30":{"bias":-1.1214356374210195,"weights":{"0":0.3205182226433643,"1":2.147057536522101,"2":1.4061064623424615,"3":0.9701130540343297,"4":-1.5392083735392252,"5":1.0930818018427788}},"31":{"bias":-0.3987432791778154,"weights":{"0":0.4619770528489333,"1":1.4813907660620154,"2":3.3094756417964972,"3":-2.2560583213796406,"4":0.037168500167062184,"5":0.1974156965510061}},"32":{"bias":-0.34695379468508936,"weights":{"0":-1.5997023811741884,"1":0.8682610937744587,"2":-1.7825931793433947,"3":-1.5013793547410446,"4":-2.3759746548108693,"5":1.3250830861783482}},"33":{"bias":0.44711486106070814,"weights":{"0":-0.3969748416278809,"1":-0.5407137861576453,"2":-1.7610732576239656,"3":-3.193637785696123,"4":2.586134638875111,"5":-0.6476288209966233}},"34":{"bias":0.05347458938647146,"weights":{"0":-0.13942129904692807,"1":-1.033321783245931,"2":-0.8602537795149643,"3":-1.2738000606652036,"4":0.9196542862970165,"5":-0.7454655507087489}},"35":{"bias":0.039033868749933684,"weights":{"0":-1.4471052048685797,"1":-0.3330979041275484,"2":1.0773777751370728,"3":2.8712441738452967,"4":-2.731257324345609,"5":-2.1446712982309974}},"36":{"bias":0.6403414755966913,"weights":{"0":-0.037486347473277774,"1":-1.3421861585419266,"2":-1.0226830615521967,"3":1.4426228526220122,"4":-1.130813958171591,"5":-1.0946469391643805}},"37":{"bias":0.38782279101063744,"weights":{"0":0.5552715913422355,"1":2.17570757248048,"2":3.6979156154390034,"3":-1.1327171982051865,"4":-0.9415452887635603,"5":-1.3443318773602135}},"38":{"bias":0.3322587001178852,"weights":{"0":-0.4649720726975665,"1":-1.2917571345217618,"2":-1.0005138802888975,"3":-1.4709084995017598,"4":0.6887381659139818,"5":-1.0850516244979052}},"39":{"bias":-0.7095030185191188,"weights":{"0":0.37725581201529307,"1":0.6178490666063834,"2":1.3359006001934797,"3":2.785484814608515,"4":-2.4458660641832335,"5":0.9985918084248339}},"40":{"bias":-0.7583152640122219,"weights":{"0":0.08115316112338375,"1":0.5083561491691991,"2":1.8350219092551099,"3":3.492603440343459,"4":-2.3468657301399065,"5":0.983541798437422}},"41":{"bias":-1.3004652877698795,"weights":{"0":2.0992381654988304,"1":1.2588638930048401,"2":0.3001947864086098,"3":-1.836716586797526,"4":0.5772034784803565,"5":0.8258086925490957}},"42":{"bias":0.648258040469028,"weights":{"0":4.576695906903997,"1":-1.430844662597058,"2":-0.6335353443114029,"3":-4.880385982063401,"4":-0.9037667335413075,"5":-0.6203630528762843}},"43":{"bias":-0.2761362714158359,"weights":{"0":-0.49721979073624833,"1":-1.2216086472580985,"2":0.5682216963589134,"3":0.47209879429198137,"4":-0.4766871908722696,"5":-0.585509756463694}},"44":{"bias":-0.7225344603634567,"weights":{"0":1.313238264721592,"1":-0.3828625100844773,"2":0.35568766849512445,"3":-0.8037577147821061,"4":-0.0036594766434181426,"5":0.10880456502213937}},"45":{"bias":0.010830501789076062,"weights":{"0":-0.3757343291257722,"1":-1.2271423130572463,"2":-0.7801701361668882,"3":0.0005955599627960925,"4":0.1272794321942554,"5":-0.41351302168572407}},"46":{"bias":1.5200242281617569,"weights":{"0":-1.3963061019577874,"1":-1.2323918665943152,"2":-1.8354376011886293,"3":-1.580858151852763,"4":-0.43281862240293906,"5":-2.2477294080164674}},"47":{"bias":3.33565819614018,"weights":{"0":-0.605557956336537,"1":-2.8292496971313077,"2":-0.2320506991380274,"3":1.6990652644065019,"4":-3.81879940501466,"5":-3.860971706772113}},"48":{"bias":0.49952562638805253,"weights":{"0":4.580400143022585,"1":-1.7058882754728395,"2":-0.4815418694895804,"3":-4.317219220587647,"4":-1.0239308536065281,"5":-0.28376454984000066}},"49":{"bias":-2.118205029024657,"weights":{"0":1.6529559659746986,"1":1.8100220644444576,"2":0.9305777457017452,"3":-1.8831102190597635,"4":-0.3123503851317365,"5":1.1335030984452241}}},{"0":{"bias":-0.24736909711764035,"weights":{"0":-0.8040049276604764,"1":0.09287344979040167,"2":-0.6284524668975114,"3":0.3893562512564191,"4":-0.4930117105052559,"5":0.3346800607942511,"6":0.512800310415949,"7":-0.3420151817653208,"8":-1.1002193344215245,"9":0.26863353382178257,"10":0.6792093074016559,"11":-0.7657901489782093,"12":1.118107698393554,"13":-0.3134578169443494,"14":-0.27708951897845596,"15":-0.5505099571299801,"16":-0.42598897890860443,"17":0.4546928348587053,"18":1.0866019031860765,"19":-0.527566537607251,"20":0.20209050599494122,"21":0.8394098544082829,"22":1.0325042919050085,"23":0.28544106714220185,"24":-0.02500310287272652,"25":0.9031562936262482,"26":-0.4600430898728105,"27":-0.4166311090561283,"28":0.2901854793460665,"29":0.5007629790048311,"30":-0.7964897269385134,"31":-1.1681915975003747,"32":0.10070440185303015,"33":0.1080617823463882,"34":-0.024017304684574,"35":-0.07523842561419773,"36":0.5233222709797624,"37":-0.5276488765949954,"38":0.022251222487593373,"39":-0.669452309143641,"40":-0.23812354498855856,"41":-0.5510775893466,"42":-0.8281268865070912,"43":-0.14729849478364673,"44":-0.387420983338096,"45":0.023994125756811823,"46":0.3560583789148405,"47":0.9533248075462083,"48":-0.7776810309099821,"49":-0.9830931686678496}},"1":{"bias":0.13064337395396242,"weights":{"0":0.3610810977260511,"1":-0.07386165342034808,"2":1.3604709591820539,"3":-1.62191317780911,"4":0.18318135156973847,"5":-1.1425803495884597,"6":-0.8006457488808287,"7":0.5803728436936592,"8":2.559310438393671,"9":-1.3357134995442175,"10":-0.6424370833802374,"11":0.5376177038145491,"12":-1.652176451144039,"13":0.36723789674878343,"14":-0.10123267085783157,"15":0.9510509196790088,"16":0.2210348541665586,"17":-0.8032895139015881,"18":-1.2943371242608228,"19":1.2223914603156976,"20":-0.7305317606872239,"21":-0.3741441448990497,"22":-0.5949811540454089,"23":-0.8027468132960913,"24":0.1315515363616568,"25":-1.4735843367503005,"26":0.013369388893837828,"27":0.39844065643335697,"28":-1.15463223552539,"29":-0.7536513892007595,"30":0.34440201328393427,"31":1.2123038777976296,"32":-0.9168946823039723,"33":-0.13681648305092112,"34":-0.40413932506063016,"35":-0.08832019725719174,"36":-0.8715697526948439,"37":0.15047550951655517,"38":-0.537095665576952,"39":0.2143323491021552,"40":0.08475794056534217,"41":1.5265081029031364,"42":0.7391200226204614,"43":-0.092354910666483,"44":0.6177103218710944,"45":-0.46797377708277876,"46":-1.6095093819928308,"47":-2.5555748409685695,"48":0.6045239285482151,"49":1.6697167056887248}},"2":{"bias":0.02276150160760689,"weights":{"0":-0.7060355185062778,"1":0.6253623636532232,"2":-0.2525518844244151,"3":0.5249294572252718,"4":-0.8082693727720889,"5":0.7161458302138624,"6":0.8542864374354606,"7":-0.11350193163940639,"8":-0.9906292051549321,"9":0.6008262688550402,"10":0.7753855309932155,"11":-0.7700172568872398,"12":0.5814223472572058,"13":0.13083373497564318,"14":-0.1650222879248439,"15":0.0011838767328051997,"16":-0.48134727952174877,"17":0.4777997919352621,"18":0.5787717706721909,"19":-0.047956290170776725,"20":0.1316965296250569,"21":1.3399008613987695,"22":0.9612660038693319,"23":0.5525437383911818,"24":0.05614853715632744,"25":0.49623686582700244,"26":-0.49901838627595324,"27":-0.20204048114437254,"28":0.016826890516983075,"29":0.7489079548406293,"30":-0.8382875639747198,"31":-0.37995377669963104,"32":-0.16879633056796559,"33":0.7948857080743456,"34":0.4353520737052404,"35":-0.14297498496516198,"36":0.15267322275976344,"37":-0.5793589922926602,"38":0.5833384833317229,"39":-0.7509500227064896,"40":-0.7575336364311891,"41":-0.21062859815459223,"42":-0.15409728859876207,"43":0.1032880431718898,"44":0.08652493202814321,"45":0.3115347993579949,"46":0.7928634929802311,"47":1.0990591277303579,"48":-0.11131023682344329,"49":-0.5109224533226945}},"3":{"bias":-0.3135462141529653,"weights":{"0":0.17210409625441125,"1":-0.29832602135405434,"2":-0.022987244784919494,"3":-0.16869924072230552,"4":0.1435004535407274,"5":-0.219300065545992,"6":0.797180785928452,"7":-0.021388279182203367,"8":0.11682372236568687,"9":0.029033135885232715,"10":-0.28626929872967866,"11":0.04371620473238402,"12":-0.21867808314045867,"13":-0.34954654889742126,"14":-0.0395524047222839,"15":-0.17394833254012962,"16":-0.3140778419532213,"17":-0.2284093864454282,"18":0.24144332767785892,"19":-0.3344411451798779,"20":-0.09833117475624444,"21":-0.5943870427434244,"22":-0.34266906373743694,"23":0.03996200719780704,"24":-0.09912944139959134,"25":-0.07282128561408058,"26":-0.7033058990103491,"27":-0.08487482657777089,"28":-0.3059218202440942,"29":-0.10383219432876921,"30":-0.0876242537482084,"31":-0.09722428104073585,"32":0.2269066156065391,"33":-0.44799371109092173,"34":-0.23147728242279592,"35":-0.49460726390463455,"36":-0.016534738150936305,"37":-0.4104335718756176,"38":-0.014504910883655377,"39":0.44399650241704336,"40":0.5283499483336422,"41":0.46845031453374897,"42":-1.2106218127484352,"43":-0.1715372436884715,"44":0.03817662185085363,"45":0.052212333501521456,"46":0.018802411933990213,"47":-0.04390319055627371,"48":-1.1490930391173741,"49":0.2930853340382961}},"4":{"bias":-0.05689163227930931,"weights":{"0":0.010444435307020496,"1":-0.2880677827389183,"2":-0.790416338874497,"3":0.08847330754773607,"4":0.20332634385123396,"5":-0.21106493394293832,"6":1.5192202904635395,"7":0.10251480395873662,"8":0.08038441043110554,"9":-0.22243780331748048,"10":-0.3816137418569127,"11":0.2545841056666591,"12":0.31321283888148266,"13":-0.44112678937679395,"14":0.22201514291125066,"15":0.1433268193963284,"16":-0.16085534305130134,"17":-0.057668200819832136,"18":0.7085457347122223,"19":-0.7429419295067757,"20":-0.2636879566485798,"21":-0.7908350226005003,"22":-0.41973857281923727,"23":-0.08498384683289495,"24":-0.05359198192468212,"25":-0.12293713094938027,"26":-0.4331466437984454,"27":-0.18517710435967977,"28":-0.4623906731662568,"29":-0.23667800636780392,"30":0.27358640696782655,"31":-0.6431700712230441,"32":0.3436860457873013,"33":-0.7027203257456125,"34":-0.3041309349184795,"35":-0.5054878975746961,"36":0.039191810784511255,"37":-0.6565157266925684,"38":-0.3377613163191675,"39":0.4036224893851525,"40":0.4405829952226268,"41":0.02505024797637726,"42":-1.476554898394488,"43":-0.16925034559632687,"44":-0.25766515470472867,"45":0.03740261486423349,"46":-0.283543064892586,"47":0.4894913637651537,"48":-1.112218635939366,"49":0.1676173916502287}},"5":{"bias":0.20408905421780457,"weights":{"0":0.08683437464499123,"1":-0.5799544598262892,"2":-1.0607524373038637,"3":0.5164417078037882,"4":0.7193682805037928,"5":0.40156565345174655,"6":2.648704945862045,"7":0.040208038050147415,"8":-0.3950467748586321,"9":0.23206533145778957,"10":-0.3638328793688796,"11":0.23121992552772366,"12":0.8078941524658626,"13":-0.41549930096949017,"14":-0.007570898474371498,"15":0.3220689930346472,"16":-0.272770338158222,"17":-0.17615913563081295,"18":1.8856653880190826,"19":-1.1461971263066295,"20":-0.008417744342110952,"21":-0.9564998723349996,"22":-0.31882974168648215,"23":0.12198905865687874,"24":-0.3501859638236388,"25":0.5933719701795073,"26":-0.6320735688378912,"27":-0.26781862290667874,"28":-0.1472294548799391,"29":0.06783256012611266,"30":0.35559620753372584,"31":-0.6979331597262861,"32":1.1200923034106314,"33":-0.5910278420621418,"34":-0.38614365478978496,"35":-0.5273332955158424,"36":0.3003373463239756,"37":-0.9693283705588464,"38":-0.12379280616464822,"39":0.8422230118274912,"40":0.9974027340823921,"41":-0.0023830402808260884,"42":-1.657917644443385,"43":-0.3361390633376094,"44":-0.24125318071969962,"45":-0.017291284763021456,"46":-0.1618352711785211,"47":1.0187375575336524,"48":-1.4475254381028664,"49":-0.006687120386195473}},"6":{"bias":0.17826892988587192,"weights":{"0":-0.3336255285409695,"1":0.18405390321219445,"2":-0.2864050011881942,"3":-0.06248544975401728,"4":-0.1875303120241476,"5":0.14112770479325815,"6":-0.484593595044813,"7":-0.03998317838401985,"8":0.09362834957253677,"9":-0.2620032870589943,"10":0.062344700944623396,"11":0.023262492955004196,"12":-0.005242154567548814,"13":-0.2607597218013446,"14":-0.09187163148714388,"15":-0.1616962741769665,"16":-0.20031213845047452,"17":0.022214720279877,"18":-0.17505806501142987,"19":-0.20286738373195398,"20":0.07375505527063023,"21":0.17395972805026286,"22":0.3275470051970373,"23":-0.08290573879896654,"24":0.13301769069862346,"25":-0.031847127492783914,"26":-0.58184196189028,"27":-0.10996988945070452,"28":0.007455001929573375,"29":0.37996936850416707,"30":-0.07933467950898293,"31":-0.42010395470033696,"32":0.14947165120531164,"33":-0.12326609588691993,"34":-0.04120821348464613,"35":-0.36744383284031296,"36":0.10527508995794277,"37":-0.312209919084658,"38":-0.13966763652331846,"39":0.097728812483168,"40":-0.07346039086298971,"41":-0.057020440378107294,"42":-0.43794518869748156,"43":-0.05976515929783806,"44":-0.2959083476943242,"45":0.008416906831870177,"46":-0.2573657140702649,"47":-0.2033312871571098,"48":-0.7304396683606796,"49":-0.3055632532190685}},"7":{"bias":-0.14100783588617255,"weights":{"0":-0.3840974870720689,"1":0.3353799504518429,"2":-0.2360342953516361,"3":0.4405369025696369,"4":-0.7292800435710324,"5":0.4728748422156033,"6":0.3776828693250395,"7":-0.4402531153256289,"8":-0.9354168673820032,"9":0.2282991347597626,"10":0.24310465340844276,"11":-0.40443143918511987,"12":0.5452712191376469,"13":-0.2056177623382615,"14":-0.2220942400253707,"15":-0.15020294907230786,"16":-0.30500443922439685,"17":0.2148038478367115,"18":0.5132027015822215,"19":-0.3275799381136376,"20":0.08528343399089114,"21":0.5468464032910715,"22":0.5860854557335129,"23":0.26594718646916754,"24":-0.16717598615160034,"25":0.5942166100689527,"26":-0.28606432048383656,"27":-0.17592952412790486,"28":-0.032235218613863616,"29":0.1331512683126924,"30":-0.7005238686716075,"31":-0.5169623632327748,"32":-0.12635619788710536,"33":0.4599539068116701,"34":0.1653867551898824,"35":-0.32514834550889865,"36":0.09205458691439142,"37":-0.31887028423084973,"38":0.03680260153601594,"39":-0.34549802567781707,"40":-0.44111429671555025,"41":-0.057630793641354906,"42":-0.05568472873234082,"43":0.10093234749695555,"44":-0.3418057382982733,"45":-0.05545493894385238,"46":0.16557700408378523,"47":0.8393000392884166,"48":-0.06910993752564593,"49":-0.7128318322035452}},"8":{"bias":-0.046356950734079125,"weights":{"0":-0.5919637948486098,"1":0.638583560352251,"2":-0.19508499405986082,"3":0.44319066672286483,"4":-0.45843858745218186,"5":0.10549758015246818,"6":0.2614607798163351,"7":-0.25828857837414576,"8":-0.5523181297085028,"9":0.2928487993703886,"10":0.4776720743607224,"11":-0.36979016157445566,"12":0.3159791702299817,"13":0.009561976283483266,"14":0.07096623385915292,"15":-0.12321948778168577,"16":-0.21575633019894325,"17":0.2296448392229595,"18":0.365708547602604,"19":0.10547398125653908,"20":0.09812739025575494,"21":0.7192225800879379,"22":0.7625978990243412,"23":0.3059486102497122,"24":0.28448924960122474,"25":0.21209229413294514,"26":-0.24678737687118843,"27":-0.05704093271675585,"28":0.25346918351918385,"29":0.36020226525446486,"30":-0.6972749263290974,"31":-0.12254505503413934,"32":-0.020058768939100625,"33":0.6921756348894009,"34":0.38787728725482196,"35":0.02062825547333637,"36":0.1672264669133889,"37":-0.613325878706213,"38":0.2805880752676372,"39":-0.6906193866572576,"40":-0.41870840962893763,"41":-0.1584778431429831,"42":-0.11927896595809764,"43":0.27592667520289743,"44":-0.05106139695437949,"45":0.2913964521671811,"46":0.43495162002654947,"47":0.463441155245376,"48":-0.11584692298329262,"49":-0.4096664582435159}},"9":{"bias":-0.07919872047395625,"weights":{"0":-0.23074899876509006,"1":-0.0037856628436025762,"2":-0.25368706539111796,"3":0.024269346670552815,"4":-0.20177866402275577,"5":-0.03217283230256993,"6":-0.3438748587222387,"7":-0.20167008533944641,"8":-0.30118156748112884,"9":0.18200302144555702,"10":0.2942143829960544,"11":-0.040950315530024255,"12":0.599567355269446,"13":-0.3277677487814263,"14":-0.09982842809476453,"15":-0.21992181341672207,"16":-0.11077676722324775,"17":0.12595652310446936,"18":0.40584081569480385,"19":-0.3164747329203824,"20":-0.209633054676667,"21":0.06967864185467257,"22":0.21448524948887254,"23":-0.06369642164249041,"24":-0.01674592520490079,"25":0.41124785736960656,"26":-0.48895316909730124,"27":-0.24318387247561823,"28":0.25398050146421053,"29":0.29455583170084015,"30":-0.31153164879760076,"31":-0.7603806405031496,"32":-0.05816316049203513,"33":-0.3044186595629846,"34":-0.009014628837306079,"35":0.0078072135118734615,"36":0.28815865361162274,"37":-0.3568796562273864,"38":-0.3167322207917185,"39":-0.048685687767844994,"40":0.06841000811699334,"41":-0.49033815633185246,"42":-0.970542803653471,"43":-0.047047338660825604,"44":-0.15765100400442572,"45":-0.09939570026842977,"46":-0.2401567815970506,"47":0.31375848980859994,"48":-0.8582778019258278,"49":-0.6467302798455676}},"10":{"bias":-0.07474241496336427,"weights":{"0":-0.3293109523643993,"1":0.06784890982102709,"2":-0.11674011764495892,"3":0.04905650288696097,"4":-0.10736260158564315,"5":-0.19523527593249076,"6":-0.04615861772660473,"7":-0.031009064543266192,"8":-0.00759889240343317,"9":0.04564757775911838,"10":0.025379450939493935,"11":-0.039552917838074055,"12":-0.12716993983880268,"13":0.023339293569023842,"14":-0.17001364098599833,"15":-0.2812282948747055,"16":0.0358739570135671,"17":0.0020278665759295043,"18":0.04897718410763913,"19":-0.31366517476454403,"20":-0.11515524824202157,"21":-0.24963435202116463,"22":-0.1947812323471723,"23":-0.11591440101228058,"24":-0.2106090401993817,"25":-0.12875264464950228,"26":-0.28309843875891055,"27":-0.32443779878503304,"28":-0.11261883659191314,"29":0.12284069236020634,"30":-0.20251552102904383,"31":-0.23545403821169322,"32":-0.18153494267924075,"33":0.043292424115726647,"34":0.10776467614666348,"35":-0.16948238195844473,"36":0.06132365671110059,"37":-0.08393046650552845,"38":-0.12242831911873325,"39":-0.06775402077138068,"40":-0.11049495773002463,"41":-0.057097926954170014,"42":-0.4368715916644843,"43":-0.27404186074119496,"44":-0.020718340037297077,"45":0.1764110279160109,"46":-0.078293012086768,"47":-0.0193557569162381,"48":-0.4102912880301425,"49":-0.32209322861142026}},"11":{"bias":-0.1364269476945481,"weights":{"0":-0.44475668606113145,"1":-0.14151064291486073,"2":-0.22390736276096748,"3":-0.03500491585473264,"4":-0.25813401886591497,"5":0.20897857511669313,"6":-0.1489135272806868,"7":-0.06713401769629783,"8":-0.22617180084197724,"9":0.25025891097220687,"10":0.24631106235885653,"11":-0.2501683565155392,"12":0.5461165414072628,"13":-0.190373844983364,"14":-0.10022798773717771,"15":-0.36818368108957417,"16":-0.3588938576828005,"17":-0.05513678968862283,"18":0.22526148310100308,"19":-0.39971634746615614,"20":-0.2966354261636296,"21":0.0622656077834472,"22":0.22443289308056108,"23":-0.16687067533215844,"24":-0.044231903053732105,"25":0.5260549365419518,"26":-0.37112327920823523,"27":-0.33987388244031125,"28":0.2725525265831827,"29":0.491853922842299,"30":-0.10423893299484917,"31":-0.8750607486759306,"32":-0.21279948529800066,"33":-0.1100700399712577,"34":-0.05417981185337855,"35":-0.28204005350237876,"36":0.3310969260968229,"37":-0.7377028405331537,"38":-0.1403608357721992,"39":0.13161893274398304,"40":0.04628855792280078,"41":-0.4230649729533884,"42":-0.998498751385923,"43":0.006218524422369003,"44":-0.186283783809303,"45":-0.07530582221012665,"46":-0.1547117531836045,"47":0.36299358941468207,"48":-0.9510470271721101,"49":-0.2683397574853573}},"12":{"bias":-0.3312671449160309,"weights":{"0":-0.24781171544790093,"1":-0.023594285185231455,"2":-0.3323113174639105,"3":0.1642653385118896,"4":-0.3317870346926543,"5":0.32722241286239767,"6":0.6249216386344199,"7":-0.1896259305583394,"8":-0.7408245512732643,"9":0.08732061241163687,"10":0.4074410265246874,"11":-0.40543801320807904,"12":0.681535063657573,"13":-0.24484131621154592,"14":-0.20979299254432482,"15":0.03399290480178765,"16":-0.27618365852986976,"17":0.1806049505469013,"18":0.8520148960777251,"19":-0.3681498512123797,"20":0.18953986341487805,"21":0.23538739446190704,"22":0.14193776970531174,"23":-0.005226010937457742,"24":-0.10820648117417268,"25":0.2754441966777002,"26":-0.2345894587042668,"27":-0.22742280811882176,"28":-0.1407101746342623,"29":-0.09909321661476313,"30":-0.3908015003779088,"31":-0.49963747948901227,"32":-0.12217664548623106,"33":0.1152955827838134,"34":0.11680446286315478,"35":-0.10625299339730142,"36":0.15678894812279284,"37":-0.3117492029877433,"38":0.06374214308073205,"39":-0.4264589166862615,"40":-0.012161765697398639,"41":-0.25708590345630766,"42":0.03733961084037992,"43":-0.21935399684286896,"44":-0.06213331561786261,"45":0.073136435327511,"46":0.22689460468111486,"47":0.5227946330342416,"48":0.09194668644000206,"49":-0.41962367838253706}},"13":{"bias":-0.061353924651970385,"weights":{"0":0.38534108459683897,"1":-0.41275957119605156,"2":1.7135669631202861,"3":-1.3086848379287859,"4":0.33185554955519553,"5":-1.2468718200620081,"6":-0.741879145271593,"7":0.511459419535076,"8":2.518263805441056,"9":-1.120385915064073,"10":-0.8716300870640729,"11":0.1648644509797516,"12":-1.9167640424149224,"13":0.45003632594590487,"14":-0.11354752927571693,"15":1.0216664519917193,"16":0.18144065224390046,"17":-0.9679482151407938,"18":-1.3734774165789851,"19":1.1117133043672336,"20":-0.8481161146276502,"21":-0.3185992905061734,"22":-0.5014197614195622,"23":-0.6782224684627307,"24":0.003818734188786157,"25":-1.4741438070773574,"26":0.06553008942510287,"27":0.666145846682583,"28":-1.1258347162912878,"29":-0.872448328532897,"30":0.3466686690063071,"31":1.2944686945329624,"32":-0.779198079552048,"33":-0.10593906012376285,"34":-0.23789644562235465,"35":-0.21181273850603113,"36":-0.7668925113860664,"37":0.445805022725455,"38":-0.49001367897159576,"39":0.17926357876110402,"40":-0.013508039548413312,"41":1.4313176264975827,"42":0.7216292003010385,"43":-0.17244604095132296,"44":0.9455210902648877,"45":-0.5682540109171045,"46":-1.3699337543570393,"47":-2.5381028255123734,"48":0.7708448977477608,"49":1.4073590070796487}},"14":{"bias":0.7824166108546334,"weights":{"0":-0.17877058590846598,"1":1.3544077098467233,"2":-0.28918469095505206,"3":-1.1232039234550317,"4":0.23848299870229772,"5":-0.47639542636861304,"6":-2.199455682458286,"7":0.20808062924429913,"8":1.4481091588629464,"9":-0.7180598279622246,"10":0.3969106587678754,"11":0.043651427298739234,"12":-2.6262929950273635,"13":-1.3792694231302371,"14":1.7079595949148467,"15":-0.7345161631865481,"16":-1.5692167616002346,"17":0.4619808408910869,"18":-2.883881378866795,"19":-0.6400615687694903,"20":-0.1348575892404911,"21":1.1369348125336396,"22":0.7176997508348762,"23":-0.23364256943508552,"24":0.6276803939077805,"25":-0.9721357588196468,"26":-2.077536873549458,"27":-0.38319044305061123,"28":-0.7554878969830733,"29":1.2070860238143677,"30":0.08566658855211742,"31":1.04331655774478,"32":0.6776373134838862,"33":1.2913590383000848,"34":0.6685796266299646,"35":-2.017054194844661,"36":-0.8665094547325821,"37":-1.1139986104196258,"38":0.3849841379486592,"39":-0.07932285281082149,"40":0.09628359373054177,"41":1.394955288185102,"42":-1.0244155820193106,"43":-0.3139800690923246,"44":0.7311885520284092,"45":0.3466598841944317,"46":-0.09374979649731009,"47":-2.275333998453375,"48":-0.802164827034836,"49":1.6404369172891242}},"15":{"bias":-0.08337719992609885,"weights":{"0":-0.16508961701892533,"1":-0.3033989190282833,"2":-0.4311721398368096,"3":0.02542532543248466,"4":-0.24769814986724834,"5":0.17530451191706914,"6":0.2514657017850385,"7":-0.255883816865227,"8":-0.16731526167899474,"9":0.030285897456460428,"10":-0.02960723471853124,"11":0.028543894709458086,"12":0.1887794195386866,"13":0.04481871168315707,"14":-0.15233146613094187,"15":-0.09322122461417465,"16":-0.18632354433181544,"17":-0.06983239998369382,"18":0.20548426461218264,"19":-0.06631810295628014,"20":-0.2506962797027367,"21":-0.13331506549184854,"22":0.17022927572167948,"23":-0.22228997038514756,"24":-0.2227315841128475,"25":-0.03661958388143178,"26":-0.4736634224255363,"27":-0.10721846451538793,"28":0.04704701004931456,"29":-0.0010205479971244053,"30":-0.3579750260001481,"31":-0.4051481227110919,"32":0.05168818027880256,"33":-0.26428633060830603,"34":-0.06370356411002781,"35":-0.3406563059265261,"36":-0.06134415776827331,"37":-0.18342170887081627,"38":-0.1422319175375042,"39":-0.18465785991469488,"40":-0.003900877105697873,"41":-0.2197799938204947,"42":-0.43409210480060295,"43":-0.16496556773641932,"44":-0.18365501107152843,"45":-0.03650445575215317,"46":0.11218500169072843,"47":0.18529952116564707,"48":-0.2797728990251993,"49":-0.12480715897287094}},"16":{"bias":0.39831821852946925,"weights":{"0":1.3661514862911597,"1":-1.3146090268307433,"2":0.1367823983450627,"3":-0.3991611271432144,"4":1.96639575820337,"5":-0.5875206611454549,"6":-0.9058986144204116,"7":0.6254620323467704,"8":1.5414519783561114,"9":-0.3745997631883743,"10":-1.5168596823860778,"11":1.8136777399378734,"12":-0.30689769343613404,"13":0.05691887583959498,"14":-0.048992779868981526,"15":0.596226761816861,"16":1.0270397957113946,"17":-0.28254680354614115,"18":-0.27337099766915157,"19":-0.06658204021118688,"20":-0.05425626883610545,"21":-2.8040349398628073,"22":-1.7372935597067316,"23":-0.12931858616697184,"24":-0.32974875100370554,"25":-0.42497801160314097,"26":0.637202888167683,"27":0.48652536575677013,"28":-0.020118500307893656,"29":-1.3504214665638037,"30":1.4212004489380694,"31":0.4206703376075914,"32":0.600173023851166,"33":-1.7377261246838784,"34":-0.3936974107273749,"35":0.053064399552317995,"36":0.325710925223325,"37":1.0932200920677997,"38":-0.3815043843641959,"39":2.091175622220234,"40":1.9387812876987556,"41":0.5839431313354281,"42":0.1667736743020979,"43":-0.014786662363598007,"44":0.11199645935162267,"45":-0.16073347955896813,"46":-0.9647966379233607,"47":-1.087384438635067,"48":0.12647565835795013,"49":0.7678816684598674}},"17":{"bias":0.3054692533469592,"weights":{"0":-1.0549805922471223,"1":1.4642055509694607,"2":-0.20088461784727535,"3":1.636871167517923,"4":-1.053101495452348,"5":0.9886018562515093,"6":1.0606282423677411,"7":-0.6582422513138342,"8":-1.3405512953731216,"9":1.4006003812223695,"10":1.873420584968918,"11":-1.3286623716949622,"12":1.0837893927804882,"13":0.447415003270959,"14":0.10217203076319933,"15":0.3670007032374122,"16":-0.9455800843629074,"17":1.0786527085941258,"18":1.8797220063745539,"19":0.15973572230726948,"20":0.9233421526638462,"21":1.9845886593420226,"22":1.886642108754887,"23":0.869312357630256,"24":0.9786436218082258,"25":1.598008285849953,"26":-1.1846691590413283,"27":-0.28857804186299324,"28":0.35723832923487464,"29":1.286663540443165,"30":-1.4454987281520777,"31":-0.6734638108745016,"32":-0.5076159144136845,"33":1.3885336422775783,"34":0.9995298432101735,"35":-0.08602942259071716,"36":1.2381377253736643,"37":-1.322301969936905,"38":1.3185214331907176,"39":-0.9103246840376976,"40":-0.8849082203474379,"41":-0.6033140044974087,"42":0.6729706188343195,"43":0.6869664951203633,"44":0.41097709502671637,"45":0.9187926338214064,"46":1.5473784817552638,"47":2.170937853889764,"48":0.9614241713393809,"49":-1.2981048503798447}},"18":{"bias":-0.24697164610733124,"weights":{"0":0.2726154531465221,"1":-0.6665651533398457,"2":-0.5649272733735263,"3":-0.38248681387798417,"4":0.6269564816776573,"5":-0.2439617990785141,"6":1.1550231634791726,"7":-0.18650642292083314,"8":0.2193202289515411,"9":-0.19636283655619013,"10":-0.6830056233889537,"11":0.311562874564738,"12":-0.43333240114275234,"13":-0.6812519521023054,"14":0.25968954960601354,"15":-0.05244388926385524,"16":-0.3868126809251312,"17":-0.17882182417622997,"18":-0.15432632970891982,"19":-0.5211016880914039,"20":-0.3544288397826073,"21":-0.6351516054454601,"22":-0.7450721245722678,"23":-0.2514619372183583,"24":-0.3082410953666377,"25":-0.46534244785656664,"26":-0.8369959771735846,"27":-0.13769654243341475,"28":-0.47300609016213474,"29":-0.20033958427278425,"30":0.15371650542964616,"31":-0.3047675547648047,"32":0.7677222313277804,"33":-0.935853024769175,"34":-0.2733802864196505,"35":-1.0133942574835821,"36":-0.4455055465814553,"37":-0.37533351041690244,"38":-0.3189615361115212,"39":0.46174987500679626,"40":0.7800774574069953,"41":0.5681092677341699,"42":-1.3600648996172489,"43":-0.31363261817192556,"44":-0.27622070601648663,"45":-0.03842620063697667,"46":-0.20098332104916308,"47":-0.44027950093858903,"48":-1.23297994822522,"49":0.3805799061856013}},"19":{"bias":-0.07882419721345457,"weights":{"0":-0.696517121938435,"1":0.6663903235349067,"2":-0.2076074044054502,"3":0.5044787094233352,"4":-0.8793491244793993,"5":0.1675741180914962,"6":0.6597825154401843,"7":-0.13703353573587718,"8":-0.7480562827478776,"9":0.34696300640462935,"10":0.706018188493678,"11":-0.5429557882439044,"12":0.4730494594038184,"13":-0.19662795378133271,"14":0.10729670393163268,"15":-0.26032989118686145,"16":-0.29657629259134277,"17":0.41671296140808534,"18":0.19465862418953336,"19":-0.22462059139346477,"20":0.04182204614784569,"21":1.298745579987338,"22":0.8819492894376288,"23":0.36686397026029527,"24":0.347163420019408,"25":0.42074299209416577,"26":-0.4632644682369871,"27":-0.13574205228676467,"28":0.05870458376562681,"29":0.6253209237547827,"30":-0.6104454020826701,"31":-0.264729446152104,"32":-0.21021931165625057,"33":0.8516271503066495,"34":0.2907302730204144,"35":-0.17022485296555775,"36":0.0631875485323296,"37":-0.5226044614948523,"38":0.323926037224198,"39":-0.654162690535293,"40":-0.8417672018541089,"41":-0.2693585937608593,"42":-0.11822180229657096,"43":-0.06727759653277453,"44":-0.24968163139757313,"45":0.1490256467323829,"46":0.6782071126632976,"47":0.6063728309455467,"48":0.036546268999175714,"49":-0.46544068269882827}},"20":{"bias":-0.3046399164256559,"weights":{"0":0.25091576567969404,"1":-0.5726950500059761,"2":-0.31709536734319205,"3":-0.22825326790039233,"4":0.666362471994351,"5":-0.20021336846762972,"6":1.3073516906132352,"7":0.022163879287529907,"8":0.30384879475477444,"9":-0.30154752645847627,"10":-0.9206837949890952,"11":0.12280355677768214,"12":-0.7859959371549414,"13":-0.9316677687587473,"14":0.3524161887392108,"15":-0.09430876474862343,"16":-0.47685826088228994,"17":-0.29193904690118605,"18":0.13053132423807656,"19":-0.6098826449688235,"20":-0.2847774155762338,"21":-0.9364174351942127,"22":-0.599771738052435,"23":-0.17136669931951812,"24":-0.4922078086372621,"25":-0.39487336899592507,"26":-1.3218576822298918,"27":-0.15528994316272482,"28":-0.86412980562577,"29":-0.21968455535866452,"30":0.44894559989050214,"31":-0.11939712602406455,"32":0.705253377308892,"33":-0.9828986006075972,"34":-0.26855223092976577,"35":-1.503697700389763,"36":-0.47534923054367184,"37":-0.5146684571526499,"38":-0.2511735405428329,"39":0.8123913135791729,"40":0.8905870590558107,"41":0.7613832957888533,"42":-1.8072767732424835,"43":-0.5378272028457834,"44":-0.2252873174886325,"45":-0.1643895900753212,"46":-0.32564882829681147,"47":-0.46702682369644666,"48":-1.6720118839619997,"49":0.49799725969330894}},"21":{"bias":-0.30223579273975204,"weights":{"0":0.1578153495267074,"1":-0.3572347028043645,"2":-0.6145934042067766,"3":-0.3106611430483687,"4":0.32646913339152045,"5":-0.15111467092279063,"6":0.7280387440014479,"7":-0.2390273705534005,"8":0.14872868840638254,"9":-0.2227272283651912,"10":-0.5034901400974263,"11":0.28348985203152877,"12":-0.47101979834792734,"13":-0.5284728725714555,"14":0.10288090377021238,"15":-0.26741221121882575,"16":-0.05775389014457077,"17":-0.3222495099187481,"18":-0.09218444898821673,"19":-0.7857617083616127,"20":-0.010646206840110486,"21":-0.8963706169181793,"22":-0.627482324257092,"23":-0.07714435577826702,"24":-0.34023474203379434,"25":-0.18101531441382984,"26":-0.5305727968486404,"27":-0.17747840665001358,"28":-0.22277916530096145,"29":-0.337431207694891,"30":0.047203908729636486,"31":-0.11784716353862336,"32":0.6265285201321383,"33":-0.6270650316030395,"34":-0.15356391110819312,"35":-0.7868103209089864,"36":-0.05355921360401507,"37":-0.4232499065186673,"38":-0.01192978674402382,"39":0.47781495497272913,"40":0.6791056726662265,"41":0.35091324035547444,"42":-1.0458009103115307,"43":-0.11398004755097592,"44":-0.2330768961457722,"45":0.015808516352356767,"46":-0.350910120891361,"47":-0.2288334045172634,"48":-0.7963315342563387,"49":0.26963477773929156}},"22":{"bias":0.2641850679779267,"weights":{"0":0.17667562392105923,"1":-0.630026804906997,"2":-0.6340700432749559,"3":0.4581281437514157,"4":0.6400374606534224,"5":0.14980162621444218,"6":1.6599913924845462,"7":-0.15752254351595965,"8":-0.26242108447745316,"9":0.3231030599558249,"10":-0.2209846547479239,"11":0.31149020710805064,"12":0.6558199412911545,"13":-0.22825445329505953,"14":0.3383660026495773,"15":0.16172872996883755,"16":-0.0662356156130559,"17":0.12323826243477659,"18":1.2826186416743215,"19":-1.1568460955679674,"20":0.2832636048892501,"21":-0.9971800389261064,"22":-0.372749826918529,"23":0.11989681352931539,"24":-0.20863289826313758,"25":0.4009963464048889,"26":-0.4823648124543006,"27":0.017063536099129528,"28":-0.13802867404660984,"29":0.031247696407922004,"30":-0.045808047165443996,"31":-0.9245405357570073,"32":0.5938828032844768,"33":-0.5739058436410334,"34":-0.22390638357653717,"35":-0.23352662516241335,"36":0.42063163436490614,"37":-0.9050030471079946,"38":-0.2659633646246311,"39":0.8920993065245993,"40":0.8441730061457151,"41":0.1566825676511676,"42":-1.5992499628896726,"43":0.08464025420381664,"44":-0.17480627307400262,"45":0.22116818411620748,"46":-0.26839387734432363,"47":1.0712780168465834,"48":-1.592268337891059,"49":-0.3525442618783532}},"23":{"bias":0.20284281334691773,"weights":{"0":0.26933871688637057,"1":-0.5103575461054065,"2":-1.0244284683233975,"3":0.5083533181109258,"4":0.666308257064143,"5":0.06508640002772564,"6":2.330211261457056,"7":-0.14559464396044686,"8":0.020361806110124378,"9":0.4572564968697087,"10":-0.3592134092515727,"11":0.13768631877169496,"12":0.9286318298053011,"13":-0.25876853300611713,"14":0.2207378126563319,"15":0.11839298141972325,"16":-0.14857441666048887,"17":0.05407878580504494,"18":1.5040713323316948,"19":-1.1388787295403848,"20":0.2644375910441364,"21":-0.9154569476953306,"22":-0.3458369665286123,"23":0.05043250798126357,"24":-0.07053685247437406,"25":0.5635031120141785,"26":-0.5759769129194571,"27":-0.09362227052188833,"28":-0.1189623714325301,"29":-0.005323506138971395,"30":0.25744459407933,"31":-0.8593345548336027,"32":1.0269038997562336,"33":-0.9598557082386115,"34":-0.40197530056508773,"35":-0.3429592395048485,"36":0.5968057890900271,"37":-1.1124784981807962,"38":-0.4147545831382236,"39":0.7952634307043783,"40":0.8056014191608009,"41":-0.04687947845118845,"42":-1.525327028944139,"43":0.018514499724738363,"44":-0.15144622088305373,"45":0.042468343955858176,"46":-0.09457392141881478,"47":0.8673903670119129,"48":-1.2399584801803465,"49":-0.35140276702649553}},"24":{"bias":0.2733000659072595,"weights":{"0":0.04563618291389998,"1":0.2973167287004488,"2":0.19121136669128555,"3":-0.21956907999172118,"4":0.09204139680770117,"5":-0.23873472831554005,"6":-1.422153818400887,"7":0.017422958612407377,"8":0.7907149057199889,"9":-0.06688264737401849,"10":0.2033336449417093,"11":0.11942137269781374,"12":-0.6162283468106902,"13":-0.16048822065514914,"14":0.20994353606205085,"15":-0.16242188231632101,"16":-0.20729092922657957,"17":0.2557992464540993,"18":-1.360441091271606,"19":-0.07774869901834384,"20":-0.13552556302176116,"21":-0.15013287037747633,"22":0.11509779963673945,"23":0.02349293421194218,"24":0.07239068972045684,"25":-0.3349551543375963,"26":-0.35838088321104594,"27":-0.022543658372159166,"28":-0.06615489322288176,"29":0.015703244579012943,"30":-0.017670045818368407,"31":0.4711948248510822,"32":-0.13686290458772313,"33":0.11374076413914272,"34":0.10360979430934994,"35":-0.2932562031783249,"36":-0.37690157268253505,"37":0.145632601873522,"38":0.10245453768912906,"39":0.18889611447450583,"40":0.05793586072085765,"41":-0.01018457836081398,"42":-0.029866277061627963,"43":0.12589839321209273,"44":0.22361800391571368,"45":0.08041783909232916,"46":-0.25347798564659946,"47":-1.1278854931140618,"48":0.06565068348628607,"49":0.23359810212933446}},"25":{"bias":0.04772814182464239,"weights":{"0":-0.47025710452704267,"1":0.0640604029154898,"2":-0.05828846979302644,"3":0.3575092114697472,"4":-0.26613624771441763,"5":0.1435868814627325,"6":0.2825967458269704,"7":-0.23442281714431842,"8":-0.38992641163382014,"9":0.28800628097339814,"10":0.45803706499091623,"11":-0.4908933918916317,"12":0.01459493642125272,"13":-0.24180166002134681,"14":-0.13580161320649503,"15":-0.09467059768106588,"16":-0.08275406580063469,"17":0.2121678600523201,"18":0.08604756817152807,"19":-0.2973584587459751,"20":-0.14439172118065297,"21":0.48594629296191616,"22":0.2158878828292215,"23":0.04370053025128139,"24":0.1731837802526603,"25":0.3140827020697232,"26":-0.35001570715601826,"27":0.0302167637907426,"28":-0.15656331676884777,"29":0.039746726265237224,"30":-0.31163502786759456,"31":-0.3114529962238715,"32":0.032671596039227,"33":0.1608475918714344,"34":0.08462614058041237,"35":-0.011348190710078193,"36":-0.03677431068043082,"37":-0.4509600340555783,"38":0.22072788704654875,"39":-0.08700370795090512,"40":-0.05912012905120915,"41":-0.039241043928853026,"42":-0.03303662727090985,"43":0.08435698906380001,"44":-0.05366865865019426,"45":0.11891290407267416,"46":0.11075680424078302,"47":0.27013288381265904,"48":-0.12364267639076622,"49":-0.34947749279323903}},"26":{"bias":-0.05332702063595228,"weights":{"0":0.19828234491535954,"1":-0.5495614692522662,"2":-0.16609800577045494,"3":-0.18087326495796624,"4":0.4181106412163435,"5":-0.37454893373775056,"6":0.6033245508619852,"7":-0.07376188457883422,"8":-0.010403911182554907,"9":-0.23447850440996784,"10":-0.6886894613403657,"11":0.2654709781305583,"12":-1.0374377237354793,"13":-0.7569360149296867,"14":0.22216612378041412,"15":-0.2517775411151746,"16":-0.4682948964571304,"17":-0.32460436528790865,"18":-0.2248217928219668,"19":-0.42152587835566946,"20":-0.20425463445463352,"21":-0.7537420802037901,"22":-0.5585044142910004,"23":-0.23800845618431252,"24":-0.11776097886328314,"25":-0.5156382327114772,"26":-0.7484344910805247,"27":-0.1225347263845285,"28":-0.4217726574316648,"29":-0.12570881809767062,"30":0.40278769791150815,"31":0.10323938342267604,"32":0.600640025237799,"33":-0.6543277767072696,"34":-0.12886859635886164,"35":-1.2435575575533986,"36":-0.5163354111871279,"37":-0.2077940654391358,"38":-0.2769527648023751,"39":0.4870258780905146,"40":0.6299161924177485,"41":0.6509030308699563,"42":-1.3681443586938353,"43":-0.3016195744464052,"44":-0.011859473131986464,"45":-0.22329981369529456,"46":-0.042422733284899025,"47":-0.7771148532445735,"48":-1.360284090427207,"49":0.2692110692342671}},"27":{"bias":0.0467374297675963,"weights":{"0":0.030167800597731192,"1":-0.2062516257678833,"2":-0.12259925655204322,"3":0.06777218220359887,"4":0.09225153386437938,"5":-0.16143724128720677,"6":0.5903760994976816,"7":0.06937184534427418,"8":-0.046101398390642874,"9":-0.09656974679478264,"10":-0.31811374305813217,"11":-0.014282781276310266,"12":-0.1961419847966824,"13":-0.3053677958616335,"14":-0.10529261952375746,"15":0.04883443340462633,"16":-0.3129003205136234,"17":0.04633754819551844,"18":0.3319414287001981,"19":-0.14959082069458696,"20":-0.03106685105835743,"21":-0.5389713183219234,"22":-0.24054184102753168,"23":-0.03434649676441124,"24":-0.23184134455621697,"25":-0.1216731649535915,"26":-0.3937669323267262,"27":-0.05514225464248567,"28":-0.3765979648809273,"29":-0.1960092153041876,"30":-0.07324915784226428,"31":-0.2139449600731575,"32":0.3046447084836867,"33":-0.33719688675154563,"34":-0.2864570143181315,"35":-0.24797073409456197,"36":-0.03715166122621022,"37":-0.5714226926734226,"38":-0.23601096104081246,"39":0.31459429503870934,"40":0.1134757330231051,"41":0.04325718248828469,"42":-0.789833850369976,"43":-0.224496137921213,"44":-0.02351537566799816,"45":-0.07430740900136505,"46":-0.09770415672487107,"47":-0.11957054259882582,"48":-0.7456053664122675,"49":-0.07345088454454549}},"28":{"bias":-0.12336953197359393,"weights":{"0":-0.9420733229699646,"1":0.75219908148272,"2":-0.03127276417936025,"3":0.8107499185188882,"4":-0.814790602547611,"5":0.680813234240922,"6":0.5639390816858101,"7":-0.4969455320368184,"8":-1.1595866339818288,"9":0.6221031038004381,"10":1.0428646382914801,"11":-0.7452808913110798,"12":0.6442825967137645,"13":0.24022844961258982,"14":0.05540202367393656,"15":0.18896177525824387,"16":-0.837205152812924,"17":0.5000572536341827,"18":1.0019311463188292,"19":-0.15467402094129398,"20":0.47871314056266284,"21":1.0332071602518293,"22":1.1427605237230847,"23":0.5068534222872709,"24":0.23753956893880843,"25":0.7615358563960215,"26":-0.755824890576461,"27":-0.1854670123739907,"28":-0.14178680865426926,"29":0.7771143700059777,"30":-0.9422463241579664,"31":-0.5246891838862361,"32":-0.4792288857087304,"33":0.9048530132307133,"34":0.33574494651080494,"35":-0.28869023691969503,"36":0.5916495113905014,"37":-0.8241110101621741,"38":0.7545888648966482,"39":-0.6059965075419586,"40":-0.812279648126042,"41":-0.0458483772743882,"42":0.34161368451777463,"43":0.2818892570634774,"44":0.2522124698468307,"45":0.45634650323033266,"46":1.0391164947193268,"47":1.028943800488057,"48":0.4867340700184668,"49":-0.8449180514943196}},"29":{"bias":-0.25424387693349904,"weights":{"0":0.12105482701764836,"1":0.12035748921679817,"2":0.4966312061031298,"3":-0.7695463388761642,"4":0.020541052756453376,"5":-0.5371269000258188,"6":-0.8706857770139107,"7":-0.2733268226657488,"8":0.9399328270208824,"9":-0.8675646293935751,"10":-0.33024232022568445,"11":-0.2420300655733183,"12":-2.068934414658813,"13":-0.6710590908513177,"14":0.06668748726829672,"15":0.3250807105767825,"16":-0.7177376716720248,"17":-0.4769744829019408,"18":-1.5025848535157718,"19":0.005754262033452578,"20":-0.25015546580306064,"21":-0.1629652128786844,"22":-0.22998671688594502,"23":-0.14920806041683907,"24":-0.020253801476257105,"25":-1.2787611310872786,"26":-0.7430347422973791,"27":0.07393764276436977,"28":-1.085623947645965,"29":-0.33789719560644976,"30":-0.018079853746260317,"31":0.9878474331730219,"32":-0.040701457691644696,"33":0.1534209949609601,"34":0.07192678786792792,"35":-0.8208396096596989,"36":-0.7174441597993404,"37":-0.25878971959594305,"38":-0.2555551648174684,"39":-0.04270158923801103,"40":-0.2542144173067396,"41":0.8431547344579895,"42":0.7467314960884835,"43":-0.300639893483919,"44":0.4032748000700426,"45":-0.08966477428434791,"46":-0.44858237561815706,"47":-1.9152692849108115,"48":0.6795873730462513,"49":0.9743659725460588}},"30":{"bias":-0.450966071369128,"weights":{"0":-0.6941090026324351,"1":0.25615593458072866,"2":-0.5116504068099985,"3":0.3154165772701198,"4":-0.7370066698498507,"5":0.4574529303835854,"6":0.5330000155405231,"7":-0.38985373275406876,"8":-1.2595517137827317,"9":0.5421054101765156,"10":0.6393841003467201,"11":-0.9294986049126671,"12":0.9330496156752311,"13":-0.008779956003859501,"14":-0.3443537608884899,"15":-0.47224508346957406,"16":-0.43611489045725726,"17":0.3486450293036869,"18":0.9503924538766182,"19":-0.2902303506330495,"20":0.2298780541739993,"21":0.7357866546061022,"22":0.9854055411027636,"23":0.12904767099153147,"24":-0.13590874525845617,"25":0.63137783180066,"26":-0.44788345980134553,"27":-0.358369350090115,"28":0.2719364828553552,"29":0.7134057020428838,"30":-0.9243379068255608,"31":-0.9413602954558649,"32":-0.3379878194237228,"33":0.5807436196873992,"34":0.20344164684220037,"35":-0.2748890833426174,"36":0.3955920879357044,"37":-0.5013629241305443,"38":0.0727615314381261,"39":-0.729292218438833,"40":-0.48916721057665724,"41":-0.29572411088216133,"42":-0.5217528209434795,"43":-0.2878698902831658,"44":-0.466049370790671,"45":0.27461032094187227,"46":0.4739590744324078,"47":1.0224158556962335,"48":-0.5164453483612755,"49":-0.8105797716958141}},"31":{"bias":-0.38634570880833063,"weights":{"0":-0.3531418721492835,"1":0.015727289795369716,"2":-0.3913082794023796,"3":0.22586532593741246,"4":-0.2514420966303018,"5":0.33939215340716156,"6":0.2965061263632831,"7":-0.35901522769028843,"8":-0.5808468268539224,"9":0.25921752816798643,"10":0.28409256427283835,"11":-0.5105304842281498,"12":0.3699212726452768,"13":-0.24506534333850508,"14":-0.09408698114663533,"15":-0.12982191708796686,"16":-0.28940415539839837,"17":-0.10757394787638189,"18":0.7131742519878994,"19":-0.12051774504394448,"20":-0.017424415916648655,"21":0.19943788641096824,"22":0.34704478332071925,"23":0.19100689187255615,"24":-0.26904499051492564,"25":0.46189183782158233,"26":-0.2666850800607113,"27":-0.22250749730462618,"28":0.00938946849636058,"29":0.18432883268784378,"30":-0.30753573318908495,"31":-0.5623091396792406,"32":-0.20484565551084477,"33":0.06917982049592258,"34":-0.16435940999475587,"35":-0.3194774265362184,"36":0.19254688707513448,"37":-0.5025045605975808,"38":0.14151940246082367,"39":-0.15281546165617838,"40":-0.32358489589694267,"41":-0.3699091758560009,"42":-0.168948812945624,"43":-0.28690230120290855,"44":-0.06193519635493544,"45":-0.140524632109424,"46":0.2838499222539833,"47":0.626913452322749,"48":-0.23056994804120032,"49":-0.5317998542694823}},"32":{"bias":0.16766806659079922,"weights":{"0":-0.5238228560966486,"1":0.5884500034061051,"2":-0.0690002421449938,"3":0.28781720263528643,"4":-0.4289229759724033,"5":0.118130228582546,"6":0.22547248043482115,"7":-0.07580333355690604,"8":-0.6628251825254862,"9":0.40894888094136167,"10":0.642948213569432,"11":-0.6919260962744219,"12":0.3227727766539565,"13":-0.22539295035831114,"14":0.1584867130940485,"15":-0.29987719703872934,"16":-0.38928964204727806,"17":0.06611248591445718,"18":0.259065451424632,"19":-0.2653745702973828,"20":0.08922710969798914,"21":0.8875013449464697,"22":0.8926447802995716,"23":0.14473725346931107,"24":0.2647762092580165,"25":0.19839514224239907,"26":-0.5438304603860364,"27":-0.26605291769097994,"28":0.24562967647595657,"29":0.6909575287388103,"30":-0.6944905948687461,"31":-0.19069659090045293,"32":-0.28353560842041015,"33":0.5807222839756866,"34":0.06454149247578887,"35":-0.10839717699356395,"36":0.15447402222957055,"37":-0.5151130929490206,"38":0.10559121276582596,"39":-0.5815299910918142,"40":-0.5748879964355122,"41":0.05174452642116855,"42":-0.23211661101901984,"43":0.1682292992021934,"44":-0.08925588209276253,"45":0.20383751392920268,"46":0.481598315564202,"47":0.37010260647502286,"48":-0.27291184365417526,"49":-0.5644449253065307}},"33":{"bias":-0.3055034649967735,"weights":{"0":0.14043341900315856,"1":-0.3502318511908533,"2":0.11225624205819039,"3":-0.1404178811552457,"4":0.2390101258477882,"5":-0.10649415123835458,"6":-0.4716911086573625,"7":0.0065205318300196255,"8":0.0053705449572685115,"9":-0.13766150086909076,"10":-0.5805742567783521,"11":0.25236171116472633,"12":-0.11787767368280477,"13":0.019858136688345206,"14":-0.3089777695719451,"15":-0.04131101393599342,"16":0.13756033791776073,"17":-0.3498319230276854,"18":-0.20009512927275108,"19":-0.09405120172457249,"20":-0.09428429320169908,"21":-0.4141376796754398,"22":-0.549495201731453,"23":-0.006192478819425328,"24":-0.06237350164460531,"25":-0.1454681803054442,"26":0.008409123651916785,"27":0.0747096118492526,"28":-0.1445949850446593,"29":-0.3736987806940612,"30":0.09677567465336191,"31":-0.12755092826892261,"32":0.08711447258846514,"33":-0.5001833763276037,"34":-0.3184167750344248,"35":-0.1328273817702075,"36":-0.08200022476608489,"37":0.21247409391162575,"38":-0.3588393810178885,"39":-0.018836598759882608,"40":0.047741748940024906,"41":-0.24623475779373039,"42":-0.13541389897821465,"43":-0.12952725235911802,"44":-0.2677304242928371,"45":0.006968518014482314,"46":-0.14844815969452893,"47":-0.35591422857814864,"48":-0.16498141437495087,"49":-0.19887837964981656}},"34":{"bias":0.15573205107909283,"weights":{"0":0.2093627354380081,"1":-0.212827031153062,"2":-0.06221220135647917,"3":-0.0849031791975121,"4":0.23087511326848745,"5":-0.04890239122154987,"6":-0.5564905896727147,"7":-0.06334622590833693,"8":0.02430886179562584,"9":-0.11856963892417924,"10":-0.2738746399606558,"11":-0.07884811759842078,"12":-0.49267786621528686,"13":-0.12949849133286034,"14":-0.07185664782560182,"15":0.13134622395253204,"16":-0.07821994843542807,"17":0.15529568606544442,"18":-0.5462556826157506,"19":0.19658588164152824,"20":0.15737643744505975,"21":-0.3235958307531531,"22":-0.018034450466561797,"23":-0.03027757291607643,"24":-0.16035249050060138,"25":-0.016502294686768497,"26":-0.16148242167353324,"27":-0.0779370862404996,"28":-0.2186119459115408,"29":-0.06045741834398916,"30":-0.1375062597118617,"31":-0.06079919678467376,"32":-0.14999192337188702,"33":-0.16198201179715527,"34":-0.032710231903795794,"35":-0.2530083649581901,"36":-0.22107185666098997,"37":-0.11580574703722037,"38":0.0775940206778002,"39":-0.12475648700980592,"40":0.03263240594468265,"41":0.18745021435404163,"42":0.31180634662223267,"43":0.019692109175019717,"44":0.04815550453412933,"45":-0.07325255714434968,"46":-0.013353715981300165,"47":-0.44152337458459845,"48":0.3286867534336684,"49":0.23572661217753801}},"35":{"bias":-0.2579249600269317,"weights":{"0":-0.4180947169577813,"1":0.02076885550448502,"2":-0.5140212878790101,"3":0.23466721108680674,"4":-0.13493207295130472,"5":0.018212398173810446,"6":-0.16534573475314554,"7":-0.2553911990284051,"8":-0.2606253147915271,"9":0.12565665445164415,"10":0.35165963021515984,"11":-0.3272898139739193,"12":0.45486392439668266,"13":0.05438550639227313,"14":-0.14221910023411777,"15":-0.4162436249954594,"16":-0.23591748602516088,"17":-0.1394929664340034,"18":0.40097748136802447,"19":-0.14069205952086353,"20":-0.054440397463417736,"21":0.23532266450036524,"22":0.29406231219397866,"23":-0.16189680895871716,"24":-0.17685361745748795,"25":0.17200763785498582,"26":-0.43679225169054653,"27":-0.2737893575272547,"28":0.10201408412140324,"29":0.06746200905893236,"30":-0.15926243274909224,"31":-0.4816980539813129,"32":-0.017201228751910533,"33":0.15626222017516836,"34":-0.26821791852157123,"35":-0.006959112533289924,"36":0.1868608558802618,"37":-0.4427044860848987,"38":-0.09680501435675203,"39":-0.2335391665257105,"40":0.036371922835762655,"41":-0.2302459388178735,"42":-0.6951111829972434,"43":0.09983531806800161,"44":-0.19282250999858022,"45":0.17547463790355017,"46":-0.20733954413344244,"47":0.1268107803968938,"48":-0.6470702506996098,"49":-0.5803618298814914}},"36":{"bias":-0.007627967050343859,"weights":{"0":-0.44866181421995577,"1":-0.052355994844317334,"2":-0.3744892432330229,"3":-0.1188319038407623,"4":-0.1388442178248355,"5":0.012072913129261082,"6":-0.19064564824479302,"7":-0.13679124442955876,"8":-0.38864982532750986,"9":0.06418952474266604,"10":0.0801643048897246,"11":-0.39243632071669415,"12":0.41344448506819653,"13":-0.1716058556960676,"14":0.03550621051255277,"15":-0.33610142570735696,"16":-0.350368109108555,"17":-0.07413306356515267,"18":0.3095575839972736,"19":-0.14384737121682026,"20":-0.0781956254429949,"21":0.09550597060690878,"22":0.3249450444736282,"23":-0.1509130779472232,"24":-0.19893094704276298,"25":0.10732330068694222,"26":-0.3773738985816494,"27":-0.38462064095888343,"28":0.16037442731689586,"29":0.23411434216159846,"30":-0.1571864637403396,"31":-0.615004471931781,"32":-0.12125066675655102,"33":-0.16140363397145122,"34":0.04180053496015624,"35":-0.01445765201998535,"36":0.3624035247467378,"37":-0.38578109276739003,"38":0.045761036808314504,"39":0.07104654683379982,"40":0.07067628175825776,"41":-0.4736438828521249,"42":-0.5298448018064454,"43":0.032434106717904705,"44":-0.23479411216310414,"45":-0.010298542778557539,"46":0.01204282366690489,"47":0.270887906146098,"48":-0.5642332450980069,"49":-0.5051261870983926}},"37":{"bias":0.3080495080622631,"weights":{"0":0.8216732454409813,"1":-0.7369314174816763,"2":-0.0023805424308855692,"3":-0.4570988210457318,"4":0.8907499587772398,"5":-0.11924676100993019,"6":-0.49452821740426284,"7":0.2873877274842849,"8":0.8654629198086365,"9":-0.2857969765961702,"10":-0.9335757812243398,"11":0.7871644597473675,"12":-0.2031672678981576,"13":0.2730843253793596,"14":-0.13075525877193894,"15":0.16928036976843808,"16":0.6585735728260937,"17":-0.12400560965745897,"18":-0.31966411195791766,"19":0.2545342179735083,"20":-0.04292818178195794,"21":-1.656415309755046,"22":-0.9648468115837643,"23":-0.09838564449798277,"24":0.010381666129145914,"25":-0.13537746088940736,"26":0.3447015941531286,"27":0.1446638283162182,"28":0.06189640822128723,"29":-0.6970535525400987,"30":0.6764918778678,"31":0.09150083769789517,"32":0.2944992279509139,"33":-0.6285237123396619,"34":-0.32175060328761634,"35":0.07098788760524231,"36":0.08544891638016693,"37":0.4136354390548405,"38":-0.3812021596506264,"39":0.8457794430418656,"40":0.7075558481928668,"41":0.15098032510023054,"42":-0.021287841760103378,"43":-0.10972086557927534,"44":-0.018502127844301948,"45":-0.05039606987021074,"46":-0.5489623421665333,"47":-0.6987356001901008,"48":0.03334471777956643,"49":0.45893403385142273}},"38":{"bias":0.16866002549943648,"weights":{"0":0.19665546933409733,"1":-0.03678356601512777,"2":-0.06918944881290646,"3":-0.4186472187813697,"4":0.24539009366623113,"5":-0.2059136057168377,"6":-1.1851410308463561,"7":0.0719172169197094,"8":0.8552919917668373,"9":-0.41370987476886684,"10":-0.2619717858728862,"11":0.1827356544009211,"12":-0.9048034334888286,"13":-0.2640377314789373,"14":0.2934760434888885,"15":-0.13280567704701302,"16":0.02546324709701811,"17":0.06867077071228278,"18":-1.3045158927294072,"19":0.12911207718861342,"20":-0.23021254697896204,"21":-0.36690206613549664,"22":-0.3882429004857319,"23":-0.2877924483875148,"24":0.21897679283216412,"25":-0.4662539561872739,"26":0.014597656503810192,"27":-0.08964432184866314,"28":-0.22092464349959273,"29":0.04104900104847797,"30":0.04956197303223389,"31":0.4325377932630168,"32":-0.08003992420115152,"33":0.1670729506689566,"34":0.11023660246824676,"35":-0.02961033517364581,"36":-0.11276095463615265,"37":0.08006618256580628,"38":-0.03107656226898003,"39":-0.04153981281427124,"40":0.13341403074116634,"41":-0.030974179631052638,"42":0.1488840573883863,"43":-0.11387176504004944,"44":0.17536960838525228,"45":-0.12022699387255126,"46":-0.36628690996716606,"47":-1.2151676441635146,"48":0.40004666119038645,"49":0.22216844440748898}},"39":{"bias":-0.16386872194301308,"weights":{"0":0.10640642125395326,"1":-1.1636049731406537,"2":-1.696933562566142,"3":0.9706265615173135,"4":1.1893618435223838,"5":0.40238008605687725,"6":5.079964206594595,"7":-0.198568524738937,"8":-0.47176132277213934,"9":0.6616689176870162,"10":-0.8075513249932572,"11":0.49209868683206776,"12":1.3729809605881018,"13":-0.38996021691921234,"14":0.43003895389584673,"15":0.21821019034870565,"16":-0.3576755651449834,"17":-0.2085471965272347,"18":2.839334746079227,"19":-2.121048015813885,"20":0.3502702207224873,"21":-1.7143010984392704,"22":-0.8859036911907692,"23":0.3110755723750084,"24":-0.13345742760983006,"25":1.0155129213175402,"26":-1.0450706388046531,"27":-0.17559243918341635,"28":-0.35577314421040507,"29":0.07258433906418602,"30":0.17563832890852912,"31":-1.3976626838980575,"32":2.042019405699796,"33":-1.4683733146143485,"34":-0.4465222316022171,"35":-0.8064807761987897,"36":1.003658216342648,"37":-1.922858844612837,"38":-0.6356697817268456,"39":1.050297282413158,"40":1.2398544968046128,"41":0.1404158064069301,"42":-1.6553179669592843,"43":-0.16776502289311182,"44":0.08908709182498532,"45":0.3730305903342238,"46":-0.25676110157939624,"47":2.0517836599779833,"48":-1.3707399152861033,"49":-0.2397558147885149}},"40":{"bias":-0.17019849761771175,"weights":{"0":-0.2394040019127618,"1":0.016020011630737963,"2":-0.38293086028547607,"3":0.08885301543175565,"4":-0.06408661238948456,"5":0.11002992605274525,"6":-0.12788386367796686,"7":-0.1284947898730427,"8":-0.24010555848566653,"9":-0.0907580507033783,"10":0.03503097208991963,"11":-0.2417027507486941,"12":0.1756474235515224,"13":-0.03231001634728742,"14":-0.10349902091563555,"15":-0.018465417802119816,"16":-0.029137831854952664,"17":-0.1949097209767511,"18":0.27297043741192717,"19":-0.3677123593260397,"20":0.011381213931779847,"21":-0.11640593590951515,"22":-0.20111687424420022,"23":0.054434363752908846,"24":-0.024298177014795128,"25":-0.05942329517635675,"26":-0.23765032832346664,"27":-0.0014049688254610972,"28":-0.10432015561984904,"29":0.057944486103499726,"30":-0.037823010450394316,"31":-0.39610507603364203,"32":-0.1658916056159873,"33":-0.12593606190303497,"34":-0.22298258324718032,"35":-0.38885117312436007,"36":-0.11221190424784283,"37":-0.28886545333033037,"38":-0.021833743538935198,"39":0.18272299451909207,"40":0.03263249088554613,"41":-0.22652824871301772,"42":-0.42318049155425225,"43":-0.09032106951775436,"44":-0.21951760475758744,"45":0.06751405693007015,"46":-0.14196932173418958,"47":0.010828348644827294,"48":-0.5529563163675857,"49":-0.030889256686821454}},"41":{"bias":-0.08597620983064655,"weights":{"0":-0.04934880377807358,"1":0.28597738034480935,"2":0.15653271246092637,"3":-0.5625544135710125,"4":0.17713842109078884,"5":-0.3413449569062568,"6":-1.0362226338171048,"7":-0.05055457268354386,"8":1.0579010902178865,"9":-0.7878414295666746,"10":-0.2732998789308521,"11":0.056991511594339544,"12":-1.5485093861929424,"13":-0.2748636668673551,"14":0.4080479722502169,"15":-0.06308208482972891,"16":-0.259183940309918,"17":-0.23674857178644182,"18":-1.3399929960889725,"19":-0.14648732987497484,"20":-0.2422607093829636,"21":-0.1136398355207307,"22":-0.36705832169908575,"23":-0.09020199823681684,"24":-0.0664512696028391,"25":-0.6397675559665938,"26":-0.48027354459243243,"27":-0.04987423538544368,"28":-0.44855488221031864,"29":-0.15804148673126814,"30":-0.0003626475767328165,"31":0.3740547995534282,"32":-0.02747305256794333,"33":0.028898827372023796,"34":-0.018152496592495217,"35":-0.574951268670829,"36":-0.43371757233730646,"37":-0.14914726199013684,"38":-0.22879992784564282,"39":-0.18341502766226753,"40":-0.1046417848285095,"41":0.6758508092100223,"42":0.5569363424524842,"43":-0.05616022219228381,"44":0.4671398355987883,"45":-0.18216965213557437,"46":-0.5624538483472298,"47":-1.6090389219811674,"48":0.5908457182804412,"49":0.7705747691892918}},"42":{"bias":0.1431979506295177,"weights":{"0":0.6472174087920334,"1":-0.7106292879077122,"2":-0.003688482891917594,"3":-0.15029962787343554,"4":0.8466613420207282,"5":-0.05511593532779563,"6":-0.3600172488676673,"7":0.3794025132941176,"8":0.7646616253863857,"9":-0.07122551875784205,"10":-0.655099932686825,"11":0.604921826106324,"12":-0.2148759707560041,"13":-0.012643351569476189,"14":0.06363672505480283,"15":0.010116778516656374,"16":0.44650151732247595,"17":-0.11347613454261135,"18":-0.47385300142244197,"19":0.07851178947564616,"20":-0.2686167024863987,"21":-1.0518092523409155,"22":-0.9605499719175158,"23":-0.06686623902123623,"24":-0.3021206754305605,"25":-0.07784075730887005,"26":0.19399843174905268,"27":0.19092942869026694,"28":-0.01162936763119249,"29":-0.7259803090593372,"30":0.5211549855355101,"31":0.23224525825843756,"32":0.3323099285321203,"33":-0.5714767457690186,"34":-0.17490780796309457,"35":0.1440116242949787,"36":-0.1484459551937418,"37":0.5351359757842391,"38":-0.2816574876897744,"39":0.837009452181904,"40":0.6568075625103956,"41":0.07960053578113643,"42":0.2560975625085291,"43":-0.1830912747116741,"44":0.037793655374383756,"45":-0.23095106551193165,"46":-0.5562582515744979,"47":-0.6284268056069658,"48":-0.10495332865847155,"49":0.22671218115938388}},"43":{"bias":-0.01721673610468994,"weights":{"0":-0.5463692954658629,"1":0.6849016984230911,"2":-0.2974475850510713,"3":0.4300752193338336,"4":-0.505966608859131,"5":0.19915622308156353,"6":0.5578455514449671,"7":-0.11161601974298131,"8":-0.5705218548726624,"9":0.4401446286892677,"10":0.5121001090447441,"11":-0.6905626154977919,"12":0.46123693663084336,"13":-0.18339750273071126,"14":-0.07524859290223963,"15":-0.26327203391979137,"16":-0.5035020694924994,"17":0.41584122549584346,"18":0.2862793542660664,"19":-0.1410469362079079,"20":0.09669779448425184,"21":0.9305020100480513,"22":0.8948305900405081,"23":0.01224803026762503,"24":0.3448375377806595,"25":0.2684681276729961,"26":-0.4972895606437558,"27":-0.03335161857229029,"28":0.062001054922156226,"29":0.6753985295331942,"30":-0.6477645013719887,"31":-0.42376605512485493,"32":0.05797574463595995,"33":0.6929802386942088,"34":0.28218377514904047,"35":-0.12103148613981453,"36":0.32920595744091397,"37":-0.47025781460106164,"38":0.3822242050951344,"39":-0.6011949003194887,"40":-0.6117766401173029,"41":0.030313003599015082,"42":-0.32430898378942946,"43":0.11118162710258238,"44":-0.04155347756731693,"45":-0.009031339273882229,"46":0.4934101748826472,"47":0.5400696922399764,"48":-0.017462433525685057,"49":-0.1543242909090765}},"44":{"bias":-0.09954761443023503,"weights":{"0":-0.6650105101135138,"1":0.13185411356488136,"2":-0.7102646600066705,"3":0.25328770774891723,"4":-0.2694189202972918,"5":0.3693561911452186,"6":0.43880550787332095,"7":-0.36981210722243407,"8":-0.7121564383222844,"9":0.27341148266545534,"10":0.6102568563229753,"11":-0.32633625040297304,"12":0.9759045873075612,"13":-0.036379664688661835,"14":0.039297546620754686,"15":-0.4774207349344743,"16":-0.527202183065562,"17":0.21910581107828014,"18":0.7612621629122779,"19":-0.5599358188199266,"20":0.1561368810133485,"21":0.4278945167432118,"22":0.687413065182785,"23":0.26126504503016357,"24":-0.1600719709896301,"25":0.4625197635761963,"26":-0.46419287119467895,"27":-0.2036935891720487,"28":0.32838666645930126,"29":0.5815167375869044,"30":-0.6953218458918532,"31":-1.0084871534639692,"32":0.07653312581942924,"33":0.0704924654614105,"34":-0.2176870652102014,"35":-0.2437108407638741,"36":0.45707246399108525,"37":-0.4001388487600153,"38":-0.22478598444290726,"39":-0.2986274188585546,"40":-0.29780442167280047,"41":-0.5045662029364797,"42":-1.041552775142906,"43":-0.2723294216288733,"44":-0.3704971887057068,"45":0.039473868005950874,"46":0.2285072168250999,"47":0.739657006245358,"48":-1.0207177601801618,"49":-0.8382486365921785}},"45":{"bias":0.256209501933434,"weights":{"0":0.2471798580397912,"1":0.1825765481682967,"2":-0.16641642524723996,"3":-0.41897357236467236,"4":-0.0027020533597099765,"5":-0.384944116052684,"6":-1.0054059248308627,"7":-0.037409601550260366,"8":0.9907021774587391,"9":-0.18073431145245036,"10":0.03113134503433322,"11":0.13451184876693803,"12":-0.7439878580782824,"13":-0.3309017328317955,"14":0.38455731578317814,"15":0.04148974120534005,"16":-0.20276696659683946,"17":0.09064917584512465,"18":-1.1597597395833183,"19":-0.12558859846739712,"20":-0.28108329776200763,"21":-0.44147032009608295,"22":-0.023984645720894968,"23":-0.2412850124242119,"24":0.247427761401758,"25":-0.41534782803356796,"26":-0.3509464135881452,"27":-0.15787390824148373,"28":-0.1111061751333496,"29":0.13518916580080417,"30":-0.07021729872945642,"31":0.2529436428026548,"32":-0.009533637928492317,"33":0.00193989193346592,"34":0.1609750920196162,"35":-0.04864619899005355,"36":-0.1623162757643531,"37":0.07984497252469974,"38":0.02140565628202107,"39":0.13931702393813197,"40":0.0605732863392009,"41":0.1989739559464466,"42":0.1904735432222967,"43":0.08921648138252253,"44":0.11548698015069221,"45":0.07833417483014259,"46":-0.3499817796014183,"47":-1.186008485218188,"48":0.19072604786054878,"49":0.3849754112509918}},"46":{"bias":0.4198724400602024,"weights":{"0":0.5032533860611317,"1":-0.16717988362663078,"2":0.5214590441780393,"3":-0.6712691795687508,"4":0.44243896497575647,"5":-0.46906693145520434,"6":-0.8524044305278319,"7":0.3760690624421377,"8":1.1447846508779669,"9":-0.6684825075070494,"10":-0.43680085225018955,"11":0.31403726832198686,"12":-1.0430717099274158,"13":0.13753245671757192,"14":0.074549710361902,"15":0.4002087870051531,"16":0.12221502517983186,"17":-0.39742619122804035,"18":-1.003245896217728,"19":0.3299487424340018,"20":-0.17290110777310394,"21":-0.4384459809587351,"22":-0.42767507465506,"23":-0.3193359670029822,"24":0.2629802604512885,"25":-0.5440592919542705,"26":-0.027431435348299407,"27":0.04834457424584647,"28":-0.050475649438974604,"29":-0.2448848648572006,"30":0.2370598856172512,"31":0.435568051894966,"32":-0.0856414624728414,"33":-0.16924761004186628,"34":0.007692592666541548,"35":0.03462668355076298,"36":-0.268097591083361,"37":0.18416843575163563,"38":-0.2573243535604599,"39":0.4623220143901969,"40":0.36310209523149795,"41":0.327600140244175,"42":0.4020860973284152,"43":0.17024293223514078,"44":0.136357830188025,"45":0.06532576155562408,"46":-0.5910889599265565,"47":-1.365140412646833,"48":0.4498791725055757,"49":0.7538220575546238}},"47":{"bias":-0.2737602066245149,"weights":{"0":0.22337579602503388,"1":-0.6840606771701425,"2":-0.019116113557187803,"3":-0.20500249500633225,"4":0.6132085501720638,"5":-0.23840040938091897,"6":1.1524927801565061,"7":-0.25418964659799453,"8":-0.014459454153280213,"9":-0.5043864246271075,"10":-1.0581801989293003,"11":0.39645333564525365,"12":-1.1769039103197942,"13":-0.9995802600308248,"14":0.08302835329006947,"15":-0.4131477784740282,"16":-0.6915128131036173,"17":-0.5762793109306386,"18":-0.4810305191192286,"19":-0.41895431820439405,"20":-0.1798260269672534,"21":-0.9304081022950978,"22":-0.6973923307265758,"23":-0.302948447686173,"24":-0.45683136445262024,"25":-0.5892438448962416,"26":-1.272954366553825,"27":-0.42523886673820954,"28":-1.0728671234954166,"29":-0.48165122449066816,"30":0.2862000531482624,"31":0.10495489447626506,"32":0.5064406103606403,"33":-1.1636892286057021,"34":-0.32768378342926724,"35":-1.4168992469026978,"36":-0.3252446461198146,"37":-0.1616697313254779,"38":-0.26181059225233766,"39":0.7310766623578152,"40":0.7966217751228661,"41":0.8780617310716414,"42":-1.6719097405998522,"43":-0.4166701668358489,"44":0.011637591033294653,"45":-0.4797376001724511,"46":-0.6557811650536262,"47":-0.647436559082061,"48":-1.6156031050064743,"49":0.7215608813069236}},"48":{"bias":-0.17156203008348805,"weights":{"0":-0.9156773330868485,"1":0.8374952538843352,"2":-0.23691738449696806,"3":0.7983213875252647,"4":-0.891737774298329,"5":0.3894682802476774,"6":0.9701765297117962,"7":-0.3833511484998276,"8":-1.0878422697527894,"9":0.30489520255397723,"10":0.9397719955670679,"11":-1.0395027390817246,"12":0.2598614683994098,"13":0.08821402822461412,"14":0.12453601684329704,"15":-0.3790091620473129,"16":-0.7052975396978176,"17":0.4119667049970864,"18":0.3682043562575461,"19":-0.03872832430055613,"20":0.08216532676958593,"21":1.7681046463042733,"22":1.148764372646441,"23":0.397003406159865,"24":0.025014758407501315,"25":0.5565819199271433,"26":-0.6395694842859463,"27":-0.09469269509735427,"28":0.20357954273805137,"29":0.9616365518195371,"30":-0.7957321697495613,"31":-0.22154748621314466,"32":-0.253915538334101,"33":0.8095865135751604,"34":0.38087132822400616,"35":-0.24065774207458784,"36":0.09738817269994077,"37":-0.7930219741669027,"38":0.6208704589806139,"39":-0.8870839291971674,"40":-0.9672916021476511,"41":-0.4060386121200028,"42":-0.09338893609201016,"43":-0.1475582451209848,"44":-0.03453048457208923,"45":0.012936812792297086,"46":0.6861857204021791,"47":0.8632848061784756,"48":-0.31131432307449275,"49":-0.46800567022542255}},"49":{"bias":-0.13108751419628276,"weights":{"0":-0.7939589567647443,"1":0.2098299325418738,"2":-0.5481132228580805,"3":0.3044699990081936,"4":-0.48129066975309914,"5":0.26076871024698633,"6":0.5279256424652805,"7":-0.3294885501988584,"8":-0.8520122011312458,"9":0.34715869295332236,"10":0.7520982977513271,"11":-0.714236507257684,"12":0.8155256722953392,"13":-0.2109326858375864,"14":-0.302639686196236,"15":-0.09464810685944364,"16":-0.4252666063590531,"17":0.05250006884064339,"18":0.57348075200484,"19":-0.3747044562805669,"20":-0.0961413545306744,"21":0.7467824793844169,"22":0.6251521031347007,"23":0.17819179815069547,"24":-0.07250212758580171,"25":0.500090267693294,"26":-0.33735218608672707,"27":-0.23138231611109505,"28":-0.018156351390136535,"29":0.5952252716607681,"30":-0.794952211905994,"31":-0.50202129263323,"32":-0.06063517189915361,"33":0.4208300514755021,"34":0.08139225322356018,"35":-0.07942312497337972,"36":0.25535625311144594,"37":-0.6237968887090111,"38":0.2221977094638994,"39":-0.4102916349332853,"40":-0.34920746248822676,"41":-0.29998126929234414,"42":-0.4937713461032103,"43":0.056683102013243725,"44":-0.24001309051644729,"45":0.15175388365468892,"46":0.2570455977103186,"47":0.8545802237770407,"48":-0.46159021995193883,"49":-0.7965727930848986}},"50":{"bias":-0.38026688778290724,"weights":{"0":0.0208812068574931,"1":-0.4880363360715757,"2":0.03450129492166584,"3":-0.27105452353584286,"4":0.7103127211382121,"5":-0.08176876494470765,"6":1.6304802740481377,"7":0.11452289699368634,"8":-0.06194829526926814,"9":-0.11915574586527768,"10":-0.655574547943905,"11":0.380428740050189,"12":0.13646687141694255,"13":-0.3201587614246452,"14":-0.12153889312924158,"15":0.07881504158520367,"16":-0.056447356161892046,"17":-0.3387360793614476,"18":0.9594851555169471,"19":-0.3743152857810589,"20":-0.279431403039829,"21":-0.5587687879857479,"22":-0.5505916337087619,"23":-0.27330044204779164,"24":-0.45993845835068836,"25":-0.041380582669075246,"26":-0.7197715296231784,"27":-0.1783001472218165,"28":-0.783285019134687,"29":-0.3494383069827668,"30":0.3832411662211191,"31":-0.34074583108085665,"32":0.6410893051663781,"33":-0.8987032051137258,"34":-0.5255967846438564,"35":-0.9986603382011504,"36":0.04309257508285483,"37":-0.6688493643161352,"38":-0.4498324854213896,"39":0.5486306040127106,"40":0.9023070314383714,"41":0.5194525449453005,"42":-1.6472338553785901,"43":-0.5492483648361749,"44":0.03550741749059529,"45":-0.2482136530434255,"46":-0.513716933101228,"47":0.3444537457754196,"48":-1.4797376053792708,"49":0.5333724299514697}},"51":{"bias":-0.29408737641198,"weights":{"0":0.320665333680381,"1":-0.5601109287891294,"2":-0.19372790367902118,"3":-0.27071392926879567,"4":0.6457628912120246,"5":-0.2370468231518707,"6":1.110754011469746,"7":-0.205996617230863,"8":0.1951294041841217,"9":-0.2476785914854462,"10":-0.5516304808500563,"11":0.10230297646373425,"12":-0.6675768724333462,"13":-0.5244350590031042,"14":0.37075188776328066,"15":-0.03258717295788196,"16":-0.4845377120670935,"17":-0.39797923982375266,"18":-0.07997412539253258,"19":-0.6878402932862734,"20":0.04655568009821462,"21":-0.8572881193640215,"22":-0.5641420456530167,"23":-0.25207666809003326,"24":-0.15018831502876065,"25":-0.5139615544535013,"26":-1.011384305729947,"27":0.015042406986071379,"28":-0.3940821947309196,"29":-0.34699395640209874,"30":0.3797576643569045,"31":-0.03866890300418073,"32":0.564129879429754,"33":-0.8708334373840853,"34":-0.3494411153276802,"35":-1.0953944017037844,"36":-0.08119303632170957,"37":-0.6282553144729744,"38":-0.3704521637115467,"39":0.42681809584625197,"40":0.7137591852981215,"41":0.6385561190838023,"42":-1.4875391455646485,"43":-0.49103855471716157,"44":-0.04001028014090288,"45":-0.2203963395050755,"46":-0.42310491352336244,"47":-0.5713680838896675,"48":-1.322697999838976,"49":0.3946038123041045}},"52":{"bias":-0.0371808487781522,"weights":{"0":-0.1444849934002071,"1":0.1595266823244922,"2":-0.2821041024062245,"3":-0.11599829909130963,"4":0.07320099880117972,"5":-0.03268952625444841,"6":0.07634682114163308,"7":-0.18792704244592365,"8":-0.13624251060359782,"9":-0.12410199473160968,"10":0.1300003529171238,"11":-0.1147131292072882,"12":0.10636663106025286,"13":-0.27081871987369016,"14":0.19250013908522495,"15":0.01908240004669102,"16":-0.037847449629678294,"17":0.12305372181652278,"18":0.1003774511970365,"19":-0.2192083111192095,"20":-0.00032451585610773125,"21":0.07293741005322991,"22":-0.11195754209154038,"23":0.005481436539377546,"24":-0.23432704152129707,"25":-0.13364977608513554,"26":-0.29595588344637797,"27":-0.31438747243366355,"28":0.21475912039077988,"29":-0.03026456347751468,"30":-0.23191017518100532,"31":-0.32365296652568065,"32":-0.13600374277099822,"33":0.028383793448067327,"34":-0.0011833450782801746,"35":-0.3179029666121136,"36":-0.06003908356288567,"37":-0.40767431988162267,"38":-0.1309553412583488,"39":-0.16282097881267668,"40":0.19625518127508296,"41":-0.07477457856836381,"42":-0.4819782551304346,"43":-0.08932540034388481,"44":-0.17923763809517707,"45":-0.08580438040319302,"46":-0.17840922032019574,"47":-0.2387331401253948,"48":-0.26403224992812363,"49":-0.13441613991611753}},"53":{"bias":-0.23242825209213852,"weights":{"0":-0.5506184467464491,"1":0.6731336356253469,"2":-0.3184784322942851,"3":0.6849521409522791,"4":-0.9457838226214487,"5":0.36537277412907687,"6":0.7430230897918625,"7":-0.13413000037503348,"8":-0.8776533904247416,"9":0.5147084307149388,"10":0.8625410815056538,"11":-0.6044751125579501,"12":0.18603844767716213,"13":0.09520137726687554,"14":-0.003683522337459752,"15":-0.2418384356549052,"16":-0.4972481754312936,"17":0.313279029172483,"18":0.4757963556710698,"19":0.003553651630858104,"20":0.4020633385147905,"21":1.5028383255475213,"22":0.9498300666308667,"23":0.2579032562879292,"24":0.10383669740827656,"25":0.2947901586102495,"26":-0.518146217199842,"27":-0.3251975067167476,"28":0.052088143367663764,"29":0.6226123639093573,"30":-0.9040401226067089,"31":-0.06215096049176144,"32":-0.15155952270491815,"33":0.9715343121612989,"34":0.2678247196280254,"35":-0.27466667504070363,"36":0.2857530089589513,"37":-0.4354246461752377,"38":0.34282172664458016,"39":-1.0258122811900112,"40":-0.9172726824049183,"41":-0.41829575616026365,"42":-0.031000428717072016,"43":0.2101688944542535,"44":-0.1295847987745814,"45":0.27911970943443526,"46":0.8444745605637163,"47":1.022496302680488,"48":-0.01262172529866051,"49":-0.5382527116575306}},"54":{"bias":-0.06907890811096923,"weights":{"0":-0.22204764704459953,"1":-0.3327779815806997,"2":-0.29150273219286743,"3":-0.029345861487230524,"4":-0.11521233201402194,"5":-0.16577457875311002,"6":-0.08894484550529681,"7":-0.027468119646129347,"8":-0.12841623364670682,"9":-0.05863428268188076,"10":-0.05988206531235543,"11":-0.05800716334014859,"12":0.4111339105498867,"13":-0.15520257037955087,"14":-0.19703943812514987,"15":-0.31032948541570055,"16":-0.278196384836651,"17":0.028741418240556142,"18":0.4897141370204091,"19":-0.09858230283314956,"20":-0.1289510343473942,"21":-0.35365443106085137,"22":-0.12713406252592374,"23":0.09856011610717354,"24":-0.12630135920833457,"25":0.3880044153015153,"26":-0.3761020779130479,"27":0.008619061894007112,"28":-0.228996202148927,"29":0.22106938068135032,"30":-0.0696004770445177,"31":-0.6139305458997165,"32":-0.1588323087492814,"33":-0.07691111500064156,"34":-0.1961041675847419,"35":-0.406404913808343,"36":0.16063786626310894,"37":-0.4864122899349796,"38":-0.24742837581752922,"39":0.18281149459692225,"40":0.3707303058021957,"41":-0.027796316475942603,"42":-0.572131679091202,"43":-0.09322667808882289,"44":-0.3480170067167967,"45":0.1053398071930233,"46":0.0279295696589884,"47":0.31514552997721923,"48":-0.6711398773562322,"49":-0.3028765116425582}},"55":{"bias":-0.2990432489481579,"weights":{"0":-0.855765058162776,"1":0.8963945483150825,"2":-0.0921034864741063,"3":0.5068228468136259,"4":-1.0352434682254492,"5":0.658781939407824,"6":0.7608302998323742,"7":-0.3144144347090978,"8":-0.9525102272647055,"9":0.34168619609051265,"10":0.8232200064138416,"11":-0.9441311818918786,"12":0.19493573149923618,"13":0.04297975999985942,"14":0.1327774470939478,"15":-0.3311865716970271,"16":-0.38536640749182843,"17":0.28932887564895443,"18":0.23298293411131926,"19":-0.28481517170084186,"20":0.10477871169025674,"21":1.613664462276626,"22":1.0258708692254412,"23":0.3601506195151526,"24":0.019446709967308566,"25":0.4831336256051495,"26":-0.340439981575039,"27":-0.11066110766810547,"28":0.16420643094752913,"29":0.6958773918364796,"30":-0.9377932101139052,"31":-0.11545249547033924,"32":0.016359205472535776,"33":0.938142582365386,"34":0.1452455174048003,"35":0.06225255468965208,"36":-0.10054876573688763,"37":-0.7070898110649266,"38":0.6270948639665735,"39":-1.1518529066548855,"40":-1.1260790199627646,"41":-0.058713533893583206,"42":-0.17165675395905083,"43":-0.14581747672830003,"44":0.049149493021786936,"45":0.2366242590415712,"46":0.6600290669060547,"47":0.757185239083117,"48":-0.22943103696251313,"49":-0.5534693920191063}},"56":{"bias":-0.02069157023544814,"weights":{"0":0.11059620976021231,"1":-0.5433234772991998,"2":-0.87729746204735,"3":0.42990052227003855,"4":0.48701018254684936,"5":0.17525277558141025,"6":1.6252146476048677,"7":-0.06990528959888195,"8":-0.07354386821197571,"9":0.11106158246288746,"10":-0.21907521620263695,"11":0.09529958845166828,"12":0.7013389378549312,"13":-0.23578348438079347,"14":0.1254986906230642,"15":-0.236144526620415,"16":-0.04622595310570501,"17":-0.04384375595423858,"18":1.0934165300871217,"19":-1.0473427511343438,"20":-0.11891767481611511,"21":-0.5456406761273358,"22":-0.26282338043844783,"23":0.12268572410507568,"24":-0.1674570431480359,"25":0.49553630133054555,"26":-0.4811922537461465,"27":0.004422062335730339,"28":-0.13633224799287844,"29":0.11415080449319727,"30":0.10300005144315565,"31":-0.6711047890386841,"32":0.44924234453678463,"33":-0.4759924733610509,"34":0.014302431290370999,"35":-0.4527863619165969,"36":0.1448540588508097,"37":-0.8795348305605822,"38":-0.21865977376073645,"39":0.5967729171280787,"40":0.6467747592636387,"41":0.18376418390353497,"42":-1.383849156327489,"43":-0.1828070711891921,"44":-0.06349200377016215,"45":-0.045695801810280504,"46":0.010937758245874701,"47":0.5709662786404583,"48":-1.5517939918238013,"49":-0.007302962127363558}},"57":{"bias":-0.09812764115538336,"weights":{"0":-0.06851900681507966,"1":-0.036907960484718005,"2":-0.02992157831905125,"3":0.09218767002461623,"4":-0.17244368129702659,"5":-0.1542403305229051,"6":0.014536651847174127,"7":0.0707241943885692,"8":-0.030864736476799794,"9":-0.05968721559249111,"10":0.035334551121284065,"11":0.010219069372104535,"12":-0.01803680273718648,"13":-0.35563046575285445,"14":0.1402409914813308,"15":-0.17554822101405548,"16":-0.15536552276268337,"17":0.22422375489344476,"18":-0.12779761831921588,"19":-0.28179420293096913,"20":0.09877045639781314,"21":0.06994499078117866,"22":0.21133937125708938,"23":0.12549217111518554,"24":-0.022472034163092312,"25":-0.13713957430533957,"26":-0.6921263225060332,"27":-0.33828274795102237,"28":0.034373768205784964,"29":0.24623918476741322,"30":-0.044402459432165996,"31":-0.3128503697035263,"32":-0.07456120585543032,"33":0.1266723329037977,"34":-0.1559385509242888,"35":-0.2752223895904084,"36":-0.10639045255464906,"37":-0.42296206971995004,"38":-0.2076972426806043,"39":-0.05683101557337052,"40":-0.03479970070099328,"41":0.1995287772238504,"42":-0.9112340721824319,"43":-0.18394342823561852,"44":-0.10896459653297905,"45":0.17859547772557413,"46":-0.1975819853325353,"47":-0.022917765250436543,"48":-0.8732968896166641,"49":0.07427718432866882}},"58":{"bias":0.33550214564471165,"weights":{"0":-0.12199181404523564,"1":-0.00678184761064087,"2":0.1732286822008001,"3":-0.1444272683796633,"4":0.019780013944279147,"5":-0.2039025780701923,"6":-0.5411549956077776,"7":-0.04471733387710538,"8":0.5869895225998297,"9":-0.13642976083478076,"10":0.2524340223800044,"11":-0.16796449042273676,"12":-0.9160235567773483,"13":-0.067501300170335,"14":0.3983878659712094,"15":0.11544162986404703,"16":-0.1939964070524522,"17":-0.0023040047216624218,"18":-0.899651878658575,"19":-0.061764155483370144,"20":-0.08414210015394047,"21":-0.17821839797225347,"22":-0.000047982405739049145,"23":-0.07664152124883483,"24":-0.0007763807765517329,"25":-0.37978155222290544,"26":-0.7452102276926252,"27":0.014597143484193487,"28":0.03039607462015909,"29":0.22339958956393943,"30":0.03342720143291852,"31":0.21810345773424045,"32":-0.03072494391393178,"33":0.225338977433969,"34":0.05225515393178431,"35":-0.534767845726887,"36":-0.0629676654216068,"37":-0.18895561626732277,"38":0.2714437477496446,"39":0.24187929237762912,"40":0.3205428960945948,"41":0.13837282604840503,"42":-0.41130605109455615,"43":-0.010707993967916104,"44":0.2288991988233529,"45":0.26546838006734086,"46":-0.10310222522812074,"47":-0.8555759859850226,"48":-0.18816425037735374,"49":0.15732700045398668}},"59":{"bias":-0.07016892071230714,"weights":{"0":0.1385936614770506,"1":0.008233658660399205,"2":0.305538897046014,"3":-0.14082206956721463,"4":-0.06750863022270259,"5":-0.3905031921598572,"6":-0.9726099465855281,"7":0.16407938742180797,"8":0.6070605724223138,"9":-0.4123685088608391,"10":-0.022709941831855526,"11":0.06552327554691531,"12":-0.7994819950783335,"13":-0.160078095211559,"14":-0.0443058081066843,"15":0.17449947502797059,"16":0.037147031229452204,"17":0.04669232489726212,"18":-0.8390218724241194,"19":-0.04335076193205526,"20":-0.18900031679564766,"21":-0.4499806626552862,"22":-0.11552931545837684,"23":-0.26241584363196757,"24":0.06429735093929803,"25":-0.39152316635443535,"26":-0.21724975433364843,"27":0.011660906183746711,"28":-0.13741650444181983,"29":-0.1357074709734737,"30":-0.07537256240514797,"31":0.49116231451980064,"32":-0.13802347615444466,"33":-0.03100608046018676,"34":0.000076719408144793,"35":-0.19143542750218734,"36":-0.36046201012543616,"37":0.22791111837391123,"38":-0.01146950083043118,"39":0.08303104784786286,"40":-0.16755153438668302,"41":0.01507141906385508,"42":0.2992335358778788,"43":0.0004310637806454102,"44":0.2748952472890064,"45":-0.14729139671685576,"46":-0.3100157110195008,"47":-1.0518772072470293,"48":0.30999131525154344,"49":0.15876281113301627}}},{"0":{"bias":-0.2723541484238525,"weights":{"0":0.2256121915989656,"1":-0.49869099885322354,"2":-0.26441194933249235,"3":0.1131724364384684,"4":0.1010915843412446,"5":-0.2085892386265448,"6":-0.2695446674114226,"7":0.037227688637311705,"8":-0.009314621910016078,"9":-0.260525797940086,"10":0.08345015393171332,"11":-0.06843311846537392,"12":0.16911823948884905,"13":-0.35042417316352387,"14":-0.84701986569116,"15":-0.08382068894990706,"16":-0.14061694886579298,"17":-0.3602905864044581,"18":0.04541410929479187,"19":-0.18904540143223492,"20":-0.12159097457083176,"21":-0.03628124507651826,"22":-0.19671625294897382,"23":-0.018512238719614306,"24":-0.1434757253141479,"25":0.018746947146501707,"26":-0.3717506623073846,"27":0.06438370860365729,"28":-0.44674695270392206,"29":-0.5816204818713921,"30":-0.020713886922438373,"31":-0.11143914105496362,"32":-0.14757053503422235,"33":-0.10741394434764828,"34":-0.017125640347834915,"35":0.11920359554940627,"36":-0.21126702339057932,"37":-0.08051915935941233,"38":-0.1245928918766362,"39":-0.3855009644411595,"40":0.06573558369577522,"41":-0.4978629252933784,"42":0.08095428839052111,"43":-0.3321988642016912,"44":0.12403537254509665,"45":-0.2678501913864687,"46":-0.2667322753363273,"47":-0.2711170790511989,"48":-0.32119715147144895,"49":0.17774745117977953,"50":0.2870879531474753,"51":-0.02023034297040311,"52":-0.044674047458303064,"53":-0.31040375337821224,"54":0.12625494832436243,"55":-0.05959405005438106,"56":-0.19828148098275972,"57":0.011828367955588136,"58":-0.3207994945868181,"59":-0.07345288332003318}},"1":{"bias":-0.21300938914979842,"weights":{"0":0.18923507645067744,"1":-0.55990659901479,"2":-0.33638423514966753,"3":-0.046446381345458435,"4":0.01058152238166562,"5":-0.06490981943343611,"6":0.05228495928688131,"7":-0.22127157137203662,"8":-0.1933409222186125,"9":0.13333327226004776,"10":-0.12351433513986533,"11":-0.11910250101730038,"12":-0.2039522161173103,"13":-0.36589005014427334,"14":-0.9480911965340311,"15":0.06687689401397255,"16":-0.024317546227604646,"17":-0.5162014608460398,"18":0.08021143219061473,"19":-0.3315423625676345,"20":-0.13153540426405355,"21":-0.12331802675599061,"22":-0.09310509023038346,"23":0.06718832407626298,"24":-0.08007557046466202,"25":-0.008357504146244352,"26":-0.14860235028952218,"27":-0.01281456287936649,"28":-0.3148680179432632,"29":-0.6408489227236864,"30":-0.1295935952416834,"31":-0.2093904337095624,"32":-0.040979856291621104,"33":-0.1836878736844526,"34":-0.2450943766988317,"35":-0.17442621620361973,"36":0.10235078644432995,"37":-0.15126775607533574,"38":0.05348961372351324,"39":-0.3613721827681319,"40":-0.06612522373099644,"41":-0.3073919468447447,"42":-0.20662297152052905,"43":-0.08042826817295949,"44":-0.04661351526636949,"45":-0.20959920958173336,"46":-0.12485230005584765,"47":-0.3901596525869881,"48":-0.3488040937114746,"49":-0.07961325110808608,"50":0.07526061143888141,"51":-0.02517178027251698,"52":-0.13565353271157252,"53":-0.2684766547623359,"54":-0.14160061614380187,"55":-0.39515138439487835,"56":0.1101328112679864,"57":-0.04551648782194222,"58":-0.19828389806434796,"59":-0.06262473997212374}},"2":{"bias":-0.21152159483479316,"weights":{"0":-0.08520927664579181,"1":-0.32874293561162404,"2":-0.4545213258049275,"3":0.1320633391167874,"4":-0.06401928442427413,"5":-0.15886943845596863,"6":-0.011554822201960472,"7":0.08154190239571367,"8":-0.15630571683332087,"9":-0.183040485426566,"10":-0.09895695997200507,"11":-0.14946030047180514,"12":-0.040712792304034774,"13":-0.5725211534044579,"14":-1.0296217431596075,"15":-0.15866442279795887,"16":-0.06438094408787423,"17":-0.5286609049834403,"18":-0.1731772609915187,"19":-0.030036692896338337,"20":-0.27985511636808197,"21":-0.31115849703400483,"22":-0.26435665035143713,"23":-0.049508406207685915,"24":-0.06590520650773682,"25":0.05873632989761203,"26":-0.19423957459858074,"27":-0.04525701712895332,"28":-0.4584105183423831,"29":-0.30804713164486325,"30":0.254282892651073,"31":0.0219329814067626,"32":0.031743588707399246,"33":-0.06674002359356589,"34":0.10329673905274865,"35":0.07669297301267353,"36":-0.05324825427462834,"37":0.07853618962024732,"38":-0.297493149193032,"39":-0.5045622102491624,"40":-0.09008949773275089,"41":-0.2898973463177686,"42":0.10549018253611583,"43":-0.10598381539706103,"44":0.11629914970040652,"45":-0.34232605282383816,"46":-0.3365149737170234,"47":-0.23391776461825317,"48":-0.2078183239502248,"49":-0.09834684772453868,"50":0.08157805338417926,"51":-0.03463799908343191,"52":-0.1840552289930654,"53":-0.21331638054787325,"54":-0.1958645785471911,"55":-0.011110099399825445,"56":0.08295553498579179,"57":-0.17142377289828162,"58":-0.11018720571594307,"59":-0.17633830755080365}},"3":{"bias":-0.32772177551472376,"weights":{"0":0.08961339966197257,"1":-0.4908957756412317,"2":-0.3671564721029155,"3":-0.0588400950306335,"4":-0.0023191586038026494,"5":-0.023159406914297218,"6":0.05365064416379886,"7":-0.1982545983420466,"8":-0.280643315065292,"9":0.13420073399917742,"10":-0.07745050163931044,"11":0.024956535715084112,"12":0.1318387024524307,"13":-0.6796027645484184,"14":-0.6543912587337468,"15":0.039836765406860916,"16":-0.09459096677310092,"17":-0.5949833290819572,"18":-0.3146569370673175,"19":-0.11930889481084053,"20":-0.008006555226913572,"21":-0.2911123760714263,"22":-0.09665119011727537,"23":0.01818172525895177,"24":-0.07023240679883379,"25":-0.004290383481800359,"26":-0.371429572084652,"27":-0.008253051407069622,"28":-0.2172105842181742,"29":-0.6300444117083331,"30":-0.17782773525124254,"31":-0.1390888868895831,"32":-0.26626030723995553,"33":-0.18708228634635074,"34":0.08052926211300583,"35":-0.16362257880026362,"36":0.17377739525310443,"37":-0.010715900073812441,"38":-0.2899260456344289,"39":-0.39411410582113643,"40":-0.000779543527243608,"41":-0.3534728870414094,"42":0.04470007592044675,"43":-0.376253510869935,"44":-0.15498532454257485,"45":0.04830452437062177,"46":0.008895686849648265,"47":-0.16530390525200536,"48":-0.2221058333785254,"49":-0.00971156293550575,"50":-0.1547835467864644,"51":-0.03790048683236562,"52":-0.11779522078170054,"53":-0.4509954194222936,"54":0.10115775972268683,"55":-0.14788845271720238,"56":-0.1475768509292892,"57":-0.018856960705032517,"58":-0.15466104150212234,"59":-0.13390110222492121}},"4":{"bias":0.010775679608254672,"weights":{"0":-0.04430428880153017,"1":-0.6478799763618444,"2":-0.3326343394746411,"3":-0.023403034003801212,"4":0.13727756810385935,"5":-0.260142029219262,"6":-0.16546810688170177,"7":-0.038897000799129076,"8":-0.23387827032363756,"9":-0.2631094265270457,"10":-0.1754756144057709,"11":-0.1788838685207027,"12":-0.14489553789844098,"13":-0.5043011575731557,"14":-1.1494299749549843,"15":-0.04396551435889642,"16":-0.13312731071646472,"17":-0.6158234034661271,"18":-0.08744156288305452,"19":-0.09813178437723061,"20":-0.21791093537285977,"21":-0.258032978647285,"22":-0.02831206863491115,"23":-0.030301415330168002,"24":-0.21624647662625665,"25":-0.1320750655003603,"26":0.017042383174607264,"27":0.08145707008849087,"28":-0.31602936613973465,"29":-0.5488385100013775,"30":0.11349630080036727,"31":0.25609977810086615,"32":0.0239109674974981,"33":-0.04331283058416375,"34":-0.21474031408809827,"35":-0.023411116105625646,"36":-0.046279054131974515,"37":0.20252241008725697,"38":-0.01716640973286361,"39":-0.7642389219737723,"40":-0.005608800456110433,"41":-0.1926122748886011,"42":0.028434375785238115,"43":-0.29085958414658186,"44":0.15348285133501977,"45":-0.28131880171576346,"46":-0.18210224159006852,"47":-0.27480781438563934,"48":-0.09904566818575634,"49":0.22992756790366112,"50":0.01589485772525177,"51":0.09366410566363612,"52":-0.16269511519703156,"53":-0.17421837957450897,"54":0.1562317243445519,"55":-0.025251526233148375,"56":-0.01197416240296488,"57":0.08436622764600352,"58":-0.2882220212612931,"59":0.07151625345057983}},"5":{"bias":0.5499144872514629,"weights":{"0":-0.42838881600223383,"1":0.16806741349013682,"2":-1.2333039515096085,"3":0.003302965596129829,"4":0.3544452502780323,"5":0.28525712584187796,"6":-0.058930284597460025,"7":-0.42731707598353347,"8":-0.7334871251827947,"9":0.09949325741887832,"10":0.04996634967664595,"11":-0.1585237666453274,"12":-0.011967260634493914,"13":0.018491726167239306,"14":-0.06555899007555163,"15":0.06734955193427421,"16":2.586964403392186,"17":-0.6780751064256214,"18":0.421573666092017,"19":-1.2447193152247564,"20":0.5052098990530893,"21":0.38540683379857194,"22":0.43356153039562473,"23":0.42883141981501793,"24":0.46496491469315515,"25":-0.17188821892744988,"26":0.2539405182058802,"27":0.25963192972073257,"28":-0.6217722935436715,"29":-0.0435963279348825,"30":-0.5033017145287805,"31":-0.3221061490720646,"32":-0.9622359589002426,"33":0.4088093408902712,"34":0.21491643423936152,"35":-0.135481927884068,"36":-0.23574676912850862,"37":1.294231635886741,"38":0.3964783316162462,"39":0.5526547290322094,"40":-0.11832803473134672,"41":0.21936945890957754,"42":1.0303423335946897,"43":-0.7596250993400475,"44":-0.5216863038009082,"45":0.3122201144466362,"46":0.5855916842160791,"47":0.6514120640068555,"48":-1.5974592501854952,"49":-0.5003662189097376,"50":0.37008562647023835,"51":0.38729487053838996,"52":-0.050706513944014625,"53":-1.432978724024877,"54":0.09375902665069329,"55":-1.6852847791764383,"56":0.18572091848522138,"57":-0.10922028995709943,"58":0.07938975457869978,"59":0.2631260910056207}},"6":{"bias":0.02896534589044976,"weights":{"0":0.18042680575726203,"1":-0.48520591536589164,"2":-0.24253496288252366,"3":0.0374344977799122,"4":-0.015235370077768233,"5":-0.31296380897972736,"6":-0.03261680495193197,"7":0.02842440431963521,"8":-0.292733999389179,"9":-0.0992559270635555,"10":0.04692537256823092,"11":-0.07459162261455404,"12":0.20294058521054628,"13":-0.5680178224278394,"14":-1.1367970789192599,"15":0.058891931717263216,"16":-0.19790567951757657,"17":-0.45661987133632104,"18":-0.07555867113607821,"19":-0.2999350057273731,"20":-0.19236187305577446,"21":-0.0922875159266852,"22":-0.021790498878074806,"23":-0.18557966824477845,"24":-0.2791618699096792,"25":0.002149930806342024,"26":-0.3239831768295925,"27":-0.10709408900311324,"28":-0.26141375811253165,"29":-0.5346263017225803,"30":0.21430293580024504,"31":-0.06734123060848995,"32":0.11669008965107462,"33":0.10942799703457828,"34":0.060276464629711785,"35":-0.1655233220480373,"36":-0.08201638598174377,"37":-0.06003173839522696,"38":-0.1763614684789357,"39":-0.7100016029924399,"40":-0.08742644405595644,"41":-0.4625129753086189,"42":0.10722145236965339,"43":-0.04522074786890949,"44":0.2715200464587205,"45":-0.015243370170661456,"46":-0.06869988403031849,"47":-0.15445880295136266,"48":-0.14834950080062018,"49":-0.09698055651228579,"50":0.08701102952387749,"51":-0.09012757255920753,"52":-0.26981082065585144,"53":-0.44435653460682456,"54":0.08897766061978833,"55":-0.36766909262884484,"56":0.08510730139831338,"57":0.03943924832492469,"58":-0.14251698624035902,"59":0.07048365172548987}},"7":{"bias":-0.2939561326283987,"weights":{"0":-0.0194628554534194,"1":-0.5580634231438252,"2":-0.3712779083660756,"3":0.17708608673681586,"4":0.09127949711854443,"5":0.042797022149374704,"6":-0.08596527817601117,"7":-0.18429254378620524,"8":-0.40056757405772053,"9":-0.008508215911566742,"10":0.052684563776988436,"11":-0.1353638676681638,"12":-0.10384164457534652,"13":-0.5553353640090661,"14":-0.779349536773601,"15":-0.17665924641707592,"16":-0.1631141555751969,"17":-0.2849608904769131,"18":-0.10516332742055728,"19":-0.04701407511121047,"20":-0.2721830336333623,"21":-0.08775718463191558,"22":0.040010296759629915,"23":-0.13441551121143874,"24":-0.1674439624796119,"25":-0.09044929918005024,"26":-0.36338190840022677,"27":0.131742386011125,"28":-0.539285751734571,"29":-0.5707708180299719,"30":0.016486743241105932,"31":0.08840450077824878,"32":-0.07175790149640386,"33":0.0708630480664564,"34":-0.21658305871036876,"35":0.07836355212149912,"36":-0.14299098337928312,"37":-0.026415225013420387,"38":0.004554140666973669,"39":-0.4031436461308175,"40":-0.16780159371062972,"41":-0.2842820599847779,"42":-0.07277624102392566,"43":-0.22187393843266406,"44":-0.012858034293457726,"45":-0.2296246689761621,"46":-0.11487775822620916,"47":-0.12937951448768423,"48":-0.28078306323185576,"49":0.010462067703719012,"50":0.20333860807600984,"51":-0.3343513942651193,"52":-0.24044397540285387,"53":-0.30543914877085737,"54":-0.11921272523932269,"55":-0.34930084777043063,"56":0.07249815704912024,"57":-0.09958331469605573,"58":-0.10613324930850199,"59":-0.15163047576857314}},"8":{"bias":0.18051860970504344,"weights":{"0":-0.00032568985740923827,"1":0.8928472079695693,"2":-0.9192340711614727,"3":-0.5484974182001066,"4":-1.1628821633155748,"5":-1.8321311171822199,"6":-0.30440635301113905,"7":-0.46883277057159184,"8":-0.5955795546289032,"9":-0.1281286616735634,"10":-0.04673799894134999,"11":-0.00960531659535191,"12":-0.2726194296839074,"13":0.8236570292242993,"14":0.10876230373390056,"15":-0.06012980189892802,"16":0.7752199851538526,"17":-0.44873127614657193,"18":-0.8979504142405833,"19":-0.5919560374495271,"20":-1.3452422070790118,"21":-0.6844625438223991,"22":-1.3907191678501907,"23":-1.57158899882083,