{"layers":[{"0":{},"1":{},"2":{},"3":{},"4":{},"5":{}},{"0":{"bias":-0.35098888954998586,"weights":{"0":-6.56029743862931,"1":-4.710991783654373,"2":0.22830574876266344,"3":2.759948023048767,"4":-0.9842542751819385,"5":5.478933910411856}},"1":{"bias":-1.5098745961822537,"weights":{"0":1.0949351851337759,"1":0.6167540437036566,"2":-1.6788974460138606,"3":-1.4790756925268431,"4":0.3421273738265502,"5":3.7413851980442674}},"2":{"bias":0.17054067826494831,"weights":{"0":-0.9675496132577555,"1":-0.8295211550371446,"2":-0.4669099164595987,"3":0.15607198932432798,"4":-0.06643240069921515,"5":-1.5615809262280818}},"3":{"bias":-0.1373655381806643,"weights":{"0":-0.7814333370711157,"1":-1.1594172449618914,"2":-0.4179206744192067,"3":0.8286200915430761,"4":1.0616850437817535,"5":-3.0301398854141737}},"4":{"bias":0.14492365001469307,"weights":{"0":-0.7783903636269348,"1":-0.2689772021775571,"2":-0.574694461862606,"3":0.16531315559709608,"4":-0.4631848044142859,"5":-1.566225531639603}},"5":{"bias":-0.40892338503364006,"weights":{"0":-0.6036697723184561,"1":-0.1620892746350635,"2":-0.12776323268551362,"3":0.28984526979345143,"4":-0.26987530516674724,"5":-1.7621867708547725}},"6":{"bias":0.4129499386774334,"weights":{"0":-2.4604622613159486,"1":-1.3127174311221674,"2":0.9153103873817727,"3":2.292472164137328,"4":1.23705402853418,"5":-1.7169565696456397}},"7":{"bias":0.8804506034177224,"weights":{"0":-1.7026745761272755,"1":-0.5593620283832899,"2":0.7926860045522258,"3":2.18165671964471,"4":0.727450820458916,"5":-4.453500141093303}},"8":{"bias":-0.6647432447809307,"weights":{"0":-1.4691078921827248,"1":-0.7788190407708836,"2":-0.0019861717496815934,"3":0.34867562935427243,"4":0.028178333116567096,"5":1.804516238321158}},"9":{"bias":-1.4481334405978328,"weights":{"0":-0.26913254923977364,"1":-2.2364050029297147,"2":0.5142570562266809,"3":2.5250477818053327,"4":4.847507286427129,"5":-0.7032356530379729}},"10":{"bias":-0.038977858034913666,"weights":{"0":-0.07511689191416872,"1":-0.14314865135889748,"2":-0.9859412492748256,"3":-0.8778676249876813,"4":-1.7815411958951735,"5":0.1728840128173256}},"11":{"bias":0.791662547752992,"weights":{"0":-2.3780929196462095,"1":-1.7929330975296351,"2":-0.26428826899570873,"3":1.0963662186498673,"4":1.7121025547260549,"5":-3.746286862691088}},"12":{"bias":-0.8710270945056985,"weights":{"0":-1.4153443248339406,"1":-0.3414876907799108,"2":-0.11000278128428816,"3":0.1887459688349118,"4":-0.3807171930141794,"5":2.51051566211336}},"13":{"bias":-0.10240961713147247,"weights":{"0":-1.3159508577952574,"1":-0.9182708067274638,"2":-0.15680231466791614,"3":0.922293587205677,"4":1.127707898862679,"5":-3.1210970737865256}},"14":{"bias":0.39403480214379044,"weights":{"0":-1.4212102058889444,"1":-1.0146834056919536,"2":-0.3189364919775431,"3":0.9353456550199306,"4":0.4637099773234161,"5":-2.565082166914112}},"15":{"bias":0.37174938273506336,"weights":{"0":-2.0074012694585655,"1":-1.225602208150134,"2":0.29118129802523307,"3":1.739946351562838,"4":1.4136800035984403,"5":-4.444152845381584}},"16":{"bias":-0.2697397591337375,"weights":{"0":1.8682006748067945,"1":-0.030799201750586435,"2":-2.8140018723865614,"3":-2.597043747097338,"4":-1.6796254494624794,"5":4.26608222663557}},"17":{"bias":-0.3091430913750425,"weights":{"0":0.12582213401955938,"1":-0.08910007188755303,"2":-0.6828987924886512,"3":-0.7174747990020054,"4":-1.3594594182781312,"5":-0.44360486854625353}},"18":{"bias":-0.036551272461178945,"weights":{"0":-0.14183746279968287,"1":-0.14648457127109768,"2":-0.6817452540977544,"3":-0.7895555731954238,"4":-0.5758536076411163,"5":-1.2911715603359764}},"19":{"bias":-1.8571693090600356,"weights":{"0":0.5579803615662722,"1":0.677200661031771,"2":-1.0755559037589024,"3":-0.9092316097987295,"4":0.7714660513640166,"5":3.5312640328863214}},"20":{"bias":1.8362855613398128,"weights":{"0":-4.7238138062664135,"1":-3.269116863568598,"2":0.5313846123187764,"3":1.9451896661579056,"4":2.968267666569983,"5":-6.028077076544785}},"21":{"bias":-1.413188794516993,"weights":{"0":-0.5703037024539883,"1":-0.33948041970528375,"2":-0.3165623436728562,"3":-0.12252203596975163,"4":0.8226690906472531,"5":3.3218068749104037}},"22":{"bias":0.012220682163969468,"weights":{"0":-1.1257233865450185,"1":-1.0663728869724083,"2":-0.342767192679561,"3":0.3707246355822106,"4":0.8514740981512399,"5":-2.3408180072998586}},"23":{"bias":-0.1838361267913938,"weights":{"0":1.3063171695658182,"1":0.27095045666100054,"2":-1.8679300071264444,"3":-1.8351086123323246,"4":-1.6378105394234321,"5":0.6015706788678605}},"24":{"bias":0.15441787089427905,"weights":{"0":-0.20343876057353197,"1":0.42869426412662864,"2":-0.18151750096149588,"3":-0.16837780172644834,"4":-1.6837916633225716,"5":-1.2511578347538994}},"25":{"bias":-0.42121747580246494,"weights":{"0":-0.09343651337663356,"1":0.056354975546882735,"2":-0.22295276942840056,"3":-0.4705157927834519,"4":-0.7543113769941762,"5":-1.3501979808998967}},"26":{"bias":-0.19525524422209348,"weights":{"0":-1.5794859150312135,"1":-1.0869490058316265,"2":0.41879720027333334,"3":1.516180741162098,"4":1.1019739948461351,"5":-1.7236037933673054}},"27":{"bias":-0.2737524860455722,"weights":{"0":1.1838326189625459,"1":1.2672321551622838,"2":-0.5486403058742225,"3":-0.818881715729841,"4":-1.0449603466187205,"5":-2.3361947283717504}},"28":{"bias":-0.28054671379773893,"weights":{"0":2.0331984946740884,"1":0.7250556489706252,"2":-2.139944677577298,"3":-2.0782103386412545,"4":-1.7095922239568555,"5":0.8714348298278584}},"29":{"bias":0.3569429463717348,"weights":{"0":-1.7442823036306703,"1":-0.5308458257978251,"2":0.36024371766974167,"3":1.47919534420848,"4":0.9879039870969005,"5":-4.507211196252273}},"30":{"bias":-1.0280295335121163,"weights":{"0":-1.3618405872698438,"1":-0.29125707189010797,"2":-0.23987911842880877,"3":0.06519491048435931,"4":0.0074200947124478285,"5":2.8324001857308003}},"31":{"bias":-0.5866985553166336,"weights":{"0":0.6825422385923369,"1":0.2628785049133509,"2":-1.468938929200932,"3":-1.1947813617935972,"4":-1.7866751711926363,"5":1.7925369893819487}},"32":{"bias":-0.27434328014416176,"weights":{"0":-2.3106735597626855,"1":-1.0457054168705398,"2":0.9034178901777141,"3":1.4259102875504104,"4":1.4687703021140839,"5":-0.03797664216588124}},"33":{"bias":-1.0700135728548832,"weights":{"0":-1.624635577830732,"1":-0.6359252422320071,"2":0.19133238148284884,"3":0.4013263712896433,"4":0.5322769896587413,"5":2.655512003283801}},"34":{"bias":-0.5267070014732691,"weights":{"0":-0.3535518484059141,"1":-0.292625155668923,"2":-0.544391633102767,"3":-0.26346796633109243,"4":-0.4337632116296173,"5":-0.9793188049257199}},"35":{"bias":-1.230933967469325,"weights":{"0":-3.464412111139356,"1":-1.7876337224831609,"2":0.7015793627778972,"3":1.0900973225832755,"4":0.08765056385597692,"5":3.4244001245296296}},"36":{"bias":-1.6698693254303874,"weights":{"0":3.3589284166178235,"1":4.2303613971281475,"2":3.2714054993662782,"3":-0.5158853869785048,"4":1.8031025891180537,"5":-8.49447540666797}},"37":{"bias":0.1440574170669443,"weights":{"0":-2.0752575052184943,"1":-1.0272167092514455,"2":0.3824817609873075,"3":1.786663628224621,"4":1.6065783512286795,"5":-4.2260476077356195}},"38":{"bias":0.17503654861955315,"weights":{"0":-0.23116220046347824,"1":0.21776075254164404,"2":-0.4810712843617731,"3":-0.41689731838158584,"4":-1.2137260198911317,"5":-1.2936109446309938}},"39":{"bias":-0.03365173728106374,"weights":{"0":2.492170108119653,"1":-0.19511472071792818,"2":-4.033888917077993,"3":-3.38376178631761,"4":-2.0188742064743486,"5":5.6168357572235}},"40":{"bias":-0.11439930231182938,"weights":{"0":-1.3046221119771442,"1":-0.47620783792518007,"2":0.02501344138098133,"3":0.15910306774982086,"4":-0.32759982857272807,"5":-1.1199150840150833}},"41":{"bias":-0.790113292052063,"weights":{"0":0.08114255233018212,"1":-1.9748105126842426,"2":-0.432669734342514,"3":1.5442120321534507,"4":2.8533358300635103,"5":-2.7715727384987905}},"42":{"bias":0.12318720154074779,"weights":{"0":1.3714165223076646,"1":1.8022356975548055,"2":0.6280522843186729,"3":-0.10385442638894747,"4":-0.17402051429164483,"5":-5.6412670112612195}},"43":{"bias":-0.28163334488681957,"weights":{"0":0.6463417236320721,"1":0.43718898529061107,"2":-1.2534076338381932,"3":-1.115263616791284,"4":-1.4586899086705798,"5":-0.5005794181675626}},"44":{"bias":-1.358552345148036,"weights":{"0":-0.3757148146015933,"1":-0.11061276982010111,"2":-0.6667754985412304,"3":-0.5036872643996481,"4":0.2838944443908473,"5":3.7486523815063766}},"45":{"bias":-0.6598476661431283,"weights":{"0":-1.5583627091437788,"1":-0.7282828620252478,"2":0.09948927315353472,"3":0.3994554354258834,"4":-0.4113537927403616,"5":1.7631957543464505}},"46":{"bias":-1.0875996865467177,"weights":{"0":-2.1339032702509977,"1":-1.1282303037372383,"2":0.29832074199507286,"3":0.66969577656664,"4":0.5603571450997841,"5":3.426713134898668}},"47":{"bias":-0.2619713883467349,"weights":{"0":-1.1582771388113682,"1":-1.1108552046656912,"2":-0.876142019306143,"3":-0.09201513283748056,"4":-1.3158782449669415,"5":3.0912995050028207}},"48":{"bias":-0.6670223846889503,"weights":{"0":-0.3203766687350959,"1":-0.9938229528572542,"2":-0.770600348543416,"3":-0.062090469520345026,"4":0.148199812827798,"5":-0.0757493461266328}},"49":{"bias":-1.2673794938089293,"weights":{"0":-1.2710983943474141,"1":-0.6015596083464304,"2":-0.3521226912538187,"3":0.17647564777461833,"4":0.031106683629262725,"5":3.961029687016844}}},{"0":{"bias":-0.2841432712479891,"weights":{"0":1.391919360840125,"1":0.35074159967517676,"2":-0.21388453129527019,"3":-0.41464976222305744,"4":-0.1883323882772001,"5":-0.17665944010739879,"6":0.0772278803922861,"7":-0.3784985922143422,"8":0.007093510428310419,"9":-0.28699820180125035,"10":0.18434636643240704,"11":-0.18744189677591097,"12":0.16872521861968715,"13":-0.4263262831965952,"14":-0.03600277482439155,"15":-0.4338254577580932,"16":0.5091461977386835,"17":0.14578710063226188,"18":-0.19055558080975346,"19":0.02983434849214385,"20":-0.7588465086910658,"21":0.14767483288336306,"22":-0.018252217543303226,"23":0.09644189399523427,"24":-0.09184111242045376,"25":-0.15657027720635022,"26":-0.10281060976776858,"27":-0.4998027630457112,"28":0.37023226600908693,"29":-0.441579102140216,"30":0.3285322206782059,"31":0.06449329434203455,"32":-0.03446422117730024,"33":0.060586180348883335,"34":-0.01855329358023908,"35":0.5071233498752882,"36":-1.423078864477502,"37":-0.207778489050353,"38":-0.27095821852288665,"39":0.6219024022603186,"40":0.0338713361736509,"41":-0.19910199605695225,"42":-0.8449948811498705,"43":-0.17858754147738123,"44":0.11021582319092851,"45":-0.03372537466096903,"46":0.2817373829591703,"47":0.19148284538071048,"48":0.047849045699758966,"49":0.4013815329923755}},"1":{"bias":0.1688555697234646,"weights":{"0":-1.6609719148601867,"1":-0.07345123211892478,"2":0.162404793446988,"3":0.49656307735803623,"4":0.06513427814573046,"5":0.4369986248830642,"6":0.003145366195140094,"7":0.640187112683887,"8":-0.4227457694314152,"9":0.6947667160940398,"10":-0.22300445588146173,"11":0.18316345546359497,"12":-0.39588150123570043,"13":0.5447737063085767,"14":0.2737883045706598,"15":0.487966524668532,"16":-0.8260794943187383,"17":0.0002611735194026812,"18":0.08729892859381495,"19":0.0013402658565456159,"20":0.41508153201567755,"21":-0.3677290684046399,"22":0.4107783908361462,"23":-0.2475202186124462,"24":0.14122486898157724,"25":0.18512219979010094,"26":0.06455592325313933,"27":0.7360346960907078,"28":-0.1902865869596959,"29":0.527554278666511,"30":-0.5345689528579571,"31":-0.24786418052086984,"32":-0.18313684763019789,"33":-0.6221524313146007,"34":0.20524735783869222,"35":-1.075391081852499,"36":1.9894853052687003,"37":0.31273944693388406,"38":0.0898453717035582,"39":-1.109545325554584,"40":-0.039583495089637745,"41":0.4899336045735381,"42":1.126630368019602,"43":0.26631410995896887,"44":-0.4685401517671701,"45":-0.30559582941772656,"46":-0.4789756546025302,"47":-0.757002601528082,"48":0.1651041597636158,"49":-0.37686007649680564}},"2":{"bias":-0.2963822526651193,"weights":{"0":-0.39661471858883834,"1":-0.11872060733458054,"2":-0.09992594101340553,"3":-0.1392900442812998,"4":-0.3990986563307264,"5":-0.3813311546541834,"6":-0.48556439189602657,"7":-0.1721190186991639,"8":-0.10340297856112457,"9":0.2226026181597893,"10":-0.3219767920968805,"11":-0.26067470974378376,"12":-0.0541792740151158,"13":-0.32589143261580716,"14":-0.2716321908730069,"15":-0.043734638740516106,"16":-0.17070619319256267,"17":-0.11907952570480766,"18":-0.034387861547220594,"19":-0.09190447120384926,"20":-0.24421812796094794,"21":-0.20766382353610566,"22":-0.18983868027642947,"23":0.038857118303665845,"24":-0.4068412999905331,"25":-0.37220996979044013,"26":-0.08567766489210733,"27":0.04574793646978869,"28":-0.1491790205658045,"29":-0.15938402984615876,"30":-0.2428205864704472,"31":-0.12194157838700878,"32":-0.15052169030562398,"33":-0.0658801594306905,"34":-0.3186727797281582,"35":-0.15280991809392105,"36":0.15009314288690825,"37":-0.12051272928211709,"38":-0.34582605116010795,"39":-0.062173803792886395,"40":-0.21404249387438914,"41":-0.037990295645255676,"42":-0.025252574617972236,"43":-0.2518665819736023,"44":-0.21761112425886603,"45":-0.18177845855089156,"46":-0.26621138399730093,"47":-0.2968578497149299,"48":-0.12900288896936224,"49":-0.13141217324337437}},"3":{"bias":-0.5667593656356421,"weights":{"0":2.796496895065843,"1":-0.07836104973946609,"2":-0.06194273687980236,"3":0.002178244527521233,"4":0.11246448691281344,"5":-0.15054749868954415,"6":0.09895499845461972,"7":-0.3695362964295316,"8":0.45902633624139333,"9":-0.2783783036820822,"10":0.24155048343776442,"11":0.18238165962227473,"12":0.17283041203537608,"13":-0.09831386990132464,"14":0.060293539888303424,"15":-0.155948625246685,"16":0.6837503557657053,"17":-0.0039024866578238056,"18":-0.21228202843482638,"19":-0.020951884782665835,"20":-0.4003526778061993,"21":0.09986548305939837,"22":0.030019224420629594,"23":0.07442114121860155,"24":0.006216089206181224,"25":-0.22517046283934736,"26":0.20929690246159363,"27":-0.9203842366864877,"28":0.052317101470012374,"29":-0.3192571723544338,"30":0.1960241762360296,"31":0.20729243193304936,"32":0.3254005384921986,"33":0.4334745590071101,"34":0.021760835183779813,"35":0.8805251308879366,"36":-2.7551253962156443,"37":-0.04096914342133844,"38":0.02238197485366628,"39":1.0604096565235397,"40":-0.03603770120971305,"41":-0.19948868120300198,"42":-1.4415181421427354,"43":-0.12055549118009459,"44":0.17150244224847008,"45":0.5390228609296919,"46":0.8273707556415121,"47":0.7779768535428911,"48":0.23808746473056266,"49":0.6241672693464531}},"4":{"bias":-0.3461284227591561,"weights":{"0":0.15321346033144836,"1":0.2948861372449243,"2":-0.3232711544859811,"3":-0.39926673985736744,"4":-0.24360944772679047,"5":-0.1004942872159866,"6":-0.6365361200120788,"7":-0.626172206963005,"8":-0.22893417564032445,"9":-0.5745923794556513,"10":0.03412044560713587,"11":-0.4794485972561992,"12":-0.19613496369857444,"13":-0.31593351599737846,"14":-0.15192793199097446,"15":-0.6921849443869152,"16":0.5730499744226197,"17":-0.007470103639180307,"18":0.16190135003770348,"19":0.21415316914958665,"20":-0.8892887218620147,"21":-0.12217794814678519,"22":-0.20346004143654597,"23":0.39817296015322273,"24":-0.03759721375619714,"25":-0.10868236000903979,"26":-0.3708120385097753,"27":0.11503347249863456,"28":0.47679818714804634,"29":-0.329459548230735,"30":-0.14108495043022798,"31":0.18835052833002558,"32":-0.42990729861046895,"33":-0.10031187108977055,"34":0.04538035155932147,"35":-0.030334663676880903,"36":-0.5042699237236916,"37":-0.5786149670477008,"38":-0.07752000620573431,"39":0.6965444090403025,"40":-0.22889993143433277,"41":-0.6301913800012049,"42":-0.23855532844613564,"43":0.3413149955884826,"44":0.04066119369045569,"45":-0.2730743736424398,"46":-0.21884467343812045,"47":0.1764097395142602,"48":-0.2713835410748784,"49":0.13755287214145115}},"5":{"bias":0.5637428482367657,"weights":{"0":-0.9689853129844613,"1":0.05066065763143407,"2":0.4277775899643412,"3":0.8230723570696782,"4":0.6753057751011492,"5":0.33299112113091556,"6":0.056741441286518694,"7":0.7493629997241443,"8":-0.4128877167326842,"9":0.27321668549095723,"10":0.007456973906740898,"11":0.6724212683508433,"12":-0.44376820291242164,"13":0.7261578654468944,"14":0.5298322722669668,"15":0.5592851269452809,"16":-0.14241430265162788,"17":0.05241004486308678,"18":0.37835196805071286,"19":-0.2517295869936454,"20":0.5033592226646535,"21":-0.34954746328913855,"22":0.339228214409207,"23":0.26755866732379757,"24":0.4336603806437651,"25":0.374177004197884,"26":0.0291619733419666,"27":0.676941513862851,"28":0.1729535975310512,"29":0.8212413900944667,"30":-0.41858095730923084,"31":0.0615242317577028,"32":-0.06395221704524462,"33":-0.592840542198665,"34":0.29717620847631077,"35":-0.9565962902389791,"36":0.9654922325554313,"37":0.42375532290521484,"38":0.32275765640704107,"39":-0.27399008011415893,"40":0.3512811312881562,"41":0.32838289594366743,"42":1.2341668470160225,"43":0.46502183138578723,"44":-0.5058869118805416,"45":-0.18714092592552578,"46":-0.5832064080325187,"47":-0.39539929674171637,"48":0.3575787709611021,"49":-0.4159342179640246}},"6":{"bias":-0.051388664298300864,"weights":{"0":-0.3331144362625603,"1":0.06768774994424256,"2":-0.37751588737143904,"3":-0.2218772413370235,"4":-0.19359704819241025,"5":-0.3687834328453312,"6":-0.3535116607093909,"7":-0.45334051160905736,"8":-0.266385249880421,"9":0.44241854577280515,"10":-0.320098592383009,"11":-0.09103484106955205,"12":-0.28796090510830147,"13":-0.019300699296306727,"14":-0.254544737615025,"15":-0.41317944034624726,"16":0.02047159476089565,"17":-0.19557604434208437,"18":-0.40539388130421444,"19":0.090991170323277,"20":-0.10810668192300378,"21":-0.038063601542901816,"22":0.00043997472626950746,"23":-0.02843474706588147,"24":-0.36021532551087293,"25":-0.13898853414654855,"26":-0.34753440921536277,"27":-0.24130017994233255,"28":-0.13808944402239626,"29":-0.3317261007123092,"30":-0.15637203734428387,"31":-0.25862954428010393,"32":-0.31286949624257865,"33":-0.09699066457597581,"34":-0.04434890554421939,"35":-0.3419259650994149,"36":0.41792158123968115,"37":-0.16207115391384155,"38":-0.44945561118578486,"39":-0.06380401453288871,"40":-0.3263330860796199,"41":0.17092438797648918,"42":-0.2992918125047501,"43":-0.1887015019488033,"44":0.1660143196283499,"45":-0.12163883314384662,"46":-0.14930330420474178,"47":-0.10105576595927968,"48":-0.25372856966452695,"49":0.04325652961687085}},"7":{"bias":-0.5844816816931905,"weights":{"0":-0.8115201612534827,"1":0.1379836614124113,"2":-0.17850021167830848,"3":-0.12037721312525478,"4":-0.08902587962931525,"5":-0.22930922349893873,"6":-0.17118835008118047,"7":-0.16589343456492892,"8":-0.21849764684851258,"9":0.44631492253648053,"10":-0.4854245132031724,"11":0.2268578856634108,"12":-0.26562356373929213,"13":0.18482671769789,"14":-0.03792098850989868,"15":0.16995110849356596,"16":-0.5538093416242885,"17":-0.36566488270082864,"18":-0.4094665855170634,"19":0.0083063137851807,"20":0.3562058031043663,"21":0.1265103073855967,"22":-0.11065689526731015,"23":-0.2711351123252835,"24":-0.5524580449241709,"25":-0.12218845805563622,"26":-0.20632368263486472,"27":-0.3838676653113576,"28":-0.1804257700369764,"29":-0.04102697532788077,"30":-0.3499904893645658,"31":-0.28257261263177996,"32":-0.1293703626058006,"33":0.021805576687325905,"34":0.04708424247410419,"35":-0.21874761008709068,"36":0.07874729558385843,"37":0.1183213374636664,"38":-0.5144115641585124,"39":-0.6599215992416764,"40":-0.24720079168730175,"41":0.30347791688468484,"42":-0.21799983016259894,"43":-0.416056341669254,"44":-0.22167204699957677,"45":-0.1899265964486829,"46":-0.2823427825147102,"47":-0.45365141987537094,"48":0.030355706837260604,"49":-0.15438337179800643}},"8":{"bias":-0.17993413154907925,"weights":{"0":0.4037675190505865,"1":0.8055384218954361,"2":-0.4270859331506088,"3":-0.5756703570063748,"4":-0.14546856575959782,"5":-0.3963736440574146,"6":-0.675617205232553,"7":-0.8659898013460942,"8":0.017521306676980347,"9":-0.12495920609745848,"10":-0.09204136518255403,"11":-0.6806626552037978,"12":0.01859790111138772,"13":-0.5203691497571313,"14":-0.6089148059433205,"15":-0.6779478439130816,"16":0.7521748827160574,"17":-0.27348599830654124,"18":-0.1080798116490937,"19":0.5729540358010666,"20":-1.0904885896492562,"21":0.4679457416059362,"22":-0.3101153945897228,"23":0.09413170492234073,"24":-0.2474882178106028,"25":-0.32679313619217626,"26":-0.4827392485506938,"27":0.058804717588912814,"28":0.30256536775069776,"29":-0.45766859269911153,"30":0.08821401382873376,"31":0.2245826700684381,"32":-0.19240061880524484,"33":0.26826907502927577,"34":-0.13052350507291638,"35":0.11363301657415122,"36":-0.5998127708420716,"37":-0.5456762791161698,"38":-0.24965801467121868,"39":0.5759975329071599,"40":-0.4414478334447339,"41":-0.24257199270034813,"42":-0.6168483445323865,"43":0.09653469195694397,"44":0.44731767145823775,"45":-0.1883552951362684,"46":0.35045871380372845,"47":0.32215301460613516,"48":-0.23177839532039,"49":0.4090221952985804}},"9":{"bias":-0.16697411573863932,"weights":{"0":-0.3274938773086839,"1":0.2628089380018234,"2":-0.14851495189395242,"3":-0.141411604445824,"4":-0.2464230630885386,"5":-0.2199690980156761,"6":-0.659250355764493,"7":-0.5638791135645201,"8":-0.17293921422264852,"9":-0.4658098080777264,"10":-0.03822371986155514,"11":-0.5145666972305081,"12":-0.1981660773878618,"13":-0.393578140351115,"14":-0.418804734310469,"15":-0.6556347720163901,"16":0.2594296511747967,"17":-0.05619330585038748,"18":0.00793201816113615,"19":0.03717500819987687,"20":-1.0982829186013792,"21":-0.10110168358170131,"22":-0.363804352941362,"23":0.2930185300354945,"24":0.1448427083290305,"25":-0.12724829422341885,"26":-0.5234328400760874,"27":0.3088322310465977,"28":0.45646058035525894,"29":-0.2648479568557393,"30":-0.3241970041651994,"31":0.29355714534859617,"32":-0.7533790330703247,"33":-0.2377942487214464,"34":0.15087285604908285,"35":-0.20052078704632623,"36":-0.013216137180303924,"37":-0.4231682414901454,"38":0.006973139559339744,"39":0.48967588692209096,"40":-0.36841374148520656,"41":-0.2471298619006463,"42":0.051521274077922626,"43":0.28036707504003966,"44":0.15907659628874718,"45":-0.2605707035748355,"46":-0.4991626406185753,"47":-0.10936534859660398,"48":0.01940264790012842,"49":-0.06884761800575281}},"10":{"bias":-0.45435232414226945,"weights":{"0":-0.7613868469208118,"1":0.27425713437689303,"2":-0.3008420448244236,"3":-0.12475140568890417,"4":-0.01733843479159866,"5":-0.323270784534544,"6":-0.526932200928558,"7":-0.18448887113973597,"8":-0.31764143933800487,"9":0.24781286020987958,"10":-0.32469961866130775,"11":-0.05565267779956237,"12":-0.5349947246835818,"13":-0.1413918148266207,"14":-0.2901656811075312,"15":0.009237612412368191,"16":-0.5684109085845678,"17":-0.09805189840490612,"18":-0.2183239542441161,"19":0.06972618868072296,"20":-0.16891386986536264,"21":-0.019025540353809305,"22":-0.08121791840645877,"23":-0.31757395735218685,"24":-0.18947188239010573,"25":0.013583133481716787,"26":-0.20955859132712504,"27":0.00684175112744298,"28":-0.27177892397356607,"29":-0.049113100026813544,"30":-0.49343542970338045,"31":-0.4429679368657179,"32":-0.23475278727311705,"33":-0.3723740433312289,"34":0.01455594332258708,"35":-0.5131001725794311,"36":0.4256496558298717,"37":0.016256004276615336,"38":-0.38567372137574,"39":-0.5913694339468315,"40":-0.27988217407565286,"41":0.05848510769022036,"42":0.2504320158358862,"43":-0.06179606407774488,"44":-0.03791496970218173,"45":-0.2343504055163546,"46":-0.5011665704608935,"47":-0.5896187990326729,"48":-0.04330957532102752,"49":-0.35889453825672935}},"11":{"bias":0.4231103204262124,"weights":{"0":-0.6824420153164604,"1":-0.06617146671347023,"2":0.5670429383489454,"3":0.4415183444829983,"4":0.6432217315464515,"5":0.24736526497356975,"6":0.2303233911912407,"7":0.484308664977636,"8":-0.1557676914839195,"9":-0.384069979608968,"10":0.24758796872814479,"11":0.34941134927158657,"12":-0.4621525966140754,"13":0.6155137530610953,"14":0.5160508053000075,"15":0.45491711096766296,"16":0.021947186809652887,"17":0.37495919368409275,"18":0.44961838593861747,"19":-0.340331846241019,"20":0.5663603883924058,"21":-0.5312032851776558,"22":0.5297240516463809,"23":0.6311723298318926,"24":0.4990932047286293,"25":0.3754828199520024,"26":0.28161431810593957,"27":0.7702851146760815,"28":0.3805634633788646,"29":0.6707521195995758,"30":-0.2532014167331124,"31":0.14479795201986978,"32":-0.372704210195578,"33":-0.6116260989563085,"34":0.5105645194806692,"35":-0.6444721885416538,"36":0.24271622679886945,"37":0.30089694965016767,"38":0.5572877907369501,"39":0.2890777872857293,"40":0.27807251125421123,"41":0.3785989894496123,"42":1.0376682190983175,"43":0.39943083469789165,"44":-0.16223654131120002,"45":-0.20928359150905945,"46":-0.45631324550188546,"47":-0.08296774232211947,"48":0.10580923364472995,"49":-0.43530211462486823}},"12":{"bias":-0.17949203474364617,"weights":{"0":1.020710508981319,"1":0.8934643508560747,"2":-0.40093338629472625,"3":-0.35551303757036007,"4":-0.23364508777219103,"5":-0.3515979062538607,"6":-0.4855132296731189,"7":-0.6889635426813855,"8":0.4224010737665257,"9":0.21280320797436816,"10":-0.17642846866399917,"11":-0.45933364322087594,"12":0.38824496115925133,"13":-0.35906428812022656,"14":-0.5572612809897614,"15":-0.7948124132357212,"16":0.6015797391925493,"17":-0.08920577073595834,"18":-0.30864173267195055,"19":0.8258674657188481,"20":-0.9575670128948292,"21":0.6995319281803721,"22":-0.2761165660833598,"23":0.18634478382523945,"24":-0.6315668875639907,"25":-0.5222463665054927,"26":-0.1578687448072121,"27":-0.41016130158590075,"28":0.275949076347266,"29":-0.848458862079897,"30":0.37686689496055314,"31":0.2964065968237149,"32":0.23952654639129314,"33":0.6282857463101034,"34":-0.30574067578612946,"35":0.7430775777590863,"36":-0.9245163082386819,"37":-0.655998499675467,"38":-0.3243822647814834,"39":1.0888047051817922,"40":-0.4412727122422718,"41":0.03396223052642095,"42":-0.9734256679017036,"43":-0.07271293705912968,"44":0.5602649372233381,"45":-0.05388571157083831,"46":0.6598626981780156,"47":0.45779275483605286,"48":0.07074905661993768,"49":0.6629626661497396}},"13":{"bias":-0.36495116944421885,"weights":{"0":1.0717872023273067,"1":0.599311266624492,"2":-0.1246040238835958,"3":-0.28105415043695764,"4":-0.006282072853556663,"5":-0.05175138218454295,"6":-0.2454689585841326,"7":-0.613947802471207,"8":-0.021697668459142776,"9":-0.7781398727741279,"10":0.377652801594793,"11":-0.5494174397417232,"12":0.11132914864643673,"13":-0.39834808531510296,"14":-0.029157237591749943,"15":-0.371218743389315,"16":0.9042502531533194,"17":0.22062501300891715,"18":0.06256295096449238,"19":0.37057611190741396,"20":-1.026458256195159,"21":0.37945850023260463,"22":-0.1103536948378408,"23":0.33504961054852317,"24":-0.18501634288036692,"25":-0.05238247181481833,"26":-0.3907958974095228,"27":-0.12529071464263394,"28":0.6694706954991442,"29":-0.5571209604568366,"30":0.24219027032500237,"31":0.2486936299054542,"32":-0.49926570510043317,"33":-0.07638187499872418,"34":-0.2018387996270904,"35":0.3298996626262728,"36":-1.9333153886566183,"37":-0.5446963084609654,"38":0.12087510524943265,"39":1.3668243210405204,"40":-0.18792829599693042,"41":-0.500452136009061,"42":-1.0125213060368696,"43":0.16068793552884614,"44":0.3956335594360891,"45":-0.018273585517399646,"46":0.36257620342597846,"47":0.5182318262576875,"48":-0.09453067924311791,"49":0.23949161105912878}},"14":{"bias":0.44972523661570624,"weights":{"0":-0.9491462034358595,"1":-0.49704600935551657,"2":0.861369133935422,"3":0.9362894374054295,"4":1.0568534816682633,"5":0.7009072269367156,"6":0.5036157562835027,"7":1.1505452814580694,"8":-0.023737418075733128,"9":-0.3632181623494839,"10":0.6136906714755139,"11":1.1710040494502183,"12":-0.29823951402090576,"13":0.7939289903495573,"14":1.0549926885022776,"15":0.9959230537142884,"16":-0.14668199327671635,"17":0.5923798623071654,"18":0.9574396760624629,"19":-0.5642934679158035,"20":1.280847866733709,"21":-0.5395180596629252,"22":0.7033670394475228,"23":0.48764874143737597,"24":0.8743284275169846,"25":0.5679249109588814,"26":0.5257567651412447,"27":1.1961340881509168,"28":0.48001227464091606,"29":1.1204250743628006,"30":-0.6401318725124819,"31":-0.05317170786901505,"32":-0.2391840831700002,"33":-0.6724204921096741,"34":0.6197535573776761,"35":-0.8671516621731831,"36":0.9307124981707642,"37":0.786705785596353,"38":1.044832976985182,"39":0.07609821335261195,"40":0.7063273432109706,"41":0.5069263754035704,"42":1.54447093745968,"43":0.6328320089922514,"44":-0.6597134989280181,"45":-0.19086813977709352,"46":-0.7712942748762938,"47":0.08337943648911426,"48":0.33762363165951353,"49":-0.6764959627929577}},"15":{"bias":-0.11724392789007947,"weights":{"0":-0.20191719873064448,"1":0.5984527831524233,"2":-0.4068073844181136,"3":-0.22385340595101288,"4":-0.43706589296252735,"5":-0.3404114903731935,"6":-0.5044576444811717,"7":-0.7113326416710163,"8":-0.1828165566969791,"9":0.3985622464572457,"10":-0.16391484508686588,"11":-0.5210136932102443,"12":-0.05192961848413155,"13":-0.21901402431143024,"14":-0.5483606550444438,"15":-0.41000893212340145,"16":-0.04470368751254541,"17":-0.3531974088572157,"18":-0.353933219421532,"19":0.45837121906072037,"20":-0.7832482269766822,"21":0.3955272633922087,"22":-0.444990643684914,"23":-0.19893627382446397,"24":-0.5235728298219613,"25":-0.13591481683538872,"26":-0.27078968114322405,"27":-0.0371889841997843,"28":0.0897465826244591,"29":-0.602637515674109,"30":0.2014163948358836,"31":-0.014829340082700562,"32":-0.31018258978598295,"33":-0.06041762248032937,"34":-0.2516399639063522,"35":0.22737172462191324,"36":0.47877061925308745,"37":-0.24699399764327845,"38":-0.38558313521956755,"39":0.12889506218133204,"40":-0.38896208034033836,"41":-0.2552337008974477,"42":-0.2924797745845862,"43":-0.14003491722673952,"44":0.1338111348962076,"45":-0.09855240380578767,"46":0.11103018592987218,"47":-0.20139108247651236,"48":-0.025892388782014414,"49":0.2744893502480237}},"16":{"bias":-0.08026705509513779,"weights":{"0":0.5815131196036385,"1":0.4590273462915392,"2":-0.19504699228408418,"3":-0.36279379610718127,"4":0.07673760643076963,"5":0.010240126959351819,"6":-0.6001887954028388,"7":-0.623576203117832,"8":-0.032326440133888336,"9":-0.9506196577943009,"10":0.37172476869720217,"11":-0.593950442942375,"12":-0.0006071925600583193,"13":-0.2478741074192668,"14":-0.29738275880830883,"15":-0.4066263750891905,"16":0.8742385424550281,"17":-0.011845119128351905,"18":0.019897886547705027,"19":0.4027852728537894,"20":-1.3178424234227593,"21":0.20803157485701507,"22":-0.4372414059945762,"23":0.3673574228084072,"24":0.05874643557415219,"25":-0.11036268344853953,"26":-0.5572999513756886,"27":0.23768574711095278,"28":0.43348725214335226,"29":-0.6289705127693621,"30":-0.022696482787476262,"31":0.2612956514965078,"32":-0.5413358887346266,"33":-0.1055768794473973,"34":0.16854925078697655,"35":-0.0966690098608382,"36":-1.481771557079387,"37":-0.46094282545587,"38":0.1204089645210008,"39":1.0395516056998695,"40":-0.36419129104424286,"41":-0.6270759178868515,"42":-0.7415323725514271,"43":0.301223088831763,"44":0.3849396283056696,"45":0.038178690052800425,"46":-0.1704615324177919,"47":0.25867266049085114,"48":0.014291981662461999,"49":0.21613934575016208}},"17":{"bias":-0.3977047829052108,"weights":{"0":1.9076620204857349,"1":0.36604427463188877,"2":-0.03387899135887747,"3":-0.5942764407772838,"4":0.02304908185219777,"5":-0.44632021866334853,"6":0.1941431575285473,"7":-0.8742042904456853,"8":0.46112841398081944,"9":-0.4164789457894495,"10":0.3455017645624959,"11":-0.32284253010683533,"12":0.4175175519628818,"13":-0.5694860479183382,"14":-0.3009007245781495,"15":-0.9003581428161015,"16":1.0737849421915955,"17":0.08191475507188961,"18":-0.2195204383107593,"19":0.27182600519894334,"20":-0.6748348385455475,"21":0.4806163804439696,"22":-0.31304018780615606,"23":0.3184999390278435,"24":-0.28464793352101364,"25":-0.26142464972849416,"26":-0.17744936828113322,"27":-0.6137684748488355,"28":0.2248976123422251,"29":-0.8918601339843959,"30":0.5896819726333756,"31":0.40324847528397884,"32":0.12907460663899026,"33":0.4067388938533652,"34":-0.18830441679528365,"35":1.07489294429203,"36":-2.533302426576416,"37":-0.83042849577023,"38":-0.2553123902789007,"39":1.6303858417201564,"40":0.26567599490605187,"41":-0.5149739112330216,"42":-1.6039747016465153,"43":-0.012200167824705356,"44":0.5962320400296818,"45":0.5014133647283558,"46":0.8618416264010452,"47":0.93050517846719,"48":0.28483553629170544,"49":0.4241536826971595}},"18":{"bias":0.7083067332742051,"weights":{"0":-0.9809089786251243,"1":-0.355172450561757,"2":0.670222526801167,"3":0.6077077851048638,"4":0.5486238302521299,"5":0.5130271055081824,"6":0.40981779562841164,"7":1.0292617997308173,"8":-0.2555398638595064,"9":-0.030370610665248765,"10":0.41782332092145724,"11":0.9235678770337415,"12":-0.3241028477692646,"13":0.6167488728038867,"14":0.6330859247783617,"15":0.8993562021578544,"16":0.060533304620169044,"17":0.5297767719080144,"18":0.5263938998567832,"19":-0.5899516415625077,"20":0.7160730583504085,"21":-0.5451294019204453,"22":0.5786413618056696,"23":0.5681108048841926,"24":0.7034483451233411,"25":0.6223345749471492,"26":0.22432453718042725,"27":0.7937026955609576,"28":0.4004109608177858,"29":0.8345339509233519,"30":-0.44403813399309083,"31":-0.10322253513166273,"32":-0.2982034848566161,"33":-0.4466476737785601,"34":0.4439153681784514,"35":-0.6373220669675216,"36":0.9682551614571085,"37":0.5637023072772422,"38":0.8075940104993927,"39":-0.2693230909896747,"40":0.1835578590522432,"41":0.5593701613149831,"42":1.2042645643087422,"43":0.5225820354477838,"44":-0.5589774574647343,"45":-0.22766712299871897,"46":-0.6130455181334801,"47":-0.10836750231180117,"48":0.4226584205897777,"49":-0.615706230536971}},"19":{"bias":-0.27135990798241977,"weights":{"0":1.1779892061796668,"1":0.17643865101571563,"2":0.27866370644027244,"3":-0.19887965208475186,"4":0.2547821428333125,"5":0.043055442573079694,"6":-0.43012319737988647,"7":-0.4098984280581405,"8":0.12124236843365195,"9":-1.0020809481497366,"10":0.20950940109261496,"11":-0.3265477576726955,"12":0.027453238565459757,"13":-0.3141749119801145,"14":-0.23462689611429466,"15":-0.5654513707740592,"16":0.6370826090493888,"17":0.22116722455016932,"18":0.2629734444529301,"19":-0.05241435186728432,"20":-0.7110759863183935,"21":0.033294983096379877,"22":0.0032942290606734486,"23":0.5037138327267457,"24":0.29262311138316577,"25":0.06633642068378431,"26":-0.4732628254882297,"27":0.08564826659806889,"28":0.7066943790428454,"29":-0.517769887122576,"30":-0.06907540263534116,"31":0.3528552945584736,"32":-0.3446787870541088,"33":0.022604430965973903,"34":0.00013426392523142554,"35":0.23310082104577123,"36":-2.1910445540472727,"37":-0.5130027135808459,"38":0.17874682138691325,"39":1.2565341907556926,"40":-0.05797206490727024,"41":-0.4948630546103649,"42":-0.880310832748505,"43":0.3341401747521102,"44":0.12214646202034879,"45":0.09932067233686964,"46":-0.08230398772510514,"47":0.24648027021290106,"48":0.0532224272513734,"49":0.15565910462518023}},"20":{"bias":-0.43741786474628613,"weights":{"0":1.2768040869946176,"1":0.08890611672538308,"2":0.09376904364047822,"3":-0.12145714121157314,"4":-0.16232350049726874,"5":0.02978768653830089,"6":-0.15079081952496368,"7":-0.20480661697515795,"8":0.06535792506506971,"9":-0.6465379959021507,"10":0.04783858465594721,"11":-0.3768217435771795,"12":0.04867274660919356,"13":-0.28699569444081363,"14":-0.09691968075096319,"15":-0.41193457914601345,"16":0.8355405652458855,"17":0.21829698277890455,"18":0.12302104696792465,"19":0.21917432401158116,"20":-0.525090568222165,"21":0.2767195792756257,"22":-0.17532416507948498,"23":0.45368574702946735,"24":0.08661236965956455,"25":-0.1178861414853236,"26":-0.25525030512484503,"27":-0.3908914580068115,"28":0.16317172474486982,"29":-0.577278862143375,"30":0.030931341952805967,"31":0.1512123081217031,"32":-0.20420752216326585,"33":0.14151561959379386,"34":-0.23638304677521543,"35":0.5662081865085951,"36":-1.8658004011724139,"37":-0.535565103944803,"38":-0.2023119416835803,"39":0.9044776487512918,"40":0.024397253138051637,"41":-0.26908367608550005,"42":-0.7940276207313269,"43":-0.008641160851554499,"44":0.24536928032446503,"45":0.10369504065013126,"46":0.24992181719405612,"47":0.5563990690891876,"48":0.14684405208886034,"49":0.13548610934859537}},"21":{"bias":0.271992447798766,"weights":{"0":-1.0558310910167275,"1":-0.05080667887485864,"2":0.18396577402100223,"3":0.2754282133395362,"4":0.15229779521331674,"5":0.1537876871122332,"6":-0.16462591932428286,"7":0.38015867208711257,"8":-0.23728829717715286,"9":0.08051911108942986,"10":0.07209716199054919,"11":0.24155473923237597,"12":-0.21799919402460313,"13":0.1446411995503784,"14":0.10907257249177661,"15":0.32590712737783367,"16":-0.47300843378807345,"17":0.17239315700641603,"18":0.11294554574923371,"19":0.08717661618087809,"20":0.05569681528833653,"21":-0.21726419331346744,"22":0.022961182291019618,"23":-0.05565825428515532,"24":0.17120612060602253,"25":0.10120292782553914,"26":0.18845322054580235,"27":0.2981464619835238,"28":-0.10838347765912122,"29":0.20745059491752568,"30":-0.5215760836776577,"31":-0.36507672764236604,"32":-0.11246772874711901,"33":-0.33495212831817883,"34":-0.02063368544974209,"35":-0.913069788270082,"36":0.9622728896395706,"37":0.44855338984522924,"38":0.09162823902544248,"39":-0.4139133630382683,"40":-0.13628772684473212,"41":0.3155121743558139,"42":0.8522141594303234,"43":0.13491351407937244,"44":-0.2882261768944681,"45":-0.3414313485701484,"46":-0.548859209099649,"47":-0.47955040977584035,"48":0.07374786247848578,"49":-0.4767209339236879}},"22":{"bias":-0.31146870741329785,"weights":{"0":0.38485390292463684,"1":0.06275738717318835,"2":-0.053051132598536346,"3":-0.24431206881671305,"4":-0.07707176890263563,"5":-0.026957648952579395,"6":-0.7363041166436908,"7":-0.4496692223913593,"8":-0.045857434260479696,"9":-0.811448193553736,"10":0.28670046578107533,"11":-0.35103378119272083,"12":-0.19524547907938183,"13":-0.40901978782599324,"14":-0.10007865262442447,"15":-0.6928962883950933,"16":0.7895420077582211,"17":0.3947167210388331,"18":0.20597445698939357,"19":-0.008758359823224105,"20":-1.0565164479159033,"21":-0.2850771002470526,"22":-0.03202513200353512,"23":0.3653322276503291,"24":0.33498480638335815,"25":0.1430237678178251,"26":-0.4632343608785707,"27":0.3541557595716892,"28":0.5903915356680804,"29":-0.5227920711463554,"30":-0.19337413371661666,"31":0.18000855573956392,"32":-0.7181900622351173,"33":-0.19979689162331152,"34":-0.0777347988430602,"35":-0.4409403960245939,"36":-0.9288473840280196,"37":-0.4811934533879609,"38":0.20478643041094982,"39":0.9755721236655244,"40":0.0500120206374252,"41":-0.3928338641206682,"42":-0.11929540081108855,"43":0.46603189072436896,"44":-0.035031378529833054,"45":-0.03193120556338243,"46":-0.3782103784618422,"47":0.25928876093317776,"48":-0.07975217718364777,"49":-0.2746556027851936}},"23":{"bias":0.14004707491772034,"weights":{"0":0.032143815076959195,"1":0.9167272196524865,"2":-0.5612275393590048,"3":-0.5966411628020384,"4":-0.5538927999951568,"5":-0.38040328358109093,"6":-0.7046544416496507,"7":-0.7182042698778244,"8":0.1076046748809519,"9":-0.11906354414592646,"10":-0.021048947359547543,"11":-0.5879869548971878,"12":0.27370827338199255,"13":-0.45800411349693076,"14":-0.5504967446692652,"15":-0.7121112942025308,"16":0.2099409035143349,"17":-0.3158548281894107,"18":-0.4511696338150356,"19":0.6938116773829828,"20":-1.1267622620325,"21":0.598196426608789,"22":-0.3891510901612004,"23":-0.0128655341844199,"24":-0.5976829853421368,"25":-0.33598566870914115,"26":-0.23988682661814903,"27":-0.08324255626108096,"28":0.0018573883716697425,"29":-0.4967277059334183,"30":0.3389688413486395,"31":0.06179373651253283,"32":0.025766550741564656,"33":0.06541188610961568,"34":-0.13302505202057796,"35":0.14596733574198567,"36":-0.04120531767097028,"37":-0.3737933537920507,"38":-0.5328561619825826,"39":0.6024840200152843,"40":-0.33588841110759937,"41":-0.22794875884842716,"42":-0.5910465313028115,"43":-0.014484082695683128,"44":0.3872332195060037,"45":-0.0569391213599492,"46":0.289442238852571,"47":-0.14012352175243464,"48":-0.21906218188131762,"49":0.19002797074374952}},"24":{"bias":-0.20272001280331156,"weights":{"0":0.6844781804141286,"1":0.43538248457804285,"2":-0.11813181495667469,"3":-0.4582591661198356,"4":-0.346830338614627,"5":0.05022511123767512,"6":-0.6280189160462938,"7":-0.5029442943293564,"8":-0.21626067311126632,"9":-0.7387313903587416,"10":0.2100520936272878,"11":-0.4973077068679283,"12":-0.10149705109319028,"13":-0.2641597247502198,"14":-0.3407998537163256,"15":-0.6836190194456555,"16":0.3953495200456296,"17":-0.02205538279593992,"18":-0.20540288089813802,"19":0.36389794416546606,"20":-1.0202180491885984,"21":0.31372955489267845,"22":-0.17556492153441275,"23":0.31621165656758543,"24":0.12237413992559724,"25":0.04610954554651918,"26":-0.17364922350441608,"27":0.16049229696190986,"28":0.2729245915520674,"29":-0.4438654094123255,"30":0.009874307317059107,"31":0.23328319860902283,"32":-0.17961500794376284,"33":-0.148030823845881,"34":-0.12912143264632944,"35":0.2146630963893298,"36":-1.119509563061089,"37":-0.3902553981324122,"38":-0.009852827174758574,"39":0.9258744253737125,"40":-0.11094934186502543,"41":-0.29627989984295366,"42":-0.6115405729185496,"43":0.08395256228392382,"44":0.2647769479582769,"45":-0.12738428066177665,"46":-0.14141927569320564,"47":0.14651167072273522,"48":0.07215880365125325,"49":0.15811649900782826}},"25":{"bias":0.22547986356256597,"weights":{"0":1.6736864910845484,"1":0.9015103698799294,"2":-0.29555433333269887,"3":-0.5495715683748867,"4":-0.5268675728901401,"5":-0.5216453172527552,"6":0.11903449505717545,"7":-0.8507698318482602,"8":0.21015603638676336,"9":0.637031278903739,"10":-0.14019301040256396,"11":-0.5753326098963295,"12":0.3373426206137404,"13":-0.38458585868053535,"14":-0.5460846461369537,"15":-0.29722435193703106,"16":0.7642628176946638,"17":-0.4768392102016453,"18":-0.45432790044808147,"19":1.2096842487169406,"20":-0.5966993487187348,"21":0.9034537238177884,"22":-0.27713464483161265,"23":-0.2562082960315256,"24":-0.5390946300888353,"25":-0.5170483815156758,"26":0.2290362582426688,"27":-0.8280607399243397,"28":-0.10119775047817127,"29":-0.7590229205967987,"30":0.6499645433837081,"31":-0.046988783157736254,"32":0.45126997944232616,"33":0.8107477911220821,"34":-0.4656105624644712,"35":1.136735692769728,"36":-1.297131167271805,"37":-0.2704695244772106,"38":-0.542223791771674,"39":0.8975136649549473,"40":-0.27992193636195606,"41":0.1436724575419103,"42":-1.2529850676911376,"43":-0.5982762772821724,"44":0.6402978022391865,"45":0.4226931662697528,"46":0.904994907894929,"47":0.160169399108827,"48":0.12233262368898778,"49":1.036988543423176}},"26":{"bias":-0.6571013578169053,"weights":{"0":-0.6446238363274694,"1":-0.004212118890930345,"2":0.14330019276312803,"3":0.32820498374450535,"4":-0.27412917303418355,"5":-0.15732936977596845,"6":-0.08891369075508043,"7":-0.2086587397667966,"8":-0.16745785082773998,"9":0.6598089873885862,"10":-0.11973183975139572,"11":0.6121966014493491,"12":-0.4452761785257089,"13":0.18077196052154965,"14":-0.09491601925598048,"15":0.20814609770514217,"16":-0.14037776565009633,"17":-0.2232159583128184,"18":-0.19473189394991583,"19":-0.3752484392101367,"20":0.9371911767219863,"21":-0.049643232207934214,"22":0.1717373408455647,"23":-0.25444614744227473,"24":-0.559296290024984,"25":-0.42530657643596886,"26":-0.12947707661306224,"27":-0.31243441192085686,"28":-0.17667740483086922,"29":0.18536982439620864,"30":-0.07281815885125176,"31":-0.5071049057540569,"32":0.07050578521270896,"33":-0.10219830452110182,"34":-0.14004556480258473,"35":-0.3946339975044167,"36":-0.34979281740337753,"37":-0.02945365116145793,"38":-0.3204028411198777,"39":-0.5248768901514647,"40":-0.053413225818276275,"41":0.6266727348595941,"42":-0.4995010539432716,"43":-0.3451266079988308,"44":-0.09151668304812928,"45":-0.17772511719434123,"46":-0.14287610626062072,"47":-0.14369079213495314,"48":-0.04673302037397896,"49":-0.31647741349331165}},"27":{"bias":-0.2738941305236568,"weights":{"0":0.5168224221607415,"1":0.5855206830352463,"2":-0.04007359286251663,"3":-0.24919516481071674,"4":0.007324001608052045,"5":-0.29779907978534986,"6":-0.6648343753834759,"7":-0.6216505256956967,"8":-0.2564573131047945,"9":-0.6583882232344962,"10":-0.11821265712565754,"11":-0.47183808942349464,"12":0.19709045318468632,"13":-0.5027874649497294,"14":-0.5038016574573363,"15":-0.6804381724238716,"16":0.6759674062630272,"17":0.19513257888287333,"18":-0.05127992116493883,"19":0.4722681537993165,"20":-1.2843548302351628,"21":0.3869694680138475,"22":-0.29689655084011074,"23":0.38390791730229085,"24":0.016286557389466463,"25":-0.041421489368275145,"26":-0.4397245674951516,"27":-0.021326495694230445,"28":0.513182184809375,"29":-0.44656411546930275,"30":-0.013838743737517019,"31":0.3567059789428921,"32":-0.597280509758698,"33":-0.04297784506348243,"34":-0.12976918127180317,"35":-0.06260844974600135,"36":-1.0658031548169031,"37":-0.606731748551897,"38":-0.18116295391124607,"39":0.8662927635887381,"40":-0.30814669932270233,"41":-0.5837228151324652,"42":-0.41013170193949283,"43":0.06772521085055633,"44":0.2661442673861666,"45":0.0611628239456923,"46":-0.15225446437664922,"47":-0.005806079332820439,"48":0.08209213238184623,"49":0.25785771994967155}},"28":{"bias":-0.2689122572267718,"weights":{"0":-0.1725182114950948,"1":0.5718017623744841,"2":-0.42880794404975825,"3":-0.42440954395678504,"4":-0.225994661494132,"5":-0.16754325628850664,"6":-0.35857350726467313,"7":-0.4759837970555334,"8":-0.062196278912944596,"9":-0.2465361032053743,"10":-0.3576897219898184,"11":-0.7532253491610922,"12":0.13119580553223348,"13":-0.2889316795529366,"14":-0.43566453919747267,"15":-0.6387205132205258,"16":0.17005763943520646,"17":-0.2127070693420849,"18":-0.2632708221310493,"19":0.6285888349414352,"20":-0.8742063341338897,"21":0.19249692927629472,"22":-0.5128472410226192,"23":0.14976732670540033,"24":-0.49470633067822944,"25":-0.05313572000769804,"26":-0.29602662818736786,"27":-0.03402902504931523,"28":0.23706432474929756,"29":-0.3444977550427402,"30":0.054316544733692976,"31":0.01778318271861268,"32":-0.3347437793469389,"33":-0.08353913088387106,"34":-0.26295888513310184,"35":-0.0032362822955844623,"36":0.3134496001459134,"37":-0.4777019290550679,"38":-0.33704257750718797,"39":0.21018446058337367,"40":-0.43262147035546245,"41":-0.32400845662108047,"42":0.032085448711446335,"43":-0.21839027340826878,"44":0.14817464950146944,"45":-0.18156288295802708,"46":-0.12021126307558694,"47":-0.33127037109775487,"48":-0.23690110995921748,"49":-0.05731816122882489}},"29":{"bias":-0.03009432278305564,"weights":{"0":-0.09775450655588296,"1":0.3620343065200862,"2":-0.2427218568456502,"3":-0.490869163188605,"4":-0.2963766097386855,"5":-0.33633036072628875,"6":-0.6008014586386439,"7":-0.5941732927749334,"8":-0.24647819075490837,"9":-0.2682632636409927,"10":0.1205290624741773,"11":-0.5724084214929479,"12":-0.05062955696496635,"13":-0.5300264316525991,"14":-0.5474750473587975,"15":-0.4035676761741559,"16":0.23973818694867946,"17":0.007658446193621085,"18":-0.3091932984165287,"19":0.5030686773846132,"20":-0.7688024493411987,"21":-0.11890684716329042,"22":-0.40891388985355837,"23":0.21244001534639861,"24":0.015961027965082603,"25":-0.2546092289572994,"26":-0.4398622697331909,"27":0.22266202310983174,"28":0.32557961243891087,"29":-0.5030097544615005,"30":-0.11242712125971453,"31":-0.04623154775197486,"32":-0.3965988221886244,"33":-0.1676562309941034,"34":-0.24912572050284423,"35":-0.11939352768845038,"36":0.0262005461738827,"37":-0.6684411816977054,"38":-0.0148851201162839,"39":0.3439082864655983,"40":-0.3236070961741068,"41":-0.2881035395431124,"42":-0.43251126164431297,"43":-0.08694397902539501,"44":0.22851472622841817,"45":-0.10567065942546039,"46":-0.23535033119206047,"47":0.049839518539813714,"48":-0.2129893037664075,"49":0.09047420701747981}},"30":{"bias":-0.2057468567442827,"weights":{"0":-0.559674846246211,"1":0.11619266869644378,"2":-0.13761341179716263,"3":-0.1955312973095616,"4":-0.2323316825525676,"5":-0.19727679687207605,"6":-0.3888883579533786,"7":-0.30343399556694395,"8":-0.43284281794537427,"9":-0.050657509869762765,"10":-0.2299914042654605,"11":-0.19890047607034533,"12":-0.43718077700828073,"13":-0.3116137464824659,"14":-0.17357053285969942,"15":-0.25283227516712925,"16":-0.24119881564745735,"17":-0.022008803030687796,"18":-0.10996960508420814,"19":-0.13263258579088405,"20":-0.17569686532024748,"21":-0.20564147303269523,"22":-0.14525569728442464,"23":-0.04303996885505906,"24":-0.18805001972711954,"25":0.0002942943841115768,"26":-0.08374199933719975,"27":-0.011743769596911377,"28":0.002859594913000695,"29":0.03814257806894335,"30":-0.21137193847667415,"31":-0.2222130713196564,"32":-0.27060391889953544,"33":-0.47842928891692305,"34":-0.09576189063308546,"35":-0.5041883619583986,"36":0.2631904266127287,"37":-0.11427918202285765,"38":-0.34047044003484794,"39":-0.4630528239903514,"40":-0.2501261995772469,"41":0.11416800808983324,"42":-0.04106204662555902,"43":-0.19077070477246358,"44":0.023085021555740593,"45":-0.21257157595895598,"46":-0.35397678987331227,"47":-0.5178089444692995,"48":-0.16577463367709033,"49":-0.43149963067724867}},"31":{"bias":-0.1557982554489235,"weights":{"0":1.5751045611620822,"1":0.9640562119026382,"2":-0.11730172934974019,"3":-0.45043130482006033,"4":-0.19779439177649616,"5":-0.2645621443054174,"6":-0.08968361458951334,"7":-0.7213994793379507,"8":0.28017746658772963,"9":-0.06923847949958142,"10":0.01046492495517912,"11":-0.5476497251935006,"12":0.38561463492375214,"13":-0.238130398779544,"14":-0.4685250256047273,"15":-0.5322705992353953,"16":0.7626846306230228,"17":-0.07033046319991536,"18":-0.12796827911603606,"19":0.7691596361517226,"20":-0.8031092813368684,"21":0.4658782179317666,"22":-0.4851413865971854,"23":0.4067834379497987,"24":-0.29796837193725145,"25":-0.38706350621767327,"26":-0.34945653481188627,"27":-0.4080094606378409,"28":0.4507245204875888,"29":-0.7506069286528961,"30":0.5636034411884467,"31":0.3287229288822057,"32":-0.06608385385916776,"33":0.3068351288117098,"34":0.0428081609393426,"35":0.7584949937625837,"36":-1.8018343926294165,"37":-0.6879066467059357,"38":-0.3318083447417329,"39":1.0987872781819128,"40":-0.11851522340196885,"41":-0.3373526389949895,"42":-1.0601978666824154,"43":0.04761224141831988,"44":0.8459128984880178,"45":0.025885079263254177,"46":0.7796631732104651,"47":0.29250830156224816,"48":0.2011608687784944,"49":0.6323818740764626}},"32":{"bias":-0.21117399791814861,"weights":{"0":0.08949197482741794,"1":0.15889931154237674,"2":-0.22123422536720833,"3":-0.23066487030042054,"4":0.01783570255359333,"5":-0.2492290183074682,"6":-0.7387382940936911,"7":-0.29418593133773896,"8":-0.4744032851416413,"9":-0.862404787634809,"10":0.3131760815200412,"11":-0.6914145271771194,"12":-0.33267342424068824,"13":-0.28477998662992315,"14":-0.34872770339930953,"15":-0.3016651403123061,"16":0.2751025465323954,"17":0.27415265288643675,"18":-0.01630723151926091,"19":0.10037952053010442,"20":-1.0854076514505755,"21":-0.04829342544355526,"22":-0.41212558212541284,"23":0.3105580737376612,"24":0.21253559902012684,"25":0.11538921524496576,"26":-0.43312009913028604,"27":0.3995872158603742,"28":0.47760649548734296,"29":-0.18082966281574703,"30":-0.05091646890477656,"31":0.3750416956516267,"32":-0.49509761901124516,"33":-0.4311273961290558,"34":-0.11697724023666611,"35":-0.3794403997049793,"36":-0.43467305414742086,"37":-0.6002577417832405,"38":0.12131821900725641,"39":0.6484629969075428,"40":-0.071810640594839,"41":-0.48906057667318226,"42":-0.07171826228475082,"43":0.34947843750867597,"44":-0.1458305631997724,"45":-0.34577986772470365,"46":-0.2927014274445764,"47":-0.21582994532430666,"48":0.04186258729291733,"49":-0.3419662445987993}},"33":{"bias":-0.08907756422859965,"weights":{"0":1.8542553589074053,"1":0.35478187555917484,"2":-0.1644320694014031,"3":-0.43797369907226175,"4":-0.15379442839251498,"5":-0.38087495975189245,"6":0.1596258135796895,"7":-0.5874334851130912,"8":0.44461545415659776,"9":0.017212388383396404,"10":0.11038216417851003,"11":-0.01808279785929545,"12":0.48898615722419875,"13":-0.3037916600857646,"14":-0.2775907315583419,"15":-0.4676417633766461,"16":0.901479393977766,"17":-0.027340746194530436,"18":-0.33952610991937876,"19":0.27746691587558103,"20":-0.5939486202918108,"21":0.6718201347270215,"22":0.0409491407328752,"23":-0.11149049367273844,"24":-0.285064764243004,"25":-0.2758721514201074,"26":0.17107150605347746,"27":-0.7570891875531214,"28":-0.06884832398816758,"29":-0.5022653093547728,"30":0.37478665574744285,"31":0.24398978296270063,"32":0.4087847544892544,"33":0.6134799244484438,"34":-0.28267377571143987,"35":1.043368511856092,"36":-1.969380962888454,"37":-0.5052705673053746,"38":-0.10708363937944161,"39":1.0342257622874262,"40":-0.09122295922265458,"41":-0.2976012277794342,"42":-1.3413755517608188,"43":-0.22595688328742003,"44":0.4252464778475673,"45":0.28527125010926924,"46":0.7200230382707429,"47":0.7371649901615244,"48":0.2861269978385071,"49":0.6886285964384153}},"34":{"bias":-0.31040117317259175,"weights":{"0":3.809244857380955,"1":0.7148758244354482,"2":-0.13117671647215653,"3":-0.25710817483585174,"4":-0.5934063543892348,"5":-0.4742966467618466,"6":0.744470968363125,"7":-0.30884062586877364,"8":0.7373483132937743,"9":0.8016557785289979,"10":-0.16009729891006957,"11":-0.14383752306293682,"12":0.7690894907893445,"13":-0.10968670385356655,"14":-0.09760107916950617,"15":-0.27491721538939856,"16":0.1165605595953107,"17":-0.5753607146883941,"18":-0.8852786291947792,"19":0.6352943575850196,"20":0.16777526001837909,"21":1.0190080577443201,"22":-0.338795070735257,"23":-0.6824276926839968,"24":-0.5428107144415195,"25":-0.7093610709348807,"26":0.4258380936499168,"27":-1.6946173196916368,"28":-0.34031309203068033,"29":-0.3601204223624316,"30":0.7147911749060011,"31":0.10069724090012697,"32":1.1576695548806009,"33":1.1229063995304938,"34":-0.2874280780444327,"35":1.9726128111451964,"36":-2.9311433249312713,"37":0.02223566811874114,"38":-0.680315318189106,"39":0.38558285044675294,"40":-0.08336946679510786,"41":0.2787319764126441,"42":-2.0881568676876845,"43":-0.7267747849736024,"44":0.7751524120661082,"45":0.7447544420069939,"46":1.5686818160493705,"47":0.7905534334931917,"48":0.07017881622663043,"49":1.0680670012088394}},"35":{"bias":-0.11028807732001839,"weights":{"0":-0.4131094619023406,"1":0.33548566345380715,"2":-0.31254094761501827,"3":-0.19145879230285812,"4":-0.28364618097567823,"5":-0.15166986083057662,"6":-0.4207805270566349,"7":-0.3156778281782659,"8":-0.13133583647947497,"9":-0.18975469467375067,"10":-0.09198411876064085,"11":-0.23249040561507486,"12":-0.15416036796006594,"13":-0.10748020710821146,"14":-0.3673015361885712,"15":-0.39156221053853835,"16":0.19313281130861135,"17":-0.03734804178408957,"18":0.043847608906282136,"19":0.2655585016858313,"20":-0.5986581967342717,"21":-0.23441666414340726,"22":-0.17495078209507295,"23":0.17695797870519725,"24":-0.1905704786103109,"25":0.04166667265309598,"26":-0.21082176504455089,"27":-0.015446254009072081,"28":0.3040115366742044,"29":-0.23986837033431033,"30":-0.37454765473751883,"31":0.08472982046555362,"32":-0.6153203405367624,"33":-0.15784755756469307,"34":0.02521331471317316,"35":-0.3953619433688136,"36":-0.21817609023964224,"37":-0.3805837011693717,"38":-0.23211401971287632,"39":0.01148552573436369,"40":-0.3053987310089962,"41":-0.1093206172549099,"42":-0.17906395397799338,"43":-0.1687326288585126,"44":0.12933461632837537,"45":-0.45447284456457193,"46":-0.41321725711152374,"47":-0.25091179325705787,"48":-0.15123123318031848,"49":-0.23580010637685522}},"36":{"bias":0.19532793720503966,"weights":{"0":-1.127836550032372,"1":0.1180916208898926,"2":0.31421269678652064,"3":0.5116668847575513,"4":0.28060349315948796,"5":0.31105742627831084,"6":0.03764713127245442,"7":0.3003443140709506,"8":-0.12788241599007677,"9":0.10131443494533295,"10":0.11567954820141348,"11":0.2413777286538467,"12":-0.41943574281417306,"13":0.4276903923423906,"14":0.5385202440351466,"15":0.4765511377508868,"16":-0.17191858267591412,"17":0.22264218481994785,"18":0.17023357008135148,"19":0.007654168673570055,"20":0.5985462270850088,"21":-0.12733719497589166,"22":0.41650505098055496,"23":0.07657058020439009,"24":0.18925053518247012,"25":0.24967969152663386,"26":-0.10150581999022591,"27":0.7738437691158809,"28":-0.15856610959990144,"29":0.6515854795023907,"30":-0.4538601255647967,"31":-0.2527707323479761,"32":-0.05778870210985467,"33":-0.4881108160898566,"34":0.09026310205588092,"35":-0.7973866846337836,"36":1.3794747519288215,"37":0.38580389707144946,"38":0.41067369183196306,"39":-0.5856950899216636,"40":0.25619449366877634,"41":0.3923798046671431,"42":1.1098919267802694,"43":0.04928180026292773,"44":-0.43834587585691676,"45":-0.4047077625718007,"46":-0.585037528524984,"47":-0.26055877349383477,"48":0.2509472950927281,"49":-0.5203685590734364}},"37":{"bias":-0.02854423482940654,"weights":{"0":-0.40836034979327024,"1":0.18348433291231034,"2":-0.3159425601732127,"3":-0.3096391505567365,"4":-0.109579497685606,"5":-0.0808485267565137,"6":-0.5366905894521461,"7":-0.5937851551836385,"8":-0.06983547602787597,"9":-0.6186617622537897,"10":-0.10747646057994945,"11":-0.48589704070589607,"12":-0.21967551366069407,"13":-0.5272612208771822,"14":-0.41371980393087626,"15":-0.47837177701397854,"16":0.48762449477395126,"17":-0.17210628299169456,"18":0.14267247711759187,"19":0.256214942349212,"20":-0.9341990228725624,"21":-0.15723163276940574,"22":-0.3654121355141451,"23":0.2553852659071119,"24":-0.051842855422967696,"25":-0.04752647441146405,"26":-0.6497839415028789,"27":0.2229141212074766,"28":0.3571481932246793,"29":-0.37895916475444086,"30":0.01660628001211061,"31":0.20478959569640465,"32":-0.754814261747877,"33":-0.29371939495934796,"34":-0.2537406579817443,"35":-0.39960767052790735,"36":0.10542208561320499,"37":-0.5566585442478589,"38":-0.04917591814483916,"39":0.2611121964747802,"40":-0.15363901765477364,"41":-0.5319928852244418,"42":0.08652706805240831,"43":0.14297935378544338,"44":0.2133294631882661,"45":-0.16552511561109703,"46":-0.3452398455341243,"47":-0.10244720379914152,"48":-0.0038479060149248295,"49":-0.12741438187607873}},"38":{"bias":-0.1809342779489369,"weights":{"0":-0.4497227868768643,"1":0.12071542599699156,"2":-0.25300892994337043,"3":-0.2188847205190397,"4":-0.22876217095340048,"5":-0.14015526078588053,"6":-0.6068582909496165,"7":-0.6267384557532582,"8":-0.31371366822587404,"9":-0.6920785655307773,"10":0.231488725023804,"11":-0.47489301111844623,"12":-0.4503075497456201,"13":-0.3839471576286432,"14":-0.4463710716273942,"15":-0.36933452184329235,"16":0.24159301326942864,"17":-0.024255172685479037,"18":0.20343242066162856,"19":0.2525432065047852,"20":-0.9537945906554156,"21":-0.3141718354726525,"22":-0.1488457127793093,"23":0.3476549158967919,"24":0.19288211005245676,"25":0.2450338239226525,"26":-0.6654073658160984,"27":0.5986424054248384,"28":0.5537628547111513,"29":-0.5143197666104626,"30":-0.3348531548871853,"31":0.26815016540314773,"32":-0.8873200201757893,"33":-0.35756147433959895,"34":-0.0726048033329044,"35":-0.3731040760275283,"36":0.17744204689479715,"37":-0.6600856529150863,"38":0.25383869338860376,"39":0.5800773661917976,"40":-0.19637627191700355,"41":-0.6001614922899537,"42":0.11344355529549117,"43":0.45919897940988624,"44":0.07645197034779591,"45":-0.24641459034952176,"46":-0.47741757060595574,"47":-0.3432971179129015,"48":-0.11558795435817423,"49":-0.06879315024258684}},"39":{"bias":-0.28448074290540293,"weights":{"0":-1.0500327362198951,"1":-0.04628534131717246,"2":-0.24899493409072523,"3":0.2956062330130478,"4":-0.09318370080844743,"5":0.048908939479520054,"6":-0.7147380616754967,"7":-0.162656687471231,"8":-0.6014108444620746,"9":0.1571905428285035,"10":-0.517303492426087,"11":-0.25259888110965545,"12":-0.4082281072649945,"13":-0.11149329240333436,"14":-0.1129346011148841,"15":-0.1709907346536359,"16":-0.5399412209240256,"17":-0.15425192570236734,"18":-0.23374125934448042,"19":0.10205835795748146,"20":-0.19144746534298354,"21":-0.2378648087172822,"22":0.009917722042071185,"23":-0.39743388655031986,"24":-0.1588114934301629,"25":-0.05357400785411988,"26":-0.15617412965682287,"27":0.15302020619769235,"28":-0.266007261000724,"29":0.04453054402967863,"30":-0.28845462620484646,"31":-0.34604125718754397,"32":-0.3904669651206617,"33":-0.34859366314487633,"34":-0.16944233260171615,"35":-0.6284618100216425,"36":0.8263073174370246,"37":-0.004637214858749047,"38":-0.03384348761454707,"39":-0.7140449832230574,"40":-0.19464544915384852,"41":0.23687148475862307,"42":0.3983414445250165,"43":-0.007004083620147341,"44":-0.5131704932553417,"45":-0.6404608907104598,"46":-0.5135022316422254,"47":-0.4335195264634193,"48":-0.31134410366104054,"49":-0.6557975633502703}},"40":{"bias":-0.6692294832694698,"weights":{"0":3.582816425374329,"1":0.1909621306416115,"2":0.21597979317289914,"3":-0.02576274875380556,"4":0.0823191393598836,"5":-0.09637970102548646,"6":0.39161017763923506,"7":-0.37629066455528287,"8":0.4945232038036265,"9":-0.1411249369668691,"10":-0.062449298159206454,"11":0.1390708891645785,"12":0.38623586254838654,"13":0.07238458814265222,"14":0.2793078749896249,"15":-0.13664475783285407,"16":0.7095992668482336,"17":-0.09925707796712978,"18":-0.13474186425750745,"19":-0.1238589804336449,"20":-0.049217723346632714,"21":0.24479708777608117,"22":-0.0073676598623624535,"23":0.07721553004453724,"24":-0.16416114748182586,"25":-0.05785878990431834,"26":0.39597844775026403,"27":-0.8320590067666879,"28":0.08339249743466894,"29":-0.40929784968422445,"30":0.31885884520675867,"31":0.2993739746607471,"32":0.1808777976462624,"33":0.28299954657696363,"34":0.004014134699729271,"35":1.2938420070593688,"36":-3.7369351682059233,"37":-0.21755461137310111,"38":-0.1634670561941504,"39":1.1999692092912462,"40":0.2326922569171117,"41":-0.03403549267718195,"42":-1.767817401935738,"43":-0.1328537407721723,"44":0.37307113853164986,"45":0.6285038377818701,"46":0.7600337653849305,"47":0.9029444458497018,"48":0.045167910208806165,"49":0.7169024463581594}},"41":{"bias":0.8450934911619445,"weights":{"0":1.5298732748948045,"1":0.15253581878314112,"2":0.2983068497304081,"3":-0.550585858049692,"4":0.8340239818588051,"5":0.5776772887181351,"6":-0.5597317283356377,"7":0.3362747220798598,"8":0.03296517110398168,"9":-3.620390491863643,"10":1.1013298346826923,"11":-0.8675203758661877,"12":0.29358744624534716,"13":-0.3348399560867606,"14":-0.0508119235871828,"15":-0.5013828255769518,"16":0.7604770323042415,"17":0.9745541476096538,"18":0.619837018844007,"19":-0.32810090021126825,"20":-2.1617331122881707,"21":-0.39139099590843557,"22":-0.4730819957550127,"23":0.7360806201400238,"24":1.478350386487257,"25":0.7604869647461389,"26":-0.5805923153331597,"27":1.486220402432886,"28":0.7363919763195221,"29":0.22586989289560302,"30":0.31815334684484586,"31":1.012890548618576,"32":-0.5745145501266495,"33":-0.009472864078105771,"34":0.5149459551700288,"35":0.19779886521796083,"36":-0.404198916413375,"37":-0.6043192664113335,"38":1.1226698678388993,"39":0.7693892160805562,"40":0.6248925407325873,"41":-2.273498703366472,"42":0.9543147393752781,"43":1.0372837528150527,"44":0.02964268683145314,"45":0.41859384770715174,"46":-0.19601444550819486,"47":0.7177127570862976,"48":-0.3980521188682772,"49":0.1264607044299168}},"42":{"bias":-0.16135709841840748,"weights":{"0":0.8855443584823453,"1":0.28298527855612415,"2":0.10476488409869744,"3":-0.29777586877631856,"4":0.21419526783913492,"5":-0.2501622027427397,"6":-0.7690333186205417,"7":-0.29086179690023106,"8":-0.17548059805230365,"9":-1.0958066710331442,"10":0.3475388536617941,"11":-0.5724081592163841,"12":0.03059383177575604,"13":-0.31532191388939906,"14":-0.05457187865035068,"15":-0.4335606702224743,"16":0.7961720283326363,"17":0.15867852669426155,"18":0.20559329020213593,"19":-0.21622452717245813,"20":-1.1910617727856403,"21":-0.05492606969489628,"22":-0.18600685148832555,"23":0.5437692331040981,"24":0.0728039475267981,"25":0.11522297921727678,"26":-0.47958187504919053,"27":0.26098892365821424,"28":0.6983620520457027,"29":-0.25220795194445733,"30":-0.3145583895197264,"31":0.45175217292962183,"32":-0.8954417278344156,"33":-0.10041484293813269,"34":0.22688534847879302,"35":0.019442548733117876,"36":-1.6382102286725428,"37":-0.659416844450886,"38":0.3967304337414541,"39":1.0684303128680888,"40":-0.1527748945439084,"41":-0.7900290368280096,"42":-0.30839091109916367,"43":0.41399631042522383,"44":-0.1856201098838593,"45":-0.26143275026913426,"46":-0.11154985265329011,"47":0.3343462781847121,"48":0.009344292729135104,"49":0.08515926075863553}},"43":{"bias":0.1183992346842639,"weights":{"0":1.022264328746826,"1":1.0590955698328142,"2":-0.3928199565346513,"3":-0.30480445128432443,"4":-0.36645496855528203,"5":-0.5264878103804624,"6":-0.5289393933971738,"7":-0.9251206555548818,"8":0.15060350653577115,"9":-0.013264633285938372,"10":-0.078685429710351,"11":-0.7129679077434784,"12":0.42420956373204743,"13":-0.40783608399329824,"14":-0.4625784777902314,"15":-0.7134793164933149,"16":0.8950960054875791,"17":-0.25618589686782234,"18":-0.29771829558355645,"19":1.1849024774651051,"20":-1.0221546996307076,"21":0.6841931300082885,"22":-0.525452616261363,"23":-0.05867449687735837,"24":-0.6178090759204927,"25":-0.43355916809168754,"26":-0.2439503509278089,"27":-0.5307020707720586,"28":0.2694107241669259,"29":-0.7709345154018578,"30":0.6602107228894512,"31":0.2979411669036722,"32":0.1875285805155206,"33":0.6238512718338408,"34":-0.22047763221042618,"35":0.6691757804567587,"36":-1.0836917620188937,"37":-0.5299911386321653,"38":-0.46408776592308754,"39":1.1134202139959837,"40":-0.21102791891777026,"41":-0.09520140527230725,"42":-1.1047600645807332,"43":-0.21753807569542868,"44":0.8753455187722957,"45":0.23356681201929425,"46":0.6255733248199671,"47":0.4317911740085727,"48":0.007040898483920433,"49":0.6858721240107761}},"44":{"bias":-0.06024951875867941,"weights":{"0":0.5117862538005844,"1":0.04938899708909554,"2":0.2458726905656687,"3":-0.06767559354217316,"4":-0.020703209878532983,"5":-0.06560038219040026,"6":-0.8509421661230144,"7":-0.4949322330867482,"8":-0.2598211026537547,"9":-1.4911488981287202,"10":0.4153057830386346,"11":-0.5095495047098418,"12":-0.19554992984852274,"13":-0.4640392139253815,"14":-0.14145118780932456,"15":-0.3778193942198585,"16":0.9729354422640991,"17":0.46541626641662004,"18":0.2735529271457513,"19":0.0064842819745062116,"20":-1.1057315783554698,"21":-0.37551114769482263,"22":-0.17523473528698236,"23":0.9633977553565716,"24":0.33002432722928265,"25":0.4591176836926464,"26":-0.6307564170895522,"27":0.620830197252914,"28":0.7294512429201193,"29":-0.3980951540959471,"30":-0.09854592286312693,"31":0.618264420111537,"32":-0.6410995055562778,"33":-0.22067091300231573,"34":0.041086274174612816,"35":-0.1866163846733141,"36":-1.2605251389015266,"37":-0.742759401732117,"38":0.3472241854685121,"39":1.166163842744931,"40":0.013051696704558958,"41":-0.6082103807274155,"42":0.04044306697317983,"43":0.6639905632784021,"44":-0.10493370426580191,"45":-0.3627133419362751,"46":-0.34933892583341514,"47":0.0508948025739718,"48":-0.1321132164755999,"49":-0.342152314440047}},"45":{"bias":0.011423663663927077,"weights":{"0":1.0308880124794444,"1":0.8177086499285531,"2":-0.5248162055828601,"3":-0.44829487640141963,"4":-0.3221527404310524,"5":-0.20042599758809626,"6":-0.19848494181886242,"7":-0.5649155385855106,"8":0.16006971350212323,"9":0.25628727163473836,"10":-0.2042189597579194,"11":-0.2609868866619524,"12":0.3992623604623559,"13":-0.18946061577578635,"14":-0.6034876255949768,"15":-0.5658342365105279,"16":0.3951547275867358,"17":-0.3714764662505734,"18":-0.3993089393908712,"19":0.8511219641574035,"20":-0.6949397383134835,"21":0.7038897667209996,"22":-0.5103273295022305,"23":0.1588014801920751,"24":-0.4410347080622287,"25":-0.49861659395022884,"26":-0.25124470111837005,"27":-0.4558323825924125,"28":0.025328986274408594,"29":-0.690039624086061,"30":0.5478385622645806,"31":0.17086775381789782,"32":0.09960123358655915,"33":0.5004920836827917,"34":-0.3325688362136856,"35":0.7373800248622859,"36":-1.066258225486154,"37":-0.5952975025010917,"38":-0.4762611758058053,"39":0.9826686949201345,"40":-0.2969166230949985,"41":0.19602107378824768,"42":-1.0436325436478533,"43":-0.12839960197694752,"44":0.7388817188973409,"45":0.19578373226905077,"46":0.6696210595176209,"47":0.2404567961213832,"48":-0.13082693705718668,"49":0.8433100675228121}},"46":{"bias":-0.5666977414041883,"weights":{"0":-0.4599852880224529,"1":0.10297978445584495,"2":-0.00002187406630596535,"3":0.1587396586762453,"4":0.06191125011987734,"5":-0.22328961088975025,"6":-0.2852480244668086,"7":0.01458234624028101,"8":-0.1958955401437903,"9":0.33938122759949646,"10":-0.19988262944968466,"11":0.08459078419984986,"12":-0.46114095249965786,"13":0.11058254295932253,"14":-0.19215931032697128,"15":-0.13310437975424994,"16":-0.057423283679314784,"17":-0.33169360582700746,"18":0.025668095782371204,"19":-0.30179051011369995,"20":0.13249656660148731,"21":-0.1114312680334765,"22":-0.017961005636938164,"23":-0.12219656581844782,"24":-0.3709905627710075,"25":-0.302456014811165,"26":-0.329084281681654,"27":-0.3726400901335743,"28":-0.04806784069052436,"29":-0.19703065913948756,"30":-0.3497090348509603,"31":-0.09982004039124907,"32":-0.19412512531689188,"33":-0.1111252354953756,"34":-0.08226385701835798,"35":-0.37737617277022495,"36":-0.06914634815167156,"37":-0.11483645772209801,"38":-0.23808252415131176,"39":-0.317640571840059,"40":-0.24496266072587544,"41":0.19910474462855704,"42":-0.17647582136383472,"43":-0.17011873749468628,"44":-0.04542507957292171,"45":-0.29056199241353153,"46":-0.40694230353493255,"47":-0.11083423671191851,"48":-0.2667389354370898,"49":-0.15769484847350154}},"47":{"bias":-0.4569346823939655,"weights":{"0":-0.7043495382042745,"1":0.137811733282064,"2":-0.2220319104572741,"3":0.12767744380250512,"4":-0.10029703871385609,"5":-0.14111815124550314,"6":-0.4726371246342047,"7":-0.0800844767288426,"8":-0.4648088014656151,"9":0.22361071763976204,"10":-0.367413048658836,"11":-0.2726273493001053,"12":-0.3403011739396598,"13":0.06990881856572197,"14":-0.34130121297454724,"15":-0.027146096268439997,"16":-0.1585564436642333,"17":-0.28269188077066115,"18":0.017104369217085608,"19":0.2569089525167366,"20":-0.20560742723320208,"21":-0.17665731417266134,"22":-0.29827561469305697,"23":-0.3018507364204766,"24":-0.2232301327631477,"25":0.014936988000127889,"26":-0.39695428494955476,"27":-0.002431315298952515,"28":-0.2326877186821952,"29":0.07547122855942044,"30":-0.36745612286391793,"31":-0.02817938037510937,"32":-0.46115596264673847,"33":-0.3394587019429147,"34":-0.14679455244214537,"35":-0.6475616347955697,"36":0.3825595667742619,"37":-0.28788580119876583,"38":-0.28719391348077417,"39":-0.4768725917330281,"40":-0.29068616703037653,"41":0.18553844068853398,"42":0.15143610054205156,"43":-0.22100965744211123,"44":-0.09457197793341426,"45":-0.2784347096127269,"46":-0.37090461989409446,"47":-0.43822579302798115,"48":0.03179148362855892,"49":-0.39163717590185354}},"48":{"bias":-0.03329578963862152,"weights":{"0":0.42239079297834314,"1":0.37366037778625144,"2":-0.07114154152650373,"3":-0.34849726455668384,"4":-0.03224512205121748,"5":0.17527260622635504,"6":-0.7636375393766321,"7":-0.37729069664848286,"8":-0.14513412436697565,"9":-1.1544694175200851,"10":0.4654393121113084,"11":-0.721183257036081,"12":-0.2105737619922058,"13":-0.4117554287029459,"14":-0.1672243395243301,"15":-0.7053462025719122,"16":0.7986299380797008,"17":0.4742448056204551,"18":0.4999693595415508,"19":0.053031311720116395,"20":-1.3230524528211176,"21":0.04492042763195314,"22":-0.28896251562702896,"23":0.7871007208535091,"24":0.18661505246109608,"25":0.35438989184463077,"26":-0.6322154625993682,"27":0.5126066758669042,"28":1.0473564988566035,"29":-0.5088789089684078,"30":-0.06076327977095888,"31":0.5349335492672045,"32":-0.7170234548678127,"33":-0.3822215195731567,"34":0.09283648564709436,"35":-0.3713787904874049,"36":-0.6125852453470566,"37":-0.7868164709770964,"38":0.4209637635652522,"39":1.0651652281143684,"40":-0.11114604445983219,"41":-0.483196384982378,"42":0.07249061141518318,"43":0.5513715989275558,"44":-0.07599773646127259,"45":-0.21236258059636387,"46":-0.28230938771165126,"47":0.17549437279186816,"48":-0.16651745267090381,"49":-0.08580229916853571}},"49":{"bias":0.022053948265715384,"weights":{"0":1.1099296660614901,"1":0.6911931074368205,"2":-0.167387319179393,"3":-0.6061385737226437,"4":-0.5324905069483249,"5":-0.2607481977889972,"6":-0.21608063972839253,"7":-0.8236450349243205,"8":0.3917847311938463,"9":0.3153631902130229,"10":-0.2098718704030504,"11":-0.6440414472168793,"12":0.5325729038302464,"13":-0.524504349125455,"14":-0.2663408583283001,"15":-0.7748829166793596,"16":0.9089233234994718,"17":-0.338356161569448,"18":-0.5317467361490302,"19":0.7087244321753132,"20":-0.7192676355849171,"21":0.6011920628650814,"22":-0.546579860597463,"23":0.2043343829453916,"24":-0.5483147131510988,"25":-0.3170174408793164,"26":-0.11678810087570361,"27":-0.48578664989079534,"28":0.28813259084494874,"29":-0.6345156726251039,"30":0.3186836604343153,"31":0.3861619867349691,"32":0.28119747917281784,"33":0.3663628226282238,"34":-0.25922087458588167,"35":0.602569469532624,"36":-1.268523885503568,"37":-0.6656499791781149,"38":-0.5585000173433716,"39":1.177117022222563,"40":-0.41769817583783664,"41":-0.11200334153368616,"42":-0.948252456212259,"43":-0.2801188184216487,"44":0.6590005255517819,"45":0.3666744474591208,"46":0.6749238117088172,"47":0.550694256037089,"48":0.04406863235222524,"49":0.8300467075762854}},"50":{"bias":-0.7389687146347031,"weights":{"0":-0.5020168035569561,"1":-0.08558561747621679,"2":-0.07164234777887214,"3":0.34545348037763657,"4":-0.24309350671388602,"5":-0.04630756546045748,"6":-0.1343202931180692,"7":-0.005535193461587961,"8":-0.026837840934382035,"9":1.0001100158138738,"10":-0.23821381959720167,"11":0.6431002928327776,"12":-0.3691432419952409,"13":-0.018113676734919943,"14":0.16489764216406738,"15":0.1521507851417974,"16":-0.3226929124101328,"17":-0.43451237244665986,"18":-0.268443580121566,"19":-0.3559890338142261,"20":1.1317188320647966,"21":-0.2693368978297073,"22":0.08400467709490254,"23":-0.30044606126221507,"24":-0.6898578792386334,"25":-0.12178534742911029,"26":0.14660321111917698,"27":-0.5955331347432024,"28":-0.26022110748458555,"29":0.1700986708888074,"30":-0.33331128835761387,"31":-0.1723454927739447,"32":0.20746940169443298,"33":0.012672068870207878,"34":-0.27881460007543435,"35":-0.1279688662889593,"36":-0.32681551258066793,"37":0.04468683239663459,"38":-0.5433300713205815,"39":-0.3508863936100852,"40":0.05941437629443896,"41":0.5807750243194735,"42":-0.5311834419891522,"43":-0.2047307162004805,"44":-0.2823787551478913,"45":-0.047735527954618155,"46":-0.3340991633736949,"47":-0.31489656095696295,"48":0.10805416473333733,"49":-0.2581187189388651}},"51":{"bias":-0.1842723017728576,"weights":{"0":0.7853423661713982,"1":0.7700800384931066,"2":-0.35357589442257137,"3":-0.3868011887101599,"4":-0.2989988510960474,"5":-0.3042706004590836,"6":-0.19317689983817063,"7":-0.6795116795689489,"8":0.22082330427703978,"9":0.18372193028954226,"10":-0.23235894250610167,"11":-0.6118140421362591,"12":0.10264391271759302,"13":-0.4467381301965979,"14":-0.4200846894583225,"15":-0.7306454190229547,"16":0.5744893056652077,"17":-0.047006315753511316,"18":-0.2532989176278456,"19":0.8934748017793585,"20":-1.0160637827458063,"21":0.5267541217877487,"22":-0.45035564626315133,"23":0.14757008335099425,"24":-0.2339246473187298,"25":-0.20879199903083753,"26":-0.3045885314794348,"27":-0.17750384025201413,"28":0.09628101561831867,"29":-0.5948301752628097,"30":0.17618217370312228,"31":0.34565868961577056,"32":0.056656419487601264,"33":0.25488425509394175,"34":-0.21056103143701513,"35":0.3891644032505668,"36":-1.0095181750234643,"37":-0.3955028940411003,"38":-0.25756279554267353,"39":0.7602760003953051,"40":-0.29665258038492015,"41":-0.17635187062467883,"42":-0.8458354624060975,"43":-0.11813801849658957,"44":0.5794192761472701,"45":0.21741693214866853,"46":0.5939447175641787,"47":0.07891569700529869,"48":0.10775229182839934,"49":0.7016309295278272}},"52":{"bias":0.17048347142971668,"weights":{"0":0.4890220512374958,"1":0.6991581983031859,"2":-0.6356088844195206,"3":-0.6043155762936582,"4":-0.6234512866552381,"5":-0.36051475273026673,"6":-0.32819818017333097,"7":-0.5184499764944047,"8":0.07536253321020593,"9":0.3180132228853591,"10":-0.3821057875841859,"11":-0.6865129508637299,"12":0.11110960842606445,"13":-0.4804196482739463,"14":-0.6272381105944631,"15":-0.7597953133911782,"16":0.16560010039116294,"17":-0.20926726310106747,"18":-0.4923364528662171,"19":0.9191472273761528,"20":-0.8419799165030946,"21":0.4016413402276611,"22":-0.4537592760329039,"23":-0.043506579143304386,"24":-0.3854636705484331,"25":-0.23767156740710382,"26":-0.3693406343811883,"27":-0.20486924750540766,"28":-0.17418556256415074,"29":-0.7347017598702045,"30":0.47686690104964485,"31":-0.0720452695463952,"32":-0.037198071729805306,"33":0.3071003435176148,"34":-0.09026773041204379,"35":0.5752414163132524,"36":-0.0925119582987749,"37":-0.6179061865708176,"38":-0.60745737928086,"39":0.4636716878497737,"40":-0.2877985516921415,"41":0.12260087656873277,"42":-0.7685372893914806,"43":-0.3189277709687771,"44":0.7025777536399319,"45":-0.042065973294518756,"46":0.21924834756169995,"47":0.18707970112750222,"48":-0.23689578194876168,"49":0.6249277193420616}},"53":{"bias":0.08083760486164414,"weights":{"0":0.6843757551430792,"1":1.0097231756540503,"2":-0.5151778412257312,"3":-0.509590285786934,"4":-0.488200105706649,"5":-0.22471944519102144,"6":-0.1476873225608373,"7":-0.645282572711217,"8":0.25575318659997653,"9":0.18206170972240165,"10":-0.25057799687496174,"11":-0.7435251950895079,"12":0.38430537491908684,"13":-0.5126983660584536,"14":-0.5198909794414178,"15":-0.44623515871984565,"16":0.44466413289646806,"17":-0.06777426518844276,"18":-0.34688890023128915,"19":0.7268569475045291,"20":-0.8581238546538108,"21":0.7695016132877155,"22":-0.5012582411404458,"23":0.2440977764398552,"24":-0.6091502697903957,"25":-0.2765147540455604,"26":-0.0943083683145379,"27":-0.3568823154965125,"28":0.15588419761264632,"29":-0.5416418904043611,"30":0.46993037511665336,"31":0.039659548637131496,"32":0.1969279701015761,"33":0.25638813813569916,"34":-0.0873957618155644,"35":0.6543727919222616,"36":-1.0266299935942627,"37":-0.6651184934238349,"38":-0.5449276945836923,"39":0.7309314100005239,"40":-0.3583195982569211,"41":-0.12336367112280318,"42":-0.7257575693785705,"43":-0.23860378607621802,"44":0.5528573424162893,"45":0.2995416752100127,"46":0.6491754720664181,"47":0.1201338021141251,"48":0.07725707164026314,"49":0.4421231415509891}},"54":{"bias":-0.2784828519916065,"weights":{"0":0.694573934558389,"1":0.17174952176271516,"2":-0.2110249789101241,"3":-0.401605983948015,"4":-0.1386478795734046,"5":-0.1512699955061042,"6":-0.4252276029880384,"7":-0.5267037704474442,"8":-0.09839383049738111,"9":-0.891027094136155,"10":0.266937588475389,"11":-0.6040151098863157,"12":-0.17232026212617563,"13":-0.459451994447412,"14":-0.32236635613907644,"15":-0.4555702967973322,"16":0.662220898198794,"17":0.12912366686918433,"18":0.1524467524690468,"19":0.24581294547618565,"20":-0.7236130624495206,"21":-0.031457782455259396,"22":-0.2384351867762679,"23":0.3161103766281144,"24":0.01684604035749795,"25":0.21005507056095296,"26":-0.47431302425759164,"27":0.025918938302363498,"28":0.5844502174511279,"29":-0.408126519234058,"30":0.07599596363418828,"31":0.48914900082501456,"32":-0.24029556711103936,"33":-0.06490412084842137,"34":0.189473762458043,"35":-0.09394860181193586,"36":-1.2905864693332294,"37":-0.6216632541204559,"38":0.19157986836674895,"39":0.9018176011871413,"40":-0.2665739294918772,"41":-0.5778288781219806,"42":-0.3806076680025845,"43":0.10750709220089416,"44":0.24742781553815635,"45":0.05001897848320292,"46":0.22605603596796023,"47":0.29048887309875054,"48":0.1581667106751031,"49":0.07516640601487416}},"55":{"bias":0.5663532791479728,"weights":{"0":-0.9681133561330098,"1":-0.17903641342695606,"2":0.9590420938646853,"3":0.9048007325587776,"4":0.9480916660564522,"5":0.4488612294658632,"6":0.21735173695959376,"7":1.1195293058123206,"8":-0.31258204667865813,"9":-0.33189488651804483,"10":0.568845666679028,"11":0.9219627285337421,"12":-0.1863295368559892,"13":0.7626014408700081,"14":0.8721616638672173,"15":1.1295842757908512,"16":-0.23050868202825708,"17":0.27923563547043717,"18":0.7359097882111021,"19":-0.5395525652330316,"20":1.219993454369119,"21":-0.7034657761993626,"22":0.8859232996176777,"23":0.4299229800036392,"24":0.8763502963918379,"25":0.41708451924976847,"26":0.2939673973938887,"27":1.1181658290171317,"28":0.5112973024668189,"29":0.9837098447649272,"30":-0.3224148557171021,"31":0.21127119805582686,"32":-0.07174121632634178,"33":-0.6707095652862445,"34":0.5902262069584091,"35":-0.9862623671651142,"36":0.917181564477666,"37":0.9085342975309975,"38":0.9640988088537685,"39":-0.07193794834959287,"40":0.5879746531588717,"41":0.6646089707991151,"42":1.5165378210849085,"43":0.6297601858816525,"44":-0.7021852310505199,"45":-0.08502097620437338,"46":-0.8341392462885755,"47":0.045380606367326916,"48":0.4639098852615282,"49":-0.6748775046378841}},"56":{"bias":0.009051077281734692,"weights":{"0":0.7215595917234325,"1":0.604242816485432,"2":-0.25595130592365756,"3":-0.16752433729467356,"4":-0.30632502367609454,"5":-0.05789029642188518,"6":-0.5698073871332073,"7":-0.7186268478254876,"8":-0.07599295183936328,"9":-0.4216767906940511,"10":0.2255274286175483,"11":-0.6855346027335639,"12":0.17404936157320344,"13":-0.48010174618095164,"14":-0.5015590581241105,"15":-0.41914309034807073,"16":0.8778411253037063,"17":0.043748903615003464,"18":-0.017134603935695734,"19":0.40208541276615734,"20":-1.0819324922270046,"21":0.4427656606477406,"22":-0.3199005451717949,"23":0.24003078770324712,"24":-0.18660487734307823,"25":0.021025281360549923,"26":-0.24986823050755996,"27":-0.24793859376522198,"28":0.3083266989330598,"29":-0.6753887742168677,"30":0.08687554641081667,"31":0.2639613382126178,"32":-0.3540510845935782,"33":0.180189215257532,"34":-0.14040919389988712,"35":0.23078814214726312,"36":-1.5428239109747057,"37":-0.5864133773731159,"38":-0.02082526936647906,"39":1.1766318402350615,"40":-0.08806505611470047,"41":-0.47545448206762075,"42":-0.7727667673547147,"43":-0.06846369070712553,"44":0.5667755679949584,"45":0.12966960441301228,"46":0.34234485055994274,"47":0.3097131119577162,"48":-0.04606256017552876,"49":0.31175461846797903}},"57":{"bias":-0.7591651607618268,"weights":{"0":-0.6408015124411279,"1":-0.3366329943135651,"2":0.11173846372488502,"3":0.09562511652807947,"4":0.016252684012984856,"5":0.0242147234937611,"6":-0.22021561331989456,"7":-0.15853590613865523,"8":-0.2821538005609609,"9":0.7791608774221483,"10":-0.45225407323482625,"11":0.32351376154457273,"12":-0.41211640827554497,"13":0.25873800879194375,"14":0.005151160109419229,"15":0.04511809473046679,"16":-0.6471552118272296,"17":-0.16246325976738496,"18":-0.037203746133822664,"19":-0.308991692330473,"20":1.0183903030042762,"21":-0.2679965181514491,"22":0.12457975750314713,"23":-0.220878198564601,"24":-0.6018208634301149,"25":-0.1936534808744126,"26":0.017240397099605568,"27":-0.5030169891102433,"28":-0.2863823876298561,"29":-0.08142420875230476,"30":-0.09705294916235906,"31":-0.5288589773754515,"32":-0.06676344403941645,"33":-0.3779592325735442,"34":0.001024490975348845,"35":-0.5900698667773067,"36":-0.00936076776606075,"37":0.1136655673600483,"38":-0.3743835410225644,"39":-0.6842467853147256,"40":-0.27928453293449956,"41":0.43045022463702226,"42":-0.37751676876705514,"43":-0.3320043497774458,"44":-0.4088246246605957,"45":-0.40432120568991964,"46":-0.3836842255812835,"47":-0.16469408879357908,"48":0.13219088372029916,"49":-0.40490489467063706}},"58":{"bias":0.12405435462600742,"weights":{"0":0.9533983236585761,"1":1.036018960626883,"2":-0.5487613729248901,"3":-0.3046098454472157,"4":-0.4285109461213121,"5":-0.42829516874349055,"6":-0.26819339993998786,"7":-0.8443308477306043,"8":0.36116075824540084,"9":0.30020356945219134,"10":-0.41509359540825164,"11":-0.67732640493122,"12":0.39371820204223573,"13":-0.5346146881623208,"14":-0.6457634634531243,"15":-0.726487558835898,"16":0.7664165882343861,"17":-0.2165142023013279,"18":-0.5305022709258841,"19":1.2083357286756988,"20":-1.0206885856665298,"21":0.8792976221207106,"22":-0.35881646683565654,"23":-0.17388028102359954,"24":-0.544233069377542,"25":-0.5722954859087628,"26":-0.16007471019715228,"27":-0.6831233570006052,"28":0.15679416004180483,"29":-0.7194900936838973,"30":0.5431775815519317,"31":0.13197977443379383,"32":0.060932615031734236,"33":0.5486108120842358,"34":-0.15309666739647737,"35":0.5999415370307356,"36":-0.7553374246004869,"37":-0.5264284200282788,"38":-0.6282632932297981,"39":0.7773666523121548,"40":-0.2895932391105249,"41":0.18480652779718204,"42":-1.0780456088336556,"43":-0.1950356177510922,"44":0.7834964058084616,"45":0.3001830256737944,"46":0.8046677176283209,"47":0.4171808822497043,"48":-0.1276214257445794,"49":0.8634145585686427}},"59":{"bias":0.29929347207532353,"weights":{"0":-0.8301409755712525,"1":0.1461679762475052,"2":0.33666351001941025,"3":0.26475587160224484,"4":0.3081137693864013,"5":0.12091182646760085,"6":0.048429998022015926,"7":0.43794297128166443,"8":-0.2042400237506554,"9":0.22174846871144147,"10":0.06983828649644339,"11":0.193099550360928,"12":-0.3942233518335995,"13":0.4993123916258204,"14":0.4880090745344703,"15":0.2859917241808709,"16":-0.041945930944376576,"17":0.27680923225713666,"18":0.4270865499432971,"19":-0.1379867700357058,"20":0.38394281139004366,"21":-0.2933617038337065,"22":0.47032251433320865,"23":-0.01972912693837887,"24":0.15046312840635645,"25":0.15715850432228232,"26":0.054574004083151724,"27":0.4016751538262345,"28":0.033793377442209,"29":0.4938650471970429,"30":-0.26034801360146376,"31":0.07950855772058456,"32":-0.3223809594606426,"33":-0.28632548089574394,"34":0.1644199292139888,"35":-0.778232955036098,"36":0.6595449457745588,"37":0.26491691375860277,"38":0.21476099735225013,"39":-0.20789740315199945,"40":0.11926253366566353,"41":0.20537041466712627,"42":0.7362105457913146,"43":0.35714689048870174,"44":-0.163613474560091,"45":-0.22972063101820828,"46":-0.658156726215455,"47":-0.059657495460057414,"48":0.3070704428135945,"49":-0.5364509697958632}}},{"0":{"bias":-0.49403895327001546,"weights":{"0":-0.2505126614112211,"1":-0.07952295484110179,"2":-0.19577348846148582,"3":-0.17704717143240203,"4":-0.21460600769599816,"5":-0.29571105088467026,"6":-0.2914527952029997,"7":0.05118076542063866,"8":-0.13898766494111753,"9":-0.1739436794220616,"10":-0.08819688996811012,"11":-0.11942742660173693,"12":-0.18745018238625252,"13":-0.03805597903200467,"14":-0.3604632501628383,"15":-0.13374170771566674,"16":-0.35028711062614176,"17":-0.35945726492519414,"18":-0.3616188897251052,"19":-0.3281806534784014,"20":-0.20831353057087465,"21":-0.09417336288261524,"22":-0.2030372136412148,"23":-0.20082020002548362,"24":-0.14370927578981013,"25":-0.213060822150613,"26":-0.22380080837927532,"27":-0.3653437058133928,"28":-0.2088789432923866,"29":-0.15224780473751423,"30":-0.033883502210643034,"31":-0.26879964395238687,"32":-0.08442835915513008,"33":-0.4157005914664473,"34":-0.5998242127688503,"35":-0.21160376180915655,"36":-0.15179725818012882,"37":-0.20798469627381652,"38":-0.24173295128891487,"39":-0.18720238407756237,"40":-0.3579175771875654,"41":-0.30859408565342783,"42":-0.06736081517980613,"43":-0.4896428031086035,"44":0.05187898199814267,"45":-0.2095261372499718,"46":-0.14692657324629416,"47":0.04942395144674737,"48":-0.28312229039500975,"49":-0.3874013507323362,"50":-0.11740787181660059,"51":-0.24035337808659338,"52":-0.1172408690491048,"53":-0.3685735531945866,"54":0.010317346170848155,"55":-0.3485317213736712,"56":-0.3463911022493663,"57":-0.06131085651076013,"58":-0.4653642944705275,"59":-0.2198839251008133}},"1":{"bias":-0.3517368357293008,"weights":{"0":-0.20426346348589589,"1":-0.28911730997835017,"2":-0.022807279665413287,"3":-0.5042751835445467,"4":-0.11347368131724771,"5":-0.3111972945502701,"6":0.008595231033814299,"7":0.09209023217565425,"8":-0.2307400162151561,"9":0.01287888538761148,"10":0.04907647926299603,"11":-0.41163195585052875,"12":-0.2799402407949692,"13":-0.19553123903771766,"14":-0.138769092756949,"15":-0.1755912490110434,"16":-0.214365102259305,"17":-0.03758007140672153,"18":-0.4285414292399838,"19":-0.09816006330519575,"20":-0.02932924791799481,"21":-0.3542657669154382,"22":0.06188983474574879,"23":-0.3950465970158682,"24":-0.32484668258538385,"25":-0.6860032261131723,"26":-0.03013706705120185,"27":-0.30257415778671015,"28":-0.01588960699297646,"29":0.04069932155654549,"30":0.05766463769480439,"31":-0.5832210972943918,"32":0.005436517825736872,"33":-0.08629501433700495,"34":-0.9171177240345706,"35":-0.18570957569453844,"36":-0.08635439488530758,"37":0.06252601497432558,"38":-0.2885196480997758,"39":-0.02036650911862555,"40":-0.3954916756304499,"41":-0.27547627959270643,"42":-0.3491266004608242,"43":-0.5904209790186307,"44":-0.21283023464543718,"45":-0.352069198661269,"46":0.017209891720714104,"47":0.04555251191262365,"48":-0.21679984632822663,"49":-0.5726604868033786,"50":0.03400510068367315,"51":-0.22981462953382614,"52":-0.3978477658938401,"53":-0.25711694070228425,"54":-0.34840379955100836,"55":-0.27055171270648676,"56":-0.12879675795242973,"57":0.031576387665529566,"58":-0.38762708609383134,"59":-0.17836993456844033}},"2":{"bias":-0.42191957587332757,"weights":{"0":-0.2753799052646243,"1":-0.2351632336117778,"2":0.030724141020077044,"3":-0.14120528556223433,"4":-0.003132774481443348,"5":-0.21497358235139255,"6":-0.0676481058143528,"7":-0.1650332260425753,"8":-0.2804177516924328,"9":-0.1229848324270419,"10":-0.18128023814173308,"11":-0.37517973562144313,"12":-0.5196561193710646,"13":-0.1486988599420744,"14":-0.49029368648999194,"15":-0.00996232037209708,"16":-0.018894059417404827,"17":-0.18082115506762914,"18":-0.36799458647413985,"19":0.00952643424151048,"20":-0.05572800049202929,"21":0.030300115757217937,"22":-0.00870730526561628,"23":-0.18085581386164237,"24":-0.04214591266714629,"25":-0.4656915464058735,"26":0.05603469751864094,"27":-0.076022048167986,"28":-0.34421651167371187,"29":-0.061007973891606795,"30":-0.18690554545798474,"31":-0.4468932391920464,"32":-0.195046832838386,"33":-0.13202176476060187,"34":-0.4654458525392964,"35":-0.051488169991476894,"36":-0.1167800843698474,"37":-0.03462795373544278,"38":-0.14691666759336228,"39":-0.043733599085199894,"40":-0.49406482361319026,"41":-0.2720759702551867,"42":0.20956313246314714,"43":-0.4599960709968792,"44":0.15135182608687717,"45":-0.14644535399928665,"46":0.05716496536816887,"47":-0.04406842122588765,"48":0.07133538042572884,"49":-0.52906456656909,"50":-0.1523250100143597,"51":-0.36378318311022045,"52":-0.40167234865846096,"53":-0.2392079284615156,"54":0.0441136586466176,"55":-0.41868755759708964,"56":-0.23082245582303235,"57":-0.10283270690868397,"58":-0.5794100631457069,"59":-0.33079120745312046}},"3":{"bias":-0.2815276359602374,"weights":{"0":-0.501529159671455,"1":-0.040672254622776946,"2":0.20862936480225291,"3":-0.7156911263865005,"4":-0.2500306377781845,"5":-0.16299104631450875,"6":0.10237824286148156,"7":0.28634766787576627,"8":-0.31363000611805575,"9":-0.2157436143549939,"10":0.16071796226687263,"11":-0.17226490734376712,"12":-0.6014002102545052,"13":-0.6374669722089936,"14":-0.16239812375084303,"15":-0.11205375723192267,"16":-0.35229412561941614,"17":-0.22979038612635105,"18":-0.42905804229464956,"19":-0.3598266665750883,"20":-0.3747962712877427,"21":0.0586168081966145,"22":-0.3645269198407756,"23":-0.30198452105798307,"24":-0.3767427719847832,"25":-0.5436566040422289,"26":0.3120527811232368,"27":-0.4181148029773228,"28":-0.01200663437041626,"29":-0.031987968235930954,"30":-0.07796552316604345,"31":-0.5400222144924995,"32":-0.5006122799872996,"33":-0.4313872973879872,"34":-1.0373205635762315,"35":-0.22265344061906533,"36":-0.30308353010312317,"37":-0.39640011261224734,"38":-0.28622736533853016,"39":-0.06127445801171874,"40":-0.5874245724308734,"41":-1.3484220905556064,"42":-0.5005723740298696,"43":-0.49913424223564484,"44":-0.6160043219627902,"45":-0.4665678164870641,"46":0.19575649359665026,"47":0.07782243956104816,"48":-0.2120411304139668,"49":-0.7137924422280146,"50":0.5140929398797184,"51":-0.2856659257342197,"52":-0.5497941846401544,"53":-0.48661908096968504,"54":-0.41211784081945196,"55":-0.16064828434971123,"56":-0.5860006681286025,"57":0.3481839410341973,"58":-0.48460749129733066,"59":-0.1511800285018813}},"4":{"bias":-0.22006532917533436,"weights":{"0":-0.2290220000799186,"1":-0.25918799282357097,"2":0.0749219887227765,"3":-0.4304882122040498,"4":0.03555988197343121,"5":-0.15126826269133184,"6":-0.05341782489581815,"7":0.16296017048071118,"8":-0.27242129676676946,"9":-0.17549540401189523,"10":-0.25943024858417646,"11":-0.28871544115490705,"12":-0.4687614448364166,"13":-0.22598403237662448,"14":-0.4172887035176302,"15":-0.3067826149751387,"16":-0.044613306440504624,"17":-0.20884245590865874,"18":-0.2005273059547401,"19":0.0011904199489394323,"20":-0.26840377247396663,"21":-0.1653130546150092,"22":-0.1623770183150124,"23":-0.35324518715589226,"24":-0.040546717417913276,"25":-0.6931370497013989,"26":0.06691480628652223,"27":-0.20184944838164434,"28":-0.28041663293187064,"29":-0.27699257326093457,"30":-0.19579272440070367,"31":-0.30962182773389163,"32":-0.2214585406460228,"33":-0.43680664375883205,"34":-0.6747475869961818,"35":-0.007979855439611333,"36":-0.3949126351747477,"37":-0.1099910316579144,"38":-0.16322161504952157,"39":-0.06428466550587998,"40":-0.4679400505527271,"41":-0.4846730369689956,"42":-0.2770414769261318,"43":-0.32357804307886456,"44":0.06320399665990194,"45":-0.520573261639791,"46":-0.0014511654671692244,"47":0.13827202023892804,"48":-0.11413521606392409,"49":-0.41383508860292756,"50":0.1634749764142974,"51":-0.13408911820584077,"52":-0.14753126795109414,"53":-0.36754762781126205,"54":-0.07578197747683689,"55":-0.45124193887644826,"56":-0.2524032205813847,"57":-0.12059578565162075,"58":-0.43448059996899846,"59":-0.05350950307772038}},"5":{"bias":-0.34631127219233415,"weights":{"0":-0.0019425598522322977,"1":-0.18930999890838668,"2":0.1041997163170491,"3":-0.3949277196726082,"4":-0.0016527008089977637,"5":-0.39685573802908414,"6":-0.1401826678000004,"7":-0.1335652774132654,"8":-0.2751658629900986,"9":-0.12479342346073258,"10":0.0724736668191983,"11":-0.3664031178018615,"12":-0.5137105659269673,"13":-0.3615077862642192,"14":-0.3500747036162971,"15":-0.0939209922951119,"16":-0.3039187885690804,"17":-0.3217603948632226,"18":-0.3962823188875345,"19":0.005672515470776466,"20":-0.27910680309209707,"21":-0.3046700181085694,"22":-0.016399825946454054,"23":-0.3058228558623129,"24":0.004746246857566946,"25":-0.4025478613574523,"26":0.21089788479359356,"27":-0.14645806280052598,"28":-0.2175048141703171,"29":-0.14518793612098235,"30":-0.15241745283550087,"31":-0.3563471724662287,"32":-0.12087107471569332,"33":-0.1598936291220691,"34":-0.6625108289071292,"35":-0.1391999875949232,"36":-0.2052055492275587,"37":0.11205714248590588,"38":0.14249059967718924,"39":0.08759564728584311,"40":-0.4422942653031014,"41":-0.411839151661009,"42":0.07244282052690797,"43":-0.3475596175578148,"44":0.170707189562835,"45":-0.468157091972072,"46":-0.10032731853371202,"47":0.004136066929829298,"48":-0.20645249665148915,"49":-0.46349696260365997,"50":-0.1525178672556177,"51":-0.28383562287443437,"52":-0.3348643641508835,"53":-0.36218664153173796,"54":-0.1511136185594422,"55":-0.2430406408057092,"56":-0.04501636772414035,"57":0.2276334628546354,"58":-0.5943960528023756,"59":-0.09077305872329089}},"6":{"bias":-0.20520067943606632,"weights":{"0":-0.24222769282133425,"1":-0.292553803118141,"2":-0.15001613711924786,"3":-0.27414407186810985,"4":-0.28914681343254606,"5":-0.20079709843132648,"6":-0.05240920181108798,"7":-0.08636538206369292,"8":-0.47466584177563587,"9":0.0529821191148597,"10":-0.25291337204306263,"11":-0.4052055197893405,"12":-0.47949330754975583,"13":-0.11199728904701331,"14":-0.5637570891865236,"15":-0.31868572358055214,"16":-0.20249377866526877,"17":-0.019687813303913372,"18":-0.37096830516590906,"19":-0.30076921068685175,"20":-0.3273449029034868,"21":-0.04664371981185454,"22":-0.24102738784528394,"23":-0.34662278687431475,"24":-0.33155421522226125,"25":-0.34639144526034527,"26":0.06361044755452332,"27":-0.2462293367230789,"28":-0.007197510940382592,"29":-0.17318109825671263,"30":-0.038747757666361286,"31":-0.23082486101057634,"32":0.08277502153947647,"33":-0.0871204198733663,"34":-0.6671033110974497,"35":-0.13418098058179037,"36":-0.30215194566682846,"37":-0.13572490099776158,"38":-0.08425746649398683,"39":-0.04265335868499044,"40":-0.38416548154136215,"41":-0.13139204803984944,"42":0.10278467163254913,"43":-0.6744290898098104,"44":0.09767638360739309,"45":-0.2528457322066499,"46":0.11671150139934311,"47":0.10089143348266198,"48":-0.19897602435911083,"49":-0.38064528797312575,"50":-0.18912609635400585,"51":-0.17651254731563004,"52":-0.21794661040395713,"53":-0.3980292288632212,"54":-0.03555919987168346,"55":-0.3256899624732028,"56":-0.2969546364228197,"57":0.06782693957032315,"58":-0.4528821270772546,"59":-0.2408835220856291}},"7":{"bias":0.3750527484844186,"weights":{"0":-1.1257645789632258,"1":2.110282520231043,"2":0.4961939294888004,"3":-2.039360821243887,"4":0.04046291493562487,"5":1.6806137186706278,"6":0.41746647556833644,"7":0.9839017592603091,"8":-0.4179730573583836,"9":0.5410866561556423,"10":1.6168819227313818,"11":1.4086850012981766,"12":-0.8367853893043701,"13":-1.250362000131686,"14":1.738539346023073,"15":0.21487473048340386,"16":-0.5831778669273735,"17":-2.71157228499579,"18":1.4416883483173815,"19":-0.8008306504246843,"20":-1.1896334155699966,"21":1.5396395474882254,"22":0.19254297506565207,"23":-0.20469528719094324,"24":-0.4426760996316204,"25":-1.3614288756198194,"26":0.8513680350906337,"27":-0.2900682335075691,"28":0.4063121941446481,"29":0.21691384566288754,"30":1.242910360634487,"31":-1.4394251204843356,"32":0.385890852446709,"33":-2.6071657213194053,"34":-2.245107990029822,"35":0.3894705340298965,"36":1.8343918285302698,"37":0.5406123041099771,"38":0.7247775263872543,"39":1.6069382843789866,"40":-2.241748126864597,"41":-0.21738712702144755,"42":-0.3871804192306918,"43":-0.7897619458538829,"44":-0.18343721732202667,"45":-1.1360018144901936,"46":0.7468920260678934,"47":1.4523339789706549,"48":-0.07543761482740405,"49":-1.137557075145703,"50":0.37465988517459103,"51":-0.8234567893620256,"52":-0.5082385678909815,"53":-0.8062096370291357,"54":-0.6127073885999189,"55":1.8776165879370954,"56":-0.9782104989573239,"57":1.4096084367843524,"58":-0.916209930022255,"59":1.4429700580499054}},"8":{"bias":-0.3075372891759638,"weights":{"0":-0.10368603567966303,"1":-0.12290516575551035,"2":-0.1417106896499632,"3":-0.15939996950202184,"4":-0.13862867141165347,"5":-0.4079111610993475,"6":-0.056686566391328845,"7":0.009974158256140628,"8":-0.3280597776106691,"9":-0.09758790944041153,"10":-0.22925645356412072,"11":-0.186381571500608,"12":-0.46964746961114495,"13":-0.2865808216832494,"14":-0.5032816317161215,"15":-0.2965300512942189,"16":-0.10971281982372026,"17":-0.23138389975408258,"18":-0.23900594808159215,"19":-0.08111382334721867,"20":-0.07786129137578982,"21":-0.17677370044886398,"22":-0.22958670352528657,"23":-0.34492372349345,"24":-0.06345434365410724,"25":-0.6718560264302406,"26":0.11486449248112922,