{"layers":[{"0":{},"1":{},"2":{},"3":{},"4":{},"5":{}},{"0":{"bias":-1.6581805167345045,"weights":{"0":-0.5652482186139761,"1":-0.6583282218422727,"2":-0.7101617959972232,"3":-0.34532200897869236,"4":-0.3890852562627607,"5":-0.4747717100744181}},"1":{"bias":-1.413492194871594,"weights":{"0":-1.2126381348384858,"1":-0.8062784636064093,"2":0.5273177114303401,"3":-0.9948843225012161,"4":-0.29664143202686144,"5":-0.051908032241788755}},"2":{"bias":-5.949154938098111,"weights":{"0":7.750003246270857,"1":1.4439185475051133,"2":-3.7035503308563125,"3":4.376975780281089,"4":-7.649201629473787,"5":6.894994614818499}},"3":{"bias":-2.595986009705702,"weights":{"0":0.295173551831808,"1":0.15343956672302206,"2":-1.788978978376253,"3":-0.127757142702514,"4":0.46118956973257885,"5":1.3323637087007838}},"4":{"bias":-1.6458576627512147,"weights":{"0":-0.147273563684484,"1":-0.8005792310467319,"2":-1.7401117486681954,"3":0.21735560356401748,"4":0.1549804430247963,"5":0.030239658715385722}},"5":{"bias":-1.7082798530170231,"weights":{"0":-0.22281640968809957,"1":-0.663192958376542,"2":-0.922351222595924,"3":-0.46643223480244367,"4":-0.2168707223429006,"5":0.026774198834321524}},"6":{"bias":-1.187732990941861,"weights":{"0":-0.33716620069627695,"1":-1.9498406150730563,"2":0.9023764286057581,"3":-1.7511047355639484,"4":-0.1549569666158277,"5":0.5556296508571152}},"7":{"bias":-0.7336904309960991,"weights":{"0":0.24378610737616901,"1":-3.1067532074412902,"2":0.34478084947215826,"3":-1.8166325449813558,"4":0.1268379141370356,"5":1.3742659188712754}},"8":{"bias":-1.8591756238066455,"weights":{"0":-1.1768242063201464,"1":-1.1332378397525686,"2":-1.9832489481140354,"3":-0.4673123047770202,"4":0.052838806296324245,"5":0.773070868665316}},"9":{"bias":-1.2966035247287877,"weights":{"0":-0.9442051963851201,"1":-1.5030641125020396,"2":0.8153729292440344,"3":-1.5089999529585107,"4":0.24932221652611256,"5":-0.03990660620179937}},"10":{"bias":-1.6372789588145829,"weights":{"0":-0.41111956937990773,"1":-0.6581446034245173,"2":-0.8915341822664427,"3":-0.6796691980883063,"4":-0.17203715810427023,"5":0.4848291544609213}},"11":{"bias":-2.22790324647307,"weights":{"0":0.056209084819481225,"1":0.010612804324149122,"2":-1.4432647763522053,"3":-0.24526140860115872,"4":0.007805323545899045,"5":0.46442646784943514}},"12":{"bias":-1.8874669896631793,"weights":{"0":-0.3855163335152514,"1":-0.41745246535432123,"2":-0.5970418273183695,"3":-0.43093692601857136,"4":-0.4185187831770167,"5":0.3378625888006749}},"13":{"bias":-8.89489018208374,"weights":{"0":6.947941043472707,"1":-3.615057942913832,"2":0.48971406925757444,"3":0.3289199039497215,"4":8.460789032102973,"5":7.424579441041522}},"14":{"bias":-2.0263502435294245,"weights":{"0":-0.17546093725953235,"1":-0.8076324373081192,"2":-2.861499233404428,"3":0.6435240267550607,"4":-0.09695793126091865,"5":-1.5538305740508995}},"15":{"bias":-1.5278910874785174,"weights":{"0":-0.8460170299565021,"1":-0.7690788723820076,"2":0.3983202903352608,"3":-1.1555269470406646,"4":-0.07501655734415408,"5":-0.2736402304726339}},"16":{"bias":-8.075828866550285,"weights":{"0":-0.46788002371802034,"1":0.49341708783045124,"2":-1.6931986495069127,"3":2.667334851352648,"4":0.4219180211098116,"5":9.591411198474267}},"17":{"bias":-1.8317765411794131,"weights":{"0":-0.4941211534776848,"1":-0.2952135428330824,"2":-1.4018231728592632,"3":0.22266704741146567,"4":-0.43215927714801455,"5":-1.0370728472683788}},"18":{"bias":-1.5089724801810718,"weights":{"0":-0.4310066160797829,"1":-0.9277698344366039,"2":-0.19993971684142736,"3":-0.8299715922996217,"4":-0.115554550889924,"5":0.11374038634864253}},"19":{"bias":-1.8510044695028585,"weights":{"0":-0.5078628709321115,"1":-0.18519936087773045,"2":-0.2865068342875003,"3":-0.6753316136689039,"4":-0.7370841178571791,"5":-0.03254157021583463}},"20":{"bias":-1.5112097752247846,"weights":{"0":-0.23809534432713708,"1":-1.15915216749431,"2":-0.9648353928863771,"3":-0.2019828235219793,"4":0.30524696291093895,"5":-0.4489210887036141}},"21":{"bias":-1.7490058550586287,"weights":{"0":-0.8744046310383227,"1":-0.8807403542313011,"2":-1.8800624383678834,"3":-0.5280833210378091,"4":0.06271523088772928,"5":0.8555160408956518}},"22":{"bias":-1.471726513764245,"weights":{"0":-1.2505233219177085,"1":-0.9629180775922028,"2":0.7255849248552251,"3":-1.0244539879550318,"4":-0.124848769374607,"5":-0.01846926496919924}},"23":{"bias":-0.9682310172899804,"weights":{"0":-2.7558626254686764,"1":-4.117790327414078,"2":3.831770174946098,"3":-1.3578228206419176,"4":2.782162884992729,"5":-0.21306166056913647}},"24":{"bias":-2.546675867547323,"weights":{"0":-5.5034214438203275,"1":-0.8860868139516143,"2":-9.087859635613174,"3":-4.362735581308352,"4":9.973073405020033,"5":5.620158601931561}},"25":{"bias":-1.778074661674836,"weights":{"0":-0.6031766941052445,"1":-0.33251360740666935,"2":-0.5791480051336754,"3":-0.5697267155083019,"4":-0.7439104952358182,"5":-0.0751602994362925}},"26":{"bias":-1.4805909987043557,"weights":{"0":-0.7899397381213645,"1":-0.840081696897151,"2":0.2285106294934989,"3":-1.0485614924768636,"4":-0.22945712009020805,"5":-0.19311177855711975}},"27":{"bias":-1.9527656273921323,"weights":{"0":-0.159758003866532,"1":-0.313945148556001,"2":-1.2790408997473233,"3":-0.31590155572092554,"4":-0.20187751195084197,"5":0.17339197945436596}},"28":{"bias":-1.7038348323501251,"weights":{"0":-0.6201465240967583,"1":-0.566653639354315,"2":-1.3144012955479056,"3":0.16804349405396948,"4":-0.5352055668106704,"5":-0.295431698548287}},"29":{"bias":-1.7739967580255032,"weights":{"0":-0.4086379055952471,"1":-0.5726168075783559,"2":-0.22650720678748032,"3":-0.7276373580583587,"4":-0.7116757305734435,"5":-0.007157621102869137}},"30":{"bias":-1.49091402359464,"weights":{"0":-0.9204014021267556,"1":-0.661570011627728,"2":-1.0382304370179751,"3":-0.01821624029115541,"4":-0.48902053717815336,"5":-0.6742583891469843}},"31":{"bias":-1.805829093112027,"weights":{"0":-0.3791919010940572,"1":-0.4362664394511172,"2":-0.8070749471693559,"3":-0.44537517713113334,"4":-0.6778368904434742,"5":0.06480017204439328}},"32":{"bias":-1.821811556132117,"weights":{"0":-0.41568915837259934,"1":-0.3232475369037353,"2":-0.7112452127642757,"3":-0.5463411431477452,"4":-0.7301303706346718,"5":0.3253830531963045}},"33":{"bias":-12.081903977338223,"weights":{"0":-1.2958209370103433,"1":-1.9583407343796362,"2":3.0361338192985055,"3":2.287517750269404,"4":3.428420508188113,"5":24.1589468024633}},"34":{"bias":-3.3643925685220273,"weights":{"0":0.19748202257858163,"1":0.4148379942174237,"2":-1.6493493783023758,"3":-0.3519497671709344,"4":0.3553384935116059,"5":2.698451462765309}},"35":{"bias":-1.4200329396446356,"weights":{"0":-1.7253469960335732,"1":-0.4920881685407121,"2":0.4600593266787395,"3":-0.88430923527535,"4":0.035184995672620935,"5":-0.1665142979182912}},"36":{"bias":-1.4805465082898772,"weights":{"0":-0.979402358073862,"1":-1.0105289578221792,"2":0.8398383673663776,"3":-1.5217676617082125,"4":0.14232691897069877,"5":-0.20248433752538028}},"37":{"bias":-1.4934338388978392,"weights":{"0":-1.001991786402122,"1":-0.3494483953757285,"2":-0.19710086641189534,"3":-0.7519242088075879,"4":-0.7768551492931608,"5":-0.3431876548523679}},"38":{"bias":2.6946928794097698,"weights":{"0":-14.17665048138968,"1":8.543990732471398,"2":-2.744672094049155,"3":-10.73408550882645,"4":11.606021731473332,"5":-0.44640014276561957}},"39":{"bias":-1.4241768609376517,"weights":{"0":0.1356274565390922,"1":-2.1026037076136768,"2":-0.038564529196632086,"3":-1.5119270645660565,"4":0.22095878650231351,"5":1.827108698612779}},"40":{"bias":1.3856935819073557,"weights":{"0":0.6884358512031484,"1":2.860237811006358,"2":-0.7380527462539581,"3":1.102420484012592,"4":-3.8559318242386746,"5":-15.69114101159203}},"41":{"bias":-1.6485409475084785,"weights":{"0":-0.5541022741925169,"1":-0.6556500186554943,"2":-0.014233097604090854,"3":-0.9629264393632422,"4":-0.3398877761954409,"5":-0.04488395924705486}},"42":{"bias":-1.6077494110124837,"weights":{"0":-0.3313152673602967,"1":-0.9753881909176311,"2":-0.7397875799083132,"3":-0.263790124891914,"4":0.05719444918917649,"5":-0.31390250859614827}},"43":{"bias":-1.496159455124637,"weights":{"0":-0.33934115260340114,"1":-1.3297387401804903,"2":0.36418056578091407,"3":-1.3192410488358373,"4":-0.09236484159921259,"5":0.13076906975141012}},"44":{"bias":2.441345220418159,"weights":{"0":-6.457129285029,"1":-11.968270780822849,"2":-5.86346569074339,"3":2.4408613246092643,"4":21.420578215611663,"5":5.900609528616468}},"45":{"bias":-1.5970345383019737,"weights":{"0":-0.6920373584066459,"1":-0.5574822288221782,"2":0.4069731435094967,"3":-1.0934064777283716,"4":-1.0283006976158533,"5":-0.19184774160580695}},"46":{"bias":4.454814295507202,"weights":{"0":-10.049608709533054,"1":-0.6348735591051418,"2":0.08757785062053484,"3":4.36780053930322,"4":-2.661011864028096,"5":-4.423292897282673}},"47":{"bias":-1.4611899203385859,"weights":{"0":-0.714191413664292,"1":-0.8372862908654941,"2":-0.389082688280367,"3":-0.6189229371593113,"4":-0.1750244168714096,"5":-0.3625433032267011}},"48":{"bias":-1.9993545908321557,"weights":{"0":-0.02311737105084638,"1":-0.46297760441321456,"2":-1.1917969274127194,"3":-0.29352893814050685,"4":0.08959362942305289,"5":0.2830284495343947}},"49":{"bias":-1.6519316422464954,"weights":{"0":-0.6745770775623677,"1":-0.6046014572788743,"2":0.3620384734527146,"3":-1.218023726000336,"4":-0.4591875220702861,"5":0.05109097520623593}}},{"0":{"bias":-0.42974774524413756,"weights":{"0":0.09346463310954807,"1":0.26388201327009875,"2":-2.0925178851277195,"3":-0.3625507314840197,"4":0.21015347339691268,"5":0.07037386347995042,"6":0.7117794848538256,"7":1.1032979324900638,"8":0.21720034043989636,"9":0.5239718778198758,"10":0.16470545595662148,"11":-0.17382770359352293,"12":-0.03996496765045915,"13":3.4893568073426464,"14":-0.001998566630669851,"15":0.1879835311911428,"16":-2.860703123914306,"17":-0.1111419418841399,"18":0.44705250918731193,"19":0.08900395026633598,"20":0.27695540168532984,"21":0.2055886298993034,"22":0.4571199779772176,"23":0.6498785156592052,"24":-2.915425258601919,"25":0.11220627700975873,"26":0.23893767450944287,"27":0.09061165144269923,"28":0.055690187528650806,"29":0.03869707214553149,"30":0.030580049578049745,"31":0.24736483957815897,"32":0.1099201291355485,"33":3.8638636180713934,"34":-0.48334677898511647,"35":0.1891987475474756,"36":0.5334841008061378,"37":0.0914196912973352,"38":2.2041621554125737,"39":0.5699589189820542,"40":-1.893154436420442,"41":0.41458461936964597,"42":0.31822301268752606,"43":0.40245162061583656,"44":-4.938683151549619,"45":0.19978121074483193,"46":-2.161881119502374,"47":0.11357123550943339,"48":0.1636347607576777,"49":0.3799491634111231}},"1":{"bias":-0.7203624844859325,"weights":{"0":0.03039785041875132,"1":0.107882858677128,"2":-0.3577794421380059,"3":-0.01078976298723299,"4":0.0326259551808017,"5":-0.16103544552258073,"6":-0.011212339187086357,"7":-0.12159177851112339,"8":-0.14193436420791847,"9":0.02375220602269288,"10":-0.13425841127688382,"11":-0.21851833444734609,"12":-0.22312343653885686,"13":0.010263673734343453,"14":-0.08626376588999185,"15":0.11861299865408624,"16":-0.5195838310290976,"17":-0.01582748373355839,"18":-0.20410614141078942,"19":0.0533459879895171,"20":-0.027487837763724304,"21":0.1069680415190164,"22":0.04090230996306496,"23":-0.06663426990748418,"24":-1.462319324577353,"25":0.1517891725456199,"26":0.13374939819471798,"27":0.0654554140914687,"28":0.18484242968916756,"29":-0.14289627965979707,"30":0.09865577963326051,"31":0.15936320401269743,"32":-0.15332370848729152,"33":1.5484507997423766,"34":0.03415401278351997,"35":0.07599253858520572,"36":0.008482533058178894,"37":0.16519368930382924,"38":1.366237038965107,"39":-0.24602079696054743,"40":-0.5293653123215282,"41":-0.16949003418814396,"42":-0.16353956914781181,"43":-0.028823657120572603,"44":-1.589949511988744,"45":0.1906959384494779,"46":-0.33963400186084197,"47":-0.0016303376787885314,"48":-0.16651029884414614,"49":-0.11347805960891753}},"2":{"bias":-0.5610016633127991,"weights":{"0":-0.0919095280982885,"1":-0.255861215100611,"2":-0.41957105678084794,"3":-0.23340491223351628,"4":-0.192585726700038,"5":-0.31218155079387294,"6":-0.3272662328921091,"7":-0.16257880445430783,"8":0.0191233755823949,"9":-0.1297685388968829,"10":0.00888767668766321,"11":-0.19327029330002432,"12":-0.08192154825227857,"13":-0.3547958272675696,"14":-0.1552181310605038,"15":-0.10680773621606005,"16":-0.026495896360968375,"17":-0.049929917118959145,"18":-0.2562439401762995,"19":-0.2983295942029165,"20":-0.07303672013646512,"21":-0.08734856262938813,"22":-0.24568679212752811,"23":-0.19366420942227272,"24":-0.21928165116576442,"25":-0.1473944973856924,"26":0.042553870831515725,"27":-0.177756447577709,"28":0.08951567581770903,"29":-0.07599477642319272,"30":-0.15267809040833386,"31":-0.2018346165221281,"32":-0.1683387882496238,"33":-0.16393054314633487,"34":-0.2729958022113091,"35":0.05754799831909087,"36":-0.15550284818914797,"37":-0.28076731502936314,"38":-0.1861133982347417,"39":-0.009717085920873978,"40":-0.5226138043906906,"41":-0.31737520341358805,"42":-0.2216423925353958,"43":-0.16867866976696114,"44":-0.43085346808945396,"45":-0.21249558763875254,"46":-0.4894803213870403,"47":-0.27018149945160147,"48":-0.07085411830003596,"49":-0.21146737175536087}},"3":{"bias":-0.45307531869127166,"weights":{"0":0.037876405037059746,"1":0.11440017694325401,"2":-1.9964868779712734,"3":-0.3109214476129368,"4":0.5056282204378585,"5":0.3994081061772735,"6":0.6929486765174244,"7":0.8500709932430146,"8":0.02296314116404876,"9":0.5011548976034411,"10":0.27304661608189795,"11":0.17160880830647596,"12":0.04240762480580953,"13":3.466918292246119,"14":0.13982798043244554,"15":0.1538310209887451,"16":-2.7954848393588607,"17":0.13184616083529532,"18":0.37055110657068796,"19":0.13684170774819523,"20":0.5219733371868498,"21":0.006040470334178068,"22":0.4114959347958986,"23":0.47118863378318876,"24":-3.2003304702194084,"25":-0.03343960043833855,"26":0.3071200910876276,"27":0.15032948077589034,"28":-0.05880064868705677,"29":0.10896288993852168,"30":0.059383084918423486,"31":0.023271526317412736,"32":0.029439938763889242,"33":3.9466903806039273,"34":-0.6700103739142954,"35":0.22506810787189735,"36":0.3175074379526861,"37":0.029606905253796254,"38":2.493511888462659,"39":0.7332217173532718,"40":-1.985786650587056,"41":0.05009964034872138,"42":0.17825089968242774,"43":0.4073339092679099,"44":-5.046518067971438,"45":0.2386911859575093,"46":-1.869098948580228,"47":0.2556165238763025,"48":0.3276180020504292,"49":0.30647778940871717}},"4":{"bias":-0.6798681353152373,"weights":{"0":-0.12786468158361497,"1":0.29757625856694075,"2":-0.2953673128020063,"3":-0.29841456464159855,"4":-0.12552212677403343,"5":0.1488189902605059,"6":-0.17315485170902734,"7":-0.0018077411368297304,"8":0.0842151859067492,"9":-0.12504230745847306,"10":-0.16120925534430333,"11":-0.13482071663882902,"12":-0.1608642166008613,"13":0.3169586492962107,"14":-0.056024316599559025,"15":0.13462850142099297,"16":-0.43614914562121254,"17":-0.026690819846650955,"18":-0.05481003124383767,"19":0.08538641097231253,"20":-0.030346916047990054,"21":0.11767331629063978,"22":0.2515484349780238,"23":-0.15367188762032966,"24":-1.4769142225504919,"25":0.0009454561997792546,"26":-0.15098490561754727,"27":0.03462551067985775,"28":-0.0009571699069869869,"29":-0.17094110065960966,"30":-0.1266265473617206,"31":0.078053226877013,"32":-0.04524152916550991,"33":1.4311321836549622,"34":-0.1330845685412457,"35":0.14413229733647015,"36":0.2184677432735094,"37":-0.00710544377005034,"38":1.662018378418896,"39":-0.10180151379419153,"40":-0.7400416801420692,"41":0.08985440970945453,"42":0.07509320313306989,"43":-0.1317615655807479,"44":-2.0660051659662813,"45":0.02953691110381877,"46":-0.21263251608900416,"47":-0.17252438375867965,"48":-0.20071793637114993,"49":0.22650239205075948}},"5":{"bias":-0.777673229497263,"weights":{"0":-0.08145406131117773,"1":0.133160947554379,"2":-0.6556474752677469,"3":-0.037282842498543085,"4":-0.12988272726962524,"5":0.113040609011336,"6":-0.1394308193543053,"7":0.0643181440108562,"8":0.06700574938331112,"9":-0.09412185600265272,"10":-0.06960465842269216,"11":-0.06525645057455602,"12":0.04066568324405469,"13":0.8124835321076321,"14":-0.20289691064064522,"15":0.22875978845537095,"16":-0.9937479287241845,"17":-0.18513701489096876,"18":-0.03508883507098638,"19":0.04226297412133099,"20":-0.14060215319978908,"21":-0.19610501735659633,"22":-0.06998896571021289,"23":0.5040064721369526,"24":-1.971330670159423,"25":0.07926998138400446,"26":0.059349216253260395,"27":0.06675275964313644,"28":0.10526783983202877,"29":0.08843265006583252,"30":0.09195478593577579,"31":-0.2256912526407082,"32":-0.20822015292102677,"33":2.245458743642397,"34":-0.2119239679305843,"35":0.053505153758847686,"36":0.01575995516163149,"37":-0.17580413993247532,"38":1.64998585439807,"39":0.029913433474045514,"40":-0.9390414536858444,"41":0.01917321291636456,"42":0.11572749679420863,"43":0.2196102619431987,"44":-2.3261391342625304,"45":0.11236410037614403,"46":-0.9604166206066793,"47":0.0236059138975526,"48":-0.23767441120198296,"49":0.10872610465730856}},"6":{"bias":-0.48292613228531567,"weights":{"0":-0.04378485999610754,"1":0.033662460744908064,"2":-0.038413290883380226,"3":0.12254157958205841,"4":-0.18733176211438507,"5":-0.1078158344562,"6":-0.4298128853916419,"7":-0.5362765107143362,"8":-0.16086950522981247,"9":-0.29995421084396845,"10":-0.29746484511241106,"11":0.10520871045004149,"12":-0.09153914701082061,"13":2.20301891980872,"14":-0.053116533767756435,"15":-0.008541854471566912,"16":-0.7039329662988915,"17":-0.28570931402747674,"18":-0.252725568960468,"19":-0.2801474624915466,"20":0.000372072914186347,"21":-0.40635745102371634,"22":0.041136350588638224,"23":-0.015787563790569028,"24":-1.6515643918190974,"25":-0.1856167811644872,"26":-0.04632687384407027,"27":-0.1341429741890715,"28":0.0328754766329028,"29":-0.050614602392025,"30":-0.2260200068117169,"31":-0.03839028265005417,"32":-0.3383811445682188,"33":3.189608128457678,"34":0.3030037750248908,"35":-0.15496601148885414,"36":-0.20592224007329737,"37":-0.008405795113983906,"38":2.2490937012015717,"39":-0.6889139055501574,"40":-1.4560362249210081,"41":0.04567355578727587,"42":0.08173997660768662,"43":-0.058920412709740674,"44":-2.3610639937208315,"45":-0.22841704882604896,"46":-1.22871601598232,"47":0.034388471074547726,"48":-0.20881554582883863,"49":-0.05585155926858984}},"7":{"bias":-0.839086630767985,"weights":{"0":0.0934715082409801,"1":0.04532832540064398,"2":-0.3214479312071505,"3":-0.21471160827540178,"4":-0.2680612426904637,"5":-0.0960182614974155,"6":-0.025481499273370085,"7":-0.4482077400180303,"8":-0.19481897661554418,"9":-0.06142481505333948,"10":-0.03582234185641283,"11":-0.0015640544813657347,"12":-0.08520432779309374,"13":-0.07425746027745354,"14":0.08236136816087532,"15":-0.1344209314084523,"16":-0.19346034813243837,"17":0.12451753894604992,"18":-0.009570764593977994,"19":0.07443536879032238,"20":-0.08683249279850082,"21":-0.1377466071870719,"22":-0.09295720270392746,"23":-0.2444485937750568,"24":-0.8789222401111908,"25":0.13804363238065565,"26":0.014537241288512855,"27":-0.08135342986015694,"28":-0.09232592515635267,"29":-0.25741668884048957,"30":0.0800490282549363,"31":-0.10268552240180961,"32":0.08745433388864027,"33":0.5780656580649157,"34":0.010145598616797544,"35":0.02163720172600274,"36":0.11966055047004764,"37":0.07252366174968464,"38":0.7379372595510639,"39":-0.3967141766757482,"40":-0.5160296409149986,"41":0.11393826126602188,"42":-0.2678630237019369,"43":-0.1485843211938555,"44":-0.9472356703913812,"45":-0.1989382790193301,"46":-0.2512624267794537,"47":-0.14242250745754764,"48":-0.017360766473283974,"49":-0.09397224610086449}},"8":{"bias":-0.793423071035877,"weights":{"0":-0.1835860276132868,"1":-0.056023211073282356,"2":-0.6397570415963485,"3":-0.0193746515800554,"4":0.085874855619602,"5":-0.0001311135703777325,"6":-0.05170815433606126,"7":-0.09324588229376274,"8":0.030361333170997155,"9":-0.14353757695883457,"10":-0.07680807924635587,"11":-0.17102006739118758,"12":0.056683636950909354,"13":0.8147808543433853,"14":-0.21614258925744925,"15":0.18668121684570863,"16":-0.6344457910468941,"17":-0.16651561575566245,"18":-0.002728278501433106,"19":-0.15933333634556188,"20":-0.12028557888317613,"21":0.10776819676158493,"22":0.17383409626874058,"23":0.16655673704113824,"24":-1.3668455814948965,"25":-0.07427116153432835,"26":0.0003884391712377323,"27":0.0014498597928405193,"28":-0.11784204328056398,"29":-0.150120800515456,"30":-0.0981434586777023,"31":-0.001937453695214741,"32":0.05486638758790725,"33":1.5349163265136272,"34":0.12498169678308116,"35":0.04013961698106174,"36":-0.17601840948032635,"37":0.042235904440779196,"38":1.2439440467946803,"39":-0.40784241843177643,"40":-0.5931862520437208,"41":0.015352410791674586,"42":-0.10353437063419589,"43":0.00009332449663967752,"44":-1.8937672733455329,"45":0.00820770820178469,"46":-0.6736314580378704,"47":-0.10926188827070234,"48":-0.07169874427766562,"49":0.053738598892748776}},"9":{"bias":-0.4692041039796756,"weights":{"0":0.005346734197684929,"1":-0.008296079921000326,"2":-0.4555528199289206,"3":-0.017292496313021318,"4":-0.13722414009716247,"5":0.056397091712297426,"6":-0.2471475883994325,"7":-0.03510788778608978,"8":0.1579157069629985,"9":0.14159574154804266,"10":-0.10963202045274605,"11":0.1402923640033345,"12":0.03089490125241006,"13":0.1598197700635421,"14":0.08329301604253557,"15":-0.008521641949183425,"16":-0.8102676910022906,"17":0.009424562154746935,"18":0.04770549330449169,"19":-0.0978930523229073,"20":-0.24222582150659502,"21":0.08509744248309177,"22":-0.012522365881558249,"23":-0.15009059302516786,"24":-1.3348237377290018,"25":0.2053911955610397,"26":-0.03597204059439942,"27":0.005887839038549755,"28":-0.10213205912651759,"29":-0.01735636955974984,"30":0.14105727474884827,"31":0.1963614572533088,"32":-0.01687333341066779,"33":1.7125283231556507,"34":0.05115018745787357,"35":0.34176400566868054,"36":-0.03650801227399278,"37":0.1084759830683814,"38":1.7204233811637237,"39":-0.23687716396435474,"40":-1.2433345104926963,"41":-0.12313542751735594,"42":-0.012925582353614332,"43":-0.12387880009043976,"44":-1.7139460072804393,"45":0.2332388303762108,"46":0.01655775906473898,"47":0.11227181221494985,"48":0.11684448950040353,"49":0.26096664682627513}},"10":{"bias":-0.6312508092329834,"weights":{"0":-0.013955714098077889,"1":0.12473410813966604,"2":-1.6074992944386302,"3":-0.13652937493385617,"4":0.16430213259525286,"5":0.14213795977846205,"6":0.4258134939102748,"7":0.7198626372710901,"8":-0.20262907243240655,"9":0.3464218165080021,"10":0.290569141566691,"11":-0.040351720437773304,"12":0.12264904711643555,"13":2.8753567851293367,"14":-0.13833360271571166,"15":0.36134582370392204,"16":-2.5459722847248054,"17":0.17799372915634398,"18":0.2936529685343811,"19":-0.10764128007592409,"20":0.4306892224899995,"21":-0.04096180700370961,"22":0.1902679449593404,"23":0.4371786600342285,"24":-2.6961368403834873,"25":-0.09621467127417155,"26":0.3167699337965449,"27":-0.0018751702120967152,"28":-0.04092449902498045,"29":0.20837242066676717,"30":0.03209129798565305,"31":0.17944396710229563,"32":-0.0651956957745863,"33":3.4304904855322755,"34":-0.6792035364374741,"35":0.08312244250662433,"36":0.15671734798317385,"37":-0.05132536657054842,"38":2.1550841156003684,"39":0.5601570601646352,"40":-1.6351734646257232,"41":0.3078398807364918,"42":0.15142113959770187,"43":0.43170416932938727,"44":-4.162653851688191,"45":0.16996616270633455,"46":-1.6838380625152072,"47":0.2298345850683468,"48":0.2848075004852985,"49":-0.0660666820421561}},"11":{"bias":-0.5910320605634,"weights":{"0":0.2672169718110106,"1":0.23486601037662586,"2":-1.479237919427656,"3":-0.2967767565081483,"4":0.27630095564534557,"5":0.06018685497523627,"6":0.2535071197688705,"7":0.44104763806377384,"8":-0.18723206996022848,"9":0.30439712515075806,"10":0.1353874518361007,"11":-0.28292429788097073,"12":-0.007514785889819895,"13":2.0695542271922185,"14":0.1005240317234831,"15":-0.023001018442667765,"16":-1.868604102899053,"17":-0.05675060829516612,"18":0.12333414356846852,"19":0.060109505105306736,"20":0.3375651566492035,"21":0.05260744057820788,"22":0.10364340396364331,"23":0.515966368207036,"24":-2.2998777358530686,"25":-0.042103927982860626,"26":0.15693505628002938,"27":0.12185398339734514,"28":0.22106205856283676,"29":-0.07468359789441467,"30":0.2480817753293745,"31":0.10793606498980607,"32":0.21107322980039092,"33":2.9296552069365975,"34":-0.6212703014414164,"35":0.32225295969161055,"36":0.18668780817968217,"37":0.10630043164314719,"38":1.8187389350379473,"39":0.37485243444399574,"40":-1.3264467808915805,"41":0.23543720690226794,"42":0.31636267486473757,"43":0.3156334210976632,"44":-3.3983271709478196,"45":-0.14266330786147696,"46":-1.5475314654933237,"47":0.2588270212611593,"48":-0.1548548269219578,"49":0.10121928618466582}},"12":{"bias":-0.5987761809447102,"weights":{"0":-0.20345721842384837,"1":0.06121868339549124,"2":-0.31371273274393546,"3":-0.13317114159331486,"4":-0.3026313559470001,"5":-0.18228019379587104,"6":0.018281279255316096,"7":-0.3333572020497584,"8":-0.22515025677213718,"9":-0.3046172810496544,"10":-0.16203917867672307,"11":-0.1295113502290373,"12":-0.16826672104108675,"13":-0.08077456140446185,"14":0.029144843700798177,"15":-0.05894094322301806,"16":-0.4719452558042579,"17":-0.16606819309833235,"18":-0.21474428612463678,"19":0.015694576047764048,"20":-0.2033912861929238,"21":0.019311459721543377,"22":-0.18136001379161776,"23":-0.004103928544184436,"24":-0.36295791927159027,"25":-0.1261935556273254,"26":-0.024385858103710956,"27":-0.2521049519561225,"28":0.06400355614552679,"29":-0.023507074001372814,"30":-0.02268734687436735,"31":-0.2700557062189883,"32":-0.13691329968005359,"33":0.4725086719331138,"34":-0.03183113848010082,"35":-0.15179216435151682,"36":-0.28155045005989277,"37":-0.04759583464080838,"38":0.19718663826984006,"39":-0.18585185333125673,"40":-0.47512477124283253,"41":-0.2527491924742818,"42":-0.312734958233627,"43":-0.15811671536562522,"44":-0.8667627624325681,"45":-0.11793069644572601,"46":-0.5538593468382819,"47":0.046985190861059525,"48":-0.13469844484129317,"49":-0.2606078608144673}},"13":{"bias":-0.7217749517229739,"weights":{"0":-0.12924914485384112,"1":0.17669306357562906,"2":-0.651437064287668,"3":-0.10289581753163393,"4":0.011057135980950627,"5":-0.13198743603019986,"6":0.083081711783745,"7":-0.10938452070421269,"8":-0.04951124626938944,"9":-0.1549826546752825,"10":0.11316168564107686,"11":-0.10375250932712723,"12":-0.07277141764645663,"13":0.8969646629673304,"14":0.01766204990633288,"15":-0.15581895552532044,"16":-0.9035235868367756,"17":-0.003006720080312206,"18":-0.15215538659223898,"19":0.06710657097971501,"20":-0.13252476052932233,"21":-0.2804522558620293,"22":0.017645729085900064,"23":0.37292453862483516,"24":-1.5339402948426262,"25":-0.086471012997955,"26":-0.111811858544248,"27":-0.07256882577417872,"28":-0.03256248409895253,"29":-0.1469719680524472,"30":-0.19010674607963488,"31":-0.21576890198762239,"32":0.07698397670773045,"33":1.7232446955899317,"34":-0.22454175821008424,"35":0.25340203520383403,"36":0.19057695310609338,"37":0.1761307136713044,"38":1.4208265192581726,"39":0.06809712138663022,"40":-0.6922998743117584,"41":0.17182457558892572,"42":-0.1265880052655114,"43":-0.19481329952291737,"44":-2.0675142157773827,"45":-0.03573056253279125,"46":-1.0018414085001714,"47":0.01417107679065986,"48":-0.10305288197856644,"49":0.015771808813468447}},"14":{"bias":-0.6891637952161699,"weights":{"0":0.1749831114141109,"1":0.17358748123380066,"2":-0.8225006388473382,"3":-0.4164337728944842,"4":-0.08224756720085398,"5":-0.0647407776655967,"6":0.23015555252295933,"7":0.14947512388780732,"8":-0.2050093363002429,"9":0.10311941598099766,"10":-0.179735111969243,"11":-0.08739414722589671,"12":-0.01205154473222475,"13":1.0540860206299245,"14":-0.26248642146114876,"15":0.17584162325454472,"16":-1.0419493514056046,"17":-0.02542365886630011,"18":-0.053512747241332266,"19":-0.038545457761188014,"20":-0.18099748810140376,"21":-0.026752961695612795,"22":-0.03807832882253504,"23":0.15468746255887952,"24":-1.71400506593119,"25":-0.01101835682325204,"26":0.11377452442496966,"27":0.05466882803296404,"28":-0.12490690640399817,"29":-0.09914108343417452,"30":0.11412387262281413,"31":0.02170530080547707,"32":0.1352069355679652,"33":2.0159952608634586,"34":-0.01755580560559588,"35":0.04573648394075485,"36":0.11693580433380557,"37":0.18919728253685672,"38":1.4690599721200046,"39":-0.13943098674430676,"40":-1.009908559004709,"41":0.10027674343197499,"42":-0.1534926437261009,"43":0.09963521292853912,"44":-2.227693037766379,"45":-0.09677015533849105,"46":-0.6664033748830979,"47":0.0052220678839811656,"48":0.1180940936238148,"49":-0.1336353683991363}},"15":{"bias":-0.7288757969879404,"weights":{"0":-0.015473668287504507,"1":0.05226852641703625,"2":-0.6906227477980833,"3":-0.37169454762094983,"4":-0.043880266597831875,"5":-0.19758978507964373,"6":-0.08013991347940037,"7":-0.06402313721502498,"8":-0.23279736208428342,"9":-0.026208046296921476,"10":0.0019402375912471786,"11":-0.20896263475122248,"12":0.06856130481119746,"13":0.9516429056978243,"14":-0.29714996201281235,"15":0.1743380225886591,"16":-0.9293869293872717,"17":-0.07794663864540696,"18":0.0695384698739052,"19":0.09704526482850478,"20":-0.13055667781342847,"21":-0.10160750755580714,"22":0.12453745059700821,"23":0.2702396768994237,"24":-1.5592542859953797,"25":-0.21925408010951097,"26":0.17999074924482397,"27":-0.20465070546497532,"28":0.03078629706872932,"29":0.15139944175312442,"30":0.00804233022025841,"31":0.0748879496422607,"32":-0.1376567964355209,"33":1.6581704007133167,"34":-0.11308083374380519,"35":0.16454965510951455,"36":0.21883688171162802,"37":0.19010498714842194,"38":1.3244515077593508,"39":-0.11354799673489095,"40":-0.8805739419275067,"41":-0.07476966901257506,"42":0.02154969593453709,"43":-0.20601824839870259,"44":-1.7639050217498968,"45":0.09186878757846863,"46":-0.7434434617556058,"47":0.10652917557132505,"48":-0.07873182306733108,"49":-0.04274451011557352}},"16":{"bias":-0.5668517497203077,"weights":{"0":-0.13956355924359853,"1":0.04477903586299822,"2":-0.4485645057725089,"3":-0.07942447180070351,"4":-0.0709624168895593,"5":-0.03271320458321492,"6":-0.22318948520223977,"7":-0.21816410472686545,"8":-0.213138121878313,"9":0.1189351376576591,"10":-0.2383829484289627,"11":-0.016560807536391758,"12":0.05633038612649942,"13":0.5483453259713628,"14":-0.14016974029519158,"15":-0.017092747499950024,"16":-0.49759572181303613,"17":0.02512346301465982,"18":0.031650561166256454,"19":-0.11434162051521093,"20":0.0362902655371305,"21":-0.10406341510909056,"22":0.14080257863053078,"23":-0.03147618835902802,"24":-1.4256306426928345,"25":0.02014882851494679,"26":-0.09909652672468502,"27":-0.16147169735308683,"28":-0.011723940090032985,"29":-0.030434845486021062,"30":0.23358903820664562,"31":0.06097633098414097,"32":-0.07699647252957596,"33":1.5762555967938279,"34":-0.16768850681449982,"35":0.31490355294558614,"36":0.2118013442784909,"37":-0.07259313953719497,"38":1.38055353074721,"39":-0.3662595090284974,"40":-0.870644551898467,"41":0.06193022702161533,"42":-0.019026852793800352,"43":-0.006684713632832011,"44":-1.8592272931729437,"45":0.013076056950537316,"46":-0.5935161339181292,"47":-0.08856190349501628,"48":-0.11354604073709966,"49":-0.10780423342027193}},"17":{"bias":-0.7868984717829621,"weights":{"0":0.2616018212183814,"1":0.24484280889967516,"2":-1.3465892467327385,"3":-0.23784451824894498,"4":0.0411673749410575,"5":0.0951057445702993,"6":0.1849569903073292,"7":0.6908990186710899,"8":0.053418920535750196,"9":0.17045798820397803,"10":0.18965298479423393,"11":0.008207748290991614,"12":0.08674298741364742,"13":2.514634386245145,"14":0.06981017956342205,"15":0.1430846214518687,"16":-2.1488747894390725,"17":0.020671108359432283,"18":0.34860686964900717,"19":-0.03166268639543849,"20":0.06551175729118293,"21":0.16324082769986858,"22":0.20373509442455992,"23":0.44462773944942924,"24":-2.6133478003493327,"25":-0.05530817612509989,"26":0.021062409993916068,"27":-0.020114821073240478,"28":0.22591098891956823,"29":0.12221116213433769,"30":0.07061008769992627,"31":0.006972655020234781,"32":0.20618046705899729,"33":3.0950466611573915,"34":-0.4261845541333175,"35":0.36071549419714805,"36":0.3768492919055934,"37":-0.03541903868168987,"38":1.9936582140170465,"39":0.37729674519214806,"40":-1.3814002518910795,"41":0.07559175397053937,"42":0.026189591813691543,"43":0.03296167937593218,"44":-3.736478420142917,"45":0.07893696677152548,"46":-1.4267732350965503,"47":0.07536187169477249,"48":0.11965830601514192,"49":0.13769195810400037}},"18":{"bias":-0.6899088145090965,"weights":{"0":-0.025541315335058018,"1":0.17819047533648946,"2":-0.6044410664350706,"3":-0.04509266200993257,"4":0.050917491893041296,"5":-0.06911395386226436,"6":-0.17801662337919405,"7":-0.39132142298934136,"8":-0.08791562425325268,"9":0.09880050646059575,"10":0.009905460212666384,"11":-0.1276555910355724,"12":-0.012676817005301882,"13":0.4040841430823478,"14":0.014380121526500398,"15":0.1185980349473621,"16":-0.40228841884792677,"17":0.12401805982570921,"18":-0.2698573824591945,"19":0.10873175540366,"20":-0.20300346821224746,"21":-0.021504574393109377,"22":-0.11151428569850062,"23":0.18060876739729892,"24":-0.9949053444838705,"25":0.003044918900675371,"26":-0.14960181031389164,"27":0.04400910827332844,"28":-0.09002273441006507,"29":-0.15171838424660136,"30":-0.037301567707341464,"31":-0.2123145244119702,"32":-0.14996153782361824,"33":1.0569730403767748,"34":-0.15972933786641172,"35":-0.008092144292556292,"36":-0.16277656192152976,"37":-0.19291947396214876,"38":0.7820992006760984,"39":-0.10812612827973483,"40":-0.5247483966377932,"41":-0.16015400600539964,"42":-0.13320676060318373,"43":-0.10095304517474146,"44":-1.2926380569560365,"45":0.03579458826860849,"46":-0.7047492430474703,"47":0.09592914922386203,"48":-0.11893435037427277,"49":-0.1966501586360257}},"19":{"bias":-0.6257303117954498,"weights":{"0":0.1945501261322244,"1":-0.009570456029431356,"2":-1.015848862880574,"3":-0.40997663939307244,"4":0.1266728348287017,"5":0.02729539697603783,"6":0.1583762430375056,"7":0.42655015047239836,"8":-0.1288772323223448,"9":0.10831725948783308,"10":-0.059785748538088955,"11":-0.2232219064397393,"12":0.16203798271454886,"13":1.4719278273770262,"14":-0.15846430873447037,"15":0.17379289570322357,"16":-1.3944396227332359,"17":0.06659936130558541,"18":0.2517333405177868,"19":0.08109112162836528,"20":0.2014740914290846,"21":-0.118080558572191,"22":0.09006973401516336,"23":0.39094738930075945,"24":-2.112294742324073,"25":-0.14428881721936274,"26":0.07926494005449204,"27":-0.08811464463880438,"28":-0.06135134866051835,"29":-0.0040996960343202835,"30":-0.11205724631357075,"31":-0.01797784356358698,"32":-0.14704804550141237,"33":2.4318615045549756,"34":-0.38781448504737703,"35":0.15242265632220856,"36":-0.04297904243492128,"37":0.03326452855972022,"38":1.6698217177460737,"39":0.024026615929800554,"40":-1.2623783642686284,"41":-0.02760342206865311,"42":0.03846961500033961,"43":0.2581977109546146,"44":-2.750735234083862,"45":0.1049044769681675,"46":-0.9897486918493998,"47":0.26030473810498933,"48":-0.20538131668724677,"49":0.0710818040664055}},"20":{"bias":-0.8441824159295165,"weights":{"0":0.1818824222138358,"1":0.024260975666900633,"2":-0.70099553117471,"3":-0.22074291089265483,"4":-0.10460851920532378,"5":0.13565926523086505,"6":0.1518829211204016,"7":-0.1687076438993752,"8":-0.10935580142360317,"9":-0.12280714128202523,"10":0.12188622192721006,"11":-0.12005585407381386,"12":0.11711417974693304,"13":0.9427395189686631,"14":-0.08681062496953243,"15":0.09816705950221756,"16":-1.1673032877870193,"17":-0.1466376919561596,"18":-0.1065035382056011,"19":0.03700025665198137,"20":0.1506753468711049,"21":-0.018893589647044795,"22":0.17334936421453936,"23":0.30403730548204555,"24":-1.6930151129872846,"25":-0.05938911528575475,"26":-0.10660077857531164,"27":-0.03002083280211108,"28":0.1088871360201651,"29":0.1835250435370153,"30":0.16903669170046448,"31":-0.17429635797067217,"32":0.12399575626290725,"33":2.0564979076283225,"34":-0.04204594369787872,"35":0.15563373258651558,"36":-0.12898318959247415,"37":0.08142572090388192,"38":1.5285716710241708,"39":-0.1566370895019246,"40":-1.0169222447810993,"41":0.16406435802271996,"42":-0.1862040593303606,"43":0.16698272232726208,"44":-1.960910868031161,"45":-0.02570802331217214,"46":-0.5705740772797745,"47":0.17881236074716722,"48":0.09116621705115725,"49":0.11699794800687746}},"21":{"bias":-0.552808366616873,"weights":{"0":0.013324514601040331,"1":-0.051824141631438204,"2":-0.5440495110840222,"3":-0.13488406320706217,"4":-0.1349400842565136,"5":-0.28047657616975835,"6":-0.05189927302156023,"7":-0.32552632959425387,"8":0.06728808906081075,"9":-0.0924474322103316,"10":0.0652596603344912,"11":0.09477851584830534,"12":-0.2820778281675272,"13":0.07848585622722323,"14":0.025631402517310792,"15":-0.027554200046148575,"16":-0.5188216210168077,"17":0.11181784399839277,"18":-0.237817578014522,"19":0.021629903561624454,"20":-0.24764102509377936,"21":-0.121212491851117,"22":-0.16129733852059006,"23":-0.1795739849564682,"24":-0.7946419147628273,"25":0.18241403587814753,"26":0.04324640895247718,"27":0.029390486158022516,"28":-0.12557826191863505,"29":0.030450747589307454,"30":0.1287356570236589,"31":0.1155977136344304,"32":0.07339723024895896,"33":1.022781293294507,"34":-0.175124357038763,"35":-0.049563926442278125,"36":-0.14668303259027837,"37":0.05933021003738166,"38":1.1009797587917203,"39":-0.3411023549713506,"40":-0.6107186937015078,"41":-0.012236999034862063,"42":0.01927103097125725,"43":-0.11848606089420932,"44":-1.3166918667442715,"45":-0.05864909235886549,"46":-0.28904910904563785,"47":-0.0177736470384124,"48":0.07162069326763282,"49":-0.20656312366713286}},"22":{"bias":0.8463733980570354,"weights":{"0":0.14839716935494127,"1":0.07764977711800396,"2":0.40602854223353724,"3":-0.0010294525664465565,"4":-0.2503456227125687,"5":-0.18956630731583812,"6":-0.41492156622017035,"7":-1.3393582800744255,"8":-0.004264663192479812,"9":-0.22067028490553714,"10":-0.39289743035577,"11":-0.014561826863436855,"12":0.09182507151363187,"13":0.6166575030422187,"14":-0.03045741077729981,"15":0.06536791433532019,"16":-0.7224436710857073,"17":0.25952657787222266,"18":-0.28218209115885096,"19":0.22423709776902637,"20":-0.1522090858073867,"21":-0.13426744088164255,"22":0.1344905387933931,"23":-0.24443162523083792,"24":-1.8275869366995046,"25":-0.1298702989178076,"26":0.05836973765872213,"27":-0.06593281090558362,"28":-0.046761974959578546,"29":0.07006083395198846,"30":-0.03801643477065975,"31":-0.02893060397424375,"32":-0.0679203712235625,"33":2.8726744963468502,"34":0.0610318225603522,"35":0.13735439181887735,"36":-0.003573039990347821,"37":0.23156834087858102,"38":2.9444721734957824,"39":-0.7512571965600117,"40":1.5081562424778379,"41":0.1255517293007627,"42":-0.08231889016432875,"43":-0.1830977235509101,"44":-1.703987199852788,"45":0.22542771580985524,"46":0.6708087250869645,"47":0.01992044701179069,"48":-0.23621755571457073,"49":0.09255333879781977}},"23":{"bias":-0.6598961622993534,"weights":{"0":-0.1147383890418984,"1":0.18583715817110477,"2":-0.6512096125084811,"3":0.008657006878354176,"4":-0.13620323919433944,"5":0.0031232803591106062,"6":0.03753583560052661,"7":-0.02645669839083672,"8":0.10557358782750066,"9":-0.0692621598869081,"10":0.12388688329855435,"11":0.07056699701159859,"12":-0.08127014309421485,"13":0.5661998522067008,"14":0.09438538030164227,"15":-0.045729143920360205,"16":-0.44144281477679426,"17":-0.0639118321673449,"18":-0.16068812797764948,"19":-0.1781513496360482,"20":-0.14725109358974958,"21":-0.2270993882475822,"22":0.12956857365995583,"23":0.16353297570157702,"24":-1.1512731803496274,"25":-0.03726354490290885,"26":-0.0925977950645241,"27":-0.032054953377006555,"28":0.02132394744040762,"29":-0.1209685538184657,"30":-0.13673686745575403,"31":-0.1651954411422208,"32":-0.23899701161488196,"33":1.0900928580500437,"34":-0.11539812926144875,"35":-0.006750380293909419,"36":-0.16530724891308834,"37":0.06457125644836179,"38":1.1105935745310238,"39":-0.28322973098878634,"40":-0.7421486598131899,"41":0.07655780180292261,"42":0.01020867568035172,"43":0.019173465471553453,"44":-1.6553140510652131,"45":-0.19269498632470042,"46":-0.393694017081065,"47":-0.016343953089345435,"48":0.09851678592264257,"49":-0.0196720149377226}},"24":{"bias":-0.6876556274265384,"weights":{"0":-0.08538618972518261,"1":-0.05481807804175208,"2":-0.5095974433151824,"3":-0.2417260633312799,"4":-0.20356955712959357,"5":-0.07229560593601773,"6":-0.0709714084245738,"7":-0.10857386113918528,"8":0.03614809394225516,"9":-0.027248383977765717,"10":-0.006925765120685751,"11":-0.14301151041791035,"12":-0.0796867191307293,"13":-0.2582004089195971,"14":0.02182780147882094,"15":-0.12231536375088549,"16":-0.1250867919928076,"17":-0.24203603534991092,"18":-0.1582401379676439,"19":-0.22922708211774304,"20":-0.22587304559730756,"21":-0.0692218511546076,"22":-0.0915567224501518,"23":-0.20688367539401625,"24":-0.38064020468604504,"25":-0.06786724834295643,"26":0.0761004388065347,"27":-0.2949433630674555,"28":-0.1712566477311404,"29":-0.2378658811764962,"30":-0.014966891534672701,"31":-0.05323098404324101,"32":-0.16600154303289036,"33":-0.03431731949752462,"34":-0.19303229218525944,"35":0.07519666766483879,"36":-0.13715999149030228,"37":-0.15182911696762752,"38":0.10781408135975058,"39":-0.05323513009431106,"40":-0.5697689294340778,"41":-0.004122856247176925,"42":-0.05953942404229512,"43":-0.012569890073084913,"44":-0.5548775325688224,"45":-0.12474881055676215,"46":-0.4831030939521936,"47":-0.29126637111570713,"48":-0.15224097640462453,"49":-0.04748883092404274}},"25":{"bias":-0.7602323678861839,"weights":{"0":-0.13630291187996102,"1":0.11119752039826018,"2":-0.4788835370536194,"3":-0.0774702620739641,"4":-0.13835119003774698,"5":0.031537934829416976,"6":-0.28882538255314116,"7":-0.014555742797194382,"8":-0.1512362972889208,"9":-0.09783236223104787,"10":-0.1386479677130148,"11":-0.2908551172859034,"12":-0.04059271299259022,"13":0.732265208999299,"14":0.022454304784966274,"15":0.03742725662774046,"16":-0.4222058353377047,"17":-0.2158399257432658,"18":0.011210348765526857,"19":-0.002382850022316376,"20":-0.13325029194692498,"21":-0.05932188320732891,"22":-0.0437754396912917,"23":0.2930444182130156,"24":-1.3331869332061592,"25":0.044877487974907315,"26":-0.16903588815554638,"27":-0.11316272544329033,"28":-0.054273713476599254,"29":-0.021701872086493545,"30":0.019147714635046966,"31":0.08933476867917713,"32":-0.16348236591975956,"33":1.1154198886459776,"34":-0.10575625908926292,"35":-0.12112284912373011,"36":-0.2025079343807897,"37":-0.031882197663758674,"38":1.2410410837001236,"39":-0.04455802101645878,"40":-0.5737581549881142,"41":-0.20589883248720803,"42":-0.23589962996905378,"43":0.03748798550191508,"44":-1.749109736561783,"45":0.022946778236300917,"46":-0.7796838895056306,"47":-0.023771355909765982,"48":-0.26559114376002896,"49":-0.22902516241588824}},"26":{"bias":-0.6217782650618272,"weights":{"0":0.11037746707668675,"1":0.2949917405884507,"2":-0.583709516754126,"3":-0.21181095091194818,"4":-0.039256890070590224,"5":0.14960591414598498,"6":0.017577265030021813,"7":-0.09880297231498954,"8":0.14356442085836763,"9":0.2833416039207162,"10":0.12245217071724017,"11":-0.10374879560512354,"12":0.17690854995345093,"13":0.29070253740479834,"14":-0.10352341031308214,"15":-0.04233374970077623,"16":-1.3363438780895613,"17":0.20415429018896414,"18":-0.042636344473835734,"19":0.20764787620795194,"20":0.046853447269742804,"21":-0.13511760229988867,"22":0.264136851176904,"23":0.19806303925890487,"24":-1.6675254465449014,"25":0.20451525683071115,"26":0.06120396119955606,"27":-0.17385714902594868,"28":0.23890093755673059,"29":0.19128844164623854,"30":0.004321275825667348,"31":-0.04764733967921328,"32":0.26853050582698407,"33":2.4499187820100454,"34":-0.044596457888351496,"35":0.2585934710108011,"36":0.16868263799848102,"37":0.2029395898292791,"38":2.006880083497787,"39":-0.13579268202614733,"40":-1.556023816439244,"41":-0.07655210740709066,"42":0.174498297113919,"43":0.16884135431964672,"44":-1.6490075945330855,"45":0.10917236164148947,"46":-0.2108260642497673,"47":0.20481597829642034,"48":0.08308484673106509,"49":0.05422926288373401}},"27":{"bias":-0.7601333147271003,"weights":{"0":-0.1737157236089619,"1":0.09609405961648379,"2":-0.42760050731308685,"3":0.022702699351990905,"4":0.00011194482976551632,"5":-0.17946833971629564,"6":0.08469794201874446,"7":-0.39635215616243663,"8":0.0947337049913961,"9":-0.22462109070624334,"10":-0.21095559918085297,"11":0.05685475425648355,"12":-0.18382946205885212,"13":0.24373112182604664,"14":0.05512842626038328,"15":-0.10317990044960143,"16":-0.53229811175484,"17":0.20441271471722441,"18":0.03726053768286479,"19":-0.17459751645650248,"20":0.08572508546620232,"21":-0.031085817217671743,"22":0.19653761036985723,"23":0.04435951517080995,"24":-1.1084069338263296,"25":0.1410502800680294,"26":-0.022308616965367577,"27":-0.09763312281382884,"28":-0.1049362029486529,"29":0.07433889716531066,"30":0.056687112481039886,"31":-0.11945256644324186,"32":0.20234423008437502,"33":1.2202157121271224,"34":-0.09283388961924846,"35":0.24810474084517928,"36":0.15649787057680528,"37":0.1830277800692445,"38":1.2597758521005624,"39":-0.11722843995822933,"40":-0.44275672380472203,"41":-0.19064981592961158,"42":-0.10324512713930813,"43":-0.15397074401786776,"44":-1.6788632870324336,"45":0.1415836548220004,"46":-0.3958115102606656,"47":-0.09401127615998484,"48":-0.25842208713345366,"49":0.023740256135959165}},"28":{"bias":-0.6207965030215509,"weights":{"0":0.12182478111167075,"1":-0.013703473005866535,"2":-0.5862977330067068,"3":-0.007920419042689199,"4":-0.101219981355343,"5":0.07966218151351419,"6":-0.020056101216607117,"7":-0.18422169291592583,"8":0.04591126952999394,"9":0.07606456352782294,"10":-0.200094074828541,"11":0.1605332260206498,"12":-0.11171396982057338,"13":0.2822707724364075,"14":-0.2019121513868356,"15":-0.022065863105398705,"16":-0.368548995594802,"17":0.08424300655901322,"18":0.1835731297967626,"19":-0.15254928714239097,"20":0.018407428830416857,"21":-0.16304771430623477,"22":0.2069891732943004,"23":-0.20328314248658758,"24":-1.2797050139463901,"25":0.1868410045545059,"26":-0.14619773678551373,"27":-0.07171296850564418,"28":0.0015085026973152337,"29":-0.049089496746752566,"30":0.1803518387128418,"31":0.17194322125203892,"32":0.09706003812950598,"33":1.2759430842087003,"34":-0.014904306567100577,"35":0.15561966111231165,"36":-0.05028445837330396,"37":0.03756949934725974,"38":1.4622068707320803,"39":-0.29234258572701327,"40":-0.8516565760656347,"41":0.03638053731851853,"42":-0.22607088292161254,"43":0.12799769713812634,"44":-1.7438913196983707,"45":0.21780755704529287,"46":-0.04356132566603456,"47":0.01546178094220361,"48":0.025274792912366558,"49":0.03158938988927934}},"29":{"bias":-0.6457263323515539,"weights":{"0":0.03327171047803678,"1":0.20285766162676924,"2":-0.3829870348806463,"3":-0.10153670366983338,"4":-0.2462379114251063,"5":-0.05166883345222283,"6":-0.23565358105739392,"7":-0.2348191920447365,"8":-0.1576729877020936,"9":-0.11266375491791854,"10":-0.07412407162995924,"11":-0.235807081852022,"12":0.040652750618781035,"13":0.5578591325670306,"14":-0.13130338421500534,"15":-0.1945223091456446,"16":-0.7306474691491914,"17":0.07197439837941909,"18":0.11150969466440941,"19":0.15978415836228146,"20":-0.2576356360804273,"21":0.007538126807074629,"22":0.07259575195470779,"23":-0.034266589829177706,"24":-1.3323570129438487,"25":0.17226700561505248,"26":0.013415032727846417,"27":0.07481606466473402,"28":0.1813472068935027,"29":0.0839930249685765,"30":0.1250147936105492,"31":0.15344094018435717,"32":-0.029991263457795386,"33":1.6279787838959179,"34":0.1042232804391407,"35":0.09970832919446576,"36":-0.16333070641207226,"37":0.14218531112979105,"38":1.2268460572213622,"39":-0.37597867690201475,"40":-0.7777685914732196,"41":-0.16278439437797035,"42":0.024788420477608746,"43":-0.21349630887228996,"44":-1.7140498574879683,"45":0.19328470659482094,"46":-0.4816233866903041,"47":0.14513666986429657,"48":-0.28073140848024525,"49":0.14993194088301204}},"30":{"bias":-0.6172109391315235,"weights":{"0":0.06286809470603395,"1":0.13729931466140527,"2":-0.4110973904022611,"3":-0.16807381489420156,"4":-0.11307952588539147,"5":-0.11603810123917978,"6":-0.2309565897356404,"7":-0.2568162093434557,"8":-0.08396489052898473,"9":0.0589292280649917,"10":0.10793533194375587,"11":-0.1367480621308285,"12":0.03258487201498057,"13":0.06758048758844479,"14":-0.009609160079390928,"15":-0.13079004659421642,"16":-0.43165973797949886,"17":-0.14829341260180232,"18":-0.07309661698599344,"19":-0.02939666196352027,"20":-0.14020430286111754,"21":-0.05554932990809067,"22":-0.13951180625558554,"23":-0.045477446635282824,"24":-1.1129900182368826,"25":0.10648900694917707,"26":0.14074252314285723,"27":-0.12350167004953631,"28":-0.1620472241628267,"29":0.011554507431117786,"30":0.13185559437684827,"31":-0.013754674221741106,"32":-0.04760168131401246,"33":1.3198781508924808,"34":0.11611243506542591,"35":-0.051463960423444324,"36":0.14870137310614526,"37":0.0030979222451786447,"38":1.4498917507440967,"39":-0.3125400397399601,"40":-0.6438367999657123,"41":0.19395268653851824,"42":-0.12057889959502503,"43":-0.17319622524208084,"44":-1.735323688908065,"45":0.25380921931935163,"46":-0.27010585469052767,"47":3.1205544848736085e-7,"48":-0.024711206816344033,"49":0.15684948374036373}},"31":{"bias":-0.812667099836921,"weights":{"0":0.04927088670300412,"1":0.14620024333998413,"2":-0.33880488913830914,"3":0.014838405028362634,"4":-0.11413293631698766,"5":0.06819260935810613,"6":-0.20079324959293685,"7":-0.25943455053750025,"8":-0.18270794097673485,"9":-0.16494202890902693,"10":-0.21488941064208325,"11":-0.022900385214201246,"12":0.11121688257193128,"13":0.5435664604303667,"14":-0.19808990709636967,"15":0.19977922405523177,"16":-0.9209706562413886,"17":0.01744267046273357,"18":-0.1892089032534241,"19":0.1465932720233854,"20":0.013687496136062302,"21":-0.012139939674731808,"22":0.020468489319249893,"23":0.352868494677487,"24":-1.4502577289687368,"25":-0.11597116014621331,"26":-0.06978224270427491,"27":-0.0033482110695943284,"28":0.04389131785495998,"29":0.18014743110920625,"30":-0.06831193432002043,"31":0.1395058122921733,"32":-0.1153774236659692,"33":1.9700820766580334,"34":0.0814548125781025,"35":-0.027189867595100014,"36":0.0019064692443813065,"37":-0.1325479280154009,"38":1.4308048895119698,"39":-0.15835007452099162,"40":-0.8824162261297899,"41":-0.0867312969000827,"42":0.0005687890657762937,"43":0.1585586282343184,"44":-1.8499600554204942,"45":0.07778462627690369,"46":-0.6315602433245038,"47":-0.07655616051530838,"48":-0.27966696671108393,"49":-0.08426626015212002}},"32":{"bias":0.6260784253633292,"weights":{"0":-0.0027249391183448404,"1":0.3100471014472338,"2":-0.7608379941584426,"3":-0.05788637448719692,"4":0.08534157314094858,"5":-0.029635576073280004,"6":-0.06796772859240813,"7":-0.7492483477767469,"8":-0.17811009214064452,"9":-0.027194631938206724,"10":0.12182212075712702,"11":-0.010658239844564755,"12":-0.111139733853425,"13":-0.7758383914848692,"14":0.21480108250419339,"15":0.05825325032034763,"16":-1.6701613546300171,"17":0.3369144699473699,"18":0.02750364560008341,"19":0.3341657780184528,"20":-0.04634097398172499,"21":-0.09256526344391112,"22":0.2862774912340126,"23":-0.006289805904508541,"24":-2.162862661303698,"25":0.10660691405571346,"26":0.13863038786623527,"27":0.03272487092605571,"28":0.1789460702183798,"29":0.038573151397341354,"30":0.41173966460600575,"31":-0.0565070123166293,"32":0.24638877762827227,"33":2.076594324618877,"34":-0.2761513899503591,"35":0.3047131006789526,"36":0.2203426008831471,"37":0.45343589792356975,"38":1.9416672599110762,"39":-0.41267139261968067,"40":2.519820298147169,"41":-0.0071770457596089165,"42":0.035710679263840195,"43":-0.177879471359532,"44":-1.6669063793497916,"45":0.4319155903589541,"46":1.5428696463570317,"47":0.27745753142565815,"48":-0.06224034553723716,"49":0.08670716844422063}},"33":{"bias":-0.6478376894149411,"weights":{"0":0.11113742093258926,"1":-0.057631296290692434,"2":-0.8660292757249811,"3":-0.2738544223633077,"4":-0.03577571935742096,"5":-0.07334762765617867,"6":0.17211566059578215,"7":0.006008260197243015,"8":-0.1439197417697183,"9":0.036085330459431686,"10":-0.18055334175782697,"11":-0.17509693321077194,"12":-0.16217161578323755,"13":1.1610120951603338,"14":-0.14742813643434066,"15":0.018495746381914976,"16":-1.2586935746399601,"17":-0.027635960843157503,"18":0.17814071227221417,"19":0.07225251799656043,"20":0.06768517703528197,"21":0.1397363963758336,"22":-0.013778436407778868,"23":0.3135732374290304,"24":-1.9532383404883025,"25":-0.13979354808441002,"26":0.18216898035790544,"27":-0.19000763153145922,"28":0.0798636058729044,"29":-0.040652218563971325,"30":0.033706453981779586,"31":-0.03342180644687173,"32":0.01425558105737144,"33":2.3732514044960564,"34":-0.0924767977885319,"35":0.03542234168389966,"36":0.24783173538533712,"37":0.04226108412023051,"38":1.5618521834102927,"39":0.10689640319555786,"40":-0.9225795199886002,"41":0.1016848041685586,"42":-0.10550635412315319,"43":0.08031610233653816,"44":-2.5382570140097176,"45":-0.1325402932834015,"46":-1.1284287686437302,"47":0.1922401285662308,"48":-0.14820542833581812,"49":-0.011019736189192378}},"34":{"bias":-0.6325142086327123,"weights":{"0":0.07951552627143531,"1":0.24429433752111077,"2":-0.5636745456246988,"3":-0.2108237690045112,"4":-0.2051065787544671,"5":-0.15687158048340932,"6":0.06557631580683718,"7":-0.15686169398089075,"8":0.19677431314642657,"9":-0.032632071396595255,"10":-0.040495863767301875,"11":-0.03875126624857544,"12":-0.04279051860296232,"13":0.3173444590331259,"14":-0.13671392177843114,"15":0.07967954819139884,"16":-0.9502854145689311,"17":-0.08289424598099093,"18":0.03466826596771002,"19":0.15806224320933682,"20":-0.026914890053589748,"21":0.17346371280527872,"22":0.03331249037957484,"23":-0.12889445287412427,"24":-1.37992306557422,"25":0.27663613011148663,"26":0.1675678370165536,"27":-0.030469313488974116,"28":0.19730309537666615,"29":0.14263765842621864,"30":0.03256547682379302,"31":-0.06665269489171544,"32":0.07592664595654826,"33":1.7459918372471268,"34":-0.27570791218939594,"35":0.10516858307368485,"36":0.20359608499676465,"37":0.2738790153329745,"38":1.8609105802508195,"39":0.009859978519212878,"40":-1.2969694412473607,"41":0.19562896600458415,"42":-0.032687996055232225,"43":-0.020506899930697774,"44":-1.4537193873179257,"45":0.04529543579690923,"46":-0.10349268843970105,"47":0.1103548922927369,"48":-0.16895285068033722,"49":-0.1023232551230457}},"35":{"bias":-0.7939336154710314,"weights":{"0":-0.05525577552799886,"1":-0.07594902690319265,"2":-0.18253682459286583,"3":0.0365375710458833,"4":0.179104659883463,"5":-0.14374669608999624,"6":-0.22245858335574983,"7":-0.18138289738694727,"8":0.2210428038441268,"9":-0.08911425120200324,"10":0.0862571579966326,"11":-0.2771485243538924,"12":-0.23566242278423774,"13":-0.3522017489129869,"14":-0.03186843770029702,"15":-0.3405745058945986,"16":0.05984473404579203,"17":-0.012185331763514226,"18":-0.23460897579362994,"19":-0.21033948847725786,"20":-0.07482011848882797,"21":0.039843240814530945,"22":-0.29935160101513314,"23":-0.27430612407161714,"24":0.2716426838321273,"25":0.03950160318933389,"26":-0.17557171387689027,"27":0.10107593743244299,"28":-0.05593916214121489,"29":-0.05695473025067607,"30":-0.08258199022757626,"31":-0.2661017916930673,"32":-0.14790055450674738,"33":-0.5289282226333565,"34":-0.1360580339771005,"35":-0.18616123026602333,"36":-0.2948774760481809,"37":-0.2618179037512549,"38":-0.8452980458558684,"39":-0.13136010371660273,"40":-0.8795872352215681,"41":-0.09404535918361016,"42":-0.20162499430467248,"43":-0.015879492070320817,"44":0.07914106894573637,"45":-0.13282289992397467,"46":-0.48630310129984045,"47":-0.1423717954734932,"48":-0.23302261787383047,"49":-0.2873222518869122}},"36":{"bias":-0.5647303735465881,"weights":{"0":0.3004529251395498,"1":0.2994627257060438,"2":-0.5389506188444577,"3":-0.07880456178345734,"4":-0.1413977230781554,"5":0.001399847679113562,"6":0.22303267552213057,"7":-0.10848122448026008,"8":0.016899326221763447,"9":0.27084506549792836,"10":0.12199854242408843,"11":-0.06420984189183764,"12":0.13820734243736602,"13":0.5368571355430645,"14":0.018081527425500548,"15":0.21070260276343938,"16":-1.4421059214715595,"17":0.10511096143239988,"18":0.13790580615792272,"19":-0.061655114119875745,"20":-0.013790624808810267,"21":-0.06027842980433261,"22":0.26099695347834073,"23":0.09833883982978404,"24":-1.727441513253209,"25":0.19416680233336917,"26":0.06525019124628871,"27":-0.08430896951846857,"28":0.028477847829224533,"29":0.09380587345462993,"30":0.24221342879711316,"31":0.2614093932533847,"32":0.30486005032467145,"33":2.5506327109364153,"34":-0.1984439752170637,"35":0.44850352085261974,"36":0.3147793875495307,"37":0.08863275753981811,"38":2.279062465218853,"39":0.05165694384137407,"40":-1.7543899715640927,"41":-0.0498585892336404,"42":-0.10022369443738204,"43":0.11512563279555468,"44":-1.9609705899897691,"45":0.3081376910257021,"46":-0.0104340967909186,"47":0.029950788617436462,"48":-0.09338502378045321,"49":0.08546869616332751}},"37":{"bias":-0.7925340330737746,"weights":{"0":-0.153208668832178,"1":0.06606726317753844,"2":-0.5754928069090066,"3":0.00829336003779725,"4":-0.1462939746882109,"5":-0.05527453195730974,"6":0.024203949347917173,"7":0.004396037365242414,"8":0.036073615504078324,"9":-0.23980393896329374,"10":-0.16343461268708445,"11":-0.149232122181454,"12":-0.20683995312280623,"13":0.31791323694225754,"14":-0.2791181329018492,"15":-0.04482673081751947,"16":-0.5508530465196634,"17":-0.0824442844760018,"18":0.10192311849489977,"19":0.0891960422827036,"20":-0.14905158104519278,"21":-0.3080791548873106,"22":-0.08225326569710305,"23":-0.07138717459540676,"24":-0.8286398012776972,"25":-0.060367825476946205,"26":-0.2127887438814537,"27":-0.29450257156420134,"28":-0.05587208728234805,"29":0.09728884482347519,"30":0.15149928159132242,"31":0.009124463289478186,"32":-0.21953944231083455,"33":0.790498291275078,"34":-0.0393525179823391,"35":0.10416716640469738,"36":-0.05653365810140447,"37":-0.11755835480843743,"38":0.9401611290114882,"39":-0.3148219758310809,"40":-0.4164643363719396,"41":-0.21021878683856632,"42":0.07040298921541435,"43":-0.2011612166800891,"44":-1.0948264731048836,"45":-0.07985443281876717,"46":-0.7080318426289437,"47":-0.02148607854868981,"48":0.045561176331290816,"49":-0.10921084035953596}},"38":{"bias":-0.4816305159865715,"weights":{"0":0.002757607817334362,"1":-0.036210775752616345,"2":-1.608006479676791,"3":-0.04511041899890249,"4":0.2422791863457452,"5":0.1123170533102322,"6":0.47418460065981693,"7":0.6999387826014198,"8":-0.18008792487218284,"9":0.3788549067488196,"10":0.2491500349737899,"11":-0.020823242480193686,"12":0.014192118956209868,"13":2.6961458593546666,"14":-0.03109886050217207,"15":0.28338963174168214,"16":-2.242355383608884,"17":-0.13815167322716645,"18":0.31692572088584836,"19":0.03183893511424097,"20":0.1074234876478817,"21":-0.1309699654993575,"22":0.16462730644036602,"23":0.39119332036266846,"24":-2.5791550501242457,"25":0.2014939281308963,"26":0.27898476348293394,"27":-0.05259212588066395,"28":0.19902335664973017,"29":-0.046823740776932105,"30":0.015512336563329378,"31":0.021471988348744534,"32":0.06705969642125882,"33":3.008186167724567,"34":-0.5299954396491542,"35":0.23381155610147022,"36":0.3540918975983719,"37":-0.09156983215376573,"38":2.163613454211076,"39":0.3937477428517253,"40":-1.6117588319458673,"41":0.2312704218671831,"42":0.07356668800755291,"43":0.4149250610806331,"44":-4.040890933298733,"45":0.08866647321736221,"46":-1.5575073274899218,"47":0.07863692734458765,"48":0.0031634079354017366,"49":0.12198649224484179}},"39":{"bias":-0.7187026459771866,"weights":{"0":-0.01625569381953737,"1":0.019309422145382574,"2":-0.8492044514380763,"3":-0.03359403798903375,"4":-0.006266397651856456,"5":0.20817869579723244,"6":0.3277732238434037,"7":0.06373793745501156,"8":0.1816967377434657,"9":0.2879762965682632,"10":-0.030432398448572946,"11":0.01121687425125143,"12":0.07431270190477371,"13":1.0423768265370126,"14":-0.23733778262176317,"15":0.20675067780656475,"16":-1.7206967997225426,"17":-0.03131556182994746,"18":-0.07455402146822743,"19":0.13918807763045432,"20":0.08760893699642891,"21":-0.12609849098826625,"22":0.23640881427702376,"23":0.23958196814475363,"24":-2.0402536911152875,"25":0.025485274833215422,"26":0.05078968774692233,"27":-0.14848494899935746,"28":0.05168261135959294,"29":0.26542881054638273,"30":0.1506814078264021,"31":0.11923535436105732,"32":0.05416489969435653,"33":2.461642350253213,"34":-0.45093858692503785,"35":0.08370520980676276,"36":0.23051044930825396,"37":0.1308038614030459,"38":2.0906277804555913,"39":0.1892600001157465,"40":-1.453290640269484,"41":0.08735116033333616,"42":0.2361826188231844,"43":0.08597874224190223,"44":-2.2728196150739146,"45":0.18657079726971457,"46":-0.5207097226632922,"47":0.04024181029140105,"48":0.15085903882138305,"49":0.04052206257204113}},"40":{"bias":-0.848332361984013,"weights":{"0":0.013254550575324701,"1":0.10238586373586353,"2":-1.3084435951610534,"3":-0.2736625568600289,"4":0.3099605089525142,"5":0.23807616026626532,"6":0.13125174417021168,"7":0.5468094125213417,"8":0.07246898332086098,"9":0.22651516979246028,"10":0.007117802000725272,"11":0.09578434391509519,"12":0.08690540203516278,"13":2.0373151565855365,"14":0.02687243410000179,"15":0.10886666100188429,"16":-2.123168060566114,"17":0.017114141625219723,"18":0.26157136017711907,"19":-0.04908309240041601,"20":0.10796335433337886,"21":0.16953339879073953,"22":0.23692569243890305,"23":0.5607377304166736,"24":-2.573045817675482,"25":0.27746224621641663,"26":0.342274622688105,"27":0.13837474487938586,"28":0.0363776194829654,"29":0.2715513089651516,"30":0.2128425417082315,"31":0.2529506426371906,"32":0.20344509153635704,"33":3.367732881970444,"34":-0.5851195603486811,"35":0.3640998670819827,"36":0.25847356423320605,"37":0.07668715494677943,"38":1.8732600680827376,"39":0.21517763072306575,"40":-1.365878312930589,"41":-0.03634658256904373,"42":0.34951269483505665,"43":0.15801163234700483,"44":-3.4258794395359526,"45":0.0014254652411368385,"46":-1.424203814306315,"47":0.1795523427380985,"48":0.21186328681646488,"49":0.07576004274138567}},"41":{"bias":-0.7388627788270516,"weights":{"0":0.01613300084722311,"1":0.045703637587403055,"2":-0.3885269970964308,"3":-0.025827924592849955,"4":-0.08679340529909384,"5":-0.2335527549304916,"6":-0.04217918071649479,"7":-0.4042639534875547,"8":-0.0012273127730012703,"9":-0.12426555618082892,"10":-0.23419489196770793,"11":-0.25638773715563956,"12":0.05165016075743606,"13":0.40478431020268507,"14":0.10891909454409107,"15":0.18358790246935258,"16":-0.2661442223939835,"17":-0.14369909864568906,"18":0.1108722694110808,"19":-0.029701633926449745,"20":-0.21941064487057968,"21":0.0947214438543237,"22":-0.10958793156457047,"23":-0.043858204079776815,"24":-0.9345241506225168,"25":-0.09597996024222004,"26":-0.0006131840613832106,"27":-0.11386277603151902,"28":0.15907260289228736,"29":-0.08049079737453291,"30":0.1321174050025915,"31":-0.1477431160585431,"32":-0.20638515887775563,"33":0.8629357684116495,"34":-0.11664069545174678,"35":0.21811783799986664,"36":0.07094315540458088,"37":0.0755276880635768,"38":1.123602549953568,"39":-0.34243889610229344,"40":-0.5127791490843918,"41":-0.15586745309990813,"42":-0.0026396976185901265,"43":-0.16102640902599172,"44":-1.5406617249014778,"45":-0.062327947168843725,"46":-0.4519466817543536,"47":-0.07256719643623448,"48":-0.19605643963944558,"49":-0.2032637436868804}},"42":{"bias":-0.7462368470165976,"weights":{"0":-0.009824245885634316,"1":-0.014355567345478737,"2":-0.36368579552318325,"3":-0.175680752065199,"4":0.05601085259403913,"5":0.039715982271146956,"6":-0.12039461857756305,"7":-0.24851307319204669,"8":0.08279796730608059,"9":-0.21053735863486475,"10":-0.09519410552260012,"11":0.033923448449578994,"12":-0.10286761116968683,"13":0.3575599161804109,"14":-0.11228641500098453,"15":-0.010100469143554012,"16":-0.25088932541399367,"17":-0.11384603515573616,"18":-0.28592267699706186,"19":0.032374899957458174,"20":0.054560152014378936,"21":-0.021232293174178254,"22":-0.06004240594424435,"23":-0.07917977659759848,"24":-1.1393126342402669,"25":-0.067017964010944,"26":-0.03157594104012702,"27":-0.24267084962604143,"28":-0.12268781262085988,"29":-0.09249661636382425,"30":0.05466056927672665,"31":0.06154621485343948,"32":-0.20524938122627032,"33":0.8613007956635215,"34":-0.012933645307235673,"35":0.19345637721487077,"36":-0.19708563582199773,"37":-0.013237306636379174,"38":0.8481580672578815,"39":-0.4406273742646641,"40":-0.6505335820670263,"41":0.0069360578981712455,"42":0.05039976790977096,"43":-0.1891579003740737,"44":-1.1378272447107667,"45":-0.15177525040723933,"46":-0.4800857230548298,"47":0.08877723567137473,"48":-0.250655796418567,"49":-0.04759029145525678}},"43":{"bias":-0.8014739580776085,"weights":{"0":-0.25942429490102226,"1":-0.07336688971839103,"2":-0.2802550083146822,"3":-0.19254561818433333,"4":-0.20838787637523343,"5":-0.07240616082544235,"6":-0.20859136069425904,"7":-0.31926510648416845,"8":-0.17431649695226034,"9":-0.06729366785179244,"10":0.0788308291592853,"11":-0.18725096476149397,"12":-0.14514493743860712,"13":-0.32647680121215206,"14":-0.08715744948589518,"15":-0.3091434054791672,"16":-0.1628172102667236,"17":0.040123014090618636,"18":-0.2671136228646105,"19":-0.22417512265406436,"20":-0.3215405280012005,"21":-0.15894951144727176,"22":-0.020324596570440157,"23":-0.05200128496691083,"24":-0.20296521398225176,"25":-0.09399929620455555,"26":-0.04020218976821956,"27":-0.14632820992700454,"28":-0.09382532763057293,"29":-0.19947702764561087,"30":0.06469938188511047,"31":-0.03107796620548285,"32":0.04315800208095778,"33":-0.18074505148967288,"34":-0.31345679885273886,"35":-0.12328075589893199,"36":-0.08361904673358843,"37":-0.19268758091939492,"38":0.15969066712036112,"39":-0.3580320132928179,"40":-0.49428970105713793,"41":-0.23126955028758756,"42":0.04141786862251494,"43":-0.1168289864014541,"44":-0.3791417341870061,"45":-0.3222124800806208,"46":-0.21896767486246568,"47":-0.027917307736903055,"48":-0.24235634052100632,"49":-0.17885820690492577}},"44":{"bias":-0.5666322522213427,"weights":{"0":-0.2017209278485524,"1":0.19504007439956164,"2":-0.6883529274097655,"3":-0.10343029470924436,"4":-0.10156166588907822,"5":-0.1546745253703285,"6":-0.1151795827440874,"7":-0.0011270216183875549,"8":-0.20803343545903177,"9":-0.08710965345796894,"10":-0.2519167384681434,"11":-0.2568227034835288,"12":-0.05779903490524478,"13":0.8175230854542511,"14":-0.1351499836715147,"15":0.07705474152305342,"16":-0.5551645608434103,"17":-0.06223401388564266,"18":-0.23951737180056296,"19":-0.23330045660873538,"20":-0.13814188244522485,"21":-0.13562278559903054,"22":-0.1711737548509198,"23":0.2992274620764232,"24":-1.2021330846178375,"25":-0.06078572827315699,"26":0.017586672585573573,"27":0.0010582549414767223,"28":-0.10934855761691165,"29":-0.23912659735680483,"30":0.13461620757205164,"31":-0.2635273245160516,"32":0.09841323835953282,"33":1.3498054665964925,"34":-0.010295212605291894,"35":-0.021612242937047013,"36":0.14682666084685267,"37":0.13462940586549385,"38":0.908570778734373,"39":-0.3457247413840315,"40":-0.5079725519167968,"41":-0.1703062775895405,"42":-0.20748833632115116,"43":-0.22532884981857668,"44":-1.7856158412741454,"45":0.097510518388842,"46":-0.997283902014105,"47":0.08878601573403196,"48":-0.22223749255147326,"49":0.15638844541185776}},"45":{"bias":-0.6093540195043001,"weights":{"0":-0.03853330995022777,"1":0.01789732372244643,"2":-1.0399648336593696,"3":-0.2437844233690704,"4":0.21241337505915522,"5":-0.10368484177470527,"6":0.20494861312726964,"7":0.3022141692901151,"8":0.1344335969142685,"9":0.21889562725101364,"10":0.17588995334632726,"11":-0.09034838215035937,"12":-0.1511824585857752,"13":1.6699537847639359,"14":-0.10035540747033998,"15":0.28827210985942125,"16":-1.7801809034334364,"17":0.18294421185605045,"18":-0.10962211363287631,"19":-0.04165628520360754,"20":0.08882506034946945,"21":0.01886393785197741,"22":0.23185034543431515,"23":0.4398524513784923,"24":-2.2308182393279576,"25":-0.11519265011416592,"26":0.18965103749189102,"27":0.015354281118923101,"28":-0.05311585203749887,"29":0.2349190846482423,"30":0.14459111041322326,"31":-0.06980561544878468,"32":-0.055700409847056334,"33":2.8265155974540486,"34":-0.4811337200062296,"35":0.04824663824483965,"36":-0.03695551492680608,"37":0.2036709082089227,"38":1.8943893173410034,"39":0.04002531316599809,"40":-1.3306271679466048,"41":0.2158670523812034,"42":0.30328566669828244,"43":0.21024488452732482,"44":-3.1834377020590323,"45":-0.11658192616223491,"46":-1.1715269214602093,"47":0.021338300532235607,"48":-0.06115345612400663,"49":0.16375778653566542}},"46":{"bias":-0.599377304773555,"weights":{"0":0.15078281983388545,"1":-0.11298474528707453,"2":-0.6401747785816537,"3":-0.21863944964724366,"4":-0.07094068110526537,"5":-0.16611850610947115,"6":-0.05460408095957395,"7":-0.21455260021900538,"8":-0.025776405065864913,"9":0.058613789363776314,"10":0.07494913610926844,"11":-0.2430147618915728,"12":0.09906669145128502,"13":0.6947631903409704,"14":-0.2221268984980094,"15":-0.1255549674532384,"16":-0.7629259762007202,"17":-0.04481450848649353,"18":-0.0723670866187831,"19":0.07389617690679709,"20":-0.007681269550502257,"21":0.10254661749464723,"22":0.1999773728381258,"23":0.07501895619428706,"24":-1.3902725509809053,"25":-0.09471594127817629,"26":-0.06769839256600732,"27":-0.13871977235268532,"28":0.09174450934929444,"29":-0.13295664412615057,"30":0.025226085241441352,"31":-0.13887707223809712,"32":0.035481622772921315,"33":1.536955635263425,"34":-0.20144230674029043,"35":-0.018381545998027726,"36":0.047508924806008435,"37":-0.18706226118333338,"38":1.1020568631795817,"39":-0.23500578243274187,"40":-0.5606620457530016,"41":-0.09634637748863042,"42":-0.0012788174217368319,"43":-0.1106712935537069,"44":-1.5580951264233105,"45":-0.11651281251576903,"46":-0.8909177960420522,"47":-0.2071893268849907,"48":-0.1987686746579453,"49":0.13042702762008715}},"47":{"bias":-0.5892896601477116,"weights":{"0":0.10570054806600587,"1":0.340576800734996,"2":-1.7185760859663475,"3":-0.08172344806609985,"4":0.17392115497923263,"5":0.24869406767057275,"6":0.6436726385496805,"7":0.8431725703055862,"8":-0.13325201943200557,"9":0.4266665794405183,"10":0.20548685994092325,"11":-0.011786009693374922,"12":0.1869922732305141,"13":2.614777582345346,"14":-0.22029893375659282,"15":0.19444025486255437,"16":-2.3884961684323858,"17":-0.06344045889296633,"18":0.19845111999435303,"19":-0.08678988176427326,"20":0.44035534706356916,"21":-0.09931429553382996,"22":0.06310195036230787,"23":0.6125376588359642,"24":-2.642505037333595,"25":0.11279557030339833,"26":0.1125943228667943,"27":0.18659771005537013,"28":-0.07379443421465834,"29":0.2559465821213849,"30":-0.014650685002494923,"31":-0.03155546012180901,"32":-0.03582925164410946,"33":3.1293512610355085,"34":-0.5079830903551147,"35":0.04747096779364257,"36":0.2270260816617972,"37":-0.051034600495565734,"38":2.011800143884744,"39":0.5133462821585537,"40":-1.5229371778528142,"41":0.01489827355299956,"42":0.23161246633923452,"43":0.42342548441110517,"44":-3.744848423628739,"45":0.09316440014148408,"46":-1.785012764204725,"47":-0.0034451824529981453,"48":-0.05309706041659693,"49":-0.01170693698239567}},"48":{"bias":-0.5611774961093581,"weights":{"0":0.0675421740650292,"1":0.16351869172106373,"2":-1.2467410429966068,"3":-0.28665156670299324,"4":0.10608848368212304,"5":0.14834752440580293,"6":0.33191528384415103,"7":0.2396496310990921,"8":-0.10777971469195022,"9":0.21519975557305032,"10":-0.13166842460252803,"11":-0.1231135865740016,"12":0.0250084764996888,"13":1.861775465882677,"14":-0.16730237902009007,"15":0.13800030850735315,"16":-1.7172635134842913,"17":-0.11898872156812319,"18":-0.0907059932005455,"19":0.13719817810367174,"20":0.3232111460430756,"21":0.04154886424973888,"22":-0.010403770572669932,"23":0.5382215875125231,"24":-2.289130422673063,"25":-0.09931555546101002,"26":0.07896608945762947,"27":-0.12364095916419142,"28":0.1631950954736431,"29":-0.10115460282707442,"30":-0.12640055914829532,"31":0.21277555324052133,"32":0.05020027511187165,"33":2.6407551098307893,"34":-0.17485570442761592,"35":0.010903998327531712,"36":-0.021465167998389073,"37":0.1976834456026763,"38":1.8116313122338008,"39":0.10762971108491591,"40":-1.2669454090816075,"41":0.204670098611212,"42":0.2857688668886413,"43":-0.04148608232851879,"44":-3.1628685461562713,"45":0.10967480462981612,"46":-1.3618331488909203,"47":0.25791355299895646,"48":0.053495233264148956,"49":0.15728300967930792}},"49":{"bias":-0.8372679423449485,"weights":{"0":0.0747975301208656,"1":-0.014166345073923097,"2":-0.4511085842947895,"3":-0.10284605188117991,"4":-0.018229230626049885,"5":-0.004933422853358692,"6":-0.1842275763165458,"7":-0.14119319424584226,"8":-0.23771048372859,"9":0.053336502232945386,"10":-0.24602412855248912,"11":0.012360438775853506,"12":-0.021882689500648256,"13":0.06218917339851625,"14":0.13422130717747238,"15":0.060113139007310856,"16":-0.1868555112326482,"17":-0.06568866215942709,"18":-0.26233417697062933,"19":0.10033363923868084,"20":-0.2797199420819113,"21":0.02604923996586009,"22":-0.14729004517270317,"23":-0.13333631453181244,"24":-0.8728655640491879,"25":-0.1064053287589717,"26":-0.08029256562438496,"27":-0.0057960207021901,"28":-0.1802901348962327,"29":0.0888611005409865,"30":-0.04641506139730541,"31":0.11874305309456543,"32":-0.0013892013710271804,"33":0.8161914469212471,"34":0.14441779554871367,"35":0.24499856094074426,"36":0.15932463894079787,"37":0.05252380343623728,"38":0.8903483750450955,"39":-0.32865421035868725,"40":-0.42650717121557347,"41":-0.19651113735816905,"42":-0.19573103543317122,"43":-0.19747168980570198,"44":-1.4003665899271553,"45":0.15066987269999033,"46":-0.3767505301209905,"47":-0.13433331222624365,"48":-0.1679135084933295,"49":0.04495245556453815}},"50":{"bias":-0.6162504405201491,"weights":{"0":0.008419638349930616,"1":0.10729142097087203,"2":-0.31417688822427375,"3":0.09421189557489214,"4":-0.08120386778211833,"5":-0.13682514563098402,"6":-0.23401901199366265,"7":-0.2036894679292158,"8":-0.13412726333960992,"9":-0.22736540128797472,"10":0.0002995957239697985,"11":0.007245858608536984,"12":0.12216844914769294,"13":0.4021926824965078,"14":-0.058084042382493886,"15":-0.04821129023204009,"16":-0.43895388038633276,"17":0.05093703877861705,"18":0.13596132758760016,"19":-0.07189626473793437,"20":-0.06704648353795213,"21":-0.09550911661257376,"22":0.03635087346611942,"23":0.14269879292079396,"24":-1.5833982117168044,"25":0.11666045014799982,"26":0.07122024648159267,"27":-0.04459058674054433,"28":0.025201346421737242,"29":-0.1243576140169634,"30":0.16167965563144276,"31":-0.15353506195682826,"32":-0.16145036232539545,"33":1.867357891645076,"34":-0.167993906656078,"35":-0.005252643571842659,"36":-0.056206393211000884,"37":0.1788940086787448,"38":1.4633954972405006,"39":-0.337955904556985,"40":-0.3283175940311247,"41":0.017419909651144184,"42":0.09070530747677438,"43":-0.2318617944260559,"44":-2.341952976952729,"45":0.18402646177934542,"46":-0.7442958348764841,"47":0.14155802900833225,"48":0.156510651575421,"49":0.08074207198689365}},"51":{"bias":-0.6366256086231714,"weights":{"0":0.10020188135552432,"1":-0.2479261670142563,"2":-0.4910699471757936,"3":-0.12674593970830625,"4":0.013103509091504274,"5":0.04658572747565223,"6":-0.25238473824104274,"7":-0.2648438315560927,"8":-0.05525438049658161,"9":-0.048203871286524744,"10":-0.07676367176086982,"11":-0.05309097363090311,"12":0.010121782560815617,"13":-0.13005591199559308,"14":-0.016031068388684098,"15":-0.1266203734424012,"16":-0.40791952595498343,"17":-0.21750796580198706,"18":-0.05973810426859079,"19":-0.08251061185529293,"20":-0.024151960966673332,"21":-0.1503511914350131,"22":-0.14280497995874877,"23":-0.01068836972659276,"24":-0.4683930070899417,"25":-0.2539831911209284,"26":-0.23754400662345515,"27":0.019851740452275765,"28":-0.26614523558016984,"29":-0.21708907542570427,"30":-0.22018367466245214,"31":-0.0823157680734758,"32":-0.04888687032526725,"33":0.2700930569525565,"34":-0.1799101920299893,"35":-0.15623802142293625,"36":-0.3035356436596717,"37":-0.2576170343119976,"38":0.4731430157535697,"39":-0.3212108843311129,"40":-0.31105963069481457,"41":-0.18242989460469847,"42":-0.2795645667059117,"43":0.01819618837572555,"44":-0.8680031388537922,"45":-0.10109398548195979,"46":-0.5634383426201498,"47":-0.11399611057196417,"48":-0.11949630094620253,"49":-0.29558471282885096}},"52":{"bias":0.7382286507574767,"weights":{"0":-0.1641021631003989,"1":-0.08611645840878479,"2":0.73191069759804,"3":-0.07070273648887644,"4":-0.31536940859838786,"5":-0.2697073751301093,"6":-0.5571812864894414,"7":-1.2391334083575916,"8":-0.04774813077467067,"9":-0.10258311139980815,"10":-0.04623210427156492,"11":-0.08982829249177192,"12":-0.03782478186519796,"13":0.3127445164851293,"14":-0.16107667393899183,"15":-0.08705805568075198,"16":-0.5665949596364719,"17":0.12032581424680891,"18":-0.26368421792157243,"19":0.16028516214305977,"20":-0.27411994752841656,"21":-0.2518519449969628,"22":0.17106789798680988,"23":-0.38155978875603247,"24":-1.997377479151326,"25":0.07592151637120073,"26":0.10508037669495342,"27":-0.04305458297234419,"28":0.18339693065766446,"29":0.13404313604092627,"30":0.15226989099203447,"31":-0.13002906418756685,"32":-0.1675529638250104,"33":3.1562195505993196,"34":-0.09996073679364915,"35":0.15812728817065544,"36":-0.288666957512974,"37":0.29639582028869943,"38":3.595997606049036,"39":-1.0714550762101243,"40":1.3999852972681344,"41":0.10932935476721514,"42":-0.29917748501836616,"43":-0.375789457922421,"44":-1.7529130518661946,"45":0.12375410463921414,"46":0.501203883357745,"47":-0.17714174637508123,"48":-0.14852781708439947,"49":0.1544426675667256}},"53":{"bias":-0.6837348368224543,"weights":{"0":0.1754410358535836,"1":-0.06127082650600884,"2":-0.40807542608616915,"3":-0.10808054758232245,"4":-0.096774560053831,"5":-0.015470298668846617,"6":0.02687681512539277,"7":-0.41309210655880946,"8":-0.12921022864366316,"9":0.0644615909703108,"10":-0.15319087649618904,"11":-0.24209829300676403,"12":0.06659379331647185,"13":0.16610833260551155,"14":0.0641314427466817,"15":-0.07350512849072038,"16":-0.6915028255089892,"17":-0.00026100881991707013,"18":0.11652271222181283,"19":-0.06400648944684029,"20":-0.22053204096735066,"21":0.04987620562649678,"22":0.20000894106646896,"23":-0.07877783994923437,"24":-1.3229931387137952,"25":0.06826614735088367,"26":0.08777222668430303,"27":-0.0011640389990316602,"28":0.1154103307345054,"29":0.07483398272515192,"30":-0.0815148995487064,"31":-0.019432563887503664,"32":0.036882059486177045,"33":1.731565625855038,"34":0.1451493510179943,"35":0.2442760514232415,"36":0.004623465382942291,"37":0.1562286278030183,"38":1.5549810614928046,"39":-0.15289588055775777,"40":-0.6181307053108185,"41":0.13736899086801174,"42":0.09918314215592197,"43":0.05544135991686734,"44":-1.9664311057633341,"45":0.1450647839780047,"46":-0.5162043859600249,"47":0.146273232084943,"48":0.10897744500204988,"49":0.13347039650418088}},"54":{"bias":-0.5773743382635639,"weights":{"0":-0.12012768239146215,"1":-0.027564061358736257,"2":-0.28733361601735075,"3":-0.08156895058771912,"4":-0.1869828914000388,"5":-0.19317464916739663,"6":-0.14332423726776886,"7":-0.1690046257373675,"8":-0.0119497424801919,"9":-0.22320720644286277,"10":-0.058749123929051836,"11":-0.07390798307210969,"12":-0.2077957092052185,"13":-0.12461405251960998,"14":0.03324808510505195,"15":-0.2968615555053801,"16":-0.3517381250730608,"17":-0.028045460682086205,"18":-0.019917338084932852,"19":-0.07258771950054543,"20":-0.2721779963261296,"21":-0.21786231613277698,"22":-0.021987700314439203,"23":-0.26185978908313134,"24":-0.30981712610147344,"25":0.010797539303547333,"26":-0.20211627560354356,"27":-0.308182317295394,"28":-0.08296735122385776,"29":-0.21084317522182652,"30":-0.14133933692301773,"31":-0.2238941632906857,"32":-0.08751244188295988,"33":0.29220518519742505,"34":-0.24522244193963694,"35":-0.19391872616137448,"36":-0.11369135229199805,"37":0.05066603987962278,"38":0.25969934546671686,"39":-0.41826168249795337,"40":-0.518377159495821,"41":0.004600097343749408,"42":-0.24164565535481025,"43":-0.32782613991520937,"44":-0.6972628577298895,"45":-0.07812045739303523,"46":-0.4074042062745427,"47":-0.2934640965214343,"48":-0.1876458588648615,"49":-0.2791227587906747}},"55":{"bias":-0.6875880399286862,"weights":{"0":0.06804915564317363,"1":0.07560641108997444,"2":-1.1217472749211699,"3":-0.20494337373493274,"4":-0.18290880270764437,"5":0.13466535947499575,"6":0.1629582154901049,"7":0.34440263984072156,"8":-0.21160522219352476,"9":0.2568521545799679,"10":0.08862029832900739,"11":0.031976025208764275,"12":0.03648042514733948,"13":1.5559749038686652,"14":-0.2423637736765196,"15":-0.09564944902520948,"16":-1.309541750140838,"17":0.05045378289461742,"18":0.13366737858412683,"19":-0.18065851283040266,"20":-0.11870070823094359,"21":-0.2127608842812838,"22":-0.011075147001430526,"23":0.5367471973536165,"24":-1.9187241226484313,"25":-0.11547331646081452,"26":0.1893349992003717,"27":0.08698873693630825,"28":0.1536815366533304,"29":0.07449252925340238,"30":-0.11149425521802211,"31":-0.22415984209495796,"32":-0.22327146430855496,"33":2.265986322764837,"34":-0.13564753377861347,"35":0.022527501476346398,"36":0.22306476140031814,"37":-0.08546141336671845,"38":1.3441347565518298,"39":0.07518016032879467,"40":-0.9303697068223189,"41":-0.004149565576045613,"42":0.11409641671857955,"43":-0.06939071114673785,"44":-2.6597170386658564,"45":-0.09045124773725134,"46":-1.339825715528446,"47":0.17713780919800037,"48":-0.2446708903385847,"49":0.06719457516505259}},"56":{"bias":-0.6517540277783888,"weights":{"0":0.07057562302489459,"1":0.030250760248386157,"2":-0.6837435593158149,"3":-0.07175638030382503,"4":-0.13329022364133458,"5":0.13810333125687146,"6":-0.060693979366855604,"7":-0.1459104995039579,"8":-0.12739878460585863,"9":0.16060280657160309,"10":-0.18478941240899371,"11":-0.048893235444407775,"12":-0.03403484679568827,"13":0.8547481921025262,"14":-0.07055773147678696,"15":0.10963062295252478,"16":-0.7871537856670152,"17":0.1274462448205516,"18":-0.11601524865834045,"19":0.1724337357269265,"20":-0.012175590964813809,"21":-0.07766401877573813,"22":0.2182562655798639,"23":0.1771773200018344,"24":-1.5557864814210383,"25":0.20811513788935018,"26":-0.08141727781091863,"27":0.11050143147200439,"28":-0.15142965563393082,"29":0.15600469641312592,"30":0.2295433100748105,"31":0.14049141175954594,"32":-0.09783623743126163,"33":1.7872936683750904,"34":0.013011261278755555,"35":0.09835935943077526,"36":-0.050221633728069155,"37":-0.024580147656900843,"38":1.2726040584251692,"39":-0.17708411052785203,"40":-1.022439337410456,"41":-0.16799947408867835,"42":-0.17585344630526045,"43":0.17476150890240025,"44":-1.948729312618889,"45":-0.08850039691803686,"46":-0.39142214110657997,"47":-0.14465303066385657,"48":-0.08625063906939098,"49":-0.13216179503641493}},"57":{"bias":-0.6910817483020356,"weights":{"0":0.09649605885397873,"1":-0.13875597736954626,"2":-0.5248095448080258,"3":0.050495680550262344,"4":-0.1545520794580293,"5":-0.19669293892985396,"6":-0.34394114290764427,"7":-0.10195708937289916,"8":0.002518429954273795,"9":-0.257405687759174,"10":-0.1742039045183451,"11":0.017782830498519683,"12":-0.25849055099961393,"13":0.47113740533197596,"14":-0.04524674852837493,"15":0.01149369492180233,"16":-0.49035285310913007,"17":-0.2553004181054161,"18":-0.15086054980677563,"19":-0.14649171017464474,"20":-0.1605875533954521,"21":0.08013118209661493,"22":-0.2648893470031462,"23":0.06588550966903355,"24":-0.893710427164787,"25":-0.07455761838766226,"26":0.06476097243400626,"27":-0.2729618521859839,"28":-0.06759269940395148,"29":-0.25763899896237097,"30":-0.18164081594070164,"31":0.07446441972133228,"32":0.08321927567655248,"33":0.8618889831654942,"34":-0.02610623457334489,"35":-0.02821718430437368,"36":-0.2574873245393138,"37":-0.03210355810612583,"38":0.6048070064310288,"39":-0.18707324700392677,"40":-0.2550596308477617,"41":-0.23757253467380438,"42":-0.04962914889779882,"43":0.001232830617760618,"44":-1.2815349168324526,"45":-0.24410737522587328,"46":-0.6593745152774352,"47":-0.21277119387398188,"48":-0.18751583869044192,"49":-0.14684854774868036}},"58":{"bias":-0.7272591029467759,"weights":{"0":0.1797303467828862,"1":-0.055610316372402845,"2":-0.8488473824512905,"3":0.05190634900212619,"4":-0.016060721033301976,"5":-0.13218372934153658,"6":0.2335116846933926,"7":0.11144833130104775,"8":-0.23976474092577454,"9":0.25748677809021836,"10":-0.06489137721979382,"11":-0.16742416528526496,"12":-0.22519424928755366,"13":1.408362566744399,"14":-0.15853496472594147,"15":-0.08381655239576603,"16":-1.2285966493489746,"17":-0.15975316218456592,"18":0.026759736888079408,"19":-0.05402799100903592,"20":0.04935536319208531,"21":-0.2818648393576815,"22":-0.09410799129818738,"23":0.32068332529617577,"24":-2.147528749115816,"25":-0.07501312795208699,"26":0.10715769221145154,"27":0.10314859069418239,"28":-0.12411911094650331,"29":-0.06769338665530547,"30":-0.08310826957142241,"31":-0.1685376473177947,"32":-0.04575012472091017,"33":2.4208575435304347,"34":0.04835635246217582,"35":0.32724324847145775,"36":0.26321066394266307,"37":-0.1340198679588456,"38":1.6974605917371843,"39":0.0027038595840569576,"40":-0.9939254784159897,"41":0.11825086240746159,"42":0.12327364216627631,"43":0.23213681623415205,"44":-2.8694012639213,"45":-0.012053253707058117,"46":-1.1181135210618658,"47":-0.023655230582464735,"48":-0.07047716665753058,"49":0.0758674319857559}},"59":{"bias":-0.7590464164858168,"weights":{"0":-0.13677525663785675,"1":-0.07368353086478992,"2":-0.2546074366943916,"3":-0.21887404649376124,"4":-0.18386360928272674,"5":-0.25164267332360063,"6":-0.19977904837490426,"7":0.03062069286454063,"8":0.004905405921091413,"9":-0.043080375590369764,"10":-0.021410170757516233,"11":-0.30089435668079023,"12":-0.1304463643818899,"13":0.2980542206650077,"14":-0.2465788784045484,"15":0.10268336200252856,"16":-0.39206845176946054,"17":0.09674582038356766,"18":-0.03919519457990495,"19":-0.1346490345165914,"20":-0.21249279938753968,"21":-0.29325664542369484,"22":0.013930421676112217,"23":0.038388135939087464,"24":-0.998095089374507,"25":0.12889691734901018,"26":-0.18835971251063707,"27":-0.29133794060182006,"28":-0.04493492999932703,"29":0.057379556045280125,"30":-0.1811049152756927,"31":0.004326944109316688,"32":-0.0747174388188318,"33":0.9119769195227216,"34":-0.2268641700952841,"35":-0.09175549432838992,"36":0.0022345345598184653,"37":0.02873035755686817,"38":0.9049887418582202,"39":-0.2470572290422462,"40":-0.4253085852692702,"41":-0.23443189350699173,"42":-0.05624802001559472,"43":-0.15619663342096965,"44":-1.5254465972900404,"45":0.1074836853956508,"46":-0.7520260917752098,"47":-0.11746862847831656,"48":-0.02646254321635218,"49":0.15162166169494043}}},{"0":{"bias":-0.48630192262798505,"weights":{"0":-0.5208071284591546,"1":-0.1868032828186863,"2":-0.17572967766966754,"3":-0.41248641639876016,"4":-0.37082927028854157,"5":-0.26852049767196934,"6":-0.25748393095570765,"7":-0.15617644731663619,"8":-0.1420968600026699,"9":-0.13392807436752024,"10":-0.325381021148504,"11":-0.6063565495728387,"12":-0.03220404060609277,"13":-0.38436382832922744,"14":-0.22081620379307323,"15":-0.3363446010348499,"16":-0.032563842223137934,"17":-0.5349824093662285,"18":-0.08971024928399435,"19":-0.16170102739368092,"20":-0.37385851221741645,"21":-0.1942361394539773,"22":-0.43851733907536994,"23":-0.10625555710293227,"24":-0.19551322628080928,"25":-0.07075672217447178,"26":-0.14112981234768132,"27":-0.3802730290614472,"28":-0.32910064888739304,"29":-0.19748929053758343,"30":-0.3692235049930022,"31":-0.25192545023196183,"32":-0.2801211597988649,"33":-0.3740135264896773,"34":-0.10794600502176714,"35":-0.19509074537097273,"36":-0.37912211187572786,"37":-0.2731566050657527,"38":-0.502763984256601,"39":-0.2881243933606714,"40":-0.5320819557585432,"41":-0.2544581571757016,"42":0.004673583517325014,"43":-0.005204786928417371,"44":-0.2199875580017556,"45":-0.2511340924895239,"46":-0.36428196650798933,"47":-0.3301485826715527,"48":-0.2368913056667312,"49":-0.1812129475847349,"50":-0.1233867366219557,"51":0.010983856200452096,"52":-0.6016377916557836,"53":-0.42709089537422523,"54":-0.25478736862151935,"55":-0.20145833482405018,"56":-0.2621944325604768,"57":-0.10116250486430754,"58":-0.18258115977524156,"59":-0.2888555716250675}},"1":{"bias":-0.8933890830576786,"weights":{"0":-0.745600307791141,"1":0.10655282987047543,"2":0.01023466004526603,"3":-0.8442453954186889,"4":-0.026195288434399566,"5":-0.3833192332401175,"6":-0.24799179079064448,"7":0.018115239976094374,"8":-0.2080334265302717,"9":0.04339388315294595,"10":-0.6156990174003873,"11":-0.4705286074924079,"12":-0.17749496700185463,"13":-0.2771199253483289,"14":-0.31931613857502994,"15":-0.25607548139549846,"16":-0.11017290278132158,"17":-0.46250600270413494,"18":-0.22466699820046027,"19":-0.10543885175998836,"20":-0.06485369883993221,"21":-0.23235820980471084,"22":-0.28924340337318644,"23":0.0032588843318576612,"24":-0.007284739028472268,"25":-0.05915690615239031,"26":-0.0068334990991731565,"27":-0.29194428073303913,"28":-0.09090175514707803,"29":-0.07073104814507548,"30":0.036012911645696595,"31":-0.15141834111753757,"32":-0.28981883494933486,"33":-0.1602745603004033,"34":-0.12999928272331282,"35":0.1570087188725378,"36":-0.3780270000649355,"37":-0.09392373062543434,"38":-0.5618066254875631,"39":-0.35029760398652654,"40":-0.43199529758424643,"41":-0.12393028337906796,"42":0.030966141842296877,"43":0.03056119222007824,"44":-0.035745713102618384,"45":-0.47137851585562707,"46":-0.0010245649601100528,"47":-0.5246926051418039,"48":-0.4357937017474943,"49":-0.3157690801360861,"50":0.02911513758173153,"51":0.019980660411278616,"52":-0.5009436073376574,"53":0.007892218320739953,"54":-0.30700543304038425,"55":-0.3033485772404387,"56":-0.258677945271659,"57":-0.29413887736189553,"58":-0.43722186353638703,"59":-0.26501731938213435}},"2":{"bias":-0.4700949176169774,"weights":{"0":-0.606900947124108,"1":-0.362443444663399,"2":-0.03671973651638492,"3":-0.46244997005096583,"4":-0.39916527020037984,"5":-0.43179240107520217,"6":-0.39132714990107814,"7":-0.16661303594674287,"8":-0.13653183689657067,"9":-0.2130323296713442,"10":-0.3545719227102552,"11":-0.47946068130174097,"12":-0.1581120880499557,"13":-0.17560835030929942,"14":-0.2723034495074953,"15":-0.04861506212673715,"16":-0.3088864434778609,"17":-0.6791741035652488,"18":-0.16730318066925165,"19":-0.535729192475638,"20":-0.07773408319544499,"21":-0.12397697260115337,"22":-0.6479123263250138,"23":-0.06175691908586588,"24":0.030707000910772386,"25":-0.3151196900159762,"26":-0.45462619538862764,"27":-0.030507377067283126,"28":-0.4104432828554662,"29":-0.14964725401282672,"30":-0.07376944547305968,"31":-0.36690054406147693,"32":-0.313605971087345,"33":-0.4227254391166,"34":-0.13023479136799268,"35":-0.009119296248513658,"36":-0.27308691424930337,"37":-0.2608324264239885,"38":-0.3366534009408286,"39":-0.45069277285679843,"40":-0.3847728097647677,"41":-0.021240880666229242,"42":-0.17628013019255673,"43":-0.2945164514246286,"44":-0.31923085372140114,"45":-0.2217073960283169,"46":-0.3517281919137606,"47":-0.3734031189973164,"48":-0.5460810746552643,"49":0.006636252867359942,"50":-0.21760545766631736,"51":-0.05682812866784887,"52":-0.38657666757019365,"53":-0.0802896474424412,"54":-0.21018830231723515,"55":-0.1710629688562274,"56":-0.2210677273569377,"57":0.0044645697996402115,"58":-0.1634193804246136,"59":0.004464800065732761}},"3":{"bias":-0.7807989903215087,"weights":{"0":-0.7002891318116363,"1":-0.16885908191471605,"2":-0.09399964408777352,"3":-0.5505847918520643,"4":-0.2670300231285327,"5":-0.2659775906431791,"6":-0.23765528970705185,"7":-0.1743307074039932,"8":-0.21321687159855746,"9":0.015426822430290197,"10":-0.40638223266830575,"11":-0.3572642282109187,"12":0.0751015343852174,"13":-0.35376963700231673,"14":-0.07118148351301277,"15":-0.008632751432517134,"16":-0.3319054393485087,"17":-0.4481489078955506,"18":-0.16740912337150443,"19":-0.486696709254982,"20":-0.2543969243694026,"21":0.018871205765674078,"22":-0.19436284193379064,"23":-0.03126049709780293,"24":0.010876825136734799,"25":-0.07676547019293872,"26":-0.046548833832153774,"27":-0.2127148108563266,"28":-0.19243302255435074,"29":-0.30359148454694795,"30":-0.23820946778057103,"31":-0.1802070504097843,"32":-0.30951385394756936,"33":-0.1258702879507275,"34":-0.012838402768997005,"35":-0.14029779981062604,"36":-0.2825447768907807,"37":-0.2606693222334022,"38":-0.35612442796059735,"39":-0.21554263865863627,"40":-0.5766509748683538,"41":-0.2823615324448075,"42":-0.2924025090857349,"43":-0.023379944921732447,"44":-0.3282942376872294,"45":-0.5063217539835602,"46":-0.0785410727153161,"47":-0.5208254153697306,"48":-0.3619736877533202,"49":-0.2715461268096816,"50":-0.03299977213288505,"51":-0.2691166125276354,"52":-0.5001847547975544,"53":-0.273054857813127,"54":0.09547969853757031,"55":-0.45353627185833223,"56":-0.3213847807826415,"57":-0.17217127368360743,"58":-0.43747746057788417,"59":-0.21165897223974645}},"4":{"bias":-0.7610470693586664,"weights":{"0":-0.6721390357633482,"1":-0.252021579716567,"2":-0.15567634095278918,"3":-0.5422287513774758,"4":-0.015553128433049441,"5":-0.4508458071323427,"6":-0.4840379608665917,"7":-0.3045196745534348,"8":-0.3146470479287612,"9":-0.2529690965696143,"10":-0.544088510734424,"11":-0.34138026210027,"12":-0.1749739668579215,"13":-0.038794420090972496,"14":-0.21732332021426418,"15":-0.12311929353787672,"16":-0.15960229158875733,"17":-0.46576653081249725,"18":-0.3587837906460026,"19":-0.36772091252223854,"20":-0.3067858608500014,"21":0.014880114417826327,"22":-0.5841731219084567,"23":-0.03304708139951947,"24":0.08282939015424687,"25":-0.015946748616094217,"26":-0.20966446300561345,"27":-0.0701343249125395,"28":-0.03413479585917695,"29":-0.11339687036681052,"30":-0.09541907090641394,"31":-0.04943702756044877,"32":-0.2713338250386279,"33":-0.29729347533545436,"34":-0.2826456772607407,"35":0.06499042093615205,"36":-0.19650348130150708,"37":-0.08160393247179128,"38":-0.6657677877306024,"39":-0.4179516254505061,"40":-0.4289560587267951,"41":0.041471564504555344,"42":-0.3427847686327626,"43":0.04093742059418904,"44":-0.20095082250472474,"45":-0.20930573317218343,"46":-0.06725694991465693,"47":-0.3374942090656464,"48":-0.5546846418201512,"49":-0.16091788118992797,"50":-0.08978367685080561,"51":-0.3139958339252436,"52":-0.34359647102521074,"53":-0.07670570559452648,"54":-0.10297589261023819,"55":-0.4475156130686111,"56":-0.03508191234306155,"57":0.008562427742697169,"58":-0.3685738231898316,"59":0.04046053655555763}},"5":{"bias":-0.6039917054824013,"weights":{"0":-0.80691910633706,"1":-0.32746142108925147,"2":-0.1582594842006739,"3":-0.7137220245273072,"4":-0.1636900007251703,"5":-0.12199640217106619,"6":-0.4033494458136573,"7":-0.15064879720313867,"8":-0.15412070360051533,"9":-0.2250246823807821,"10":-0.549238829820788,"11":-0.24611617930537413,"12":0.0885277259382111,"13":-0.23080750268919878,"14":-0.3974329359350147,"15":-0.07372426707016613,"16":-0.18224586476047422,"17":-0.49575322942624805,"18":-0.2106620555782646,"19":-0.27675004849722307,"20":0.0012212850255643938,"21":-0.15324616124563456,"22":-0.4529927608884534,"23":-0.09192966740280482,"24":0.12069694864413227,"25":-0.0938454757977855,"26":-0.13811417061200698,"27":-0.16289739536969938,"28":-0.31376234186537,"29":0.030143549336349384,"30":-0.26017246507395925,"31":-0.37554389755595546,"32":-0.5187854174469703,"33":-0.37781901311483707,"34":-0.05977437830556638,"35":-0.02200007316070957,"36":-0.19497919923863852,"37":-0.21381093410898508,"38":-0.4148696099631862,"39":-0.37312004043061964,"40":-0.2542544813996224,"41":0.053525867278069135,"42":-0.25158189647517404,"43":0.04447762883815751,"44":-0.26244200944022744,"45":-0.5088689645660929,"46":-0.3171208125384646,"47":-0.5003552146482584,"48":-0.23866204857313206,"49":-0.14080434905176933,"50":-0.19160551752326815,"51":-0.19572158202699802,"52":-0.29868801373106046,"53":-0.010462858726090091,"54":0.011566517398356554,"55":-0.25692888679299125,"56":-0.347047784765195,"57":-0.1470282160063386,"58":-0.47554500465962635,"59":-0.26518179392018953}},"6":{"bias":-0.560847479869901,"weights":{"0":-0.47218403207199994,"1":-0.16879347756450258,"2":-0.005699470626679172,"3":-0.42799045034317723,"4":-0.32918125290034916,"5":-0.20377665750690369,"6":-0.4832185790882239,"7":-0.2283555516997797,"8":-0.1901805152765575,"9":-0.015615787655188338,"10":-0.6473903677509104,"11":-0.2692077211891753,"12":-0.16653568454064546,"13":-0.07115091311488103,"14":-0.180572173974622,"15":-0.41846009181333516,"16":-0.17733733611918115,"17":-0.3995988245581638,"18":-0.07706148614199627,"19":-0.36369302737306847,"20":-0.2239719672759934,"21":-0.3558101353469879,"22":-0.4133939654466879,"23":-0.37721957416833507,"24":-0.02980328882244793,"25":-0.05145262462871326,"26":-0.3888878099574786,"27":-0.038394764033485816,"28":-0.33933054213655156,"29":-0.13249629256042061,"30":-0.3334600478826077,"31":-0.26447973817941606,"32":-0.3076006398629868,"33":-0.30725073408454223,"34":-0.1630337982391554,"35":-0.15468072619500567,"36":-0.10429136787896284,"37":0.0172032273442137,"38":-0.3332588317004837,"39":-0.3861024897086287,"40":-0.5486646349132305,"41":-0.05579457071589982,"42":-0.16098832550272335,"43":-0.21851137126872944,"44":-0.2863101589929101,"45":-0.48378632724460086,"46":-0.3338553560736836,"47":-0.38856754712326225,"48":-0.5638816954814048,"49":-0.2754600621788356,"50":-0.1593718078483397,"51":-0.04628851810348674,"52":-0.4567049602101024,"53":-0.053512147076685945,"54":-0.04118934998987197,"55":-0.302768001333334,"56":-0.21060673042349468,"57":-0.34398160651464027,"58":-0.40665840342818055,"59":-0.18231573670833554}},"7":{"bias":-0.7498653280413117,"weights":{"0":-0.5299261638012395,"1":0.011082679444955792,"2":-0.04795116036391005,"3":-0.670068345106706,"4":-0.22006538338075446,"5":-0.1299977495197183,"6":-0.4197577457883138,"7":-0.01687337587259238,"8":-0.23999953408599442,"9":-0.19475539051441093,"10":-0.6217273262357406,"11":-0.46164321525605984,"12":-0.10502353658388139,"13":-0.09611242032006607,"14":-0.327350732192263,"15":-0.34565611277849606,"16":-0.17728130559919475,"17":-0.4216292065646946,"18":0.010584061074882058,"19":-0.4016350413411422,"20":-0.11657405198721188,"21":0.0075166175276546515,"22":-0.34205783323736516,"23":-0.26669658543203095,"24":-0.2593149187520059,"25":-0.15583378263621034,"26":-0.1771109016659955,"27":-0.0879648878144453,"28":-0.29736595993408665,"29":-0.0800195957343413,"30":-0.05699719994458413,"31":-0.28715444659024897,"32":-0.4700007820766,"33":-0.1921504112888571,"34":-0.36294596939193285,"35":0.17243695169381873,"36":-0.4077082006026798,"37":0.011986672727220853,"38":-0.5696188983496905,"39":-0.18451852928477408,"40":-0.2892689134693224,"41":-0.20225865705045631,"42":-0.16261773596393722,"43":0.10617690979593404,"44":-0.3465260245144354,"45":-0.36626621069811843,"46":-0.22725826357548443,"47":-0.4790619843942418,"48":-0.42985142502095114,"49":-0.03943748552715447,"50":0.052791352216875434,"51":-0.08193691869859727,"52":-0.4698179263681401,"53":-0.2587210564099454,"54":0.07262406921624294,"55":-0.3623360794924039,"56":-0.11295627206725617,